frame,NOSE.x,NOSE.y,NOSE.z,NOSE.v,LEFT_EYE_INNER.x,LEFT_EYE_INNER.y,LEFT_EYE_INNER.z,LEFT_EYE_INNER.v,LEFT_EYE.x,LEFT_EYE.y,LEFT_EYE.z,LEFT_EYE.v,LEFT_EYE_OUTER.x,LEFT_EYE_OUTER.y,LEFT_EYE_OUTER.z,LEFT_EYE_OUTER.v,RIGHT_EYE_INNER.x,RIGHT_EYE_INNER.y,RIGHT_EYE_INNER.z,RIGHT_EYE_INNER.v,RIGHT_EYE.x,RIGHT_EYE.y,RIGHT_EYE.z,RIGHT_EYE.v,RIGHT_EYE_OUTER.x,RIGHT_EYE_OUTER.y,RIGHT_EYE_OUTER.z,RIGHT_EYE_OUTER.v,LEFT_EAR.x,LEFT_EAR.y,LEFT_EAR.z,LEFT_EAR.v,RIGHT_EAR.x,RIGHT_EAR.y,RIGHT_EAR.z,RIGHT_EAR.v,MOUTH_LEFT.x,MOUTH_LEFT.y,MOUTH_LEFT.z,MOUTH_LEFT.v,MOUTH_RIGHT.x,MOUTH_RIGHT.y,MOUTH_RIGHT.z,MOUTH_RIGHT.v,LEFT_SHOULDER.x,LEFT_SHOULDER.y,LEFT_SHOULDER.z,LEFT_SHOULDER.v,RIGHT_SHOULDER.x,RIGHT_SHOULDER.y,RIGHT_SHOULDER.z,RIGHT_SHOULDER.v,LEFT_ELBOW.x,LEFT_ELBOW.y,LEFT_ELBOW.z,LEFT_ELBOW.v,RIGHT_ELBOW.x,RIGHT_ELBOW.y,RIGHT_ELBOW.z,RIGHT_ELBOW.v,LEFT_WRIST.x,LEFT_WRIST.y,LEFT_WRIST.z,LEFT_WRIST.v,RIGHT_WRIST.x,RIGHT_WRIST.y,RIGHT_WRIST.z,RIGHT_WRIST.v,LEFT_PINKY.x,LEFT_PINKY.y,LEFT_PINKY.z,LEFT_PINKY.v,RIGHT_PINKY.x,RIGHT_PINKY.y,RIGHT_PINKY.z,RIGHT_PINKY.v,LEFT_INDEX.x,LEFT_INDEX.y,LEFT_INDEX.z,LEFT_INDEX.v,RIGHT_INDEX.x,RIGHT_INDEX.y,RIGHT_INDEX.z,RIGHT_INDEX.v,LEFT_THUMB.x,LEFT_THUMB.y,LEFT_THUMB.z,LEFT_THUMB.v,RIGHT_THUMB.x,RIGHT_THUMB.y,RIGHT_THUMB.z,RIGHT_THUMB.v,LEFT_HIP.x,LEFT_HIP.y,LEFT_HIP.z,LEFT_HIP.v,RIGHT_HIP.x,RIGHT_HIP.y,RIGHT_HIP.z,RIGHT_HIP.v,LEFT_KNEE.x,LEFT_KNEE.y,LEFT_KNEE.z,LEFT_KNEE.v,RIGHT_KNEE.x,RIGHT_KNEE.y,RIGHT_KNEE.z,RIGHT_KNEE.v,LEFT_ANKLE.x,LEFT_ANKLE.y,LEFT_ANKLE.z,LEFT_ANKLE.v,RIGHT_ANKLE.x,RIGHT_ANKLE.y,RIGHT_ANKLE.z,RIGHT_ANKLE.v,LEFT_HEEL.x,LEFT_HEEL.y,LEFT_HEEL.z,LEFT_HEEL.v,RIGHT_HEEL.x,RIGHT_HEEL.y,RIGHT_HEEL.z,RIGHT_HEEL.v,LEFT_FOOT_INDEX.x,LEFT_FOOT_INDEX.y,LEFT_FOOT_INDEX.z,LEFT_FOOT_INDEX.v,RIGHT_FOOT_INDEX.x,RIGHT_FOOT_INDEX.y,RIGHT_FOOT_INDEX.z,RIGHT_FOOT_INDEX.v
0,0.5125762224197388,0.27541017532348633,-0.3762644827365875,0.9999871253967285,0.5192569494247437,0.26465198397636414,-0.3593195080757141,0.9999786615371704,0.5227578282356262,0.26475322246551514,-0.3593202531337738,0.9999730587005615,0.52607661485672,0.264986515045166,-0.3593597114086151,0.9999706745147705,0.5099443793296814,0.2645202577114105,-0.355336993932724,0.9999805688858032,0.5071725845336914,0.2644726037979126,-0.35541754961013794,0.9999797344207764,0.5045226812362671,0.26447156071662903,-0.3554474413394928,0.9999797344207764,0.5326089859008789,0.271931916475296,-0.2411605417728424,0.999956488609314,0.5032795667648315,0.2709810137748718,-0.22185321152210236,0.9999644756317139,0.5200635194778442,0.2887788414955139,-0.3310677707195282,0.9999909400939941,0.5077612400054932,0.2884296178817749,-0.3257771134376526,0.9999886751174927,0.5684236884117126,0.3484833836555481,-0.17230182886123657,0.9999279975891113,0.47193223237991333,0.34898194670677185,-0.1417955458164215,0.9999642372131348,0.5907664895057678,0.4366607069969177,-0.2787882685661316,0.9922845363616943,0.444608598947525,0.4293515086174011,-0.24019071459770203,0.9950643181800842,0.5447441935539246,0.4533737599849701,-0.49938368797302246,0.9531270265579224,0.4848972260951996,0.4570525586605072,-0.44794052839279175,0.98017817735672,0.5338615775108337,0.4643634855747223,-0.5559239983558655,0.9001866579055786,0.4960406422615051,0.466435045003891,-0.4949142336845398,0.9539214968681335,0.529444694519043,0.4470570385456085,-0.556907057762146,0.9015119075775146,0.5008708238601685,0.4521368741989136,-0.49938130378723145,0.9503927230834961,0.5323259234428406,0.4434848427772522,-0.5039697289466858,0.8421424031257629,0.49842435121536255,0.4486662745475769,-0.45316773653030396,0.9168272614479065,0.5463954210281372,0.5212339162826538,-0.01898014545440674,0.9999475479125977,0.49131274223327637,0.5215209722518921,0.018879223614931107,0.9998860359191895,0.5600208640098572,0.6369977593421936,-0.23305852711200714,0.9972745776176453,0.47583526372909546,0.6365970969200134,0.07123970985412598,0.9930021166801453,0.5678539872169495,0.7673910856246948,-0.07601805031299591,0.9966146349906921,0.47024598717689514,0.7578691244125366,0.3089568018913269,0.9908086657524109,0.5638670325279236,0.7868977785110474,-0.06775633245706558,0.9626482129096985,0.47815924882888794,0.7728734612464905,0.3253938555717468,0.9278148412704468,0.5764885544776917,0.8071597814559937,-0.22312021255493164,0.9934216141700745,0.4519878029823303,0.8028136491775513,0.1987210214138031,0.9835010766983032
1,0.5127056837081909,0.2766605615615845,-0.3694707155227661,0.999986469745636,0.5192559361457825,0.26555928587913513,-0.3519606590270996,0.9999773502349854,0.5227566361427307,0.26567542552948,-0.3519744873046875,0.9999719262123108,0.526076078414917,0.26591455936431885,-0.3520098626613617,0.9999693632125854,0.5099867582321167,0.2655468285083771,-0.3488294184207916,0.9999796748161316,0.5072437524795532,0.26559996604919434,-0.3489086627960205,0.9999789595603943,0.5046315789222717,0.2657133638858795,-0.3489293158054352,0.9999788403511047,0.5325475335121155,0.2728669047355652,-0.23622913658618927,0.9999542236328125,0.5034410953521729,0.2723907232284546,-0.22005972266197205,0.9999634027481079,0.5203731656074524,0.290301114320755,-0.3256535530090332,0.99998939037323,0.5079566240310669,0.290044903755188,-0.3213418424129486,0.9999872446060181,0.5685064196586609,0.34997865557670593,-0.17182205617427826,0.9999200701713562,0.47218289971351624,0.35030826926231384,-0.1383209377527237,0.9999611377716064,0.5905815362930298,0.4374956488609314,-0.2732594311237335,0.9920837879180908,0.44532790780067444,0.43337470293045044,-0.22847528755664825,0.9944904446601868,0.5445504188537598,0.4543503522872925,-0.47959810495376587,0.9531527161598206,0.48324674367904663,0.4575844705104828,-0.43744754791259766,0.9792923331260681,0.5326666831970215,0.46444815397262573,-0.5330308675765991,0.9006131291389465,0.49385085701942444,0.4666725695133209,-0.4845367968082428,0.9525272250175476,0.5289725661277771,0.4474664032459259,-0.5373811721801758,0.9018717408180237,0.4980037808418274,0.45287513732910156,-0.4921475350856781,0.9490059018135071,0.5318432450294495,0.44411930441856384,-0.4854001998901367,0.8431726098060608,0.4958168566226959,0.4493170976638794,-0.44446736574172974,0.9155759215354919,0.5466123819351196,0.5212223529815674,-0.01905938796699047,0.9999322891235352,0.4919132590293884,0.5216274857521057,0.01896541565656662,0.9998779296875,0.5612937808036804,0.6378668546676636,-0.13344508409500122,0.9972010850906372,0.4758293628692627,0.6346593499183655,0.035235852003097534,0.993104100227356,0.5687848329544067,0.768246054649353,-0.004358071368187666,0.9965894222259521,0.47107309103012085,0.7585869431495667,0.2057921439409256,0.991175651550293,0.5638736486434937,0.7886837720870972,-6.687709537800401e-05,0.9625890254974365,0.47937971353530884,0.7746761441230774,0.21466247737407684,0.9302175045013428,0.5773431658744812,0.8072240352630615,-0.14236721396446228,0.9933109283447266,0.44966569542884827,0.8028504848480225,0.09327273070812225,0.983967661857605
2,0.5128470063209534,0.27920499444007874,-0.36405158042907715,0.999985933303833,0.519252598285675,0.2683301568031311,-0.3452714681625366,0.9999765753746033,0.522753119468689,0.26844504475593567,-0.34528306126594543,0.9999711513519287,0.5260697603225708,0.26865971088409424,-0.3453153669834137,0.9999687075614929,0.5100858211517334,0.2683834433555603,-0.34283775091171265,0.9999793171882629,0.5073984861373901,0.2685192823410034,-0.3429121971130371,0.9999786615371704,0.5048753023147583,0.26872768998146057,-0.34292346239089966,0.9999785423278809,0.5324938297271729,0.275551438331604,-0.22930243611335754,0.9999529719352722,0.5038643479347229,0.27588340640068054,-0.21627983450889587,0.999963104724884,0.5206459760665894,0.2931188941001892,-0.32083672285079956,0.9999878406524658,0.5083889961242676,0.2925877571105957,-0.31726497411727905,0.9999856352806091,0.5684328675270081,0.3555412292480469,-0.1708841472864151,0.9999039173126221,0.47255492210388184,0.3571884334087372,-0.13850915431976318,0.9999551773071289,0.5905524492263794,0.4394147992134094,-0.27556875348091125,0.991431474685669,0.4463769495487213,0.43868064880371094,-0.24129009246826172,0.9939970374107361,0.5449353456497192,0.4557972550392151,-0.4825747609138489,0.9487584233283997,0.48328471183776855,0.45910102128982544,-0.4484180808067322,0.9774807691574097,0.5332649946212769,0.46515506505966187,-0.5357531309127808,0.8934682011604309,0.4938682019710541,0.46675148606300354,-0.4942360818386078,0.949013888835907,0.5291089415550232,0.45004841685295105,-0.5384728908538818,0.8946855068206787,0.4979546070098877,0.45524710416793823,-0.5008399486541748,0.9452765583992004,0.5319104194641113,0.44683733582496643,-0.48805445432662964,0.834247350692749,0.4955773949623108,0.4525308310985565,-0.45528221130371094,0.9109755158424377,0.5466996431350708,0.523546040058136,-0.01924859546124935,0.9999180436134338,0.49233850836753845,0.525117814540863,0.01916414313018322,0.9998660683631897,0.5617624521255493,0.6398018598556519,-0.17221811413764954,0.9971694350242615,0.47442159056663513,0.6346637010574341,0.02199370786547661,0.9931909441947937,0.5695908665657043,0.7693040370941162,-0.04137193411588669,0.9966155886650085,0.4711971879005432,0.759909451007843,0.18353909254074097,0.9914541840553284,0.5639803409576416,0.7903931140899658,-0.047657229006290436,0.9631370902061462,0.4796787202358246,0.7765874862670898,0.19118355214595795,0.9327595829963684,0.5779126882553101,0.8067838549613953,-0.18705648183822632,0.9932551980018616,0.44885388016700745,0.8023663759231567,0.0702878087759018,0.9842941761016846
3,0.5129773616790771,0.2817436456680298,-0.39027729630470276,0.9999860525131226,0.5193407535552979,0.2710389196872711,-0.3704466223716736,0.9999767541885376,0.5228278636932373,0.27116692066192627,-0.37045323848724365,0.9999715089797974,0.5261244773864746,0.2714247405529022,-0.3704843521118164,0.9999691843986511,0.5103151798248291,0.27127498388290405,-0.36829450726509094,0.9999797940254211,0.507670521736145,0.2715436518192291,-0.36838045716285706,0.9999791979789734,0.5051858425140381,0.27187177538871765,-0.3684014081954956,0.9999791979789734,0.5324920415878296,0.27871429920196533,-0.2510433495044708,0.9999532699584961,0.5043147206306458,0.27943530678749084,-0.2389925718307495,0.9999645352363586,0.5207909345626831,0.2956201136112213,-0.3461684584617615,0.9999873638153076,0.5085551738739014,0.29521358013153076,-0.34283289313316345,0.99998539686203,0.5682921409606934,0.3593631088733673,-0.1901603490114212,0.9998934268951416,0.4725002348423004,0.36232510209083557,-0.15932562947273254,0.9999538660049438,0.590400218963623,0.4401482939720154,-0.3058282732963562,0.9909456372261047,0.4472397267818451,0.4446949362754822,-0.26401668787002563,0.99371337890625,0.5451346039772034,0.458802729845047,-0.518570065498352,0.9444535374641418,0.48243093490600586,0.46516555547714233,-0.4741252064704895,0.9763813614845276,0.5331600308418274,0.468266099691391,-0.5728474259376526,0.8868477940559387,0.4932277202606201,0.472199946641922,-0.5215290188789368,0.9470022320747375,0.5287399291992188,0.4533533751964569,-0.5752015113830566,0.8879401087760925,0.4968346655368805,0.4608842730522156,-0.5286120176315308,0.9430833458900452,0.5315028429031372,0.4498205780982971,-0.5244192481040955,0.825266420841217,0.4942939281463623,0.45791372656822205,-0.4813222885131836,0.9081680178642273,0.5466387867927551,0.5236634612083435,-0.019257904961705208,0.999907374382019,0.4923504889011383,0.5257073044776917,0.0191732756793499,0.9998618960380554,0.5621795058250427,0.6397650837898254,-0.17460045218467712,0.9971063733100891,0.47254371643066406,0.6341660618782043,-0.005521619226783514,0.9932804107666016,0.5704814791679382,0.7699202299118042,-0.05757211521267891,0.9966392517089844,0.4714554250240326,0.759987473487854,0.15817798674106598,0.9916847348213196,0.5652080774307251,0.7915337681770325,-0.06240018084645271,0.963424563407898,0.4799808859825134,0.7769290804862976,0.16586825251579285,0.9346413016319275,0.5795456171035767,0.8049144148826599,-0.21307221055030823,0.9932131171226501,0.4489666819572449,0.802406370639801,0.03898769989609718,0.9845789670944214
4,0.5131326913833618,0.2872632145881653,-0.3650636076927185,0.9999855756759644,0.5194290280342102,0.27662113308906555,-0.34348079562187195,0.9999752044677734,0.522882878780365,0.27684634923934937,-0.3434835970401764,0.9999701976776123,0.5261511206626892,0.2771901488304138,-0.3435363173484802,0.9999678730964661,0.5106746554374695,0.27665001153945923,-0.34177178144454956,0.9999785423278809,0.5081138610839844,0.27684977650642395,-0.3418594300746918,0.9999783039093018,0.5056923627853394,0.277166485786438,-0.34188708662986755,0.9999784827232361,0.5324912071228027,0.284831166267395,-0.22287359833717346,0.9999526143074036,0.5048549175262451,0.28528931736946106,-0.21302619576454163,0.9999646544456482,0.5208743810653687,0.3015294671058655,-0.32064738869667053,0.9999867081642151,0.5087601542472839,0.3007940948009491,-0.31814274191856384,0.9999849200248718,0.5678664445877075,0.3642853796482086,-0.17091181874275208,0.999891459941864,0.47251564264297485,0.3677569031715393,-0.13552150130271912,0.9999500513076782,0.5904200077056885,0.4466465711593628,-0.2762409746646881,0.9910133481025696,0.4472074508666992,0.44996753334999084,-0.241889089345932,0.993236243724823,0.5451334118843079,0.4628719985485077,-0.46831926703453064,0.945500910282135,0.4824545383453369,0.4682416617870331,-0.44908779859542847,0.9755382537841797,0.532438337802887,0.4717514216899872,-0.5190598964691162,0.888713002204895,0.49370989203453064,0.47441381216049194,-0.49835634231567383,0.9456733465194702,0.5278292298316956,0.45660021901130676,-0.52040696144104,0.889652669429779,0.4969729483127594,0.4620015025138855,-0.5003951787948608,0.9416478872299194,0.5307556390762329,0.4529842436313629,-0.4727610647678375,0.8274389505386353,0.4944833219051361,0.45895862579345703,-0.45486584305763245,0.906463086605072,0.5469312071800232,0.5289885401725769,-0.01898900605738163,0.999893307685852,0.49271267652511597,0.5320723056793213,0.018898719921708107,0.9998605847358704,0.5646610260009766,0.6418303847312927,-0.2118556946516037,0.9970853924751282,0.46738162636756897,0.6368640065193176,-0.1440984010696411,0.993678867816925,0.5717582106590271,0.7699518203735352,-0.034229449927806854,0.9965887665748596,0.4723411500453949,0.7599666118621826,0.04533417150378227,0.9921895265579224,0.5664588212966919,0.7901630997657776,-0.025363773107528687,0.9623270630836487,0.4820231795310974,0.77620929479599,0.0560859739780426,0.9378367066383362,0.5809317827224731,0.805027186870575,-0.16906490921974182,0.9929744601249695,0.4490557312965393,0.8026264309883118,-0.07042686641216278,0.985312819480896
5,0.5133713483810425,0.2929968237876892,-0.361797034740448,0.9999852776527405,0.5197665691375732,0.2823053300380707,-0.34060367941856384,0.9999743103981018,0.5232764482498169,0.2825074791908264,-0.34060096740722656,0.999969482421875,0.5265151262283325,0.2828635573387146,-0.3406516909599304,0.9999671578407288,0.510787844657898,0.282265841960907,-0.3388875722885132,0.9999775290489197,0.5081647634506226,0.2823418974876404,-0.33897846937179565,0.9999776482582092,0.5056988000869751,0.2825753390789032,-0.33899837732315063,0.9999778866767883,0.5329497456550598,0.2906542122364044,-0.22063753008842468,0.9999525547027588,0.5048462748527527,0.29024967551231384,-0.21099641919136047,0.9999644160270691,0.521240234375,0.30654728412628174,-0.31765463948249817,0.9999862909317017,0.5088168382644653,0.30513399839401245,-0.3152165710926056,0.9999845027923584,0.567482054233551,0.3712104260921478,-0.16316400468349457,0.9998883008956909,0.4725712239742279,0.3719501495361328,-0.13503584265708923,0.9999450445175171,0.5894013047218323,0.4548930823802948,-0.25906890630722046,0.9910668134689331,0.4473613202571869,0.45398586988449097,-0.2356157749891281,0.9927597641944885,0.5451250076293945,0.4678484797477722,-0.4508252739906311,0.9457263946533203,0.48303118348121643,0.4727667570114136,-0.4403626322746277,0.9737327098846436,0.5323505401611328,0.47498252987861633,-0.5001111626625061,0.8884694576263428,0.4937268793582916,0.4775944650173187,-0.48802557587623596,0.942428469657898,0.5277674794197083,0.45999446511268616,-0.5015647411346436,0.889336884021759,0.4971234202384949,0.46572330594062805,-0.4908156991004944,0.9382627010345459,0.5306397080421448,0.45657315850257874,-0.4551035761833191,0.827106773853302,0.4946369230747223,0.46311819553375244,-0.44603538513183594,0.9022398591041565,0.5470010638237,0.5329585075378418,-0.014522291719913483,0.9998843669891357,0.49275684356689453,0.5363737940788269,0.014417367056012154,0.9998587369918823,0.5670595169067383,0.6420575976371765,-0.2225983887910843,0.997096836566925,0.4660649299621582,0.6411941051483154,-0.13869450986385345,0.9940076470375061,0.571763813495636,0.7690268754959106,-0.025368209928274155,0.9965452551841736,0.47232571244239807,0.7599584460258484,0.052005864679813385,0.9925920367240906,0.5663918852806091,0.7860096096992493,-0.013731827028095722,0.9618338346481323,0.48199647665023804,0.7753934860229492,0.06287883222103119,0.9399189949035645,0.5821272134780884,0.8050739765167236,-0.1554981768131256,0.9927101731300354,0.4490428864955902,0.8026870489120483,-0.06549982726573944,0.985765814781189
6,0.5138408541679382,0.30126193165779114,-0.362072616815567,0.9999854564666748,0.5203813314437866,0.29044196009635925,-0.34017348289489746,0.9999735951423645,0.5237735509872437,0.29060718417167664,-0.34016138315200806,0.9999691843986511,0.5269272923469543,0.29089754819869995,-0.34021133184432983,0.9999668002128601,0.5114265084266663,0.2904873192310333,-0.3384799063205719,0.999976634979248,0.5087440609931946,0.2906314730644226,-0.33857277035713196,0.9999772906303406,0.5062326192855835,0.2908991873264313,-0.3385973274707794,0.9999775290489197,0.5331549048423767,0.29866674542427063,-0.21910734474658966,0.999952495098114,0.5052151083946228,0.29840797185897827,-0.20994189381599426,0.9999646544456482,0.5214647650718689,0.3145810663700104,-0.3179064393043518,0.9999864101409912,0.5090116858482361,0.3137015104293823,-0.31545209884643555,0.9999847412109375,0.5673065185546875,0.3807925879955292,-0.16019591689109802,0.9998894929885864,0.4731212556362152,0.3787314295768738,-0.13579614460468292,0.9999412298202515,0.5877434015274048,0.46714213490486145,-0.2558479905128479,0.9913153648376465,0.4475071430206299,0.4624357521533966,-0.23551861941814423,0.9924376010894775,0.5445238351821899,0.4757086932659149,-0.44402581453323364,0.9479127526283264,0.4831605553627014,0.47577229142189026,-0.4373897910118103,0.9727413654327393,0.5315688252449036,0.479777067899704,-0.49140748381614685,0.8919273614883423,0.4940575063228607,0.4806041717529297,-0.4854842722415924,0.9405096769332886,0.527664303779602,0.4644198417663574,-0.4900137484073639,0.8926438689231873,0.49760302901268005,0.46817031502723694,-0.4854355454444885,0.9360033273696899,0.530497670173645,0.46131056547164917,-0.44672679901123047,0.8308362364768982,0.4951472878456116,0.46540170907974243,-0.4418049454689026,0.8983829617500305,0.5470016002655029,0.5373085737228394,-0.00959005393087864,0.9998764991760254,0.4927458167076111,0.5400180816650391,0.009458586573600769,0.9998597502708435,0.5697803497314453,0.6425386071205139,-0.25681453943252563,0.997107744216919,0.4638632833957672,0.6418123245239258,-0.22022274136543274,0.9943974614143372,0.5720484852790833,0.7680007815361023,-0.020831841975450516,0.9964851140975952,0.47144049406051636,0.758882462978363,0.016137415543198586,0.9930199980735779,0.5665448904037476,0.7829069495201111,-0.005256963893771172,0.9598374962806702,0.4811190962791443,0.7727215886116028,0.031659871339797974,0.9413406252861023,0.5825874209403992,0.8051698803901672,-0.1486075520515442,0.9923757314682007,0.44884127378463745,0.8034225702285767,-0.10039450973272324,0.9863196611404419
7,0.5174412727355957,0.31773674488067627,-0.3646526634693146,0.9999855756759644,0.5229762196540833,0.3076425790786743,-0.34246593713760376,0.9999725222587585,0.5260946154594421,0.308072030544281,-0.3424643278121948,0.9999684691429138,0.5290652513504028,0.30856695771217346,-0.3425104022026062,0.9999657869338989,0.5142618417739868,0.30751654505729675,-0.34040141105651855,0.9999757409095764,0.5115894675254822,0.30790963768959045,-0.34050452709198,0.9999768733978271,0.5090550184249878,0.30849334597587585,-0.34053128957748413,0.9999772310256958,0.5334539413452148,0.3169938325881958,-0.22223885357379913,0.9999504685401917,0.5064465403556824,0.3172380030155182,-0.22256068885326385,0.999965250492096,0.5242022275924683,0.3317663371562958,-0.3211669921875,0.9999864101409912,0.5124318599700928,0.33219030499458313,-0.3230453133583069,0.9999851584434509,0.566577136516571,0.396616667509079,-0.16221877932548523,0.9998897314071655,0.47311830520629883,0.39823904633522034,-0.15729592740535736,0.9999377131462097,0.5877853631973267,0.48174989223480225,-0.2606612741947174,0.9915881156921387,0.44748058915138245,0.47973302006721497,-0.2590787708759308,0.9925424456596375,0.5447370409965515,0.4860142469406128,-0.45691388845443726,0.9503870606422424,0.48387613892555237,0.4861491620540619,-0.4422551989555359,0.9731379151344299,0.5314794778823853,0.4878729283809662,-0.5044577717781067,0.8958000540733337,0.4950236678123474,0.48820960521698,-0.4886249601840973,0.9408769607543945,0.5276737809181213,0.4721614420413971,-0.49870800971984863,0.8960645198822021,0.4982531666755676,0.47435271739959717,-0.48817992210388184,0.935950756072998,0.5305057764053345,0.46963703632354736,-0.4585808217525482,0.8342458605766296,0.49577346444129944,0.47234198451042175,-0.4423089921474457,0.8968726396560669,0.5470719337463379,0.5468999743461609,-0.0031355642713606358,0.9998675584793091,0.4925183653831482,0.5482827425003052,0.0030134750995785,0.9998610019683838,0.5738658905029297,0.6466451287269592,-0.2686268985271454,0.9971190690994263,0.45936164259910583,0.6491395235061646,-0.2680620551109314,0.9947542548179626,0.5720697641372681,0.7652207016944885,-0.011054778471589088,0.9963788390159607,0.4706318974494934,0.7578305006027222,-0.00216933386400342,0.9934483766555786,0.5663315653800964,0.7789613604545593,0.006989032030105591,0.9583914875984192,0.47994500398635864,0.770378053188324,0.01624629646539688,0.9427891373634338,0.5835434198379517,0.8049532175064087,-0.12908080220222473,0.9920116066932678,0.4492581784725189,0.8037926554679871,-0.11433731019496918,0.9869288802146912
8,0.5172086954116821,0.32788217067718506,-0.3733990490436554,0.9999864101409912,0.5228785872459412,0.31793412566185,-0.34856492280960083,0.999973475933075,0.5260416269302368,0.3182011842727661,-0.34854263067245483,0.9999698400497437,0.5290697813034058,0.31852859258651733,-0.3485895097255707,0.9999669790267944,0.5141297578811646,0.3177894651889801,-0.34807971119880676,0.9999766945838928,0.5114685297012329,0.3179861009120941,-0.34818482398986816,0.9999780654907227,0.5089626312255859,0.3183421194553375,-0.3482076823711395,0.9999783039093018,0.5334533452987671,0.32630375027656555,-0.2259032279253006,0.9999516010284424,0.5065535306930542,0.3266070783138275,-0.22682790458202362,0.9999674558639526,0.5241495370864868,0.3422953486442566,-0.3300691246986389,0.9999870657920837,0.5123122334480286,0.34183889627456665,-0.3305463194847107,0.9999860525131226,0.5652491450309753,0.40600210428237915,-0.16314063966274261,0.999891996383667,0.4731481671333313,0.4098833501338959,-0.15939493477344513,0.9999365210533142,0.5880524516105652,0.4913789927959442,-0.2632060647010803,0.991997480392456,0.44746074080467224,0.49464911222457886,-0.25848591327667236,0.9927327036857605,0.5450475811958313,0.49367567896842957,-0.4576088488101959,0.9534273147583008,0.4888041019439697,0.4934329390525818,-0.4417247772216797,0.9738980531692505,0.5314957499504089,0.4947263300418854,-0.5030094385147095,0.900810718536377,0.49934783577919006,0.49397358298301697,-0.4876161515712738,0.9417122602462769,0.5278826951980591,0.4790858328342438,-0.495286762714386,0.9006357192993164,0.5021778345108032,0.47874030470848083,-0.4808494448661804,0.9362015128135681,0.5307703018188477,0.4771106541156769,-0.4578480124473572,0.8395271301269531,0.4992956221103668,0.47750675678253174,-0.44150644540786743,0.8954269886016846,0.5472460985183716,0.5533965229988098,-0.003051545936614275,0.9998646974563599,0.49251610040664673,0.5546944737434387,0.002950796391814947,0.9998666048049927,0.5749315023422241,0.655806839466095,-0.27465158700942993,0.9969981908798218,0.45665425062179565,0.6495855450630188,-0.283690869808197,0.9950904846191406,0.571997880935669,0.7638941407203674,-0.011485529132187366,0.9961293339729309,0.4700610041618347,0.7564833760261536,-0.013152992352843285,0.9938725829124451,0.5655384659767151,0.7781447172164917,0.007063423749059439,0.957234263420105,0.478921502828598,0.7687798738479614,0.005979025270789862,0.9450279474258423,0.5840003490447998,0.804943859577179,-0.12672536075115204,0.9914131164550781,0.44849976897239685,0.8041151762008667,-0.12329403311014175,0.9875249266624451
9,0.5170372724533081,0.33870550990104675,-0.37505990266799927,0.9999872446060181,0.5227821469306946,0.32790452241897583,-0.35135823488235474,0.9999744296073914,0.5259745121002197,0.3278661370277405,-0.351335734128952,0.9999712109565735,0.5290390253067017,0.3279262185096741,-0.35137948393821716,0.9999679327011108,0.514092206954956,0.32833680510520935,-0.3503228425979614,0.9999776482582092,0.511318564414978,0.3286144435405731,-0.3504335880279541,0.9999792575836182,0.5087326765060425,0.3290039598941803,-0.35045695304870605,0.9999793171882629,0.5337316989898682,0.3346198797225952,-0.23144476115703583,0.9999528527259827,0.5065150260925293,0.33658307790756226,-0.2275436669588089,0.9999695420265198,0.5242069959640503,0.35271960496902466,-0.3322453498840332,0.9999876618385315,0.5121577978134155,0.3527196943759918,-0.33118945360183716,0.9999869465827942,0.5652891993522644,0.4178589880466461,-0.16723394393920898,0.9998904466629028,0.4741590917110443,0.42112478613853455,-0.15636609494686127,0.9999352693557739,0.5880483388900757,0.5044592618942261,-0.26640963554382324,0.9919098019599915,0.4479549825191498,0.5056842565536499,-0.25651901960372925,0.9925058484077454,0.5439802408218384,0.4997555613517761,-0.46006742119789124,0.9546627998352051,0.4894515573978424,0.5025675892829895,-0.44712480902671814,0.9730678200721741,0.5306938886642456,0.4978385269641876,-0.5036356449127197,0.9024294018745422,0.5001820921897888,0.501503586769104,-0.49166327714920044,0.9391523003578186,0.5278564095497131,0.48291558027267456,-0.49504023790359497,0.9015377759933472,0.5022571682929993,0.4870753884315491,-0.4841270446777344,0.9322378635406494,0.5307614803314209,0.4817342162132263,-0.4598538875579834,0.8379786610603333,0.49957776069641113,0.48623380064964294,-0.4440383315086365,0.8867714405059814,0.5477279424667358,0.5622184872627258,-0.004408335778862238,0.999862551689148,0.4924868941307068,0.5629670023918152,0.004307579714804888,0.9998723864555359,0.5743739008903503,0.6549150943756104,-0.29902368783950806,0.9968514442443848,0.4555256962776184,0.6484234929084778,-0.32709676027297974,0.9953677654266357,0.5720640420913696,0.7634998559951782,-0.04062662273645401,0.9958595037460327,0.46979713439941406,0.754489004611969,-0.046891648322343826,0.9941869974136353,0.5655141472816467,0.778329074382782,-0.019597040489315987,0.9556154012680054,0.47860613465309143,0.7664290070533752,-0.026234719902276993,0.9469970464706421,0.5838083028793335,0.8049670457839966,-0.14563970267772675,0.990973949432373,0.4483400285243988,0.8041127920150757,-0.1524089127779007,0.9879725575447083
10,0.5175830125808716,0.3505536615848541,-0.40814876556396484,0.9999867081642151,0.5233647227287292,0.339891254901886,-0.38504692912101746,0.9999709129333496,0.5265994071960449,0.3400459587574005,-0.38502800464630127,0.9999684691429138,0.529667317867279,0.34023863077163696,-0.38507989048957825,0.9999626278877258,0.5143328905105591,0.3399668335914612,-0.38440996408462524,0.9999757409095764,0.5115116238594055,0.34029421210289,-0.384535551071167,0.9999784827232361,0.5088962912559509,0.3407694399356842,-0.384585440158844,0.999978244304657,0.5340320467948914,0.3470599353313446,-0.26404204964637756,0.9999450445175171,0.5065595507621765,0.3487193286418915,-0.2603607475757599,0.9999695420265198,0.5249353051185608,0.3649241328239441,-0.3644876480102539,0.9999863505363464,0.5127623677253723,0.36521705985069275,-0.36355453729629517,0.9999866485595703,0.5653548836708069,0.42848673462867737,-0.1983567774295807,0.9998558163642883,0.47426557540893555,0.4294070303440094,-0.18835461139678955,0.9999263882637024,0.5879082679748535,0.5150744915008545,-0.3051675856113434,0.9907893538475037,0.4492320120334625,0.5166587829589844,-0.30139774084091187,0.9923567771911621,0.5417082905769348,0.5079505443572998,-0.4851895868778229,0.9486477375030518,0.4912179410457611,0.5078582167625427,-0.48673683404922485,0.9714241027832031,0.5296221375465393,0.50437331199646,-0.5238128900527954,0.8911317586898804,0.5020829439163208,0.5043721199035645,-0.5302766561508179,0.934395432472229,0.5277494788169861,0.49057915806770325,-0.5094955563545227,0.8881824016571045,0.5038152933120728,0.4917090833187103,-0.516148030757904,0.9252700805664062,0.5305982828140259,0.49027952551841736,-0.4832704961299896,0.8159727454185486,0.5013779997825623,0.49179789423942566,-0.4839341640472412,0.8729057312011719,0.5491036176681519,0.5678902864456177,-0.004561207722872496,0.9998422861099243,0.4925169050693512,0.5692303776741028,0.004480442963540554,0.9998713135719299,0.5745545029640198,0.6628376841545105,-0.30529800057411194,0.9967267513275146,0.45598292350769043,0.6482080221176147,-0.3265131711959839,0.9955935478210449,0.5721347332000732,0.7635250091552734,-0.03696497157216072,0.9955793619155884,0.4687274098396301,0.7545449137687683,-0.03804497793316841,0.9945040941238403,0.565522313117981,0.7782337069511414,-0.015494461171329021,0.9540277719497681,0.47773128747940063,0.7666819095611572,-0.017174791544675827,0.9489521980285645,0.5839415788650513,0.8049654364585876,-0.15023194253444672,0.9904212355613708,0.4483737051486969,0.8045663237571716,-0.1486988365650177,0.9883918762207031
11,0.5188350677490234,0.36235707998275757,-0.44545602798461914,0.9999850988388062,0.5244972705841064,0.3522060811519623,-0.42219194769859314,0.9999640583992004,0.5277010202407837,0.3526367247104645,-0.42217928171157837,0.9999627470970154,0.5306857824325562,0.35310766100883484,-0.4222445487976074,0.9999514222145081,0.515682578086853,0.35151928663253784,-0.42189088463783264,0.9999715089797974,0.513010561466217,0.35159358382225037,-0.4220239520072937,0.9999762773513794,0.5104621648788452,0.35175541043281555,-0.42208367586135864,0.9999752640724182,0.5344493389129639,0.35969504714012146,-0.298176109790802,0.9999313354492188,0.5075101852416992,0.3597620725631714,-0.29604572057724,0.9999678730964661,0.5253317952156067,0.37703219056129456,-0.4005294442176819,0.9999837875366211,0.5138800740242004,0.3769373893737793,-0.4001064896583557,0.9999855160713196,0.5651765465736389,0.43864813446998596,-0.22981826961040497,0.999794602394104,0.4742514193058014,0.4371810853481293,-0.21993032097816467,0.9999139904975891,0.587070643901825,0.5265468955039978,-0.34662431478500366,0.9895663261413574,0.44978004693984985,0.5285703539848328,-0.34539252519607544,0.991998553276062,0.5399208068847656,0.5158315300941467,-0.5288516879081726,0.941160261631012,0.4914838373661041,0.5151010155677795,-0.5368325710296631,0.9689663052558899,0.5277988910675049,0.5105785727500916,-0.569656252861023,0.8784543871879578,0.5025585293769836,0.5093840956687927,-0.5807048678398132,0.9285805225372314,0.5269087553024292,0.4966036081314087,-0.5559408664703369,0.8729836940765381,0.504243791103363,0.4968969225883484,-0.5662285685539246,0.9168425798416138,0.5296956300735474,0.4964090883731842,-0.5264175534248352,0.7911350727081299,0.50187748670578,0.4970952570438385,-0.5343693494796753,0.8564367294311523,0.5495038032531738,0.5726118683815002,-0.003902470227330923,0.9998164772987366,0.4925968050956726,0.5745705366134644,0.003840220393612981,0.9998660683631897,0.5756292343139648,0.6595038175582886,-0.3275008797645569,0.996472954750061,0.4553092122077942,0.6493495106697083,-0.32931968569755554,0.9956275820732117,0.5723446607589722,0.7636312246322632,-0.0532115213572979,0.9951008558273315,0.46841779351234436,0.754643440246582,-0.04642987996339798,0.9947417378425598,0.56552654504776,0.7785884141921997,-0.03307933360338211,0.9525442123413086,0.4772551953792572,0.7672566771507263,-0.026800697669386864,0.9505481123924255,0.5845872163772583,0.8049767017364502,-0.17101117968559265,0.9894692897796631,0.44834885001182556,0.8045701384544373,-0.1637197881937027,0.9885603189468384
12,0.5185465216636658,0.38695403933525085,-0.4416523575782776,0.9999814033508301,0.5244352221488953,0.37589913606643677,-0.4197739064693451,0.9999508261680603,0.5275902152061462,0.3761865198612213,-0.4197620749473572,0.9999520778656006,0.5305871367454529,0.37659770250320435,-0.41983214020729065,0.9999309182167053,0.5150763392448425,0.37554770708084106,-0.4180212616920471,0.9999621510505676,0.5121850967407227,0.3757542669773102,-0.41814717650413513,0.9999707341194153,0.5095030665397644,0.37618809938430786,-0.4182140827178955,0.9999673962593079,0.5346382856369019,0.3821428716182709,-0.302036315202713,0.9999069571495056,0.5066584348678589,0.3822045922279358,-0.29340967535972595,0.999962568283081,0.5252717137336731,0.40028855204582214,-0.39893391728401184,0.9999799728393555,0.5132333040237427,0.40138205885887146,-0.3965984284877777,0.9999831318855286,0.5658787488937378,0.4579523503780365,-0.2358424961566925,0.9997525215148926,0.4740407466888428,0.4558373689651489,-0.22030580043792725,0.9998936057090759,0.5873900651931763,0.5498749613761902,-0.35567623376846313,0.9888322353363037,0.45159322023391724,0.5455964207649231,-0.3497862219810486,0.9915279150009155,0.5389966368675232,0.5303627252578735,-0.5289789438247681,0.9390275478363037,0.4923884868621826,0.5340108871459961,-0.5333592891693115,0.9653989672660828,0.5267097353935242,0.52433180809021,-0.5676394701004028,0.873927116394043,0.5035328269004822,0.5274872779846191,-0.5747934579849243,0.9198261499404907,0.526401162147522,0.5093687176704407,-0.5507863163948059,0.8661341071128845,0.505193829536438,0.5148684978485107,-0.557073712348938,0.903998076915741,0.5290721654891968,0.5094209909439087,-0.52447909116745,0.7762610912322998,0.5028976202011108,0.5152066349983215,-0.5293537378311157,0.833652138710022,0.5499769449234009,0.5860164761543274,-0.004178598988801241,0.9997766017913818,0.492968887090683,0.5869244933128357,0.004130369983613491,0.9998499155044556,0.5778919458389282,0.6605736017227173,-0.3438121974468231,0.9956197142601013,0.4529995322227478,0.6492701768875122,-0.3498852252960205,0.9952686429023743,0.5723052024841309,0.7636995315551758,-0.05937734246253967,0.9933679103851318,0.4682830274105072,0.7554979920387268,-0.057941973209381104,0.994452714920044,0.5645002126693726,0.7786939740180969,-0.03825930133461952,0.9464444518089294,0.47662052512168884,0.7678307294845581,-0.03646674007177353,0.9489410519599915,0.5845229029655457,0.8054245114326477,-0.1711309403181076,0.9863383173942566,0.4487968385219574,0.8045622110366821,-0.1650368571281433,0.9873989820480347
13,0.5166178941726685,0.39583271741867065,-0.4346694052219391,0.9999799728393555,0.5230371952056885,0.3851417303085327,-0.41262954473495483,0.9999442100524902,0.5265701413154602,0.38556990027427673,-0.41261330246925354,0.9999468326568604,0.529766321182251,0.38612619042396545,-0.4126719534397125,0.9999198317527771,0.5130383372306824,0.38449499011039734,-0.41031163930892944,0.9999575018882751,0.5101242065429688,0.38451775908470154,-0.41043171286582947,0.9999682903289795,0.5076516270637512,0.38478609919548035,-0.41048407554626465,0.9999634027481079,0.5345563292503357,0.392851859331131,-0.2960044741630554,0.9998936653137207,0.505630373954773,0.391954630613327,-0.2850359082221985,0.9999589920043945,0.5234482884407043,0.4097227454185486,-0.39269155263900757,0.9999781250953674,0.5110384821891785,0.40973374247550964,-0.38970670104026794,0.9999821782112122,0.5656384825706482,0.4674534201622009,-0.23283477127552032,0.9997189044952393,0.4734162390232086,0.4700454771518707,-0.21334438025951385,0.999874472618103,0.5874351859092712,0.5617726445198059,-0.35507699847221375,0.9883522391319275,0.451468288898468,0.5645413994789124,-0.3446870446205139,0.9909120202064514,0.5363510847091675,0.5408003926277161,-0.5254243016242981,0.9369202256202698,0.4919867515563965,0.5479550957679749,-0.5270720720291138,0.9606006145477295,0.5232399106025696,0.5345742106437683,-0.56434166431427,0.8687049746513367,0.5040249824523926,0.540342390537262,-0.5683900117874146,0.9082969427108765,0.5231982469558716,0.5199421048164368,-0.5465039610862732,0.8586329817771912,0.5053509473800659,0.5269529223442078,-0.5503799319267273,0.887954592704773,0.5263620018959045,0.5198764204978943,-0.5204238891601562,0.7602643966674805,0.5030006170272827,0.5275266170501709,-0.522972047328949,0.8070080876350403,0.5502933263778687,0.5929410457611084,-0.0043546538800001144,0.9997597932815552,0.4937562942504883,0.593799889087677,0.004306412301957607,0.9998416304588318,0.5805610418319702,0.659698486328125,-0.36304810643196106,0.9949690103530884,0.4536069333553314,0.64902663230896,-0.3536568284034729,0.9948333501815796,0.5722874402999878,0.7641537189483643,-0.0906384065747261,0.9922545552253723,0.4682141840457916,0.7563382983207703,-0.0802011489868164,0.9945117831230164,0.5643600821495056,0.7790228724479675,-0.07110054790973663,0.9421913027763367,0.47621792554855347,0.7691743969917297,-0.0610552541911602,0.9491096138954163,0.584484875202179,0.8054546117782593,-0.20974723994731903,0.984626293182373,0.44888782501220703,0.8048063516616821,-0.19824111461639404,0.9872161746025085
14,0.5156453847885132,0.413718581199646,-0.445071280002594,0.9999764561653137,0.5217010378837585,0.4026907682418823,-0.4252939224243164,0.9999305009841919,0.5253108739852905,0.4030790627002716,-0.4252655506134033,0.999935507774353,0.5286033153533936,0.40344393253326416,-0.42532268166542053,0.9998957514762878,0.5117704272270203,0.40239784121513367,-0.42221465706825256,0.9999478459358215,0.5088798999786377,0.40275952219963074,-0.4223417341709137,0.9999628067016602,0.5063425302505493,0.4032590985298157,-0.42239564657211304,0.9999553561210632,0.5339506268501282,0.40994903445243835,-0.31311431527137756,0.9998685121536255,0.504353940486908,0.41053834557533264,-0.2979275584220886,0.9999505877494812,0.5222595930099487,0.42755404114723206,-0.40388575196266174,0.9999738931655884,0.510331392288208,0.42903271317481995,-0.399708092212677,0.9999793171882629,0.5643325448036194,0.4790581166744232,-0.24468950927257538,0.9996669292449951,0.47372016310691833,0.48359063267707825,-0.22420701384544373,0.9998618960380554,0.5874468684196472,0.5720032453536987,-0.3740709125995636,0.9874522686004639,0.45440348982810974,0.5756439566612244,-0.3612944781780243,0.9908222556114197,0.5363128185272217,0.5505762100219727,-0.5451988577842712,0.933621346950531,0.4965474009513855,0.5519090890884399,-0.5425469279289246,0.9600412249565125,0.5239299535751343,0.5434700846672058,-0.5837977528572083,0.8628474473953247,0.5078734159469604,0.5442278385162354,-0.5835571885108948,0.905849039554596,0.523520290851593,0.5300079584121704,-0.5651501417160034,0.8505006432533264,0.5085312724113464,0.5315936207771301,-0.5644761323928833,0.8834144473075867,0.5265747904777527,0.5304679870605469,-0.5401821732521057,0.7443522810935974,0.5064214468002319,0.5320926904678345,-0.5379976034164429,0.7965196967124939,0.551055371761322,0.5994880199432373,-0.004523569252341986,0.9997332692146301,0.49569573998451233,0.6009018421173096,0.0044517917558550835,0.9998319745063782,0.5823181867599487,0.6551306247711182,-0.3784101605415344,0.9942221641540527,0.4537263810634613,0.6487863659858704,-0.3587040603160858,0.9944551587104797,0.5724425911903381,0.7656935453414917,-0.10817386955022812,0.9909220933914185,0.4675664007663727,0.7593716979026794,-0.09480639547109604,0.9945708513259888,0.5643656849861145,0.780547559261322,-0.08876771479845047,0.9379318952560425,0.4755399227142334,0.7731570601463318,-0.0762757658958435,0.9499995112419128,0.5844086408615112,0.8055805563926697,-0.22565606236457825,0.9824538230895996,0.4489530920982361,0.8048301935195923,-0.21248023211956024,0.9869847297668457
15,0.5141053795814514,0.42624935507774353,-0.4663417339324951,0.9999750256538391,0.5204687714576721,0.41530293226242065,-0.447951078414917,0.9999229907989502,0.524353563785553,0.4156203269958496,-0.44791513681411743,0.9999299645423889,0.5278869271278381,0.4158782660961151,-0.44797205924987793,0.9998798370361328,0.510238528251648,0.41468507051467896,-0.4445079267024994,0.9999414682388306,0.5073593258857727,0.4147992432117462,-0.4446425437927246,0.9999597072601318,0.5047026872634888,0.41507118940353394,-0.4447097182273865,0.9999496340751648,0.5336605906486511,0.4207899272441864,-0.335258424282074,0.9998553991317749,0.5034341216087341,0.4214250445365906,-0.31909501552581787,0.9999461770057678,0.5213030576705933,0.44002750515937805,-0.4242866635322571,0.9999725222587585,0.5093309283256531,0.4412649869918823,-0.4198745787143707,0.9999781847000122,0.5644024610519409,0.48865842819213867,-0.25716710090637207,0.9996539354324341,0.4741743206977844,0.49435311555862427,-0.23921728134155273,0.999857485294342,0.5871187448501587,0.5859817266464233,-0.37943845987319946,0.986431360244751,0.454569011926651,0.5920745730400085,-0.37107571959495544,0.9906976819038391,0.5358926057815552,0.5607593059539795,-0.5507612228393555,0.9317987561225891,0.4975479245185852,0.5612637996673584,-0.5516208410263062,0.9590226411819458,0.5236769914627075,0.550115168094635,-0.5878761410713196,0.8594267964363098,0.5085309743881226,0.5511685013771057,-0.5913130640983582,0.9024103879928589,0.5235078930854797,0.5371627807617188,-0.5689377188682556,0.8450189828872681,0.5091766119003296,0.5392151474952698,-0.5717328786849976,0.8772187232971191,0.5263484716415405,0.5383487343788147,-0.5451470017433167,0.731169581413269,0.5071290135383606,0.540582537651062,-0.5465670824050903,0.7826496362686157,0.5524104833602905,0.6064595580101013,-0.004742547404021025,0.9997227787971497,0.4975753724575043,0.609245240688324,0.004674958530813456,0.9998266696929932,0.5825434327125549,0.6543149948120117,-0.3816712498664856,0.9933233857154846,0.44938549399375916,0.6559632420539856,-0.35430988669395447,0.9940409064292908,0.5724634528160095,0.7680599093437195,-0.09590817242860794,0.9895909428596497,0.46760258078575134,0.7618600130081177,-0.07372716814279556,0.9946302771568298,0.5643684267997742,0.7830229997634888,-0.07511216402053833,0.933505117893219,0.47556036710739136,0.7754793167114258,-0.053352050483226776,0.950575590133667,0.5840280055999756,0.8068739175796509,-0.21028082072734833,0.9804477691650391,0.4489632248878479,0.8053540587425232,-0.18470962345600128,0.9867905378341675
16,0.5135655403137207,0.4405288100242615,-0.5318203568458557,0.9999758005142212,0.5200111865997314,0.4274090528488159,-0.5134633779525757,0.9999235272407532,0.5239822268486023,0.4270642101764679,-0.513407826423645,0.9999313354492188,0.5276591777801514,0.42713451385498047,-0.5134618878364563,0.9998767971992493,0.5097048878669739,0.4266418516635895,-0.5105329751968384,0.9999414682388306,0.50677090883255,0.4268592596054077,-0.5106819868087769,0.9999606609344482,0.503998875617981,0.4272116720676422,-0.5107501745223999,0.9999493360519409,0.5336546897888184,0.4327499270439148,-0.3932572305202484,0.9998573064804077,0.5027580261230469,0.4340786933898926,-0.3796790838241577,0.9999476075172424,0.5209136009216309,0.45677950978279114,-0.4863002300262451,0.9999735951423645,0.5090922713279724,0.45759356021881104,-0.48269587755203247,0.9999791383743286,0.5641916990280151,0.4967215955257416,-0.3029246926307678,0.9996649622917175,0.47435522079467773,0.5023274421691895,-0.2900605797767639,0.9998592734336853,0.5871443152427673,0.5930928587913513,-0.4353242814540863,0.9865291714668274,0.45436710119247437,0.6009362936019897,-0.43023425340652466,0.9910811185836792,0.5346229672431946,0.5668732523918152,-0.6112468242645264,0.9340746402740479,0.498523473739624,0.5710318684577942,-0.6095983386039734,0.9599849581718445,0.5191783905029297,0.5557403564453125,-0.6494451761245728,0.863593578338623,0.5099559426307678,0.5603382587432861,-0.6503048539161682,0.9032453298568726,0.5220040082931519,0.5430334210395813,-0.62758868932724,0.8478687405586243,0.5097900629043579,0.5491087436676025,-0.627954363822937,0.8764652609825134,0.5254121422767639,0.545086145401001,-0.6041021943092346,0.7302652597427368,0.5079013705253601,0.5507398247718811,-0.6030631065368652,0.7764562368392944,0.552337646484375,0.6121428608894348,-0.004747417755424976,0.9997328519821167,0.49780941009521484,0.6158341765403748,0.004692633170634508,0.9998315572738647,0.5838358998298645,0.6564091444015503,-0.40342527627944946,0.9932830333709717,0.4477536678314209,0.6630156636238098,-0.37321963906288147,0.9941527247428894,0.5724756717681885,0.7687568068504333,-0.08475707471370697,0.9895014762878418,0.467618465423584,0.7624989151954651,-0.06341352313756943,0.9949396252632141,0.5642814636230469,0.7830316424369812,-0.06515030562877655,0.9336747527122498,0.47587594389915466,0.7755967378616333,-0.040493860840797424,0.9529185891151428,0.5835556983947754,0.8089866042137146,-0.2025023251771927,0.9804689288139343,0.44928407669067383,0.8054361939430237,-0.17297229170799255,0.9873570799827576
17,0.5133575201034546,0.46024131774902344,-0.49015745520591736,0.9999751448631287,0.5196887254714966,0.4480961561203003,-0.4729894697666168,0.9999169111251831,0.5236555337905884,0.4486728012561798,-0.4729313254356384,0.9999256730079651,0.5273509621620178,0.4493062198162079,-0.4729735851287842,0.9998565316200256,0.509480357170105,0.4472751021385193,-0.4696674346923828,0.9999375939369202,0.5066121816635132,0.44735339283943176,-0.469804048538208,0.9999590516090393,0.5038903951644897,0.4475427567958832,-0.46986693143844604,0.999945342540741,0.5336462259292603,0.4542079269886017,-0.3606833815574646,0.9998401999473572,0.5026852488517761,0.452886164188385,-0.3452565670013428,0.9999449253082275,0.5209788084030151,0.47407296299934387,-0.44749611616134644,0.999973714351654,0.508953869342804,0.4732510447502136,-0.44338512420654297,0.9999797940254211,0.5642324686050415,0.5178772807121277,-0.2787744402885437,0.9996638894081116,0.47438135743141174,0.5197011828422546,-0.2614794373512268,0.9998643398284912,0.5873874425888062,0.60825115442276,-0.40351027250289917,0.9865889549255371,0.45420509576797485,0.6175124645233154,-0.39629000425338745,0.9915902614593506,0.5350016355514526,0.5856783390045166,-0.5734370946884155,0.9373685121536255,0.5000171661376953,0.5893192887306213,-0.5709706544876099,0.9619152545928955,0.5201051235198975,0.5758108496665955,-0.6122873425483704,0.8697302937507629,0.5115866661071777,0.5798307061195374,-0.6112502217292786,0.9065292477607727,0.5222824215888977,0.5613330006599426,-0.5929771661758423,0.8536888360977173,0.5117853879928589,0.5675497651100159,-0.5904160141944885,0.879626989364624,0.5256024599075317,0.5637005567550659,-0.5674952268600464,0.7360180616378784,0.5097352862358093,0.5692319273948669,-0.5647509098052979,0.7789781093597412,0.5527423024177551,0.6331902742385864,-0.005083288531750441,0.9997084736824036,0.4991300106048584,0.6364725232124329,0.005067711696028709,0.9998258948326111,0.5872074365615845,0.6569522619247437,-0.40835294127464294,0.9924168586730957,0.4487975239753723,0.6610947847366333,-0.3777885138988495,0.9939548969268799,0.5726912021636963,0.7687771916389465,-0.1162828654050827,0.9880846738815308,0.46763354539871216,0.7653778791427612,-0.10191734880208969,0.9950289130210876,0.5644203424453735,0.7830162644386292,-0.09428153932094574,0.9304278492927551,0.476600706577301,0.7798222899436951,-0.08123583346605301,0.954694926738739,0.5827511548995972,0.8093789219856262,-0.22851593792438507,0.9789214134216309,0.44957152009010315,0.807621419429779,-0.2114040106534958,0.9874207973480225
18,0.5133814811706543,0.46877145767211914,-0.5007695555686951,0.999976634979248,0.5196653604507446,0.45515382289886475,-0.4831209182739258,0.9999207258224487,0.5236108303070068,0.45550233125686646,-0.48306703567504883,0.9999293088912964,0.5272548794746399,0.45608386397361755,-0.4831089377403259,0.9998611807823181,0.5093265175819397,0.4548618197441101,-0.4799150824546814,0.9999404549598694,0.5064347982406616,0.45503413677215576,-0.48005419969558716,0.999961256980896,0.5037210583686829,0.4554217755794525,-0.48011016845703125,0.999947726726532,0.5336371064186096,0.46090543270111084,-0.36687856912612915,0.9998478293418884,0.5021171569824219,0.46026432514190674,-0.3523319661617279,0.9999479651451111,0.5210285186767578,0.4819360375404358,-0.4566732347011566,0.9999756217002869,0.508853018283844,0.48268070816993713,-0.4527483582496643,0.9999813437461853,0.5649161338806152,0.5254172682762146,-0.28424572944641113,0.9996857047080994,0.47498735785484314,0.5267700552940369,-0.2678448259830475,0.999870777130127,0.589737057685852,0.6106210947036743,-0.40860599279403687,0.9873232245445251,0.450106680393219,0.6188425421714783,-0.4030941426753998,0.9921011328697205,0.5367353558540344,0.600238561630249,-0.5773756504058838,0.9410337209701538,0.499750554561615,0.6032766103744507,-0.5807458162307739,0.963175892829895,0.5205832123756409,0.5940691232681274,-0.616904616355896,0.876185953617096,0.5109683275222778,0.5957621932029724,-0.6216774582862854,0.9080235958099365,0.5224664807319641,0.5779693126678467,-0.596748948097229,0.8600779175758362,0.5111104846000671,0.5817928910255432,-0.6017106175422668,0.8805156946182251,0.5258857011795044,0.5786281228065491,-0.5708672404289246,0.7431401014328003,0.5090380311012268,0.5826258063316345,-0.5749690532684326,0.777687132358551,0.5528732538223267,0.6377299427986145,-0.005213309545069933,0.9997124075889587,0.4992000460624695,0.6418097019195557,0.005214286968111992,0.9998267292976379,0.5858481526374817,0.6655272841453552,-0.40216732025146484,0.9918081164360046,0.4492318034172058,0.666320264339447,-0.3796411156654358,0.9936402440071106,0.5722583532333374,0.7674731612205505,-0.09788474440574646,0.9872216582298279,0.46769872307777405,0.7647971510887146,-0.07850444316864014,0.9950286149978638,0.5641312599182129,0.7810841202735901,-0.078301802277565,0.929225742816925,0.4766058027744293,0.7794352769851685,-0.055868081748485565,0.9558854103088379,0.5814486742019653,0.8097392320632935,-0.22630777955055237,0.9781576991081238,0.45130234956741333,0.8075292706489563,-0.18481020629405975,0.9872599840164185
19,0.5136043429374695,0.4778088331222534,-0.5127145648002625,0.9999781250953674,0.5199745893478394,0.46301355957984924,-0.4942256808280945,0.9999250173568726,0.5240210294723511,0.4632696509361267,-0.49418002367019653,0.9999333024024963,0.5276814699172974,0.4637605547904968,-0.49423471093177795,0.9998669028282166,0.5094020962715149,0.46356648206710815,-0.49157753586769104,0.9999436736106873,0.5065121054649353,0.46404048800468445,-0.49172013998031616,0.999963641166687,0.5038115382194519,0.4646074175834656,-0.4917767643928528,0.9999503493309021,0.53385990858078,0.46834561228752136,-0.37565094232559204,0.9998564720153809,0.5020245313644409,0.4690932631492615,-0.3638286292552948,0.9999513626098633,0.5214145183563232,0.4908432066440582,-0.46797651052474976,0.9999773502349854,0.5088948607444763,0.49282917380332947,-0.46479082107543945,0.9999827146530151,0.5660772323608398,0.5354611277580261,-0.2914850115776062,0.9996969103813171,0.4757821559906006,0.5352316498756409,-0.27825722098350525,0.9998741745948792,0.5898365378379822,0.617445170879364,-0.41917839646339417,0.9879308938980103,0.45015907287597656,0.6266394853591919,-0.4140424132347107,0.9925936460494995,0.537952721118927,0.6066537499427795,-0.5910549163818359,0.9442754983901978,0.4995564818382263,0.6091471314430237,-0.5921293497085571,0.9648207426071167,0.5213820338249207,0.6003345251083374,-0.629892110824585,0.8818618655204773,0.5106722116470337,0.6017118692398071,-0.6314679384231567,0.9108607172966003,0.5230720639228821,0.5862962603569031,-0.6092664003372192,0.8655445575714111,0.5109308958053589,0.5896674990653992,-0.611594557762146,0.8831979036331177,0.5264157056808472,0.5866348743438721,-0.5844072103500366,0.7487781643867493,0.5089234709739685,0.5900174975395203,-0.5862541794776917,0.7794525027275085,0.5529866218566895,0.6435112357139587,-0.005016591865569353,0.9997156858444214,0.5000807046890259,0.6475540995597839,0.0050232913345098495,0.999828040599823,0.5887223482131958,0.6788889169692993,-0.40226826071739197,0.9912468791007996,0.4497295320034027,0.6701347231864929,-0.37513309717178345,0.9933427572250366,0.5715173482894897,0.7676828503608704,-0.09725607186555862,0.9862377047538757,0.46967053413391113,0.7644766569137573,-0.06869511306285858,0.9950681328773499,0.5624250173568726,0.7810933589935303,-0.06778213381767273,0.929718554019928,0.477800190448761,0.7797431349754333,-0.04638339579105377,0.9575363993644714,0.5806894898414612,0.8114231824874878,-0.1943436563014984,0.9770382046699524,0.45219317078590393,0.8074597716331482,-0.17765608429908752,0.9870924949645996
20,0.5136069059371948,0.48664137721061707,-0.49671635031700134,0.9999768137931824,0.5199708938598633,0.47161489725112915,-0.4786684513092041,0.9999167323112488,0.5239922404289246,0.4719993472099304,-0.4786292612552643,0.9999265074729919,0.5276402235031128,0.4725578725337982,-0.47868433594703674,0.9998453855514526,0.5094529390335083,0.471856027841568,-0.4757626950740814,0.9999386072158813,0.5065710544586182,0.4722178876399994,-0.4758981764316559,0.999961256980896,0.5038677453994751,0.4726030230522156,-0.4759576916694641,0.9999449253082275,0.5338594913482666,0.4783330261707306,-0.3644493818283081,0.9998410940170288,0.50227290391922,0.47801026701927185,-0.35084035992622375,0.9999484419822693,0.5214411020278931,0.500140905380249,-0.453580766916275,0.9999761581420898,0.508910596370697,0.5015067458152771,-0.4498860239982605,0.9999824166297913,0.5664399862289429,0.5380520224571228,-0.28434792160987854,0.9996826648712158,0.4765915870666504,0.5425336360931396,-0.2700031101703644,0.9998695850372314,0.5898289680480957,0.6230815052986145,-0.4106224477291107,0.9882826805114746,0.45058614015579224,0.6339175701141357,-0.4058876931667328,0.9929612874984741,0.5376968383789062,0.6120637655258179,-0.5760170817375183,0.9465572237968445,0.49957436323165894,0.6140304803848267,-0.5768271088600159,0.9660584926605225,0.5217488408088684,0.6051433682441711,-0.614714503288269,0.885868489742279,0.510655403137207,0.6056097745895386,-0.6161473989486694,0.9127483367919922,0.5234763622283936,0.5909134149551392,-0.5951560139656067,0.869111955165863,0.5111473798751831,0.5928928256034851,-0.5966787338256836,0.8847333192825317,0.5266956090927124,0.5916158556938171,-0.5698764324188232,0.7516019940376282,0.5091295838356018,0.5936881899833679,-0.5711928009986877,0.7795910835266113,0.5529686808586121,0.6469780802726746,-0.00490958709269762,0.9997071623802185,0.5005984306335449,0.6514926552772522,0.0049279360100626945,0.9998236298561096,0.5901464223861694,0.6804324388504028,-0.3976326286792755,0.9906113147735596,0.45028406381607056,0.669544517993927,-0.3699873089790344,0.9930857419967651,0.5714146494865417,0.7679393887519836,-0.09376249462366104,0.985163152217865,0.46973586082458496,0.7649434208869934,-0.0763624906539917,0.9951764345169067,0.5621023774147034,0.7811037302017212,-0.06868879497051239,0.9301511645317078,0.47784677147865295,0.7803345322608948,-0.054439179599285126,0.9595163464546204,0.5807846188545227,0.8116886615753174,-0.19456228613853455,0.9756993055343628,0.45288363099098206,0.8079383969306946,-0.1821197271347046,0.9871115684509277
21,0.5138902068138123,0.48569154739379883,-0.4614906907081604,0.9999750852584839,0.5203157663345337,0.47374722361564636,-0.4436057507991791,0.9999068975448608,0.5241467356681824,0.47373512387275696,-0.4435800015926361,0.9999174475669861,0.5276675820350647,0.4738958477973938,-0.4436224400997162,0.9998166561126709,0.5098894834518433,0.47398295998573303,-0.44125160574913025,0.9999343752861023,0.5069655179977417,0.47404924035072327,-0.44138145446777344,0.9999593496322632,0.5044487714767456,0.4741711914539337,-0.4414450228214264,0.9999406933784485,0.533942699432373,0.4797394573688507,-0.3351508677005768,0.9998182058334351,0.5031462907791138,0.4797023832798004,-0.3244835436344147,0.9999467730522156,0.5215867757797241,0.4989573657512665,-0.42067059874534607,0.9999756813049316,0.509023129940033,0.49898576736450195,-0.41778773069381714,0.9999828934669495,0.5667779445648193,0.54476398229599,-0.26264089345932007,0.9996435046195984,0.4769272804260254,0.5439033508300781,-0.2513144910335541,0.9998655915260315,0.5900363326072693,0.6315229535102844,-0.3809775114059448,0.9885095357894897,0.45066672563552856,0.6377797722816467,-0.3741353154182434,0.9932616353034973,0.5381351709365845,0.621800422668457,-0.5388014316558838,0.9480091333389282,0.49902552366256714,0.6212260723114014,-0.5380376577377319,0.9671048521995544,0.5228070616722107,0.6157796382904053,-0.5763498544692993,0.8887028694152832,0.5102394819259644,0.61648029088974,-0.5768735408782959,0.9147736430168152,0.5248590111732483,0.5991621613502502,-0.5581790208816528,0.8715196847915649,0.5112468004226685,0.6016326546669006,-0.5582175254821777,0.886918842792511,0.5274363160133362,0.5991503000259399,-0.5331486463546753,0.7535186409950256,0.508933424949646,0.6012046933174133,-0.5323576927185059,0.7814655900001526,0.5519825220108032,0.6546369194984436,-0.004953759256750345,0.9996835589408875,0.5004090070724487,0.6581952571868896,0.004963039420545101,0.9998140931129456,0.5893741846084595,0.681638777256012,-0.3895399272441864,0.9894711971282959,0.45079535245895386,0.6674808859825134,-0.365700364112854,0.9927352070808411,0.5697985887527466,0.7683416604995728,-0.11275360733270645,0.9835429787635803,0.46972209215164185,0.7652044892311096,-0.10181944072246552,0.9951042532920837,0.5605103969573975,0.7823236584663391,-0.09175485372543335,0.9290492534637451,0.477755069732666,0.7807396650314331,-0.08237627148628235,0.9607627391815186,0.5806125402450562,0.8121651411056519,-0.2173864096403122,0.9739886522293091,0.45364910364151,0.8079860210418701,-0.20653489232063293,0.9867727160453796
22,0.513961672782898,0.5010303854942322,-0.48978281021118164,0.9999768137931824,0.5210471749305725,0.48837894201278687,-0.471993625164032,0.9999127984046936,0.5248702168464661,0.4883820712566376,-0.4719621241092682,0.9999225735664368,0.5283057689666748,0.4885099530220032,-0.47204503417015076,0.9998260140419006,0.5100682377815247,0.4884343147277832,-0.4685237407684326,0.9999384880065918,0.5070841312408447,0.4884427487850189,-0.46864938735961914,0.9999620914459229,0.5046101808547974,0.48849722743034363,-0.46868863701820374,0.9999440312385559,0.5353935956954956,0.4931437075138092,-0.357399046421051,0.999830424785614,0.5038770437240601,0.49166586995124817,-0.3421541452407837,0.9999505877494812,0.5219005346298218,0.5141957402229309,-0.44651445746421814,0.9999775886535645,0.5090341567993164,0.5147157907485962,-0.44219279289245605,0.9999842643737793,0.5681090354919434,0.5556705594062805,-0.2754373252391815,0.9996528625488281,0.4776853621006012,0.5526146292686462,-0.2629329562187195,0.999868631362915,0.5902649164199829,0.6448417901992798,-0.3805842995643616,0.989230215549469,0.450749009847641,0.6486267447471619,-0.37519145011901855,0.9936099648475647,0.5375910401344299,0.6333796977996826,-0.5128312706947327,0.9507229328155518,0.499022901058197,0.6344793438911438,-0.5218724608421326,0.9686421751976013,0.5226541757583618,0.6263030767440796,-0.5475761890411377,0.8926709890365601,0.5099413990974426,0.6284618377685547,-0.5551363825798035,0.917850911617279,0.5246514081954956,0.6088980436325073,-0.5271592140197754,0.8755486607551575,0.5109813809394836,0.6131914854049683,-0.5385767221450806,0.890678346157074,0.5274481177330017,0.6091506481170654,-0.5053706169128418,0.7592635154724121,0.5086824297904968,0.6132984757423401,-0.5161256194114685,0.7871447205543518,0.55156409740448,0.6631122827529907,-0.004483058117330074,0.9996894001960754,0.5001708269119263,0.6658486723899841,0.0045111533254384995,0.9998186826705933,0.5945559740066528,0.6913171410560608,-0.4276353418827057,0.9889189600944519,0.4491550326347351,0.671579897403717,-0.38501203060150146,0.9927865862846375,0.5680884122848511,0.7688554525375366,-0.08738823980093002,0.9816142916679382,0.47062453627586365,0.766235888004303,-0.09522626549005508,0.9952824115753174,0.5576193928718567,0.7823817133903503,-0.056454967707395554,0.9319769144058228,0.479618638753891,0.781296968460083,-0.05793517082929611,0.9632520079612732,0.5806571245193481,0.8127262592315674,-0.16578157246112823,0.9713031053543091,0.4532414376735687,0.8079484701156616,-0.1694982349872589,0.9867531657218933
23,0.5165895819664001,0.5037407875061035,-0.38944119215011597,0.9999790787696838,0.5234825611114502,0.49148231744766235,-0.370673269033432,0.9999213218688965,0.5271347761154175,0.49135622382164,-0.3706353008747101,0.9999300837516785,0.5304385423660278,0.4914582669734955,-0.37069815397262573,0.9998428821563721,0.511961817741394,0.49204614758491516,-0.3684167265892029,0.9999444484710693,0.5085840225219727,0.492342084646225,-0.3685392737388611,0.9999657869338989,0.5059678554534912,0.4927177131175995,-0.36854761838912964,0.9999493956565857,0.5371875762939453,0.4960779547691345,-0.2606298327445984,0.9998469948768616,0.5040836334228516,0.4970800280570984,-0.2520182132720947,0.9999553561210632,0.5241642594337463,0.5163975954055786,-0.3482067584991455,0.9999797940254211,0.5106645822525024,0.5174062252044678,-0.3459441363811493,0.9999858140945435,0.568263053894043,0.5623279213905334,-0.18356958031654358,0.9996820688247681,0.47762617468833923,0.559721052646637,-0.1792943775653839,0.9998778700828552,0.5917381048202515,0.6520808339118958,-0.2315283566713333,0.9899701476097107,0.4507672190666199,0.6557537317276001,-0.24043293297290802,0.993911862373352,0.539300262928009,0.6394794583320618,-0.3145750164985657,0.954302966594696,0.49874958395957947,0.6411800980567932,-0.34064194560050964,0.9706158638000488,0.5245282649993896,0.6330310106277466,-0.3363957703113556,0.8986319899559021,0.5097322463989258,0.6352582573890686,-0.36254650354385376,0.921970784664154,0.5256713032722473,0.6165497303009033,-0.320177286863327,0.8823057413101196,0.5108320116996765,0.6188866496086121,-0.350241482257843,0.8961772918701172,0.5288704037666321,0.6172506213188171,-0.3063076138496399,0.7724777460098267,0.5085120797157288,0.619346559047699,-0.3346981108188629,0.79766446352005,0.5513335466384888,0.6679868698120117,-0.002410979475826025,0.9997135400772095,0.49996647238731384,0.6710770726203918,0.0024433734361082315,0.9998316168785095,0.5962296724319458,0.6900923252105713,-0.4237414300441742,0.9888859391212463,0.4492262303829193,0.6753852367401123,-0.388970285654068,0.9929987192153931,0.5659033060073853,0.7688391208648682,-0.087559774518013,0.9792167544364929,0.4730224609375,0.7681422829627991,-0.0871453508734703,0.995399534702301,0.5549398064613342,0.7821020483970642,-0.05760146304965019,0.9349167943000793,0.48170891404151917,0.7817994356155396,-0.05886395648121834,0.9653297066688538,0.5806070566177368,0.8127003312110901,-0.15406307578086853,0.9688123464584351,0.4531344771385193,0.8082309365272522,-0.16775813698768616,0.9867716431617737
24,0.5169075727462769,0.5095070004463196,-0.3044695258140564,0.999978244304657,0.5238467454910278,0.49705904722213745,-0.28753405809402466,0.9999234080314636,0.527452826499939,0.49699828028678894,-0.2875220775604248,0.9999303221702576,0.5306714773178101,0.49703267216682434,-0.28756263852119446,0.9998469352722168,0.5123041272163391,0.4972867965698242,-0.28509408235549927,0.9999458193778992,0.5089160203933716,0.4974026083946228,-0.28518736362457275,0.9999657273292542,0.5063684582710266,0.4975435435771942,-0.28522270917892456,0.99994957447052,0.5374001860618591,0.5014881491661072,-0.1884697824716568,0.9998514652252197,0.5042604804039001,0.5016974806785583,-0.17783509194850922,0.9999540448188782,0.5243702530860901,0.5224685072898865,-0.26716047525405884,0.9999802708625793,0.5107592940330505,0.5232380032539368,-0.2643110454082489,0.9999861121177673,0.5686470866203308,0.5640658140182495,-0.12431737035512924,0.9996775984764099,0.4784373342990875,0.5620757341384888,-0.1173715591430664,0.9998713135719299,0.5925086736679077,0.6529438495635986,-0.17194950580596924,0.9899783730506897,0.45078158378601074,0.6564285755157471,-0.17799974977970123,0.993704080581665,0.5403479337692261,0.6422958374023438,-0.2619054317474365,0.955302357673645,0.4987005293369293,0.6437236666679382,-0.2794981598854065,0.97102290391922,0.5259663462638855,0.6372246146202087,-0.2820224165916443,0.8977508544921875,0.5094667673110962,0.6390345692634583,-0.299944132566452,0.9208694100379944,0.525968611240387,0.6201953291893005,-0.26667144894599915,0.8810631632804871,0.5108010768890381,0.6226385831832886,-0.2875203788280487,0.894770622253418,0.5294345617294312,0.6203029155731201,-0.25431501865386963,0.7730576992034912,0.508452296257019,0.6224671006202698,-0.27378469705581665,0.7962543964385986,0.5494842529296875,0.674074113368988,-0.0013324691681191325,0.9997146129608154,0.49865251779556274,0.6761673092842102,0.0013776625273749232,0.9998300671577454,0.5956453084945679,0.6859061121940613,-0.3917866349220276,0.9880409836769104,0.44943538308143616,0.6750717759132385,-0.3736761212348938,0.9929490089416504,0.565351665019989,0.7688589692115784,-0.11464043706655502,0.9744521975517273,0.4730547368526459,0.7690134644508362,-0.11297818273305893,0.9951832294464111,0.55431067943573,0.7822681665420532,-0.09057705104351044,0.9352172613143921,0.48176342248916626,0.7831512093544006,-0.0914621576666832,0.9663545489311218,0.5806649923324585,0.8126418590545654,-0.16587038338184357,0.9647549986839294,0.4534548223018646,0.8082066774368286,-0.19213277101516724,0.9861527681350708
25,0.5181986093521118,0.5123611688613892,-0.26359981298446655,0.9999769330024719,0.5246883630752563,0.5006126165390015,-0.24610033631324768,0.9999254941940308,0.528235137462616,0.5003739595413208,-0.2460910826921463,0.9999304413795471,0.5312691926956177,0.5002480745315552,-0.2461240291595459,0.9998521208763123,0.513336181640625,0.5009232759475708,-0.24465712904930115,0.9999468326568604,0.5098693370819092,0.5009960532188416,-0.2447451800107956,0.9999653100967407,0.5072060823440552,0.5011505484580994,-0.2447717934846878,0.9999499320983887,0.5377035140991211,0.5045498013496399,-0.1512937843799591,0.9998564124107361,0.5046125650405884,0.505355715751648,-0.1452995091676712,0.9999528527259827,0.525236964225769,0.5249845385551453,-0.22842645645141602,0.9999802708625793,0.511638343334198,0.5259293913841248,-0.22691524028778076,0.9999859929084778,0.5685808062553406,0.5691516399383545,-0.09513284265995026,0.9996711015701294,0.4786349833011627,0.5657802820205688,-0.09332989156246185,0.999855637550354,0.5923620462417603,0.6573189496994019,-0.13016565144062042,0.989799976348877,0.45087355375289917,0.6606507897377014,-0.14379830658435822,0.9929755330085754,0.5396754145622253,0.6438909769058228,-0.20098206400871277,0.9556817412376404,0.4992738664150238,0.643359899520874,-0.2239626944065094,0.9697755575180054,0.5253738760948181,0.6383268237113953,-0.21724171936511993,0.8948140740394592,0.5100544691085815,0.638315737247467,-0.24044089019298553,0.9151377081871033,0.5252295136451721,0.622859537601471,-0.2019316852092743,0.8775367736816406,0.5113483667373657,0.6244319677352905,-0.22854988276958466,0.887626051902771,0.5285361409187317,0.6228557229042053,-0.19318296015262604,0.7712371945381165,0.5090299248695374,0.624174177646637,-0.21824519336223602,0.7880040407180786,0.5480282306671143,0.6776848435401917,-0.0006143733626231551,0.9997225999832153,0.4977561831474304,0.6790541410446167,0.0006634317105636001,0.9998302459716797,0.5942282676696777,0.6845627427101135,-0.35111135244369507,0.986991822719574,0.44998985528945923,0.676116406917572,-0.32742053270339966,0.9925981163978577,0.5645314455032349,0.7702539563179016,-0.11849391460418701,0.9695026874542236,0.4733443856239319,0.7694483995437622,-0.10956287384033203,0.9947561621665955,0.5538657307624817,0.7849525809288025,-0.09777303040027618,0.9350394606590271,0.4818085730075836,0.7834131717681885,-0.090598925948143,0.9669278264045715,0.5806006193161011,0.8125613927841187,-0.16965703666210175,0.9610385298728943,0.4534023404121399,0.808181643486023,-0.1869226098060608,0.9852952361106873
26,0.5180650949478149,0.5132653713226318,-0.25801894068717957,0.9999768137931824,0.5245387554168701,0.5013564229011536,-0.24149315059185028,0.9999287128448486,0.5281211733818054,0.501083254814148,-0.24147740006446838,0.9999321699142456,0.5311968326568604,0.501020073890686,-0.24151813983917236,0.9998593330383301,0.513235330581665,0.5021368861198425,-0.23957808315753937,0.9999488592147827,0.5098122954368591,0.502410352230072,-0.23966845870018005,0.9999659061431885,0.507159948348999,0.5027716159820557,-0.2396959811449051,0.9999516010284424,0.5376569628715515,0.5060945153236389,-0.15246938169002533,0.9998621344566345,0.5045958757400513,0.5077205300331116,-0.14368832111358643,0.9999529123306274,0.5253556370735168,0.5251254439353943,-0.22497498989105225,0.999980628490448,0.5116332769393921,0.5261746644973755,-0.22264087200164795,0.9999859929084778,0.5685631036758423,0.5705505013465881,-0.0954708606004715,0.9996582865715027,0.47859644889831543,0.5698190331459045,-0.09362339228391647,0.9998396039009094,0.5922491550445557,0.6615873575210571,-0.11531530320644379,0.9890574216842651,0.4508132040500641,0.6650939583778381,-0.12730613350868225,0.9923301339149475,0.5395639538764954,0.6458171606063843,-0.15673132240772247,0.9526930451393127,0.4991180896759033,0.6454716920852661,-0.1742570996284485,0.9680895805358887,0.5255240797996521,0.6396810412406921,-0.16665419936180115,0.884319543838501,0.5099195241928101,0.6381565928459167,-0.18475307524204254,0.9072206020355225,0.5254915952682495,0.6246568560600281,-0.15122929215431213,0.8650160431861877,0.5112777948379517,0.6240197420120239,-0.17327865958213806,0.8773182034492493,0.5286836624145508,0.6248420476913452,-0.14812222123146057,0.758413553237915,0.5089109539985657,0.624332070350647,-0.16804952919483185,0.7767448425292969,0.5481477975845337,0.6789674758911133,-0.000787367403972894,0.9997293949127197,0.49770110845565796,0.6801279783248901,0.0008409457514062524,0.999828577041626,0.5951122045516968,0.6867322325706482,-0.3471190929412842,0.987296998500824,0.45002689957618713,0.6781720519065857,-0.3118554651737213,0.9927113652229309,0.5647312998771667,0.7709381580352783,-0.11097671836614609,0.9680877923965454,0.47439703345298767,0.7691247463226318,-0.09239392727613449,0.994636595249176,0.5537030696868896,0.7847990393638611,-0.08829901367425919,0.936325192451477,0.48289045691490173,0.783161997795105,-0.0733191967010498,0.9682165384292603,0.5804656744003296,0.8126917481422424,-0.15978261828422546,0.9598276019096375,0.45316165685653687,0.8073064684867859,-0.1456710398197174,0.985107421875
27,0.5179601907730103,0.5145893692970276,-0.279898464679718,0.9999780058860779,0.5244855284690857,0.5025267004966736,-0.2620902359485626,0.9999338984489441,0.5280905365943909,0.5025075078010559,-0.26207560300827026,0.9999365210533142,0.5311876535415649,0.5027250647544861,-0.2621184289455414,0.9998697638511658,0.5131583213806152,0.5032511949539185,-0.2600056529045105,0.9999523758888245,0.5097676515579224,0.5036092400550842,-0.2601037621498108,0.9999678730964661,0.5071225166320801,0.5040194392204285,-0.26013487577438354,0.9999546408653259,0.5377812385559082,0.5083916187286377,-0.1662111133337021,0.9998718500137329,0.5045214891433716,0.5094110369682312,-0.15701769292354584,0.9999553561210632,0.5253382325172424,0.5264511704444885,-0.24443991482257843,0.9999818801879883,0.5116145014762878,0.5279904007911682,-0.2420160472393036,0.9999867081642151,0.5685335397720337,0.5703904032707214,-0.10613705217838287,0.999663233757019,0.47854718565940857,0.5717641711235046,-0.10228215157985687,0.999828040599823,0.5920140147209167,0.6672518849372864,-0.13546724617481232,0.9885419011116028,0.4517177939414978,0.6670591235160828,-0.14761221408843994,0.9916581511497498,0.539559006690979,0.6480522751808167,-0.19717171788215637,0.9519094824790955,0.4989924430847168,0.6463795900344849,-0.21937699615955353,0.9660433530807495,0.5259413123130798,0.6416666507720947,-0.21111634373664856,0.8807572722434998,0.5097635984420776,0.6401016712188721,-0.2342248260974884,0.9000778198242188,0.5258892774581909,0.6256586909294128,-0.1972370743751526,0.8605890870094299,0.5107706189155579,0.6243555545806885,-0.22322781383991241,0.8679448962211609,0.5290790796279907,0.6257032155990601,-0.18956106901168823,0.7545692324638367,0.5087660551071167,0.6246381998062134,-0.2140379399061203,0.7659420371055603,0.5486993193626404,0.6802150011062622,-0.0009818619582802057,0.9997414350509644,0.4980545938014984,0.6810346245765686,0.0010283906012773514,0.9998316764831543,0.5962496399879456,0.6887677907943726,-0.35589703917503357,0.9875529408454895,0.4474976658821106,0.6785845160484314,-0.32003647089004517,0.9928922057151794,0.564897894859314,0.7732336521148682,-0.10250122845172882,0.9671413898468018,0.4741499423980713,0.7690044045448303,-0.0756978690624237,0.9945394992828369,0.5537747144699097,0.7862474918365479,-0.07835056632757187,0.9379765391349792,0.4827536642551422,0.7821341753005981,-0.053489405661821365,0.9693818092346191,0.5803654789924622,0.8131383061408997,-0.15476100146770477,0.9587870836257935,0.45088472962379456,0.80687415599823,-0.13394346833229065,0.984769880771637
28,0.5167940855026245,0.5160375237464905,-0.32217419147491455,0.9999579191207886,0.5238898992538452,0.5032983422279358,-0.2965720593929291,0.9998942017555237,0.5276606678962708,0.503429651260376,-0.29643338918685913,0.9998940825462341,0.5308980345726013,0.5036527514457703,-0.29637610912323,0.9998031258583069,0.5125061273574829,0.5033963918685913,-0.29526033997535706,0.9999209642410278,0.5093444585800171,0.5035233497619629,-0.29544350504875183,0.999941885471344,0.5067143440246582,0.5036652684211731,-0.2954046428203583,0.9999197721481323,0.5377423763275146,0.5088191628456116,-0.1998632252216339,0.9998083114624023,0.504452109336853,0.5085678696632385,-0.17620930075645447,0.9999213814735413,0.5245211124420166,0.5283436179161072,-0.2763107419013977,0.9999746084213257,0.5109074115753174,0.529217541217804,-0.27677834033966064,0.9999805092811584,0.5684223771095276,0.5690522789955139,-0.14906756579875946,0.9996324181556702,0.47838324308395386,0.568367600440979,-0.1443074494600296,0.9997719526290894,0.5919565558433533,0.661769449710846,-0.23108181357383728,0.9885768294334412,0.45232266187667847,0.6620644330978394,-0.2348061054944992,0.9911774396896362,0.5395431518554688,0.6449766159057617,-0.3402766287326813,0.9521682262420654,0.49891576170921326,0.643250584602356,-0.35463055968284607,0.9641256928443909,0.5255547761917114,0.6383810639381409,-0.36789536476135254,0.8811375498771667,0.5094690322875977,0.6375064849853516,-0.38257449865341187,0.8957306742668152,0.5257048606872559,0.6225835084915161,-0.35236266255378723,0.8606053590774536,0.5106039047241211,0.6217036843299866,-0.37188905477523804,0.862238347530365,0.5288900136947632,0.6231099367141724,-0.3343142569065094,0.7546045184135437,0.5087122321128845,0.6220245361328125,-0.3516419529914856,0.7580330967903137,0.5486944913864136,0.6760136485099792,-0.001215074211359024,0.9997332692146301,0.4979856610298157,0.6765335202217102,0.0012939749285578728,0.999819278717041,0.5954141020774841,0.6874630451202393,-0.3473333716392517,0.9875847697257996,0.44985952973365784,0.6776413321495056,-0.32362115383148193,0.9927138090133667,0.5651084780693054,0.7730094790458679,-0.10505268722772598,0.966792643070221,0.47413739562034607,0.7662720084190369,-0.0768161490559578,0.9940770864486694,0.5541182160377502,0.78606116771698,-0.08406737446784973,0.9385622143745422,0.4825906753540039,0.7770029306411743,-0.054832153022289276,0.9694439172744751,0.5807782411575317,0.8130794167518616,-0.16614511609077454,0.9577381014823914,0.4509320855140686,0.8044217824935913,-0.1435905247926712,0.9835090041160583
29,0.5168901681900024,0.5112219452857971,-0.46030551195144653,0.9999584555625916,0.523854672908783,0.49909743666648865,-0.4408450126647949,0.9998922944068909,0.5276089310646057,0.49928250908851624,-0.4408299922943115,0.9998929500579834,0.5308501720428467,0.49952462315559387,-0.440898597240448,0.9997970461845398,0.5126714706420898,0.49905359745025635,-0.4392405152320862,0.9999197125434875,0.5095729827880859,0.49918320775032043,-0.439357191324234,0.9999417066574097,0.5069984793663025,0.49932706356048584,-0.43940386176109314,0.9999175071716309,0.5377293229103088,0.5046491026878357,-0.3253840208053589,0.9998016953468323,0.5046927332878113,0.5040883421897888,-0.31808826327323914,0.9999210834503174,0.5245032906532288,0.5229961276054382,-0.4168720841407776,0.9999752044677734,0.5110622644424438,0.5237640142440796,-0.4151942729949951,0.999981164932251,0.56797194480896,0.5655304789543152,-0.24700984358787537,0.9996389150619507,0.47828975319862366,0.5642439126968384,-0.24182288348674774,0.9997603297233582,0.5912479162216187,0.6583760380744934,-0.35084253549575806,0.9893030524253845,0.4529617428779602,0.6573845148086548,-0.354375422000885,0.9912894368171692,0.5391219854354858,0.6406750082969666,-0.49740538001060486,0.9553198218345642,0.4990364909172058,0.6405087113380432,-0.5089246034622192,0.9643344879150391,0.5251960754394531,0.6337774395942688,-0.533109188079834,0.8882102966308594,0.5094560384750366,0.6342771053314209,-0.5446310639381409,0.8972034454345703,0.5256799459457397,0.6181641817092896,-0.5145145058631897,0.8684810400009155,0.5105832815170288,0.619394063949585,-0.5294753909111023,0.8635060787200928,0.5288880467414856,0.61921626329422,-0.49096235632896423,0.7652788758277893,0.5086514949798584,0.6199405193328857,-0.5044921636581421,0.7567644715309143,0.5486940145492554,0.6715890765190125,-0.0011052347254008055,0.9997324347496033,0.4976041316986084,0.672733724117279,0.0011781621724367142,0.9998157024383545,0.5955878496170044,0.6865379214286804,-0.37262946367263794,0.9867846369743347,0.451749712228775,0.6762605905532837,-0.3713172376155853,0.9918920397758484,0.5651750564575195,0.7733749747276306,-0.09444914758205414,0.9657864570617676,0.47351640462875366,0.7663379311561584,-0.08261232078075409,0.9936928749084473,0.5543279051780701,0.7865637540817261,-0.07113531976938248,0.9387642741203308,0.48172131180763245,0.7771643400192261,-0.05878564715385437,0.9690274596214294,0.5808480978012085,0.8135300278663635,-0.16976289451122284,0.9559506177902222,0.451127290725708,0.8041802048683167,-0.16543059051036835,0.9822682738304138
30,0.5176975727081299,0.5069987773895264,-0.47303304076194763,0.9999578595161438,0.5243383646011353,0.49482446908950806,-0.4535547196865082,0.999885618686676,0.5280892848968506,0.4950702488422394,-0.45352935791015625,0.9998874664306641,0.5314565300941467,0.4954240024089813,-0.45359453558921814,0.9997785091400146,0.51361483335495,0.4947773218154907,-0.45260924100875854,0.9999150633811951,0.5104961395263672,0.4949606955051422,-0.4527226388454437,0.999940037727356,0.5077972412109375,0.4951806366443634,-0.4527670443058014,0.9999133944511414,0.538219153881073,0.5009844899177551,-0.33675259351730347,0.9997847080230713,0.5050286054611206,0.5000702738761902,-0.33329737186431885,0.9999198913574219,0.5249499082565308,0.5193894505500793,-0.42952609062194824,0.9999752044677734,0.5119295716285706,0.5199598073959351,-0.42870792746543884,0.9999814629554749,0.5671395063400269,0.5622501373291016,-0.2580264210700989,0.9996470808982849,0.4780100882053375,0.5616024732589722,-0.25235772132873535,0.9997497797012329,0.5910422801971436,0.6540136337280273,-0.3546169400215149,0.9899483323097229,0.4523935914039612,0.6544650197029114,-0.3554608225822449,0.9915900826454163,0.5372068881988525,0.6376224756240845,-0.48906922340393066,0.9579461216926575,0.4992157816886902,0.6389264464378357,-0.49374786019325256,0.9651446342468262,0.5222898721694946,0.6311743259429932,-0.5222421288490295,0.8934765458106995,0.5095456838607788,0.6321438550949097,-0.5264495611190796,0.8996500968933105,0.5237603783607483,0.6160115599632263,-0.5029307007789612,0.874032199382782,0.510590136051178,0.6172124147415161,-0.5105630159378052,0.866159200668335,0.5276598930358887,0.6163793206214905,-0.48192930221557617,0.7723798155784607,0.5086308717727661,0.6172008514404297,-0.4882687032222748,0.7585271000862122,0.5480784773826599,0.6707068085670471,-0.0012299426598474383,0.9997294545173645,0.4964410364627838,0.6703934073448181,0.0012843925505876541,0.9998106360435486,0.5950066447257996,0.6859498620033264,-0.3833596110343933,0.9864040017127991,0.4497752785682678,0.6756488680839539,-0.3668351471424103,0.9915509223937988,0.5653254389762878,0.7742446660995483,-0.09281792491674423,0.9655348658561707,0.47317424416542053,0.7660697102546692,-0.07714192569255829,0.9935420155525208,0.5543891191482544,0.7873775362968445,-0.06892023980617523,0.9387626647949219,0.48170822858810425,0.7767333984375,-0.05270566791296005,0.9693666696548462,0.5807797908782959,0.8141050338745117,-0.17068427801132202,0.9552434086799622,0.4511563777923584,0.8035224080085754,-0.15819692611694336,0.9817156195640564
31,0.5184904336929321,0.4969266951084137,-0.4867263436317444,0.9999582171440125,0.5253420472145081,0.48618119955062866,-0.4659520089626312,0.9998805522918701,0.5288329720497131,0.4866819381713867,-0.4659227430820465,0.9998839497566223,0.5321248173713684,0.48742544651031494,-0.4659913182258606,0.9997612833976746,0.5145249366760254,0.48535117506980896,-0.464435875415802,0.999910295009613,0.511101484298706,0.48545169830322266,-0.4645622670650482,0.99993896484375,0.5082652568817139,0.4857121407985687,-0.4646042287349701,0.9999095797538757,0.5393834710121155,0.49591264128685,-0.346012681722641,0.9997692108154297,0.5052279233932495,0.49046215415000916,-0.3405882716178894,0.999918520450592,0.5253525376319885,0.5115561485290527,-0.4427664875984192,0.9999756813049316,0.5123267769813538,0.5105607509613037,-0.4414183497428894,0.9999818205833435,0.5670830011367798,0.5602171421051025,-0.2645571529865265,0.9996360540390015,0.4776284098625183,0.5608647465705872,-0.25532007217407227,0.9997178912162781,0.5909317135810852,0.6433805227279663,-0.3624648451805115,0.9904769659042358,0.4529377818107605,0.6503877639770508,-0.35636940598487854,0.9915115237236023,0.5372196435928345,0.6281663179397583,-0.4932444095611572,0.9594624042510986,0.4995117783546448,0.6309626698493958,-0.4980887472629547,0.9642993807792664,0.52241450548172,0.622269332408905,-0.5255432724952698,0.8956156373023987,0.5099735260009766,0.6239388585090637,-0.5310772657394409,0.8987658023834229,0.5233109593391418,0.607385516166687,-0.50533127784729,0.875716507434845,0.5109952688217163,0.6118575930595398,-0.5155264139175415,0.8644239902496338,0.5275537967681885,0.6075829267501831,-0.48552894592285156,0.7730984687805176,0.5089821815490723,0.61249840259552,-0.49292558431625366,0.7537215948104858,0.5480599403381348,0.6598687767982483,-0.001939746318385005,0.9997251629829407,0.49586015939712524,0.6609393358230591,0.001971479272469878,0.999801516532898,0.5885977149009705,0.6854869723320007,-0.4009521007537842,0.9857906103134155,0.448645681142807,0.6750522255897522,-0.3721749186515808,0.991094708442688,0.5663177967071533,0.7740523815155029,-0.09163887798786163,0.9652554988861084,0.47216129302978516,0.7659169435501099,-0.07353895902633667,0.9935041666030884,0.5568729639053345,0.7872152328491211,-0.06667561829090118,0.9386601448059082,0.4815523028373718,0.7768706679344177,-0.049151647835969925,0.9696999192237854,0.5806459188461304,0.8144691586494446,-0.17504511773586273,0.9542548656463623,0.45116934180259705,0.8036261200904846,-0.15837058424949646,0.9813321232795715
32,0.5191186666488647,0.470493346452713,-0.46668705344200134,0.9999617338180542,0.5253480076789856,0.4586491584777832,-0.446939080953598,0.999889612197876,0.5287973880767822,0.4586837887763977,-0.4469078481197357,0.9998931884765625,0.5320485830307007,0.45883700251579285,-0.44695377349853516,0.9997783303260803,0.5147542357444763,0.4593225121498108,-0.44404274225234985,0.9999170899391174,0.5114011168479919,0.45992961525917053,-0.444161981344223,0.9999439120292664,0.5086339712142944,0.4606013298034668,-0.444197416305542,0.9999166131019592,0.5392868518829346,0.4650881886482239,-0.33174753189086914,0.999787449836731,0.5060926675796509,0.4660864472389221,-0.31920894980430603,0.9999256134033203,0.5259259939193726,0.483807235956192,-0.4243602752685547,0.9999777674674988,0.5133956670761108,0.4855388402938843,-0.4209403395652771,0.9999834299087524,0.5681179165840149,0.5354996919631958,-0.2571823000907898,0.9996637105941772,0.47978514432907104,0.5341557860374451,-0.2394573986530304,0.9997362494468689,0.5911639928817749,0.6164610385894775,-0.3705558776855469,0.9912463426589966,0.45410728454589844,0.6173744201660156,-0.35684463381767273,0.9920708537101746,0.5355539321899414,0.6041996479034424,-0.5172827243804932,0.9624577760696411,0.5001845359802246,0.6044901609420776,-0.5144228935241699,0.965421199798584,0.5201244354248047,0.6003984808921814,-0.5530681014060974,0.9024606347084045,0.5106695890426636,0.6015121936798096,-0.550705075263977,0.901250958442688,0.5202614068984985,0.5846766829490662,-0.533079206943512,0.8833460807800293,0.5123996138572693,0.5875172019004822,-0.5318152904510498,0.8667042851448059,0.5249403715133667,0.5852487087249756,-0.5102510452270508,0.784076452255249,0.5099005103111267,0.5879971981048584,-0.5086507797241211,0.7549525499343872,0.5505455732345581,0.6417500972747803,-0.004671269096434116,0.9997338652610779,0.49710312485694885,0.64286869764328,0.004664946347475052,0.9998058676719666,0.583965003490448,0.6788259148597717,-0.3912084400653839,0.986102283000946,0.4475489556789398,0.6747993230819702,-0.34866034984588623,0.991229236125946,0.5677710771560669,0.7740300297737122,-0.09221143275499344,0.9666563272476196,0.4705136716365814,0.7659125924110413,-0.07027103751897812,0.9938093423843384,0.5599578022956848,0.7870959043502808,-0.06774158775806427,0.9385426044464111,0.48038697242736816,0.7775088548660278,-0.049113232642412186,0.970491886138916,0.5805147886276245,0.8144205212593079,-0.19360294938087463,0.9556074738502502,0.4507710337638855,0.8038297891616821,-0.16693173348903656,0.9820278882980347
33,0.5193201303482056,0.4549832046031952,-0.5398362874984741,0.999965250492096,0.5253255367279053,0.443087100982666,-0.5205415487289429,0.9998992681503296,0.5288122892379761,0.4428437352180481,-0.5204997658729553,0.9999026656150818,0.5320844054222107,0.4427303075790405,-0.5205577611923218,0.9997968077659607,0.5148265957832336,0.44405683875083923,-0.5172791481018066,0.9999241828918457,0.5115729570388794,0.44461074471473694,-0.5174182653427124,0.9999488592147827,0.5088611245155334,0.445223867893219,-0.5174567103385925,0.9999234676361084,0.5392554402351379,0.448086678981781,-0.3990474045276642,0.9998065233230591,0.5067223310470581,0.4502963423728943,-0.3847905099391937,0.9999322891235352,0.52642422914505,0.4665517210960388,-0.49460259079933167,0.9999798536300659,0.5141480565071106,0.46873968839645386,-0.4908119738101959,0.9999849200248718,0.5700756311416626,0.5174685120582581,-0.3160129487514496,0.999690592288971,0.4805701673030853,0.5178432464599609,-0.2917858958244324,0.9997512102127075,0.5904284715652466,0.6033543348312378,-0.4534365236759186,0.9918869137763977,0.45533260703086853,0.6037902235984802,-0.43825116753578186,0.992296576499939,0.5355430841445923,0.5891557335853577,-0.6253329515457153,0.9653487205505371,0.4977826178073883,0.5908576250076294,-0.6358301043510437,0.964171290397644,0.520000696182251,0.5842601656913757,-0.66616290807724,0.9097656607627869,0.5086029767990112,0.5856857299804688,-0.6792287826538086,0.899081289768219,0.5194820165634155,0.5704517960548401,-0.6450070738792419,0.8917028307914734,0.5100550055503845,0.5724157094955444,-0.660330057144165,0.8625860810279846,0.5235797762870789,0.5711756944656372,-0.6181269884109497,0.7964699864387512,0.5080877542495728,0.5733784437179565,-0.6315842270851135,0.7454527020454407,0.5544451475143433,0.6251242160797119,-0.006498139351606369,0.9997344017028809,0.49825841188430786,0.6254132390022278,0.006460753735154867,0.9998005032539368,0.5805489420890808,0.6773838400840759,-0.39764460921287537,0.9860771894454956,0.44699373841285706,0.6742315292358398,-0.3488646447658539,0.9911971688270569,0.5689488649368286,0.7755808234214783,-0.08641491830348969,0.967565655708313,0.4697193205356598,0.7659146785736084,-0.06092507764697075,0.9939769506454468,0.5625610947608948,0.7892183661460876,-0.06292128562927246,0.9339168667793274,0.47984257340431213,0.7777661681175232,-0.0399777889251709,0.9699435830116272,0.5801111459732056,0.8159214854240417,-0.19875703752040863,0.9557388424873352,0.4496277868747711,0.8038943409919739,-0.1720827966928482,0.9822201728820801
34,0.5198787450790405,0.4370679557323456,-0.5279142260551453,0.9999686479568481,0.5258822441101074,0.4248499870300293,-0.5087089538574219,0.999908983707428,0.5294845104217529,0.4246670603752136,-0.5086793899536133,0.9999120831489563,0.5328802466392517,0.4246797263622284,-0.5087448954582214,0.9998160600662231,0.5150023698806763,0.4257497787475586,-0.505272388458252,0.9999314546585083,0.5116170644760132,0.42635005712509155,-0.5054036974906921,0.9999538064002991,0.5088276267051697,0.42709359526634216,-0.505439043045044,0.9999306797981262,0.5398319959640503,0.4311695694923401,-0.38666290044784546,0.9998252391815186,0.5064887404441833,0.43319061398506165,-0.3727332353591919,0.9999388456344604,0.5272939205169678,0.45103493332862854,-0.48245134949684143,0.9999818205833435,0.5147355794906616,0.4526105225086212,-0.47876638174057007,0.9999864101409912,0.5706039071083069,0.5039147138595581,-0.3044586181640625,0.9997180104255676,0.48173341155052185,0.5003723502159119,-0.2784591317176819,0.9997702836990356,0.5886602401733398,0.5910106897354126,-0.4413585662841797,0.9924576282501221,0.4553268849849701,0.5904482007026672,-0.42615023255348206,0.9924363493919373,0.5323722958564758,0.5717857480049133,-0.6188064217567444,0.9680342078208923,0.49771231412887573,0.5755865573883057,-0.6320234537124634,0.962631106376648,0.5175703167915344,0.5677474737167358,-0.6604412794113159,0.9166247844696045,0.5082720518112183,0.5700904726982117,-0.6760756373405457,0.8968201279640198,0.5169467329978943,0.5538651943206787,-0.6383587718009949,0.8996512293815613,0.5099018812179565,0.5548511147499084,-0.6553885340690613,0.8583939075469971,0.5208644270896912,0.5547053217887878,-0.611224353313446,0.8082504272460938,0.5081433653831482,0.5559830069541931,-0.6270747184753418,0.7347084283828735,0.5557349920272827,0.6106685996055603,-0.006762261036783457,0.9997453689575195,0.49980124831199646,0.6105057597160339,0.006724928971379995,0.9998037219047546,0.5807545781135559,0.6733951568603516,-0.3939434587955475,0.9847795963287354,0.4469640851020813,0.6679380536079407,-0.3486255407333374,0.9907216429710388,0.5690337419509888,0.7749242782592773,-0.07567739486694336,0.9668132662773132,0.46972817182540894,0.764037549495697,-0.052428264170885086,0.993830144405365,0.5622949600219727,0.7881758213043213,-0.051657550036907196,0.9280009269714355,0.4797026216983795,0.7767308950424194,-0.03088751807808876,0.9666070938110352,0.5801799893379211,0.8158459067344666,-0.19519087672233582,0.9539803862571716,0.4495476186275482,0.8039708733558655,-0.17061404883861542,0.9812688231468201
35,0.5193747878074646,0.42127513885498047,-0.5370532274246216,0.9999716281890869,0.5257714986801147,0.407981812953949,-0.5175639390945435,0.9999173283576965,0.5294248461723328,0.40791505575180054,-0.517546534538269,0.9999203085899353,0.5327911376953125,0.407868891954422,-0.5176109075546265,0.999832034111023,0.5143035650253296,0.4086758494377136,-0.5137965083122253,0.9999376535415649,0.5109832882881165,0.409412682056427,-0.5139354467391968,0.9999581575393677,0.508237361907959,0.41021424531936646,-0.5139843821525574,0.9999368190765381,0.5400038361549377,0.41536563634872437,-0.3939839005470276,0.9998416900634766,0.5062378644943237,0.41832882165908813,-0.3775986433029175,0.9999446868896484,0.5272735357284546,0.4361330568790436,-0.4908016622066498,0.999983549118042,0.5140916705131531,0.4381631016731262,-0.48636728525161743,0.9999877214431763,0.5715442895889282,0.48945382237434387,-0.3065449893474579,0.9997332692146301,0.48077473044395447,0.49130648374557495,-0.288265198469162,0.9997876286506653,0.5884829759597778,0.5811333060264587,-0.45455724000930786,0.9925833344459534,0.46039992570877075,0.588302493095398,-0.4476659893989563,0.9926988482475281,0.5329602956771851,0.5589431524276733,-0.6484591960906982,0.9686492085456848,0.49970483779907227,0.5598592162132263,-0.6619347333908081,0.9636602401733398,0.5181819796562195,0.5518626570701599,-0.6913212537765503,0.9197039604187012,0.5092356204986572,0.5534629225730896,-0.7083047032356262,0.9005931615829468,0.5172877311706543,0.5385411977767944,-0.6687569618225098,0.9026324152946472,0.5101009011268616,0.54152911901474,-0.6849448084831238,0.8623802065849304,0.52153480052948,0.5392194390296936,-0.641430675983429,0.8089326620101929,0.5088229179382324,0.5425022840499878,-0.6561239361763,0.7359301447868347,0.5557982325553894,0.6012478470802307,-0.006610879208892584,0.9997589588165283,0.49957260489463806,0.6018751859664917,0.006573529448360205,0.9998143315315247,0.580947756767273,0.6716982126235962,-0.40896549820899963,0.9835824966430664,0.4471033215522766,0.6666737794876099,-0.37485888600349426,0.9903984069824219,0.5682714581489563,0.770885705947876,-0.07871755212545395,0.9661611318588257,0.46976059675216675,0.7618402242660522,-0.058208875358104706,0.9935011267662048,0.5618582963943481,0.783776044845581,-0.05408554524183273,0.9242780208587646,0.47954878211021423,0.7748597264289856,-0.03556857258081436,0.961970865726471,0.5796921253204346,0.8125408887863159,-0.19240546226501465,0.9520199298858643,0.4493400454521179,0.803259015083313,-0.1712152659893036,0.979587197303772
36,0.5193285942077637,0.40870675444602966,-0.5589143633842468,0.9999740719795227,0.5256832242012024,0.3948156535625458,-0.5399155616760254,0.9999240636825562,0.5293192863464355,0.3949768841266632,-0.5398925542831421,0.9999269843101501,0.5327001810073853,0.39501526951789856,-0.5399637222290039,0.9998443722724915,0.5143560171127319,0.39509350061416626,-0.5365272760391235,0.9999427795410156,0.5111554265022278,0.3958171308040619,-0.5366851687431335,0.999961793422699,0.5084961652755737,0.3967380225658417,-0.536762535572052,0.9999419450759888,0.5392819046974182,0.40119826793670654,-0.41250723600387573,0.9998554587364197,0.506297767162323,0.40520715713500977,-0.39775365591049194,0.9999497532844543,0.527208685874939,0.4219675064086914,-0.5105217695236206,0.9999849796295166,0.5140047073364258,0.42389148473739624,-0.506641149520874,0.9999887943267822,0.5712953805923462,0.471769243478775,-0.3206917643547058,0.9997389316558838,0.48062753677368164,0.47896111011505127,-0.3028993010520935,0.9998034238815308,0.5885418653488159,0.5662839412689209,-0.4639994502067566,0.9920397400856018,0.45935916900634766,0.563883364200592,-0.4626612663269043,0.9928960800170898,0.5331147313117981,0.5441877841949463,-0.6517235636711121,0.9649336934089661,0.49966222047805786,0.5481971502304077,-0.6687598824501038,0.963192343711853,0.5184088349342346,0.5403141379356384,-0.693794846534729,0.9150274991989136,0.5095791220664978,0.5411758422851562,-0.7146201133728027,0.9002823829650879,0.5178399682044983,0.5274723172187805,-0.6748073697090149,0.8962170481681824,0.5101978778839111,0.5283151865005493,-0.6914721727371216,0.8609594702720642,0.5218757390975952,0.527722179889679,-0.6460874676704407,0.794085681438446,0.5090132355690002,0.5301269888877869,-0.6629718542098999,0.7295278310775757,0.5565913915634155,0.5909202098846436,-0.006559292320162058,0.999753475189209,0.4994731545448303,0.5921974778175354,0.006538331508636475,0.999816358089447,0.5795046091079712,0.6700772643089294,-0.40330520272254944,0.9819638729095459,0.45048150420188904,0.6634631752967834,-0.3725835680961609,0.9900577664375305,0.5687970519065857,0.7706223726272583,-0.060224711894989014,0.9647725224494934,0.46938738226890564,0.7619625329971313,-0.04951911419630051,0.9934876561164856,0.5617554187774658,0.7836123704910278,-0.03529953584074974,0.9177422523498535,0.4787984788417816,0.7755729556083679,-0.02758495882153511,0.9588877558708191,0.579961359500885,0.8115031123161316,-0.17972996830940247,0.9498745203018188,0.44847002625465393,0.8034121990203857,-0.17126180231571198,0.9790688157081604
37,0.5198308825492859,0.3734407126903534,-0.5300103425979614,0.9999763369560242,0.5260728597640991,0.3616633117198944,-0.49835890531539917,0.9999303221702576,0.5294888019561768,0.3618565797805786,-0.49841564893722534,0.9999330639839172,0.532720685005188,0.3622402846813202,-0.4984404444694519,0.9998568892478943,0.5159910917282104,0.36202043294906616,-0.5024641752243042,0.9999474883079529,0.5129861831665039,0.36253437399864197,-0.5025173425674438,0.9999649524688721,0.5102488994598389,0.3632621765136719,-0.5026552081108093,0.9999467134475708,0.5386998653411865,0.36910295486450195,-0.34780019521713257,0.9998679757118225,0.5072625875473022,0.37144914269447327,-0.344784677028656,0.9999542832374573,0.5272132158279419,0.3865921199321747,-0.4628812372684479,0.9999862313270569,0.5150467753410339,0.38720566034317017,-0.4656152129173279,0.9999897480010986,0.5703468322753906,0.44306010007858276,-0.26814934611320496,0.9997560381889343,0.47993335127830505,0.44794151186943054,-0.24905255436897278,0.9998176693916321,0.585684061050415,0.5241450071334839,-0.42110443115234375,0.9914958477020264,0.45918434858322144,0.5273724794387817,-0.42406344413757324,0.9930989742279053,0.5337861180305481,0.5165979266166687,-0.5832784175872803,0.9621310830116272,0.4973713457584381,0.5206553936004639,-0.5881004333496094,0.9626204967498779,0.5192427635192871,0.5163915753364563,-0.6267802119255066,0.9117514491081238,0.5081115961074829,0.516445517539978,-0.633423924446106,0.8999502062797546,0.5182112455368042,0.5019992589950562,-0.6136258840560913,0.8922975063323975,0.5099764466285706,0.5053766965866089,-0.6159005761146545,0.8604868054389954,0.5220005512237549,0.5011953115463257,-0.580477237701416,0.7857407927513123,0.5069782733917236,0.5064722299575806,-0.5845353007316589,0.7278952598571777,0.5560678839683533,0.5741299986839294,-0.006399902049452066,0.9997609257698059,0.49927768111228943,0.5764068961143494,0.006380185484886169,0.9998237490653992,0.5802289843559265,0.6678463220596313,-0.32476136088371277,0.9821550250053406,0.4546390473842621,0.6600347757339478,-0.29697421193122864,0.9904323220252991,0.5689891576766968,0.7706910371780396,-0.014201859012246132,0.9658327102661133,0.46902570128440857,0.7620707154273987,-0.002649785950779915,0.9937868714332581,0.5615805387496948,0.783697247505188,0.00788477249443531,0.9149745106697083,0.47777265310287476,0.7756205201148987,0.017596449702978134,0.9587093591690063,0.5803385972976685,0.8111439943313599,-0.1336258500814438,0.9510615468025208,0.44742530584335327,0.8039538264274597,-0.12382742017507553,0.9799206256866455
