frame,NOSE.x,NOSE.y,NOSE.z,NOSE.v,LEFT_EYE_INNER.x,LEFT_EYE_INNER.y,LEFT_EYE_INNER.z,LEFT_EYE_INNER.v,LEFT_EYE.x,LEFT_EYE.y,LEFT_EYE.z,LEFT_EYE.v,LEFT_EYE_OUTER.x,LEFT_EYE_OUTER.y,LEFT_EYE_OUTER.z,LEFT_EYE_OUTER.v,RIGHT_EYE_INNER.x,RIGHT_EYE_INNER.y,RIGHT_EYE_INNER.z,RIGHT_EYE_INNER.v,RIGHT_EYE.x,RIGHT_EYE.y,RIGHT_EYE.z,RIGHT_EYE.v,RIGHT_EYE_OUTER.x,RIGHT_EYE_OUTER.y,RIGHT_EYE_OUTER.z,RIGHT_EYE_OUTER.v,LEFT_EAR.x,LEFT_EAR.y,LEFT_EAR.z,LEFT_EAR.v,RIGHT_EAR.x,RIGHT_EAR.y,RIGHT_EAR.z,RIGHT_EAR.v,MOUTH_LEFT.x,MOUTH_LEFT.y,MOUTH_LEFT.z,MOUTH_LEFT.v,MOUTH_RIGHT.x,MOUTH_RIGHT.y,MOUTH_RIGHT.z,MOUTH_RIGHT.v,LEFT_SHOULDER.x,LEFT_SHOULDER.y,LEFT_SHOULDER.z,LEFT_SHOULDER.v,RIGHT_SHOULDER.x,RIGHT_SHOULDER.y,RIGHT_SHOULDER.z,RIGHT_SHOULDER.v,LEFT_ELBOW.x,LEFT_ELBOW.y,LEFT_ELBOW.z,LEFT_ELBOW.v,RIGHT_ELBOW.x,RIGHT_ELBOW.y,RIGHT_ELBOW.z,RIGHT_ELBOW.v,LEFT_WRIST.x,LEFT_WRIST.y,LEFT_WRIST.z,LEFT_WRIST.v,RIGHT_WRIST.x,RIGHT_WRIST.y,RIGHT_WRIST.z,RIGHT_WRIST.v,LEFT_PINKY.x,LEFT_PINKY.y,LEFT_PINKY.z,LEFT_PINKY.v,RIGHT_PINKY.x,RIGHT_PINKY.y,RIGHT_PINKY.z,RIGHT_PINKY.v,LEFT_INDEX.x,LEFT_INDEX.y,LEFT_INDEX.z,LEFT_INDEX.v,RIGHT_INDEX.x,RIGHT_INDEX.y,RIGHT_INDEX.z,RIGHT_INDEX.v,LEFT_THUMB.x,LEFT_THUMB.y,LEFT_THUMB.z,LEFT_THUMB.v,RIGHT_THUMB.x,RIGHT_THUMB.y,RIGHT_THUMB.z,RIGHT_THUMB.v,LEFT_HIP.x,LEFT_HIP.y,LEFT_HIP.z,LEFT_HIP.v,RIGHT_HIP.x,RIGHT_HIP.y,RIGHT_HIP.z,RIGHT_HIP.v,LEFT_KNEE.x,LEFT_KNEE.y,LEFT_KNEE.z,LEFT_KNEE.v,RIGHT_KNEE.x,RIGHT_KNEE.y,RIGHT_KNEE.z,RIGHT_KNEE.v,LEFT_ANKLE.x,LEFT_ANKLE.y,LEFT_ANKLE.z,LEFT_ANKLE.v,RIGHT_ANKLE.x,RIGHT_ANKLE.y,RIGHT_ANKLE.z,RIGHT_ANKLE.v,LEFT_HEEL.x,LEFT_HEEL.y,LEFT_HEEL.z,LEFT_HEEL.v,RIGHT_HEEL.x,RIGHT_HEEL.y,RIGHT_HEEL.z,RIGHT_HEEL.v,LEFT_FOOT_INDEX.x,LEFT_FOOT_INDEX.y,LEFT_FOOT_INDEX.z,LEFT_FOOT_INDEX.v,RIGHT_FOOT_INDEX.x,RIGHT_FOOT_INDEX.y,RIGHT_FOOT_INDEX.z,RIGHT_FOOT_INDEX.v
0,0.45110470056533813,0.3440918028354645,-0.4368515610694885,1.0,0.45538467168807983,0.33222663402557373,-0.4093190133571625,0.9999997615814209,0.45835787057876587,0.3323267996311188,-0.4093227982521057,0.9999997615814209,0.4610489010810852,0.33236169815063477,-0.40939611196517944,0.9999995231628418,0.44516903162002563,0.3315587043762207,-0.41237983107566833,0.9999997615814209,0.44118285179138184,0.3313174843788147,-0.41244763135910034,0.9999998807907104,0.43746453523635864,0.33112841844558716,-0.4123961329460144,0.9999996423721313,0.4655950665473938,0.33695176243782043,-0.25769880414009094,0.9999996423721313,0.43181276321411133,0.33709627389907837,-0.2727036476135254,0.9999997615814209,0.4572712481021881,0.35667628049850464,-0.3816734552383423,0.9999997615814209,0.44505366683006287,0.3565451502799988,-0.38619861006736755,0.9999997615814209,0.48872238397598267,0.38964182138442993,-0.1515626460313797,0.9999953508377075,0.4082949757575989,0.3999166786670685,-0.18628057837486267,0.9999727010726929,0.5217770338058472,0.4256415069103241,-0.15232397615909576,0.9934378266334534,0.37813860177993774,0.4413309693336487,-0.355192095041275,0.9935705661773682,0.5578302145004272,0.46455466747283936,-0.26329177618026733,0.9964578747749329,0.3627685308456421,0.48924046754837036,-0.6364696621894836,0.9873723387718201,0.5752865076065063,0.4795670509338379,-0.2920028269290924,0.993239164352417,0.3535240590572357,0.5128117799758911,-0.6889072060585022,0.9761165380477905,0.5725464224815369,0.4782891571521759,-0.3124558627605438,0.993949294090271,0.3602508306503296,0.5118597149848938,-0.7032047510147095,0.9761537909507751,0.5653125643730164,0.4753253757953644,-0.27353113889694214,0.9890815019607544,0.3642560839653015,0.5056279897689819,-0.6491987109184265,0.9633705615997314,0.4747522473335266,0.5382813811302185,0.0045831333845853806,0.9999279975891113,0.42291054129600525,0.539412796497345,-0.004520206246525049,0.9998910427093506,0.518446683883667,0.598606526851654,-0.33545148372650146,0.9973604083061218,0.38570550084114075,0.5987629294395447,-0.34602418541908264,0.9959553480148315,0.5247847437858582,0.7136502861976624,-0.14869074523448944,0.9942189455032349,0.3760005235671997,0.7168418765068054,-0.14418579638004303,0.9953088164329529,0.516693651676178,0.7375921607017517,-0.14000758528709412,0.9703913331031799,0.3852667510509491,0.7358729243278503,-0.1333165168762207,0.9595217108726501,0.5474737286567688,0.7553548812866211,-0.2845366597175598,0.9881977438926697,0.36078932881355286,0.7587475180625916,-0.2771022915840149,0.9881467223167419
1,0.45044317841529846,0.3440271019935608,-0.4211616516113281,1.0,0.45440369844436646,0.3319644033908844,-0.3962346911430359,0.9999997615814209,0.45725908875465393,0.3320235013961792,-0.396219402551651,0.9999997615814209,0.45992618799209595,0.3320557475090027,-0.39628395438194275,0.9999995231628418,0.444585382938385,0.3313998281955719,-0.3986724317073822,0.9999997615814209,0.4407016336917877,0.3311896026134491,-0.3987458646297455,0.9999998807907104,0.4370322823524475,0.33102911710739136,-0.3986859917640686,0.9999996423721313,0.46491456031799316,0.3364633619785309,-0.25297990441322327,0.9999996423721313,0.43163514137268066,0.3369215130805969,-0.2650848627090454,0.9999997615814209,0.45638394355773926,0.3564969301223755,-0.36873286962509155,0.9999997615814209,0.4446982741355896,0.3564743399620056,-0.3722793459892273,0.9999997615814209,0.4886131286621094,0.3891456425189972,-0.1308717578649521,0.9999955892562866,0.40838298201560974,0.3986370861530304,-0.16263291239738464,0.9999719262123108,0.5232553482055664,0.4261092245578766,-0.04688049107789993,0.993861734867096,0.37813419103622437,0.44005051255226135,-0.15733250975608826,0.9936884641647339,0.5590633153915405,0.4662231504917145,-0.08983667939901352,0.9966504573822021,0.3630475401878357,0.4890870153903961,-0.23555763065814972,0.9877164363861084,0.5754272937774658,0.48087266087532043,-0.1012583002448082,0.9934324622154236,0.353646457195282,0.5120915770530701,-0.25240808725357056,0.9762280583381653,0.5726040005683899,0.4815743863582611,-0.13177278637886047,0.994144082069397,0.3606671392917633,0.5101507902145386,-0.2744532823562622,0.9763413667678833,0.5658127069473267,0.47819817066192627,-0.10148303210735321,0.9894883036613464,0.36461561918258667,0.5043618679046631,-0.24429769814014435,0.9641671180725098,0.47447746992111206,0.5364019870758057,0.00388512946665287,0.9999295473098755,0.42297783493995667,0.5371779799461365,-0.003832287387922406,0.9998882412910461,0.5185171961784363,0.5990617871284485,-0.2940121293067932,0.9973872303962708,0.3850938677787781,0.6035041809082031,-0.24019527435302734,0.995905876159668,0.5243588089942932,0.7188484072685242,-0.13678424060344696,0.9943910241127014,0.37613245844841003,0.7169047594070435,-0.05282289534807205,0.9952310919761658,0.5162202715873718,0.7413864135742188,-0.12970896065235138,0.9708771109580994,0.3852863907814026,0.7357549667358398,-0.04229521378874779,0.9592678546905518,0.5481245517730713,0.7562515735626221,-0.2631484866142273,0.9884824156761169,0.3599046468734741,0.7589218616485596,-0.16618481278419495,0.9879416227340698
2,0.44992128014564514,0.34388014674186707,-0.4224439561367035,1.0,0.4537418782711029,0.33157914876937866,-0.40055423974990845,0.9999997615814209,0.456550657749176,0.3316055238246918,-0.40051788091659546,0.9999997615814209,0.4592134356498718,0.33163684606552124,-0.40058737993240356,0.9999995827674866,0.44408172369003296,0.3311138153076172,-0.4017978310585022,0.9999997615814209,0.44025078415870667,0.33094319701194763,-0.4018820822238922,0.9999998807907104,0.43661636114120483,0.330819696187973,-0.40181177854537964,0.9999996423721313,0.4644245505332947,0.3359467685222626,-0.26049232482910156,0.9999996423721313,0.431428998708725,0.3367035686969757,-0.26968222856521606,0.9999997615814209,0.45577535033226013,0.3562397360801697,-0.37318775057792664,0.9999997615814209,0.4443453252315521,0.35633453726768494,-0.3748910427093506,0.9999997615814209,0.4884914457798004,0.3888793885707855,-0.1368793398141861,0.9999958872795105,0.40840888023376465,0.3978334963321686,-0.16996601223945618,0.9999721646308899,0.523915708065033,0.42627954483032227,-0.07621442526578903,0.9942310452461243,0.37813058495521545,0.4390279948711395,-0.21049253642559052,0.9938338398933411,0.5597187876701355,0.4667617082595825,-0.13510975241661072,0.9968100786209106,0.3631632626056671,0.4890384376049042,-0.3384532034397125,0.988027036190033,0.5755854845046997,0.4815741181373596,-0.1508214771747589,0.9936192035675049,0.3537191152572632,0.5111928582191467,-0.363984614610672,0.9764804244041443,0.5726273059844971,0.4832635223865509,-0.17954960465431213,0.9943301677703857,0.3609009385108948,0.5101752877235413,-0.3849271237850189,0.9766669869422913,0.5660372972488403,0.47959133982658386,-0.14650797843933105,0.9898484349250793,0.36476796865463257,0.5029982328414917,-0.34836921095848083,0.965029239654541,0.4743994176387787,0.5346826314926147,0.003668302670121193,0.9999322295188904,0.42319393157958984,0.5356041789054871,-0.0036243728827685118,0.9998885989189148,0.5185936689376831,0.5990903973579407,-0.29467901587486267,0.9974311590194702,0.3850977420806885,0.6045006513595581,-0.2349914312362671,0.9958605766296387,0.5242315530776978,0.7191957235336304,-0.13475339114665985,0.9945574402809143,0.3764338195323944,0.7168818712234497,-0.04219067841768265,0.99514240026474,0.5159541964530945,0.7416280508041382,-0.12796014547348022,0.9709715247154236,0.38554438948631287,0.7353905439376831,-0.03154993802309036,0.9586527347564697,0.5482268333435059,0.7563609480857849,-0.26438748836517334,0.9887443780899048,0.3592597246170044,0.7589152455329895,-0.15791450440883636,0.9877433180809021
3,0.44965821504592896,0.3438663184642792,-0.4223858416080475,1.0,0.4533965587615967,0.331475168466568,-0.39818239212036133,0.9999997615814209,0.45618072152137756,0.3314785063266754,-0.39815378189086914,0.9999997615814209,0.45883774757385254,0.331501841545105,-0.3982166349887848,0.9999995827674866,0.4438056945800781,0.33106178045272827,-0.40017277002334595,0.9999997615814209,0.43999719619750977,0.3309054672718048,-0.40025192499160767,0.9999998807907104,0.4363802969455719,0.33079516887664795,-0.4001884460449219,0.9999996423721313,0.46416395902633667,0.33574941754341125,-0.2568359971046448,0.9999996423721313,0.4313219487667084,0.3366733491420746,-0.26665961742401123,0.9999997615814209,0.45547977089881897,0.35619959235191345,-0.37089651823043823,0.9999997615814209,0.44419223070144653,0.35633113980293274,-0.37374550104141235,0.9999997615814209,0.48844313621520996,0.388873428106308,-0.13189078867435455,0.9999961256980896,0.40846148133277893,0.3975105583667755,-0.16468307375907898,0.9999715685844421,0.5244300365447998,0.4265333414077759,-0.05479240417480469,0.9945644736289978,0.378134548664093,0.4380800127983093,-0.1725909411907196,0.9939119815826416,0.5600852370262146,0.4669360816478729,-0.10219451040029526,0.9969802498817444,0.36324843764305115,0.4887235760688782,-0.2619399428367615,0.9883714914321899,0.5756891965866089,0.48178133368492126,-0.11380783468484879,0.9938287138938904,0.35391488671302795,0.5097410678863525,-0.2800319492816925,0.97677081823349,0.5726302862167358,0.48387154936790466,-0.14386151731014252,0.9945335984230042,0.36119842529296875,0.5096244812011719,-0.30067354440689087,0.9770063161849976,0.566135048866272,0.48007383942604065,-0.11361261457204819,0.9902434349060059,0.36496594548225403,0.5011106729507446,-0.27035874128341675,0.965900182723999,0.47436895966529846,0.5344234108924866,0.003256846684962511,0.9999339580535889,0.42347168922424316,0.5355319380760193,-0.0032284650951623917,0.9998882412910461,0.5190163850784302,0.599165141582489,-0.293521523475647,0.9974918961524963,0.3849973976612091,0.6063074469566345,-0.23428967595100403,0.9958623647689819,0.5242505669593811,0.7198211550712585,-0.13158345222473145,0.9947471022605896,0.3767593502998352,0.7170522212982178,-0.04277557507157326,0.995179295539856,0.5159571766853333,0.7420642971992493,-0.1243942379951477,0.9713758230209351,0.3860330581665039,0.7354333996772766,-0.032020945101976395,0.9589454531669617,0.5483594536781311,0.7566980123519897,-0.2576806843280792,0.9890878200531006,0.3590604066848755,0.7589291930198669,-0.15539665520191193,0.9878193736076355
4,0.44934630393981934,0.3599473834037781,-0.3511658310890198,1.0,0.4531215727329254,0.34603601694107056,-0.32595568895339966,0.9999997615814209,0.45600342750549316,0.34554874897003174,-0.32593098282814026,0.9999997019767761,0.4587392807006836,0.3451257646083832,-0.3260221779346466,0.9999995231628418,0.4434121251106262,0.34674492478370667,-0.3303176164627075,0.9999997615814209,0.43963485956192017,0.34697502851486206,-0.3303822875022888,0.9999998807907104,0.4360451102256775,0.34742894768714905,-0.3303704261779785,0.9999996423721313,0.4639715552330017,0.3480774164199829,-0.18854506313800812,0.9999995827674866,0.43085646629333496,0.3533034324645996,-0.20982742309570312,0.9999997615814209,0.45544004440307617,0.37210386991500854,-0.3007062077522278,0.9999997019767761,0.44407495856285095,0.37394893169403076,-0.30720409750938416,0.9999996423721313,0.48785534501075745,0.3988024592399597,-0.07001104950904846,0.9999950528144836,0.4087953567504883,0.4096621870994568,-0.14360502362251282,0.9999618530273438,0.5199640989303589,0.43236878514289856,0.055187273770570755,0.9931537508964539,0.3806222081184387,0.44673898816108704,-0.23871298134326935,0.991833508014679,0.557500958442688,0.46636947989463806,0.0913272425532341,0.9967039227485657,0.37263426184654236,0.47768163681030273,-0.4674060344696045,0.9866622090339661,0.572711706161499,0.47595903277397156,0.09806372225284576,0.9933950304985046,0.3664579391479492,0.4811044931411743,-0.5016009211540222,0.9742482304573059,0.5722469091415405,0.4734121263027191,0.07173018902540207,0.9941774606704712,0.37474989891052246,0.47482776641845703,-0.5015156269073486,0.9742820858955383,0.5657072067260742,0.47244948148727417,0.08347883075475693,0.9897860288619995,0.37796923518180847,0.47361886501312256,-0.4738154411315918,0.9620308876037598,0.4741188883781433,0.5413019061088562,0.007691089995205402,0.9999346137046814,0.423860639333725,0.5433114767074585,-0.007795133627951145,0.9998846650123596,0.5202639698982239,0.6021235585212708,-0.274554044008255,0.9975252151489258,0.38357898592948914,0.6113317608833313,-0.24752911925315857,0.9958756566047668,0.5250658392906189,0.7208106517791748,-0.11510409414768219,0.9948539733886719,0.37677472829818726,0.7189358472824097,-0.06976857036352158,0.9952736496925354,0.5159564018249512,0.7429193258285522,-0.10748515278100967,0.9717316031455994,0.38609713315963745,0.7361955046653748,-0.05915446951985359,0.9597901701927185,0.5501827597618103,0.7604930996894836,-0.2306782752275467,0.9892789125442505,0.3590729534626007,0.7590512037277222,-0.17806248366832733,0.9882230162620544
5,0.4495697617530823,0.38421714305877686,-0.360670804977417,1.0,0.4534420073032379,0.3704233467578888,-0.3357597291469574,0.9999996423721313,0.45659884810447693,0.37007424235343933,-0.335704505443573,0.9999995827674866,0.45961466431617737,0.36961066722869873,-0.3357946276664734,0.9999992847442627,0.44341954588890076,0.3708057403564453,-0.3406403958797455,0.9999997019767761,0.4396441578865051,0.3711080551147461,-0.34068426489830017,0.9999998211860657,0.43605074286460876,0.3715982437133789,-0.3406657576560974,0.9999995827674866,0.4646187722682953,0.3711317181587219,-0.1991349160671234,0.9999993443489075,0.43075722455978394,0.37684938311576843,-0.22255663573741913,0.9999997019767761,0.4559408128261566,0.396219402551651,-0.3105851411819458,0.999999463558197,0.44410720467567444,0.3980979919433594,-0.3178723454475403,0.999999463558197,0.4863383173942566,0.41382846236228943,-0.06437470018863678,0.9999878406524658,0.40963035821914673,0.43419820070266724,-0.15430210530757904,0.9999449253082275,0.5134168863296509,0.44436684250831604,0.11772193759679794,0.9916499257087708,0.37897029519081116,0.4869896471500397,-0.31250470876693726,0.9917904138565063,0.5499897599220276,0.46508654952049255,0.24755048751831055,0.9963716268539429,0.38117846846580505,0.4671589732170105,-0.5375146865844727,0.9873300194740295,0.5651335120201111,0.46764904260635376,0.27775949239730835,0.9929758310317993,0.37635931372642517,0.4616130292415619,-0.5746060013771057,0.9753457307815552,0.566344678401947,0.46322041749954224,0.2549843490123749,0.9937841296195984,0.3817998468875885,0.44957679510116577,-0.5720616579055786,0.9751888513565063,0.5604163408279419,0.46460914611816406,0.24440805613994598,0.9893367886543274,0.38394635915756226,0.4524725079536438,-0.5413724780082703,0.9630201458930969,0.4740464687347412,0.5546998381614685,0.00923045165836811,0.9999375939369202,0.4240930676460266,0.5550962686538696,-0.009416534565389156,0.9998883605003357,0.5211077332496643,0.60532146692276,-0.2907634675502777,0.9976720809936523,0.3820866346359253,0.6117879748344421,-0.3006635904312134,0.9961681962013245,0.5255938768386841,0.7224441170692444,-0.11800400912761688,0.9951474666595459,0.3782855272293091,0.7200772762298584,-0.119817353785038,0.9956213235855103,0.5159052610397339,0.74317866563797,-0.10866119712591171,0.973507285118103,0.38746899366378784,0.7380146384239197,-0.10797075927257538,0.962884783744812,0.5502506494522095,0.7605429291725159,-0.2360454797744751,0.9898948669433594,0.3593524694442749,0.7592459917068481,-0.23004150390625,0.9891141057014465
6,0.44997888803482056,0.40085455775260925,-0.1637868732213974,1.0,0.4536965489387512,0.3890083432197571,-0.14398720860481262,0.9999996423721313,0.45682448148727417,0.3888567388057709,-0.14402422308921814,0.9999995827674866,0.4597379267215729,0.38846179842948914,-0.1440838724374771,0.9999992847442627,0.4444372057914734,0.3888503909111023,-0.14928993582725525,0.9999997019767761,0.44109195470809937,0.38867446780204773,-0.1493142694234848,0.9999997615814209,0.43749675154685974,0.3885095417499542,-0.14930474758148193,0.9999995231628418,0.46354246139526367,0.38697072863578796,-0.03442602977156639,0.9999993443489075,0.43183016777038574,0.38912326097488403,-0.0596962571144104,0.9999997019767761,0.4560014605522156,0.4117402136325836,-0.12310214340686798,0.9999995231628418,0.4449847638607025,0.41231974959373474,-0.13088369369506836,0.9999995231628418,0.4845425486564636,0.4319753050804138,-0.001027227845042944,0.9999865889549255,0.4125387668609619,0.43885141611099243,-0.04649437218904495,0.9999484419822693,0.5087598562240601,0.48211801052093506,-0.19654223322868347,0.9868074655532837,0.39042407274246216,0.4788680970668793,-0.2971097230911255,0.9898828864097595,0.517116129398346,0.46501830220222473,-0.45140570402145386,0.994848906993866,0.39640694856643677,0.4695965647697449,-0.5423246026039124,0.9864793419837952,0.5307736396789551,0.46728917956352234,-0.5007346272468567,0.9913523197174072,0.3911019563674927,0.4695698618888855,-0.5919008255004883,0.9746962785720825,0.5270413756370544,0.4601329267024994,-0.49813419580459595,0.991935670375824,0.3965868651866913,0.4619169235229492,-0.5843007564544678,0.9742022156715393,0.5202933549880981,0.46517980098724365,-0.4578924775123596,0.9857754111289978,0.40180644392967224,0.46369120478630066,-0.546341061592102,0.9607645273208618,0.4732953608036041,0.572799026966095,0.008815356530249119,0.9999405145645142,0.42499861121177673,0.571682870388031,-0.008998287841677666,0.9998970627784729,0.5222532153129578,0.6075154542922974,-0.320593923330307,0.9977163076400757,0.38224050402641296,0.6107842326164246,-0.36786743998527527,0.9964777827262878,0.525844395160675,0.7246232628822327,-0.24347074329853058,0.9952260255813599,0.3791505992412567,0.7205543518066406,-0.26436847448349,0.9959487915039062,0.515823483467102,0.7436730265617371,-0.24460332095623016,0.9750282168388367,0.38805121183395386,0.738939106464386,-0.2614147961139679,0.965534508228302,0.5502234697341919,0.7604892253875732,-0.3736135959625244,0.9903419613838196,0.3603209853172302,0.7584482431411743,-0.3923686146736145,0.9899495840072632
7,0.4499797224998474,0.42950907349586487,-0.2129429280757904,0.9999943971633911,0.45357364416122437,0.4196666181087494,-0.19471365213394165,0.999992847442627,0.45651930570602417,0.42023134231567383,-0.19474154710769653,0.9999922513961792,0.45927006006240845,0.4205092787742615,-0.1947721689939499,0.999991774559021,0.4446093440055847,0.41872575879096985,-0.19331805408000946,0.9999904036521912,0.44149622321128845,0.41999074816703796,-0.19335156679153442,0.9999896883964539,0.4383300840854645,0.4208906888961792,-0.19335225224494934,0.9999887347221375,0.4628446102142334,0.4246387779712677,-0.09452669322490692,0.9999927282333374,0.4325537085533142,0.42910510301589966,-0.08586931973695755,0.999990701675415,0.45591577887535095,0.44181376695632935,-0.17624768614768982,0.9999887943267822,0.4451785683631897,0.4423179030418396,-0.173837810754776,0.9999873042106628,0.4847061038017273,0.45994922518730164,-0.0046027544885873795,0.9997633099555969,0.4127604365348816,0.47415298223495483,-0.0734715387225151,0.9998600482940674,0.48942819237709045,0.4846549928188324,-0.33096057176589966,0.9703938961029053,0.3977286219596863,0.49247467517852783,-0.3103613257408142,0.9870145916938782,0.47578859329223633,0.46850836277008057,-0.5604074001312256,0.9773457646369934,0.4232397675514221,0.4706479012966156,-0.5402790904045105,0.9819260835647583,0.4774112105369568,0.4682689309120178,-0.6090160608291626,0.9719572067260742,0.4274566173553467,0.46405717730522156,-0.5871411561965942,0.9671136736869812,0.4734359383583069,0.4634998142719269,-0.5992336273193359,0.9708123207092285,0.4288773536682129,0.4582473635673523,-0.5731127858161926,0.9650977849960327,0.47149381041526794,0.46545541286468506,-0.5640152096748352,0.9556447267532349,0.42861223220825195,0.4632031321525574,-0.5417529940605164,0.9472439289093018,0.473315566778183,0.5971491932868958,-0.0010537912603467703,0.9999343156814575,0.4256157875061035,0.5960214734077454,0.0009391586063429713,0.9999004006385803,0.5245733857154846,0.6135634779930115,-0.3196752369403839,0.9974701404571533,0.38040024042129517,0.6103944182395935,-0.3325344920158386,0.9966597557067871,0.5258314609527588,0.7242456674575806,-0.19540148973464966,0.9947287440299988,0.37916573882102966,0.7210432291030884,-0.18821652233600616,0.996112048625946,0.5158606767654419,0.7436073422431946,-0.19040177762508392,0.9743359684944153,0.38894689083099365,0.7399913668632507,-0.1808851957321167,0.9669442772865295,0.5487773418426514,0.7601770162582397,-0.3156987130641937,0.9897657036781311,0.3597961366176605,0.7574785351753235,-0.3002416789531708,0.9903388023376465
8,0.4499875009059906,0.43817606568336487,-0.09549665451049805,0.9999897480010986,0.45356041193008423,0.42592400312423706,-0.0791657343506813,0.9999877214431763,0.4563559591770172,0.42588669061660767,-0.07920444011688232,0.9999862313270569,0.45897984504699707,0.4257962107658386,-0.07922901958227158,0.9999865889549255,0.4454965591430664,0.4266130030155182,-0.07594594359397888,0.999984085559845,0.44303417205810547,0.42725345492362976,-0.07597922533750534,0.9999821186065674,0.44048014283180237,0.4280300736427307,-0.07601696252822876,0.9999824166297913,0.4627854824066162,0.4279484748840332,0.0029497623909264803,0.9999839663505554,0.43610209226608276,0.433659166097641,0.018685627728700638,0.9999823570251465,0.4557386338710785,0.4467811584472656,-0.0656357854604721,0.9999716281890869,0.44592705368995667,0.4478709101676941,-0.06142813712358475,0.9999713897705078,0.4861021637916565,0.4689635634422302,0.010678183287382126,0.9994544982910156,0.4177473187446594,0.478498250246048,0.024780597537755966,0.9997878074645996,0.49452105164527893,0.49029842019081116,-0.179047629237175,0.9585267305374146,0.40113121271133423,0.5161890387535095,-0.15759854018688202,0.9841133952140808,0.48000630736351013,0.47001931071281433,-0.3307521939277649,0.9693865180015564,0.4257166385650635,0.47121745347976685,-0.331765353679657,0.9784849286079407,0.4804896414279938,0.4648858308792114,-0.36193332076072693,0.9583917260169983,0.4303394854068756,0.46716633439064026,-0.36621972918510437,0.9581336379051208,0.4777604937553406,0.4632587432861328,-0.35428956151008606,0.9552614688873291,0.4318220615386963,0.4634890556335449,-0.34820306301116943,0.9537766575813293,0.47639456391334534,0.4665883779525757,-0.3318224549293518,0.9342072606086731,0.43143606185913086,0.46731898188591003,-0.3296918272972107,0.9314961433410645,0.4732917845249176,0.6099910736083984,-0.0019415875431150198,0.9999228715896606,0.4272271692752838,0.6069466471672058,0.0018898567650467157,0.9999029636383057,0.5254529714584351,0.6156033873558044,-0.2726958394050598,0.9971491694450378,0.37961387634277344,0.6127768158912659,-0.31547731161117554,0.9968908429145813,0.5257890820503235,0.724152684211731,-0.1993219256401062,0.9941332936286926,0.3796710968017578,0.722247838973999,-0.21659794449806213,0.9963141083717346,0.5158796906471252,0.7433425784111023,-0.1978868991136551,0.9746057391166687,0.38942378759384155,0.7414973378181458,-0.21196329593658447,0.9689946174621582,0.5499988794326782,0.7591651082038879,-0.30418136715888977,0.9893508553504944,0.3596542179584503,0.7574912309646606,-0.31478384137153625,0.9908773899078369
9,0.450251966714859,0.4549598693847656,-0.12404267489910126,0.9999783039093018,0.45387738943099976,0.44687074422836304,-0.109209343791008,0.9999728798866272,0.4565376341342926,0.44649726152420044,-0.10925394296646118,0.9999720454216003,0.45909053087234497,0.4456426799297333,-0.10928170382976532,0.999971866607666,0.446744441986084,0.44874271750450134,-0.10583563894033432,0.9999638199806213,0.44447654485702515,0.4495476186275482,-0.10585887730121613,0.999959409236908,0.4422094225883484,0.44965726137161255,-0.10588119924068451,0.9999598860740662,0.46313396096229553,0.4465666711330414,-0.02527785301208496,0.9999665021896362,0.4371030330657959,0.45074784755706787,-0.008630173280835152,0.9999566078186035,0.45597735047340393,0.4662870466709137,-0.09210983663797379,0.9999365210533142,0.4474518299102783,0.468148410320282,-0.08760561048984528,0.9999280571937561,0.48707646131515503,0.47724848985671997,-0.006613649427890778,0.9993985295295715,0.4190032482147217,0.4873577952384949,0.0068999966606497765,0.9997256398200989,0.4992899000644684,0.502056896686554,-0.1847931146621704,0.9524562358856201,0.4009645879268646,0.5250661969184875,-0.189024418592453,0.9821268320083618,0.480793297290802,0.4759283661842346,-0.3409578204154968,0.9609330296516418,0.4282459616661072,0.4723956286907196,-0.3771282434463501,0.9741581678390503,0.4795873165130615,0.4662856459617615,-0.3716087341308594,0.9412010908126831,0.43738317489624023,0.46780648827552795,-0.41278091073036194,0.9466396570205688,0.47671255469322205,0.46412625908851624,-0.3572370409965515,0.9349417090415955,0.43879786133766174,0.4636874496936798,-0.39130762219429016,0.9382386803627014,0.47590622305870056,0.4709949791431427,-0.33910924196243286,0.9071699380874634,0.4364299178123474,0.46837136149406433,-0.3738449215888977,0.9087013006210327,0.47327151894569397,0.6124429702758789,-0.001455624820664525,0.9999194145202637,0.4283207058906555,0.6098378300666809,0.0014210558729246259,0.9999041557312012,0.5249406099319458,0.6157900094985962,-0.311465322971344,0.9969265460968018,0.38112130761146545,0.6190760135650635,-0.32386547327041626,0.9969943761825562,0.5253106951713562,0.7239615321159363,-0.2711658179759979,0.9933916330337524,0.38016122579574585,0.7259636521339417,-0.2648972272872925,0.9963638782501221,0.5157991051673889,0.7431495189666748,-0.27196353673934937,0.9749525189399719,0.39019083976745605,0.7450237274169922,-0.26364752650260925,0.9701473116874695,0.5499923825263977,0.7582824230194092,-0.38136884570121765,0.9891872406005859,0.35934799909591675,0.7571826577186584,-0.3747510612010956,0.9912301301956177
10,0.45167964696884155,0.4399682879447937,-0.1590617597103119,0.9999503493309021,0.454496294260025,0.4315028786659241,-0.1432034969329834,0.9999393820762634,0.45694202184677124,0.4314761757850647,-0.14325353503227234,0.9999369978904724,0.4593360424041748,0.43129998445510864,-0.14329327642917633,0.9999419450759888,0.4480225443840027,0.43267327547073364,-0.14194655418395996,0.9999216794967651,0.4459730088710785,0.43347254395484924,-0.14196528494358063,0.9999109506607056,0.44377535581588745,0.4339849054813385,-0.1419837474822998,0.9999102354049683,0.4632164537906647,0.43583589792251587,-0.05705810710787773,0.9999403953552246,0.43959173560142517,0.442290335893631,-0.049033187329769135,0.999885082244873,0.45726722478866577,0.4506600797176361,-0.12715710699558258,0.9998929500579834,0.44961056113243103,0.45220568776130676,-0.12502819299697876,0.9998524785041809,0.4889459013938904,0.47701361775398254,-0.028105944395065308,0.999204158782959,0.42115354537963867,0.4842405915260315,-0.04047881439328194,0.999545693397522,0.5013703107833862,0.5019242167472839,-0.2718772292137146,0.9468458294868469,0.40640392899513245,0.5117977857589722,-0.25667184591293335,0.970931351184845,0.4793422222137451,0.4817872941493988,-0.4597755968570709,0.9475518465042114,0.43176355957984924,0.47259753942489624,-0.46607065200805664,0.9597355127334595,0.4763829708099365,0.4753536880016327,-0.498962938785553,0.923105001449585,0.43919628858566284,0.4690033495426178,-0.5074396133422852,0.9268311858177185,0.4719066619873047,0.47300878167152405,-0.4828389286994934,0.9151144623756409,0.4405921995639801,0.4640319049358368,-0.47271808981895447,0.9149762392044067,0.4719654619693756,0.4783007800579071,-0.4588247835636139,0.8798683881759644,0.4387170374393463,0.4692242443561554,-0.46220022439956665,0.8771777749061584,0.47305259108543396,0.6118130087852478,-0.002200797200202942,0.9999114871025085,0.428734689950943,0.6111500263214111,0.002136161085218191,0.9999035596847534,0.5241213440895081,0.6169045567512512,-0.3107280135154724,0.9964956045150757,0.38174739480018616,0.620445966720581,-0.3185398280620575,0.9969459772109985,0.5244148373603821,0.7237054109573364,-0.2229582518339157,0.9925621747970581,0.38015398383140564,0.726382851600647,-0.21114341914653778,0.9963743686676025,0.5154222249984741,0.7420228123664856,-0.21930620074272156,0.9739681482315063,0.3902859389781952,0.7456005811691284,-0.2053525149822235,0.9704656600952148,0.5494726896286011,0.7564086318016052,-0.3344151973724365,0.9885066747665405,0.35924869775772095,0.756470263004303,-0.3205682039260864,0.9912723898887634
11,0.4516485631465912,0.43456459045410156,-0.1045747771859169,0.9999203681945801,0.45430421829223633,0.42881596088409424,-0.09063549339771271,0.9998989701271057,0.45665454864501953,0.42847952246665955,-0.09067042171955109,0.9998955726623535,0.4589761197566986,0.4281390309333801,-0.09068287909030914,0.9999037384986877,0.4478771686553955,0.4301128685474396,-0.08711068332195282,0.9998679161071777,0.44563770294189453,0.43069028854370117,-0.08713162690401077,0.9998488426208496,0.44339489936828613,0.43123212456703186,-0.08717887103557587,0.9998505711555481,0.4632538855075836,0.4329814016819,-0.017601611092686653,0.999889075756073,0.44086557626724243,0.440363347530365,2.4987079086713493e-05,0.9998030662536621,0.45726698637008667,0.4466451406478882,-0.07758134603500366,0.9997959733009338,0.4502623975276947,0.4470454156398773,-0.07276654243469238,0.999725341796875,0.4893755316734314,0.47763124108314514,-0.013480013236403465,0.9989996552467346,0.421624094247818,0.4801897406578064,0.0014840166550129652,0.9994101524353027,0.5020552277565002,0.5044879913330078,-0.20311959087848663,0.9423201084136963,0.40411242842674255,0.5083371996879578,-0.17554433643817902,0.9681236147880554,0.4817611277103424,0.4805159270763397,-0.3691931366920471,0.9427642822265625,0.43431511521339417,0.47346094250679016,-0.3394021689891815,0.9551151990890503,0.47954463958740234,0.4746112823486328,-0.4026927053928375,0.9134705066680908,0.4420384466648102,0.46701639890670776,-0.3717113137245178,0.9153634309768677,0.47644710540771484,0.47194093465805054,-0.38865193724632263,0.9042635560035706,0.44376835227012634,0.4621621370315552,-0.3544926345348358,0.9010254144668579,0.4755786061286926,0.4780709445476532,-0.36795276403427124,0.8639097809791565,0.44224390387535095,0.4663809537887573,-0.33743172883987427,0.8584064841270447,0.4721856117248535,0.6080862879753113,-0.004240457434207201,0.999893069267273,0.42950668931007385,0.6074198484420776,0.004189024679362774,0.9998997449874878,0.5240814089775085,0.6185028553009033,-0.28219735622406006,0.9954913258552551,0.38156911730766296,0.6224441528320312,-0.29722464084625244,0.9968636631965637,0.5238499641418457,0.7235834002494812,-0.21608106791973114,0.9910169839859009,0.3801844120025635,0.7261077165603638,-0.19712910056114197,0.9962040781974792,0.5151424407958984,0.7415887713432312,-0.21224172413349152,0.9720125794410706,0.3903968632221222,0.7451511025428772,-0.19099514186382294,0.9704505801200867,0.5491774082183838,0.7557575702667236,-0.2961031198501587,0.9867227673530579,0.35894742608070374,0.7562302350997925,-0.2866435647010803,0.9908298850059509
12,0.44923728704452515,0.4497990310192108,-0.27726438641548157,0.9999272227287292,0.4534405767917633,0.43868744373321533,-0.2624567449092865,0.9999070763587952,0.45604515075683594,0.4387224018573761,-0.26246654987335205,0.9999040961265564,0.45857006311416626,0.4383648633956909,-0.2624959647655487,0.999910831451416,0.44664788246154785,0.43838122487068176,-0.2604672312736511,0.999878466129303,0.4445393681526184,0.4378596544265747,-0.26048916578292847,0.9998612999916077,0.44264698028564453,0.43743419647216797,-0.26047956943511963,0.9998618960380554,0.46327272057533264,0.44007593393325806,-0.16363085806369781,0.9998980760574341,0.4401094317436218,0.4430980384349823,-0.15332043170928955,0.9998210072517395,0.45560669898986816,0.4612998962402344,-0.2395058423280716,0.9998151063919067,0.4473152160644531,0.46208879351615906,-0.23672306537628174,0.9997514486312866,0.48934346437454224,0.4792766571044922,-0.12678632140159607,0.9990863800048828,0.42077770829200745,0.48102325201034546,-0.12394066900014877,0.9994626641273499,0.502407431602478,0.5024827718734741,-0.3483303487300873,0.9473950862884521,0.40161943435668945,0.5036605596542358,-0.3430667817592621,0.9707884192466736,0.4891977906227112,0.47905874252319336,-0.5689771175384521,0.9475532174110413,0.4309144616127014,0.47359639406204224,-0.5558269619941711,0.9581475257873535,0.4885316789150238,0.4685531556606293,-0.616430401802063,0.9199186563491821,0.4397296905517578,0.4649759531021118,-0.601325511932373,0.9197280406951904,0.48412537574768066,0.46944132447242737,-0.5976964235305786,0.9111744165420532,0.4415919780731201,0.46029630303382874,-0.5801156759262085,0.9054004549980164,0.4834439158439636,0.4717109799385071,-0.5679613947868347,0.8718705773353577,0.4394564628601074,0.46492090821266174,-0.5534533262252808,0.8617284297943115,0.4717976152896881,0.604636013507843,-0.0034597464837133884,0.9998982548713684,0.4283732771873474,0.6024853587150574,0.0034151740837842226,0.999906063079834,0.52345210313797,0.619384765625,-0.30325931310653687,0.9955979585647583,0.3815777897834778,0.625075101852417,-0.3035559058189392,0.9969937801361084,0.523625910282135,0.7236739993095398,-0.20982523262500763,0.9913118481636047,0.37959712743759155,0.7267828583717346,-0.18980422616004944,0.9964140057563782,0.5150552988052368,0.7415496110916138,-0.20082995295524597,0.9732062220573425,0.3901296854019165,0.7452976703643799,-0.18273916840553284,0.9719217419624329,0.5488699674606323,0.7557771801948547,-0.29637056589126587,0.9872258305549622,0.3589481711387634,0.7562595009803772,-0.2869504988193512,0.9912837743759155
13,0.44927486777305603,0.4414505958557129,-0.19536125659942627,0.9999319911003113,0.45400819182395935,0.43379244208335876,-0.17719173431396484,0.9999135732650757,0.45704221725463867,0.4320346415042877,-0.1772114336490631,0.999910295009613,0.45985299348831177,0.4297771155834198,-0.17722225189208984,0.9999154210090637,0.44648146629333496,0.4375359117984772,-0.17641828954219818,0.9998876452445984,0.44409337639808655,0.4360341727733612,-0.17641425132751465,0.9998717904090881,0.44198077917099,0.4339422583580017,-0.17639264464378357,0.9998716115951538,0.4651637077331543,0.42806434631347656,-0.07986821234226227,0.9999056458473206,0.43962663412094116,0.4340684115886688,-0.07483462989330292,0.9998374581336975,0.4561319351196289,0.44922101497650146,-0.1598145067691803,0.9998314380645752,0.4468538165092468,0.4532600939273834,-0.15850530564785004,0.9997750520706177,0.4883301258087158,0.46988052129745483,-0.07606044411659241,0.9991271495819092,0.42100945115089417,0.476516991853714,-0.08323336392641068,0.9995089769363403,0.502890944480896,0.4989444315433502,-0.28750327229499817,0.9492636919021606,0.39544039964675903,0.5010425448417664,-0.2934166491031647,0.9733463525772095,0.49389344453811646,0.4784947633743286,-0.5187320113182068,0.9500811100006104,0.4295569360256195,0.4732704758644104,-0.49490928649902344,0.9613392949104309,0.4957156181335449,0.46984052658081055,-0.5679119229316711,0.9236324429512024,0.44097352027893066,0.46671903133392334,-0.538796067237854,0.9249166250228882,0.4917055070400238,0.4694816768169403,-0.5541425943374634,0.9151189923286438,0.44606900215148926,0.4616639018058777,-0.5204735994338989,0.9113272428512573,0.4896412491798401,0.47234708070755005,-0.5205181837081909,0.8759326934814453,0.4428912103176117,0.46581849455833435,-0.4932193160057068,0.8692789673805237,0.4705091416835785,0.5999557375907898,-0.0013609769521281123,0.9998987317085266,0.4257829785346985,0.5986469984054565,0.0013382348697632551,0.999910295009613,0.522717297077179,0.6185119152069092,-0.2881124019622803,0.995066225528717,0.38073059916496277,0.6255304217338562,-0.29933425784111023,0.9970150589942932,0.522918701171875,0.7236534953117371,-0.1777539849281311,0.990675687789917,0.3796251118183136,0.7282686829566956,-0.18320220708847046,0.9964636564254761,0.5142284631729126,0.7416332960128784,-0.17191195487976074,0.973094642162323,0.3903263807296753,0.7468936443328857,-0.1767929643392563,0.9726458191871643,0.5483001470565796,0.7557855248451233,-0.2814606726169586,0.9861059188842773,0.3584464490413666,0.7564521431922913,-0.2853069603443146,0.9911783337593079
14,0.44933629035949707,0.4090026915073395,-0.2795788645744324,0.9999384880065918,0.4538709223270416,0.3963591754436493,-0.2610759139060974,0.9999217987060547,0.4569815695285797,0.39636194705963135,-0.2610921263694763,0.9999188184738159,0.45984944701194763,0.39628732204437256,-0.26113778352737427,0.9999231696128845,0.4458734095096588,0.3976358473300934,-0.26286572217941284,0.9998984932899475,0.4431024491786957,0.3983568251132965,-0.2628933787345886,0.9998842477798462,0.4404935836791992,0.3991336226463318,-0.26285138726234436,0.9998838901519775,0.4651266634464264,0.3993234634399414,-0.1521225869655609,0.999914824962616,0.43576446175575256,0.40485867857933044,-0.15971823036670685,0.9998536109924316,0.4561968445777893,0.4208909571170807,-0.23945240676403046,0.9998481273651123,0.44650182127952576,0.4223269522190094,-0.24188506603240967,0.9997974038124084,0.4877867102622986,0.4545176327228546,-0.11834993213415146,0.9991914629936218,0.41794389486312866,0.45572012662887573,-0.14031095802783966,0.9995536804199219,0.51410311460495,0.4676828980445862,-0.35896438360214233,0.9515911936759949,0.3921232223510742,0.48286673426628113,-0.3820008933544159,0.9751269221305847,0.5081925988197327,0.46952173113822937,-0.6207720041275024,0.9479295611381531,0.4257256090641022,0.47358438372612,-0.6230944395065308,0.9615574479103088,0.5100950002670288,0.46554142236709595,-0.6744775772094727,0.9205335378646851,0.43334776163101196,0.4711689352989197,-0.6732114553451538,0.9255939722061157,0.5021594762802124,0.46368831396102905,-0.6600276827812195,0.911078691482544,0.4367762506008148,0.46460840106010437,-0.6550058126449585,0.9117817878723145,0.4983896315097809,0.4662814736366272,-0.6228745579719543,0.8672266602516174,0.4351063370704651,0.4677494168281555,-0.6222436428070068,0.8669759631156921,0.4706200063228607,0.5802369713783264,0.0009984320495277643,0.9998977184295654,0.42553481459617615,0.5809324383735657,-0.0010617049410939217,0.9999139904975891,0.5213937163352966,0.617945671081543,-0.2967335283756256,0.9945805668830872,0.3803185224533081,0.6240532398223877,-0.31518319249153137,0.9968963861465454,0.5228743553161621,0.7235363721847534,-0.16316059231758118,0.9895040392875671,0.3796607553958893,0.7283008098602295,-0.1708182543516159,0.9964940547943115,0.5142363905906677,0.7414178848266602,-0.15632185339927673,0.971730649471283,0.39035966992378235,0.7471490502357483,-0.16329900920391083,0.9724427461624146,0.548165500164032,0.7557928562164307,-0.27768221497535706,0.984135627746582,0.3581884503364563,0.7565951943397522,-0.2856101095676422,0.9908525347709656
15,0.44932419061660767,0.3819802403450012,-0.29993313550949097,0.9999445676803589,0.453380823135376,0.3673911392688751,-0.28186607360839844,0.9999294281005859,0.4565391540527344,0.3672671914100647,-0.28188782930374146,0.999926745891571,0.45941758155822754,0.36702999472618103,-0.2819397747516632,0.9999305009841919,0.4448716640472412,0.3696916401386261,-0.28316059708595276,0.9999085068702698,0.4420452117919922,0.37147513031959534,-0.28319883346557617,0.9998956918716431,0.4394683241844177,0.3733048737049103,-0.2831701934337616,0.9998953342437744,0.46428704261779785,0.37172508239746094,-0.17138783633708954,0.9999231696128845,0.43524718284606934,0.37981197237968445,-0.17673340439796448,0.9998682141304016,0.4562169015407562,0.39500510692596436,-0.2588545083999634,0.9998632669448853,0.4459386467933655,0.39636126160621643,-0.2605736553668976,0.9998176693916321,0.4877839982509613,0.42488476634025574,-0.11183901876211166,0.9992658495903015,0.41529980301856995,0.4260558485984802,-0.13397230207920074,0.9995976686477661,0.5177004337310791,0.4561019837856293,-0.29573801159858704,0.9553210735321045,0.38620835542678833,0.4763740003108978,-0.3207766115665436,0.9774695038795471,0.5198270678520203,0.4645631015300751,-0.552494466304779,0.9498294591903687,0.4067407548427582,0.48068514466285706,-0.554801344871521,0.9649366140365601,0.5207216739654541,0.46172672510147095,-0.6080928444862366,0.9232869744300842,0.4162778854370117,0.4799524247646332,-0.6055701971054077,0.9320077300071716,0.5156427025794983,0.4556506872177124,-0.6016216278076172,0.9141319394111633,0.42001062631607056,0.46937188506126404,-0.5964661240577698,0.9193872213363647,0.5114385485649109,0.45645543932914734,-0.5572389960289001,0.869857907295227,0.4193113446235657,0.4698844850063324,-0.556495189666748,0.8777395486831665,0.47065630555152893,0.5576015710830688,0.0015607539098709822,0.9998830556869507,0.42556729912757874,0.5565202236175537,-0.0015950367087498307,0.9999121427536011,0.5190032124519348,0.6158735156059265,-0.28304630517959595,0.9937397241592407,0.38038259744644165,0.6232455372810364,-0.3047623336315155,0.9967048168182373,0.5223416686058044,0.7239503860473633,-0.1302446722984314,0.9874774813652039,0.37902384996414185,0.7281303405761719,-0.13908345997333527,0.9961736798286438,0.514011025428772,0.741634726524353,-0.12261108309030533,0.9695726037025452,0.38939332962036133,0.7466005086898804,-0.13039356470108032,0.9708279967308044,0.5473327040672302,0.756027102470398,-0.2406187802553177,0.9797238111495972,0.35813024640083313,0.7576351165771484,-0.25405779480934143,0.988641619682312
16,0.45003199577331543,0.36295005679130554,-0.44139447808265686,0.999950110912323,0.4543844759464264,0.34813976287841797,-0.4230513572692871,0.9999364614486694,0.4580513536930084,0.3481515347957611,-0.4229661524295807,0.9999340176582336,0.4611929953098297,0.34817811846733093,-0.42308029532432556,0.9999372959136963,0.4445915222167969,0.3502722680568695,-0.42552319169044495,0.9999176263809204,0.44130340218544006,0.35251590609550476,-0.4255855679512024,0.9999061226844788,0.4382937550544739,0.3551599681377411,-0.4255358576774597,0.9999057650566101,0.46539178490638733,0.3536941409111023,-0.2994615137577057,0.9999306797981262,0.4326956272125244,0.36644744873046875,-0.3080621361732483,0.999881386756897,0.45849353075027466,0.37808454036712646,-0.3932816684246063,0.9998767971992493,0.4459505081176758,0.3803139626979828,-0.39630067348480225,0.9998358488082886,0.4877973198890686,0.40566113591194153,-0.1315956711769104,0.9993149042129517,0.4152641296386719,0.4130892753601074,-0.20955023169517517,0.9996345639228821,0.5175508260726929,0.4341652989387512,0.10842784494161606,0.9461792707443237,0.38664332032203674,0.4516906142234802,-0.11087115854024887,0.9793651700019836,0.529151201248169,0.45782148838043213,0.30080848932266235,0.9410102367401123,0.39905866980552673,0.47854435443878174,-0.0070303394459187984,0.9669798612594604,0.5425593256950378,0.4623214304447174,0.3426254391670227,0.9141504764556885,0.4051102101802826,0.48521900177001953,0.004187398124486208,0.9342244863510132,0.5361579656600952,0.4582706391811371,0.316058486700058,0.906827986240387,0.41024988889694214,0.476905882358551,-0.0081666000187397,0.9231883883476257,0.5335839986801147,0.45880091190338135,0.2981620132923126,0.865269124507904,0.40993037819862366,0.4729520380496979,-0.005817430093884468,0.8852167725563049,0.4706459641456604,0.5437894463539124,0.002488922793418169,0.9998665452003479,0.4254492223262787,0.5424277782440186,-0.002470920793712139,0.9998913407325745,0.5167936086654663,0.6114298701286316,-0.24366798996925354,0.9940841197967529,0.3822929561138153,0.6200379133224487,-0.2628784775733948,0.9965362548828125,0.5222622156143188,0.7212762832641602,-0.0968795120716095,0.9880879521369934,0.378583163022995,0.7280656099319458,-0.11268164962530136,0.9961906671524048,0.5140296220779419,0.7400079965591431,-0.08943822234869003,0.9682446122169495,0.3889179825782776,0.7464176416397095,-0.10405971109867096,0.9711707830429077,0.5464969277381897,0.7562869191169739,-0.19915491342544556,0.9806634783744812,0.3579069674015045,0.7578564882278442,-0.2194494754076004,0.9889885783195496
17,0.4503898620605469,0.34477469325065613,-0.4208664000034332,0.9999551177024841,0.45509251952171326,0.3301989734172821,-0.4031047224998474,0.9999427795410156,0.45877805352211,0.33128467202186584,-0.40304484963417053,0.9999405741691589,0.46192893385887146,0.332319051027298,-0.4031238555908203,0.9999435544013977,0.4446019232273102,0.3293166160583496,-0.4031613767147064,0.9999258518218994,0.441277414560318,0.3306431174278259,-0.40322843194007874,0.9999155402183533,0.4381199777126312,0.3324492573738098,-0.40315955877304077,0.9999151825904846,0.4653953015804291,0.3377895653247833,-0.2788904905319214,0.9999375939369202,0.4324590563774109,0.3417946398258209,-0.2782104015350342,0.9998932480812073,0.4584762454032898,0.3590504825115204,-0.3727477490901947,0.999889075756073,0.44544801115989685,0.359292209148407,-0.3727787435054779,0.9998522400856018,0.4868726134300232,0.3885307312011719,-0.12397865951061249,0.9993822574615479,0.4142732620239258,0.39526495337486267,-0.15777917206287384,0.9996699094772339,0.5156435966491699,0.4262826144695282,0.077119842171669,0.9503129720687866,0.3840298652648926,0.4443647563457489,-0.008359270170331001,0.9809737801551819,0.5387445688247681,0.4605136215686798,0.19264823198318481,0.9455083608627319,0.39451485872268677,0.4776562750339508,0.09879935532808304,0.969736635684967,0.552156388759613,0.46742817759513855,0.2204262912273407,0.9193719625473022,0.3975449502468109,0.4901385009288788,0.11663255840539932,0.939019501209259,0.552167534828186,0.4672960340976715,0.1866748034954071,0.9133037328720093,0.40329670906066895,0.48395082354545593,0.09750720858573914,0.9291889071464539,0.5454928874969482,0.46377140283584595,0.1852056235074997,0.8753132820129395,0.4027619957923889,0.4759072959423065,0.09816595166921616,0.8948129415512085,0.4705783724784851,0.5301558971405029,-0.0002451366453897208,0.9998534917831421,0.42533954977989197,0.5293330550193787,0.00026101706316694617,0.9998812675476074,0.5153706669807434,0.6086338758468628,-0.21772417426109314,0.9944655895233154,0.3838833272457123,0.6126011610031128,-0.23429334163665771,0.9965839385986328,0.5217474699020386,0.7213054895401001,-0.08183453977108002,0.9889484643936157,0.37832337617874146,0.726125955581665,-0.08979138731956482,0.9963862299919128,0.5140277743339539,0.738917887210846,-0.07527632266283035,0.9688429236412048,0.38813719153404236,0.7447150349617004,-0.08159427344799042,0.972785234451294,0.5436773300170898,0.757588803768158,-0.18233266472816467,0.9818733334541321,0.3581152558326721,0.7579165697097778,-0.18931196630001068,0.9896276593208313
18,0.44931793212890625,0.32331037521362305,-0.4113745093345642,0.9999595880508423,0.45355477929115295,0.3108758330345154,-0.3959052860736847,0.9999484419822693,0.45698967576026917,0.3116411566734314,-0.3958727717399597,0.9999464750289917,0.46007928252220154,0.3124016523361206,-0.3959333300590515,0.9999490976333618,0.4439322352409363,0.31063514947891235,-0.3958126902580261,0.9999332427978516,0.44073182344436646,0.31158629059791565,-0.39590075612068176,0.9999239444732666,0.4376639723777771,0.3128257095813751,-0.3958646357059479,0.9999236464500427,0.46321335434913635,0.3177076578140259,-0.27834612131118774,0.9999436736106873,0.4323045313358307,0.31969305872917175,-0.2781211733818054,0.9999039173126221,0.45572352409362793,0.3358575105667114,-0.36552006006240845,0.9999001026153564,0.44357046484947205,0.336860716342926,-0.36565107107162476,0.9998669624328613,0.48602843284606934,0.36911115050315857,-0.1440582573413849,0.9994425773620605,0.41258344054222107,0.37539955973625183,-0.15976785123348236,0.999701976776123,0.5153014063835144,0.416406512260437,-2.79368778137723e-05,0.954662561416626,0.38483840227127075,0.4306449890136719,-0.03798868507146835,0.9823712110519409,0.5415607690811157,0.4616001844406128,0.04669807478785515,0.9488658308982849,0.3902270495891571,0.47762468457221985,0.012524792924523354,0.9717657566070557,0.5535057783126831,0.47210103273391724,0.058696795254945755,0.9214131236076355,0.3898129463195801,0.49527707695961,0.01794467307627201,0.9422197937965393,0.5529036521911621,0.47241857647895813,0.025104980915784836,0.9163721799850464,0.3971128761768341,0.4909612536430359,-0.0032093990594148636,0.9333614706993103,0.5473002195358276,0.4676741659641266,0.03681671991944313,0.8810927271842957,0.3981718420982361,0.48306751251220703,0.008457593619823456,0.9017419219017029,0.4706757068634033,0.5143484473228455,-0.0027612445410341024,0.9998497366905212,0.42574959993362427,0.5144049525260925,0.002720883581787348,0.9998842477798462,0.512035608291626,0.6030666828155518,-0.1691838800907135,0.9944865107536316,0.3866463899612427,0.6044222712516785,-0.17067976295948029,0.9965203404426575,0.521203339099884,0.7213295102119446,-0.04464607685804367,0.9895452260971069,0.37775248289108276,0.7230120301246643,-0.03324155509471893,0.9965962171554565,0.5139561891555786,0.7389550805091858,-0.03899284824728966,0.9686075448989868,0.3870503306388855,0.7426822185516357,-0.02658938430249691,0.974151611328125,0.5434509515762329,0.7571670413017273,-0.14593712985515594,0.9827868938446045,0.3588256239891052,0.757905125617981,-0.1337718963623047,0.9901795387268066
19,0.4499492645263672,0.2941143214702606,-0.38549622893333435,0.9999634027481079,0.45395421981811523,0.28149163722991943,-0.3723459243774414,0.9999528527259827,0.45715850591659546,0.28165531158447266,-0.3723652958869934,0.9999507069587708,0.4601219594478607,0.2817712128162384,-0.3724434971809387,0.9999530911445618,0.44488611817359924,0.28230300545692444,-0.3717963993549347,0.9999393820762634,0.4417352080345154,0.28311291337013245,-0.37186872959136963,0.9999308586120605,0.4387355446815491,0.2839564383029938,-0.3718913793563843,0.9999306797981262,0.46309977769851685,0.28789809346199036,-0.26794537901878357,0.9999475479125977,0.4330410957336426,0.29011911153793335,-0.2653588056564331,0.999912679195404,0.4557856619358063,0.3059273064136505,-0.34431809186935425,0.9999097585678101,0.4443438947200775,0.307055801153183,-0.3438031077384949,0.9998800158500671,0.48584333062171936,0.3498821556568146,-0.17372572422027588,0.99949711561203,0.41171780228614807,0.3544844388961792,-0.1624816358089447,0.9997313022613525,0.5157670974731445,0.4135987162590027,-0.07394538819789886,0.9585760235786438,0.3844299912452698,0.41863712668418884,-0.11691243946552277,0.9836441874504089,0.542328953742981,0.4635125398635864,-0.02222512476146221,0.9507988691329956,0.38547760248184204,0.47964295744895935,-0.18228007853031158,0.9730657339096069,0.5538877844810486,0.4820510745048523,-0.0663570910692215,0.9227724671363831,0.3835652470588684,0.5031175017356873,-0.20272663235664368,0.9442787170410156,0.552334189414978,0.4851500689983368,-0.22024855017662048,0.9186041951179504,0.39055290818214417,0.5021326541900635,-0.22796666622161865,0.9364810585975647,0.5473600625991821,0.4803701937198639,-0.12931640446186066,0.8848505616188049,0.39334410429000854,0.4936014413833618,-0.19320078194141388,0.9070509672164917,0.47097015380859375,0.49834170937538147,-0.006113286130130291,0.9998548626899719,0.4260828495025635,0.499063640832901,0.006073270924389362,0.9998902082443237,0.5072287917137146,0.5974988341331482,-0.14391270279884338,0.9939091801643372,0.3899032473564148,0.597641110420227,-0.13337726891040802,0.9963456392288208,0.5204139947891235,0.7212022542953491,-0.032155536115169525,0.9899908900260925,0.3798273205757141,0.7165149450302124,0.00041495790355838835,0.9967323541641235,0.513462483882904,0.7390661835670471,-0.028462614864110947,0.9657248854637146,0.38790374994277954,0.7403795719146729,0.0061447033658623695,0.9749502539634705,0.5429530143737793,0.7572773098945618,-0.14481134712696075,0.9833244681358337,0.35910287499427795,0.7572258710861206,-0.1037909984588623,0.9904749393463135
20,0.4493986964225769,0.2743765115737915,-0.3945428431034088,0.9999670386314392,0.4539334774017334,0.26243653893470764,-0.3780561089515686,0.9999574422836304,0.45715922117233276,0.26259323954582214,-0.3780689835548401,0.999955415725708,0.4601285457611084,0.262851357460022,-0.3781326115131378,0.9999575614929199,0.4439682066440582,0.2629508376121521,-0.37833088636398315,0.999945342540741,0.44046932458877563,0.2638286352157593,-0.3784026801586151,0.9999376535415649,0.4373239576816559,0.2650443911552429,-0.3784220516681671,0.9999375343322754,0.4632888734340668,0.26915642619132996,-0.2632279396057129,0.9999523758888245,0.4315112233161926,0.2739414572715759,-0.26385220885276794,0.9999212622642517,0.4556830823421478,0.2884769141674042,-0.3500738739967346,0.9999186396598816,0.44290977716445923,0.29070672392845154,-0.3504341244697571,0.9998919367790222,0.4858689308166504,0.3409128785133362,-0.1606382131576538,0.9995455741882324,0.4107155203819275,0.34106338024139404,-0.16295577585697174,0.9997575879096985,0.5151185393333435,0.4060468077659607,-0.09634806960821152,0.9608273506164551,0.384701669216156,0.4122999608516693,-0.11983970552682877,0.9844567179679871,0.538834273815155,0.46352559328079224,-0.14595799148082733,0.9491484761238098,0.3841964900493622,0.4816726744174957,-0.18761542439460754,0.9732809662818909,0.5497350096702576,0.4823381304740906,-0.16437140107154846,0.9186950325965881,0.3820766508579254,0.504662811756134,-0.20860835909843445,0.9439745545387268,0.5472526550292969,0.48469698429107666,-0.20882511138916016,0.9156525731086731,0.388744056224823,0.5039746165275574,-0.23968930542469025,0.9372166991233826,0.542364776134491,0.4793119430541992,-0.16691939532756805,0.882522702217102,0.3916398882865906,0.49590209126472473,-0.20060177147388458,0.9097317457199097,0.47156620025634766,0.4931279122829437,-0.005899272859096527,0.9998606443405151,0.4260697364807129,0.49382254481315613,0.005837959237396717,0.9998961687088013,0.5049141645431519,0.5968592762947083,-0.10381833463907242,0.9938910603523254,0.39260414242744446,0.5971165895462036,-0.11069661378860474,0.9964007139205933,0.520418643951416,0.7207046151161194,0.011993751861155033,0.9907055497169495,0.38080719113349915,0.7156526446342468,0.035768233239650726,0.9969313144683838,0.5132796764373779,0.7391054034233093,0.015287277288734913,0.963931679725647,0.3882700204849243,0.7400056719779968,0.04267995059490204,0.9759071469306946,0.5432096719741821,0.757215678691864,-0.1060180515050888,0.9842959046363831,0.3593297600746155,0.7572748064994812,-0.07065693289041519,0.9910417199134827
21,0.44912347197532654,0.2581966817378998,-0.3764762282371521,0.9999703168869019,0.45392075181007385,0.24782371520996094,-0.35938122868537903,0.9999615550041199,0.45715945959091187,0.24822315573692322,-0.3594037890434265,0.9999597072601318,0.46012797951698303,0.2485448569059372,-0.3594737648963928,0.9999616146087646,0.44380322098731995,0.2478150725364685,-0.35964247584342957,0.9999507069587708,0.4403304159641266,0.24850185215473175,-0.3597044050693512,0.999943733215332,0.4371923804283142,0.2495098114013672,-0.35970503091812134,0.9999436140060425,0.46385788917541504,0.2550070285797119,-0.2461439073085785,0.9999567866325378,0.43157172203063965,0.2591951787471771,-0.2465873658657074,0.9999289512634277,0.45563560724258423,0.27068689465522766,-0.33343809843063354,0.9999266862869263,0.4426444470882416,0.27180373668670654,-0.3337291181087494,0.9999026656150818,0.4876864552497864,0.33288106322288513,-0.14854414761066437,0.999589204788208,0.40999889373779297,0.3306245803833008,-0.15631596744060516,0.9997809529304504,0.5146728754043579,0.4086456596851349,-0.09787718951702118,0.9635278582572937,0.38523024320602417,0.4086536765098572,-0.1168489083647728,0.9850298762321472,0.5368574857711792,0.4689318537712097,-0.17439162731170654,0.9486591815948486,0.3847338855266571,0.4812708795070648,-0.20478424429893494,0.9729441404342651,0.5452397465705872,0.4909577965736389,-0.19309623539447784,0.9154113531112671,0.3822106719017029,0.5032265782356262,-0.2316361665725708,0.9431481957435608,0.5427554249763489,0.49361854791641235,-0.2295818328857422,0.9136126637458801,0.38854363560676575,0.5022521018981934,-0.2643490135669708,0.9375168681144714,0.5390408039093018,0.48685964941978455,-0.18731588125228882,0.8812664747238159,0.3920837938785553,0.4944360852241516,-0.21973064541816711,0.9113823175430298,0.47166362404823303,0.4858446717262268,-0.005594861228018999,0.9998695254325867,0.4256860315799713,0.48664525151252747,0.005479274317622185,0.9999019503593445,0.50250244140625,0.5947542786598206,-0.08596087247133255,0.9941329956054688,0.3955501317977905,0.5988198518753052,-0.06017503887414932,0.9964939951896667,0.5203090906143188,0.7199873328208923,0.040617987513542175,0.991426408290863,0.3812571167945862,0.7159492373466492,0.08142043650150299,0.997066080570221,0.5132956504821777,0.7391424775123596,0.04501182213425636,0.9633699059486389,0.3883956968784332,0.7416453957557678,0.08704951405525208,0.975115180015564,0.5434420108795166,0.7572687864303589,-0.08346020430326462,0.9853346943855286,0.35931915044784546,0.7588596343994141,-0.035914648324251175,0.9914193153381348
22,0.4486027657985687,0.25313642621040344,-0.3935846984386444,0.9999731183052063,0.4536934494972229,0.243129700422287,-0.3773554265499115,0.9999648928642273,0.4569658637046814,0.2432280331850052,-0.3773724436759949,0.9999631643295288,0.45991650223731995,0.24346889555454254,-0.37743106484413147,0.9999648928642273,0.44374793767929077,0.24365374445915222,-0.37754112482070923,0.9999550580978394,0.4403441846370697,0.2441464513540268,-0.37759965658187866,0.9999487400054932,0.4372299313545227,0.2449353188276291,-0.3775979280471802,0.9999485611915588,0.46397972106933594,0.250456839799881,-0.2646528482437134,0.9999598860740662,0.4321931302547455,0.25295332074165344,-0.26545199751853943,0.9999349117279053,0.45535606145858765,0.26585161685943604,-0.35054251551628113,0.9999336004257202,0.4426063895225525,0.26678842306137085,-0.35097306966781616,0.9999119639396667,0.4881286025047302,0.3286384046077728,-0.17011334002017975,0.999628484249115,0.41039928793907166,0.321856290102005,-0.17005227506160736,0.9998009204864502,0.5109733939170837,0.4042660892009735,-0.10012541711330414,0.9660804867744446,0.3855653703212738,0.39859241247177124,-0.12031404674053192,0.9847270250320435,0.5345314145088196,0.4689154326915741,-0.1868092268705368,0.9508417844772339,0.3870527446269989,0.47755753993988037,-0.19862860441207886,0.9708545207977295,0.5416926145553589,0.4896192252635956,-0.21652694046497345,0.9172553420066833,0.38474494218826294,0.5002957582473755,-0.22566445171833038,0.9389545321464539,0.5387846827507019,0.4918607175350189,-0.25855550169944763,0.9162271022796631,0.3903845548629761,0.4989446699619293,-0.2611196041107178,0.9346048831939697,0.5350149273872375,0.48541459441185,-0.20937351882457733,0.8852399587631226,0.39341410994529724,0.49159157276153564,-0.2145448476076126,0.9095802903175354,0.47168540954589844,0.48267295956611633,-0.004127277992665768,0.9998758435249329,0.42554062604904175,0.48263588547706604,0.004004088696092367,0.9999055862426758,0.499522864818573,0.5943530797958374,-0.013478050008416176,0.9944546222686768,0.39831873774528503,0.5962820649147034,-0.009590750560164452,0.996669590473175,0.5200287103652954,0.718130886554718,0.11980190128087997,0.9921284317970276,0.3815024197101593,0.7170166373252869,0.14160612225532532,0.9972310662269592,0.5133112668991089,0.7381583452224731,0.12439094483852386,0.9625354409217834,0.38855329155921936,0.7416537404060364,0.14788231253623962,0.9738363027572632,0.5430566668510437,0.7561003565788269,-0.007771309465169907,0.9864001274108887,0.3600122630596161,0.758876621723175,0.02070823311805725,0.991934597492218
23,0.4478522837162018,0.2536028027534485,-0.3725430369377136,0.9999751448631287,0.45308423042297363,0.24394679069519043,-0.3570512533187866,0.9999662041664124,0.4563700556755066,0.2441486269235611,-0.35706061124801636,0.9999645948410034,0.45942503213882446,0.24445733428001404,-0.35710445046424866,0.9999661445617676,0.44357529282569885,0.24428078532218933,-0.35651808977127075,0.9999575018882751,0.44029468297958374,0.24476805329322815,-0.35657817125320435,0.9999516606330872,0.4372404217720032,0.24548371136188507,-0.35658544301986694,0.9999513626098633,0.46398502588272095,0.25045666098594666,-0.25060805678367615,0.999958872795105,0.4328492283821106,0.2524372935295105,-0.24746663868427277,0.9999367594718933,0.45470818877220154,0.2655014991760254,-0.3317415118217468,0.9999386668205261,0.4425200819969177,0.2661786377429962,-0.3311830163002014,0.9999191761016846,0.4884530007839203,0.3273804783821106,-0.1663840115070343,0.9996604919433594,0.4103160500526428,0.31972771883010864,-0.15815690159797668,0.9998186230659485,0.5066023468971252,0.4037247896194458,-0.10452616214752197,0.9683278799057007,0.3858345150947571,0.3965342342853546,-0.10429761558771133,0.984357476234436,0.5299324989318848,0.46879902482032776,-0.18835006654262543,0.9519181847572327,0.3883569538593292,0.47692927718162537,-0.18174363672733307,0.969703197479248,0.5397166609764099,0.4887627065181732,-0.22118166089057922,0.9170553684234619,0.3864045739173889,0.5002690553665161,-0.2077493965625763,0.9364209175109863,0.5375019311904907,0.490022212266922,-0.2592931389808655,0.9168910384178162,0.3917188346385956,0.49873754382133484,-0.24382078647613525,0.9330750107765198,0.5327298641204834,0.48411843180656433,-0.2128410041332245,0.886951208114624,0.3942295014858246,0.4910491704940796,-0.1978740245103836,0.9093302488327026,0.4717435836791992,0.4799324572086334,-0.005186679307371378,0.9998721480369568,0.42556580901145935,0.47959253191947937,0.005098660942167044,0.9999053478240967,0.49662917852401733,0.5917637944221497,-0.012431036680936813,0.9946439862251282,0.40196457505226135,0.5946021676063538,0.0022958992049098015,0.9967273473739624,0.519487738609314,0.7163935303688049,0.1035296693444252,0.9926859140396118,0.38197553157806396,0.7173483371734619,0.13469555974006653,0.9973291754722595,0.5132644176483154,0.7371493577957153,0.10645350068807602,0.9610344767570496,0.3888412117958069,0.7428195476531982,0.13891272246837616,0.9723804593086243,0.5414448976516724,0.7554161548614502,-0.022850310429930687,0.9872311353683472,0.36045926809310913,0.7589909434318542,0.013861628249287605,0.9922899007797241
24,0.4461137354373932,0.2499236911535263,-0.364530086517334,0.9999770522117615,0.45084840059280396,0.24073876440525055,-0.34789177775382996,0.9999679923057556,0.4542108178138733,0.24087363481521606,-0.34789443016052246,0.9999664425849915,0.45748990774154663,0.24111486971378326,-0.3479558825492859,0.9999678730964661,0.4422306418418884,0.2413407266139984,-0.3491714596748352,0.99996018409729,0.439286470413208,0.24198338389396667,-0.34923407435417175,0.9999547004699707,0.43649402260780334,0.24283172190189362,-0.3492082357406616,0.9999542832374573,0.46349868178367615,0.24751344323158264,-0.2390754222869873,0.9999589920043945,0.43289273977279663,0.24999865889549255,-0.24497723579406738,0.9999386668205261,0.4534636437892914,0.26108506321907043,-0.3223080039024353,0.9999430775642395,0.44181156158447266,0.2617376446723938,-0.3234402537345886,0.9999253749847412,0.4883479177951813,0.32481929659843445,-0.15732644498348236,0.9996839761734009,0.41053134202957153,0.317313551902771,-0.13918110728263855,0.999832272529602,0.4998806118965149,0.40183883905410767,-0.11048296838998795,0.9686715602874756,0.39412742853164673,0.3946065902709961,-0.08152662217617035,0.9816893935203552,0.5139291286468506,0.46907979249954224,-0.18354573845863342,0.9481080174446106,0.39188408851623535,0.47454339265823364,-0.1595367044210434,0.9640958309173584,0.5177110433578491,0.49363377690315247,-0.20965072512626648,0.9094194173812866,0.38879796862602234,0.49888500571250916,-0.18360424041748047,0.927509069442749,0.5153063535690308,0.49362513422966003,-0.25003373622894287,0.9102460741996765,0.39296287298202515,0.49711692333221436,-0.21998736262321472,0.9254411458969116,0.5117504000663757,0.48613834381103516,-0.20083782076835632,0.8792693018913269,0.395111620426178,0.4899110794067383,-0.17581745982170105,0.9024607539176941,0.47215861082077026,0.4774962067604065,-0.009412946179509163,0.9998674392700195,0.4263743758201599,0.4775848984718323,0.00934937596321106,0.9999056458473206,0.4925643503665924,0.5919721126556396,-0.023662593215703964,0.994743287563324,0.4055353105068207,0.5937435626983643,-0.015742691233754158,0.9967880845069885,0.5195108652114868,0.7163445949554443,0.0841023325920105,0.993206799030304,0.38212355971336365,0.7189754843711853,0.09963365644216537,0.9974558353424072,0.5132732391357422,0.7369472980499268,0.08605996519327164,0.9601120352745056,0.38900241255760193,0.7447227835655212,0.10243944078683853,0.971584677696228,0.54013991355896,0.7548045516014099,-0.0425691083073616,0.988025426864624,0.3606128394603729,0.7596340775489807,-0.02358565665781498,0.9927041530609131
25,0.4447067677974701,0.2557620108127594,-0.3330349326133728,0.9999781847000122,0.44965213537216187,0.24580232799053192,-0.32079586386680603,0.9999678730964661,0.45286768674850464,0.2457411289215088,-0.32080644369125366,0.9999665021896362,0.4560624957084656,0.24576933681964874,-0.32083839178085327,0.9999677538871765,0.44159364700317383,0.24650783836841583,-0.3164633810520172,0.9999608397483826,0.43889445066452026,0.24696044623851776,-0.31650835275650024,0.9999555945396423,0.4362947344779968,0.24749453365802765,-0.31652915477752686,0.9999549984931946,0.46308356523513794,0.2508789896965027,-0.22881881892681122,0.9999554753303528,0.4342116713523865,0.2528398633003235,-0.20769159495830536,0.9999356865882874,0.4519692361354828,0.26665645837783813,-0.29687944054603577,0.9999455213546753,0.4409274160861969,0.2673484683036804,-0.2913932502269745,0.9999294281005859,0.4881802499294281,0.3269502818584442,-0.15333455801010132,0.9996967911720276,0.41117995977401733,0.31826627254486084,-0.11130692809820175,0.9998449087142944,0.4951525628566742,0.40462392568588257,-0.11253897100687027,0.968234121799469,0.39643993973731995,0.3962481915950775,-0.05190558359026909,0.9791979789733887,0.508526623249054,0.47724449634552,-0.18736442923545837,0.9413561820983887,0.3920961916446686,0.4737737774848938,-0.1296464502811432,0.9604200720787048,0.510600745677948,0.5016504526138306,-0.2102438509464264,0.8975315690040588,0.39025747776031494,0.498256117105484,-0.15199819207191467,0.9217292070388794,0.5090299844741821,0.5017892122268677,-0.24795249104499817,0.8998225927352905,0.3949039578437805,0.4963546395301819,-0.18702219426631927,0.9208312034606934,0.5058650970458984,0.4948354661464691,-0.20209816098213196,0.8675780892372131,0.3966948091983795,0.4892599284648895,-0.14541998505592346,0.8988125324249268,0.4721851944923401,0.47899872064590454,-0.013778423890471458,0.9998605251312256,0.42700523138046265,0.4774787127971649,0.013716617599129677,0.9999054670333862,0.49348098039627075,0.5932264924049377,-0.030384952202439308,0.9947150945663452,0.40568971633911133,0.594013512134552,9.472756937611848e-05,0.9968147873878479,0.5194645524024963,0.7165128588676453,0.0719393864274025,0.9936562776565552,0.38205280900001526,0.7190786600112915,0.11667440831661224,0.9975496530532837,0.5132107138633728,0.7368409037590027,0.07395724952220917,0.9600101113319397,0.38896504044532776,0.7446593642234802,0.12014777958393097,0.9706559181213379,0.5403903722763062,0.7546892166137695,-0.05061597749590874,0.9887248873710632,0.36135387420654297,0.7595961093902588,0.00019786841585300863,0.9929965734481812
26,0.4439758360385895,0.2587685286998749,-0.3349078297615051,0.9999783635139465,0.4489448070526123,0.24879015982151031,-0.322564035654068,0.9999657273292542,0.45207181572914124,0.24863514304161072,-0.3225799798965454,0.9999644160270691,0.4551912248134613,0.24858754873275757,-0.3226182162761688,0.9999657273292542,0.4413177967071533,0.2496693879365921,-0.3178039789199829,0.9999593496322632,0.43879014253616333,0.2500849664211273,-0.3178512752056122,0.9999538660049438,0.43629685044288635,0.2505849003791809,-0.31787967681884766,0.9999532699584961,0.46273571252822876,0.2538855969905853,-0.22966524958610535,0.9999481439590454,0.4354721009731293,0.255732923746109,-0.20621521770954132,0.9999274015426636,0.4513731598854065,0.26981839537620544,-0.2985367178916931,0.9999455213546753,0.44066667556762695,0.2702396810054779,-0.2924953103065491,0.9999309778213501,0.4879770874977112,0.3298640847206116,-0.16029173135757446,0.9997032880783081,0.4126396179199219,0.32123151421546936,-0.10988868772983551,0.999854564666748,0.4925974905490875,0.4054381251335144,-0.12856046855449677,0.9674577116966248,0.3990015387535095,0.39849022030830383,-0.049496039748191833,0.9756335616111755,0.5057694911956787,0.4768144488334656,-0.20149576663970947,0.9339286088943481,0.3928685486316681,0.4735874533653259,-0.12686659395694733,0.9558290839195251,0.5087005496025085,0.500065267086029,-0.22759704291820526,0.8853659629821777,0.390436589717865,0.49777570366859436,-0.14909139275550842,0.9148641228675842,0.5067094564437866,0.5002930760383606,-0.25978580117225647,0.8886424899101257,0.3960595428943634,0.4959428906440735,-0.18428245186805725,0.9150234460830688,0.5036287307739258,0.49356165528297424,-0.21583814918994904,0.8545038104057312,0.39767542481422424,0.48893600702285767,-0.1428127884864807,0.8937327265739441,0.4725421071052551,0.47965848445892334,-0.014637552201747894,0.999851405620575,0.42819803953170776,0.4784891903400421,0.014593886211514473,0.9999035596847534,0.49589282274246216,0.594169557094574,-0.03296446055173874,0.9947108626365662,0.40534019470214844,0.5937349796295166,-0.009125224314630032,0.9968668818473816,0.5194329023361206,0.7164682149887085,0.07064749300479889,0.9940491318702698,0.3819301724433899,0.719351589679718,0.10699691623449326,0.9976332783699036,0.5132168531417847,0.7362675070762634,0.0727510005235672,0.9596540927886963,0.38855576515197754,0.7446328401565552,0.11044518649578094,0.9698578119277954,0.5404853224754333,0.7546680569648743,-0.05247483775019646,0.9893141388893127,0.36176159977912903,0.7593686580657959,-0.009204757399857044,0.9932475090026855
27,0.44425511360168457,0.258828341960907,-0.342411071062088,0.9999791383743286,0.4491594731807709,0.2489224374294281,-0.32974299788475037,0.999965488910675,0.45230332016944885,0.24891003966331482,-0.3297727704048157,0.99996417760849,0.455402135848999,0.24901606142520905,-0.3298123776912689,0.999965488910675,0.4413875937461853,0.2495092898607254,-0.32464560866355896,0.9999596476554871,0.4389568269252777,0.249851793050766,-0.32469117641448975,0.999954104423523,0.4365355968475342,0.250291109085083,-0.3247385621070862,0.9999535083770752,0.46275147795677185,0.2548222243785858,-0.23226335644721985,0.9999446868896484,0.436076819896698,0.2559888958930969,-0.20885160565376282,0.9999246597290039,0.45158401131629944,0.27013635635375977,-0.30513501167297363,0.9999462366104126,0.440788596868515,0.2704019248485565,-0.2985207140445709,0.9999333620071411,0.4877273440361023,0.3309778571128845,-0.15871192514896393,0.9997125267982483,0.41308027505874634,0.32152029871940613,-0.11756092309951782,0.9998617172241211,0.49210065603256226,0.40669915080070496,-0.12775498628616333,0.9663549661636353,0.40214627981185913,0.40036633610725403,-0.06285527348518372,0.971338152885437,0.5055995583534241,0.47782278060913086,-0.2009737491607666,0.9265459775924683,0.39722877740859985,0.4736456274986267,-0.1424705684185028,0.9492205381393433,0.508236289024353,0.5007333159446716,-0.22595949470996857,0.8733812570571899,0.3936329185962677,0.4976779818534851,-0.1658664345741272,0.9052650332450867,0.5064033269882202,0.5012937188148499,-0.2563457190990448,0.8775761127471924,0.39676016569137573,0.49634042382240295,-0.2008473128080368,0.9066264629364014,0.5036405324935913,0.4945600926876068,-0.2147410660982132,0.8412957191467285,0.398850679397583,0.48922908306121826,-0.15829810500144958,0.8857075572013855,0.4725419878959656,0.47900083661079407,-0.013395738787949085,0.999845564365387,0.4281540513038635,0.4779907763004303,0.013353663496673107,0.9999032020568848,0.4967823028564453,0.5946242809295654,-0.03825308009982109,0.9946417808532715,0.40579718351364136,0.592208206653595,-0.04220494255423546,0.9969199299812317,0.5194579362869263,0.7165682315826416,0.06208546832203865,0.9943842887878418,0.3818883001804352,0.719598114490509,0.07789827883243561,0.9977154731750488,0.5132306218147278,0.7358077764511108,0.06356852501630783,0.9585453271865845,0.38811391592025757,0.7444761991500854,0.08176380395889282,0.9693439602851868,0.5401448607444763,0.7546455264091492,-0.06491788476705551,0.9897760152816772,0.3620956242084503,0.759007453918457,-0.04026753082871437,0.9935027360916138
28,0.44443684816360474,0.25849178433418274,-0.3513675928115845,0.9999801516532898,0.44931134581565857,0.24841569364070892,-0.33743539452552795,0.9999662637710571,0.45245370268821716,0.24833258986473083,-0.33746615052223206,0.9999650716781616,0.45552945137023926,0.24835199117660522,-0.33751294016838074,0.9999663829803467,0.4414553642272949,0.24917036294937134,-0.33339616656303406,0.9999609589576721,0.4389920234680176,0.24955585598945618,-0.3334493041038513,0.9999556541442871,0.43654975295066833,0.25001227855682373,-0.3334878087043762,0.9999550580978394,0.4627540111541748,0.2542071044445038,-0.23714430630207062,0.9999439716339111,0.43619123101234436,0.2558059096336365,-0.21886619925498962,0.9999251365661621,0.45173293352127075,0.26990124583244324,-0.3134478032588959,0.9999483823776245,0.4408765733242035,0.27016934752464294,-0.30840474367141724,0.9999369978904724,0.4880940914154053,0.33235207200050354,-0.1640322059392929,0.9997157454490662,0.41317710280418396,0.32394155859947205,-0.12147051095962524,0.9998683929443359,0.49316781759262085,0.4086878001689911,-0.1332017034292221,0.9645944833755493,0.40074604749679565,0.4012669622898102,-0.07539115846157074,0.9685695171356201,0.5062154531478882,0.48362281918525696,-0.20538611710071564,0.9138318300247192,0.3974902927875519,0.4738873541355133,-0.1552181839942932,0.9415261745452881,0.5089091658592224,0.5059365034103394,-0.23089289665222168,0.8543374538421631,0.3940698802471161,0.49797531962394714,-0.17909619212150574,0.8937411904335022,0.5069586038589478,0.5070186257362366,-0.2610253393650055,0.8596568703651428,0.3968069553375244,0.4969280958175659,-0.21278607845306396,0.896248996257782,0.5042122006416321,0.499704509973526,-0.21905818581581116,0.8214263916015625,0.39913108944892883,0.48952001333236694,-0.17052079737186432,0.8754127025604248,0.472709983587265,0.4820203185081482,-0.012518259696662426,0.9998394250869751,0.4281253218650818,0.48087966442108154,0.012477810494601727,0.9999025464057922,0.4967600703239441,0.5950037240982056,-0.02147652395069599,0.9945393800735474,0.40643009543418884,0.593204140663147,-0.02470242790877819,0.9969346523284912,0.5194537043571472,0.7166933417320251,0.08977782726287842,0.9946891069412231,0.38108134269714355,0.7216737866401672,0.09530510008335114,0.9977705478668213,0.5131598114967346,0.7358222603797913,0.092378631234169,0.958268940448761,0.3861296772956848,0.7452464699745178,0.09897683560848236,0.9679857492446899,0.5398460626602173,0.7545996308326721,-0.03523901849985123,0.9902207255363464,0.36277249455451965,0.7589277029037476,-0.025800377130508423,0.9936776757240295
29,0.44503268599510193,0.25803813338279724,-0.41606107354164124,0.999981701374054,0.4498929977416992,0.2481524497270584,-0.40022724866867065,0.9999686479568481,0.4530567228794098,0.24813103675842285,-0.4002334177494049,0.9999675154685974,0.45613330602645874,0.2481985241174698,-0.40028446912765503,0.9999687075614929,0.44178837537765503,0.24897916615009308,-0.39842650294303894,0.9999639391899109,0.4392356872558594,0.24953217804431915,-0.39850857853889465,0.9999590516090393,0.4367085099220276,0.25018277764320374,-0.3985154628753662,0.9999584555625916,0.46336251497268677,0.25437888503074646,-0.28954774141311646,0.9999469518661499,0.43617334961891174,0.2567436695098877,-0.2814984917640686,0.9999304413795471,0.4526762068271637,0.26982206106185913,-0.37397849559783936,0.9999523162841797,0.44138437509536743,0.27045339345932007,-0.3719162344932556,0.9999421238899231,0.48896080255508423,0.33326655626296997,-0.20335224270820618,0.9997334480285645,0.41318559646606445,0.3252980411052704,-0.17132976651191711,0.9998781085014343,0.4975193440914154,0.4075506031513214,-0.1654013693332672,0.9656395316123962,0.39914727210998535,0.39969968795776367,-0.08769967406988144,0.9683692455291748,0.5074714422225952,0.48189210891723633,-0.23183445632457733,0.9100017547607422,0.39392194151878357,0.4739132821559906,-0.15824583172798157,0.9380848407745361,0.5113292932510376,0.5035625696182251,-0.25590959191322327,0.8462700247764587,0.3922596275806427,0.49807462096214294,-0.17903700470924377,0.8871707320213318,0.5092548131942749,0.5042467713356018,-0.2868978977203369,0.8520951867103577,0.3959563672542572,0.4968491196632385,-0.21322014927864075,0.8903555870056152,0.5063918828964233,0.49745088815689087,-0.24527975916862488,0.8125292062759399,0.39780393242836,0.4894486963748932,-0.17289507389068604,0.8696491122245789,0.4743081033229828,0.48000457882881165,-0.011972237378358841,0.9998385310173035,0.4285305440425873,0.47847750782966614,0.01193456631153822,0.9999037981033325,0.4959670901298523,0.5935676693916321,-0.02954627014696598,0.9945875406265259,0.40628567337989807,0.5931420922279358,-0.03656970337033272,0.9969559907913208,0.5194270610809326,0.7175232768058777,0.08175431936979294,0.9950364232063293,0.3805127739906311,0.7218113541603088,0.0848122164607048,0.9978616237640381,0.5131155252456665,0.7369319796562195,0.08385562896728516,0.9581764340400696,0.38568413257598877,0.7452347874641418,0.0880243256688118,0.9677578210830688,0.5399625897407532,0.7547124028205872,-0.04808608815073967,0.9907530546188354,0.36275696754455566,0.7589031457901001,-0.040887318551540375,0.9939635992050171
30,0.44605129957199097,0.2553462088108063,-0.40702033042907715,0.999983012676239,0.45129138231277466,0.24524013698101044,-0.3908998370170593,0.999970555305481,0.45455145835876465,0.24516944587230682,-0.39091551303863525,0.9999694228172302,0.45764750242233276,0.24520336091518402,-0.3909672200679779,0.999970555305481,0.4425436854362488,0.2462334781885147,-0.38942331075668335,0.9999664425849915,0.43980613350868225,0.2468501180410385,-0.38950464129447937,0.9999619722366333,0.4371270537376404,0.24758504331111908,-0.38951459527015686,0.9999614357948303,0.4650194048881531,0.251427561044693,-0.2805614173412323,0.9999487996101379,0.4364360272884369,0.2540595233440399,-0.2742348611354828,0.9999347925186157,0.4539070129394531,0.26734450459480286,-0.3654317557811737,0.9999557733535767,0.4421921670436859,0.2679119110107422,-0.3638136386871338,0.9999467730522156,0.4908190369606018,0.3320707678794861,-0.1951940953731537,0.9997482299804688,0.4133438467979431,0.32382410764694214,-0.16936780512332916,0.9998867511749268,0.5038735866546631,0.4028562903404236,-0.15937329828739166,0.9672912359237671,0.3961874842643738,0.4006097912788391,-0.10417830944061279,0.9694031476974487,0.5150686502456665,0.4786968231201172,-0.23348936438560486,0.908650279045105,0.3878600597381592,0.4747732877731323,-0.1800890862941742,0.9374143481254578,0.5145506262779236,0.5023643374443054,-0.259055495262146,0.8408598899841309,0.3857394754886627,0.5009787678718567,-0.20476862788200378,0.8844373822212219,0.5112738013267517,0.5018090009689331,-0.290655255317688,0.847347617149353,0.39134952425956726,0.5002526044845581,-0.2406066656112671,0.8881164193153381,0.5098384022712708,0.4946683645248413,-0.2473512589931488,0.8074811697006226,0.3937801718711853,0.49213355779647827,-0.1958654373884201,0.8674554228782654,0.4748639166355133,0.4783081114292145,-0.011285603046417236,0.9998323917388916,0.4284992814064026,0.47571608424186707,0.011250725015997887,0.9999024271965027,0.4960636496543884,0.5938714742660522,-0.02789747714996338,0.9944092631340027,0.40594959259033203,0.5936090350151062,-0.0321914441883564,0.9968782663345337,0.5192713737487793,0.7186817526817322,0.08087920397520065,0.9952396154403687,0.3801000118255615,0.7223489284515381,0.08357047289609909,0.9978793263435364,0.512959361076355,0.7385104298591614,0.08283102512359619,0.9571315050125122,0.3845686912536621,0.7454496026039124,0.08605003356933594,0.9660636186599731,0.5400542616844177,0.7550472617149353,-0.04899681359529495,0.9909892678260803,0.3629258871078491,0.7589173913002014,-0.0456954725086689,0.9940438866615295
31,0.44738420844078064,0.25344401597976685,-0.4333264231681824,0.9999844431877136,0.45254606008529663,0.24298666417598724,-0.41590744256973267,0.9999728798866272,0.4558342397212982,0.24303016066551208,-0.41591423749923706,0.9999718070030212,0.4588523805141449,0.24319840967655182,-0.41597023606300354,0.9999728798866272,0.44322794675827026,0.2439771294593811,-0.4151530861854553,0.9999692440032959,0.44030705094337463,0.244715616106987,-0.41524916887283325,0.9999651908874512,0.4374881386756897,0.24559815227985382,-0.4152497351169586,0.9999646544456482,0.46570444107055664,0.2502657473087311,-0.30229905247688293,0.9999520778656006,0.43642836809158325,0.2533036172389984,-0.30050259828567505,0.9999400973320007,0.4552496373653412,0.266354501247406,-0.39110633730888367,0.999959409236908,0.4430760443210602,0.2669423520565033,-0.39074471592903137,0.9999514222145081,0.4920760691165924,0.3341612219810486,-0.21465906500816345,0.9997633695602417,0.41334453225135803,0.325620174407959,-0.19219185411930084,0.9998944997787476,0.5072313547134399,0.40464648604393005,-0.17786823213100433,0.9687581062316895,0.3948691189289093,0.4018281400203705,-0.11978529393672943,0.9689316153526306,0.5205902457237244,0.4782927632331848,-0.24512100219726562,0.9084449410438538,0.3821015954017639,0.47782662510871887,-0.17725560069084167,0.9291948080062866,0.5197064876556396,0.5009616017341614,-0.26817259192466736,0.8372990489006042,0.37903061509132385,0.5029247403144836,-0.1989525705575943,0.8700193166732788,0.5151144862174988,0.5008832216262817,-0.2998430132865906,0.8441877365112305,0.3847217559814453,0.502933144569397,-0.23304784297943115,0.8744422793388367,0.5141230225563049,0.4942682385444641,-0.25877052545547485,0.8038975596427917,0.3882373571395874,0.4958479702472687,-0.19214168190956116,0.8536136746406555,0.4763029217720032,0.4785594940185547,-0.0077127874828875065,0.9998301863670349,0.42906516790390015,0.4759533107280731,0.007693424820899963,0.9999063611030579,0.49644166231155396,0.5941835641860962,-0.006469305604696274,0.9940272569656372,0.4055577218532562,0.5926332473754883,-0.07010187953710556,0.9969009160995483,0.518723726272583,0.7185564041137695,0.11674828827381134,0.9953168630599976,0.3800646662712097,0.7223864793777466,0.041319478303194046,0.9979010820388794,0.5123406648635864,0.7384840846061707,0.12034504115581512,0.9548842310905457,0.38469260931015015,0.7454358339309692,0.04309168830513954,0.9638065695762634,0.5399519801139832,0.7551630735397339,-0.01132364384829998,0.9910151362419128,0.3628828823566437,0.7591193914413452,-0.09720221161842346,0.9941390156745911
32,0.44838041067123413,0.2528182864189148,-0.42566537857055664,0.9999857544898987,0.45355552434921265,0.2422998696565628,-0.4077001214027405,0.9999749660491943,0.45684733986854553,0.24251045286655426,-0.4077235162258148,0.9999740123748779,0.45986780524253845,0.24276965856552124,-0.4077910780906677,0.9999750256538391,0.44399794936180115,0.24300570785999298,-0.405974805355072,0.9999717473983765,0.4409582018852234,0.24380174279212952,-0.4060670733451843,0.9999680519104004,0.43808165192604065,0.24472476541996002,-0.4060586094856262,0.9999675750732422,0.4667198657989502,0.2504311203956604,-0.2964349091053009,0.9999552965164185,0.4367859959602356,0.2534193694591522,-0.28927209973335266,0.9999446272850037,0.45613160729408264,0.26610127091407776,-0.3848145604133606,0.9999628067016602,0.4438261389732361,0.2665995657444,-0.38286903500556946,0.9999555945396423,0.49541768431663513,0.3341962695121765,-0.2178136557340622,0.9997790455818176,0.4131805896759033,0.32733508944511414,-0.18514686822891235,0.999900221824646,0.5171018838882446,0.40555793046951294,-0.19304879009723663,0.9710469245910645,0.3925076723098755,0.4026733636856079,-0.11834597587585449,0.9687824845314026,0.5311672687530518,0.4825369119644165,-0.26182448863983154,0.9116232395172119,0.37703338265419006,0.47930845618247986,-0.17654040455818176,0.9254654049873352,0.5318270921707153,0.5032379031181335,-0.28723612427711487,0.8393285274505615,0.37198781967163086,0.5033274292945862,-0.19864916801452637,0.8626333475112915,0.5242440700531006,0.5030266046524048,-0.31752195954322815,0.8464365601539612,0.37655508518218994,0.5039597153663635,-0.23295406997203827,0.8677959442138672,0.5229375958442688,0.4963957369327545,-0.27501147985458374,0.8070061802864075,0.3812559247016907,0.49690932035446167,-0.19183659553527832,0.8470652103424072,0.47866907715797424,0.48045724630355835,-0.0078058997169137,0.9998317956924438,0.4293428957462311,0.4781859219074249,0.007791769690811634,0.9999085664749146,0.4974483847618103,0.5979140996932983,-0.006628529168665409,0.9939807057380676,0.40426963567733765,0.5928210020065308,-0.05589473992586136,0.9969123005867004,0.5187252759933472,0.7187464237213135,0.12243958562612534,0.995506763458252,0.37986037135124207,0.7234891653060913,0.06816443800926208,0.9979296922683716,0.512309193611145,0.7390185594558716,0.12665650248527527,0.9545503258705139,0.3847496807575226,0.7468454837799072,0.07091178745031357,0.9623494744300842,0.540071427822113,0.7560323476791382,-0.0034613132011145353,0.9912758469581604,0.36252447962760925,0.759819746017456,-0.06823576986789703,0.9942400455474854
33,0.44850873947143555,0.25495633482933044,-0.4181114137172699,0.9999868273735046,0.4541201591491699,0.2441001683473587,-0.3987947702407837,0.999976634979248,0.45750489830970764,0.2445286214351654,-0.39883261919021606,0.9999757409095764,0.46058717370033264,0.2449604868888855,-0.3989071249961853,0.9999767541885376,0.4441414773464203,0.244038924574852,-0.3977762460708618,0.9999738335609436,0.44101816415786743,0.2445874810218811,-0.3978637158870697,0.9999704957008362,0.43809160590171814,0.24525095522403717,-0.3978579044342041,0.999970018863678,0.46725693345069885,0.2528194785118103,-0.28497281670570374,0.9999578595161438,0.4366469383239746,0.2536686956882477,-0.2797124981880188,0.9999483823776245,0.4561721384525299,0.26835107803344727,-0.3763227164745331,0.9999656677246094,0.4437149465084076,0.2684706747531891,-0.375049889087677,0.9999591112136841,0.4959137439727783,0.3343261480331421,-0.2083650529384613,0.9997888803482056,0.41087451577186584,0.3282700777053833,-0.17745903134346008,0.9999011754989624,0.5215628147125244,0.405937522649765,-0.1903698891401291,0.9729921221733093,0.38905173540115356,0.4053274393081665,-0.12599393725395203,0.968428373336792,0.5372439622879028,0.4834655523300171,-0.2727983295917511,0.9122200608253479,0.37421277165412903,0.48446086049079895,-0.21117261052131653,0.9220002889633179,0.5380116105079651,0.5038937330245972,-0.30189889669418335,0.8371807336807251,0.3702656924724579,0.5072038769721985,-0.2394048273563385,0.8560022711753845,0.5304652452468872,0.5039483904838562,-0.332252562046051,0.8448604345321655,0.3741765320301056,0.5085901618003845,-0.2756029963493347,0.8620672821998596,0.5289852023124695,0.49722135066986084,-0.2866770923137665,0.8061444163322449,0.3786442279815674,0.5015737414360046,-0.2281470000743866,0.8416014313697815,0.4789932668209076,0.48446568846702576,-0.009291151538491249,0.9998232126235962,0.4288717210292816,0.4825665354728699,0.009289631620049477,0.9999018907546997,0.49995511770248413,0.6024157404899597,-0.024272574111819267,0.9941263794898987,0.40161195397377014,0.5989102125167847,-0.0362192764878273,0.9968743920326233,0.5196036100387573,0.7212249636650085,0.09647340327501297,0.9957478642463684,0.37958016991615295,0.7262281179428101,0.10086699575185776,0.9979535937309265,0.5130518674850464,0.7415779232978821,0.0998939797282219,0.9544970393180847,0.3845880627632141,0.7496715188026428,0.10480506718158722,0.9617591500282288,0.5400943160057068,0.7576959133148193,-0.026744112372398376,0.991574764251709,0.3621099591255188,0.7602584362030029,-0.02713719569146633,0.9942901134490967
34,0.44846048951148987,0.2794795632362366,-0.46674132347106934,0.9999879598617554,0.4543057382106781,0.26850464940071106,-0.44840988516807556,0.9999784827232361,0.4577913284301758,0.2689271569252014,-0.4484289288520813,0.9999776482582092,0.4609321057796478,0.2694149315357208,-0.4485064446926117,0.9999786019325256,0.4441088140010834,0.2676740288734436,-0.4460081458091736,0.9999760985374451,0.44082292914390564,0.2677874267101288,-0.4461266100406647,0.9999730587005615,0.43767404556274414,0.2681218087673187,-0.4461211562156677,0.9999726414680481,0.4673803448677063,0.2785870432853699,-0.3351721465587616,0.9999610185623169,0.4346497058868408,0.277081698179245,-0.32414546608924866,0.9999529719352722,0.4561273455619812,0.29433873295783997,-0.42507824301719666,0.9999685883522034,0.4426898956298828,0.29358530044555664,-0.4219130873680115,0.9999627470970154,0.4955672323703766,0.3579617738723755,-0.24556739628314972,0.9998050332069397,0.4097927510738373,0.3502194285392761,-0.21364352107048035,0.9999094009399414,0.527865469455719,0.4209596812725067,-0.23033277690410614,0.9752236604690552,0.3848116099834442,0.42014628648757935,-0.14563706517219543,0.9703189134597778,0.550685465335846,0.49553555250167847,-0.31343820691108704,0.9169800877571106,0.36460134387016296,0.4958769679069519,-0.2041124403476715,0.9260175228118896,0.5582376718521118,0.5131116509437561,-0.33857664465904236,0.8429391384124756,0.35836267471313477,0.5166642665863037,-0.22726543247699738,0.8606943488121033,0.553403913974762,0.515017569065094,-0.3684779405593872,0.8507744669914246,0.36191269755363464,0.519113302230835,-0.2608264684677124,0.8667573928833008,0.5493874549865723,0.5083590149879456,-0.3276078402996063,0.8139292001724243,0.3655077815055847,0.5123177766799927,-0.22148409485816956,0.8475164771080017,0.47793444991111755,0.4923972487449646,-0.009194668382406235,0.9998262524604797,0.428438663482666,0.487795352935791,0.009203953668475151,0.9999046921730042,0.5034687519073486,0.6027644872665405,-0.12725360691547394,0.993890106678009,0.39648205041885376,0.598840594291687,-0.15509231388568878,0.9969010353088379,0.519929051399231,0.7219725251197815,-0.03021218813955784,0.9958301186561584,0.37864068150520325,0.7268022894859314,-0.02150803618133068,0.997894287109375,0.5135282278060913,0.7418286800384521,-0.029669716954231262,0.9538929462432861,0.38391509652137756,0.7501484155654907,-0.0174432210624218,0.9607746005058289,0.5412151217460632,0.7587610483169556,-0.1720401793718338,0.9915280938148499,0.3620948791503906,0.7608023881912231,-0.154368057847023,0.9940944314002991
35,0.44708675146102905,0.3070869743824005,-0.4553360939025879,0.9999889731407166,0.4528847336769104,0.29560983180999756,-0.43735751509666443,0.9999799728393555,0.45642662048339844,0.2958676218986511,-0.4373718798160553,0.9999792575836182,0.45973601937294006,0.29615241289138794,-0.4374504089355469,0.9999800324440002,0.4428779184818268,0.29563236236572266,-0.43524813652038574,0.9999779462814331,0.43961748480796814,0.29599347710609436,-0.43536576628685,0.9999752044677734,0.43647950887680054,0.29645782709121704,-0.4353567957878113,0.9999748468399048,0.46655312180519104,0.3027251064777374,-0.3231688439846039,0.999963641166687,0.43272727727890015,0.3034795820713043,-0.3133717477321625,0.9999570846557617,0.45459866523742676,0.3200051188468933,-0.4128980040550232,0.9999712109565735,0.4413444399833679,0.32088831067085266,-0.41002973914146423,0.999966025352478,0.4952238202095032,0.37404611706733704,-0.22752606868743896,0.9998222589492798,0.40932339429855347,0.36831313371658325,-0.2074674814939499,0.9999173283576965,0.5289432406425476,0.42880791425704956,-0.21201936900615692,0.9773139953613281,0.3829004168510437,0.4282827079296112,-0.13870377838611603,0.9726297855377197,0.5531291961669922,0.49693360924720764,-0.30858200788497925,0.9228188395500183,0.3634951114654541,0.5011444091796875,-0.16583573818206787,0.9308902621269226,0.5610891580581665,0.5135212540626526,-0.33633071184158325,0.8517062664031982,0.3555336892604828,0.521638810634613,-0.18351665139198303,0.8673663139343262,0.5554158091545105,0.5146657228469849,-0.3648017942905426,0.8594608306884766,0.35946235060691833,0.5234068632125854,-0.21360273659229279,0.8731570243835449,0.5517975091934204,0.5086527466773987,-0.3230418860912323,0.8245917558670044,0.36407697200775146,0.5175386667251587,-0.17914195358753204,0.8551157116889954,0.47639721632003784,0.504716157913208,-0.007068092469125986,0.9998348355293274,0.4282670021057129,0.5000096559524536,0.0071503771468997,0.9999087452888489,0.5058096647262573,0.6025901436805725,-0.1869886815547943,0.9937847852706909,0.39237457513809204,0.5999547243118286,-0.21819302439689636,0.9969950914382935,0.5202369093894958,0.7242519855499268,-0.07866740971803665,0.9958427548408508,0.3777734637260437,0.7271372079849243,-0.07098819315433502,0.9977946877479553,0.5136245489120483,0.7436624765396118,-0.07648038119077682,0.9544593095779419,0.3829973042011261,0.7499390244483948,-0.06513698399066925,0.9597594141960144,0.5425881743431091,0.7593318819999695,-0.22077934443950653,0.9915162920951843,0.362790048122406,0.7607914805412292,-0.20511627197265625,0.993878960609436
36,0.4466680884361267,0.33569103479385376,-0.4099575877189636,0.9999896287918091,0.4518035054206848,0.3246857821941376,-0.39234068989753723,0.9999802112579346,0.4551359713077545,0.3245936930179596,-0.3923349976539612,0.9999794363975525,0.45828691124916077,0.32459574937820435,-0.39239197969436646,0.9999799728393555,0.44233012199401855,0.32516226172447205,-0.3900398910045624,0.9999788999557495,0.4391515851020813,0.3253805935382843,-0.3901389539241791,0.9999764561653137,0.43602854013442993,0.3256808817386627,-0.39011627435684204,0.9999760985374451,0.4646853506565094,0.3293606638908386,-0.2852858304977417,0.9999640583992004,0.4326295852661133,0.3304324448108673,-0.2731495499610901,0.9999598264694214,0.45378798246383667,0.349101722240448,-0.3703417479991913,0.9999730587005615,0.44131097197532654,0.34986045956611633,-0.3666701018810272,0.9999685287475586,0.4938691556453705,0.3960433602333069,-0.19112786650657654,0.9998372197151184,0.4097108244895935,0.39057499170303345,-0.18380752205848694,0.9999240040779114,0.5295376777648926,0.44103488326072693,-0.1673285812139511,0.9792641401290894,0.3819943070411682,0.44705212116241455,-0.1351105272769928,0.9749922752380371,0.5539453029632568,0.502054750919342,-0.26131343841552734,0.9285758137702942,0.36270326375961304,0.5109410881996155,-0.18642878532409668,0.9365828633308411,0.5621883273124695,0.5181116461753845,-0.2888992428779602,0.8609650731086731,0.3534734845161438,0.5290171504020691,-0.2086794078350067,0.8765652179718018,0.557334303855896,0.5192287564277649,-0.31181102991104126,0.86862713098526,0.3580262064933777,0.5307787656784058,-0.23446902632713318,0.881950855255127,0.5532622337341309,0.5129917860031128,-0.27417948842048645,0.8360039591789246,0.3628693222999573,0.5260266065597534,-0.1990637183189392,0.8651108145713806,0.475323349237442,0.5228070020675659,-0.005735870450735092,0.9998412728309631,0.4282603859901428,0.5190548300743103,0.005836132913827896,0.9999104738235474,0.5096965432167053,0.607633650302887,-0.21550552546977997,0.9937756657600403,0.3897867202758789,0.6051744222640991,-0.22628669440746307,0.9970880150794983,0.5209556221961975,0.7251456379890442,-0.08559119701385498,0.9958364963531494,0.37790465354919434,0.727910041809082,-0.07029256969690323,0.9977222681045532,0.5136394500732422,0.7439588308334351,-0.08078022301197052,0.9546589851379395,0.3834492862224579,0.7498264908790588,-0.06267166137695312,0.9606965184211731,0.5425753593444824,0.760165274143219,-0.21702346205711365,0.9914297461509705,0.36275947093963623,0.7611793875694275,-0.1907011717557907,0.9937482476234436
37,0.4457358419895172,0.3650568425655365,-0.5442991256713867,0.9999904036521912,0.44982296228408813,0.35278627276420593,-0.5236936807632446,0.9999816417694092,0.45285549759864807,0.35290664434432983,-0.5236983299255371,0.9999808669090271,0.45580101013183594,0.35313084721565247,-0.5238174200057983,0.9999812245368958,0.4412868022918701,0.352533221244812,-0.5242911577224731,0.9999803304672241,0.43832316994667053,0.35259151458740234,-0.5244172811508179,0.9999781847000122,0.43531686067581177,0.35279902815818787,-0.5243751406669617,0.9999778270721436,0.46214669942855835,0.357753723859787,-0.3928191661834717,0.999966561794281,0.43258506059646606,0.35715359449386597,-0.3962734043598175,0.9999632239341736,0.45243459939956665,0.37875986099243164,-0.4958561360836029,0.9999753832817078,0.4411714971065521,0.37874728441238403,-0.4966914653778076,0.9999712705612183,0.49174579977989197,0.416621595621109,-0.27084416151046753,0.9998515248298645,0.40982335805892944,0.4175487160682678,-0.27575498819351196,0.9999209046363831,0.5303908586502075,0.45638787746429443,-0.2783864736557007,0.9811416864395142,0.37358519434928894,0.47086039185523987,-0.26521748304367065,0.9765556454658508,0.550983726978302,0.5046266913414001,-0.3925502598285675,0.9348268508911133,0.3634926378726959,0.5048767924308777,-0.3341405987739563,0.9405812621116638,0.5608406066894531,0.5218504071235657,-0.4274274408817291,0.8721246123313904,0.35863107442855835,0.5243180990219116,-0.36020079255104065,0.8835994005203247,0.552251935005188,0.5210906267166138,-0.45011377334594727,0.8792791962623596,0.36284059286117554,0.5130579471588135,-0.37969082593917847,0.8883057236671448,0.5478225350379944,0.5139352679252625,-0.4050149917602539,0.8488396406173706,0.36629143357276917,0.5117636322975159,-0.34302568435668945,0.8715775609016418,0.4732648730278015,0.5338850021362305,-0.0014734691940248013,0.9998496174812317,0.4262710511684418,0.5292567014694214,0.0016247130697593093,0.9999094605445862,0.5141552090644836,0.6098277568817139,-0.2932313084602356,0.9935709238052368,0.388960063457489,0.6090854406356812,-0.29260334372520447,0.9967794418334961,0.5214261412620544,0.7266103625297546,-0.11455287039279938,0.9955131411552429,0.3778979182243347,0.72867751121521,-0.09812932461500168,0.9975211024284363,0.5136378407478333,0.7455509305000305,-0.10567351430654526,0.9557206630706787,0.3835919499397278,0.7497681975364685,-0.08731619268655777,0.9608638882637024,0.5439452528953552,0.7603116631507874,-0.24870064854621887,0.9905598759651184,0.3627939820289612,0.7613256573677063,-0.22905127704143524,0.9930322766304016
