frame,NOSE.x,NOSE.y,NOSE.z,NOSE.v,LEFT_EYE_INNER.x,LEFT_EYE_INNER.y,LEFT_EYE_INNER.z,LEFT_EYE_INNER.v,LEFT_EYE.x,LEFT_EYE.y,LEFT_EYE.z,LEFT_EYE.v,LEFT_EYE_OUTER.x,LEFT_EYE_OUTER.y,LEFT_EYE_OUTER.z,LEFT_EYE_OUTER.v,RIGHT_EYE_INNER.x,RIGHT_EYE_INNER.y,RIGHT_EYE_INNER.z,RIGHT_EYE_INNER.v,RIGHT_EYE.x,RIGHT_EYE.y,RIGHT_EYE.z,RIGHT_EYE.v,RIGHT_EYE_OUTER.x,RIGHT_EYE_OUTER.y,RIGHT_EYE_OUTER.z,RIGHT_EYE_OUTER.v,LEFT_EAR.x,LEFT_EAR.y,LEFT_EAR.z,LEFT_EAR.v,RIGHT_EAR.x,RIGHT_EAR.y,RIGHT_EAR.z,RIGHT_EAR.v,MOUTH_LEFT.x,MOUTH_LEFT.y,MOUTH_LEFT.z,MOUTH_LEFT.v,MOUTH_RIGHT.x,MOUTH_RIGHT.y,MOUTH_RIGHT.z,MOUTH_RIGHT.v,LEFT_SHOULDER.x,LEFT_SHOULDER.y,LEFT_SHOULDER.z,LEFT_SHOULDER.v,RIGHT_SHOULDER.x,RIGHT_SHOULDER.y,RIGHT_SHOULDER.z,RIGHT_SHOULDER.v,LEFT_ELBOW.x,LEFT_ELBOW.y,LEFT_ELBOW.z,LEFT_ELBOW.v,RIGHT_ELBOW.x,RIGHT_ELBOW.y,RIGHT_ELBOW.z,RIGHT_ELBOW.v,LEFT_WRIST.x,LEFT_WRIST.y,LEFT_WRIST.z,LEFT_WRIST.v,RIGHT_WRIST.x,RIGHT_WRIST.y,RIGHT_WRIST.z,RIGHT_WRIST.v,LEFT_PINKY.x,LEFT_PINKY.y,LEFT_PINKY.z,LEFT_PINKY.v,RIGHT_PINKY.x,RIGHT_PINKY.y,RIGHT_PINKY.z,RIGHT_PINKY.v,LEFT_INDEX.x,LEFT_INDEX.y,LEFT_INDEX.z,LEFT_INDEX.v,RIGHT_INDEX.x,RIGHT_INDEX.y,RIGHT_INDEX.z,RIGHT_INDEX.v,LEFT_THUMB.x,LEFT_THUMB.y,LEFT_THUMB.z,LEFT_THUMB.v,RIGHT_THUMB.x,RIGHT_THUMB.y,RIGHT_THUMB.z,RIGHT_THUMB.v,LEFT_HIP.x,LEFT_HIP.y,LEFT_HIP.z,LEFT_HIP.v,RIGHT_HIP.x,RIGHT_HIP.y,RIGHT_HIP.z,RIGHT_HIP.v,LEFT_KNEE.x,LEFT_KNEE.y,LEFT_KNEE.z,LEFT_KNEE.v,RIGHT_KNEE.x,RIGHT_KNEE.y,RIGHT_KNEE.z,RIGHT_KNEE.v,LEFT_ANKLE.x,LEFT_ANKLE.y,LEFT_ANKLE.z,LEFT_ANKLE.v,RIGHT_ANKLE.x,RIGHT_ANKLE.y,RIGHT_ANKLE.z,RIGHT_ANKLE.v,LEFT_HEEL.x,LEFT_HEEL.y,LEFT_HEEL.z,LEFT_HEEL.v,RIGHT_HEEL.x,RIGHT_HEEL.y,RIGHT_HEEL.z,RIGHT_HEEL.v,LEFT_FOOT_INDEX.x,LEFT_FOOT_INDEX.y,LEFT_FOOT_INDEX.z,LEFT_FOOT_INDEX.v,RIGHT_FOOT_INDEX.x,RIGHT_FOOT_INDEX.y,RIGHT_FOOT_INDEX.z,RIGHT_FOOT_INDEX.v
0,0.44223982095718384,0.1607171595096588,-0.47040215134620667,0.9998134970664978,0.45148807764053345,0.14364975690841675,-0.47266143560409546,0.9995619654655457,0.45637354254722595,0.1433536410331726,-0.47279757261276245,0.9996770620346069,0.46177834272384644,0.14307962357997894,-0.4729796350002289,0.9997567534446716,0.4435965120792389,0.14374729990959167,-0.44221967458724976,0.9993372559547424,0.44227248430252075,0.14356067776679993,-0.4421846270561218,0.9990594983100891,0.4408082067966461,0.14330516755580902,-0.44217801094055176,0.9984819293022156,0.48338499665260315,0.1525580883026123,-0.4126957952976227,0.9997376799583435,0.45466145873069763,0.15170349180698395,-0.2714414894580841,0.994094967842102,0.4519197344779968,0.18096140027046204,-0.4446781277656555,0.9998536109924316,0.44282403588294983,0.18077659606933594,-0.40391379594802856,0.9992501139640808,0.5424380898475647,0.2411346435546875,-0.39714908599853516,0.999993085861206,0.45121660828590393,0.2598317861557007,-0.07321005314588547,0.9971625208854675,0.6182217001914978,0.3400658369064331,-0.4341026842594147,0.9992716908454895,0.47531232237815857,0.3864678144454956,0.05242437869310379,0.08727537095546722,0.6818689107894897,0.44040241837501526,-0.5033522844314575,0.9902210235595703,0.46551746129989624,0.4911733567714691,-0.032816845923662186,0.1430235058069229,0.7022176384925842,0.46967220306396484,-0.5453280806541443,0.9726623892784119,0.46303924918174744,0.5213053822517395,-0.0411076545715332,0.14746852219104767,0.6942862272262573,0.47850948572158813,-0.5750993490219116,0.9754047989845276,0.4585569500923157,0.5242359638214111,-0.09803228825330734,0.15737111866474152,0.6860723495483398,0.47025182843208313,-0.5143287777900696,0.9612221717834473,0.4630560278892517,0.5134119391441345,-0.05870107561349869,0.1348295509815216,0.5311763882637024,0.48467686772346497,-0.10672642290592194,0.9999663829803467,0.4759576916694641,0.4883177578449249,0.10685139894485474,0.9993083477020264,0.5488875508308411,0.6495494842529297,-0.29454073309898376,0.9969242215156555,0.48256778717041016,0.6300942897796631,0.3715124726295471,0.9454025626182556,0.5673654675483704,0.8392153978347778,-0.27405205368995667,0.9990899562835693,0.4836227297782898,0.7794668078422546,0.7258583307266235,0.968648374080658,0.5812113881111145,0.8656415939331055,-0.28440189361572266,0.9715500473976135,0.49504345655441284,0.8075308203697205,0.7508627772331238,0.9213252067565918,0.5436646938323975,0.9001322984695435,-0.5114753246307373,0.997875452041626,0.42778196930885315,0.8225845694541931,0.6344502568244934,0.9817472100257874
1,0.4422840476036072,0.16177606582641602,-0.4413810670375824,0.9998276233673096,0.4515534043312073,0.1448088139295578,-0.4447413980960846,0.9995957612991333,0.45636773109436035,0.14478127658367157,-0.4448543190956116,0.9997018575668335,0.46156519651412964,0.14469623565673828,-0.4450097978115082,0.9997749924659729,0.44369474053382874,0.1444050669670105,-0.41220030188560486,0.9993891716003418,0.44235315918922424,0.14409242570400238,-0.4121397137641907,0.9991326332092285,0.44090279936790466,0.14368170499801636,-0.4120650887489319,0.9985972046852112,0.4833211898803711,0.15341942012310028,-0.387469083070755,0.9997583627700806,0.4548317790031433,0.15186426043510437,-0.23653069138526917,0.9945661425590515,0.4522150456905365,0.18126846849918365,-0.4163852334022522,0.9998644590377808,0.4429447650909424,0.18098823726177216,-0.37282341718673706,0.9993056058883667,0.541583240032196,0.24167299270629883,-0.37698930501937866,0.9999935626983643,0.4531773626804352,0.25905731320381165,-0.02803497388958931,0.9972720146179199,0.6182479858398438,0.339322954416275,-0.3950358033180237,0.9993206262588501,0.47111907601356506,0.38498368859291077,0.11157385259866714,0.08630484342575073,0.6807298064231873,0.4404476284980774,-0.4552212357521057,0.9908982515335083,0.4636978507041931,0.4769137501716614,0.03203239291906357,0.14420461654663086,0.7014182209968567,0.4696771502494812,-0.49665337800979614,0.9743406772613525,0.46155476570129395,0.5046166777610779,0.023532917723059654,0.14864832162857056,0.6901086568832397,0.47863757610321045,-0.5258450508117676,0.9769147634506226,0.45753970742225647,0.5046505928039551,-0.02884950116276741,0.15836015343666077,0.6822327375411987,0.470443993806839,-0.4654265344142914,0.9634875059127808,0.4615001678466797,0.4950743019580841,0.007593429181724787,0.13581602275371552,0.5290041565895081,0.483743816614151,-0.11086459457874298,0.9999656081199646,0.4749688506126404,0.4879099130630493,0.11094021797180176,0.9993142485618591,0.5465598106384277,0.6498922109603882,-0.22695493698120117,0.9968907833099365,0.4813101887702942,0.6323234438896179,0.37452438473701477,0.9444611668586731,0.5672218799591064,0.837918221950531,-0.19413161277770996,0.9990491271018982,0.4831658899784088,0.7792611718177795,0.7208395004272461,0.9685357213020325,0.5799510478973389,0.8652279376983643,-0.20225179195404053,0.9713717103004456,0.49445757269859314,0.8073075413703918,0.7451115846633911,0.921809732913971,0.5414679646492004,0.9001360535621643,-0.4162716269493103,0.9978247880935669,0.42786821722984314,0.8225467801094055,0.6339899897575378,0.9818346500396729
2,0.44259247183799744,0.1632988303899765,-0.4349801540374756,0.9998382329940796,0.4519123435020447,0.14617328345775604,-0.43948855996131897,0.9996207356452942,0.4564923644065857,0.14615648984909058,-0.4396016597747803,0.999720573425293,0.46156200766563416,0.14601249992847443,-0.43975433707237244,0.9997878670692444,0.4442313611507416,0.1455470770597458,-0.4070487916469574,0.999427855014801,0.4429338872432709,0.14514006674289703,-0.4069989323616028,0.9991878867149353,0.4415857195854187,0.14458675682544708,-0.4069451689720154,0.9986811876296997,0.48359689116477966,0.15383774042129517,-0.3846868872642517,0.9997735023498535,0.45651134848594666,0.15218229591846466,-0.23459041118621826,0.9949378967285156,0.4530068039894104,0.18204304575920105,-0.4104897975921631,0.9998719692230225,0.44364577531814575,0.18192584812641144,-0.3671911060810089,0.9993464350700378,0.5427243113517761,0.24336346983909607,-0.36807161569595337,0.9999938607215881,0.45397472381591797,0.2590397596359253,-0.0340520441532135,0.9973948001861572,0.6174913644790649,0.3405058681964874,-0.37982016801834106,0.9993512034416199,0.4710668623447418,0.3835200071334839,0.10040358453989029,0.08955816924571991,0.6780713796615601,0.44415515661239624,-0.4366057515144348,0.9914057850837708,0.4631262421607971,0.4679712653160095,0.017614586278796196,0.15236811339855194,0.6984491348266602,0.4717206656932831,-0.4765850007534027,0.9756213426589966,0.46127375960350037,0.49441230297088623,0.007539615035057068,0.15612275898456573,0.6885902285575867,0.47864818572998047,-0.5083297491073608,0.9780880212783813,0.45754876732826233,0.4931788146495819,-0.044710636138916016,0.1660580337047577,0.681140124797821,0.4706040322780609,-0.44790950417518616,0.9652747511863708,0.46145501732826233,0.4840839207172394,-0.006750558502972126,0.14253664016723633,0.5291446447372437,0.48284444212913513,-0.11078206449747086,0.9999642968177795,0.4750233590602875,0.4875830411911011,0.11086424440145493,0.9993224143981934,0.5453521013259888,0.6495932340621948,-0.23303177952766418,0.9968065023422241,0.481367826461792,0.634624183177948,0.365208238363266,0.9440546035766602,0.5672629475593567,0.835049569606781,-0.20424418151378632,0.9989935159683228,0.483203649520874,0.7793542742729187,0.6965188384056091,0.9686571359634399,0.5783182382583618,0.8604726791381836,-0.21278198063373566,0.9714540839195251,0.49438610672950745,0.8072506785392761,0.7197826504707336,0.9225934743881226,0.5438138246536255,0.8980515003204346,-0.42554205656051636,0.9977516531944275,0.42877253890037537,0.8227416276931763,0.6084910035133362,0.9818620681762695
3,0.43979698419570923,0.1662193387746811,-0.42887672781944275,0.999846339225769,0.44870591163635254,0.14919129014015198,-0.43583521246910095,0.9996359944343567,0.45300984382629395,0.14900995790958405,-0.43590861558914185,0.9997321963310242,0.4575762152671814,0.14869815111160278,-0.43603143095970154,0.9997931718826294,0.44034188985824585,0.14889048039913177,-0.40365949273109436,0.9994577169418335,0.4387865960597992,0.14844828844070435,-0.4036506712436676,0.9992387294769287,0.4372633397579193,0.14791741967201233,-0.403630793094635,0.9987656474113464,0.47789010405540466,0.1558590531349182,-0.38999035954475403,0.9997771382331848,0.45232510566711426,0.15441079437732697,-0.24205605685710907,0.9953094124794006,0.45109453797340393,0.1837616115808487,-0.4085027277469635,0.9998769164085388,0.44097965955734253,0.18404796719551086,-0.3657089173793793,0.9993864297866821,0.537770688533783,0.24857963621616364,-0.37235671281814575,0.9999933242797852,0.4504927098751068,0.26361319422721863,-0.04997142404317856,0.9976087808609009,0.5915423631668091,0.35902008414268494,-0.3908305764198303,0.999255895614624,0.4495387673377991,0.3839941620826721,0.041486646980047226,0.11618707329034805,0.6276893019676208,0.47046172618865967,-0.44386419653892517,0.9901587963104248,0.43992599844932556,0.4696841835975647,-0.0787501335144043,0.19077301025390625,0.6450755000114441,0.4969736933708191,-0.48068565130233765,0.9729157090187073,0.43700075149536133,0.49585628509521484,-0.09756793081760406,0.1877845823764801,0.6407952904701233,0.499640554189682,-0.5108641386032104,0.9755989909172058,0.43516477942466736,0.4982762932777405,-0.1430100053548813,0.19831711053848267,0.6295660734176636,0.4909333884716034,-0.4548879563808441,0.9622122049331665,0.4398857057094574,0.48882588744163513,-0.10152433812618256,0.17287687957286835,0.5290015935897827,0.4794174134731293,-0.11052630841732025,0.9999630451202393,0.47445958852767944,0.4844253659248352,0.11056295782327652,0.9993552565574646,0.5379815697669983,0.6485986709594727,-0.2138863354921341,0.9968344569206238,0.4773437976837158,0.6349165439605713,0.3304581046104431,0.94383305311203,0.5637584924697876,0.835007905960083,-0.1786075085401535,0.9989974498748779,0.4778880178928375,0.7809531092643738,0.6272679567337036,0.9693488478660583,0.5715082287788391,0.8596066236495972,-0.18614743649959564,0.9716271758079529,0.48927560448646545,0.8096774816513062,0.6477006077766418,0.9225994944572449,0.5427533984184265,0.8989840745925903,-0.3892848491668701,0.9977640509605408,0.42465686798095703,0.8233851790428162,0.539332926273346,0.9820996522903442
4,0.4387318193912506,0.16728463768959045,-0.4346007704734802,0.9998548626899719,0.4474830627441406,0.150226891040802,-0.43882036209106445,0.9996533989906311,0.45172834396362305,0.1500117927789688,-0.4389941096305847,0.9997451901435852,0.45615559816360474,0.1497088074684143,-0.43918323516845703,0.9998010993003845,0.4387940466403961,0.1500457376241684,-0.40464305877685547,0.9994879961013794,0.4371175169944763,0.14961963891983032,-0.4045475423336029,0.9992868304252625,0.43548598885536194,0.1491214781999588,-0.404520183801651,0.9988454580307007,0.4763619899749756,0.1569228321313858,-0.39512670040130615,0.9997839331626892,0.4498749375343323,0.1553644984960556,-0.25381365418434143,0.9956448078155518,0.45025697350502014,0.1845150738954544,-0.4112676978111267,0.9998830556869507,0.43988069891929626,0.18504303693771362,-0.36652499437332153,0.9994266033172607,0.5350066423416138,0.25186261534690857,-0.37564927339553833,0.9999929666519165,0.4484432637691498,0.2646603584289551,-0.072286456823349,0.9977953433990479,0.5876027345657349,0.3666035830974579,-0.395855188369751,0.9991884827613831,0.4458034038543701,0.38401949405670166,0.01967969723045826,0.13981126248836517,0.622684121131897,0.47985926270484924,-0.44675207138061523,0.9892757534980774,0.4360465407371521,0.4694080352783203,-0.10310661792755127,0.22348308563232422,0.6416297554969788,0.5067025423049927,-0.4831397533416748,0.9710661172866821,0.43291181325912476,0.4954201281070709,-0.12268571555614471,0.21484966576099396,0.6375313997268677,0.5101612210273743,-0.5138438940048218,0.9739069938659668,0.4301649034023285,0.49994325637817383,-0.16968435049057007,0.22591204941272736,0.6250318884849548,0.5006921291351318,-0.45787715911865234,0.9601035714149475,0.43517714738845825,0.4904833436012268,-0.12639367580413818,0.1984092742204666,0.5286919474601746,0.4784661829471588,-0.11002983897924423,0.9999628663063049,0.47355061769485474,0.48287323117256165,0.11003659665584564,0.9993859529495239,0.5362061262130737,0.648381769657135,-0.2241486757993698,0.9969249367713928,0.4732091426849365,0.6350306272506714,0.33833402395248413,0.9445671439170837,0.5627739429473877,0.8351231217384338,-0.1960710883140564,0.9990279078483582,0.4747835695743561,0.7809363603591919,0.6521084308624268,0.9703435897827148,0.5702084302902222,0.8598061800003052,-0.2049441784620285,0.9717569947242737,0.4869028925895691,0.8096195459365845,0.6739219427108765,0.9232882857322693,0.5414633750915527,0.9003392457962036,-0.41596928238868713,0.9978200793266296,0.42366212606430054,0.8235522508621216,0.5630707144737244,0.9825866222381592
5,0.43857964873313904,0.16864709556102753,-0.45456376671791077,0.999858021736145,0.4474630355834961,0.15133564174175262,-0.46511441469192505,0.9996605515480042,0.4517495632171631,0.15119695663452148,-0.4651893973350525,0.9997504353523254,0.4562278389930725,0.15105409920215607,-0.46530675888061523,0.9998027086257935,0.43871206045150757,0.15105701982975006,-0.4295463562011719,0.9995006322860718,0.43699344992637634,0.15065322816371918,-0.4295201301574707,0.9993125200271606,0.43532103300094604,0.1501653790473938,-0.42951422929763794,0.9988922476768494,0.4768722951412201,0.15936188399791718,-0.43020981550216675,0.9997830390930176,0.4494975209236145,0.15692466497421265,-0.27361342310905457,0.9958696961402893,0.45003995299339294,0.1857127994298935,-0.4360799789428711,0.9998854398727417,0.4395902156829834,0.1865176111459732,-0.3890497088432312,0.9994514584541321,0.5353675484657288,0.25500595569610596,-0.4115249514579773,0.9999929666519165,0.4485911726951599,0.2660987675189972,-0.07929451763629913,0.9979717135429382,0.5836546421051025,0.374782532453537,-0.4329760670661926,0.9991492033004761,0.4442048668861389,0.38376253843307495,0.032673902809619904,0.16358207166194916,0.6130470037460327,0.4912925660610199,-0.4772523045539856,0.9892944693565369,0.4239323139190674,0.46659228205680847,-0.07073695957660675,0.263612300157547,0.6283426880836487,0.5262550115585327,-0.5203856229782104,0.9711547493934631,0.41669631004333496,0.49349063634872437,-0.08535381406545639,0.24895310401916504,0.6183358430862427,0.5306447148323059,-0.5500854849815369,0.9739359617233276,0.4154752194881439,0.4928456246852875,-0.13743916153907776,0.26117923855781555,0.6088281869888306,0.5174075961112976,-0.4875618517398834,0.9602125883102417,0.42212018370628357,0.4826172888278961,-0.09492699801921844,0.2332330346107483,0.5308977961540222,0.4793069064617157,-0.11065398156642914,0.9999606609344482,0.47416186332702637,0.4833173155784607,0.11070296913385391,0.9994019865989685,0.5371109843254089,0.6501592397689819,-0.16229543089866638,0.9970157146453857,0.47395315766334534,0.6349775195121765,0.3435690402984619,0.9462646842002869,0.561905026435852,0.8356598019599915,-0.08216457068920135,0.9990496635437012,0.47433000802993774,0.7809593677520752,0.6685971021652222,0.9714393615722656,0.5692828893661499,0.8600820302963257,-0.0859181359410286,0.9725341796875,0.48681217432022095,0.8097308278083801,0.6904193162918091,0.9247992634773254,0.5413174629211426,0.9004976153373718,-0.28885290026664734,0.9978688359260559,0.42365431785583496,0.8242000341415405,0.5697234272956848,0.9831150770187378
6,0.4386507570743561,0.1695912629365921,-0.47300124168395996,0.9998601078987122,0.4475947916507721,0.15219178795814514,-0.483528196811676,0.9996658563613892,0.45189914107322693,0.15212853252887726,-0.4835819602012634,0.9997540712356567,0.4564056396484375,0.15206436812877655,-0.4836968779563904,0.9998037219047546,0.43890541791915894,0.15174278616905212,-0.4490208029747009,0.9995102286338806,0.4372085928916931,0.15131525695323944,-0.44901174306869507,0.999333918094635,0.4355495870113373,0.15079526603221893,-0.4490055441856384,0.9989340901374817,0.4771285057067871,0.1608399748802185,-0.4458184242248535,0.9997824430465698,0.4497028887271881,0.15796349942684174,-0.289131760597229,0.99606853723526,0.4500187039375305,0.1865818351507187,-0.4535767138004303,0.999887228012085,0.4395829141139984,0.18736377358436584,-0.4077160954475403,0.9994723796844482,0.5354458689689636,0.25648802518844604,-0.42542457580566406,0.9999929666519165,0.4486224055290222,0.26731449365615845,-0.08824095129966736,0.9981263875961304,0.5829762816429138,0.37552112340927124,-0.44836410880088806,0.9991234540939331,0.44464725255966187,0.38378146290779114,0.03745336830615997,0.18253731727600098,0.610973060131073,0.4922332167625427,-0.498931348323822,0.989392876625061,0.422172874212265,0.4660162925720215,-0.06884569674730301,0.2969208061695099,0.6254333257675171,0.5285592675209045,-0.5439862012863159,0.9714266061782837,0.4134397506713867,0.49216142296791077,-0.08624382317066193,0.27726125717163086,0.6148673295974731,0.5330634713172913,-0.5732775926589966,0.974130392074585,0.4123741686344147,0.4917135238647461,-0.14210516214370728,0.29054775834083557,0.6053861379623413,0.5189951658248901,-0.5092909932136536,0.9604982733726501,0.41903916001319885,0.4814590513706207,-0.09526024758815765,0.26223286986351013,0.532406210899353,0.47942373156547546,-0.11083128303289413,0.9999565482139587,0.47456732392311096,0.4834393858909607,0.11089460551738739,0.9994074106216431,0.5377353429794312,0.6516700387001038,-0.14840929210186005,0.9971081018447876,0.47432246804237366,0.635120689868927,0.3392885625362396,0.9481675028800964,0.5616071224212646,0.8365570902824402,-0.05978097766637802,0.9990710020065308,0.4739146828651428,0.7809529900550842,0.6559534072875977,0.9726594686508179,0.5690475702285767,0.8605439066886902,-0.06302466243505478,0.9731725454330444,0.48698702454566956,0.8099695444107056,0.6780760288238525,0.9266881942749023,0.5412245988845825,0.9008457660675049,-0.2646135687828064,0.997907817363739,0.4234578609466553,0.8246064782142639,0.5657087564468384,0.9837055802345276
7,0.43828797340393066,0.17721621692180634,-0.5362164378166199,0.9998660683631897,0.4468698501586914,0.16120828688144684,-0.5507498383522034,0.9996801018714905,0.4510115683078766,0.1609373241662979,-0.5507404208183289,0.9997628331184387,0.4553648829460144,0.16062122583389282,-0.5508209466934204,0.9998106360435486,0.43857502937316895,0.1611117571592331,-0.5143858194351196,0.9995285272598267,0.4369347095489502,0.16058339178562164,-0.5144270062446594,0.9993621110916138,0.4353151321411133,0.15996260941028595,-0.5144413709640503,0.9989944696426392,0.47495537996292114,0.16745786368846893,-0.5313571691513062,0.9997836947441101,0.4482950270175934,0.1661801040172577,-0.36514100432395935,0.9962697625160217,0.44931140542030334,0.19396480917930603,-0.5227411389350891,0.9998921155929565,0.439462810754776,0.19409587979316711,-0.47480159997940063,0.9995033740997314,0.5302324295043945,0.26671552658081055,-0.5276469588279724,0.9999933242797852,0.4439786970615387,0.26978546380996704,-0.16413556039333344,0.9983031749725342,0.5479587912559509,0.40718141198158264,-0.5703985095024109,0.9991187453269958,0.4187091886997223,0.3835044801235199,-0.04210398346185684,0.25265663862228394,0.54139643907547,0.5515559315681458,-0.6222473382949829,0.9901524782180786,0.3879998028278351,0.4681071937084198,-0.13767442107200623,0.3630930185317993,0.5438451766967773,0.5891839265823364,-0.6779835224151611,0.973471999168396,0.37554290890693665,0.49541983008384705,-0.1554642617702484,0.342004656791687,0.5287790298461914,0.5911604762077332,-0.7010082006454468,0.975931704044342,0.37734946608543396,0.4955710470676422,-0.21201655268669128,0.354472815990448,0.5276130437850952,0.5762250423431396,-0.6293104290962219,0.9629579186439514,0.38292285799980164,0.4888508915901184,-0.1635192632675171,0.3277767598628998,0.5281301736831665,0.4889824688434601,-0.11555753648281097,0.999956488609314,0.47137364745140076,0.4889983832836151,0.1155872568488121,0.9994407296180725,0.533435583114624,0.6531884074211121,-0.1616181880235672,0.9972506761550903,0.47010546922683716,0.6367585062980652,0.3957381844520569,0.949837327003479,0.5598746538162231,0.8365726470947266,-0.06062515452504158,0.9991109371185303,0.4713185727596283,0.780941367149353,0.7550030946731567,0.973597526550293,0.5664705634117126,0.8592380285263062,-0.0622687041759491,0.9741544723510742,0.4853275418281555,0.8100880980491638,0.7829005122184753,0.9281648397445679,0.5408178567886353,0.9002100229263306,-0.2612345814704895,0.9979985952377319,0.42083272337913513,0.8246375322341919,0.6870977878570557,0.984180212020874
8,0.4380583167076111,0.19410757720470428,-0.587078869342804,0.9998655915260315,0.446934312582016,0.17800097167491913,-0.5978092551231384,0.9996759295463562,0.45109647512435913,0.17760086059570312,-0.5977916121482849,0.9997575283050537,0.45549386739730835,0.1773635447025299,-0.5978862643241882,0.9998049736022949,0.43856993317604065,0.17836174368858337,-0.5643666982650757,0.9995222091674805,0.43694114685058594,0.1781192421913147,-0.5644403100013733,0.9993648529052734,0.43533819913864136,0.17784643173217773,-0.564483106136322,0.999027669429779,0.4747128486633301,0.18531247973442078,-0.5622420310974121,0.9997655153274536,0.44770297408103943,0.18289650976657867,-0.4109354019165039,0.9964078068733215,0.44919586181640625,0.21407386660575867,-0.5677614212036133,0.9998894929885864,0.4394201636314392,0.2137177437543869,-0.524244487285614,0.9995205402374268,0.5265420079231262,0.2829928696155548,-0.5544551610946655,0.9999930262565613,0.43988943099975586,0.27773892879486084,-0.20202705264091492,0.9984639286994934,0.5368070006370544,0.42110639810562134,-0.5972486138343811,0.9989776611328125,0.4083852171897888,0.38675063848495483,-0.08277938514947891,0.31869810819625854,0.5157554149627686,0.5628916621208191,-0.6419318318367004,0.990306556224823,0.3780525326728821,0.47949668765068054,-0.16366884112358093,0.4221644401550293,0.515155017375946,0.606427013874054,-0.6950085163116455,0.9741974472999573,0.3661220669746399,0.5129684805870056,-0.17874985933303833,0.399300754070282,0.502144992351532,0.6045851111412048,-0.7190202474594116,0.9764048457145691,0.37191271781921387,0.514800488948822,-0.23071809113025665,0.410890132188797,0.4994319975376129,0.589596152305603,-0.6496142745018005,0.9632156491279602,0.37662890553474426,0.5073153972625732,-0.18706557154655457,0.38607296347618103,0.5294192433357239,0.49428197741508484,-0.1149650365114212,0.999951958656311,0.47156795859336853,0.4934578835964203,0.11496547609567642,0.9994674921035767,0.5309790372848511,0.6532531976699829,-0.17054536938667297,0.9972903728485107,0.46782487630844116,0.6320174336433411,0.27546659111976624,0.9510415196418762,0.5597031116485596,0.8345251679420471,-0.03544328361749649,0.9990882873535156,0.47099071741104126,0.7791687846183777,0.5957385301589966,0.9743907451629639,0.5660392045974731,0.853901743888855,-0.03357778862118721,0.9746463894844055,0.4856744706630707,0.8090440630912781,0.6192880868911743,0.9292677640914917,0.5412163734436035,0.8984361290931702,-0.21917586028575897,0.9979658722877502,0.41985568404197693,0.8224983215332031,0.5197387933731079,0.9843094348907471
9,0.4381081163883209,0.1958792805671692,-0.5985813736915588,0.9998706579208374,0.44695764780044556,0.17990358173847198,-0.6089721918106079,0.9996883869171143,0.4511154294013977,0.17941290140151978,-0.6089655756950378,0.9997668862342834,0.4555600583553314,0.1791563630104065,-0.6090599894523621,0.9998113512992859,0.43859434127807617,0.18060541152954102,-0.5742564797401428,0.9995373487472534,0.43696361780166626,0.18052729964256287,-0.5743306875228882,0.9993910789489746,0.4353647232055664,0.1804485023021698,-0.5743643045425415,0.9990811944007874,0.47498592734336853,0.18734540045261383,-0.5728910565376282,0.9997694492340088,0.447896808385849,0.18610215187072754,-0.4163469672203064,0.9966127872467041,0.44920843839645386,0.2145949900150299,-0.5795438885688782,0.9998934268951416,0.4394463002681732,0.21437819302082062,-0.5345233082771301,0.99954754114151,0.5245000123977661,0.28576263785362244,-0.5717135667800903,0.9999932646751404,0.4399999678134918,0.2831631898880005,-0.2001095712184906,0.9986069202423096,0.5347571969032288,0.42376476526260376,-0.6181812882423401,0.9989321231842041,0.4068475365638733,0.3880026936531067,-0.06646482646465302,0.378493070602417,0.513511061668396,0.56656414270401,-0.6663554906845093,0.9907612800598145,0.3776934742927551,0.48393186926841736,-0.13313843309879303,0.4752669036388397,0.5103145837783813,0.6092373728752136,-0.7214637994766235,0.9755114912986755,0.3647060692310333,0.5175284743309021,-0.1454252451658249,0.4507264792919159,0.4954586625099182,0.6073407530784607,-0.7462645769119263,0.9774926900863647,0.3710057735443115,0.5202324390411377,-0.1966039538383484,0.46149176359176636,0.49321383237838745,0.5922867059707642,-0.6741122007369995,0.9644576907157898,0.3762274384498596,0.512801468372345,-0.15587638318538666,0.4383043646812439,0.530764102935791,0.49842721223831177,-0.11626847088336945,0.9999518394470215,0.47418156266212463,0.49878647923469543,0.11630073934793472,0.9994969367980957,0.5287277102470398,0.6537052392959595,-0.18067581951618195,0.9974066615104675,0.4667239189147949,0.629675030708313,0.31376633048057556,0.9518139362335205,0.5598987340927124,0.8325352072715759,-0.04364606738090515,0.9991084337234497,0.4710003733634949,0.7788537740707397,0.637335479259491,0.9750267267227173,0.5667120218276978,0.8520116209983826,-0.041237667202949524,0.9758628010749817,0.485874742269516,0.8090406656265259,0.6576614379882812,0.9302607178688049,0.5415864586830139,0.8984702229499817,-0.2303071916103363,0.9980330467224121,0.4194236695766449,0.822242796421051,0.5526284575462341,0.9844816327095032
10,0.4382510185241699,0.243545800447464,-0.5576261281967163,0.9998804926872253,0.44781869649887085,0.22622805833816528,-0.5984448194503784,0.9997125864028931,0.4519285261631012,0.22591084241867065,-0.5976501703262329,0.9997847080230713,0.45625701546669006,0.22597980499267578,-0.5974724888801575,0.999825656414032,0.43911123275756836,0.22807365655899048,-0.5560208559036255,0.9995735287666321,0.4372938573360443,0.22869578003883362,-0.5554261803627014,0.9994418025016785,0.4355230927467346,0.2294282764196396,-0.5554014444351196,0.9991631507873535,0.47416719794273376,0.2380819022655487,-0.48857831954956055,0.9997877478599548,0.4465218484401703,0.2397758513689041,-0.3677864968776703,0.9969286918640137,0.44921398162841797,0.26181820034980774,-0.5524832606315613,0.9999024271965027,0.4394703507423401,0.2624988257884979,-0.49541792273521423,0.9995874762535095,0.524890661239624,0.3331441581249237,-0.5288991332054138,0.9999933242797852,0.43594497442245483,0.3378065824508667,-0.16159464418888092,0.9987404942512512,0.5270723104476929,0.47298577427864075,-0.5709809064865112,0.9988247156143188,0.3987046480178833,0.4448707699775696,-0.0729542002081871,0.430284708738327,0.4523440897464752,0.5846934914588928,-0.6536768078804016,0.9907678365707397,0.36257630586624146,0.5211744904518127,-0.1871621161699295,0.5141940116882324,0.43490877747535706,0.6161699891090393,-0.7160869836807251,0.976069450378418,0.35186001658439636,0.5437574982643127,-0.2163647711277008,0.4844736158847809,0.4221437871456146,0.605109453201294,-0.7292457818984985,0.9778119325637817,0.3594663441181183,0.5465253591537476,-0.2589082419872284,0.4949483871459961,0.4289264678955078,0.5928510427474976,-0.6592069268226624,0.9639632701873779,0.36516082286834717,0.53911292552948,-0.20978660881519318,0.47259223461151123,0.5417241454124451,0.5336087346076965,-0.10072453320026398,0.9999538660049438,0.4879392981529236,0.5347785949707031,0.10086403042078018,0.9995405673980713,0.5286844968795776,0.6518803238868713,-0.5438841581344604,0.9974778294563293,0.4313918650150299,0.6227959394454956,-0.20544025301933289,0.9539003968238831,0.5600388050079346,0.8298797607421875,-0.31567105650901794,0.9989728927612305,0.4723745286464691,0.7753150463104248,0.07979562878608704,0.9756888747215271,0.5671480894088745,0.8501651883125305,-0.30175668001174927,0.9765327572822571,0.4904515743255615,0.8054757714271545,0.09980181604623795,0.9338323473930359,0.5431286692619324,0.897356390953064,-0.4875398576259613,0.9978145360946655,0.4220059812068939,0.8191001415252686,-0.023562120273709297,0.9841448664665222
11,0.43835774064064026,0.2489812672138214,-0.6181691884994507,0.9998865127563477,0.4480606019496918,0.2344963550567627,-0.6193116903305054,0.9997239112854004,0.4522227644920349,0.23454557359218597,-0.6192631125450134,0.9997899532318115,0.45651230216026306,0.23499007523059845,-0.6193575263023376,0.9998307824134827,0.439272940158844,0.23544567823410034,-0.5910342931747437,0.9995975494384766,0.43732643127441406,0.2359284907579422,-0.591105043888092,0.9994781017303467,0.43559837341308594,0.23638013005256653,-0.5911732912063599,0.9992313385009766,0.47372183203697205,0.24763935804367065,-0.5426938533782959,0.9997862577438354,0.44533929228782654,0.24507740139961243,-0.4209413528442383,0.9971937537193298,0.44919052720069885,0.2670958340167999,-0.5886911153793335,0.9999046325683594,0.43934711813926697,0.2675444483757019,-0.5519617199897766,0.9996169805526733,0.5206261277198792,0.3397541344165802,-0.5506759881973267,0.9999923706054688,0.4326210021972656,0.3428468108177185,-0.20165252685546875,0.9988624453544617,0.5108231902122498,0.4838515520095825,-0.607556164264679,0.9985610842704773,0.3889318108558655,0.4551469385623932,-0.11583559215068817,0.47442302107810974,0.44348812103271484,0.594951868057251,-0.6702181100845337,0.9901710152626038,0.350387305021286,0.5460156798362732,-0.23651023209095,0.5528513193130493,0.4272528290748596,0.6204938292503357,-0.7293996810913086,0.9756808876991272,0.3351517617702484,0.5690338015556335,-0.26583319902420044,0.5205468535423279,0.4164276719093323,0.6110706329345703,-0.7475160360336304,0.9772486686706543,0.3389422297477722,0.5718384981155396,-0.3148687183856964,0.5307742953300476,0.4215133786201477,0.6019501090049744,-0.6770855188369751,0.9619976878166199,0.3468913435935974,0.5653753280639648,-0.26163795590400696,0.5104174613952637,0.5454862117767334,0.5310680866241455,-0.09844543039798737,0.9999510049819946,0.48983803391456604,0.5303959250450134,0.09845062345266342,0.9995774626731873,0.5328839421272278,0.6694843173027039,-0.26396435499191284,0.9972084760665894,0.4333358407020569,0.6263593435287476,-0.04019193723797798,0.9562506079673767,0.5598222017288208,0.8295953273773193,-0.03937697410583496,0.9988338351249695,0.47184187173843384,0.772590696811676,0.2641163766384125,0.9759703278541565,0.5685213804244995,0.8507574200630188,-0.030601903796195984,0.974590539932251,0.4898168444633484,0.8007696866989136,0.28640374541282654,0.9345095753669739,0.5429719090461731,0.8973807096481323,-0.2135886400938034,0.9974961280822754,0.4216650426387787,0.8184831142425537,0.17746414244174957,0.9835757613182068
12,0.4345577657222748,0.325487345457077,-0.639443576335907,0.9998944997787476,0.4456688463687897,0.3114876449108124,-0.6394892930984497,0.9997404217720032,0.4501113295555115,0.3121061325073242,-0.639398992061615,0.9998021721839905,0.4552221894264221,0.31351226568222046,-0.6394544839859009,0.9998358488082886,0.43789419531822205,0.3112477958202362,-0.6131662130355835,0.99962317943573,0.43654879927635193,0.31143704056739807,-0.6133478879928589,0.9995189905166626,0.4352576732635498,0.3118695020675659,-0.6134061217308044,0.9992937445640564,0.47273164987564087,0.32603690028190613,-0.5590243339538574,0.999796986579895,0.4451703429222107,0.3215397894382477,-0.44240278005599976,0.997449517250061,0.44601720571517944,0.34502533078193665,-0.6051479578018188,0.999911904335022,0.4374198317527771,0.34500810503959656,-0.5714636445045471,0.9996501207351685,0.5210690498352051,0.4126056730747223,-0.5416158437728882,0.9999914765357971,0.42719635367393494,0.4069041311740875,-0.2607730031013489,0.9989712238311768,0.4911770820617676,0.5496923923492432,-0.646685004234314,0.9983189105987549,0.3845987915992737,0.513085126876831,-0.3568916916847229,0.5179448127746582,0.3993552327156067,0.605729877948761,-0.7433057427406311,0.9901770353317261,0.3542812466621399,0.5698108673095703,-0.6468098759651184,0.5869418978691101,0.3726041913032532,0.6166708469390869,-0.8114436268806458,0.9767441749572754,0.3437625765800476,0.583868682384491,-0.7061634063720703,0.5553364753723145,0.36214491724967957,0.5987913608551025,-0.8177441358566284,0.9780969023704529,0.3488326370716095,0.576101541519165,-0.7334511876106262,0.5647998452186584,0.37175947427749634,0.5924059152603149,-0.7463857531547546,0.9622241258621216,0.35455986857414246,0.5715577006340027,-0.6672068238258362,0.5431585311889648,0.5574155449867249,0.5723362565040588,-0.08105529099702835,0.9999520778656006,0.49082499742507935,0.5774906873703003,0.08104561269283295,0.9996132850646973,0.5277467370033264,0.6636684536933899,-0.5923929810523987,0.9971213936805725,0.42674678564071655,0.6111231446266174,-0.2918199300765991,0.9575007557868958,0.5598913431167603,0.8280095458030701,-0.3472912609577179,0.998695433139801,0.47184109687805176,0.7687228322029114,0.009676787070930004,0.9768714904785156,0.5719731450080872,0.8503089547157288,-0.3327847123146057,0.9754651188850403,0.48982763290405273,0.797573983669281,0.03159508854150772,0.9391944408416748,0.5449050664901733,0.8985100388526917,-0.5287033319473267,0.9973742365837097,0.42412835359573364,0.817844033241272,-0.09600481390953064,0.9836789965629578
13,0.430527925491333,0.36686763167381287,-0.5014520883560181,0.9998916387557983,0.4413270950317383,0.35213610529899597,-0.5086134672164917,0.9997243881225586,0.44570988416671753,0.35307374596595764,-0.508520245552063,0.9997885227203369,0.4512297511100769,0.35442641377449036,-0.5085767507553101,0.9998072981834412,0.43532711267471313,0.35030367970466614,-0.476019948720932,0.9996057152748108,0.4349448084831238,0.3500235378742218,-0.47619566321372986,0.9995298385620117,0.4345065951347351,0.3499896228313446,-0.4762580990791321,0.99931800365448,0.4702000021934509,0.36574846506118774,-0.46989765763282776,0.9997822046279907,0.44525179266929626,0.360914409160614,-0.32617923617362976,0.9976251721382141,0.4409453868865967,0.3854151964187622,-0.48367851972579956,0.9999138116836548,0.4342162609100342,0.38525915145874023,-0.44220274686813354,0.9996678233146667,0.5243011116981506,0.45567262172698975,-0.4811019003391266,0.999988317489624,0.42577582597732544,0.44648417830467224,-0.25414037704467773,0.9990609884262085,0.48689690232276917,0.5788912177085876,-0.5991412401199341,0.9981077313423157,0.3891116976737976,0.533536970615387,-0.29172012209892273,0.535982608795166,0.388394832611084,0.606647253036499,-0.6773258447647095,0.9903420805931091,0.3623321056365967,0.5840126872062683,-0.6032050848007202,0.6075272560119629,0.3619168996810913,0.6106510162353516,-0.7400556802749634,0.9778530597686768,0.3439883291721344,0.589758038520813,-0.6599172353744507,0.5803269147872925,0.35587215423583984,0.5917165279388428,-0.743768572807312,0.9790154695510864,0.34784191846847534,0.5781962871551514,-0.6820825338363647,0.5893171429634094,0.3647240400314331,0.5859406590461731,-0.678400456905365,0.9626150131225586,0.3558334708213806,0.5759120583534241,-0.6228629946708679,0.5662317276000977,0.5538228154182434,0.6186631321907043,-0.08196910470724106,0.9999499917030334,0.48974496126174927,0.6134251356124878,0.08198796212673187,0.9996401071548462,0.5265666246414185,0.6776200532913208,-0.5681834816932678,0.9969046115875244,0.42602863907814026,0.626988410949707,-0.26994043588638306,0.9539896249771118,0.5599203109741211,0.8262743353843689,-0.3149813711643219,0.9983095526695251,0.4703630805015564,0.7658335566520691,0.039567552506923676,0.9748875498771667,0.5719742178916931,0.8459469676017761,-0.2973123788833618,0.9745320081710815,0.48956555128097534,0.7901626229286194,0.06458552926778793,0.9412249326705933,0.5455516576766968,0.900390625,-0.4648073613643646,0.9968787431716919,0.42628875374794006,0.8146451115608215,-0.03696627914905548,0.981809139251709
14,0.4308638572692871,0.38213205337524414,-0.5956815481185913,0.9998967051506042,0.441429078578949,0.36461448669433594,-0.6072439551353455,0.9997377395629883,0.44594162702560425,0.36586999893188477,-0.6071329116821289,0.9997972249984741,0.4513835310935974,0.36746853590011597,-0.6071991324424744,0.9998083114624023,0.43543973565101624,0.3622477948665619,-0.5724242925643921,0.9996251463890076,0.43502575159072876,0.3617795705795288,-0.5726423859596252,0.9995611906051636,0.43458303809165955,0.36143243312835693,-0.5727172493934631,0.9993661642074585,0.47057706117630005,0.37887534499168396,-0.5643435716629028,0.9997928142547607,0.4454628825187683,0.3714272081851959,-0.41131240129470825,0.9978342652320862,0.4418116509914398,0.4021573066711426,-0.5740604996681213,0.9999193549156189,0.43439966440200806,0.40094196796417236,-0.5299919247627258,0.9996942281723022,0.5258027911186218,0.46070241928100586,-0.5572988390922546,0.9999872446060181,0.4268004894256592,0.4500623643398285,-0.24449901282787323,0.9991464614868164,0.4735826551914215,0.5811128616333008,-0.6850266456604004,0.997746467590332,0.387357622385025,0.5333706736564636,-0.38305121660232544,0.5559068918228149,0.3845306932926178,0.6071739196777344,-0.7752931118011475,0.9898564219474792,0.35920974612236023,0.580706775188446,-0.7355648875236511,0.6244500279426575,0.36047258973121643,0.6088014841079712,-0.8434001803398132,0.9781454801559448,0.34214547276496887,0.5888253450393677,-0.7958410978317261,0.6032930612564087,0.3530423939228058,0.5899657011032104,-0.8396760821342468,0.9790758490562439,0.34476810693740845,0.5771061778068542,-0.8154164552688599,0.6114324927330017,0.3608638048171997,0.586538553237915,-0.7741109728813171,0.9607737064361572,0.3529478907585144,0.5756781101226807,-0.7545006275177002,0.5864607095718384,0.5596446394920349,0.620261013507843,-0.08543619513511658,0.9999504089355469,0.4937034547328949,0.6170656681060791,0.08542899042367935,0.9996642470359802,0.5303763151168823,0.6750767827033997,-0.614450216293335,0.9960224032402039,0.4236481189727783,0.6408878564834595,-0.21673008799552917,0.9438409805297852,0.5600255727767944,0.8268807530403137,-0.34059053659439087,0.9978234767913818,0.4734862744808197,0.7644951343536377,0.13486510515213013,0.9702203869819641,0.5723682641983032,0.8467837572097778,-0.32149437069892883,0.9738574028015137,0.49226927757263184,0.7818653583526611,0.16384688019752502,0.9403260946273804,0.5457890033721924,0.9011669754981995,-0.494389146566391,0.9963986873626709,0.4284786283969879,0.8116916418075562,0.06928938627243042,0.9772871732711792
15,0.4276037812232971,0.44870615005493164,-0.6096547842025757,0.9998472332954407,0.4403000473976135,0.43560081720352173,-0.6264403462409973,0.9996273517608643,0.44457846879959106,0.43671292066574097,-0.6263661980628967,0.9997202157974243,0.4503863453865051,0.43664005398750305,-0.6265376806259155,0.9996668696403503,0.4317026138305664,0.430574893951416,-0.5878506302833557,0.9993793368339539,0.43085870146751404,0.43006548285484314,-0.5880441069602966,0.9994166493415833,0.42987266182899475,0.42974457144737244,-0.5881269574165344,0.9991076588630676,0.4683145582675934,0.44289955496788025,-0.603579044342041,0.9997410178184509,0.439671128988266,0.4390367865562439,-0.43089374899864197,0.9975239634513855,0.43226704001426697,0.4707956910133362,-0.594024121761322,0.999908447265625,0.43064767122268677,0.46872997283935547,-0.5445225238800049,0.9996652007102966,0.5227407813072205,0.5154669284820557,-0.5827590823173523,0.9999833703041077,0.42404404282569885,0.5033124089241028,-0.2515217661857605,0.9991914629936218,0.47733157873153687,0.6484168171882629,-0.7080962657928467,0.9975650310516357,0.39118626713752747,0.5887249112129211,-0.3688729405403137,0.5446474552154541,0.38007238507270813,0.6290355920791626,-0.780438244342804,0.9903825521469116,0.36132147908210754,0.5934505462646484,-0.7122622728347778,0.6336904168128967,0.3569844961166382,0.6182653903961182,-0.8452884554862976,0.9795286059379578,0.339993953704834,0.5911479592323303,-0.7653971314430237,0.620882511138916,0.35418012738227844,0.6011497378349304,-0.8327590823173523,0.9803014993667603,0.343781977891922,0.5790689587593079,-0.7839992046356201,0.628018319606781,0.36303436756134033,0.6031395196914673,-0.7749831676483154,0.9619230031967163,0.35396263003349304,0.5765799283981323,-0.7301790118217468,0.6005294322967529,0.5568478107452393,0.6741612553596497,-0.0834074541926384,0.9999375343322754,0.4933069348335266,0.6603317856788635,0.08350379019975662,0.9996463656425476,0.5279220342636108,0.7106716632843018,-0.601769745349884,0.9949424862861633,0.4246371388435364,0.644616961479187,-0.23445956408977509,0.921353816986084,0.5596068501472473,0.8271757960319519,-0.3032270073890686,0.9961203336715698,0.466240793466568,0.7646707892417908,0.14162853360176086,0.9599267840385437,0.5719899535179138,0.8447185754776001,-0.2218150794506073,0.9695403575897217,0.4853803515434265,0.7841216921806335,0.1736356019973755,0.9359275698661804,0.5456005930900574,0.9011749029159546,-0.3531774878501892,0.993890106678009,0.42757636308670044,0.812113344669342,0.08052296936511993,0.9679268002510071
16,0.42848196625709534,0.4594523012638092,-0.6247626543045044,0.9998438954353333,0.4406982958316803,0.4426954686641693,-0.6374245882034302,0.9996262788772583,0.4449661374092102,0.4438743591308594,-0.6373518705368042,0.9997161626815796,0.4506986141204834,0.44499561190605164,-0.6374978423118591,0.9996482133865356,0.4322029948234558,0.4377062916755676,-0.6020598411560059,0.999372124671936,0.4311460852622986,0.4369724690914154,-0.602266788482666,0.9994257092475891,0.42989397048950195,0.43656545877456665,-0.6023433804512024,0.9991305470466614,0.46823543310165405,0.450019896030426,-0.6002963781356812,0.9997348189353943,0.4383699297904968,0.4430052638053894,-0.4430772364139557,0.9976415634155273,0.4325832724571228,0.4800695478916168,-0.6046784520149231,0.9999098181724548,0.43078190088272095,0.4759010672569275,-0.5595598220825195,0.9996830224990845,0.5217869877815247,0.5284658074378967,-0.5759681463241577,0.999980092048645,0.42436718940734863,0.5085595846176147,-0.25879549980163574,0.9992603659629822,0.4772190451622009,0.6566370725631714,-0.6756319999694824,0.9970275163650513,0.3939873278141022,0.5959178805351257,-0.36217355728149414,0.5584467053413391,0.3801799714565277,0.6315139532089233,-0.7390848398208618,0.9900839924812317,0.3595043122768402,0.5997845530509949,-0.6922537684440613,0.6568275690078735,0.3581838011741638,0.6230155825614929,-0.8008099794387817,0.979813277721405,0.33859649300575256,0.595190703868866,-0.7431777119636536,0.6472997069358826,0.35511085391044617,0.604145348072052,-0.7941790819168091,0.9804377555847168,0.3419158160686493,0.5825730562210083,-0.7627285718917847,0.6538590788841248,0.3636646866798401,0.6070762872695923,-0.7361066341400146,0.9604801535606384,0.3512112498283386,0.5824191570281982,-0.7093613743782043,0.6261708736419678,0.5560033917427063,0.6661189198493958,-0.08416158705949783,0.9999361038208008,0.4924052357673645,0.6482193470001221,0.08422308415174484,0.9996536374092102,0.5251219868659973,0.726198136806488,-0.539194643497467,0.9943373799324036,0.428561270236969,0.6604207158088684,-0.1396191418170929,0.8956453204154968,0.5601169466972351,0.8324427008628845,-0.2233583927154541,0.9956111907958984,0.4627525806427002,0.7659432291984558,0.22170940041542053,0.9505914449691772,0.5733728408813477,0.8493213057518005,-0.18521597981452942,0.9673964381217957,0.470247745513916,0.7849013805389404,0.2451263964176178,0.9291418194770813,0.5450619459152222,0.90116947889328,-0.32904860377311707,0.9932044744491577,0.4266555905342102,0.8119401335716248,0.12398859113454819,0.9607338905334473
17,0.41651496291160583,0.5212840437889099,-0.755133330821991,0.9996532201766968,0.42635577917099,0.507271945476532,-0.7712957859039307,0.9993219375610352,0.43031397461891174,0.5083105564117432,-0.771220326423645,0.9993968605995178,0.4344649910926819,0.5093874931335449,-0.7713674306869507,0.9992148280143738,0.42297878861427307,0.4936749041080475,-0.7404283285140991,0.9986516833305359,0.4219760298728943,0.4927326738834381,-0.7406439185142517,0.9986348152160645,0.41604918241500854,0.49828845262527466,-0.7408008575439453,0.9980022311210632,0.4527188837528229,0.5049774050712585,-0.7268924713134766,0.9992934465408325,0.42651432752609253,0.49183517694473267,-0.5891698598861694,0.9945268034934998,0.4266168177127838,0.5339137315750122,-0.7289162278175354,0.999841034412384,0.42008787393569946,0.5290744304656982,-0.6898643374443054,0.9994145035743713,0.5036567449569702,0.5587597489356995,-0.6537657380104065,0.9999692440032959,0.4181331992149353,0.5119844079017639,-0.40038737654685974,0.9992828369140625,0.4737955927848816,0.6843852996826172,-0.7593833208084106,0.9957485795021057,0.3922146260738373,0.5884037613868713,-0.5108924508094788,0.5887459516525269,0.3822711706161499,0.6484229564666748,-0.8574941754341125,0.9889640808105469,0.35965102910995483,0.5939080715179443,-0.7919057011604309,0.6846441626548767,0.36244821548461914,0.6412075161933899,-0.9269945025444031,0.9789403676986694,0.3517877459526062,0.5951444506645203,-0.8419020771980286,0.6756588220596313,0.36158567667007446,0.6246241927146912,-0.9176949262619019,0.979482114315033,0.34612029790878296,0.5878336429595947,-0.8557906150817871,0.6814132928848267,0.36826005578041077,0.626243531703949,-0.8547983169555664,0.9564123153686523,0.3554076552391052,0.5871593952178955,-0.8036335110664368,0.6528715491294861,0.5327175855636597,0.6607306599617004,-0.08548254519701004,0.9999196529388428,0.47867482900619507,0.6407091021537781,0.08555583655834198,0.9993223547935486,0.5163277387619019,0.7339071035385132,-0.4355923533439636,0.9940019249916077,0.4286577105522156,0.6860847473144531,0.31109529733657837,0.8623486161231995,0.5601404905319214,0.8357527852058411,-0.18636925518512726,0.9956294298171997,0.45461827516555786,0.7644570469856262,0.8058350682258606,0.9257194399833679,0.5733457803726196,0.8497975468635559,-0.16743190586566925,0.9660183191299438,0.46304449439048767,0.7773001194000244,0.8503845930099487,0.9075625538825989,0.545989990234375,0.9003318548202515,-0.33623170852661133,0.9933255314826965,0.42661863565444946,0.8088012337684631,0.7885100841522217,0.9395718574523926
18,0.4179093837738037,0.555149495601654,-0.6065229773521423,0.9996830224990845,0.42714303731918335,0.5411698818206787,-0.6253844499588013,0.9993855953216553,0.43135231733322144,0.5426343679428101,-0.625216543674469,0.9994539618492126,0.43586334586143494,0.5439886450767517,-0.6253793239593506,0.9992884397506714,0.4213376045227051,0.5353800654411316,-0.5937357544898987,0.9987770915031433,0.4203821122646332,0.533266544342041,-0.5939425826072693,0.9987629055976868,0.4179135859012604,0.5315025448799133,-0.5939905047416687,0.9981886148452759,0.4544985294342041,0.5484429597854614,-0.6046329140663147,0.9993617534637451,0.4301374554634094,0.5343243479728699,-0.47560757398605347,0.9950432181358337,0.42869463562965393,0.5741676688194275,-0.5887895226478577,0.9998555183410645,0.4208587110042572,0.5677846670150757,-0.549626350402832,0.9994678497314453,0.508768618106842,0.6168916821479797,-0.5501328706741333,0.9999666810035706,0.4197281002998352,0.5843290686607361,-0.31450802087783813,0.9993167519569397,0.467899888753891,0.7345404028892517,-0.6152344942092896,0.9958030581474304,0.3924916982650757,0.6620866656303406,-0.4014107584953308,0.5938706994056702,0.3829454183578491,0.6952785849571228,-0.6221340894699097,0.989635169506073,0.3614397346973419,0.6460281014442444,-0.7221335768699646,0.697166919708252,0.3612937033176422,0.6884309649467468,-0.6625636219978333,0.9801426529884338,0.34956392645835876,0.6457043886184692,-0.7688401937484741,0.6905683875083923,0.3616819977760315,0.671477735042572,-0.653221845626831,0.9806197285652161,0.34904536604881287,0.637035071849823,-0.7709275484085083,0.6948221921920776,0.3699609041213989,0.6714807152748108,-0.6146838665008545,0.9582761526107788,0.3576829135417938,0.6400539875030518,-0.7312725782394409,0.6640992760658264,0.5329214334487915,0.7300090789794922,-0.07241416722536087,0.9999197721481323,0.48186054825782776,0.7098751068115234,0.07233314216136932,0.9993453621864319,0.518851637840271,0.7351706027984619,-0.4418715834617615,0.9928790926933289,0.41683849692344666,0.7351701855659485,0.04661031439900398,0.8319596648216248,0.5595954060554504,0.8398855328559875,-0.1928633749485016,0.9935486912727356,0.4601671099662781,0.7740811109542847,0.40517163276672363,0.8848333954811096,0.5733663439750671,0.8525553345680237,-0.18250592052936554,0.9583768844604492,0.4693630635738373,0.7802918553352356,0.45001164078712463,0.8722021579742432,0.5441797375679016,0.902664065361023,-0.31192106008529663,0.9911723732948303,0.44618406891822815,0.8086037039756775,0.4086466431617737,0.9056106805801392
19,0.4166874885559082,0.5539323091506958,-0.5807770490646362,0.9997103214263916,0.4272289276123047,0.5375444293022156,-0.59623783826828,0.9994423985481262,0.4316341280937195,0.5390563607215881,-0.5961430072784424,0.9995049834251404,0.4364735186100006,0.5406347513198853,-0.5963003039360046,0.9993530511856079,0.4195106625556946,0.5331600904464722,-0.5641862154006958,0.9988898038864136,0.41807371377944946,0.5315741896629333,-0.5643764138221741,0.9988793134689331,0.41634026169776917,0.5302363038063049,-0.5644372701644897,0.9983574748039246,0.4567769467830658,0.545745313167572,-0.5699763894081116,0.9994214773178101,0.43018731474876404,0.5321682691574097,-0.4348357319831848,0.9955185055732727,0.4284171164035797,0.5725959539413452,-0.5634027123451233,0.9998688101768494,0.4172630310058594,0.5684203505516052,-0.5232383012771606,0.9995183944702148,0.5118041634559631,0.6194336414337158,-0.5328487753868103,0.9999639987945557,0.41998395323753357,0.592363178730011,-0.2786233723163605,0.9993726015090942,0.4692154824733734,0.740372359752655,-0.6132315397262573,0.9956871271133423,0.3991835415363312,0.6764252781867981,-0.383364737033844,0.6102344393730164,0.383859783411026,0.6985411047935486,-0.6532033085823059,0.9902597069740295,0.36229756474494934,0.6599550247192383,-0.6908015012741089,0.7173448801040649,0.36296358704566956,0.6882711052894592,-0.703093409538269,0.9814708232879639,0.34904003143310547,0.6527550220489502,-0.7386525869369507,0.712218165397644,0.3640352189540863,0.6712783575057983,-0.6971950531005859,0.9818693399429321,0.35048770904541016,0.6441173553466797,-0.7452319264411926,0.7156970500946045,0.37225741147994995,0.6721215844154358,-0.6498727202415466,0.9605308175086975,0.3586992621421814,0.6478242874145508,-0.7016569375991821,0.6851412057876587,0.5419350266456604,0.7349182963371277,-0.06650649011135101,0.9999244213104248,0.4884057641029358,0.7162697315216064,0.06649451702833176,0.9993923306465149,0.5202199220657349,0.7537353038787842,-0.4511251449584961,0.9918568134307861,0.421170175075531,0.7457845211029053,-0.07296436280012131,0.8055790066719055,0.5565662384033203,0.8404965996742249,-0.143800288438797,0.9904791712760925,0.4669418931007385,0.7912986278533936,0.3233581781387329,0.8430732488632202,0.5710134506225586,0.8613061904907227,-0.11554447561502457,0.949096143245697,0.47508230805397034,0.7961711883544922,0.3641577959060669,0.8350153565406799,0.5429846048355103,0.906419575214386,-0.21675381064414978,0.9881981015205383,0.44436532258987427,0.8109538555145264,0.3854997158050537,0.8748836517333984
20,0.4177829623222351,0.5587688088417053,-0.5378808379173279,0.9997258186340332,0.42910370230674744,0.5438298583030701,-0.5514284372329712,0.9994757175445557,0.43336981534957886,0.5459693670272827,-0.5513361096382141,0.9995377659797668,0.43779993057250977,0.5480737686157227,-0.5514658689498901,0.999384880065918,0.4215731620788574,0.5374883413314819,-0.5222028493881226,0.998965859413147,0.42023372650146484,0.5353394150733948,-0.5223556756973267,0.9989696741104126,0.41842174530029297,0.533330500125885,-0.5223947763442993,0.9984832406044006,0.4575273394584656,0.5571057796478271,-0.5215686559677124,0.9994560480117798,0.4314616620540619,0.5388540029525757,-0.39433133602142334,0.9959167838096619,0.42990970611572266,0.5799009203910828,-0.5203531384468079,0.9998772144317627,0.41962185502052307,0.5750919580459595,-0.4835469126701355,0.999558687210083,0.5119756460189819,0.6261146664619446,-0.49312716722488403,0.999958872795105,0.42073267698287964,0.5967960953712463,-0.2765519320964813,0.9994259476661682,0.4642220437526703,0.7438881397247314,-0.5756748914718628,0.9955824613571167,0.4015294015407562,0.676233172416687,-0.37827399373054504,0.6241852045059204,0.3806976079940796,0.7015148997306824,-0.6313731670379639,0.9909691214561462,0.36359864473342896,0.6607729196548462,-0.6761795878410339,0.7357015609741211,0.3605915307998657,0.6934763789176941,-0.6847438812255859,0.9829311370849609,0.3476681411266327,0.6601973176002502,-0.7258036732673645,0.7327659726142883,0.3626651167869568,0.6767956614494324,-0.6770995855331421,0.983259379863739,0.3504433035850525,0.6500177979469299,-0.7335385680198669,0.7353920340538025,0.3703518509864807,0.6769548058509827,-0.6293412446975708,0.9632763862609863,0.3584831655025482,0.6500186324119568,-0.6878589391708374,0.7052905559539795,0.5430906414985657,0.736160933971405,-0.05799710005521774,0.9999284148216248,0.4886021614074707,0.7158210873603821,0.058015815913677216,0.9994379281997681,0.5259557962417603,0.74652498960495,-0.45966005325317383,0.9916307330131531,0.41906458139419556,0.726122260093689,-0.14100433886051178,0.7920528054237366,0.5558439493179321,0.8427442312240601,-0.1687415987253189,0.9894230961799622,0.46274954080581665,0.7932302951812744,0.1914731115102768,0.8265426754951477,0.5686368942260742,0.8607786893844604,-0.14227542281150818,0.9461190104484558,0.47375693917274475,0.8015647530555725,0.22347266972064972,0.8221005797386169,0.5412722826004028,0.9079515337944031,-0.23988132178783417,0.9868987798690796,0.44194117188453674,0.8165006041526794,0.17865197360515594,0.8642791509628296
21,0.4191625118255615,0.5519713759422302,-0.5314072370529175,0.9997406601905823,0.4302824139595032,0.5365437269210815,-0.5425594449043274,0.9995120167732239,0.434553325176239,0.5388187170028687,-0.5424813628196716,0.9995710253715515,0.4389071464538574,0.5413611531257629,-0.5426060557365417,0.999424934387207,0.4225846230983734,0.5316358804702759,-0.5130248069763184,0.9990401864051819,0.42121878266334534,0.5301557779312134,-0.5131668448448181,0.9990528225898743,0.419501394033432,0.5288037061691284,-0.5131970643997192,0.998603343963623,0.4588220715522766,0.5525155663490295,-0.5091573596000671,0.9994943737983704,0.4320317804813385,0.5360589623451233,-0.3801511228084564,0.9962769746780396,0.4308444559574127,0.5768321752548218,-0.5136377811431885,0.9998846054077148,0.42088979482650757,0.5687689185142517,-0.4764888882637024,0.9995937347412109,0.5121551156044006,0.6256579160690308,-0.4815910756587982,0.9999498128890991,0.4211624264717102,0.5979112386703491,-0.2501536011695862,0.9994573593139648,0.4647936224937439,0.7415362596511841,-0.5691067576408386,0.9954171776771545,0.4040805399417877,0.6773836612701416,-0.3645811676979065,0.6209850311279297,0.3790377378463745,0.7011685967445374,-0.6189926266670227,0.9915893077850342,0.360822856426239,0.6613122820854187,-0.6548715829849243,0.7469910383224487,0.36006098985671997,0.6933860182762146,-0.671545147895813,0.9841936230659485,0.34567978978157043,0.6615896224975586,-0.7040812373161316,0.7476497292518616,0.36274656653404236,0.6762336492538452,-0.6622193455696106,0.9844499230384827,0.3495601713657379,0.6500400900840759,-0.7138731479644775,0.7493467330932617,0.3696390986442566,0.6765844225883484,-0.6164994835853577,0.9656674861907959,0.3572400212287903,0.6504398584365845,-0.6673945188522339,0.7192200422286987,0.5470571517944336,0.7335296273231506,-0.05895141512155533,0.999932050704956,0.4903838634490967,0.7152722477912903,0.05897868797183037,0.9994710683822632,0.5256112813949585,0.7484114170074463,-0.45700129866600037,0.9909079670906067,0.41068339347839355,0.7137514352798462,-0.13085469603538513,0.7746502757072449,0.5558151006698608,0.8458527326583862,-0.17223547399044037,0.988527774810791,0.46070724725723267,0.7942693829536438,0.16501407325267792,0.8180952668190002,0.5674680471420288,0.8654489517211914,-0.14657975733280182,0.9436216950416565,0.4743576943874359,0.8041821122169495,0.19239294528961182,0.8139243721961975,0.5391596555709839,0.9089236855506897,-0.24839985370635986,0.9859426617622375,0.4409273564815521,0.8167392015457153,0.1352464258670807,0.8607717752456665
22,0.419614315032959,0.5434266328811646,-0.5411542654037476,0.9997206330299377,0.43095365166664124,0.5278709530830383,-0.5551121234893799,0.9995219707489014,0.43526405096054077,0.5285807251930237,-0.5550481081008911,0.9995772838592529,0.43979397416114807,0.5290539264678955,-0.5552006363868713,0.999437153339386,0.42318591475486755,0.5245726108551025,-0.5236055254936218,0.9990705251693726,0.4218011498451233,0.5230785012245178,-0.5237870216369629,0.9990903735160828,0.42015963792800903,0.5216576457023621,-0.5238690972328186,0.9986730217933655,0.4594325125217438,0.5357669591903687,-0.525132954120636,0.9995173811912537,0.4315416216850281,0.5241166949272156,-0.3849075436592102,0.9965364933013916,0.4317069947719574,0.5593870878219604,-0.523352861404419,0.9998881220817566,0.42175158858299255,0.5556195974349976,-0.48291897773742676,0.9996150732040405,0.5129542946815491,0.6010729074478149,-0.4939638078212738,0.9999386668205261,0.4292852282524109,0.5672929286956787,-0.2327909916639328,0.9994778633117676,0.46790391206741333,0.7200437188148499,-0.5699750185012817,0.9948341250419617,0.4085303843021393,0.6512106657028198,-0.29976409673690796,0.6071736216545105,0.38373002409935,0.6978299617767334,-0.6221175193786621,0.9913990497589111,0.3614133298397064,0.6586568355560303,-0.5515590906143188,0.7426748871803284,0.36472147703170776,0.6957676410675049,-0.6770716905593872,0.984370231628418,0.34617578983306885,0.6631754040718079,-0.5932189226150513,0.7510275840759277,0.36332255601882935,0.6806429624557495,-0.6762189269065857,0.9845705628395081,0.34882819652557373,0.654141366481781,-0.613667368888855,0.7525849938392639,0.3697049617767334,0.6789795160293579,-0.6226394176483154,0.9654880166053772,0.35588499903678894,0.6536208987236023,-0.5672025084495544,0.7222732305526733,0.5528467893600464,0.7098777294158936,-0.06200345233082771,0.9999319911003113,0.4950255751609802,0.6936902403831482,0.062046926468610764,0.9994831681251526,0.5345674157142639,0.7394620776176453,-0.4780995845794678,0.9895244240760803,0.41532593965530396,0.706760585308075,-0.12797468900680542,0.7546835541725159,0.5559269189834595,0.8415309190750122,-0.206999272108078,0.9852576851844788,0.46386247873306274,0.7912938594818115,0.17332684993743896,0.7924894094467163,0.5667924880981445,0.8518816828727722,-0.18162718415260315,0.9362711310386658,0.4790499210357666,0.8026567101478577,0.20131714642047882,0.7922880053520203,0.5445305705070496,0.9053158164024353,-0.24905076622962952,0.9825006127357483,0.4396129250526428,0.817439615726471,0.13314738869667053,0.8428125977516174
23,0.4238101840019226,0.5210964679718018,-0.6147518754005432,0.9997054934501648,0.43359050154685974,0.5045536756515503,-0.6230215430259705,0.9995142221450806,0.43800926208496094,0.5050645470619202,-0.6229778528213501,0.9995689392089844,0.44296351075172424,0.505988597869873,-0.6231305003166199,0.9994229674339294,0.4251561760902405,0.5025849938392639,-0.5960652232170105,0.9990735650062561,0.42346277832984924,0.5018442273139954,-0.5962583422660828,0.9991066455841064,0.421818345785141,0.5011537671089172,-0.5963414907455444,0.9987181425094604,0.46164053678512573,0.5135599374771118,-0.5716875791549683,0.9995089173316956,0.4315933287143707,0.5052188038825989,-0.45290422439575195,0.9967458844184875,0.4360279440879822,0.5380035638809204,-0.58987957239151,0.9998796582221985,0.4241240918636322,0.5351555943489075,-0.5558536648750305,0.9996196627616882,0.5130389928817749,0.5860570669174194,-0.5260301232337952,0.999912679195404,0.4291740953922272,0.5575761198997498,-0.2932831048965454,0.9994863271713257,0.47063717246055603,0.7042801380157471,-0.5880955457687378,0.9944701194763184,0.40815281867980957,0.6375983357429504,-0.36371105909347534,0.6090036630630493,0.38311225175857544,0.6957024931907654,-0.642615795135498,0.9909210801124573,0.35984596610069275,0.6648862957954407,-0.6223300695419312,0.7467180490493774,0.36298081278800964,0.6940154433250427,-0.6801078915596008,0.9842433333396912,0.34495338797569275,0.6695146560668945,-0.6759698987007141,0.7607330083847046,0.36004307866096497,0.6785321831703186,-0.6918152570724487,0.9844313859939575,0.3467404842376709,0.6606475710868835,-0.7026286125183105,0.7626117467880249,0.3670899271965027,0.6781229376792908,-0.6368958353996277,0.9649970531463623,0.35329413414001465,0.6600947976112366,-0.6417694091796875,0.7323771715164185,0.549587607383728,0.6994906067848206,-0.06327704340219498,0.9999330043792725,0.4936729073524475,0.684122622013092,0.06330497562885284,0.9994924664497375,0.5222763419151306,0.7355107069015503,-0.40626946091651917,0.9864771962165833,0.41567617654800415,0.7036910653114319,-0.07850628346204758,0.7232262492179871,0.558608889579773,0.8370915055274963,-0.13983847200870514,0.9837287664413452,0.47075217962265015,0.7896526455879211,0.22128638625144958,0.7710488438606262,0.573755145072937,0.8478036522865295,-0.11731880903244019,0.9348836541175842,0.4868031144142151,0.8017980456352234,0.256123811006546,0.7731750011444092,0.548331081867218,0.9007394313812256,-0.23081400990486145,0.9813037514686584,0.44097939133644104,0.8190117478370667,0.1827351450920105,0.8286014199256897
24,0.4265686869621277,0.5196003317832947,-0.6419007182121277,0.9996789693832397,0.4354037642478943,0.5035059452056885,-0.6512260437011719,0.9994912147521973,0.44016775488853455,0.5037195682525635,-0.6511649489402771,0.9995471239089966,0.44551992416381836,0.5044621229171753,-0.6513329744338989,0.9993959665298462,0.42616501450538635,0.5020602941513062,-0.6238325834274292,0.999026894569397,0.42426419258117676,0.5014246106147766,-0.6240296959877014,0.999070405960083,0.4226353168487549,0.5006331205368042,-0.62410968542099,0.9987055659294128,0.46389204263687134,0.5110133290290833,-0.59984290599823,0.9994999766349792,0.4318631589412689,0.5035740733146667,-0.4789174497127533,0.9968407154083252,0.43979763984680176,0.5357217192649841,-0.6162317991256714,0.9998657703399658,0.426809161901474,0.5328519940376282,-0.5816470384597778,0.9996027946472168,0.5145049691200256,0.5827173590660095,-0.5583950877189636,0.9998668432235718,0.429025799036026,0.5545615553855896,-0.312051385641098,0.999459445476532,0.4716492295265198,0.7025811076164246,-0.6172201037406921,0.9942213296890259,0.4079335331916809,0.6315233707427979,-0.3771326243877411,0.602647066116333,0.3839147686958313,0.6946730017662048,-0.656177818775177,0.9899582266807556,0.35723787546157837,0.6598695516586304,-0.63739413022995,0.7405008673667908,0.36274808645248413,0.6923593878746033,-0.7077783346176147,0.9832113981246948,0.3433302640914917,0.6649660468101501,-0.6899763345718384,0.7617213726043701,0.3599265515804291,0.6762884855270386,-0.7151251435279846,0.9834460020065308,0.3452841341495514,0.6573808193206787,-0.7149004936218262,0.7642822265625,0.36699753999710083,0.6757076978683472,-0.6561171412467957,0.9628034830093384,0.35164350271224976,0.6572460532188416,-0.6562067270278931,0.7338226437568665,0.5489519238471985,0.6958261728286743,-0.06369396299123764,0.9999195337295532,0.49330687522888184,0.6808281540870667,0.06373635679483414,0.9994345307350159,0.5211912393569946,0.7402675747871399,-0.40632596611976624,0.9815782308578491,0.42782893776893616,0.7114177942276001,-0.07770929485559464,0.6910739541053772,0.5594097375869751,0.836764395236969,-0.11547477543354034,0.9785271286964417,0.4792903959751129,0.7887955904006958,0.24337995052337646,0.739657461643219,0.5741627812385559,0.8484418988227844,-0.09073975682258606,0.9261259436607361,0.4940435290336609,0.8013238906860352,0.2730903923511505,0.7467209696769714,0.5487597584724426,0.9009277820587158,-0.20744219422340393,0.976449728012085,0.4544908404350281,0.8205041885375977,0.2035369873046875,0.8031185865402222
25,0.4291840195655823,0.47159454226493835,-0.572409451007843,0.9996686577796936,0.4382418990135193,0.4597667455673218,-0.5914345979690552,0.9994747638702393,0.44186943769454956,0.4606610834598541,-0.5913481712341309,0.9995403289794922,0.44591373205184937,0.4616309106349945,-0.5913609266281128,0.9993901252746582,0.4314398169517517,0.4569540023803711,-0.5529422760009766,0.9990109205245972,0.4304947257041931,0.4563036262989044,-0.5531260967254639,0.9990726709365845,0.4297312796115875,0.45550501346588135,-0.5532249808311462,0.9987472295761108,0.463808536529541,0.4654698371887207,-0.5829861760139465,0.9994637370109558,0.43994301557540894,0.4606717824935913,-0.4258825182914734,0.9970132112503052,0.44057098031044006,0.48735684156417847,-0.570499837398529,0.9998509883880615,0.4304514527320862,0.48818540573120117,-0.519587516784668,0.9995726346969604,0.5151697397232056,0.5559933185577393,-0.5599948167800903,0.9998722672462463,0.43935903906822205,0.5213673114776611,-0.265351802110672,0.9994845986366272,0.4797593951225281,0.6724774837493896,-0.616028904914856,0.9942566156387329,0.40769797563552856,0.606635332107544,-0.1625131219625473,0.6370446085929871,0.3916354179382324,0.706500768661499,-0.6549497842788696,0.9903592467308044,0.35838574171066284,0.6732171773910522,-0.1776069700717926,0.7642108798027039,0.36894458532333374,0.7168059945106506,-0.7122711539268494,0.9836558699607849,0.3440490663051605,0.6885192394256592,-0.18704555928707123,0.7814079523086548,0.36335092782974243,0.7047020792961121,-0.71519935131073,0.9838850498199463,0.3461384177207947,0.690942108631134,-0.22548241913318634,0.7841283679008484,0.37024393677711487,0.7006514072418213,-0.6574943661689758,0.9636459946632385,0.35285288095474243,0.6871979832649231,-0.19386401772499084,0.755780041217804,0.5511564612388611,0.6745117902755737,-0.07975606620311737,0.9999256730079651,0.5028012990951538,0.6590425372123718,0.07960551232099533,0.999467134475708,0.5216182470321655,0.7117353677749634,-0.4341166913509369,0.9822731018066406,0.4350492060184479,0.6946722269058228,0.11091868579387665,0.6845241785049438,0.5661504864692688,0.8351792097091675,-0.2824680507183075,0.9796687960624695,0.4853943884372711,0.7691821455955505,0.4582766592502594,0.7371950745582581,0.5817757248878479,0.8461424112319946,-0.26761594414711,0.9314889311790466,0.49931496381759644,0.777759313583374,0.4901251792907715,0.7460749745368958,0.5560457706451416,0.9010679125785828,-0.38799625635147095,0.9780642986297607,0.45060211420059204,0.8123880624771118,0.448213666677475,0.804502546787262
26,0.4296574592590332,0.4548551142215729,-0.5522493124008179,0.9996665120124817,0.4390658438205719,0.44243744015693665,-0.5683764219284058,0.9994694590568542,0.4428812563419342,0.4430612325668335,-0.5683153867721558,0.9995397329330444,0.4466933310031891,0.44392791390419006,-0.5683622360229492,0.9993928670883179,0.43255066871643066,0.44000205397605896,-0.5318063497543335,0.9990350008010864,0.4316501021385193,0.4396638870239258,-0.5319604277610779,0.9991009831428528,0.43088093400001526,0.43935906887054443,-0.532056450843811,0.9988097548484802,0.4638902544975281,0.44947198033332825,-0.5643342733383179,0.9994380474090576,0.44079694151878357,0.44657081365585327,-0.39921554923057556,0.9971987009048462,0.44049501419067383,0.47157150506973267,-0.5454774498939514,0.9998350739479065,0.4306713938713074,0.47189825773239136,-0.49779075384140015,0.9995533227920532,0.5174599885940552,0.5416069030761719,-0.5536229610443115,0.9998598098754883,0.43853044509887695,0.5143460631370544,-0.24205701053142548,0.99949049949646,0.4867597222328186,0.666350781917572,-0.5955005884170532,0.9941244721412659,0.4059225916862488,0.6051605939865112,-0.1558321863412857,0.6671046018600464,0.394565224647522,0.7113366723060608,-0.6330820322036743,0.9903395175933838,0.35672271251678467,0.6845940351486206,-0.1846199333667755,0.7847621440887451,0.3692454993724823,0.7207173109054565,-0.6907929182052612,0.9834684729576111,0.34384316205978394,0.699589192867279,-0.19838936626911163,0.7977756857872009,0.36536476016044617,0.7098535299301147,-0.6968940496444702,0.9837310314178467,0.34591081738471985,0.6995050311088562,-0.23344996571540833,0.8008578419685364,0.3718949258327484,0.705627977848053,-0.6366759538650513,0.963369607925415,0.3524652421474457,0.6961475610733032,-0.20011985301971436,0.7739652991294861,0.5510340332984924,0.6701095700263977,-0.07990312576293945,0.9999306797981262,0.5005850791931152,0.6532909274101257,0.07971400022506714,0.9994909167289734,0.5289532542228699,0.7114456295967102,-0.4195891320705414,0.9824631214141846,0.4338444769382477,0.6950288414955139,0.13613876700401306,0.6851771473884583,0.5676254034042358,0.8352423906326294,-0.25621291995048523,0.9802579283714294,0.4856331944465637,0.771246612071991,0.49199753999710083,0.7346943020820618,0.5868486762046814,0.8547956943511963,-0.24101237952709198,0.9354130029678345,0.500930666923523,0.7796832323074341,0.5249661207199097,0.7450463771820068,0.5556612610816956,0.9011700749397278,-0.36517006158828735,0.9792871475219727,0.44906482100486755,0.8124710917472839,0.4848118722438812,0.8041247725486755
27,0.4308105409145355,0.43292516469955444,-0.5780307054519653,0.9996583461761475,0.4395142197608948,0.41748034954071045,-0.5924459099769592,0.9994537234306335,0.443338543176651,0.4182620644569397,-0.5924150347709656,0.9995189905166626,0.4473422169685364,0.4189909100532532,-0.5924861431121826,0.9993786215782166,0.4332316815853119,0.4149712324142456,-0.5572201013565063,0.9990453124046326,0.4323919415473938,0.41449087858200073,-0.5573412775993347,0.9991140365600586,0.43174758553504944,0.41393476724624634,-0.557472825050354,0.9988590478897095,0.46463218331336975,0.42337897419929504,-0.577883243560791,0.9993920922279358,0.4427758753299713,0.41921111941337585,-0.4204709529876709,0.9973429441452026,0.44131121039390564,0.4476049244403839,-0.5679464936256409,0.9998219013214111,0.4325835704803467,0.4485797584056854,-0.5218055248260498,0.9995427131652832,0.5247030854225159,0.5182211995124817,-0.5580922365188599,0.9998440742492676,0.43895238637924194,0.4933820962905884,-0.2612036466598511,0.9995020627975464,0.49056047201156616,0.6524748206138611,-0.6006292104721069,0.9939666986465454,0.4056665897369385,0.5949487090110779,-0.21735680103302002,0.6946678757667542,0.41085609793663025,0.7197670340538025,-0.6416226625442505,0.9897733330726624,0.35727113485336304,0.684448778629303,-0.2989679276943207,0.8020398020744324,0.384936660528183,0.7327514886856079,-0.6938083171844482,0.9828030467033386,0.34417667984962463,0.706554651260376,-0.3242873549461365,0.8107398748397827,0.3757132291793823,0.7219081521034241,-0.7123852372169495,0.9831109642982483,0.3463057577610016,0.7051736116409302,-0.36543378233909607,0.8142648339271545,0.3795715570449829,0.715338945388794,-0.6376940608024597,0.9624146819114685,0.35308563709259033,0.7003467679023743,-0.31845104694366455,0.7885398268699646,0.5552810430526733,0.6461578011512756,-0.08114590495824814,0.9999334216117859,0.500330924987793,0.6273177862167358,0.08092783391475677,0.9994789958000183,0.5270899534225464,0.7075508236885071,-0.40659791231155396,0.9821339249610901,0.41378116607666016,0.669725775718689,0.06830824911594391,0.6887810826301575,0.5690599083900452,0.835467517375946,-0.24602675437927246,0.9809534549713135,0.46440115571022034,0.7583614587783813,0.38651782274246216,0.726726770401001,0.5921131372451782,0.859305202960968,-0.23211559653282166,0.9380759596824646,0.4800095558166504,0.7701112627983093,0.4192143380641937,0.7399027347564697,0.5571123361587524,0.9028030633926392,-0.3626836836338043,0.9799349904060364,0.4384613037109375,0.8064546585083008,0.36257728934288025,0.7954139113426208
28,0.43546706438064575,0.35827872157096863,-0.815933883190155,0.9996893405914307,0.44466572999954224,0.33928439021110535,-0.8146659135818481,0.9994995594024658,0.4502478539943695,0.34150564670562744,-0.8146448135375977,0.9995573163032532,0.4571329653263092,0.3489970564842224,-0.8147290945053101,0.9994287490844727,0.4359127879142761,0.33634060621261597,-0.7835392951965332,0.9991276860237122,0.43478497862815857,0.33618223667144775,-0.783673107624054,0.999191403388977,0.4338033199310303,0.3360345959663391,-0.7837396264076233,0.9989649653434753,0.47496476769447327,0.35791462659835815,-0.7331088781356812,0.9994317889213562,0.44385528564453125,0.3463684022426605,-0.597216784954071,0.9975925087928772,0.4471874237060547,0.38311174511909485,-0.7838647961616516,0.9998373985290527,0.43741750717163086,0.37987020611763,-0.7442785501480103,0.9995837807655334,0.5318405628204346,0.4564076364040375,-0.7082343697547913,0.9998581409454346,0.4387437701225281,0.43857768177986145,-0.3626477122306824,0.9995388984680176,0.5333639979362488,0.6089295744895935,-0.7847529649734497,0.9944995641708374,0.41169261932373047,0.5601831674575806,-0.2493257075548172,0.7224704027175903,0.49475520849227905,0.7167946696281433,-0.8514984250068665,0.9907119274139404,0.37602633237838745,0.6758406758308411,-0.2891063094139099,0.82111656665802,0.4877912104129791,0.7492627501487732,-0.9195763468742371,0.9842760562896729,0.3648934066295624,0.6887871623039246,-0.3039688766002655,0.8281353712081909,0.47143298387527466,0.7419382929801941,-0.9388315081596375,0.9845590591430664,0.3681771755218506,0.6873441934585571,-0.3447280526161194,0.8313165307044983,0.4734717905521393,0.7302664518356323,-0.8606331944465637,0.9655859470367432,0.3744029104709625,0.6822502017021179,-0.30653199553489685,0.8077688217163086,0.5618811249732971,0.5975769758224487,-0.10125390440225601,0.9999338388442993,0.5027504563331604,0.5955442786216736,0.10091378539800644,0.999504804611206,0.5337603688240051,0.7017843127250671,-0.4065336585044861,0.9823233485221863,0.41695937514305115,0.664371132850647,0.02380729839205742,0.7141770720481873,0.574732780456543,0.8402150869369507,-0.1157972663640976,0.9819319248199463,0.48373928666114807,0.7597255110740662,0.3792906403541565,0.746067225933075,0.5903455018997192,0.8596420288085938,-0.09491376578807831,0.9364664554595947,0.5006746649742126,0.7774093151092529,0.4111233353614807,0.7570357918739319,0.5596164464950562,0.9073590040206909,-0.257102370262146,0.9807149171829224,0.4452585279941559,0.8218088150024414,0.3432311713695526,0.8097675442695618
29,0.4393966794013977,0.3511243164539337,-0.7065514326095581,0.9997177720069885,0.44840630888938904,0.33248481154441833,-0.7060799598693848,0.9995425939559937,0.4541792869567871,0.333680123090744,-0.706055223941803,0.9995935559272766,0.46068817377090454,0.335380882024765,-0.7061359286308289,0.999477744102478,0.4391059875488281,0.3306761085987091,-0.6768578886985779,0.999204158782959,0.43767452239990234,0.33042412996292114,-0.6769882440567017,0.9992603659629822,0.43633508682250977,0.33023563027381897,-0.6770688891410828,0.9990588426589966,0.4775516986846924,0.34422022104263306,-0.6406266093254089,0.9994749426841736,0.4441896975040436,0.33937862515449524,-0.5095009207725525,0.9978030920028687,0.45122629404067993,0.37084639072418213,-0.6788253784179688,0.999852180480957,0.4393661618232727,0.37205904722213745,-0.6416277885437012,0.9996208548545837,0.5358791947364807,0.44097450375556946,-0.6221280097961426,0.9998708963394165,0.4384302496910095,0.43181902170181274,-0.3099400997161865,0.999565601348877,0.5349999666213989,0.5927123427391052,-0.6879640221595764,0.9949069619178772,0.41457343101501465,0.5501749515533447,-0.21670114994049072,0.7478622794151306,0.4997963309288025,0.7121715545654297,-0.7482516765594482,0.9913722276687622,0.3812168836593628,0.6735418438911438,-0.2639623284339905,0.8381409645080566,0.4954129755496979,0.7483946681022644,-0.808098316192627,0.9852585792541504,0.36856842041015625,0.6833714246749878,-0.2808850407600403,0.8436354398727417,0.47832566499710083,0.7400762438774109,-0.825304388999939,0.98553866147995,0.3719854950904846,0.6839240789413452,-0.31846776604652405,0.8465459942817688,0.47976216673851013,0.725817084312439,-0.7551912069320679,0.9678645133972168,0.37897175550460815,0.6776978969573975,-0.28054922819137573,0.82477867603302,0.5599488019943237,0.5868781805038452,-0.0952993631362915,0.9999393224716187,0.5020126104354858,0.5867465138435364,0.09500947594642639,0.9995360970497131,0.533539354801178,0.7005565762519836,-0.5083490014076233,0.98319411277771,0.42513805627822876,0.6628177165985107,0.09000036865472794,0.7331275939941406,0.5745304226875305,0.8406475186347961,-0.3164511024951935,0.9833069443702698,0.4839831292629242,0.7633980512619019,0.4568649232387543,0.7582100629806519,0.5888606905937195,0.8577455282211304,-0.3045560419559479,0.9387118220329285,0.4980795383453369,0.7845037579536438,0.4874987006187439,0.7661519646644592,0.5634158849716187,0.9087552428245544,-0.47555023431777954,0.9820787310600281,0.44489508867263794,0.8209946751594543,0.4167238175868988,0.817833423614502
30,0.4407839775085449,0.28513413667678833,-0.5738463401794434,0.9997393488883972,0.4493473470211029,0.2665877938270569,-0.5717419981956482,0.9995743036270142,0.4550374150276184,0.2678299844264984,-0.5717757344245911,0.9996139407157898,0.4615369737148285,0.2692016363143921,-0.5719237923622131,0.9995177388191223,0.43988221883773804,0.26447412371635437,-0.544102132320404,0.9992660880088806,0.4385015368461609,0.26452702283859253,-0.5441428422927856,0.9993058443069458,0.437059223651886,0.2645139992237091,-0.5442605018615723,0.9991339445114136,0.4793955385684967,0.2824709713459015,-0.5070506930351257,0.9995155930519104,0.44580429792404175,0.2777433395385742,-0.38158828020095825,0.9979695081710815,0.454804003238678,0.3083653151988983,-0.5464158654212952,0.9998648762702942,0.4427998960018158,0.3068580627441406,-0.5103371143341064,0.9996538162231445,0.5379487872123718,0.38319459557533264,-0.5118750333786011,0.9998818039894104,0.43772444128990173,0.38914909958839417,-0.19056114554405212,0.9995895028114319,0.5583352446556091,0.5232413411140442,-0.570544958114624,0.9946757555007935,0.41627413034439087,0.5085418224334717,-0.13666526973247528,0.7553423047065735,0.5576386451721191,0.6649791598320007,-0.6218578815460205,0.9894543290138245,0.4066426157951355,0.6201962828636169,-0.22980813682079315,0.8400055766105652,0.5641027092933655,0.7182413935661316,-0.6752680540084839,0.9829652309417725,0.4022175371646881,0.6455246806144714,-0.2514059841632843,0.840888261795044,0.5435466170310974,0.7395020723342896,-0.702128529548645,0.9833851456642151,0.4092978537082672,0.6483256220817566,-0.29357945919036865,0.844110369682312,0.5379232168197632,0.7053446173667908,-0.6321244835853577,0.9655996561050415,0.41339951753616333,0.6388072967529297,-0.2508716881275177,0.8236045837402344,0.5616620779037476,0.5643957257270813,-0.09396153688430786,0.9999431371688843,0.5013726949691772,0.5677022337913513,0.0937911793589592,0.9995667934417725,0.55755215883255,0.699183464050293,-0.5182275772094727,0.983522891998291,0.428539514541626,0.655457615852356,-0.09747680276632309,0.7559176087379456,0.5728182196617126,0.8424769639968872,-0.29753899574279785,0.9842469692230225,0.4831398129463196,0.7717164754867554,0.20823673903942108,0.7758252024650574,0.5866776704788208,0.8607405424118042,-0.2845585346221924,0.9385955929756165,0.5022404789924622,0.7986421585083008,0.23168978095054626,0.7810817360877991,0.5626362562179565,0.9123875498771667,-0.46135562658309937,0.9827111959457397,0.432826429605484,0.8253490328788757,0.13879814743995667,0.8302844166755676
31,0.4417172372341156,0.2885052561759949,-0.5673556327819824,0.9997562170028687,0.45075082778930664,0.27003923058509827,-0.5675326585769653,0.9995957612991333,0.45618829131126404,0.2704325020313263,-0.5675622224807739,0.9996272921562195,0.4620278775691986,0.2709868252277374,-0.5677177309989929,0.9995503425598145,0.44058507680892944,0.26883524656295776,-0.5398067831993103,0.9993097186088562,0.43890857696533203,0.26844891905784607,-0.5398686528205872,0.9993342757225037,0.43733349442481995,0.2680896818637848,-0.5399741530418396,0.999191164970398,0.47949203848838806,0.2788289189338684,-0.5052763223648071,0.9995479583740234,0.4468444883823395,0.2766311466693878,-0.37975138425827026,0.9980964064598083,0.45687994360923767,0.30722543597221375,-0.540351152420044,0.9998745918273926,0.443390429019928,0.30646461248397827,-0.5040174722671509,0.9996798634529114,0.5374131798744202,0.37886422872543335,-0.49926215410232544,0.9998924732208252,0.4375554025173187,0.3806232810020447,-0.18967567384243011,0.9996143579483032,0.560629665851593,0.51483154296875,-0.5541400909423828,0.9947117567062378,0.4181203842163086,0.502479612827301,-0.1260647475719452,0.7644885778427124,0.5632311105728149,0.6551617980003357,-0.6163610219955444,0.9890860319137573,0.4110340476036072,0.6069929003715515,-0.2255072146654129,0.8460240364074707,0.5691299438476562,0.7034825086593628,-0.6712817549705505,0.9824778437614441,0.4072250723838806,0.6343032717704773,-0.247303768992424,0.8429538607597351,0.5486990213394165,0.7364975214004517,-0.6959847807884216,0.9829239249229431,0.41517719626426697,0.63681560754776,-0.29183343052864075,0.8465034365653992,0.5451063513755798,0.6941927075386047,-0.6259953379631042,0.9654768705368042,0.41959095001220703,0.6299761533737183,-0.2469407320022583,0.8272687196731567,0.5613069534301758,0.5675954818725586,-0.09170275926589966,0.9999467134475708,0.5010274648666382,0.5668447613716125,0.09162405133247375,0.9995995759963989,0.5584418773651123,0.6998120546340942,-0.4857544004917145,0.9846071004867554,0.42849797010421753,0.6538650393486023,-0.11039932072162628,0.7780113220214844,0.5719033479690552,0.8422365188598633,-0.22172591090202332,0.985449492931366,0.48224955797195435,0.7759518027305603,0.2026630938053131,0.7949346303939819,0.5830403566360474,0.861108124256134,-0.20854680240154266,0.9411529898643494,0.5020577311515808,0.8006086349487305,0.22750015556812286,0.7983514666557312,0.5606464147567749,0.9123960733413696,-0.42686137557029724,0.9836782217025757,0.43233737349510193,0.8250590562820435,0.14151978492736816,0.8437599539756775
32,0.44038742780685425,0.25667986273765564,-0.5504299402236938,0.9997773170471191,0.44953852891921997,0.23752838373184204,-0.5486739873886108,0.9996289610862732,0.45479685068130493,0.2373812198638916,-0.5487189888954163,0.9996570944786072,0.46035823225975037,0.23734256625175476,-0.5488916039466858,0.9995903968811035,0.43967247009277344,0.23761950433254242,-0.5200838446617126,0.999367356300354,0.43805235624313354,0.23736771941184998,-0.5201281905174255,0.9993865489959717,0.4365226626396179,0.23700395226478577,-0.520187497138977,0.9992598295211792,0.47773829102516174,0.24528291821479797,-0.48194417357444763,0.9995875954627991,0.4464282989501953,0.24564476311206818,-0.3513394892215729,0.9982511401176453,0.4547925889492035,0.27616310119628906,-0.5228062868118286,0.999885618686676,0.44181767106056213,0.2756809890270233,-0.48510369658470154,0.9997074007987976,0.5364205837249756,0.3428613245487213,-0.47462067008018494,0.9999027848243713,0.43526777625083923,0.35044795274734497,-0.16153796017169952,0.9996421933174133,0.5719456076622009,0.4768975079059601,-0.5212002396583557,0.9949364066123962,0.4204171299934387,0.4684683382511139,-0.09245654940605164,0.7685409188270569,0.5795050859451294,0.6188029646873474,-0.5782512426376343,0.988232433795929,0.41073259711265564,0.5719407796859741,-0.20902664959430695,0.844846248626709,0.5870897769927979,0.6579534411430359,-0.6320898532867432,0.9809121489524841,0.4075790345668793,0.60630202293396,-0.2313682585954666,0.8365620374679565,0.5726543664932251,0.6668552756309509,-0.6545177698135376,0.9814175963401794,0.41314229369163513,0.6097888350486755,-0.2817322611808777,0.8406766653060913,0.5683034658432007,0.6493812203407288,-0.5870788097381592,0.9636136293411255,0.4163413941860199,0.6011031270027161,-0.2335505485534668,0.8229562640190125,0.5506644248962402,0.5535691380500793,-0.1003626137971878,0.9999510645866394,0.4902346730232239,0.5510549545288086,0.10044266283512115,0.9996320605278015,0.550878643989563,0.6996336579322815,-0.3923329710960388,0.9859588146209717,0.42847132682800293,0.6464131474494934,8.933946082834154e-05,0.7983317375183105,0.5669448375701904,0.8443605303764343,-0.16638082265853882,0.9868254661560059,0.48153334856033325,0.7788703441619873,0.35259997844696045,0.8136425614356995,0.5778496265411377,0.862653911113739,-0.15576472878456116,0.9455887675285339,0.5002754330635071,0.8024987578392029,0.3792877793312073,0.8150274157524109,0.5499215722084045,0.912451982498169,-0.3617175817489624,0.9850844740867615,0.42774444818496704,0.8242989182472229,0.2714266777038574,0.8576976656913757
33,0.43460994958877563,0.198349729180336,-0.5223749876022339,0.9997941255569458,0.44466257095336914,0.18190278112888336,-0.5233968496322632,0.9996566772460938,0.45018821954727173,0.18152962625026703,-0.5234891176223755,0.9996829628944397,0.4559168815612793,0.1814548373222351,-0.5236461758613586,0.9996243119239807,0.43477949500083923,0.18288858234882355,-0.49632373452186584,0.9994167685508728,0.4331740438938141,0.18308182060718536,-0.49635428190231323,0.9994312524795532,0.4316471219062805,0.1830638349056244,-0.4963790476322174,0.9993156790733337,0.4739081859588623,0.19211271405220032,-0.4579290747642517,0.9996215105056763,0.44330963492393494,0.19167274236679077,-0.33217042684555054,0.9983866810798645,0.44985923171043396,0.21964910626411438,-0.4944378435611725,0.9998951554298401,0.43626704812049866,0.2185029536485672,-0.45804363489151,0.999729335308075,0.5386112928390503,0.2904656231403351,-0.41758766770362854,0.9999121427536011,0.430898517370224,0.31101807951927185,-0.14568974077701569,0.9996669292449951,0.5906980633735657,0.39590927958488464,-0.4557099938392639,0.9951062202453613,0.4217049181461334,0.42461252212524414,-0.012446766719222069,0.7717583179473877,0.6259037256240845,0.4895968735218048,-0.5656991600990295,0.9847235679626465,0.4070720672607422,0.5028504133224487,-0.0936628133058548,0.843910813331604,0.6409700512886047,0.520666241645813,-0.6167134046554565,0.974145233631134,0.40350013971328735,0.530357837677002,-0.11117596924304962,0.8277007937431335,0.6351732611656189,0.515928328037262,-0.6500263214111328,0.9752208590507507,0.4062686562538147,0.5292384624481201,-0.16165395081043243,0.8332499861717224,0.6267012357711792,0.5074361562728882,-0.5802066326141357,0.9563871622085571,0.41227731108665466,0.5201552510261536,-0.11671467125415802,0.81512850522995,0.5454800724983215,0.5067582726478577,-0.09996642917394638,0.9999547600746155,0.48317280411720276,0.5138112306594849,0.10009241104125977,0.9996516108512878,0.5342721939086914,0.6764039993286133,-0.22431977093219757,0.9870598912239075,0.4428158402442932,0.6461049318313599,0.35410287976264954,0.8124583959579468,0.5563128590583801,0.8448850512504578,-0.09249851852655411,0.988008975982666,0.47785574197769165,0.7841978669166565,0.723749041557312,0.8283150792121887,0.5670404434204102,0.8637579083442688,-0.09136844426393509,0.9450579881668091,0.49218353629112244,0.8130986094474792,0.7521049380302429,0.8250769376754761,0.5386838912963867,0.9120842814445496,-0.2934620976448059,0.9862163066864014,0.4197118282318115,0.8253376483917236,0.6487723588943481,0.8696137070655823
34,0.429516077041626,0.1995643824338913,-0.5343071818351746,0.9998094439506531,0.4391731321811676,0.181400328874588,-0.5423287153244019,0.9996817708015442,0.4445776343345642,0.18088002502918243,-0.5423984527587891,0.9997076392173767,0.45064133405685425,0.18064837157726288,-0.5425489544868469,0.9996556639671326,0.4302176833152771,0.1820458322763443,-0.5107569098472595,0.9994598627090454,0.4287525713443756,0.18196061253547668,-0.5107914209365845,0.9994720220565796,0.4272545874118805,0.1819494217634201,-0.5108197927474976,0.9993656277656555,0.4718022346496582,0.19102731347084045,-0.4974695146083832,0.9996539354324341,0.4408624768257141,0.1902553290128708,-0.35286808013916016,0.9985162615776062,0.4439219534397125,0.21975907683372498,-0.5136507153511047,0.9999040365219116,0.4314790368080139,0.21904096007347107,-0.4715051054954529,0.9997490644454956,0.5395071506500244,0.2908756136894226,-0.46257472038269043,0.999920666217804,0.4295507073402405,0.3065311014652252,-0.16226741671562195,0.9996882677078247,0.5949698090553284,0.404450386762619,-0.4968477785587311,0.9954501986503601,0.4234357476234436,0.4169940948486328,0.021652424708008766,0.7596457600593567,0.626569390296936,0.5012673735618591,-0.5811198353767395,0.9844721555709839,0.4053603708744049,0.506661057472229,0.00521389115601778,0.835494339466095,0.6417757272720337,0.5400767922401428,-0.6305472254753113,0.9728009700775146,0.40054458379745483,0.5333775877952576,-0.00247369846329093,0.8123453855514526,0.6345337629318237,0.5457184910774231,-0.6641530394554138,0.9739866852760315,0.4009573459625244,0.5341783761978149,-0.05676255747675896,0.8198396563529968,0.6261820793151855,0.5300451517105103,-0.5949265956878662,0.9554202556610107,0.406984806060791,0.5257541537284851,-0.017860498279333115,0.8030471205711365,0.5406084656715393,0.516265869140625,-0.10350141674280167,0.9999576210975647,0.4760475754737854,0.5198305249214172,0.10365982353687286,0.9996702075004578,0.5273828506469727,0.6758871078491211,-0.13401834666728973,0.9881734251976013,0.44760555028915405,0.6521214246749878,0.380525141954422,0.8282886743545532,0.5549607872962952,0.844562828540802,0.04140646010637283,0.9891313910484314,0.4772000312805176,0.7892232537269592,0.7888669967651367,0.8432639241218567,0.5691498517990112,0.8633849024772644,0.04673776030540466,0.945946455001831,0.49153462052345276,0.817035973072052,0.8213728070259094,0.836064338684082,0.5373080968856812,0.9118302464485168,-0.15069830417633057,0.9873983860015869,0.4193900525569916,0.8274014592170715,0.7240129709243774,0.8812724351882935
35,0.4295578598976135,0.18791580200195312,-0.52165687084198,0.9998219609260559,0.43928390741348267,0.1694229245185852,-0.5273352861404419,0.9997029900550842,0.44469326734542847,0.16884516179561615,-0.5274428129196167,0.9997280836105347,0.4506981372833252,0.16860127449035645,-0.527614951133728,0.9996830821037292,0.43026742339134216,0.17013196647167206,-0.4964095950126648,0.9994961619377136,0.4287184774875641,0.16991175711154938,-0.49639201164245605,0.9995017647743225,0.42711490392684937,0.16977626085281372,-0.4963744282722473,0.9993981122970581,0.47180819511413574,0.17865833640098572,-0.4671163558959961,0.9996805191040039,0.44023752212524414,0.17666460573673248,-0.3239877223968506,0.9985756874084473,0.44351688027381897,0.20789936184883118,-0.4939444661140442,0.9999096393585205,0.43110451102256775,0.206793412566185,-0.45260486006736755,0.9997575283050537,0.5382505059242249,0.2726267874240875,-0.4346664845943451,0.9999282360076904,0.43277984857559204,0.2861116826534271,-0.10701887309551239,0.999676525592804,0.5973100662231445,0.37024232745170593,-0.4749392569065094,0.9957247972488403,0.43830937147140503,0.39805981516838074,0.06766995787620544,0.7111939787864685,0.641729474067688,0.46946415305137634,-0.572340190410614,0.9844105243682861,0.4176022410392761,0.48854753375053406,0.0028962655924260616,0.7998436689376831,0.6597971320152283,0.4968342185020447,-0.6224783658981323,0.9719491600990295,0.4119434356689453,0.5159567594528198,-0.007479232735931873,0.7750726938247681,0.654982328414917,0.5022585988044739,-0.6543818116188049,0.9733294248580933,0.4097626805305481,0.5158208608627319,-0.06698981672525406,0.7844673991203308,0.6474843621253967,0.49348872900009155,-0.5855019092559814,0.9550292491912842,0.4156082570552826,0.5067588090896606,-0.023656241595745087,0.7670519351959229,0.5356732606887817,0.5020655989646912,-0.1123356819152832,0.999958872795105,0.4739289879798889,0.5067498087882996,0.1125008836388588,0.9996664524078369,0.5280285477638245,0.6718276739120483,-0.11408956348896027,0.9890416860580444,0.4603134095668793,0.6539033651351929,0.3903680443763733,0.8410560488700867,0.5562712550163269,0.844874918460846,0.016070734709501266,0.9901223182678223,0.4771607518196106,0.7895362973213196,0.7542024850845337,0.8564133048057556,0.5701867341995239,0.8663597702980042,0.01735878363251686,0.9480223059654236,0.49152302742004395,0.8206875920295715,0.7825461626052856,0.8454699516296387,0.5348618626594543,0.9121282696723938,-0.1802518218755722,0.9884188175201416,0.4203415811061859,0.8298706412315369,0.6774621605873108,0.8917762637138367
36,0.4296707212924957,0.1873287707567215,-0.4850948452949524,0.9998270273208618,0.43942147493362427,0.16937705874443054,-0.49157795310020447,0.9997079968452454,0.44478410482406616,0.1687828153371811,-0.4916849732398987,0.999735414981842,0.45070868730545044,0.16841165721416473,-0.4918304979801178,0.9996973276138306,0.43039387464523315,0.1702878773212433,-0.4596661925315857,0.9995104074478149,0.42887967824935913,0.17029304802417755,-0.4596468508243561,0.9995065927505493,0.4273032248020172,0.17029789090156555,-0.45964139699935913,0.9993948340415955,0.4718453288078308,0.17734067142009735,-0.43566107749938965,0.9996915459632874,0.4402379095554352,0.17721842229366302,-0.2871254086494446,0.9985507130622864,0.4432176649570465,0.20453165471553802,-0.45889514684677124,0.9999105334281921,0.43118008971214294,0.20554138720035553,-0.41597166657447815,0.9997509121894836,0.5372557640075684,0.26659971475601196,-0.4056381583213806,0.9999348521232605,0.4353826642036438,0.2861262559890747,-0.08429193496704102,0.999667227268219,0.5968972444534302,0.3628028631210327,-0.47509416937828064,0.995890736579895,0.44038423895835876,0.39962613582611084,0.07925501465797424,0.6752970218658447,0.6395550966262817,0.457143098115921,-0.5965797305107117,0.9838988184928894,0.41618871688842773,0.48432427644729614,0.01583106443285942,0.7768752574920654,0.6570724248886108,0.4871482849121094,-0.6495133638381958,0.9704321026802063,0.4091103971004486,0.515493631362915,0.004721823148429394,0.7480462789535522,0.6530216932296753,0.49142172932624817,-0.6715380549430847,0.9720594882965088,0.40747666358947754,0.5151386857032776,-0.052288442850112915,0.7594904899597168,0.6459411978721619,0.482134073972702,-0.6060214638710022,0.9536101818084717,0.4137234091758728,0.5058718919754028,-0.00993945263326168,0.7403537034988403,0.5346161127090454,0.5006868243217468,-0.11153185367584229,0.9999600052833557,0.47346019744873047,0.5048245191574097,0.11170411109924316,0.9996635317802429,0.5284023880958557,0.671896755695343,-0.16165289282798767,0.9898214936256409,0.46512681245803833,0.6541499495506287,0.3840373754501343,0.8522325754165649,0.5568262338638306,0.844731330871582,-0.04940006881952286,0.9910039305686951,0.47842612862586975,0.78961181640625,0.7603417634963989,0.8680001497268677,0.5697259306907654,0.8666110634803772,-0.048730503767728806,0.949296236038208,0.4923017621040344,0.8216249942779541,0.7893996238708496,0.8533840775489807,0.5362244844436646,0.9120712876319885,-0.24180719256401062,0.9893301725387573,0.42119747400283813,0.8316144347190857,0.6785666346549988,0.9011487364768982
37,0.431302547454834,0.18019628524780273,-0.4870176911354065,0.9998420476913452,0.4406755864620209,0.16204212605953217,-0.4915635585784912,0.9997333288192749,0.445986807346344,0.16179461777210236,-0.49166256189346313,0.9997586011886597,0.45201176404953003,0.16164347529411316,-0.49182528257369995,0.9997252225875854,0.431670606136322,0.1620619148015976,-0.45979762077331543,0.9995532631874084,0.43002423644065857,0.16180779039859772,-0.4597429633140564,0.9995468854904175,0.42833369970321655,0.16153618693351746,-0.459688663482666,0.9994425177574158,0.47387227416038513,0.17036771774291992,-0.43140512704849243,0.9997201561927795,0.4417015016078949,0.16872629523277283,-0.2848249673843384,0.9986572265625,0.4439474940299988,0.19889362156391144,-0.4597841203212738,0.9999181032180786,0.43205180764198303,0.19965489208698273,-0.4174426198005676,0.9997694492340088,0.5369068384170532,0.25328633189201355,-0.41055282950401306,0.9999412298202515,0.44417762756347656,0.2693886458873749,-0.061809081584215164,0.9996256828308105,0.6159849762916565,0.3482498526573181,-0.431044340133667,0.9962781667709351,0.46921902894973755,0.38598576188087463,0.11240291595458984,0.619022786617279,0.6702721118927002,0.4466366767883301,-0.5129294991493225,0.9853230714797974,0.44309505820274353,0.47363361716270447,0.04422776773571968,0.7289140820503235,0.6881150603294373,0.4769473671913147,-0.5613611340522766,0.972764253616333,0.44071850180625916,0.5025152564048767,0.03564692288637161,0.7034801244735718,0.6763753294944763,0.485870361328125,-0.5900420546531677,0.974271297454834,0.4326725900173187,0.5028989911079407,-0.02290179207921028,0.715177059173584,0.6699442267417908,0.4779374301433563,-0.523184597492218,0.9572433233261108,0.441312700510025,0.49379590153694153,0.018047496676445007,0.6949653625488281,0.531412661075592,0.5038823485374451,-0.11121673882007599,0.9999607801437378,0.47289663553237915,0.5056040287017822,0.11129838228225708,0.9996543526649475,0.5292997360229492,0.6739438772201538,-0.07864315807819366,0.9906222224235535,0.4692198634147644,0.6549698114395142,0.4023532271385193,0.8643361330032349,0.5572962760925293,0.8452212810516357,0.056182701140642166,0.9918069839477539,0.47889748215675354,0.7895167469978333,0.7870764136314392,0.8792914748191833,0.570097804069519,0.8703384399414062,0.05856701731681824,0.9519578218460083,0.49231457710266113,0.8185132741928101,0.8177472949028015,0.861815869808197,0.5375660061836243,0.9127472043037415,-0.1323634684085846,0.9901918768882751,0.42226409912109375,0.8329235315322876,0.7205905318260193,0.9100288152694702
