frame,NOSE.x,NOSE.y,NOSE.z,NOSE.v,LEFT_EYE_INNER.x,LEFT_EYE_INNER.y,LEFT_EYE_INNER.z,LEFT_EYE_INNER.v,LEFT_EYE.x,LEFT_EYE.y,LEFT_EYE.z,LEFT_EYE.v,LEFT_EYE_OUTER.x,LEFT_EYE_OUTER.y,LEFT_EYE_OUTER.z,LEFT_EYE_OUTER.v,RIGHT_EYE_INNER.x,RIGHT_EYE_INNER.y,RIGHT_EYE_INNER.z,RIGHT_EYE_INNER.v,RIGHT_EYE.x,RIGHT_EYE.y,RIGHT_EYE.z,RIGHT_EYE.v,RIGHT_EYE_OUTER.x,RIGHT_EYE_OUTER.y,RIGHT_EYE_OUTER.z,RIGHT_EYE_OUTER.v,LEFT_EAR.x,LEFT_EAR.y,LEFT_EAR.z,LEFT_EAR.v,RIGHT_EAR.x,RIGHT_EAR.y,RIGHT_EAR.z,RIGHT_EAR.v,MOUTH_LEFT.x,MOUTH_LEFT.y,MOUTH_LEFT.z,MOUTH_LEFT.v,MOUTH_RIGHT.x,MOUTH_RIGHT.y,MOUTH_RIGHT.z,MOUTH_RIGHT.v,LEFT_SHOULDER.x,LEFT_SHOULDER.y,LEFT_SHOULDER.z,LEFT_SHOULDER.v,RIGHT_SHOULDER.x,RIGHT_SHOULDER.y,RIGHT_SHOULDER.z,RIGHT_SHOULDER.v,LEFT_ELBOW.x,LEFT_ELBOW.y,LEFT_ELBOW.z,LEFT_ELBOW.v,RIGHT_ELBOW.x,RIGHT_ELBOW.y,RIGHT_ELBOW.z,RIGHT_ELBOW.v,LEFT_WRIST.x,LEFT_WRIST.y,LEFT_WRIST.z,LEFT_WRIST.v,RIGHT_WRIST.x,RIGHT_WRIST.y,RIGHT_WRIST.z,RIGHT_WRIST.v,LEFT_PINKY.x,LEFT_PINKY.y,LEFT_PINKY.z,LEFT_PINKY.v,RIGHT_PINKY.x,RIGHT_PINKY.y,RIGHT_PINKY.z,RIGHT_PINKY.v,LEFT_INDEX.x,LEFT_INDEX.y,LEFT_INDEX.z,LEFT_INDEX.v,RIGHT_INDEX.x,RIGHT_INDEX.y,RIGHT_INDEX.z,RIGHT_INDEX.v,LEFT_THUMB.x,LEFT_THUMB.y,LEFT_THUMB.z,LEFT_THUMB.v,RIGHT_THUMB.x,RIGHT_THUMB.y,RIGHT_THUMB.z,RIGHT_THUMB.v,LEFT_HIP.x,LEFT_HIP.y,LEFT_HIP.z,LEFT_HIP.v,RIGHT_HIP.x,RIGHT_HIP.y,RIGHT_HIP.z,RIGHT_HIP.v,LEFT_KNEE.x,LEFT_KNEE.y,LEFT_KNEE.z,LEFT_KNEE.v,RIGHT_KNEE.x,RIGHT_KNEE.y,RIGHT_KNEE.z,RIGHT_KNEE.v,LEFT_ANKLE.x,LEFT_ANKLE.y,LEFT_ANKLE.z,LEFT_ANKLE.v,RIGHT_ANKLE.x,RIGHT_ANKLE.y,RIGHT_ANKLE.z,RIGHT_ANKLE.v,LEFT_HEEL.x,LEFT_HEEL.y,LEFT_HEEL.z,LEFT_HEEL.v,RIGHT_HEEL.x,RIGHT_HEEL.y,RIGHT_HEEL.z,RIGHT_HEEL.v,LEFT_FOOT_INDEX.x,LEFT_FOOT_INDEX.y,LEFT_FOOT_INDEX.z,LEFT_FOOT_INDEX.v,RIGHT_FOOT_INDEX.x,RIGHT_FOOT_INDEX.y,RIGHT_FOOT_INDEX.z,RIGHT_FOOT_INDEX.v
0,0.4965744912624359,0.23798078298568726,-0.5567858219146729,0.9999762773513794,0.5021735429763794,0.22140425443649292,-0.5459453463554382,0.9999244213104248,0.5056408643722534,0.22031044960021973,-0.54599928855896,0.9999128580093384,0.5085744261741638,0.21928617358207703,-0.5461044311523438,0.9999200105667114,0.4915526807308197,0.2221532166004181,-0.5440714359283447,0.9999327659606934,0.48787301778793335,0.22140049934387207,-0.5441598892211914,0.9999109506607056,0.4847274720668793,0.22055724263191223,-0.5442002415657043,0.9999092817306519,0.5139355659484863,0.21690663695335388,-0.4160643517971039,0.9998075366020203,0.47997036576271057,0.21872243285179138,-0.40741991996765137,0.99979168176651,0.5020381212234497,0.24771200120449066,-0.502808690071106,0.9999297857284546,0.48952656984329224,0.24860510230064392,-0.5005182027816772,0.9999321699142456,0.5538120269775391,0.29052257537841797,-0.30733779072761536,0.9999583959579468,0.44434410333633423,0.29159310460090637,-0.26463380455970764,0.999968409538269,0.5670356750488281,0.400959312915802,-0.2888277471065521,0.9924538731575012,0.42856186628341675,0.40849536657333374,-0.20492370426654816,0.9788315892219543,0.5591645240783691,0.5025685429573059,-0.40367454290390015,0.9723033905029297,0.4315401613712311,0.5149742960929871,-0.3015827536582947,0.9588485360145569,0.5627040266990662,0.5349089503288269,-0.44897523522377014,0.9374986886978149,0.4219720959663391,0.5488026738166809,-0.3330821096897125,0.9200236201286316,0.5564505457878113,0.5338677167892456,-0.48546379804611206,0.9419220685958862,0.4281979501247406,0.5493699312210083,-0.3815889060497284,0.9262540936470032,0.5538681745529175,0.5235414505004883,-0.42007070779800415,0.9212664365768433,0.43291306495666504,0.5366175174713135,-0.3220745921134949,0.9117940068244934,0.5276888012886047,0.5029395818710327,-0.01581943780183792,0.9998210072517395,0.4641542434692383,0.5040425062179565,0.015843061730265617,0.999855637550354,0.5499840974807739,0.635791003704071,-0.034196604043245316,0.9956821203231812,0.44024816155433655,0.6355698704719543,0.06593549251556396,0.9962916374206543,0.5686892867088318,0.7838842868804932,0.10915770381689072,0.99744713306427,0.4222692847251892,0.7870069742202759,0.25234490633010864,0.9978950023651123,0.5613222718238831,0.8051865100860596,0.11344395577907562,0.9751014709472656,0.4280425012111664,0.8094807863235474,0.26123782992362976,0.9719434976577759,0.5941641330718994,0.8241997957229614,-0.028358912095427513,0.9941741824150085,0.39168140292167664,0.8231734037399292,0.12696652114391327,0.994574785232544
1,0.4977637827396393,0.23938193917274475,-0.5880477428436279,0.9999768137931824,0.5031650066375732,0.22301101684570312,-0.5772504210472107,0.9999257326126099,0.5064790844917297,0.22188590466976166,-0.5772668123245239,0.9999146461486816,0.5092567801475525,0.22088442742824554,-0.5773745775222778,0.9999216198921204,0.49290093779563904,0.22349576652050018,-0.5767156481742859,0.9999345541000366,0.48907095193862915,0.22260572016239166,-0.5768304467201233,0.99991375207901,0.4858165383338928,0.22177094221115112,-0.5768639445304871,0.9999120831489563,0.514009416103363,0.2186526656150818,-0.44217413663864136,0.999811589717865,0.48017874360084534,0.22004587948322296,-0.4400649070739746,0.9997997879981995,0.5028904676437378,0.24991318583488464,-0.5317656397819519,0.9999310970306396,0.4905146658420563,0.2495492547750473,-0.5313839316368103,0.9999338388442993,0.5539528727531433,0.29071375727653503,-0.31687799096107483,0.9999574422836304,0.4442727565765381,0.2915944755077362,-0.2992500066757202,0.9999692440032959,0.5674558281898499,0.4028710126876831,-0.2885686159133911,0.9924096465110779,0.4286523759365082,0.40843042731285095,-0.2431241273880005,0.9793447256088257,0.5591941475868225,0.5032298564910889,-0.39924824237823486,0.972176730632782,0.4298073351383209,0.5151552557945251,-0.32951170206069946,0.9583736658096313,0.5627056956291199,0.5354268550872803,-0.4408116936683655,0.9365764260292053,0.42091235518455505,0.5490490198135376,-0.3630771040916443,0.9187718033790588,0.5564374923706055,0.5341518521308899,-0.48096004128456116,0.9410181641578674,0.4271460175514221,0.5499313473701477,-0.4078609049320221,0.9249662756919861,0.553864061832428,0.5239549279212952,-0.4167017340660095,0.9202407598495483,0.4314207434654236,0.5368826985359192,-0.34868794679641724,0.9102847576141357,0.527548611164093,0.5012913942337036,-0.00490986555814743,0.999808132648468,0.46395057439804077,0.5025783181190491,0.004884414840489626,0.9998558759689331,0.550162136554718,0.6382704377174377,-0.009740236215293407,0.9956929087638855,0.4402347207069397,0.6352390050888062,0.03006775677204132,0.996416449546814,0.5688291192054749,0.785479724407196,0.14297617971897125,0.9973719716072083,0.4221417009830475,0.7870100140571594,0.19568634033203125,0.997930645942688,0.5617212057113647,0.806460440158844,0.1487945020198822,0.9751726984977722,0.4281070828437805,0.8096067309379578,0.20163941383361816,0.9710983037948608,0.5965926051139832,0.8239070177078247,0.006053217686712742,0.994076132774353,0.39016395807266235,0.8232548236846924,0.05576634407043457,0.9945300221443176
2,0.4986155033111572,0.24245646595954895,-0.5877170562744141,0.9999769330024719,0.5042864680290222,0.22676357626914978,-0.5757845044136047,0.9999262094497681,0.5073935389518738,0.22576959431171417,-0.5758000612258911,0.9999154210090637,0.5101091265678406,0.22475793957710266,-0.575905442237854,0.9999223947525024,0.4938908517360687,0.22678016126155853,-0.5750686526298523,0.9999356865882874,0.48984020948410034,0.22585415840148926,-0.5751854181289673,0.999915599822998,0.4864487648010254,0.22506830096244812,-0.5752199292182922,0.9999141097068787,0.5146695971488953,0.22283554077148438,-0.44088220596313477,0.9998143911361694,0.4802684783935547,0.2236139327287674,-0.43793225288391113,0.9998058080673218,0.5035204291343689,0.25413745641708374,-0.5320823788642883,0.9999313950538635,0.4909302592277527,0.2537824809551239,-0.5314806699752808,0.999934732913971,0.5544027090072632,0.2935114800930023,-0.3184494376182556,0.9999547004699707,0.4444962441921234,0.2936462461948395,-0.2935231626033783,0.9999694228172302,0.5683097839355469,0.40541979670524597,-0.2871600091457367,0.992323637008667,0.4287889897823334,0.4087434709072113,-0.23398323357105255,0.9796093702316284,0.5608918070793152,0.506647527217865,-0.3889501094818115,0.9719446301460266,0.4289429187774658,0.5151644945144653,-0.32276272773742676,0.9582839012145996,0.5653440356254578,0.5383356809616089,-0.4279250204563141,0.9356060028076172,0.4202520251274109,0.5490419268608093,-0.3554372191429138,0.9182588458061218,0.5587064027786255,0.5373144745826721,-0.469329297542572,0.9399821162223816,0.42618951201438904,0.5499395728111267,-0.40116381645202637,0.92439204454422,0.5557975172996521,0.5271458029747009,-0.40657052397727966,0.9190519452095032,0.4305516183376312,0.5368497967720032,-0.3422076106071472,0.9096378087997437,0.5284310579299927,0.4999517500400543,-0.004986901767551899,0.9997932314872742,0.46395939588546753,0.5009515285491943,0.00498141348361969,0.9998567700386047,0.5525742173194885,0.6382838487625122,-0.015685928985476494,0.9956662654876709,0.4380412995815277,0.6350564360618591,0.0004034578741993755,0.9965317249298096,0.5690334439277649,0.7852790951728821,0.1325370818376541,0.9972778558731079,0.42212194204330444,0.7869829535484314,0.15185745060443878,0.9979745149612427,0.5619814991950989,0.8062592148780823,0.13765127956867218,0.9748647212982178,0.42840614914894104,0.8096398115158081,0.15573365986347198,0.9710637331008911,0.5971206426620483,0.8233200311660767,-0.003963109105825424,0.993942141532898,0.3888987898826599,0.8233320713043213,0.009646202437579632,0.9945243000984192
3,0.49919968843460083,0.24823375046253204,-0.5577203631401062,0.9999780058860779,0.5051072835922241,0.23216867446899414,-0.5442063212394714,0.9999299049377441,0.5081462264060974,0.2312023937702179,-0.5442233681678772,0.9999197125434875,0.5109374523162842,0.23048368096351624,-0.5443260669708252,0.9999265670776367,0.4944297671318054,0.2321353703737259,-0.5431042909622192,0.9999390840530396,0.49030476808547974,0.23123833537101746,-0.543209969997406,0.999920129776001,0.48687487840652466,0.23059368133544922,-0.5432189702987671,0.9999187588691711,0.5154023170471191,0.2287352830171585,-0.410574734210968,0.9998251795768738,0.48052388429641724,0.22929804027080536,-0.4058281481266022,0.9998175501823425,0.5042828321456909,0.26052138209342957,-0.5035070180892944,0.9999350309371948,0.49146971106529236,0.2602991461753845,-0.502368152141571,0.9999381899833679,0.5549918413162231,0.3033629059791565,-0.2994183301925659,0.9999551177024841,0.4449974596500397,0.301216721534729,-0.26623111963272095,0.9999697208404541,0.5706412196159363,0.4142870604991913,-0.2705325484275818,0.9925554394721985,0.4287610650062561,0.41323551535606384,-0.21335288882255554,0.9798192977905273,0.5638847351074219,0.5167527198791504,-0.3667912483215332,0.9727851748466492,0.4262240529060364,0.5193016529083252,-0.3073497414588928,0.9580193758010864,0.5684601068496704,0.5484168529510498,-0.4062836766242981,0.936833381652832,0.417633056640625,0.5535568594932556,-0.3411148190498352,0.917391836643219,0.5610345602035522,0.5480409860610962,-0.44565486907958984,0.9410877823829651,0.4230944514274597,0.5545433759689331,-0.3848201334476471,0.9235299825668335,0.5576278567314148,0.5357533097267151,-0.3835926055908203,0.9204481244087219,0.42788952589035034,0.5409907102584839,-0.32649630308151245,0.9087287187576294,0.5294491052627563,0.5031189918518066,-0.006112786941230297,0.9997850656509399,0.4640587866306305,0.5037972331047058,0.006117607932537794,0.9998570084571838,0.5543161630630493,0.6382624506950378,-0.054624397307634354,0.9955594539642334,0.43326225876808167,0.6354831457138062,-0.03642997890710831,0.9966222047805786,0.5696461796760559,0.7861248850822449,0.072941854596138,0.9971429109573364,0.4221208095550537,0.7869816422462463,0.11382882297039032,0.997961163520813,0.5625548362731934,0.8067706227302551,0.07562434673309326,0.9745987057685852,0.428828626871109,0.8096498250961304,0.11803834140300751,0.9709545373916626,0.5972698926925659,0.8232498168945312,-0.07010684907436371,0.993705153465271,0.38881659507751465,0.8234216570854187,-0.021210314705967903,0.9943518042564392
4,0.49956265091896057,0.2564604580402374,-0.48113030195236206,0.9999786615371704,0.5055859088897705,0.2387285679578781,-0.46549978852272034,0.9999316334724426,0.5086138248443604,0.23793171346187592,-0.465545654296875,0.9999216794967651,0.5115063190460205,0.23734264075756073,-0.4656464457511902,0.9999285340309143,0.4948962330818176,0.23867617547512054,-0.46534809470176697,0.999940812587738,0.49073344469070435,0.2377670556306839,-0.46543174982070923,0.9999223947525024,0.48728126287460327,0.2370743304491043,-0.465446799993515,0.9999212622642517,0.5157365202903748,0.2364574372768402,-0.3347017168998718,0.9998316764831543,0.480980783700943,0.23614946007728577,-0.33400213718414307,0.9998259544372559,0.5046600103378296,0.2678014934062958,-0.42908158898353577,0.999937117099762,0.4918169379234314,0.26805591583251953,-0.42897969484329224,0.9999406337738037,0.5549044609069824,0.3124486804008484,-0.24225378036499023,0.9999545216560364,0.4450456202030182,0.31435611844062805,-0.2141406536102295,0.999968409538269,0.571763277053833,0.41910886764526367,-0.2314072847366333,0.9927546977996826,0.42787259817123413,0.42290017008781433,-0.17732670903205872,0.9799915552139282,0.5656338930130005,0.5235772132873535,-0.3398873209953308,0.9738094806671143,0.4234983026981354,0.526904821395874,-0.2790148854255676,0.9581915140151978,0.5707043409347534,0.5554393529891968,-0.38086801767349243,0.938697338104248,0.41393622756004333,0.5591205954551697,-0.3148416578769684,0.9174993634223938,0.5634924173355103,0.555334746837616,-0.41738271713256836,0.9428138136863708,0.4203035235404968,0.5602114200592041,-0.3561316132545471,0.9236347079277039,0.5596142411231995,0.5426067113876343,-0.35636258125305176,0.922768771648407,0.4254155158996582,0.5478641390800476,-0.297793447971344,0.9089807271957397,0.5295592546463013,0.5119458436965942,-0.005524197593331337,0.9997737407684326,0.4635007977485657,0.5133196711540222,0.005561555735766888,0.9998569488525391,0.5598798394203186,0.6389883160591125,-0.09745736420154572,0.9954150915145874,0.4291812777519226,0.6384373307228088,-0.10777144134044647,0.9967328906059265,0.5704488158226013,0.7861395478248596,0.05384397506713867,0.9968465566635132,0.4220510423183441,0.786981463432312,0.06751678138971329,0.9979422092437744,0.5628657341003418,0.8067760467529297,0.059344708919525146,0.9740089178085327,0.4288390576839447,0.8095055222511292,0.07489225268363953,0.9710070490837097,0.5975416898727417,0.8229917287826538,-0.07808641344308853,0.9930884838104248,0.3886622190475464,0.8239854574203491,-0.05960776284337044,0.9941240549087524
5,0.4996482729911804,0.2707640826702118,-0.4386438727378845,0.9999804496765137,0.5057341456413269,0.2529244124889374,-0.421638160943985,0.999937117099762,0.5088868737220764,0.2522219717502594,-0.42166152596473694,0.999927818775177,0.5119765400886536,0.25160980224609375,-0.42172884941101074,0.9999341368675232,0.4948491156101227,0.25229611992836,-0.4210960865020752,0.9999455809593201,0.49071043729782104,0.2512756884098053,-0.4211832880973816,0.9999287128448486,0.4872613549232483,0.2505272626876831,-0.42120108008384705,0.999927818775177,0.5163711905479431,0.24916014075279236,-0.28910601139068604,0.9998453855514526,0.4813053607940674,0.24866224825382233,-0.2872755825519562,0.9998412728309631,0.5049210786819458,0.2813478708267212,-0.38647162914276123,0.9999421834945679,0.491842120885849,0.28265371918678284,-0.3860052824020386,0.9999456405639648,0.554956316947937,0.32515624165534973,-0.19475528597831726,0.9999561905860901,0.446017324924469,0.32876312732696533,-0.1768372505903244,0.9999697208404541,0.5727561116218567,0.4304558038711548,-0.17393405735492706,0.992864191532135,0.42646893858909607,0.43234556913375854,-0.14843447506427765,0.9808077216148376,0.5688939094543457,0.5334276556968689,-0.2803015112876892,0.9747086763381958,0.41952380537986755,0.5380188226699829,-0.2546490430831909,0.95977783203125,0.5744482278823853,0.5659811496734619,-0.3170256018638611,0.9402704238891602,0.40794092416763306,0.5680980682373047,-0.2909794747829437,0.919815719127655,0.5670872926712036,0.5659201741218567,-0.3524641692638397,0.9442600011825562,0.41522058844566345,0.5695155262947083,-0.3295661211013794,0.9257411360740662,0.5627095699310303,0.5545780658721924,-0.2964285910129547,0.9246349930763245,0.42121171951293945,0.5590189099311829,-0.272548645734787,0.9114357829093933,0.5298836827278137,0.5208972692489624,-0.004102329257875681,0.9997755885124207,0.4635039269924164,0.5202251672744751,0.004132721573114395,0.9998632669448853,0.5669804811477661,0.6418270468711853,-0.17699576914310455,0.99522864818573,0.42358189821243286,0.6397104859352112,-0.20979678630828857,0.9968940019607544,0.5709787607192993,0.786162257194519,0.007734351791441441,0.9964118003845215,0.4220501780509949,0.7871099710464478,-0.005555538926273584,0.9979445934295654,0.5629236102104187,0.8067684769630432,0.017193030565977097,0.9732376337051392,0.4293660521507263,0.8094584941864014,0.0056154862977564335,0.9717150330543518,0.5983254313468933,0.8222648501396179,-0.11982478946447372,0.9922561049461365,0.3886220455169678,0.8246822953224182,-0.12892386317253113,0.9939950108528137
6,0.4994031488895416,0.28753191232681274,-0.46932896971702576,0.9999821186065674,0.5053554177284241,0.2696828842163086,-0.45285797119140625,0.999942421913147,0.5086826682090759,0.2686479687690735,-0.4528733193874359,0.9999338388442993,0.5118838548660278,0.2674557566642761,-0.45296454429626465,0.9999395608901978,0.4943058490753174,0.2700921595096588,-0.450795978307724,0.9999502301216125,0.49036240577697754,0.26931580901145935,-0.4509006440639496,0.9999349117279053,0.4870128035545349,0.2684895694255829,-0.4509219527244568,0.999934196472168,0.5163549184799194,0.26313716173171997,-0.32030370831489563,0.9998588562011719,0.4813229441642761,0.26470717787742615,-0.31053626537323,0.9998561143875122,0.5048626065254211,0.2973625361919403,-0.416877806186676,0.9999472498893738,0.4918033182621002,0.2987719178199768,-0.4141310751438141,0.9999505877494812,0.5550703406333923,0.3372194468975067,-0.21781738102436066,0.9999576210975647,0.4467605650424957,0.3403528928756714,-0.20296335220336914,0.9999718070030212,0.5756099224090576,0.44533708691596985,-0.2059023380279541,0.9928869009017944,0.424216091632843,0.443893700838089,-0.159272700548172,0.9820150136947632,0.5752562284469604,0.5470200777053833,-0.3215504288673401,0.9742875695228577,0.41217151284217834,0.5510498881340027,-0.29506221413612366,0.9617753624916077,0.5792766809463501,0.5756104588508606,-0.361623615026474,0.9388582706451416,0.400714248418808,0.5791977047920227,-0.3374030888080597,0.9228207468986511,0.5731058120727539,0.5764265060424805,-0.3960476815700531,0.9429562091827393,0.4064367413520813,0.5808818936347961,-0.36955878138542175,0.9284611344337463,0.5691642165184021,0.5675710439682007,-0.3378525376319885,0.9230135083198547,0.4125604033470154,0.5717620849609375,-0.3112335801124573,0.9144206643104553,0.5295228362083435,0.5280287265777588,-0.0017705621430650353,0.9997819662094116,0.463535875082016,0.5269405245780945,0.0017854569014161825,0.9998708963394165,0.5713966488838196,0.6416464447975159,-0.24724110960960388,0.9951353073120117,0.4169014096260071,0.642145574092865,-0.2617477476596832,0.9970742464065552,0.5712078213691711,0.7857563495635986,-0.023062262684106827,0.996131181716919,0.4213012754917145,0.787301778793335,-0.027269547805190086,0.9979649186134338,0.5629121661186218,0.805971086025238,-0.00962191540747881,0.9731473326683044,0.42939478158950806,0.809535562992096,-0.012886973097920418,0.9725342988967896,0.5987918972969055,0.8216066360473633,-0.1501602828502655,0.991608202457428,0.38821864128112793,0.8254550695419312,-0.1522972583770752,0.9938988089561462
7,0.49962911009788513,0.30492961406707764,-0.4900015890598297,0.9999836683273315,0.5053316950798035,0.2873290181159973,-0.4775012135505676,0.9999473094940186,0.508656919002533,0.28618744015693665,-0.47752970457077026,0.9999393224716187,0.5118481516838074,0.28492677211761475,-0.4776163697242737,0.9999445080757141,0.494344562292099,0.28825050592422485,-0.4758881628513336,0.9999545216560364,0.4904267191886902,0.28760263323783875,-0.47598522901535034,0.9999405145645142,0.48711833357810974,0.2869304120540619,-0.47601500153541565,0.999940037727356,0.5163412094116211,0.28042447566986084,-0.34554246068000793,0.9998712539672852,0.48153504729270935,0.2835344076156616,-0.33836740255355835,0.9998695254325867,0.5050423741340637,0.31487220525741577,-0.4377071261405945,0.999951958656311,0.49227800965309143,0.31569987535476685,-0.43597832322120667,0.9999551177024841,0.5550631284713745,0.35269659757614136,-0.23978185653686523,0.9999597668647766,0.44691428542137146,0.35588544607162476,-0.20339369773864746,0.9999736547470093,0.5772125124931335,0.4572950303554535,-0.21120598912239075,0.993047833442688,0.4228689670562744,0.4586924910545349,-0.21678921580314636,0.9830658435821533,0.5802590847015381,0.5563477873802185,-0.3605334162712097,0.9741178750991821,0.40699172019958496,0.5650338530540466,-0.3449225127696991,0.9634408354759216,0.5853532552719116,0.5844284892082214,-0.4045376181602478,0.9380548596382141,0.3954097628593445,0.5925394296646118,-0.38741737604141235,0.9253016114234924,0.5788832902908325,0.5856409072875977,-0.4355146288871765,0.9422785639762878,0.40008100867271423,0.5934540629386902,-0.42415541410446167,0.9307101964950562,0.5751345753669739,0.5777605772018433,-0.37714043259620667,0.9220897555351257,0.4063553810119629,0.5835288166999817,-0.3630698323249817,0.9168987274169922,0.5286093950271606,0.5346816182136536,-0.0012459034333005548,0.9997871518135071,0.46354976296424866,0.5332444906234741,0.0012585213407874107,0.9998759031295776,0.57560133934021,0.643371045589447,-0.2672535181045532,0.9949185848236084,0.4125167429447174,0.6469179391860962,-0.27615833282470703,0.997177243232727,0.5715456604957581,0.7850858569145203,-0.03611622750759125,0.9957877993583679,0.4210401177406311,0.7873204350471497,-0.030965382233262062,0.9979028701782227,0.5629099011421204,0.8054686784744263,-0.02223837934434414,0.9724820852279663,0.4295264184474945,0.8094249367713928,-0.015494528226554394,0.9730330109596252,0.5987598299980164,0.8219775557518005,-0.16640478372573853,0.9907278418540955,0.388249933719635,0.8267888426780701,-0.15565340220928192,0.9935450553894043
8,0.49868226051330566,0.32317399978637695,-0.4780677855014801,0.9999850392341614,0.5036777257919312,0.3063732087612152,-0.46206021308898926,0.9999517202377319,0.5070449709892273,0.30540111660957336,-0.46207189559936523,0.999944269657135,0.510233998298645,0.3043766915798187,-0.4621831774711609,0.999949038028717,0.49353036284446716,0.3067016005516052,-0.4586525857448578,0.999958336353302,0.4900554120540619,0.30581134557724,-0.458744615316391,0.9999455809593201,0.486940860748291,0.30487775802612305,-0.45874643325805664,0.9999452829360962,0.5148816108703613,0.30061209201812744,-0.3328528106212616,0.9998825788497925,0.48159462213516235,0.30190613865852356,-0.3163892924785614,0.9998816251754761,0.5038644671440125,0.33412808179855347,-0.42736196517944336,0.9999563097953796,0.4920029044151306,0.3336436152458191,-0.42264795303344727,0.9999592900276184,0.5535148978233337,0.3732615113258362,-0.2270689308643341,0.9999622106552124,0.44716715812683105,0.3701384365558624,-0.2060548961162567,0.9999756217002869,0.577505886554718,0.4681116044521332,-0.2156347781419754,0.9931696653366089,0.42118901014328003,0.4701581597328186,-0.19888076186180115,0.9841492176055908,0.5860644578933716,0.5653679370880127,-0.34419289231300354,0.9732071161270142,0.3991861939430237,0.5729033946990967,-0.3291376233100891,0.9652724862098694,0.5919987559318542,0.5953329801559448,-0.3867068886756897,0.9356215596199036,0.386835515499115,0.6011245846748352,-0.36524689197540283,0.9282704591751099,0.5840526223182678,0.5968582630157471,-0.4165506362915039,0.9400831460952759,0.39131730794906616,0.6020510196685791,-0.4117836356163025,0.9334038496017456,0.5805502533912659,0.5890529751777649,-0.35989201068878174,0.9193657636642456,0.3968057334423065,0.591714084148407,-0.3489155173301697,0.9198378920555115,0.5272098183631897,0.5460770726203918,-0.0010887673124670982,0.9997966289520264,0.4637574255466461,0.5458129048347473,0.0010833223350346088,0.9998812079429626,0.5806771516799927,0.6446044445037842,-0.3009193539619446,0.9948112964630127,0.4107487201690674,0.6553905606269836,-0.27779442071914673,0.9972701668739319,0.5717657804489136,0.7845925092697144,-0.0687255784869194,0.995568037033081,0.4208785891532898,0.7873082756996155,-0.038143906742334366,0.9977886080741882,0.5628136396408081,0.8047771453857422,-0.05389589071273804,0.9722678661346436,0.4295767843723297,0.8090260624885559,-0.022528082132339478,0.9731109142303467,0.5984138250350952,0.8226298689842224,-0.19604767858982086,0.9901419281959534,0.3888290822505951,0.8280711770057678,-0.15736281871795654,0.9931070804595947
9,0.4978359341621399,0.34385523200035095,-0.5289778709411621,0.9999863505363464,0.5024852156639099,0.3267478942871094,-0.5108883380889893,0.9999560117721558,0.5060068368911743,0.3257042467594147,-0.5109143257141113,0.9999490976333618,0.5092955827713013,0.3247828185558319,-0.511061429977417,0.9999535083770752,0.4924783706665039,0.32731717824935913,-0.5069814920425415,0.9999620318412781,0.4893088936805725,0.3264854848384857,-0.5070799589157104,0.9999504089355469,0.4863174557685852,0.3255402445793152,-0.5070833563804626,0.9999502897262573,0.5144668817520142,0.3227555453777313,-0.3758731186389923,0.9998931288719177,0.4815920889377594,0.3224136233329773,-0.3559167683124542,0.9998928904533386,0.5034359693527222,0.3549613952636719,-0.4765937924385071,0.9999603629112244,0.49184155464172363,0.35470643639564514,-0.47103962302207947,0.9999631643295288,0.5531123280525208,0.3962671458721161,-0.2626715302467346,0.9999640583992004,0.4471888542175293,0.3911095857620239,-0.24448159337043762,0.9999774098396301,0.579414427280426,0.48493704199790955,-0.28620046377182007,0.993176281452179,0.4163944721221924,0.4869287312030792,-0.24325375258922577,0.9853516221046448,0.5909627676010132,0.58208167552948,-0.439217746257782,0.9712851047515869,0.391717791557312,0.5841798186302185,-0.3713829517364502,0.9672030806541443,0.596838653087616,0.6071853041648865,-0.4867827296257019,0.931883692741394,0.37860432267189026,0.6109027862548828,-0.41171765327453613,0.9314038753509521,0.5878116488456726,0.6087082028388977,-0.5154818296432495,0.9366199374198914,0.38394737243652344,0.6128698587417603,-0.4478435516357422,0.9361788630485535,0.5847389698028564,0.602116048336029,-0.45526617765426636,0.914869487285614,0.3896053433418274,0.6028426885604858,-0.3891450762748718,0.9228811264038086,0.5258644819259644,0.5576341152191162,-0.00018272445595357567,0.9998027086257935,0.4637608528137207,0.5576147437095642,0.0001711520744720474,0.9998832941055298,0.5829719305038452,0.6459733843803406,-0.31456929445266724,0.9942913055419922,0.4065227508544922,0.6589384078979492,-0.3064829409122467,0.9972361326217651,0.5718348026275635,0.7851524353027344,-0.06573371589183807,0.9950377345085144,0.42075929045677185,0.7878409028053284,-0.044889021664857864,0.9974933862686157,0.56267249584198,0.8049285411834717,-0.049592576920986176,0.9716814160346985,0.4297965466976166,0.8090284466743469,-0.026940662413835526,0.9723854064941406,0.5983892679214478,0.8234615921974182,-0.19438855350017548,0.9886341691017151,0.3897044062614441,0.8289319276809692,-0.1668219417333603,0.9919990301132202
10,0.4977664053440094,0.37058648467063904,-0.5818928480148315,0.9999874234199524,0.5025116205215454,0.3546696603298187,-0.5677289962768555,0.9999594688415527,0.5060269236564636,0.35336142778396606,-0.5677523612976074,0.9999528527259827,0.5093079209327698,0.35200560092926025,-0.5679211020469666,0.9999569654464722,0.49248409271240234,0.3544483482837677,-0.5640637874603271,0.9999650120735168,0.48930859565734863,0.35294729471206665,-0.5641706585884094,0.9999542832374573,0.486316055059433,0.35124900937080383,-0.5641810894012451,0.9999544620513916,0.5145137310028076,0.3469056189060211,-0.43227845430374146,0.9999019503593445,0.481617271900177,0.34410199522972107,-0.4134913384914398,0.9999028444290161,0.5033748149871826,0.38014259934425354,-0.5270317792892456,0.9999638199806213,0.49183622002601624,0.3800656497478485,-0.5215534567832947,0.999966561794281,0.5529159307479858,0.41162773966789246,-0.300477534532547,0.9999653697013855,0.4474119246006012,0.4036482870578766,-0.28042668104171753,0.9999793171882629,0.5816494226455688,0.4988393187522888,-0.32058823108673096,0.9927668571472168,0.4151081442832947,0.4976869523525238,-0.26389285922050476,0.986515998840332,0.5963931083679199,0.594171941280365,-0.48017406463623047,0.9652897119522095,0.38752827048301697,0.5870277285575867,-0.39041513204574585,0.9693355560302734,0.6009483337402344,0.6173539757728577,-0.5276306867599487,0.9223173260688782,0.37424594163894653,0.6120005249977112,-0.42939358949661255,0.9352890253067017,0.591976523399353,0.6180104613304138,-0.558285653591156,0.927610456943512,0.37833094596862793,0.6153159737586975,-0.4685192108154297,0.9397315382957458,0.5893179774284363,0.6116249561309814,-0.497250497341156,0.9035830497741699,0.38496026396751404,0.6063359975814819,-0.4092535376548767,0.9268636107444763,0.5258554816246033,0.5677156448364258,-5.509007678483613e-05,0.9998043775558472,0.4643668234348297,0.5666084289550781,6.11978757660836e-05,0.9998840689659119,0.5898415446281433,0.6467018723487854,-0.3123881220817566,0.9939898252487183,0.4031031131744385,0.6622015237808228,-0.30228573083877563,0.9972588419914246,0.5730551481246948,0.7855015397071838,-0.06665974110364914,0.9947300553321838,0.42042621970176697,0.7880225777626038,-0.04139428585767746,0.9973275065422058,0.5630917549133301,0.8049542903900146,-0.051408637315034866,0.9711914658546448,0.4299594461917877,0.8090223073959351,-0.023856936022639275,0.9725403785705566,0.5975338816642761,0.8258351683616638,-0.19890674948692322,0.9874468445777893,0.38980087637901306,0.8294223546981812,-0.16333207488059998,0.9912825226783752
11,0.49773210287094116,0.3692915141582489,-0.5623689293861389,0.9999883770942688,0.5025367736816406,0.35300883650779724,-0.5485382080078125,0.9999627470970154,0.5060461759567261,0.35187384486198425,-0.5485695600509644,0.9999563694000244,0.5093203783035278,0.35052546858787537,-0.5487364530563354,0.9999603033065796,0.49248966574668884,0.3524346947669983,-0.5447229743003845,0.9999678730964661,0.48931294679641724,0.3508516848087311,-0.5448317527770996,0.9999579787254333,0.486333429813385,0.3491067886352539,-0.5448533296585083,0.9999584555625916,0.5146193504333496,0.3449542224407196,-0.41606584191322327,0.9999101161956787,0.48209062218666077,0.3423923850059509,-0.3975786566734314,0.9999119639396667,0.5033747553825378,0.37719032168388367,-0.5087143182754517,0.9999669790267944,0.4918266832828522,0.37781745195388794,-0.5033404231071472,0.9999696612358093,0.5528823733329773,0.4139070212841034,-0.28751057386398315,0.9999651908874512,0.4480134844779968,0.4030117988586426,-0.2702251374721527,0.9999809265136719,0.5826424360275269,0.5026245713233948,-0.28939253091812134,0.9923844933509827,0.41372936964035034,0.49873867630958557,-0.2523951530456543,0.9875198602676392,0.5980671048164368,0.5980977416038513,-0.4283981919288635,0.9573364853858948,0.38650673627853394,0.5891859531402588,-0.3767642378807068,0.9708545804023743,0.6015855073928833,0.6225976943969727,-0.4760280251502991,0.9079182147979736,0.37416523694992065,0.6120973229408264,-0.4147140383720398,0.9377220273017883,0.5925264358520508,0.6224862933158875,-0.5111305117607117,0.9139671921730042,0.3781784474849701,0.6151396632194519,-0.45245614647865295,0.9419061541557312,0.5902490019798279,0.6147138476371765,-0.4451770782470703,0.8878848552703857,0.3846965432167053,0.6070811152458191,-0.39483654499053955,0.9292469024658203,0.5246983766555786,0.5691745281219482,0.0003008345083799213,0.9998030662536621,0.4643579125404358,0.5670635104179382,-0.0002957429096568376,0.9998852014541626,0.590685248374939,0.6475881338119507,-0.28635674715042114,0.9935948848724365,0.4026969075202942,0.6637714505195618,-0.2816736698150635,0.9972894191741943,0.5731214284896851,0.787712037563324,-0.050339989364147186,0.9944058060646057,0.4199086129665375,0.789624810218811,-0.029598582535982132,0.99724942445755,0.5630807280540466,0.8069301247596741,-0.035519473254680634,0.9713125824928284,0.4299331605434418,0.8098909258842468,-0.012293734587728977,0.9729077816009521,0.5977684855461121,0.8275900483131409,-0.17620912194252014,0.9862629771232605,0.38983097672462463,0.8299534916877747,-0.14756730198860168,0.990699052810669
12,0.4976743161678314,0.3896256387233734,-0.6094422340393066,0.9999892115592957,0.5025435090065002,0.37325143814086914,-0.5952213406562805,0.9999656677246094,0.5060569643974304,0.37185946106910706,-0.5952705144882202,0.9999594688415527,0.509330689907074,0.37041836977005005,-0.5954691767692566,0.9999631643295288,0.4924767017364502,0.3729989230632782,-0.591917872428894,0.9999704360961914,0.48930492997169495,0.3713974058628082,-0.5920314192771912,0.999961256980896,0.4863288402557373,0.36962899565696716,-0.5920580625534058,0.9999619126319885,0.5146070718765259,0.36384421586990356,-0.4569299817085266,0.9999174475669861,0.4821496605873108,0.36207491159439087,-0.4409630298614502,0.999920129776001,0.5032889246940613,0.39810019731521606,-0.5532184839248657,0.9999697804450989,0.4918181002140045,0.39795705676078796,-0.5485360026359558,0.999972403049469,0.5516387820243835,0.4263574481010437,-0.31962770223617554,0.9999644756317139,0.4480215013027191,0.41995370388031006,-0.3000265657901764,0.9999821782112122,0.5838308930397034,0.5118868947029114,-0.32220879197120667,0.9920904040336609,0.4129734933376312,0.5120586156845093,-0.2838817238807678,0.9883785843849182,0.6002670526504517,0.6056305766105652,-0.45506805181503296,0.9509122967720032,0.37984588742256165,0.5966483354568481,-0.4128876328468323,0.9720025062561035,0.6035048365592957,0.6289536356925964,-0.4983174800872803,0.8968288898468018,0.36579737067222595,0.6197575330734253,-0.4511847496032715,0.9396568536758423,0.5951364040374756,0.6277636885643005,-0.5304175019264221,0.9032676815986633,0.3701271414756775,0.6219916939735413,-0.49049001932144165,0.9436014294624329,0.5928595066070557,0.6217479109764099,-0.4717806279659271,0.875130295753479,0.37670034170150757,0.6144813299179077,-0.43193382024765015,0.9310116767883301,0.5247036814689636,0.5776869654655457,0.0001110867815441452,0.9997933506965637,0.46438342332839966,0.5759952068328857,-9.502220927970484e-05,0.9998825788497925,0.5928303003311157,0.6480993628501892,-0.30296236276626587,0.9932459592819214,0.39986103773117065,0.6626927852630615,-0.3014824688434601,0.9973072409629822,0.5731567740440369,0.7893216609954834,-0.05611817166209221,0.9940304756164551,0.41908884048461914,0.7912187576293945,-0.04144172742962837,0.9972059726715088,0.5630978345870972,0.8081987500190735,-0.04049861431121826,0.971744954586029,0.42963823676109314,0.8111020922660828,-0.023712094873189926,0.973552942276001,0.5988042950630188,0.8277862071990967,-0.1823119819164276,0.9849013686180115,0.3896723687648773,0.830146849155426,-0.16236811876296997,0.9901343584060669
13,0.4977017939090729,0.40597403049468994,-0.5736749768257141,0.9999901056289673,0.5028056502342224,0.3912014365196228,-0.5591113567352295,0.9999686479568481,0.5064040422439575,0.3902904689311981,-0.5591443181037903,0.9999628663063049,0.5098877549171448,0.38917842507362366,-0.5592992901802063,0.9999661445617676,0.4924698770046234,0.3898645043373108,-0.5561637878417969,0.999972939491272,0.48922601342201233,0.38811302185058594,-0.5562698841094971,0.9999645948410034,0.4861513078212738,0.3862544000148773,-0.556291401386261,0.9999651908874512,0.5158541202545166,0.3838658928871155,-0.42695656418800354,0.9999247789382935,0.4818643033504486,0.37979939579963684,-0.41057467460632324,0.9999276995658875,0.5034801959991455,0.41626760363578796,-0.5195168852806091,0.9999725818634033,0.4918143153190613,0.41654863953590393,-0.5152051448822021,0.9999750256538391,0.55101478099823,0.4452279508113861,-0.31395965814590454,0.9999642372131348,0.448000431060791,0.4406048655509949,-0.28519320487976074,0.9999832510948181,0.584816575050354,0.5257138609886169,-0.3231034278869629,0.9912017583847046,0.41106921434402466,0.5283852219581604,-0.2670721113681793,0.9890468716621399,0.6020115613937378,0.6030551791191101,-0.498971551656723,0.9417756199836731,0.375379741191864,0.600191056728363,-0.4131080210208893,0.9724977016448975,0.6079310178756714,0.6263541579246521,-0.5459398627281189,0.8842039108276367,0.3592337965965271,0.6201352477073669,-0.45170241594314575,0.9407008290290833,0.5990259647369385,0.6239985227584839,-0.5730100870132446,0.890864372253418,0.3637043833732605,0.6217120289802551,-0.4887033998966217,0.9444338083267212,0.5952483415603638,0.6185891032218933,-0.514622688293457,0.8590237498283386,0.3708780109882355,0.6153703331947327,-0.431399405002594,0.9314125776290894,0.5247735977172852,0.5992568731307983,0.00012926009367220104,0.9997852444648743,0.46445703506469727,0.595777690410614,-9.02456376934424e-05,0.9998795390129089,0.5946720242500305,0.6483837962150574,-0.3429110050201416,0.9929004311561584,0.40075182914733887,0.6612606048583984,-0.348899245262146,0.9973034858703613,0.5733015537261963,0.7907546162605286,-0.09141148626804352,0.993641197681427,0.4187707304954529,0.7927860617637634,-0.08360575139522552,0.9972439408302307,0.5631048083305359,0.8089711666107178,-0.07500498741865158,0.9725621938705444,0.42960143089294434,0.8123390078544617,-0.06524991244077682,0.9746643900871277,0.5991851687431335,0.8279630541801453,-0.21732214093208313,0.9838545918464661,0.3896627724170685,0.8304654955863953,-0.2073962241411209,0.9900032877922058
14,0.4976511001586914,0.423432320356369,-0.5807726383209229,0.9999908804893494,0.5030146837234497,0.40793341398239136,-0.5645753741264343,0.9999711513519287,0.5065985321998596,0.40702342987060547,-0.5646409392356873,0.9999656677246094,0.510158360004425,0.4060514271259308,-0.5648199915885925,0.9999684691429138,0.4924141466617584,0.4065147936344147,-0.5627645254135132,0.9999749660491943,0.489006370306015,0.40450769662857056,-0.5628580451011658,0.9999672770500183,0.48575788736343384,0.40239158272743225,-0.562862753868103,0.9999677538871765,0.5163116455078125,0.40077513456344604,-0.4202289581298828,0.9999309182167053,0.4813075661659241,0.3951909840106964,-0.41127675771713257,0.9999341368675232,0.5034726858139038,0.43389177322387695,-0.5224633812904358,0.9999751448631287,0.49117255210876465,0.4335664212703705,-0.5201494693756104,0.9999774098396301,0.5501401424407959,0.46187645196914673,-0.2983466684818268,0.9999658465385437,0.44780102372169495,0.4524591267108917,-0.27642524242401123,0.9999839067459106,0.5870993137359619,0.5422998666763306,-0.3563459515571594,0.9911790490150452,0.40892449021339417,0.536505937576294,-0.30662256479263306,0.9891059994697571,0.6033554077148438,0.6039343476295471,-0.545871913433075,0.942264974117279,0.37325605750083923,0.6025192737579346,-0.49561458826065063,0.971921443939209,0.6102482676506042,0.6245453953742981,-0.5966112017631531,0.8863169550895691,0.35818448662757874,0.6208629608154297,-0.5405408143997192,0.9413547515869141,0.6012375950813293,0.6220277547836304,-0.6189039945602417,0.8920488357543945,0.3633519411087036,0.6221790313720703,-0.5751670598983765,0.9447234869003296,0.59702068567276,0.61677485704422,-0.5593549013137817,0.8574534058570862,0.37026435136795044,0.6172534823417664,-0.5141735076904297,0.9307440519332886,0.5248059034347534,0.6141617894172668,0.00020613307424355298,0.9997754693031311,0.4649341106414795,0.6107359528541565,-0.00015123398043215275,0.9998717308044434,0.593061625957489,0.6484466195106506,-0.388359010219574,0.9927316308021545,0.40087980031967163,0.6594428420066833,-0.3877513110637665,0.9970380067825317,0.5732381343841553,0.7909569144248962,-0.1319718062877655,0.9932848811149597,0.41883403062820435,0.7950179576873779,-0.11991586536169052,0.9972587823867798,0.5629497766494751,0.8097851276397705,-0.11525412648916245,0.9734236598014832,0.42967620491981506,0.8147343993186951,-0.10184121131896973,0.9759668111801147,0.5997279286384583,0.8281117677688599,-0.2629265785217285,0.9830495119094849,0.3896522521972656,0.8297895193099976,-0.2502732276916504,0.9899427890777588
15,0.49684634804725647,0.44543102383613586,-0.43641534447669983,0.999990701675415,0.5028351545333862,0.4290933907032013,-0.42426759004592896,0.9999715089797974,0.5064830780029297,0.42834365367889404,-0.42433029413223267,0.9999658465385437,0.5100885629653931,0.42739173769950867,-0.4244803488254547,0.9999675750732422,0.4919710159301758,0.427154004573822,-0.42114847898483276,0.9999749064445496,0.4885939955711365,0.4250793755054474,-0.42122483253479004,0.9999675154685974,0.4854264259338379,0.42303144931793213,-0.42123016715049744,0.9999675750732422,0.516298234462738,0.42196276783943176,-0.301347553730011,0.9999339580535889,0.48122233152389526,0.4163516163825989,-0.2866736650466919,0.9999379515647888,0.5031046271324158,0.45566606521606445,-0.3865651488304138,0.9999769926071167,0.4903656542301178,0.4551536440849304,-0.3824024498462677,0.9999791383743286,0.5500972867012024,0.4801482856273651,-0.19939950108528137,0.9999645352363586,0.4478294849395752,0.4713488221168518,-0.18491247296333313,0.9999843239784241,0.5919944047927856,0.5607404708862305,-0.293758749961853,0.9899635314941406,0.4077933430671692,0.5477402806282043,-0.2780214250087738,0.9881771206855774,0.6025828123092651,0.6078445315361023,-0.48693758249282837,0.9378067851066589,0.3719591796398163,0.6067577004432678,-0.4602704644203186,0.9707226753234863,0.6082965731620789,0.6230993270874023,-0.5338718891143799,0.8816529512405396,0.3563675284385681,0.6238316893577576,-0.5043624639511108,0.9412009716033936,0.6031299829483032,0.6196922659873962,-0.5564742684364319,0.8871909379959106,0.3610953092575073,0.6234338879585266,-0.5339534878730774,0.9444931745529175,0.5968583822250366,0.6167214512825012,-0.500152587890625,0.849312961101532,0.3686945140361786,0.618850588798523,-0.47748130559921265,0.9298285841941833,0.5246025323867798,0.6328800320625305,0.00016238135867752135,0.9997562170028687,0.4650864005088806,0.6309167146682739,-0.00010586644930299371,0.9998660683631897,0.5924348831176758,0.6483816504478455,-0.3618934452533722,0.9928165078163147,0.40058183670043945,0.6601022481918335,-0.35017701983451843,0.9968476891517639,0.5734207034111023,0.7908669114112854,-0.14986591041088104,0.9930956959724426,0.41881662607192993,0.7946842908859253,-0.12405554950237274,0.9972644448280334,0.5633054375648499,0.8098547458648682,-0.1359149068593979,0.9742761850357056,0.42968684434890747,0.8145132660865784,-0.10867796093225479,0.9772376418113708,0.599748432636261,0.8280845880508423,-0.2691977024078369,0.9827793836593628,0.3890514373779297,0.8291494846343994,-0.2406366765499115,0.9899771213531494
16,0.49567365646362305,0.4614170491695404,-0.28418269753456116,0.9999868869781494,0.5019462704658508,0.44443705677986145,-0.27098116278648376,0.9999653697013855,0.5056604146957397,0.4436590075492859,-0.27107682824134827,0.9999579191207886,0.5092915892601013,0.44275203347206116,-0.27119511365890503,0.9999591112136841,0.4913274347782135,0.443107545375824,-0.26800021529197693,0.9999681115150452,0.48812565207481384,0.44139596819877625,-0.26803505420684814,0.9999581575393677,0.48513802886009216,0.43965721130371094,-0.2680305540561676,0.9999582767486572,0.5159371495246887,0.4382384419441223,-0.15682020783424377,0.9999250769615173,0.4812318682670593,0.4336845576763153,-0.14203622937202454,0.999931275844574,0.5020788908004761,0.4720820486545563,-0.2387169599533081,0.9999765753746033,0.4894389510154724,0.47094786167144775,-0.23448777198791504,0.9999787211418152,0.5495518445968628,0.49346163868904114,-0.07408325374126434,0.9999604821205139,0.44818025827407837,0.48749879002571106,-0.06273873895406723,0.9999822378158569,0.5904763340950012,0.5585596561431885,-0.16686397790908813,0.9881887435913086,0.40729084610939026,0.5561605095863342,-0.13369120657444,0.9866105914115906,0.6022323369979858,0.6020911335945129,-0.3665474057197571,0.9375410079956055,0.37185293436050415,0.6074479222297668,-0.32479536533355713,0.9698853492736816,0.6106809377670288,0.6147369146347046,-0.4102819859981537,0.8832067251205444,0.3553701937198639,0.623897135257721,-0.36248326301574707,0.9410651326179504,0.6045795679092407,0.6009999513626099,-0.4250916540622711,0.8889520764350891,0.36033156514167786,0.6217914819717407,-0.39062362909317017,0.9443906545639038,0.598139762878418,0.6111764311790466,-0.3776620030403137,0.8513512015342712,0.36837875843048096,0.6177737712860107,-0.3414136469364166,0.929905116558075,0.5246307849884033,0.6500049233436584,0.00038350134855136275,0.9997431635856628,0.4653535485267639,0.6477552056312561,-0.0002743420482147485,0.9998520612716675,0.594040036201477,0.6483253240585327,-0.3356333374977112,0.9931972622871399,0.4017021656036377,0.6597002148628235,-0.33437326550483704,0.9968996047973633,0.573409378528595,0.7907984852790833,-0.20495200157165527,0.9932500720024109,0.4188883900642395,0.794600784778595,-0.18894729018211365,0.9973019361495972,0.5631983280181885,0.8106085658073425,-0.19782502949237823,0.9759842157363892,0.42969149351119995,0.8141021132469177,-0.1796572208404541,0.9785131812095642,0.6003392338752747,0.8280208706855774,-0.3189757466316223,0.983510434627533,0.38905760645866394,0.8289563059806824,-0.3009730577468872,0.990353524684906
17,0.4950445294380188,0.4791668653488159,-0.28247278928756714,0.9999746680259705,0.5017308592796326,0.4623042941093445,-0.2709600031375885,0.9999472498893738,0.5055660009384155,0.4610348343849182,-0.27103325724601746,0.9999356269836426,0.5092469453811646,0.459725022315979,-0.2711772918701172,0.9999343752861023,0.4907791018486023,0.46195802092552185,-0.26788121461868286,0.9999459981918335,0.48757433891296387,0.46023333072662354,-0.26791152358055115,0.9999289512634277,0.48464760184288025,0.45828667283058167,-0.2678963541984558,0.9999290108680725,0.5160077810287476,0.4530751407146454,-0.16016660630702972,0.9999079704284668,0.4812287390232086,0.4489583671092987,-0.14355586469173431,0.999913215637207,0.501815676689148,0.4886452555656433,-0.23780813813209534,0.9999743103981018,0.48896780610084534,0.4883864223957062,-0.23301081359386444,0.9999753832817078,0.5496083498001099,0.508334219455719,-0.08030731976032257,0.9999521970748901,0.44903668761253357,0.5004751682281494,-0.06773168593645096,0.9999788999557495,0.5901866555213928,0.5757790207862854,-0.19167302548885345,0.9834550023078918,0.4082046449184418,0.562078595161438,-0.147477924823761,0.9842437505722046,0.6016359925270081,0.6011053919792175,-0.40247592329978943,0.928788423538208,0.37216487526893616,0.6067615747451782,-0.3404320180416107,0.9666858315467834,0.6107193231582642,0.6138364672660828,-0.4472030699253082,0.8743594288825989,0.35565704107284546,0.6215099096298218,-0.37701693177223206,0.9374724626541138,0.6056473851203918,0.5981178879737854,-0.4594832956790924,0.8810217380523682,0.3594319224357605,0.6197293400764465,-0.403453528881073,0.9410553574562073,0.59958416223526,0.609306275844574,-0.41338691115379333,0.8416488766670227,0.36732596158981323,0.615816056728363,-0.3567051291465759,0.9263076186180115,0.5261953473091125,0.6650199294090271,-0.00018958907457999885,0.9996678233146667,0.46702808141708374,0.6630975008010864,0.0003428240888752043,0.9998043775558472,0.5934245586395264,0.6530300378799438,-0.3368551731109619,0.9933161735534668,0.4016178250312805,0.659494161605835,-0.31898051500320435,0.9967296123504639,0.5734677910804749,0.790699303150177,-0.17068317532539368,0.993078887462616,0.4189012944698334,0.792645275592804,-0.13508155941963196,0.997238278388977,0.5628966689109802,0.8111953735351562,-0.1593053638935089,0.9767612218856812,0.4301219880580902,0.8118288516998291,-0.12299521267414093,0.9795406460762024,0.6002973914146423,0.8282757997512817,-0.27641212940216064,0.9834091067314148,0.38908910751342773,0.828617513179779,-0.24021324515342712,0.990342915058136
18,0.49583178758621216,0.4910939633846283,-0.17521636188030243,0.9999739527702332,0.5023684501647949,0.4745645523071289,-0.16126351058483124,0.9999474287033081,0.5060746669769287,0.47331324219703674,-0.16136197745800018,0.9999362230300903,0.5097591280937195,0.47194904088974,-0.16150058805942535,0.9999344348907471,0.4910966753959656,0.4745674729347229,-0.16044935584068298,0.9999455213546753,0.48770684003829956,0.4730176329612732,-0.16044656932353973,0.9999278783798218,0.4846743941307068,0.4711960256099701,-0.16040529310703278,0.999927818775177,0.5165345072746277,0.4646046757698059,-0.046732451766729355,0.9999106526374817,0.48123064637184143,0.46265679597854614,-0.039555586874485016,0.9999163150787354,0.50251704454422,0.49997392296791077,-0.12927354872226715,0.9999750852584839,0.48934006690979004,0.5001585483551025,-0.1272900253534317,0.9999759793281555,0.5488263368606567,0.5171209573745728,0.02333630993962288,0.9999430179595947,0.44944319128990173,0.5136963129043579,0.025303810834884644,0.999976396560669,0.586783766746521,0.5725895166397095,-0.10641275346279144,0.9735341668128967,0.40836596488952637,0.5752602815628052,-0.0653105080127716,0.9785625338554382,0.6023242473602295,0.6033247709274292,-0.3298510015010834,0.9197527766227722,0.37236911058425903,0.6087253093719482,-0.2577078640460968,0.9625492095947266,0.6136500239372253,0.6131921410560608,-0.3723410964012146,0.8683755993843079,0.3554149866104126,0.6206158995628357,-0.2915543019771576,0.9330690503120422,0.6090015172958374,0.5984534025192261,-0.3871261477470398,0.8761688470840454,0.35878974199295044,0.6186500191688538,-0.3178599774837494,0.9371691346168518,0.6025344133377075,0.6083715558052063,-0.34197133779525757,0.8369295597076416,0.3667988181114197,0.6152998208999634,-0.273509681224823,0.9227020144462585,0.5266819000244141,0.6741656064987183,0.00022077219909988344,0.9996148943901062,0.4674411416053772,0.6748446226119995,1.6676840459695086e-05,0.9997662901878357,0.5928577184677124,0.659187912940979,-0.33085405826568604,0.9937834143638611,0.4019986689090729,0.6606674790382385,-0.3235797882080078,0.996871829032898,0.5731372237205505,0.791947603225708,-0.27042776346206665,0.9933435916900635,0.41891399025917053,0.7925834059715271,-0.2521130442619324,0.9973318576812744,0.5625931024551392,0.8133108615875244,-0.2717614769935608,0.9784125685691833,0.4302922785282135,0.8123180270195007,-0.25168541073799133,0.9810388088226318,0.5999502539634705,0.8286277055740356,-0.39284494519233704,0.9842696189880371,0.3896137475967407,0.8286986947059631,-0.37765076756477356,0.990882933139801
19,0.4958573281764984,0.4998035430908203,-0.16690681874752045,0.999974250793457,0.5023755431175232,0.4835718870162964,-0.15198570489883423,0.9999485611915588,0.506079912185669,0.482383131980896,-0.1520848423242569,0.9999379515647888,0.5097548365592957,0.4811483323574066,-0.15222015976905823,0.9999359250068665,0.49113351106643677,0.4839259684085846,-0.15118913352489471,0.9999461770057678,0.4877736568450928,0.4826803207397461,-0.15118421614170074,0.9999281764030457,0.4847549796104431,0.48118817806243896,-0.151152104139328,0.9999276399612427,0.516427755355835,0.4754563271999359,-0.03626614063978195,0.9999132752418518,0.48139452934265137,0.47363460063934326,-0.02947516180574894,0.9999198913574219,0.5025007128715515,0.5079825520515442,-0.12093629688024521,0.9999763369560242,0.4893453121185303,0.508457362651825,-0.1191079169511795,0.9999771118164062,0.5479018688201904,0.5264569520950317,0.032269589602947235,0.9999340176582336,0.4497487545013428,0.5246742963790894,0.03485332056879997,0.9999751448631287,0.5833126306533813,0.5789890885353088,-0.10599152743816376,0.968580424785614,0.40874630212783813,0.5814130306243896,-0.058780770748853683,0.9739643931388855,0.6018714904785156,0.6064902544021606,-0.3293819725513458,0.9205125570297241,0.37342020869255066,0.6103425621986389,-0.24837756156921387,0.9612963795661926,0.6134334802627563,0.6126003861427307,-0.3719857633113861,0.8725578784942627,0.35573866963386536,0.6205625534057617,-0.28173765540122986,0.9321990013122559,0.6084792613983154,0.5993671417236328,-0.38701534271240234,0.8804967403411865,0.3591357171535492,0.6181853413581848,-0.30770307779312134,0.936437726020813,0.6023645401000977,0.607398271560669,-0.3413374423980713,0.8430070281028748,0.36794233322143555,0.6152893304824829,-0.2636069357395172,0.922532856464386,0.5267329812049866,0.683587372303009,0.0006445013568736613,0.9995709657669067,0.4673996865749359,0.6847308278083801,-0.0003408273041713983,0.9997401237487793,0.5920639038085938,0.6598993539810181,-0.32852640748023987,0.9941818118095398,0.4021461606025696,0.6603371500968933,-0.33410561084747314,0.9969729781150818,0.5720939040184021,0.7925155758857727,-0.29040953516960144,0.9934512376785278,0.4191180169582367,0.7927994132041931,-0.3009732961654663,0.9973855018615723,0.5614662766456604,0.8142839074134827,-0.2968143820762634,0.9798707365989685,0.43055829405784607,0.8127930760383606,-0.30537134408950806,0.9823964834213257,0.6002187728881836,0.8279131650924683,-0.41812148690223694,0.9849309325218201,0.39037078619003296,0.8287040591239929,-0.43798762559890747,0.9914121627807617
20,0.4979764521121979,0.5056300163269043,-0.14024536311626434,0.9999754428863525,0.5041662454605103,0.4897303283214569,-0.12294577062129974,0.9999513626098633,0.5075434446334839,0.48885577917099,-0.12304987013339996,0.9999415278434753,0.5112385153770447,0.4876311123371124,-0.12317927181720734,0.9999393224716187,0.49303141236305237,0.48865950107574463,-0.12408813089132309,0.9999489188194275,0.4889031946659088,0.4868388772010803,-0.12408021837472916,0.9999316334724426,0.4855653643608093,0.48494836688041687,-0.1240272969007492,0.9999305009841919,0.5177637934684753,0.48115813732147217,0.0002097260148730129,0.9999182224273682,0.4814676344394684,0.4778110384941101,-0.0023839971981942654,0.9999254941940308,0.5036583542823792,0.5143162608146667,-0.09184614568948746,0.9999778866767883,0.49045810103416443,0.514434278011322,-0.09283194690942764,0.9999786615371704,0.5472534894943237,0.5348786115646362,0.06527014076709747,0.9999160766601562,0.44966569542884827,0.5314680337905884,0.06277281790971756,0.9999720454216003,0.5823050737380981,0.5852905511856079,-0.08848390728235245,0.9612328410148621,0.4076008200645447,0.5878150463104248,-0.04074840992689133,0.9657859802246094,0.6021891832351685,0.611713171005249,-0.3184857964515686,0.9213269948959351,0.37228384613990784,0.6137039065361023,-0.23512831330299377,0.9593369960784912,0.6153132319450378,0.6136511564254761,-0.3587678074836731,0.8769730925559998,0.3533354699611664,0.6206815242767334,-0.26618605852127075,0.930785059928894,0.6096776723861694,0.602440595626831,-0.372098445892334,0.8848595023155212,0.3568287789821625,0.6177977919578552,-0.2885016202926636,0.9352045655250549,0.6029473543167114,0.6084587574005127,-0.3293458819389343,0.8490388989448547,0.3659464120864868,0.6147249341011047,-0.2482232302427292,0.9215966463088989,0.5266345739364624,0.691788911819458,0.0007173281628638506,0.9994531869888306,0.4672902524471283,0.6914771199226379,-0.0003940872265957296,0.9996656179428101,0.5889275670051575,0.6600313186645508,-0.3149152398109436,0.9944131374359131,0.4028255343437195,0.6601572632789612,-0.3416432738304138,0.9969286322593689,0.571685791015625,0.793256938457489,-0.34442654252052307,0.9932316541671753,0.419361412525177,0.7931444048881531,-0.3561539053916931,0.9973309636116028,0.5609828233718872,0.815709114074707,-0.3584076762199402,0.9810707569122314,0.43078213930130005,0.8129016757011414,-0.36614370346069336,0.983578622341156,0.5997047424316406,0.8275434970855713,-0.48291507363319397,0.9852833151817322,0.3913334608078003,0.8275706171989441,-0.5014644265174866,0.9918038845062256
21,0.49848946928977966,0.5063435435295105,-0.13160952925682068,0.9999761581420898,0.5047239661216736,0.4891166388988495,-0.11475169658660889,0.9999533295631409,0.5080168843269348,0.4882161319255829,-0.11483991146087646,0.9999441504478455,0.5116702914237976,0.48704007267951965,-0.11495865881443024,0.9999417066574097,0.4934050142765045,0.48763856291770935,-0.1151154637336731,0.9999507069587708,0.4891858696937561,0.48575931787490845,-0.11511199176311493,0.9999338388442993,0.4858001172542572,0.4839843809604645,-0.11506301164627075,0.9999322891235352,0.5182563662528992,0.4815398156642914,0.004291068762540817,0.9999213814735413,0.4814983010292053,0.4785088300704956,0.004719719756394625,0.9999295473098755,0.5040434002876282,0.515510618686676,-0.08492434769868851,0.9999789595603943,0.4906952381134033,0.5162549614906311,-0.08502505719661713,0.9999797344207764,0.5474023818969727,0.5384557247161865,0.06739142537117004,0.9998996257781982,0.4494512677192688,0.5333501696586609,0.06695444881916046,0.999967634677887,0.5821271538734436,0.5907025933265686,-0.06970185786485672,0.9552456736564636,0.4067332148551941,0.5887880921363831,-0.022058209404349327,0.9595286846160889,0.6022440195083618,0.6141096353530884,-0.2825748026371002,0.9224534630775452,0.36885493993759155,0.6173214316368103,-0.19917121529579163,0.9574087262153625,0.6167210340499878,0.6163141131401062,-0.3197215497493744,0.880874752998352,0.351919025182724,0.6216168999671936,-0.22672021389007568,0.9287847876548767,0.6105554699897766,0.6072296500205994,-0.33238279819488525,0.8887816071510315,0.3552360236644745,0.617437481880188,-0.24957671761512756,0.9333803057670593,0.6034102439880371,0.6102504730224609,-0.29232916235923767,0.8544477224349976,0.36312851309776306,0.614832878112793,-0.2118811309337616,0.9199886918067932,0.5265758037567139,0.6963217258453369,0.001004350371658802,0.9993146657943726,0.46727657318115234,0.6970179677009583,-0.0006637564511038363,0.9995626211166382,0.5881600975990295,0.6600332856178284,-0.3057251274585724,0.9945521950721741,0.40298691391944885,0.6609694361686707,-0.33273714780807495,0.9967985153198242,0.571651041507721,0.7942890524864197,-0.3100358843803406,0.9928742051124573,0.4195202887058258,0.7935276627540588,-0.31493887305259705,0.9972101449966431,0.5608049631118774,0.8161330819129944,-0.31920143961906433,0.9819045066833496,0.4310760498046875,0.8132947683334351,-0.32044127583503723,0.984443724155426,0.5973683595657349,0.8275808691978455,-0.4362788200378418,0.9852775931358337,0.39132678508758545,0.8275652527809143,-0.44703859090805054,0.9920065999031067
22,0.49910831451416016,0.5039156675338745,-0.14845719933509827,0.9999739527702332,0.5052223205566406,0.48670682311058044,-0.13163574039936066,0.999950110912323,0.5085126161575317,0.48560383915901184,-0.1317221075296402,0.9999407529830933,0.5121234655380249,0.4842184782028198,-0.1318351924419403,0.9999376535415649,0.49398142099380493,0.486228883266449,-0.1329057663679123,0.9999478459358215,0.48979267477989197,0.4848548471927643,-0.13290877640247345,0.9999303817749023,0.4864107072353363,0.48327672481536865,-0.1328621506690979,0.9999290108680725,0.5184291005134583,0.47926899790763855,-0.01638372614979744,0.9999147057533264,0.4816212058067322,0.47780853509902954,-0.01983238011598587,0.9999292492866516,0.5045861005783081,0.5143824219703674,-0.10347452014684677,0.9999772906303406,0.4912956655025482,0.5155622959136963,-0.10459975898265839,0.9999787211418152,0.5471543669700623,0.5338058471679688,0.03974699601531029,0.9998701810836792,0.44942736625671387,0.5318927764892578,0.03652418404817581,0.9999595284461975,0.5804327726364136,0.5832565426826477,-0.10560866445302963,0.9476082921028137,0.4065203070640564,0.5876082181930542,-0.05777616426348686,0.9570810794830322,0.6017278432846069,0.610550582408905,-0.3263185918331146,0.9183894991874695,0.36791810393333435,0.6151430010795593,-0.23295870423316956,0.9565346240997314,0.6155462265014648,0.6156829595565796,-0.3665100932121277,0.87871915102005,0.35043656826019287,0.6213530898094177,-0.2621181607246399,0.9276365041732788,0.6092791557312012,0.6058766841888428,-0.3764691650867462,0.886949360370636,0.3545061945915222,0.6152013540267944,-0.28281712532043457,0.9323436617851257,0.6023301482200623,0.607951283454895,-0.3359763026237488,0.8526977300643921,0.36270469427108765,0.614630937576294,-0.24529683589935303,0.9188380837440491,0.5267770886421204,0.6916667222976685,0.0012357659870758653,0.9991702437400818,0.46724945306777954,0.6954626441001892,-0.0009090222301892936,0.9994344115257263,0.5864270329475403,0.6611101031303406,-0.3074946999549866,0.9945701360702515,0.40298348665237427,0.6637658476829529,-0.32766443490982056,0.9965014457702637,0.5718260407447815,0.7962605357170105,-0.27568599581718445,0.9924712777137756,0.41952356696128845,0.7943369746208191,-0.2675366997718811,0.9969574213027954,0.5615419149398804,0.8176700472831726,-0.2790161669254303,0.9820677042007446,0.43124619126319885,0.8145325779914856,-0.2677363157272339,0.9847710728645325,0.5972521305084229,0.828241229057312,-0.394085556268692,0.9849968552589417,0.39083874225616455,0.8272216320037842,-0.38850638270378113,0.991847574710846
23,0.499342679977417,0.49765029549598694,-0.16120639443397522,0.9999710321426392,0.5056606531143188,0.48136770725250244,-0.1450207382440567,0.9999455213546753,0.5090116262435913,0.48029690980911255,-0.1451086699962616,0.9999359250068665,0.5126264691352844,0.4790211319923401,-0.14523658156394958,0.9999317526817322,0.49440884590148926,0.48137566447257996,-0.1470087766647339,0.9999434351921082,0.49028587341308594,0.48011794686317444,-0.14700672030448914,0.9999254941940308,0.4868990480899811,0.47880324721336365,-0.14695867896080017,0.9999234676361084,0.5186366438865662,0.47467726469039917,-0.033984582871198654,0.9999080300331116,0.4816514551639557,0.47389575839042664,-0.04131118208169937,0.9999271631240845,0.5048141479492188,0.5085570216178894,-0.11792735755443573,0.9999750852584839,0.49159955978393555,0.5097860097885132,-0.12009541690349579,0.9999771118164062,0.5467489957809448,0.5284673571586609,0.016284003853797913,0.9998630285263062,0.4493374824523926,0.5269362926483154,0.012391029857099056,0.9999504685401917,0.5803219079971313,0.5796216726303101,-0.11839226633310318,0.9455543160438538,0.40612244606018066,0.5845040678977966,-0.08335432410240173,0.9555822610855103,0.6028231382369995,0.6110854744911194,-0.33688122034072876,0.9195035696029663,0.3685230612754822,0.6130491495132446,-0.2616731822490692,0.9560282230377197,0.6186094880104065,0.6153817772865295,-0.3781908452510834,0.8812664747238159,0.35014110803604126,0.6199720501899719,-0.29315364360809326,0.9273002743721008,0.611429750919342,0.605760395526886,-0.3871315121650696,0.8895632028579712,0.35493722558021545,0.6126305460929871,-0.3146320581436157,0.9320588707923889,0.6034684777259827,0.6074591875076294,-0.3463055491447449,0.8561503887176514,0.3637041449546814,0.6128513813018799,-0.2749020457267761,0.9182371497154236,0.5269078016281128,0.6869668364524841,0.001970660639926791,0.9990938901901245,0.46722111105918884,0.6914480328559875,-0.0016803659964352846,0.999348521232605,0.5854908227920532,0.6622079014778137,-0.3072477877140045,0.9943795204162598,0.4017811715602875,0.6660410761833191,-0.3143938183784485,0.9960653781890869,0.5718507766723633,0.7970696091651917,-0.21819274127483368,0.99173903465271,0.4195050597190857,0.794442355632782,-0.20323745906352997,0.9966121912002563,0.5616745352745056,0.8178954720497131,-0.21234123408794403,0.9816203713417053,0.4313577711582184,0.8147006630897522,-0.19591480493545532,0.9844098091125488,0.5971735715866089,0.8285007476806641,-0.31185540556907654,0.9838424921035767,0.3906358480453491,0.8272108435630798,-0.300881564617157,0.9911136627197266
24,0.4993031620979309,0.49452754855155945,-0.1786315143108368,0.9999645352363586,0.505705714225769,0.4784885048866272,-0.16350451111793518,0.9999346733093262,0.5090784430503845,0.4775197207927704,-0.16360148787498474,0.9999238848686218,0.5127055048942566,0.4763471484184265,-0.1637367308139801,0.9999172687530518,0.49448567628860474,0.47828584909439087,-0.16547167301177979,0.9999330639839172,0.4904259145259857,0.4769732654094696,-0.16546745598316193,0.9999130368232727,0.4870622754096985,0.47547978162765503,-0.16542471945285797,0.9999092817306519,0.5186400413513184,0.47180983424186707,-0.05289866775274277,0.9998917579650879,0.4816727638244629,0.46992820501327515,-0.060022495687007904,0.9999193549156189,0.5048006772994995,0.5051319003105164,-0.1349100023508072,0.9999708533287048,0.49161744117736816,0.5063000917434692,-0.13699549436569214,0.9999740719795227,0.5465629696846008,0.5233991742134094,-0.00048166653141379356,0.9998553395271301,0.4489368796348572,0.5226773023605347,-0.002919602207839489,0.9999408721923828,0.5796778202056885,0.5752788186073303,-0.13300064206123352,0.9441092610359192,0.40388840436935425,0.5840500593185425,-0.09447716176509857,0.9545357823371887,0.6026057004928589,0.6096560955047607,-0.34861519932746887,0.9212915897369385,0.3676062226295471,0.612288773059845,-0.2646757960319519,0.9562002420425415,0.6202195286750793,0.6153340935707092,-0.39231300354003906,0.884651243686676,0.3486555516719818,0.6177011728286743,-0.2997940480709076,0.9281483888626099,0.6129151582717896,0.6056965589523315,-0.3939730226993561,0.8928676247596741,0.3529790937900543,0.6088794469833374,-0.3281102776527405,0.9328874945640564,0.6037382483482361,0.6071316003799438,-0.35406213998794556,0.8603518605232239,0.36231303215026855,0.6088997721672058,-0.2824161946773529,0.918822169303894,0.5269044637680054,0.684706449508667,0.0025139800272881985,0.9990057945251465,0.4671468734741211,0.6887520551681519,-0.0022489051334559917,0.9992547631263733,0.5854734182357788,0.6631407141685486,-0.30738145112991333,0.9941338896751404,0.4001319408416748,0.6664217710494995,-0.31333816051483154,0.9955384731292725,0.5719427466392517,0.7969490885734558,-0.19271154701709747,0.9908351302146912,0.4193957448005676,0.794432520866394,-0.18248151242733002,0.9962578415870667,0.5619564056396484,0.8176692128181458,-0.18514028191566467,0.9809548258781433,0.4314045011997223,0.8146803379058838,-0.17358416318893433,0.9838535189628601,0.5971921682357788,0.8285694122314453,-0.28595420718193054,0.982332170009613,0.39044493436813354,0.8271983861923218,-0.2809101641178131,0.9902775287628174
25,0.49905699491500854,0.4945921301841736,-0.17823919653892517,0.999955952167511,0.5056425333023071,0.47838670015335083,-0.16375963389873505,0.9999184608459473,0.5090332627296448,0.4771975576877594,-0.16384924948215485,0.9999064803123474,0.5126689672470093,0.47581425309181213,-0.16398224234580994,0.9998957514762878,0.49431881308555603,0.47807663679122925,-0.16545328497886658,0.9999166131019592,0.4903185963630676,0.47662824392318726,-0.16543546319007874,0.9998929500579834,0.4869549870491028,0.4750002324581146,-0.1653835028409958,0.999885618686676,0.5186179280281067,0.4697268307209015,-0.05313119292259216,0.9998687505722046,0.4815571904182434,0.4677026569843292,-0.058779843151569366,0.9999062418937683,0.5047090649604797,0.5043590664863586,-0.13414379954338074,0.9999653697013855,0.49153590202331543,0.5055479407310486,-0.13573035597801208,0.9999696016311646,0.5464262962341309,0.5210734009742737,0.0022726943716406822,0.999847948551178,0.4482730031013489,0.5207900404930115,-0.0011462789261713624,0.9999309182167053,0.5798246264457703,0.5733897089958191,-0.13616256415843964,0.9422072768211365,0.4010922908782959,0.5827745199203491,-0.0988837331533432,0.9520372748374939,0.6044884324073792,0.6092029809951782,-0.3613954484462738,0.9227672815322876,0.36684805154800415,0.6093083024024963,-0.2760860323905945,0.9556416273117065,0.6228405237197876,0.61324542760849,-0.4057019352912903,0.8878803253173828,0.3470504879951477,0.6142628192901611,-0.3105754554271698,0.9281179308891296,0.61546790599823,0.6038606762886047,-0.4080422818660736,0.8961101174354553,0.3515523076057434,0.6043221950531006,-0.331423282623291,0.9328432679176331,0.6056219339370728,0.6044315099716187,-0.36874157190322876,0.8643457293510437,0.3615741431713104,0.6036356091499329,-0.2886546850204468,0.9183329939842224,0.5271676778793335,0.6824629306793213,0.0028851069509983063,0.9988874197006226,0.46712660789489746,0.6871066689491272,-0.002617586636915803,0.9991424083709717,0.5854347348213196,0.6629158854484558,-0.30677530169487,0.9939020872116089,0.39785298705101013,0.6669531464576721,-0.3122836947441101,0.9949204921722412,0.5719791650772095,0.7969619035720825,-0.19266898930072784,0.9901332855224609,0.4192185401916504,0.794463574886322,-0.18346239626407623,0.9959894418716431,0.5621076226234436,0.8176122307777405,-0.18659071624279022,0.9805354475975037,0.4314083158969879,0.8146963119506836,-0.17586183547973633,0.9836940765380859,0.5970583558082581,0.8285991549491882,-0.2901819348335266,0.9810243844985962,0.38995715975761414,0.8271855115890503,-0.28623509407043457,0.9896250367164612
26,0.49838343262672424,0.4912205636501312,-0.18092215061187744,0.9999486804008484,0.5054134130477905,0.47522133588790894,-0.1659838855266571,0.9999029636383057,0.5088437795639038,0.4741503596305847,-0.16607271134853363,0.9998900890350342,0.5124661326408386,0.47284695506095886,-0.16620266437530518,0.9998753070831299,0.4937947690486908,0.4747105836868286,-0.16731205582618713,0.9999018907546997,0.48989138007164,0.47317326068878174,-0.16729748249053955,0.9998754858970642,0.4864432215690613,0.4713621735572815,-0.1672438383102417,0.9998648166656494,0.5185261964797974,0.46706485748291016,-0.05582980439066887,0.9998460412025452,0.4812697470188141,0.4644329845905304,-0.05963994190096855,0.999893307685852,0.5043401718139648,0.5012657046318054,-0.13743628561496735,0.9999598264694214,0.4909183979034424,0.5021302700042725,-0.1384502798318863,0.9999649524688721,0.5464780926704407,0.519189715385437,-0.0013863521162420511,0.9998341798782349,0.4477577209472656,0.518368124961853,-0.004485148936510086,0.9999212622642517,0.5805893540382385,0.57218998670578,-0.1387753188610077,0.9404434561729431,0.4002692699432373,0.5801101326942444,-0.10128019750118256,0.9500095844268799,0.6069062352180481,0.6066299676895142,-0.370417982339859,0.9220152497291565,0.365702748298645,0.605660080909729,-0.2861202359199524,0.9546926617622375,0.6256910562515259,0.6101773977279663,-0.41346150636672974,0.8882145881652832,0.3462373912334442,0.6105607748031616,-0.31932032108306885,0.9272716641426086,0.6177346110343933,0.60005122423172,-0.4179445207118988,0.8966330885887146,0.3505236506462097,0.6005703210830688,-0.334380179643631,0.9320212602615356,0.6076427102088928,0.5994977951049805,-0.3789055645465851,0.8652014136314392,0.360007107257843,0.5999249815940857,-0.29754307866096497,0.917086124420166,0.5275248289108276,0.6809404492378235,0.003153321798890829,0.9987910389900208,0.46710410714149475,0.6854603290557861,-0.002886866219341755,0.9990592002868652,0.5854336619377136,0.6627815365791321,-0.3069833517074585,0.993629515171051,0.3974727690219879,0.6673403382301331,-0.3122158348560333,0.994250476360321,0.5719838738441467,0.7969309687614441,-0.189981609582901,0.9893408417701721,0.4189743995666504,0.7944851517677307,-0.1807621270418167,0.9957167506217957,0.5621600151062012,0.8175326585769653,-0.183692067861557,0.9800057411193848,0.4313982427120209,0.8146848678588867,-0.17310920357704163,0.9835948944091797,0.5970172882080078,0.8284464478492737,-0.2875032424926758,0.9796165823936462,0.38917627930641174,0.8270657658576965,-0.2837168574333191,0.988993227481842
27,0.4982895851135254,0.48838919401168823,-0.1757405400276184,0.9999439120292664,0.5053961277008057,0.4724683463573456,-0.16008281707763672,0.9998942017555237,0.5088284015655518,0.47140058875083923,-0.16017630696296692,0.9998810887336731,0.512444257736206,0.47010496258735657,-0.16030696034431458,0.9998643398284912,0.4936290681362152,0.4720212519168854,-0.16140970587730408,0.99989253282547,0.4896770417690277,0.4704933762550354,-0.16139420866966248,0.9998641014099121,0.48616141080856323,0.4686862528324127,-0.16134116053581238,0.9998517632484436,0.5185105204582214,0.46456262469291687,-0.04880398139357567,0.9998342394828796,0.4810501039028168,0.4621569812297821,-0.052736908197402954,0.9998853206634521,0.5043335556983948,0.49855148792266846,-0.13210219144821167,0.9999558925628662,0.4907606244087219,0.49941331148147583,-0.13313321769237518,0.9999616146087646,0.5466057658195496,0.5177271366119385,0.00488253915682435,0.999826192855835,0.4475551247596741,0.5170415639877319,0.0018772410694509745,0.9999120831489563,0.5811896920204163,0.5715503692626953,-0.1351357102394104,0.9381574988365173,0.3995707035064697,0.578804612159729,-0.10150514543056488,0.9480478167533875,0.6084587574005127,0.6048489809036255,-0.3688984215259552,0.9210509061813354,0.364219069480896,0.6024338006973267,-0.2880111038684845,0.9536601901054382,0.6276657581329346,0.6086360812187195,-0.41177791357040405,0.8881953954696655,0.34478145837783813,0.6064796447753906,-0.3212784230709076,0.9261291027069092,0.6197489500045776,0.5978964567184448,-0.41525277495384216,0.8968600034713745,0.34846654534339905,0.5963723063468933,-0.33534619212150574,0.9309297204017639,0.609620988368988,0.5964205861091614,-0.37689486145973206,0.8656527996063232,0.35768210887908936,0.5962392687797546,-0.29942917823791504,0.915603756904602,0.5275675058364868,0.6791431307792664,0.0032943952828645706,0.9987198710441589,0.4670882225036621,0.6828739643096924,-0.003022239077836275,0.9989902377128601,0.5854396820068359,0.6629968881607056,-0.3095300793647766,0.9934582114219666,0.39739441871643066,0.6676242351531982,-0.3144584894180298,0.9937124848365784,0.5719000101089478,0.7972511053085327,-0.19470518827438354,0.9887824654579163,0.41883793473243713,0.7944891452789307,-0.18507036566734314,0.9954873323440552,0.5619896650314331,0.8178072571754456,-0.18905411660671234,0.9796996712684631,0.4313991069793701,0.8146856427192688,-0.17789240181446075,0.9835372567176819,0.596978485584259,0.8281768560409546,-0.29534295201301575,0.9785811305046082,0.3884812891483307,0.8270322680473328,-0.29079321026802063,0.9884465336799622
28,0.49751147627830505,0.48716750741004944,-0.19181311130523682,0.9999344348907471,0.5049141645431519,0.4713120460510254,-0.17660963535308838,0.9998757243156433,0.5084245800971985,0.47021570801734924,-0.17670585215091705,0.999859631061554,0.5119851231575012,0.4688740074634552,-0.17684629559516907,0.9998370409011841,0.4927329421043396,0.47086530923843384,-0.17777426540851593,0.9998762607574463,0.4888811707496643,0.4693235754966736,-0.17776912450790405,0.9998454451560974,0.48526889085769653,0.4674733281135559,-0.1777251660823822,0.9998312592506409,0.5178347826004028,0.4632405638694763,-0.06399103254079819,0.9998082518577576,0.4806661009788513,0.4608769714832306,-0.06663528829813004,0.9998750686645508,0.5039197206497192,0.4974759519100189,-0.14743457734584808,0.9999490976333618,0.49004238843917847,0.4982728660106659,-0.14830252528190613,0.9999576807022095,0.5464907884597778,0.5165486335754395,-0.004547781310975552,0.9998176693916321,0.44712305068969727,0.5154557824134827,-0.003143633482977748,0.9999070763587952,0.5822257995605469,0.5707668662071228,-0.14294949173927307,0.9363611936569214,0.39910730719566345,0.5779047012329102,-0.11507372558116913,0.9472482800483704,0.6091611385345459,0.6013968586921692,-0.3763015568256378,0.9183503985404968,0.3632335960865021,0.6012564897537231,-0.30621153116226196,0.9534497261047363,0.6277390718460083,0.6045604348182678,-0.42031168937683105,0.8856410980224609,0.34319940209388733,0.6059719324111938,-0.33993154764175415,0.9262090921401978,0.620132327079773,0.5946521759033203,-0.4257832467556,0.8946767449378967,0.3472896218299866,0.5957524180412292,-0.35776832699775696,0.931049108505249,0.6104320287704468,0.593271791934967,-0.3854202926158905,0.8631606101989746,0.356674462556839,0.5951842665672302,-0.31878164410591125,0.9153772592544556,0.527449905872345,0.6779273748397827,0.0032845952082425356,0.9986687898635864,0.4667302072048187,0.6812893748283386,-0.0030146439094096422,0.9989503622055054,0.5855185389518738,0.6638323068618774,-0.3131261169910431,0.9931867718696594,0.39665287733078003,0.6685241460800171,-0.3154359459877014,0.9932741522789001,0.5719064474105835,0.7974139451980591,-0.16922657191753387,0.9879686832427979,0.41878026723861694,0.794441819190979,-0.15584570169448853,0.9952205419540405,0.5620303153991699,0.8177401423454285,-0.15912750363349915,0.9789515137672424,0.43140068650245667,0.8145014047622681,-0.14432792365550995,0.9831291437149048,0.597108006477356,0.8279399871826172,-0.2629008889198303,0.9769457578659058,0.38832470774650574,0.8270184993743896,-0.2536272406578064,0.9875724911689758
29,0.4964142441749573,0.48637813329696655,-0.19716763496398926,0.9999194145202637,0.5040562748908997,0.4703594744205475,-0.182439386844635,0.9998469948768616,0.5077203512191772,0.46929022669792175,-0.18253502249717712,0.9998273849487305,0.5112096071243286,0.46802616119384766,-0.1826753169298172,0.9997961521148682,0.491627037525177,0.46996572613716125,-0.18331961333751678,0.9998480677604675,0.4878668189048767,0.4685320258140564,-0.18331557512283325,0.9998117685317993,0.48427194356918335,0.4668744206428528,-0.18327224254608154,0.9997929334640503,0.5172581672668457,0.4628683030605316,-0.0696437880396843,0.9997681975364685,0.48009759187698364,0.46069779992103577,-0.07176531106233597,0.9998528361320496,0.5031644701957703,0.4965524971485138,-0.15298250317573547,0.9999383687973022,0.48903578519821167,0.49751418828964233,-0.15346986055374146,0.999950110912323,0.5465162992477417,0.5162294507026672,-0.0061136833392083645,0.999808669090271,0.44671231508255005,0.514118492603302,-0.005358795635402203,0.9999005198478699,0.5829688310623169,0.5684188008308411,-0.14639322459697723,0.9337990283966064,0.39939144253730774,0.5771712064743042,-0.11764828860759735,0.9459845423698425,0.6095634698867798,0.5995883345603943,-0.3761322498321533,0.9148738384246826,0.3621302545070648,0.6009933948516846,-0.3069256842136383,0.9529289603233337,0.6276912689208984,0.6030673980712891,-0.4197933077812195,0.8823696970939636,0.34255558252334595,0.606334924697876,-0.340661883354187,0.9258942604064941,0.6207127571105957,0.5939645171165466,-0.4268828332424164,0.8918869495391846,0.34613925218582153,0.5958474278450012,-0.3601677715778351,0.9308079481124878,0.6113080382347107,0.5925257802009583,-0.385711133480072,0.8601258397102356,0.3550831377506256,0.595244288444519,-0.32007119059562683,0.9149593710899353,0.5273116230964661,0.6773186326026917,0.0034189242869615555,0.9986280202865601,0.46624502539634705,0.6809173226356506,-0.003147159470245242,0.9989153146743774,0.5857020020484924,0.6641632318496704,-0.3116205632686615,0.9929338693618774,0.39661604166030884,0.668397068977356,-0.3151276409626007,0.9928211569786072,0.5719534158706665,0.7973478436470032,-0.1547725349664688,0.9873256683349609,0.41868963837623596,0.7944201231002808,-0.14327560365200043,0.9949885606765747,0.5620265603065491,0.8175306916236877,-0.1440175473690033,0.9783008098602295,0.43129411339759827,0.8141383528709412,-0.13106031715869904,0.982722282409668,0.5976480841636658,0.8274464011192322,-0.24532146751880646,0.9753860235214233,0.3882615566253662,0.8270207047462463,-0.23911111056804657,0.98676997423172
30,0.49558934569358826,0.47855979204177856,-0.18579354882240295,0.9999176263809204,0.5029933452606201,0.4640774428844452,-0.1714901626110077,0.9998430609703064,0.5068857073783875,0.46310365200042725,-0.17158082127571106,0.9998219609260559,0.5102863907814026,0.4618598520755768,-0.171700581908226,0.999790370464325,0.4902915060520172,0.46277761459350586,-0.17182810604572296,0.9998440742492676,0.48647990822792053,0.46070659160614014,-0.17182782292366028,0.9998066425323486,0.483004093170166,0.45849111676216125,-0.17177891731262207,0.999787449836731,0.5169408321380615,0.45657527446746826,-0.06314333528280258,0.999761164188385,0.47957175970077515,0.4522152543067932,-0.06309595704078674,0.9998463988304138,0.5024234056472778,0.48855701088905334,-0.14316028356552124,0.9999336004257202,0.4880598187446594,0.4881511628627777,-0.14295946061611176,0.9999462962150574,0.5465322136878967,0.5111153721809387,-0.0032426887191832066,0.9998026490211487,0.44640642404556274,0.5059188604354858,-0.002335153054445982,0.9998945593833923,0.5831998586654663,0.5632975697517395,-0.11194181442260742,0.9321978092193604,0.399502694606781,0.5694058537483215,-0.09033817052841187,0.9444293975830078,0.6111295819282532,0.5995028018951416,-0.3226359784603119,0.9133875370025635,0.3626237213611603,0.5998334884643555,-0.27635684609413147,0.9532050490379333,0.6292699575424194,0.6033302545547485,-0.3629399240016937,0.8809835910797119,0.343272864818573,0.6064838767051697,-0.3088039755821228,0.9267173409461975,0.6246349215507507,0.5946441888809204,-0.37672358751296997,0.891046404838562,0.346301406621933,0.5969856977462769,-0.3317663371562958,0.9316959381103516,0.6155161261558533,0.5929049253463745,-0.3341875672340393,0.8601105213165283,0.35517844557762146,0.5961341857910156,-0.2907872498035431,0.9164028763771057,0.5272617936134338,0.6740649938583374,0.0034050375688821077,0.9986246824264526,0.46588557958602905,0.6753379106521606,-0.0031337656546384096,0.9989194869995117,0.5857499837875366,0.6645355224609375,-0.29723894596099854,0.9929350018501282,0.3967137038707733,0.6688967347145081,-0.3041532635688782,0.9928295016288757,0.5719588994979858,0.7970571517944336,-0.14156800508499146,0.9871742129325867,0.4186898171901703,0.7944223284721375,-0.13156317174434662,0.9949048161506653,0.5619926452636719,0.816400408744812,-0.13108088076114655,0.9782828688621521,0.4313327670097351,0.8138279318809509,-0.11947011947631836,0.982771635055542,0.5978696942329407,0.8270066380500793,-0.22741606831550598,0.974626362323761,0.38819319009780884,0.8270832300186157,-0.22203199565410614,0.9862504005432129
31,0.4951556622982025,0.4675111770629883,-0.17080847918987274,0.9999182224273682,0.5022537708282471,0.45297056436538696,-0.1563088744878769,0.999845564365387,0.5062576532363892,0.4517490565776825,-0.15639656782150269,0.9998226761817932,0.509619951248169,0.4504055678844452,-0.15649864077568054,0.9997936487197876,0.4896620810031891,0.4519338309764862,-0.15579502284526825,0.9998462796211243,0.4859001636505127,0.4499485194683075,-0.15581358969211578,0.9998076558113098,0.48246636986732483,0.4478161036968231,-0.1557771861553192,0.9997906684875488,0.5163989663124084,0.4453679621219635,-0.0471736416220665,0.9997648596763611,0.4794558882713318,0.44199666380882263,-0.04350271075963974,0.9998450875282288,0.5017982125282288,0.4773937463760376,-0.12795352935791016,0.9999322295188904,0.4877423346042633,0.4767686724662781,-0.1268589198589325,0.9999451041221619,0.546442985534668,0.5010343790054321,0.012308443896472454,0.99980229139328,0.4465246796607971,0.4947967529296875,0.019550440832972527,0.9998888969421387,0.5832954049110413,0.5558369755744934,-0.08613883703947067,0.9304971694946289,0.4001539647579193,0.5589044094085693,-0.05599355697631836,0.9428887367248535,0.6110242605209351,0.597700297832489,-0.2900612950325012,0.9130404591560364,0.3631128668785095,0.5964235663414001,-0.22975477576255798,0.9531840682029724,0.629242479801178,0.6038187146186829,-0.32872432470321655,0.8806368112564087,0.34374409914016724,0.6064741015434265,-0.25852930545806885,0.9266189336776733,0.6246727108955383,0.5957654714584351,-0.3446368873119354,0.8911943435668945,0.3466392457485199,0.5981578230857849,-0.2831721901893616,0.9318135380744934,0.6156193017959595,0.5935731530189514,-0.30167025327682495,0.8611049652099609,0.35565322637557983,0.596581220626831,-0.24404755234718323,0.9174444675445557,0.5271856784820557,0.6663530468940735,0.002461786847561598,0.9986487030982971,0.46586379408836365,0.6657338738441467,-0.002222004346549511,0.9989333748817444,0.5858953595161438,0.6643896698951721,-0.2932964563369751,0.9928076863288879,0.396777868270874,0.6685858964920044,-0.2987871766090393,0.9929239749908447,0.571886420249939,0.796888530254364,-0.1493951678276062,0.9867456555366516,0.4186932146549225,0.7944878339767456,-0.13626448810100555,0.9947541952133179,0.5618703365325928,0.8158627152442932,-0.14014562964439392,0.9778231382369995,0.4314374327659607,0.8138048648834229,-0.12469087541103363,0.9827271699905396,0.5986404418945312,0.826818585395813,-0.24220570921897888,0.9736746549606323,0.388052761554718,0.8271964192390442,-0.22819578647613525,0.9856676459312439
32,0.49459442496299744,0.455597847700119,-0.2192331999540329,0.9999223351478577,0.5015458464622498,0.438719242811203,-0.20482495427131653,0.9998526573181152,0.5056142210960388,0.4375559389591217,-0.20492318272590637,0.9998301267623901,0.5090004205703735,0.43618932366371155,-0.20503243803977966,0.999803900718689,0.4890930652618408,0.43770915269851685,-0.20266780257225037,0.9998522996902466,0.4853735864162445,0.43578681349754333,-0.20269683003425598,0.9998140335083008,0.48209208250045776,0.433847039937973,-0.2026815116405487,0.9997977018356323,0.5156320333480835,0.4312143325805664,-0.09071902930736542,0.9997758269309998,0.4793492257595062,0.4282037317752838,-0.07972341775894165,0.9998473525047302,0.5013341307640076,0.46472156047821045,-0.1742289513349533,0.999935507774353,0.4874335825443268,0.46419963240623474,-0.17122285068035126,0.9999471306800842,0.5464879274368286,0.49001389741897583,-0.019593773409724236,0.9998127222061157,0.446336030960083,0.48219144344329834,-0.00508546270430088,0.9998892545700073,0.5863670110702515,0.5521448254585266,-0.10886938869953156,0.9347634315490723,0.40039491653442383,0.5500898957252502,-0.07122685760259628,0.9438156485557556,0.6118171811103821,0.5978235006332397,-0.3173770308494568,0.9180474281311035,0.36336344480514526,0.5951203107833862,-0.2550482153892517,0.9534413814544678,0.6294478178024292,0.6098734140396118,-0.3579750955104828,0.8863086104393005,0.3441166281700134,0.6067283749580383,-0.286671906709671,0.926555871963501,0.6241852641105652,0.6038332581520081,-0.37349438667297363,0.896615207195282,0.34716880321502686,0.603422224521637,-0.3213646411895752,0.931881308555603,0.6155611276626587,0.59866863489151,-0.3288423418998718,0.8677379488945007,0.35618093609809875,0.6006506681442261,-0.274140864610672,0.918068528175354,0.526992917060852,0.6552068591117859,0.0023178993724286556,0.9987072944641113,0.4658103585243225,0.6546574234962463,-0.0020974487997591496,0.9989773631095886,0.5863529443740845,0.6629999279975891,-0.3016965985298157,0.992767870426178,0.39691585302352905,0.668221652507782,-0.31310051679611206,0.993009090423584,0.5718750953674316,0.7965325117111206,-0.1484229862689972,0.9863132238388062,0.418750137090683,0.7945542931556702,-0.1398504078388214,0.9945910573005676,0.5616244673728943,0.8149267435073853,-0.13786175847053528,0.9773483276367188,0.43143534660339355,0.8137432932853699,-0.12712742388248444,0.9824525117874146,0.5986627340316772,0.8267520666122437,-0.24652941524982452,0.9728572964668274,0.38823339343070984,0.8278205990791321,-0.23922774195671082,0.9851644039154053
33,0.49396640062332153,0.4406374990940094,-0.3230437636375427,0.9999290704727173,0.5010183453559875,0.4210244417190552,-0.30783647298812866,0.9998650550842285,0.5052384734153748,0.4197813868522644,-0.30792009830474854,0.9998443126678467,0.5086966156959534,0.41848787665367126,-0.30807584524154663,0.9998208284378052,0.48835816979408264,0.42021307349205017,-0.30658024549484253,0.9998646974563599,0.48466581106185913,0.41846877336502075,-0.30662399530410767,0.9998296499252319,0.4815540909767151,0.4168497622013092,-0.3066018521785736,0.9998148083686829,0.5151864290237427,0.41466280817985535,-0.18684153258800507,0.9997949600219727,0.4789044260978699,0.4121043384075165,-0.1798437237739563,0.9998599886894226,0.5009763836860657,0.45008039474487305,-0.27492061257362366,0.9999408721923828,0.48719510436058044,0.450133353471756,-0.2729117274284363,0.9999514222145081,0.5471392869949341,0.47540727257728577,-0.10180415958166122,0.9998273253440857,0.445689857006073,0.47028398513793945,-0.09280813485383987,0.9998955130577087,0.5931465029716492,0.5500144362449646,-0.15836887061595917,0.9404531717300415,0.3984197974205017,0.5455586910247803,-0.132253959774971,0.9473422765731812,0.6149560809135437,0.6033260226249695,-0.32445788383483887,0.9228519797325134,0.360909640789032,0.5998518466949463,-0.30045050382614136,0.9535201191902161,0.6295199394226074,0.624786376953125,-0.3635956346988678,0.8903896808624268,0.34395939111709595,0.615738570690155,-0.334648072719574,0.9253469109535217,0.623566210269928,0.6224046945571899,-0.3963128626346588,0.9004625082015991,0.3473880887031555,0.6170111894607544,-0.3662724494934082,0.9307411313056946,0.6161367893218994,0.6154934763908386,-0.3422812521457672,0.8719317317008972,0.3558656871318817,0.6130225658416748,-0.3175815939903259,0.9164050817489624,0.526699423789978,0.6390275359153748,0.0018788495799526572,0.998773455619812,0.46560072898864746,0.6366294622421265,-0.001697939122095704,0.9990414381027222,0.5868949294090271,0.6589652299880981,-0.3240312933921814,0.9928504824638367,0.3970814645290375,0.6654946208000183,-0.32262855768203735,0.9932951331138611,0.571881890296936,0.7948490977287292,-0.13207894563674927,0.9862704873085022,0.4188753664493561,0.7947231531143188,-0.11798348277807236,0.9946008324623108,0.5614475607872009,0.813401997089386,-0.1183723583817482,0.9770969748497009,0.43141984939575195,0.8134864568710327,-0.1028948575258255,0.98223876953125,0.598605751991272,0.8267278671264648,-0.2345946729183197,0.9723271131515503,0.38820427656173706,0.8285703063011169,-0.22134220600128174,0.9848076701164246
34,0.49407830834388733,0.4240930378437042,-0.44098353385925293,0.9999348521232605,0.5010720491409302,0.4043245315551758,-0.423705518245697,0.999875545501709,0.5052313208580017,0.402974933385849,-0.42378416657447815,0.9998556971549988,0.5086038708686829,0.4016038775444031,-0.42397207021713257,0.9998355507850647,0.4883970618247986,0.40392911434173584,-0.4241737723350525,0.9998753666877747,0.48471102118492126,0.4022614657878876,-0.42422929406166077,0.999842643737793,0.4816296100616455,0.400569885969162,-0.424206405878067,0.9998298287391663,0.5140321850776672,0.39765045046806335,-0.2928257882595062,0.9998106360435486,0.47867703437805176,0.39619338512420654,-0.29378512501716614,0.9998694062232971,0.5009421110153198,0.43267345428466797,-0.3893722891807556,0.9999452233314514,0.4872914254665375,0.43351608514785767,-0.3895348608493805,0.9999548196792603,0.5470364093780518,0.4591335654258728,-0.19498179852962494,0.9998417496681213,0.44481196999549866,0.45735517144203186,-0.18615320324897766,0.9999004602432251,0.5955966711044312,0.541294276714325,-0.203811377286911,0.9461802244186401,0.39758557081222534,0.5377004146575928,-0.18610696494579315,0.9513119459152222,0.6159547567367554,0.6108944416046143,-0.3307524621486664,0.9289430379867554,0.3613261580467224,0.6047960519790649,-0.31069937348365784,0.9532540440559387,0.6291407346725464,0.6368739604949951,-0.37000685930252075,0.8966173529624939,0.34432700276374817,0.6255312561988831,-0.34391921758651733,0.9224909543991089,0.6231251955032349,0.6375099420547485,-0.3977331221103668,0.906217098236084,0.34848666191101074,0.6291584372520447,-0.38048985600471497,0.927868127822876,0.6155409216880798,0.6284772753715515,-0.34570997953414917,0.8791136145591736,0.35616451501846313,0.6239902377128601,-0.32872825860977173,0.9128226637840271,0.5240541696548462,0.6207424402236938,0.0007514239405281842,0.9988471865653992,0.46302929520606995,0.6174907684326172,-0.0006491628591902554,0.9991064071655273,0.5872540473937988,0.6528069972991943,-0.32123714685440063,0.9925199747085571,0.39740514755249023,0.664969265460968,-0.3207159638404846,0.9934743642807007,0.5718587636947632,0.7931970953941345,-0.1125115156173706,0.986248254776001,0.4188937544822693,0.7955309152603149,-0.10134093463420868,0.9946606755256653,0.5615032911300659,0.8128542304039001,-0.09835611283779144,0.9767562747001648,0.43110498785972595,0.8137935996055603,-0.08571711927652359,0.9818743467330933,0.600055992603302,0.8264933824539185,-0.22310161590576172,0.9719673991203308,0.3883630037307739,0.830328106880188,-0.21152743697166443,0.9846328496932983
35,0.49369144439697266,0.4046522378921509,-0.4890412390232086,0.9999403357505798,0.5006395578384399,0.38487106561660767,-0.4720747470855713,0.9998855590820312,0.5047527551651001,0.3838159441947937,-0.47213467955589294,0.9998664855957031,0.5080583691596985,0.38274556398391724,-0.47232621908187866,0.9998491406440735,0.48810261487960815,0.3838599622249603,-0.47160202264785767,0.9998857378959656,0.4844333529472351,0.38205254077911377,-0.4716678559780121,0.9998554587364197,0.48141226172447205,0.3804585635662079,-0.4716537892818451,0.999844491481781,0.5132914781570435,0.37951162457466125,-0.34256383776664734,0.9998252987861633,0.47845959663391113,0.37710294127464294,-0.3395484387874603,0.9998794198036194,0.5002442598342896,0.41402775049209595,-0.4382254183292389,0.9999494552612305,0.48712754249572754,0.4142986834049225,-0.43720459938049316,0.999958336353302,0.5468229055404663,0.44187578558921814,-0.2413828819990158,0.9998540282249451,0.44396209716796875,0.4422840476036072,-0.22817759215831757,0.9999074339866638,0.5947385430335999,0.527137815952301,-0.24910318851470947,0.9512577652931213,0.3975711166858673,0.5307544469833374,-0.2259606420993805,0.9550597667694092,0.6146295666694641,0.6106124520301819,-0.36342763900756836,0.9327883124351501,0.36281147599220276,0.6056133508682251,-0.34283989667892456,0.9530661106109619,0.6250560283660889,0.6367336511611938,-0.4000742435455322,0.8984814882278442,0.34737470746040344,0.6270703077316284,-0.37577444314956665,0.9200873970985413,0.619470477104187,0.6373158693313599,-0.42925524711608887,0.9079129695892334,0.3541131019592285,0.6306765079498291,-0.41177529096603394,0.9253295660018921,0.6130766868591309,0.6275730133056641,-0.3782506287097931,0.8814768195152283,0.3612571060657501,0.6237288117408752,-0.360246479511261,0.9098698496818542,0.5226999521255493,0.5970646142959595,0.0002805575495585799,0.9989240765571594,0.4615270495414734,0.5950039625167847,-0.0002441166143398732,0.999174177646637,0.5885478258132935,0.6512397527694702,-0.31895187497138977,0.9912837743759155,0.397612988948822,0.6643365025520325,-0.31037476658821106,0.9934252500534058,0.5721985697746277,0.7918094396591187,-0.08538507670164108,0.985450267791748,0.41858047246932983,0.7938041687011719,-0.07136164605617523,0.9945471882820129,0.5615026354789734,0.8125791549682617,-0.06946873664855957,0.9750764966011047,0.430767685174942,0.8134766221046448,-0.05429748445749283,0.9810032248497009,0.6000149250030518,0.8268245458602905,-0.19536690413951874,0.9696411490440369,0.3883136212825775,0.8302859663963318,-0.1798761934041977,0.9837630391120911
36,0.49348512291908264,0.40546342730522156,-0.5455855131149292,0.9999459981918335,0.5000635385513306,0.39002615213394165,-0.5303094983100891,0.9998961687088013,0.5040381550788879,0.38904905319213867,-0.5303620100021362,0.9998785853385925,0.5073469877243042,0.3877476453781128,-0.5305541753768921,0.9998630881309509,0.4879468083381653,0.38821810483932495,-0.5293276906013489,0.9998964071273804,0.48430174589157104,0.38602855801582336,-0.5294049382209778,0.9998688697814941,0.4812355935573578,0.3837820291519165,-0.5293823480606079,0.9998590350151062,0.5127065777778625,0.3821713328361511,-0.39880937337875366,0.9998410940170288,0.47810930013656616,0.37907031178474426,-0.3940814435482025,0.9998902082443237,0.4997684955596924,0.4150485098361969,-0.4929559826850891,0.999954104423523,0.48690199851989746,0.41410812735557556,-0.49143439531326294,0.9999621510505676,0.546457827091217,0.4401693046092987,-0.28627634048461914,0.9998676776885986,0.4436430335044861,0.43999412655830383,-0.2716294825077057,0.9999155402183533,0.5940899848937988,0.5228922367095947,-0.2956157624721527,0.9560297727584839,0.3962712287902832,0.5314441919326782,-0.2691677212715149,0.9587379097938538,0.6141465902328491,0.6102975606918335,-0.4119776785373688,0.9386141300201416,0.36304911971092224,0.6063727140426636,-0.38695386052131653,0.9549529552459717,0.6245745420455933,0.6382790803909302,-0.4498516619205475,0.9058615565299988,0.3489550054073334,0.6304381489753723,-0.42122024297714233,0.9218202233314514,0.6182085275650024,0.6383885741233826,-0.4788846969604492,0.9146429300308228,0.35527709126472473,0.6331424117088318,-0.4590359628200531,0.9268023371696472,0.6127461194992065,0.6296985149383545,-0.4266093671321869,0.8899239301681519,0.3620052635669708,0.6263141632080078,-0.4049127697944641,0.9114328026771545,0.5224982500076294,0.5921306014060974,-7.367249781964347e-05,0.999017059803009,0.461189329624176,0.591647744178772,7.571304013254121e-05,0.9992471933364868,0.5886188745498657,0.6521036624908447,-0.3159688711166382,0.9902058243751526,0.3989914059638977,0.6624817252159119,-0.3156501352787018,0.9932984709739685,0.572253942489624,0.7909543514251709,-0.07631492614746094,0.9850727915763855,0.41858309507369995,0.7939018607139587,-0.06954053789377213,0.994597852230072,0.5616270303726196,0.8125894665718079,-0.06081639975309372,0.9741813540458679,0.4300839900970459,0.8135385513305664,-0.05174928158521652,0.980731189250946,0.6008577942848206,0.8270042538642883,-0.19340935349464417,0.968447744846344,0.3883538842201233,0.8303326964378357,-0.1849997490644455,0.9835867285728455
37,0.4928174614906311,0.38906392455101013,-0.6064776182174683,0.9999511241912842,0.49927791953086853,0.3744997978210449,-0.5916144251823425,0.9999057650566101,0.5032010078430176,0.37358081340789795,-0.5916733145713806,0.9998894333839417,0.506470799446106,0.3725219964981079,-0.5918854475021362,0.9998756051063538,0.4874444901943207,0.3732379674911499,-0.589611828327179,0.9999060034751892,0.48376792669296265,0.3712019920349121,-0.5896978974342346,0.9998809695243835,0.48072147369384766,0.3690263032913208,-0.5896915793418884,0.9998721480369568,0.5121086835861206,0.36697623133659363,-0.4537981450557709,0.9998553991317749,0.4776734411716461,0.3630329966545105,-0.4446168541908264,0.9999001026153564,0.4990907311439514,0.39772647619247437,-0.5507845282554626,0.9999583959579468,0.48658889532089233,0.39687493443489075,-0.5480361580848694,0.9999656677246094,0.5466903448104858,0.42476359009742737,-0.32757076621055603,0.9998799562454224,0.44362980127334595,0.42334553599357605,-0.308651328086853,0.9999231696128845,0.593843936920166,0.5160729289054871,-0.33710381388664246,0.960298478603363,0.3965892195701599,0.5204954147338867,-0.30279025435447693,0.9622206687927246,0.6127839088439941,0.6098681688308716,-0.4543842375278473,0.9432991743087769,0.3674086630344391,0.6062234044075012,-0.4224676489830017,0.9562973976135254,0.6203454732894897,0.6382620334625244,-0.49527645111083984,0.9111904501914978,0.35483789443969727,0.6311033964157104,-0.4587860107421875,0.9228147864341736,0.6136730909347534,0.6365867853164673,-0.5244297385215759,0.9193705320358276,0.36198514699935913,0.6332119107246399,-0.4970649182796478,0.9274731874465942,0.6092185974121094,0.6281697154045105,-0.4687853753566742,0.8955667018890381,0.36769434809684753,0.6257498264312744,-0.44040846824645996,0.9119789600372314,0.5226317644119263,0.5760669708251953,-0.00011441237438702956,0.9990990161895752,0.46125689148902893,0.5768852233886719,0.00011174824612680823,0.9993107318878174,0.5884018540382385,0.6509597301483154,-0.3295589089393616,0.988777756690979,0.400385320186615,0.6617124080657959,-0.3258458971977234,0.9930025339126587,0.5724638104438782,0.790985643863678,-0.07402671873569489,0.9842270612716675,0.4183650016784668,0.7938989996910095,-0.06334428489208221,0.9945453405380249,0.5622684955596924,0.8126155734062195,-0.056969691067934036,0.9728326797485352,0.4292750358581543,0.8136517405509949,-0.044746655970811844,0.9800707697868347,0.600807785987854,0.8272796869277954,-0.19751150906085968,0.9661622047424316,0.3883121609687805,0.8303089141845703,-0.18764154613018036,0.9829088449478149
