frame,NOSE.x,NOSE.y,NOSE.z,NOSE.v,LEFT_EYE_INNER.x,LEFT_EYE_INNER.y,LEFT_EYE_INNER.z,LEFT_EYE_INNER.v,LEFT_EYE.x,LEFT_EYE.y,LEFT_EYE.z,LEFT_EYE.v,LEFT_EYE_OUTER.x,LEFT_EYE_OUTER.y,LEFT_EYE_OUTER.z,LEFT_EYE_OUTER.v,RIGHT_EYE_INNER.x,RIGHT_EYE_INNER.y,RIGHT_EYE_INNER.z,RIGHT_EYE_INNER.v,RIGHT_EYE.x,RIGHT_EYE.y,RIGHT_EYE.z,RIGHT_EYE.v,RIGHT_EYE_OUTER.x,RIGHT_EYE_OUTER.y,RIGHT_EYE_OUTER.z,RIGHT_EYE_OUTER.v,LEFT_EAR.x,LEFT_EAR.y,LEFT_EAR.z,LEFT_EAR.v,RIGHT_EAR.x,RIGHT_EAR.y,RIGHT_EAR.z,RIGHT_EAR.v,MOUTH_LEFT.x,MOUTH_LEFT.y,MOUTH_LEFT.z,MOUTH_LEFT.v,MOUTH_RIGHT.x,MOUTH_RIGHT.y,MOUTH_RIGHT.z,MOUTH_RIGHT.v,LEFT_SHOULDER.x,LEFT_SHOULDER.y,LEFT_SHOULDER.z,LEFT_SHOULDER.v,RIGHT_SHOULDER.x,RIGHT_SHOULDER.y,RIGHT_SHOULDER.z,RIGHT_SHOULDER.v,LEFT_ELBOW.x,LEFT_ELBOW.y,LEFT_ELBOW.z,LEFT_ELBOW.v,RIGHT_ELBOW.x,RIGHT_ELBOW.y,RIGHT_ELBOW.z,RIGHT_ELBOW.v,LEFT_WRIST.x,LEFT_WRIST.y,LEFT_WRIST.z,LEFT_WRIST.v,RIGHT_WRIST.x,RIGHT_WRIST.y,RIGHT_WRIST.z,RIGHT_WRIST.v,LEFT_PINKY.x,LEFT_PINKY.y,LEFT_PINKY.z,LEFT_PINKY.v,RIGHT_PINKY.x,RIGHT_PINKY.y,RIGHT_PINKY.z,RIGHT_PINKY.v,LEFT_INDEX.x,LEFT_INDEX.y,LEFT_INDEX.z,LEFT_INDEX.v,RIGHT_INDEX.x,RIGHT_INDEX.y,RIGHT_INDEX.z,RIGHT_INDEX.v,LEFT_THUMB.x,LEFT_THUMB.y,LEFT_THUMB.z,LEFT_THUMB.v,RIGHT_THUMB.x,RIGHT_THUMB.y,RIGHT_THUMB.z,RIGHT_THUMB.v,LEFT_HIP.x,LEFT_HIP.y,LEFT_HIP.z,LEFT_HIP.v,RIGHT_HIP.x,RIGHT_HIP.y,RIGHT_HIP.z,RIGHT_HIP.v,LEFT_KNEE.x,LEFT_KNEE.y,LEFT_KNEE.z,LEFT_KNEE.v,RIGHT_KNEE.x,RIGHT_KNEE.y,RIGHT_KNEE.z,RIGHT_KNEE.v,LEFT_ANKLE.x,LEFT_ANKLE.y,LEFT_ANKLE.z,LEFT_ANKLE.v,RIGHT_ANKLE.x,RIGHT_ANKLE.y,RIGHT_ANKLE.z,RIGHT_ANKLE.v,LEFT_HEEL.x,LEFT_HEEL.y,LEFT_HEEL.z,LEFT_HEEL.v,RIGHT_HEEL.x,RIGHT_HEEL.y,RIGHT_HEEL.z,RIGHT_HEEL.v,LEFT_FOOT_INDEX.x,LEFT_FOOT_INDEX.y,LEFT_FOOT_INDEX.z,LEFT_FOOT_INDEX.v,RIGHT_FOOT_INDEX.x,RIGHT_FOOT_INDEX.y,RIGHT_FOOT_INDEX.z,RIGHT_FOOT_INDEX.v
0,0.33781740069389343,0.5358086824417114,-0.24691395461559296,0.9999226331710815,0.3391679525375366,0.525051474571228,-0.22745177149772644,0.9998964071273804,0.34115344285964966,0.5244892835617065,-0.22751004993915558,0.9998902082443237,0.34310925006866455,0.5238119959831238,-0.22762222588062286,0.9998941421508789,0.3325650691986084,0.5259456634521484,-0.23109190165996552,0.9998410940170288,0.3298824727535248,0.526037335395813,-0.2310982048511505,0.9997979998588562,0.32731661200523376,0.5260502099990845,-0.23107130825519562,0.999771773815155,0.34358465671539307,0.5232190489768982,-0.11703212559223175,0.9999032020568848,0.3200933337211609,0.5266916155815125,-0.13111050426959991,0.999876856803894,0.34162256121635437,0.5443230271339417,-0.2046995460987091,0.9998875856399536,0.3332898020744324,0.5454915761947632,-0.20874497294425964,0.9998670816421509,0.369820237159729,0.5572948455810547,-0.07597635686397552,0.9997255206108093,0.2951698303222656,0.5685261487960815,-0.11712045967578888,0.9988138675689697,0.4125509262084961,0.5526164770126343,-0.2270936667919159,0.9877098798751831,0.27468493580818176,0.5884938836097717,-0.30737313628196716,0.988990306854248,0.43400511145591736,0.5164782404899597,-0.4123813509941101,0.9874594211578369,0.3003414273262024,0.541968584060669,-0.48121920228004456,0.9740327596664429,0.44690990447998047,0.5033221244812012,-0.4542737603187561,0.9684240221977234,0.30812695622444153,0.5306710004806519,-0.5228692889213562,0.9202302098274231,0.4411982595920563,0.49748343229293823,-0.4526444375514984,0.9690691828727722,0.3164052665233612,0.5207481980323792,-0.5075279474258423,0.9081951379776001,0.4351075291633606,0.5030117034912109,-0.41963139176368713,0.9600951075553894,0.3098651170730591,0.5345014929771423,-0.48134082555770874,0.8682028651237488,0.3589778542518616,0.7058797478675842,0.008780078962445259,0.9997712969779968,0.31069421768188477,0.7084810137748718,-0.008609148673713207,0.9996930360794067,0.4132164418697357,0.701461136341095,-0.2941468060016632,0.9895777702331543,0.27479782700538635,0.7150269746780396,-0.32346677780151367,0.995242714881897,0.38885197043418884,0.7893038392066956,-0.12455733120441437,0.9639814496040344,0.2905332148075104,0.7924062013626099,-0.12997311353683472,0.9731407761573792,0.37744203209877014,0.8030680418014526,-0.11203505098819733,0.9366552829742432,0.3013761639595032,0.8083272576332092,-0.11407240480184555,0.9263042211532593,0.412791907787323,0.8177804946899414,-0.20623353123664856,0.944693386554718,0.28215017914772034,0.8283683657646179,-0.20448347926139832,0.9530194997787476
1,0.33747199177742004,0.5338035821914673,-0.18606352806091309,0.9999217391014099,0.339252769947052,0.5222498178482056,-0.16889633238315582,0.9998942017555237,0.34131601452827454,0.5213639140129089,-0.1689436137676239,0.9998872876167297,0.34333157539367676,0.5204766988754272,-0.16905933618545532,0.999891459941864,0.3323935568332672,0.5234576463699341,-0.17224782705307007,0.9998385906219482,0.32951289415359497,0.5234331488609314,-0.17222243547439575,0.9997937679290771,0.32665979862213135,0.523476243019104,-0.17218974232673645,0.9997686743736267,0.3446086049079895,0.5196071267127991,-0.06984701752662659,0.9999021887779236,0.319945752620697,0.5236952304840088,-0.08256001770496368,0.9998764991760254,0.34154924750328064,0.5423600077629089,-0.14789004623889923,0.9998880624771118,0.33279794454574585,0.5439950823783875,-0.15151387453079224,0.9998680949211121,0.3698030114173889,0.5518757104873657,-0.035403940826654434,0.9997292160987854,0.2955467998981476,0.5660750269889832,-0.07247761636972427,0.9988307356834412,0.41093549132347107,0.5521597266197205,-0.18722955882549286,0.9877418279647827,0.2776001989841461,0.5885212421417236,-0.249360129237175,0.9884368777275085,0.43293625116348267,0.524142324924469,-0.367387980222702,0.987331748008728,0.29638558626174927,0.5472373962402344,-0.41793641448020935,0.9733455181121826,0.44621214270591736,0.5113953351974487,-0.40607723593711853,0.9679842591285706,0.30231761932373047,0.538242518901825,-0.45477327704429626,0.9193035960197449,0.4396805167198181,0.5076777338981628,-0.40151247382164,0.9685721397399902,0.3089607357978821,0.5370191335678101,-0.442171573638916,0.9074422121047974,0.43385210633277893,0.5130468010902405,-0.3730325698852539,0.9597095251083374,0.3080032467842102,0.5415052175521851,-0.4186147153377533,0.8681886792182922,0.35898253321647644,0.7006968855857849,0.007415762636810541,0.999740481376648,0.31072768568992615,0.7017138600349426,-0.007220891769975424,0.999661922454834,0.4094487726688385,0.7035823464393616,-0.27809521555900574,0.9888966679573059,0.27411866188049316,0.7150190472602844,-0.2799723744392395,0.9948555827140808,0.3851792812347412,0.7889219522476196,-0.10802439600229263,0.9591392278671265,0.2902197241783142,0.7920451760292053,-0.10136326402425766,0.9719609618186951,0.369863897562027,0.7986224293708801,-0.09519267827272415,0.9303542971611023,0.30016234517097473,0.8045225739479065,-0.08724037557840347,0.9252873063087463,0.4024246633052826,0.8155797123908997,-0.18156084418296814,0.9378021359443665,0.28018370270729065,0.8282182216644287,-0.17388440668582916,0.9504351615905762
2,0.3377077877521515,0.5223308205604553,-0.15550276637077332,0.9999271035194397,0.3399074673652649,0.5119461417198181,-0.13738641142845154,0.9998999238014221,0.34211796522140503,0.5113228559494019,-0.13740357756614685,0.9998927116394043,0.3443641662597656,0.5107280611991882,-0.13749560713768005,0.999896228313446,0.33253544569015503,0.5121122002601624,-0.1415303647518158,0.9998494982719421,0.32955044507980347,0.5116267800331116,-0.1415073424577713,0.9998080730438232,0.32666581869125366,0.5113817453384399,-0.14148882031440735,0.9997852444648743,0.3463376462459564,0.5115031003952026,-0.042242277413606644,0.9999070167541504,0.3199455142021179,0.5139161944389343,-0.06037098914384842,0.9998857975006104,0.3417709469795227,0.5322728157043457,-0.11967374384403229,0.9998940229415894,0.3328027129173279,0.5322944521903992,-0.12483993917703629,0.9998767971992493,0.369804322719574,0.5456790328025818,-0.012117141857743263,0.9997386336326599,0.29560762643814087,0.5562398433685303,-0.0557808056473732,0.9989104270935059,0.41098493337631226,0.5464594960212708,-0.13086125254631042,0.9879301190376282,0.27027004957199097,0.5795161128044128,-0.22722788155078888,0.9889208674430847,0.43790706992149353,0.5239077210426331,-0.2863885760307312,0.987680971622467,0.28910955786705017,0.5500017404556274,-0.3954249620437622,0.9748055338859558,0.45469292998313904,0.5104987025260925,-0.31861305236816406,0.9685966372489929,0.2919994294643402,0.5433729887008667,-0.4294467568397522,0.923691987991333,0.4502814710140228,0.5065094828605652,-0.317992627620697,0.9692662358283997,0.2999601662158966,0.5449110269546509,-0.41733336448669434,0.9127554297447205,0.443031370639801,0.5115602612495422,-0.2930935323238373,0.9611386060714722,0.3023189306259155,0.5483615398406982,-0.3958585858345032,0.8764129281044006,0.3593469560146332,0.6920467615127563,0.007121453993022442,0.9997040629386902,0.31074193120002747,0.6913384199142456,-0.006936508230865002,0.9996301531791687,0.4028621315956116,0.71229088306427,-0.25752443075180054,0.9836615324020386,0.27406322956085205,0.7157304883003235,-0.2392275333404541,0.9927244186401367,0.38193896412849426,0.7897611856460571,-0.06495486199855804,0.9310469627380371,0.28857195377349854,0.7910643815994263,-0.0487256720662117,0.9616789817810059,0.3707396686077118,0.7988119125366211,-0.04904849827289581,0.9049620032310486,0.2976781129837036,0.8014730215072632,-0.032746899873018265,0.9127833247184753,0.39710354804992676,0.8185539841651917,-0.12003431469202042,0.9058998823165894,0.27763164043426514,0.8278347253799438,-0.10581153631210327,0.9322682023048401
3,0.33624425530433655,0.4927784502506256,-0.20677289366722107,0.9999339580535889,0.3397231101989746,0.48092949390411377,-0.1953805834054947,0.9999089241027832,0.3420678973197937,0.48037561774253845,-0.19535115361213684,0.9999021887779236,0.34435516595840454,0.4799014925956726,-0.19545093178749084,0.9999052882194519,0.33086517453193665,0.48085543513298035,-0.1930023431777954,0.9998633861541748,0.3275415301322937,0.48042601346969604,-0.19293679296970367,0.9998257160186768,0.32459333539009094,0.4801098704338074,-0.19289284944534302,0.9998050928115845,0.34762030839920044,0.48002853989601135,-0.09940876066684723,0.9999154806137085,0.319644570350647,0.4810739755630493,-0.0895368680357933,0.9998966455459595,0.3414495587348938,0.5030611157417297,-0.1701708287000656,0.9999041557312012,0.33129826188087463,0.5036790370941162,-0.16578270494937897,0.9998887777328491,0.37110453844070435,0.5188125967979431,-0.02384406141936779,0.9997622966766357,0.29650628566741943,0.5203427076339722,-0.07784967869520187,0.9990165829658508,0.41257238388061523,0.5351041555404663,-0.15622568130493164,0.9888271689414978,0.27172940969467163,0.5429746508598328,-0.23549969494342804,0.9896863698959351,0.4441432058811188,0.5278527140617371,-0.3383222222328186,0.988598108291626,0.2854399085044861,0.5558198690414429,-0.4264196455478668,0.9768218994140625,0.46070122718811035,0.5247219204902649,-0.3796074688434601,0.9709582924842834,0.28446322679519653,0.5653619170188904,-0.466909259557724,0.9300198554992676,0.4561147093772888,0.5234655141830444,-0.38268324732780457,0.971632182598114,0.296185702085495,0.5672715902328491,-0.4414127767086029,0.9201624989509583,0.44839033484458923,0.5257415175437927,-0.3477678894996643,0.9641643166542053,0.2997303307056427,0.5652948021888733,-0.4291745126247406,0.8870103359222412,0.35743051767349243,0.6539047956466675,0.008298886939883232,0.9997017979621887,0.3084034323692322,0.651279628276825,-0.008109106682240963,0.9996430277824402,0.40399497747421265,0.7019331455230713,-0.24481579661369324,0.9835489988327026,0.27378395199775696,0.7144173383712769,-0.25900715589523315,0.9927195310592651,0.37965404987335205,0.7782671451568604,-0.028149208053946495,0.9243374466896057,0.28678134083747864,0.7909994125366211,-0.06228961423039436,0.9609276056289673,0.36774569749832153,0.7880015969276428,-0.010722819715738297,0.8935560584068298,0.29384180903434753,0.8012405633926392,-0.04675509035587311,0.9044433236122131,0.3991273045539856,0.8119116425514221,-0.08915303647518158,0.8906636834144592,0.2754247486591339,0.8279325366020203,-0.13799139857292175,0.9268643856048584
4,0.33591389656066895,0.469087153673172,-0.25127753615379333,0.9999404549598694,0.33967459201812744,0.4568956196308136,-0.23471775650978088,0.9999175667762756,0.3420630991458893,0.45638152956962585,-0.2347465306520462,0.9999114871025085,0.3443458676338196,0.45601463317871094,-0.23485226929187775,0.9999141097068787,0.3302549123764038,0.457182377576828,-0.23503534495830536,0.9998764991760254,0.3268353343009949,0.45700305700302124,-0.2350325882434845,0.999842643737793,0.32373157143592834,0.456994891166687,-0.2349901646375656,0.999823808670044,0.34781378507614136,0.45732933282852173,-0.12873947620391846,0.9999236464500427,0.3192315995693207,0.458484947681427,-0.12923653423786163,0.9999067783355713,0.3414289355278015,0.4799557030200958,-0.21112270653247833,0.9999136328697205,0.3307608366012573,0.48141875863075256,-0.21112379431724548,0.9998998045921326,0.3712945580482483,0.5035792589187622,-0.04758274555206299,0.9997852444648743,0.29649099707603455,0.5037520527839661,-0.08122649043798447,0.9991135001182556,0.4143124520778656,0.526839554309845,-0.13947294652462006,0.9897828698158264,0.2734798789024353,0.5355998277664185,-0.23306556046009064,0.9905189871788025,0.4533468782901764,0.5294743776321411,-0.323906809091568,0.9895651936531067,0.27999022603034973,0.5668143630027771,-0.43457499146461487,0.9787482619285583,0.4705306887626648,0.5340346693992615,-0.36613577604293823,0.9734442234039307,0.2770703434944153,0.5840746760368347,-0.47751450538635254,0.9360790252685547,0.46695297956466675,0.5334183573722839,-0.3821648955345154,0.974101722240448,0.2885860204696655,0.5830251574516296,-0.48880887031555176,0.9272028803825378,0.45935750007629395,0.5326907634735107,-0.3367561101913452,0.9672382473945618,0.29187852144241333,0.5774815678596497,-0.4425349235534668,0.89688640832901,0.35696253180503845,0.6398186087608337,0.01039944775402546,0.9997081160545349,0.30692702531814575,0.6390577554702759,-0.010222630575299263,0.9996532797813416,0.404791921377182,0.6925597786903381,-0.2532241940498352,0.9834721684455872,0.27559882402420044,0.7120499014854431,-0.27446305751800537,0.9926027655601501,0.3799293637275696,0.7785282135009766,-0.047239698469638824,0.9212344288825989,0.28496378660202026,0.7911806702613831,-0.08176694065332413,0.9597830772399902,0.36691755056381226,0.7881922125816345,-0.032254014164209366,0.8880894184112549,0.2918839156627655,0.8021265268325806,-0.06649793684482574,0.8932075500488281,0.40076637268066406,0.8123101592063904,-0.1251322627067566,0.8801894187927246,0.2756887972354889,0.8330827355384827,-0.1768331676721573,0.9215546250343323
5,0.3345668911933899,0.44490331411361694,-0.2508057951927185,0.9999462962150574,0.3386663496494293,0.4331311285495758,-0.23295626044273376,0.9999251365661621,0.34142833948135376,0.4327196776866913,-0.23301351070404053,0.9999197125434875,0.3437158465385437,0.43225234746932983,-0.2331128865480423,0.9999216794967651,0.32916784286499023,0.43362653255462646,-0.2336660921573639,0.9998881816864014,0.32587072253227234,0.4335242211818695,-0.23369483649730682,0.9998577237129211,0.3227977752685547,0.433540403842926,-0.23366650938987732,0.9998403787612915,0.34779149293899536,0.4340214729309082,-0.12370703369379044,0.9999306201934814,0.31871461868286133,0.43613681197166443,-0.12648238241672516,0.9999157190322876,0.3407922089099884,0.456545352935791,-0.2096363753080368,0.9999221563339233,0.32952940464019775,0.4576372802257538,-0.21037447452545166,0.9999096989631653,0.37174972891807556,0.4843493103981018,-0.04660184681415558,0.9998058676719666,0.2938397526741028,0.48417967557907104,-0.06984362006187439,0.9992004632949829,0.4159599244594574,0.5173065662384033,-0.08783221989870071,0.9906052350997925,0.27223438024520874,0.5352414846420288,-0.13917523622512817,0.9911043643951416,0.4571107029914856,0.5337993502616882,-0.26262035965919495,0.9903117418289185,0.27528154850006104,0.5836093425750732,-0.323354572057724,0.9801633954048157,0.4748956561088562,0.5447809100151062,-0.3024488389492035,0.9753854274749756,0.2712911367416382,0.604195773601532,-0.3611467480659485,0.9409741163253784,0.4682943820953369,0.5461360216140747,-0.3254550099372864,0.9760834574699402,0.28401726484298706,0.6020615100860596,-0.3782404959201813,0.9330230355262756,0.46080487966537476,0.5441502332687378,-0.27639466524124146,0.9696752429008484,0.2874371409416199,0.5949779152870178,-0.3338460326194763,0.9050513505935669,0.3565790057182312,0.6267368197441101,0.010312624275684357,0.9997042417526245,0.3063020408153534,0.6299876570701599,-0.010127983056008816,0.9996575117111206,0.40440788865089417,0.6891101598739624,-0.24138426780700684,0.9837918281555176,0.276111900806427,0.7117207050323486,-0.262274831533432,0.9928086400032043,0.3797617256641388,0.7731910943984985,-0.001762238098308444,0.9234816431999207,0.28467732667922974,0.7911439538002014,-0.04774666950106621,0.9619873762130737,0.36568683385849,0.7849982976913452,0.01661764457821846,0.891093373298645,0.2911871075630188,0.8042634725570679,-0.032091040164232254,0.8935194611549377,0.4019389748573303,0.8052098155021667,-0.07388801872730255,0.8805915117263794,0.27598103880882263,0.8344109058380127,-0.14426986873149872,0.9237922430038452
6,0.3340950310230255,0.4231826364994049,-0.30182498693466187,0.9999513030052185,0.3379872143268585,0.4111342132091522,-0.28426048159599304,0.9999299645423889,0.34085971117019653,0.4106587767601013,-0.28434327244758606,0.9999253749847412,0.3431249260902405,0.41008874773979187,-0.28444498777389526,0.9999260902404785,0.32855600118637085,0.41129550337791443,-0.2860393524169922,0.9998968839645386,0.3252384662628174,0.41102492809295654,-0.28608202934265137,0.9998695254325867,0.32215172052383423,0.41088613867759705,-0.2860686182975769,0.9998525381088257,0.3471543490886688,0.41110607981681824,-0.17044390738010406,0.9999345541000366,0.3175972104072571,0.4136309027671814,-0.17777429521083832,0.9999223947525024,0.3400353491306305,0.434542715549469,-0.2584596574306488,0.9999295473098755,0.32896289229393005,0.435824453830719,-0.26054874062538147,0.9999184608459473,0.3725993037223816,0.46507930755615234,-0.08228352665901184,0.9998246431350708,0.2898541986942291,0.46504586935043335,-0.09771593660116196,0.9992784857749939,0.41772738099098206,0.509045422077179,-0.10112764686346054,0.9914306998252869,0.2689497768878937,0.5336450934410095,-0.117855504155159,0.9916127324104309,0.4603511691093445,0.5415633320808411,-0.2617892622947693,0.9910168647766113,0.2692752480506897,0.5977867841720581,-0.2566893994808197,0.9813706278800964,0.47763925790786743,0.5581052899360657,-0.29986128211021423,0.9771250486373901,0.2658316195011139,0.6200459599494934,-0.2889673411846161,0.9452375769615173,0.4694437086582184,0.5610053539276123,-0.3250959515571594,0.9778395891189575,0.2769763469696045,0.6171305775642395,-0.31404098868370056,0.9381330609321594,0.4625867009162903,0.5574035048484802,-0.27553150057792664,0.9717767238616943,0.2804885804653168,0.6096293926239014,-0.26876139640808105,0.912119448184967,0.3560669720172882,0.6109257340431213,0.010025247000157833,0.9996823668479919,0.3046009838581085,0.6139546036720276,-0.009848563000559807,0.9996468424797058,0.4049151837825775,0.686905026435852,-0.23629078269004822,0.9843592047691345,0.27648481726646423,0.7040263414382935,-0.272472083568573,0.9931456446647644,0.37990790605545044,0.7709789872169495,0.0015955951530486345,0.9280651211738586,0.2848218083381653,0.7913345098495483,-0.05569365620613098,0.9649118185043335,0.3667895793914795,0.7861279249191284,0.01879480853676796,0.8964572548866272,0.2912583351135254,0.8058978915214539,-0.04017846658825874,0.8976799249649048,0.40641170740127563,0.804885983467102,-0.07865912467241287,0.885109007358551,0.2762382924556732,0.8349044919013977,-0.15490488708019257,0.9285973310470581
7,0.3338032364845276,0.3961964249610901,-0.32676559686660767,0.9999557733535767,0.3371039628982544,0.3838959038257599,-0.3104051351547241,0.9999346137046814,0.34003350138664246,0.3835868239402771,-0.310467392206192,0.9999303221702576,0.3422735333442688,0.3833130896091461,-0.31057044863700867,0.9999305605888367,0.32770034670829773,0.384268194437027,-0.3130725920200348,0.9999048709869385,0.3242993950843811,0.38424357771873474,-0.3131316006183624,0.9998801946640015,0.32115691900253296,0.3844171464443207,-0.3131358027458191,0.9998643398284912,0.3455701172351837,0.3852219879627228,-0.19654321670532227,0.9999382495880127,0.3161410093307495,0.38857412338256836,-0.2075679749250412,0.9999279975891113,0.339576780796051,0.4072331190109253,-0.2825181484222412,0.9999361634254456,0.32844990491867065,0.4083388149738312,-0.2857011556625366,0.9999262690544128,0.3733704090118408,0.4408802390098572,-0.09831482172012329,0.9998418092727661,0.286746084690094,0.4439080059528351,-0.1315501481294632,0.9993491768836975,0.4192664623260498,0.4992753565311432,-0.06537015736103058,0.9921815395355225,0.2669026255607605,0.5222748517990112,-0.11935225874185562,0.9921144843101501,0.4600653052330017,0.5483963489532471,-0.18194159865379333,0.9915297627449036,0.26224786043167114,0.5998292565345764,-0.22317533195018768,0.9822779893875122,0.47627225518226624,0.5699284076690674,-0.21126481890678406,0.9781767129898071,0.25894325971603394,0.628226101398468,-0.2518126666545868,0.9485357999801636,0.46809935569763184,0.573415219783783,-0.24431666731834412,0.9789796471595764,0.2700928747653961,0.6260446906089783,-0.2832057774066925,0.9422963261604309,0.4618925452232361,0.5673681497573853,-0.1976742297410965,0.9732750654220581,0.2747456729412079,0.6176653504371643,-0.23700563609600067,0.9181023836135864,0.35602006316185,0.5969739556312561,0.010093439370393753,0.9996915459632874,0.30468904972076416,0.6023202538490295,-0.00994526594877243,0.9996553659439087,0.4052780270576477,0.6844796538352966,-0.1943274736404419,0.9851334691047668,0.277580201625824,0.7051700949668884,-0.20325827598571777,0.993350625038147,0.3803890347480774,0.7708291411399841,0.04409334436058998,0.9324325323104858,0.28500601649284363,0.7912113070487976,0.015860402956604958,0.9670714139938354,0.36720308661460876,0.7877479195594788,0.06217087432742119,0.8998351097106934,0.29188019037246704,0.8043043613433838,0.03198055177927017,0.8977285623550415,0.40717053413391113,0.8062319159507751,-0.03548263758420944,0.890079140663147,0.27868953347206116,0.8344225287437439,-0.08003219217061996,0.9319736957550049
8,0.33109909296035767,0.34330496191978455,-0.43463850021362305,0.9999599456787109,0.3354981541633606,0.32961738109588623,-0.4162404537200928,0.9999398589134216,0.33887866139411926,0.3292746841907501,-0.41628485918045044,0.9999358057975769,0.3414977490901947,0.32902610301971436,-0.4163939952850342,0.9999358057975769,0.3248627483844757,0.3298608362674713,-0.4186168611049652,0.9999130964279175,0.3211575448513031,0.32971152663230896,-0.4187053143978119,0.999890923500061,0.31815460324287415,0.3297397494316101,-0.4187468886375427,0.9998764991760254,0.3448783755302429,0.3302212953567505,-0.28804507851600647,0.999941885471344,0.31262409687042236,0.3319869339466095,-0.29922395944595337,0.9999337196350098,0.33785900473594666,0.3557749390602112,-0.38510653376579285,0.9999423027038574,0.324908584356308,0.3569444715976715,-0.38849076628685,0.9999334812164307,0.37461355328559875,0.39937958121299744,-0.17001721262931824,0.9998571276664734,0.2807360887527466,0.40457651019096375,-0.21009302139282227,0.9994133114814758,0.4171504080295563,0.47905972599983215,-0.11377505958080292,0.992755651473999,0.26322630047798157,0.5020288228988647,-0.17815950512886047,0.9926076531410217,0.45619192719459534,0.5525155663490295,-0.23146922886371613,0.9916631579399109,0.25639230012893677,0.5984625220298767,-0.2980470657348633,0.9830060601234436,0.474456787109375,0.5784966349601746,-0.26203981041908264,0.9783179759979248,0.2517337501049042,0.6273658275604248,-0.3289340138435364,0.9513493776321411,0.4674528241157532,0.5805431604385376,-0.29611408710479736,0.9792653322219849,0.2623024582862854,0.6265178322792053,-0.361200213432312,0.9458890557289124,0.4584847092628479,0.5734097957611084,-0.24722282588481903,0.9736418128013611,0.26738235354423523,0.6188533306121826,-0.31200793385505676,0.9232040643692017,0.3571820855140686,0.5649368166923523,0.012948629446327686,0.9997128248214722,0.3045079708099365,0.570371687412262,-0.012930048629641533,0.9996736645698547,0.4023256301879883,0.6763905882835388,-0.21585433185100555,0.9856452941894531,0.2851087152957916,0.6903799176216125,-0.20255716145038605,0.9931440949440002,0.3846985697746277,0.769799530506134,0.03505416959524155,0.9368726015090942,0.2865484654903412,0.7890664339065552,0.02181181125342846,0.96897292137146,0.3725813031196594,0.7882238626480103,0.053231656551361084,0.9029847979545593,0.2922770380973816,0.8020436763763428,0.0374123677611351,0.8952105641365051,0.41219907999038696,0.8070295453071594,-0.0653335303068161,0.8968108892440796,0.28372228145599365,0.8341922760009766,-0.09598605334758759,0.9352971315383911
9,0.32945334911346436,0.3131200969219208,-0.4681214690208435,0.9999637603759766,0.33413469791412354,0.30059918761253357,-0.44813618063926697,0.9999446868896484,0.33763769268989563,0.3006897568702698,-0.44817250967025757,0.999940812587738,0.3403474688529968,0.30057403445243835,-0.44826292991638184,0.9999405145645142,0.323089599609375,0.30067145824432373,-0.45128417015075684,0.9999208450317383,0.3192475736141205,0.3006998300552368,-0.4513721466064453,0.9999009370803833,0.3163146376609802,0.3007795214653015,-0.45142731070518494,0.9998878240585327,0.3438311219215393,0.3033621907234192,-0.31572869420051575,0.9999439716339111,0.31138670444488525,0.3039452135562897,-0.33082130551338196,0.9999393820762634,0.33626607060432434,0.327115923166275,-0.417675644159317,0.9999477863311768,0.3231673836708069,0.3280499279499054,-0.42218780517578125,0.9999399781227112,0.37499192357063293,0.37747815251350403,-0.19594141840934753,0.9998705983161926,0.2791626751422882,0.37896817922592163,-0.24364320933818817,0.9994713068008423,0.41432586312294006,0.4665183424949646,-0.1441059410572052,0.9932772517204285,0.2592560946941376,0.48273277282714844,-0.2232065498828888,0.9930694699287415,0.4539926052093506,0.5509798526763916,-0.2564799189567566,0.991744875907898,0.2536713778972626,0.5909169316291809,-0.3329155743122101,0.9836556911468506,0.4666453003883362,0.5794274210929871,-0.28650757670402527,0.978348970413208,0.2493847906589508,0.6194505095481873,-0.3674219250679016,0.9537354111671448,0.4587506353855133,0.5816173553466797,-0.32074230909347534,0.9794160723686218,0.2601054310798645,0.6194273233413696,-0.37860581278800964,0.9489136338233948,0.4536455571651459,0.572918713092804,-0.27239924669265747,0.9739001393318176,0.2650650143623352,0.6097763776779175,-0.3453153967857361,0.9275916218757629,0.3572366237640381,0.5478845834732056,0.016587724909186363,0.9997312426567078,0.30372339487075806,0.5524212718009949,-0.016631431877613068,0.9996967911720276,0.39688846468925476,0.6742546558380127,-0.08202339708805084,0.986013650894165,0.2864294648170471,0.6824410557746887,-0.14161278307437897,0.9934775829315186,0.38647109270095825,0.7712112069129944,0.16805396974086761,0.9418084621429443,0.2874585688114166,0.7868854403495789,0.10755769163370132,0.9715608954429626,0.3742888569831848,0.7887283563613892,0.1845189929008484,0.9061939716339111,0.29213738441467285,0.8002883791923523,0.1250866949558258,0.898452877998352,0.4131741523742676,0.8076353669166565,0.05861948803067207,0.9043921232223511,0.28593209385871887,0.8329784870147705,-0.013404548168182373,0.9404103755950928
10,0.3268769085407257,0.2894902229309082,-0.43876171112060547,0.9999666213989258,0.33141177892684937,0.277442067861557,-0.4197654724121094,0.9999459981918335,0.33500298857688904,0.27726098895072937,-0.41980400681495667,0.9999420046806335,0.33817580342292786,0.27720755338668823,-0.4198859632015228,0.9999411106109619,0.32104116678237915,0.2783372700214386,-0.42153626680374146,0.9999253749847412,0.31745946407318115,0.27881354093551636,-0.42162877321243286,0.9999076724052429,0.3145609200000763,0.27946266531944275,-0.4216926693916321,0.9998957514762878,0.3422434329986572,0.28115972876548767,-0.2919728457927704,0.9999394416809082,0.3101401925086975,0.28518766164779663,-0.2996385097503662,0.9999412298202515,0.3340567946434021,0.3029753267765045,-0.38977041840553284,0.9999520778656006,0.3207762539386749,0.3039016127586365,-0.3921816945075989,0.9999454021453857,0.3761747479438782,0.3612249493598938,-0.18195974826812744,0.9998818039894104,0.27690261602401733,0.36535537242889404,-0.21317848563194275,0.9995230436325073,0.4111921191215515,0.45195385813713074,-0.14173439145088196,0.9936287999153137,0.2581389248371124,0.4729413688182831,-0.19624152779579163,0.9933052659034729,0.4447416663169861,0.5481756329536438,-0.23878297209739685,0.9908860921859741,0.25171515345573425,0.5876332521438599,-0.297244668006897,0.983573317527771,0.4518309235572815,0.577368974685669,-0.2667522728443146,0.9759790301322937,0.24675440788269043,0.6100687384605408,-0.329919695854187,0.9543905258178711,0.4452589154243469,0.5780636072158813,-0.3028820753097534,0.9774255156517029,0.25713256001472473,0.6091445088386536,-0.3652808964252472,0.9503305554389954,0.44212666153907776,0.5706945657730103,-0.2549123466014862,0.9717113375663757,0.26204708218574524,0.6005567312240601,-0.31296437978744507,0.9300256371498108,0.3579285740852356,0.5386945605278015,0.016023393720388412,0.9997444152832031,0.3030690550804138,0.5437988638877869,-0.01596212014555931,0.9997159242630005,0.3951800465583801,0.6645036339759827,-0.10996333509683609,0.9868271350860596,0.28920498490333557,0.6738083362579346,-0.1538115292787552,0.9938544631004333,0.3878532946109772,0.7714979648590088,0.12096041440963745,0.9468634724617004,0.28849706053733826,0.7834331393241882,0.08070917427539825,0.9740357398986816,0.37624162435531616,0.7892071604728699,0.13540221750736237,0.9103952646255493,0.2923029065132141,0.7983285784721375,0.09644066542387009,0.9028710722923279,0.4128391146659851,0.8078534007072449,0.002041881438344717,0.9124053120613098,0.2854713797569275,0.8314026594161987,-0.045929115265607834,0.9455180168151855
11,0.3268766701221466,0.2692447304725647,-0.43003588914871216,0.9999695420265198,0.33114832639694214,0.2555120885372162,-0.4131355285644531,0.9999494552612305,0.33456942439079285,0.2552860379219055,-0.4131411612033844,0.9999457001686096,0.3375605344772339,0.2549811899662018,-0.4131656289100647,0.9999443888664246,0.3209455907344818,0.25675296783447266,-0.4174184203147888,0.9999311566352844,0.3173214793205261,0.25697118043899536,-0.4175040125846863,0.9999154210090637,0.3139955997467041,0.25736650824546814,-0.4175497591495514,0.9999043941497803,0.3413998782634735,0.25986814498901367,-0.2827708125114441,0.9999406933784485,0.3084113597869873,0.2646370828151703,-0.30375927686691284,0.9999449253082275,0.3337402939796448,0.2830691635608673,-0.3787142336368561,0.9999563097953796,0.3208443820476532,0.283761203289032,-0.38496431708335876,0.9999504685401917,0.37629491090774536,0.34376323223114014,-0.16690072417259216,0.9998927116394043,0.2742714285850525,0.3484027683734894,-0.21239566802978516,0.999569833278656,0.40650543570518494,0.441893607378006,-0.1027451902627945,0.9939358830451965,0.2588755488395691,0.4554382264614105,-0.17750006914138794,0.9934865236282349,0.43362560868263245,0.5476903915405273,-0.20189408957958221,0.9908537864685059,0.25095468759536743,0.569068193435669,-0.271320641040802,0.9837555885314941,0.440661758184433,0.5684798955917358,-0.22915318608283997,0.9756112098693848,0.2466614544391632,0.6070066094398499,-0.30208462476730347,0.9556119441986084,0.4340341091156006,0.5692803263664246,-0.26736530661582947,0.9772219657897949,0.25653547048568726,0.6024354696273804,-0.3404226005077362,0.9522376656532288,0.4306410253047943,0.5631406903266907,-0.21861784160137177,0.9716261029243469,0.26152777671813965,0.5933515429496765,-0.2871810793876648,0.9330775141716003,0.3591141700744629,0.5264509320259094,0.015972299501299858,0.9997482895851135,0.30321329832077026,0.5333775281906128,-0.015983566641807556,0.9997247457504272,0.3927430510520935,0.6609460711479187,-0.027105113491415977,0.9873932003974915,0.2919864356517792,0.6679229736328125,-0.07312265783548355,0.9940388202667236,0.38747838139533997,0.7717122435569763,0.1934352070093155,0.9510449171066284,0.289081871509552,0.7805885076522827,0.14767438173294067,0.9759681820869446,0.3759446144104004,0.7890722155570984,0.20740625262260437,0.9130433797836304,0.29240959882736206,0.793575644493103,0.1623554527759552,0.902292788028717,0.41262054443359375,0.8079863786697388,0.0803157165646553,0.9193470478057861,0.28622689843177795,0.829116940498352,0.02274232730269432,0.9496155381202698
12,0.3270334005355835,0.2533828020095825,-0.42355218529701233,0.9999724626541138,0.3314495086669922,0.2404971718788147,-0.4059514105319977,0.9999538660049438,0.3347243666648865,0.24060630798339844,-0.4059506356716156,0.9999504089355469,0.3376864790916443,0.24070662260055542,-0.40594881772994995,0.999949038028717,0.32073789834976196,0.24058371782302856,-0.4102911949157715,0.9999375343322754,0.3168802559375763,0.24064604938030243,-0.4103681445121765,0.9999233484268188,0.3133436143398285,0.2410958856344223,-0.4104023873806,0.9999133348464966,0.3415064513683319,0.24611695110797882,-0.2736217975616455,0.9999446272850037,0.30728840827941895,0.24811747670173645,-0.29654571413993835,0.9999496936798096,0.3338761031627655,0.268030047416687,-0.3718017637729645,0.9999603629112244,0.3206242024898529,0.2675516903400421,-0.3785267472267151,0.9999552369117737,0.3764880299568176,0.3330427408218384,-0.15925250947475433,0.9999023675918579,0.27419281005859375,0.3342748284339905,-0.20302323997020721,0.9996120929718018,0.40136533975601196,0.4357697665691376,-0.09161701798439026,0.9941073656082153,0.25913161039352417,0.44226157665252686,-0.16550911962985992,0.9936876893043518,0.4197697043418884,0.5397153496742249,-0.20161128044128418,0.9911285638809204,0.25079795718193054,0.5509805679321289,-0.2659624218940735,0.9843834638595581,0.4248567223548889,0.5632330179214478,-0.23197853565216064,0.9761885404586792,0.24551472067832947,0.5840946435928345,-0.2992820739746094,0.9576047658920288,0.41853809356689453,0.5634925365447998,-0.27099305391311646,0.97785884141922,0.2558363378047943,0.5835720896720886,-0.3362281322479248,0.9547861218452454,0.4152401089668274,0.5590677857398987,-0.2190135270357132,0.9724306464195251,0.2607479691505432,0.5722169280052185,-0.28164762258529663,0.9369892477989197,0.359857439994812,0.5202729105949402,0.01547848992049694,0.9997525215148926,0.30307793617248535,0.5262443423271179,-0.015500868670642376,0.9997381567955017,0.38698384165763855,0.6548179984092712,0.01578974351286888,0.9879706501960754,0.29283589124679565,0.6661420464515686,-0.03970711678266525,0.9942631721496582,0.3874453008174896,0.7710393667221069,0.2260027825832367,0.9550098180770874,0.29007306694984436,0.7807415127754211,0.17936508357524872,0.9778383374214172,0.3759990334510803,0.7886217832565308,0.23872843384742737,0.9165121912956238,0.2932336628437042,0.7938581705093384,0.1932590901851654,0.9030201435089111,0.41188162565231323,0.8071395754814148,0.11272343248128891,0.9259434342384338,0.2864915728569031,0.8279768824577332,0.05455632135272026,0.9535003900527954
13,0.32698288559913635,0.23465296626091003,-0.38450074195861816,0.9999743700027466,0.33175235986709595,0.2206791341304779,-0.36741775274276733,0.9999558329582214,0.33495521545410156,0.22103534638881683,-0.36743590235710144,0.9999521970748901,0.3379315137863159,0.22155264019966125,-0.3674549162387848,0.9999504089355469,0.3207484781742096,0.2209002673625946,-0.3714938759803772,0.9999414086341858,0.31672585010528564,0.22109739482402802,-0.37155377864837646,0.9999285340309143,0.3131236732006073,0.22158131003379822,-0.3715856671333313,0.9999194145202637,0.34205859899520874,0.22843889892101288,-0.24037370085716248,0.9999428987503052,0.30649349093437195,0.22888605296611786,-0.2604535222053528,0.9999515414237976,0.3338002562522888,0.24940191209316254,-0.33474674820899963,0.9999629259109497,0.32003432512283325,0.2487863153219223,-0.3406009078025818,0.9999587535858154,0.37642186880111694,0.3168301284313202,-0.15034718811511993,0.9999073147773743,0.2750824987888336,0.31120550632476807,-0.18801307678222656,0.999649167060852,0.39210018515586853,0.422846257686615,-0.04954947158694267,0.9917716383934021,0.26004546880722046,0.4189237654209137,-0.12308124452829361,0.9932451844215393,0.39753541350364685,0.516847550868988,-0.1541079580783844,0.9874876737594604,0.2547147870063782,0.5174784660339355,-0.22294075787067413,0.983002781867981,0.4018355906009674,0.5463160872459412,-0.18280422687530518,0.9697607755661011,0.24962878227233887,0.5474653840065002,-0.2560674846172333,0.9558749198913574,0.3962259888648987,0.5446800589561462,-0.22212544083595276,0.9718971252441406,0.25872713327407837,0.5460803508758545,-0.29060834646224976,0.9537283182144165,0.3928169310092926,0.536176860332489,-0.17138847708702087,0.9654613733291626,0.2633029818534851,0.5359987616539001,-0.23787149786949158,0.9367359280586243,0.3599781095981598,0.5097764730453491,0.015079706907272339,0.9997420310974121,0.30242517590522766,0.5134798884391785,-0.01508970558643341,0.9997425675392151,0.3806222677230835,0.6497822403907776,0.024810444563627243,0.9881867170333862,0.29371288418769836,0.6616122722625732,-0.014840002171695232,0.9942373037338257,0.3857839107513428,0.7707853317260742,0.2126348316669464,0.9582267999649048,0.290442556142807,0.7813376188278198,0.1750815212726593,0.9792516827583313,0.37595054507255554,0.788841187953949,0.22297272086143494,0.9149699807167053,0.293599933385849,0.7946354150772095,0.18563546240329742,0.8996402621269226,0.4116176664829254,0.8073977828025818,0.093455471098423,0.9313185214996338,0.28631970286369324,0.8280754685401917,0.04428181052207947,0.9565098881721497
14,0.3267064094543457,0.22909922897815704,-0.358966201543808,0.9999718070030212,0.3318935036659241,0.21563145518302917,-0.34357935190200806,0.99994295835495,0.3351055085659027,0.21597343683242798,-0.3435887396335602,0.9999355673789978,0.3380962610244751,0.21661274135112762,-0.3435024619102478,0.9999296069145203,0.3205590844154358,0.21618683636188507,-0.3472919464111328,0.9999353289604187,0.3164001703262329,0.21686698496341705,-0.34736722707748413,0.9999241828918457,0.31273895502090454,0.2178501933813095,-0.347486674785614,0.9999173283576965,0.34213733673095703,0.22348493337631226,-0.21651172637939453,0.999885618686676,0.30621200799942017,0.22429901361465454,-0.2375207245349884,0.9999424815177917,0.3336969316005707,0.24549083411693573,-0.30917632579803467,0.9999569058418274,0.3195696175098419,0.24608884751796722,-0.31523269414901733,0.999957799911499,0.37604743242263794,0.31338468194007874,-0.11161352694034576,0.9998737573623657,0.2753233313560486,0.30752837657928467,-0.14769375324249268,0.999681830406189,0.3858909010887146,0.4156603217124939,-0.027900418266654015,0.9788520336151123,0.2598424255847931,0.4134809374809265,-0.09373822063207626,0.9926024079322815,0.3881472051143646,0.5022169947624207,-0.12514260411262512,0.957409679889679,0.2541199326515198,0.5083090662956238,-0.18725553154945374,0.9806418418884277,0.38927605748176575,0.5346048474311829,-0.1499217301607132,0.9312862753868103,0.24768391251564026,0.5357885360717773,-0.21761885285377502,0.952448308467865,0.3862681984901428,0.5335170030593872,-0.187114879488945,0.9350435137748718,0.2554575204849243,0.5349978804588318,-0.25066637992858887,0.9509941339492798,0.38358980417251587,0.5239881277084351,-0.1419510394334793,0.9273917078971863,0.260755330324173,0.5265944004058838,-0.20174157619476318,0.9345711469650269,0.36014464497566223,0.5056284070014954,0.014906754717230797,0.9996912479400635,0.30259203910827637,0.5073638558387756,-0.014893817715346813,0.9997352957725525,0.37596744298934937,0.6486691832542419,0.027773279696702957,0.9880210161209106,0.2957168221473694,0.6564662456512451,-0.009648630395531654,0.9941802620887756,0.382247656583786,0.7711025476455688,0.20595522224903107,0.9611430168151855,0.2904815375804901,0.7805526852607727,0.17242678999900818,0.9804666042327881,0.37257447838783264,0.789555013179779,0.21557307243347168,0.9151578545570374,0.2935750186443329,0.7949256896972656,0.18229727447032928,0.895648181438446,0.4114256799221039,0.8074542880058289,0.08645466715097427,0.9362914562225342,0.28622063994407654,0.8278371095657349,0.04125024750828743,0.959071934223175
15,0.32684192061424255,0.2311292439699173,-0.3413317799568176,0.9999653100967407,0.33205682039260864,0.21718072891235352,-0.326371431350708,0.9999153017997742,0.3352261185646057,0.2175167351961136,-0.32638949155807495,0.9999018907546997,0.33821678161621094,0.217925563454628,-0.32632672786712646,0.9998844861984253,0.3207741379737854,0.21674470603466034,-0.3295356035232544,0.9999194741249084,0.31651008129119873,0.21679900586605072,-0.32961034774780273,0.9999106526374817,0.31276124715805054,0.21699772775173187,-0.32972413301467896,0.9999065399169922,0.3421630263328552,0.22437825798988342,-0.20176979899406433,0.9997696876525879,0.30625343322753906,0.2230600267648697,-0.21884512901306152,0.999924898147583,0.33365598320961,0.2461223304271698,-0.2922137379646301,0.9999411106109619,0.3196130394935608,0.24630418419837952,-0.2971000373363495,0.9999517798423767,0.3759649395942688,0.30716976523399353,-0.0924968272447586,0.9998325109481812,0.2757384777069092,0.30509498715400696,-0.13338151574134827,0.9997116327285767,0.38583871722221375,0.4061741828918457,-0.018698645755648613,0.9598909616470337,0.25988346338272095,0.4097234010696411,-0.08542148023843765,0.9923763871192932,0.3866192698478699,0.4870675206184387,-0.13075102865695953,0.9220032095909119,0.2550897002220154,0.5003835558891296,-0.1803649365901947,0.9796763062477112,0.3868657648563385,0.5209184885025024,-0.15750113129615784,0.8897700309753418,0.24852457642555237,0.5277648568153381,-0.21211537718772888,0.9512473344802856,0.3839942514896393,0.5201568007469177,-0.19531561434268951,0.8948344588279724,0.25604572892189026,0.5255717039108276,-0.2449011355638504,0.9502817392349243,0.3815435767173767,0.5081409215927124,-0.1484745889902115,0.8859015703201294,0.2612922787666321,0.5165647864341736,-0.1948975771665573,0.9345754981040955,0.3610791563987732,0.5066250562667847,0.014827830716967583,0.9996417760848999,0.30265945196151733,0.5092723369598389,-0.014836330898106098,0.999737560749054,0.37367865443229675,0.6454861760139465,0.05449480935931206,0.9879390597343445,0.29726630449295044,0.654788076877594,-0.0024299731012433767,0.9941948652267456,0.38178691267967224,0.7713435888290405,0.23506061732769012,0.9638528823852539,0.2905954420566559,0.7788597941398621,0.1754106730222702,0.981587827205658,0.3726847767829895,0.7905116677284241,0.24484357237815857,0.915008008480072,0.2934677004814148,0.7939044237136841,0.18473803997039795,0.8934459686279297,0.4113827347755432,0.8074386715888977,0.11274906247854233,0.940748393535614,0.28600889444351196,0.8276466727256775,0.04011017829179764,0.9614454507827759
16,0.32649561762809753,0.22988620400428772,-0.31777527928352356,0.9999520778656006,0.3320079445838928,0.216547429561615,-0.30290329456329346,0.9998623132705688,0.3351810574531555,0.21693935990333557,-0.30293890833854675,0.9998412728309631,0.3381884694099426,0.21726708114147186,-0.30289918184280396,0.999805212020874,0.3205897808074951,0.21605926752090454,-0.3047105371952057,0.999882161617279,0.31631484627723694,0.21614913642406464,-0.3047671914100647,0.999875545501709,0.31252604722976685,0.21641741693019867,-0.3048645555973053,0.9998756051063538,0.3421812951564789,0.2242444008588791,-0.1839398443698883,0.9995622038841248,0.3062271475791931,0.22293907403945923,-0.19370847940444946,0.9998731017112732,0.33347004652023315,0.2451106458902359,-0.27117040753364563,0.999909520149231,0.31921854615211487,0.24506807327270508,-0.27395978569984436,0.9999340772628784,0.3763512670993805,0.3068329095840454,-0.08644033968448639,0.9997818470001221,0.27627116441726685,0.3045447766780853,-0.11362681537866592,0.9997376799583435,0.3844805359840393,0.4025554656982422,-0.037754833698272705,0.9386513829231262,0.26015448570251465,0.40754255652427673,-0.06072583794593811,0.9917649030685425,0.3842920660972595,0.4768943786621094,-0.16921037435531616,0.8861384987831116,0.25623631477355957,0.49406275153160095,-0.15294378995895386,0.9784154891967773,0.38411954045295715,0.510700523853302,-0.19958770275115967,0.8504536151885986,0.25050100684165955,0.5214466452598572,-0.18509414792060852,0.9499627947807312,0.38239240646362305,0.5063222050666809,-0.23513546586036682,0.8565212488174438,0.25791606307029724,0.5182138681411743,-0.21884670853614807,0.9494807124137878,0.37929901480674744,0.4959620237350464,-0.1867188662290573,0.8462653756141663,0.2625132203102112,0.5094101428985596,-0.16827987134456635,0.9343696236610413,0.36147624254226685,0.5076990723609924,0.011363803409039974,0.9996121525764465,0.3027261197566986,0.5111182332038879,-0.011385140009224415,0.9997475743293762,0.3710257411003113,0.641649067401886,0.07531096041202545,0.9876708388328552,0.2986759543418884,0.6527301669120789,0.009651916101574898,0.9943180084228516,0.3811325132846832,0.7702917456626892,0.26565229892730713,0.9662941098213196,0.2909155786037445,0.773675799369812,0.18560758233070374,0.9827627539634705,0.3725007176399231,0.7904123663902283,0.27703577280044556,0.9157091379165649,0.29354965686798096,0.7887769937515259,0.19492049515247345,0.8945080637931824,0.4112958312034607,0.8053285479545593,0.148713156580925,0.9449180960655212,0.28600284457206726,0.8256133794784546,0.05373600870370865,0.963906466960907
17,0.3260597586631775,0.23005448281764984,-0.3105996251106262,0.9999343752861023,0.3319084644317627,0.21666288375854492,-0.29576659202575684,0.9997856616973877,0.3351275324821472,0.2170179784297943,-0.2957984507083893,0.9997552633285522,0.33816778659820557,0.217225581407547,-0.2957717776298523,0.9996953010559082,0.32023972272872925,0.21623483300209045,-0.29703953862190247,0.999828040599823,0.3159685730934143,0.21631193161010742,-0.297096312046051,0.9998245239257812,0.3121592402458191,0.21655699610710144,-0.29719242453575134,0.999830424785614,0.34234315156936646,0.2243715077638626,-0.17950990796089172,0.9992846846580505,0.3061070144176483,0.22310128808021545,-0.18692180514335632,0.9997963309288025,0.33332639932632446,0.24538424611091614,-0.2650902569293976,0.9998636841773987,0.3188224732875824,0.2453727424144745,-0.26725688576698303,0.9999071359634399,0.3764708936214447,0.308981716632843,-0.08412724733352661,0.9996995329856873,0.27659305930137634,0.3041081726551056,-0.108709916472435,0.9997600317001343,0.38208189606666565,0.40706852078437805,-0.02053101174533367,0.9164305329322815,0.2603590786457062,0.40681907534599304,-0.05661537125706673,0.9905909299850464,0.3811618685722351,0.48308640718460083,-0.12461216747760773,0.8457127213478088,0.2568400800228119,0.49316462874412537,-0.14416290819644928,0.9752289652824402,0.3798292577266693,0.5156233906745911,-0.1493261754512787,0.8069112300872803,0.25137871503829956,0.5205475687980652,-0.1738174855709076,0.9455714225769043,0.37702223658561707,0.512558102607727,-0.18622198700904846,0.8137856125831604,0.25952470302581787,0.5174486041069031,-0.20629587769508362,0.9456334114074707,0.3754611313343048,0.5015831589698792,-0.14175745844841003,0.8031037449836731,0.26383742690086365,0.5087081789970398,-0.15890513360500336,0.9308934211730957,0.36142683029174805,0.5068839192390442,0.009075738489627838,0.9995497465133667,0.30259162187576294,0.5099198818206787,-0.009090212173759937,0.9997484087944031,0.36909645795822144,0.6398285627365112,0.058327823877334595,0.9871156811714172,0.30028441548347473,0.6536424160003662,0.001268586958758533,0.9942875504493713,0.3786652684211731,0.769138514995575,0.23772089183330536,0.9682022333145142,0.2919411361217499,0.7745001316070557,0.17055749893188477,0.9836481809616089,0.36959001421928406,0.7899580597877502,0.24797146022319794,0.914604127407074,0.2950724959373474,0.7896953225135803,0.1790408194065094,0.8935625553131104,0.4102383255958557,0.8047829270362854,0.12087464332580566,0.9483182430267334,0.28601837158203125,0.8257310390472412,0.03882541507482529,0.9658107757568359
18,0.3258606493473053,0.23040500283241272,-0.2922375798225403,0.999902606010437,0.3318435251712799,0.21706907451152802,-0.27785569429397583,0.9996520280838013,0.3351047933101654,0.21730449795722961,-0.2778993546962738,0.999613344669342,0.3381704092025757,0.21738548576831818,-0.27787497639656067,0.9995105266571045,0.3201066553592682,0.21689994633197784,-0.2770175635814667,0.9997244477272034,0.31588014960289,0.21701852977275848,-0.2770659029483795,0.9997292757034302,0.3121013343334198,0.2171887308359146,-0.27715596556663513,0.9997472763061523,0.34252768754959106,0.2240745574235916,-0.16546115279197693,0.998878538608551,0.3062233626842499,0.2237912118434906,-0.1628347933292389,0.9996664524078369,0.3332861065864563,0.24522942304611206,-0.2485160529613495,0.9997960329055786,0.3187786340713501,0.245454341173172,-0.24779053032398224,0.9998605251312256,0.37686091661453247,0.30690011382102966,-0.07543767988681793,0.9995978474617004,0.2768065333366394,0.3033028244972229,-0.08091148734092712,0.9997783899307251,0.3811715245246887,0.4031757414340973,-0.010819598101079464,0.9000223278999329,0.26097482442855835,0.4029623866081238,-0.014478323049843311,0.9893571138381958,0.3795469403266907,0.4808383584022522,-0.1055087074637413,0.8107998967170715,0.25734907388687134,0.48303931951522827,-0.09715677797794342,0.972950279712677,0.3785736560821533,0.5110675096511841,-0.12866619229316711,0.7673237919807434,0.25225889682769775,0.5122191905975342,-0.12365801632404327,0.9425914287567139,0.37871184945106506,0.5076772570610046,-0.1649470031261444,0.7746452689170837,0.2600829005241394,0.5100347399711609,-0.15780062973499298,0.9430992603302002,0.3742510974407196,0.4988551735877991,-0.1221291646361351,0.7631457448005676,0.2640129625797272,0.5003564357757568,-0.11251749843358994,0.928928792476654,0.3613983690738678,0.5061653256416321,0.0048369974829256535,0.999462366104126,0.30260413885116577,0.5090633630752563,-0.004839443601667881,0.9997425079345703,0.36878859996795654,0.6380526423454285,0.04192214459180832,0.986899197101593,0.3005933463573456,0.6551092863082886,0.0011015424970537424,0.994373083114624,0.3780723810195923,0.7687868475914001,0.2115536630153656,0.9700673818588257,0.29259052872657776,0.7752555012702942,0.16421657800674438,0.9845866560935974,0.36877670884132385,0.7897955775260925,0.22068043053150177,0.913752019405365,0.2969709634780884,0.7902935147285461,0.17182432115077972,0.8943583369255066,0.4098815321922302,0.8045304417610168,0.09356489032506943,0.9514897465705872,0.2859424650669098,0.8258152604103088,0.03292381018400192,0.967792809009552
19,0.3258358836174011,0.22924040257930756,-0.2997126579284668,0.9998869299888611,0.3318735957145691,0.21612653136253357,-0.2844906449317932,0.9995909333229065,0.3351413905620575,0.21648652851581573,-0.2845316529273987,0.9995486736297607,0.338198721408844,0.21670635044574738,-0.284519761800766,0.9994246363639832,0.32010334730148315,0.21571260690689087,-0.2847200930118561,0.9996792078018188,0.3158847689628601,0.2157832682132721,-0.2847747802734375,0.9996901750564575,0.31211239099502563,0.21601048111915588,-0.28486019372940063,0.9997137188911438,0.34295716881752014,0.22402508556842804,-0.16873683035373688,0.998683512210846,0.3063291907310486,0.22312794625759125,-0.17113691568374634,0.9996218681335449,0.33330249786376953,0.24430590867996216,-0.2547003924846649,0.9997643232345581,0.31879547238349915,0.24444781243801117,-0.2554420828819275,0.9998414516448975,0.377177894115448,0.30680030584335327,-0.0742272287607193,0.9995318651199341,0.2770302891731262,0.3028712272644043,-0.09132980555295944,0.9997963905334473,0.38104015588760376,0.4039406478404999,-0.0072968387976288795,0.8792213201522827,0.2612229883670807,0.4049021005630493,-0.03267752006649971,0.9883946180343628,0.38018128275871277,0.4813188910484314,-0.10354341566562653,0.7718387842178345,0.2572826147079468,0.48785412311553955,-0.11611282825469971,0.9701107740402222,0.37929198145866394,0.5122188329696655,-0.12641367316246033,0.7259127497673035,0.25221455097198486,0.5156664252281189,-0.14405664801597595,0.938546895980835,0.3770569860935211,0.5087794065475464,-0.1633806824684143,0.7336487174034119,0.2597113251686096,0.5133690237998962,-0.17665795981884003,0.9395192265510559,0.37478381395339966,0.4983919858932495,-0.12059382349252701,0.7221421003341675,0.2636270225048065,0.5041725635528564,-0.13091981410980225,0.9256913065910339,0.3616181015968323,0.5070702433586121,0.0052884542383253574,0.9994214773178101,0.30266982316970825,0.5103141069412231,-0.005284637212753296,0.99974524974823,0.37023231387138367,0.6398305892944336,0.04962668567895889,0.9870246648788452,0.30029231309890747,0.656753659248352,-0.0061289528384804726,0.9945587515830994,0.37800830602645874,0.7682192325592041,0.24167783558368683,0.9719851016998291,0.2928383946418762,0.7756348848342896,0.1661003679037094,0.9855446219444275,0.36880940198898315,0.7887058258056641,0.2528666853904724,0.9141032695770264,0.2978772521018982,0.7906061410903931,0.174595445394516,0.894556999206543,0.4097221791744232,0.8043549656867981,0.12414330244064331,0.9546344876289368,0.2859991192817688,0.8259065747261047,0.033322859555482864,0.969758927822113
20,0.3259221017360687,0.22933824360370636,-0.29894137382507324,0.9998762011528015,0.3318926692008972,0.21640025079250336,-0.2833361327648163,0.9995480179786682,0.3351551592350006,0.21677535772323608,-0.28337976336479187,0.9994999766349792,0.33825042843818665,0.2170024961233139,-0.28336840867996216,0.9993607401847839,0.320182740688324,0.21582135558128357,-0.2842850387096405,0.9996494054794312,0.3159727454185486,0.21581998467445374,-0.2843395471572876,0.9996635913848877,0.31220173835754395,0.21595777571201324,-0.28442662954330444,0.9996915459632874,0.3433026671409607,0.22439053654670715,-0.1660439521074295,0.9985352158546448,0.30641594529151917,0.22293442487716675,-0.1718500405550003,0.9995908737182617,0.33334416151046753,0.24456529319286346,-0.2533411979675293,0.9997424483299255,0.3188941776752472,0.24459698796272278,-0.2550351023674011,0.9998294711112976,0.3772452473640442,0.3064141571521759,-0.07141890376806259,0.9994876980781555,0.2772037386894226,0.302900493144989,-0.09423361718654633,0.99981290102005,0.3815182149410248,0.40377283096313477,-0.008797062560915947,0.8634990453720093,0.26133278012275696,0.4061015546321869,-0.04296458885073662,0.9878891706466675,0.38160353899002075,0.4815022647380829,-0.1144750565290451,0.7446920871734619,0.2571367025375366,0.4910277724266052,-0.1328861117362976,0.9687226414680481,0.38078975677490234,0.513461172580719,-0.13981187343597412,0.6960564255714417,0.25192058086395264,0.5183494687080383,-0.1633833348751068,0.9367252588272095,0.3782294690608978,0.5102532505989075,-0.1773660033941269,0.7042885422706604,0.2594411075115204,0.5154439210891724,-0.19518323242664337,0.9380235075950623,0.3764088749885559,0.4992424249649048,-0.13208505511283875,0.6923797130584717,0.26346009969711304,0.5066658854484558,-0.1475445032119751,0.9245674014091492,0.36185967922210693,0.5076514482498169,0.005721901543438435,0.9993929266929626,0.3027418255805969,0.5113472938537598,-0.005719712004065514,0.9997497200965881,0.3706526458263397,0.6407633423805237,0.05266060307621956,0.9870873093605042,0.299813449382782,0.657464861869812,-0.004791694693267345,0.9946916699409485,0.3777308464050293,0.7681557536125183,0.2492024004459381,0.9735814929008484,0.29297569394111633,0.7756990790367126,0.1692880094051361,0.9863591194152832,0.36841416358947754,0.7885131239891052,0.261013001203537,0.9140844345092773,0.29830580949783325,0.7909296154975891,0.17811374366283417,0.8948344588279724,0.40964874625205994,0.8042191863059998,0.13371577858924866,0.9573055505752563,0.2860598862171173,0.8259621262550354,0.03658188879489899,0.971409261226654
21,0.3260340094566345,0.22939632833003998,-0.2987866997718811,0.9998723268508911,0.3320196270942688,0.21647235751152039,-0.2826756238937378,0.9995356202125549,0.33527183532714844,0.2167460322380066,-0.2827213406562805,0.9994810223579407,0.33842697739601135,0.21690814197063446,-0.2827088534832001,0.9993375539779663,0.320249080657959,0.21606670320034027,-0.2849426567554474,0.9996435642242432,0.31599730253219604,0.21609871089458466,-0.28499478101730347,0.9996569752693176,0.3122814893722534,0.21625570952892303,-0.2850802540779114,0.9996869564056396,0.34359434247016907,0.22436174750328064,-0.16293033957481384,0.9984650015830994,0.30649682879447937,0.22310398519039154,-0.17477229237556458,0.9995808005332947,0.33345866203308105,0.24477168917655945,-0.2522358000278473,0.9997336268424988,0.3189346492290497,0.24498705565929413,-0.2556385397911072,0.9998273253440857,0.3773820102214813,0.3064635694026947,-0.06773093342781067,0.9994679689407349,0.2773304879665375,0.30378076434135437,-0.10091091692447662,0.9998283982276917,0.38295304775238037,0.4043083190917969,-0.014513948932290077,0.8486917018890381,0.26143038272857666,0.4085741639137268,-0.0597492977976799,0.9878368973731995,0.3833899199962616,0.4807291030883789,-0.13320322334766388,0.7261094450950623,0.25525081157684326,0.49465131759643555,-0.15598826110363007,0.9685702919960022,0.38311904668807983,0.5143458843231201,-0.15974709391593933,0.6759990453720093,0.24711079895496368,0.5219830870628357,-0.18854908645153046,0.9369141459465027,0.38201624155044556,0.5093573331832886,-0.19334599375724792,0.684682309627533,0.2560589015483856,0.5192233920097351,-0.2195749282836914,0.9384516477584839,0.37804439663887024,0.49871912598609924,-0.1502625048160553,0.6722282767295837,0.2613956332206726,0.5104955434799194,-0.1706257462501526,0.9254207015037537,0.36227113008499146,0.5105910897254944,0.00694993045181036,0.9993969202041626,0.3033860921859741,0.514180600643158,-0.006935443729162216,0.9997613430023193,0.3712613582611084,0.6415583491325378,0.07979390770196915,0.9870538115501404,0.2993941307067871,0.6583279371261597,0.0036254313308745623,0.994818925857544,0.37749674916267395,0.7674893140792847,0.2994987666606903,0.9748817086219788,0.29306328296661377,0.7760602235794067,0.186721533536911,0.9871177673339844,0.36794939637184143,0.7878713607788086,0.3142661154270172,0.9152211546897888,0.2985329031944275,0.7909271717071533,0.19696806371212006,0.8963504433631897,0.40963658690452576,0.8039101362228394,0.1912410408258438,0.9596503376960754,0.2863695025444031,0.8259233832359314,0.056081026792526245,0.9729270339012146
22,0.3260749578475952,0.22922883927822113,-0.31170162558555603,0.9998756647109985,0.3320379853248596,0.21611107885837555,-0.2955724000930786,0.9995485544204712,0.3352837860584259,0.21642403304576874,-0.2956072688102722,0.9994924068450928,0.3384384512901306,0.21662761270999908,-0.2955795228481293,0.999351441860199,0.3202962279319763,0.2157716155052185,-0.29865920543670654,0.9996563196182251,0.3160687983036041,0.21587726473808289,-0.2987200915813446,0.9996686577796936,0.31234967708587646,0.21609432995319366,-0.2988119125366211,0.9996976852416992,0.34362930059432983,0.22398418188095093,-0.1714496910572052,0.9984944462776184,0.30653753876686096,0.2229822278022766,-0.1886889636516571,0.9995948672294617,0.33347755670547485,0.24457038938999176,-0.2634173035621643,0.9997398257255554,0.31901824474334717,0.24471503496170044,-0.2682522237300873,0.9998336434364319,0.3774579167366028,0.3076988756656647,-0.07220348715782166,0.9994649291038513,0.2773377299308777,0.30561161041259766,-0.11456453800201416,0.999843418598175,0.38364824652671814,0.4069664180278778,-0.01812688820064068,0.8397434949874878,0.26113176345825195,0.41179972887039185,-0.06666100770235062,0.987875759601593,0.38550153374671936,0.4835500717163086,-0.13443788886070251,0.7127054929733276,0.2524228096008301,0.49762946367263794,-0.1590023934841156,0.9682335257530212,0.38503485918045044,0.5149022936820984,-0.1617388278245926,0.6601908802986145,0.2437237799167633,0.5245513319969177,-0.19722624123096466,0.9365506172180176,0.3823072910308838,0.5097159743309021,-0.1992565542459488,0.6695652008056641,0.2535337209701538,0.5219070315361023,-0.23034009337425232,0.9383274912834167,0.3793662190437317,0.5011503100395203,-0.152565598487854,0.6569573879241943,0.2597387731075287,0.5133744478225708,-0.17550648748874664,0.9256040453910828,0.362475723028183,0.5127639770507812,0.009273947216570377,0.9994034767150879,0.3034924268722534,0.5159331560134888,-0.009263742715120316,0.9997732043266296,0.3714267313480377,0.6425174474716187,0.08605048805475235,0.9870738983154297,0.2991889715194702,0.6588594913482666,0.00025622572866268456,0.9950006604194641,0.3769333064556122,0.767384946346283,0.3125304579734802,0.9761766791343689,0.29303428530693054,0.7764336466789246,0.18543490767478943,0.9878780841827393,0.3673171103000641,0.7878633737564087,0.32786351442337036,0.9173305034637451,0.2984928488731384,0.791036069393158,0.19584746658802032,0.8982850909233093,0.4095328748226166,0.8039320707321167,0.2054530382156372,0.9619393944740295,0.2863406538963318,0.8259637951850891,0.053522367030382156,0.9744338989257812
23,0.3261294662952423,0.23147670924663544,-0.3280108571052551,0.9998849034309387,0.3320607841014862,0.218288853764534,-0.3093509376049042,0.9995819926261902,0.33530670404434204,0.21859650313854218,-0.30940109491348267,0.9995294809341431,0.3384571671485901,0.21867583692073822,-0.30937227606773376,0.9993979930877686,0.32031652331352234,0.21805553138256073,-0.31326261162757874,0.9996812343597412,0.31603938341140747,0.21826186776161194,-0.31329840421676636,0.9996922612190247,0.31230947375297546,0.21839900314807892,-0.31338900327682495,0.9997180104255676,0.34364694356918335,0.22597475349903107,-0.17867910861968994,0.9985988736152649,0.30635425448417664,0.22555893659591675,-0.2012472152709961,0.9996205568313599,0.3335086405277252,0.2472836822271347,-0.2783176004886627,0.9997583627700806,0.3190240263938904,0.24751946330070496,-0.28437528014183044,0.9998460412025452,0.3778461217880249,0.31139954924583435,-0.07687070965766907,0.9995050430297852,0.27652186155319214,0.31007400155067444,-0.12875008583068848,0.9998572468757629,0.3858436942100525,0.41185304522514343,-0.018661348149180412,0.849756121635437,0.2609722912311554,0.4145865738391876,-0.10043783485889435,0.988339900970459,0.39416036009788513,0.5004369616508484,-0.16071806848049164,0.7334837913513184,0.25146549940109253,0.5033252239227295,-0.21115458011627197,0.9696915745735168,0.399139940738678,0.530503511428833,-0.19579945504665375,0.6818637847900391,0.24221031367778778,0.5298524498939514,-0.2519262731075287,0.9391974210739136,0.3940219283103943,0.5295952558517456,-0.2372090071439743,0.6910495758056641,0.25237277150154114,0.5271070599555969,-0.28686100244522095,0.9412417411804199,0.3899139165878296,0.5219672322273254,-0.1808231920003891,0.6779635548591614,0.2590736150741577,0.5197051167488098,-0.22802424430847168,0.9292860627174377,0.36341598629951477,0.5142288208007812,0.012799717485904694,0.999444305896759,0.30355197191238403,0.516398012638092,-0.012836342677474022,0.9997916221618652,0.37166792154312134,0.6449577808380127,0.13742902874946594,0.9875749349594116,0.29900333285331726,0.6596774458885193,-0.0031124306842684746,0.9951756596565247,0.3769839406013489,0.7665820717811584,0.41632622480392456,0.9774844646453857,0.29352104663848877,0.7766292691230774,0.19146698713302612,0.9885085225105286,0.3674251139163971,0.7861658930778503,0.4374287724494934,0.9210895299911499,0.2993992567062378,0.7908248901367188,0.20325803756713867,0.9006875157356262,0.40771326422691345,0.8038851618766785,0.31749776005744934,0.9643433690071106,0.2863999307155609,0.826239287853241,0.05768439918756485,0.9758260250091553
24,0.3261670172214508,0.23353447020053864,-0.327747106552124,0.9998952746391296,0.3320855498313904,0.22055095434188843,-0.3085363507270813,0.9996200799942017,0.33532196283340454,0.22084888815879822,-0.3085862696170807,0.9995723366737366,0.338476300239563,0.2209860235452652,-0.3085617125034332,0.9994529485702515,0.32035309076309204,0.2204413264989853,-0.3119731545448303,0.9997094869613647,0.31606337428092957,0.2207256406545639,-0.312008798122406,0.9997191429138184,0.31233808398246765,0.22091808915138245,-0.31208932399749756,0.9997416734695435,0.3436580300331116,0.22846360504627228,-0.17768672108650208,0.9987260103225708,0.30625954270362854,0.22835567593574524,-0.20025134086608887,0.9996511936187744,0.3335142135620117,0.2494545429944992,-0.27847588062286377,0.9997804760932922,0.3189420998096466,0.24966557323932648,-0.2839094400405884,0.9998598098754883,0.378248393535614,0.31384578347206116,-0.07882027328014374,0.99955153465271,0.27549049258232117,0.31294238567352295,-0.12696929275989532,0.9998694658279419,0.39384815096855164,0.41603586077690125,-0.02329259179532528,0.8634023070335388,0.26057377457618713,0.4179493486881256,-0.09938791394233704,0.9885300397872925,0.41205501556396484,0.509727954864502,-0.16933095455169678,0.7587600350379944,0.24825246632099152,0.5175829529762268,-0.20956996083259583,0.9707085490226746,0.4176705777645111,0.5386406183242798,-0.20635566115379333,0.7107750773429871,0.2391810119152069,0.5465537905693054,-0.2489178627729416,0.9412693977355957,0.4116860032081604,0.5386479496955872,-0.248722642660141,0.7192924618721008,0.2493285834789276,0.5466061234474182,-0.2871488630771637,0.9435911178588867,0.40806716680526733,0.530850350856781,-0.1896631419658661,0.706943690776825,0.25616902112960815,0.5377015471458435,-0.2276611626148224,0.9323207139968872,0.36425381898880005,0.5179860591888428,0.016264546662569046,0.9994876980781555,0.30357104539871216,0.5222959518432617,-0.01627855747938156,0.9998078942298889,0.37441113591194153,0.6500009894371033,0.13519969582557678,0.9878891706466675,0.2988538146018982,0.6636103987693787,0.002324263099581003,0.9952802658081055,0.37709540128707886,0.7655232548713684,0.4098576605319977,0.9783802628517151,0.29357463121414185,0.7771239876747131,0.19604060053825378,0.9888849854469299,0.3673979640007019,0.7841857671737671,0.4305005669593811,0.9241576790809631,0.299319326877594,0.7909413576126099,0.20800045132637024,0.9004195332527161,0.4055841863155365,0.8039199113845825,0.31388506293296814,0.9659864902496338,0.28699058294296265,0.8274835348129272,0.0655284896492958,0.9765958786010742
25,0.32615238428115845,0.23624390363693237,-0.3398321866989136,0.9999054670333862,0.33201903104782104,0.22324439883232117,-0.31835946440696716,0.9996572732925415,0.3352450132369995,0.2235080599784851,-0.3183949589729309,0.9996141791343689,0.33834001421928406,0.2237527221441269,-0.3183562159538269,0.9995064735412598,0.3202536404132843,0.22324822843074799,-0.3216606378555298,0.9997377991676331,0.31595879793167114,0.22354617714881897,-0.3216959536075592,0.9997465014457703,0.3122730851173401,0.22385329008102417,-0.3217320144176483,0.9997666478157043,0.3436056673526764,0.23113586008548737,-0.1831165850162506,0.9988505244255066,0.30607831478118896,0.23108772933483124,-0.20429039001464844,0.9996848702430725,0.33348360657691956,0.2518986165523529,-0.2900051772594452,0.9998019933700562,0.31882408261299133,0.25199320912361145,-0.2954065203666687,0.9998735189437866,0.3782268166542053,0.31547313928604126,-0.07993702590465546,0.9995948672294617,0.2751726508140564,0.3154432475566864,-0.1349576860666275,0.9998815655708313,0.3998657763004303,0.41862159967422485,-0.018057022243738174,0.8763107657432556,0.2596736550331116,0.4242580533027649,-0.11000923812389374,0.9891093373298645,0.4258200228214264,0.5151760578155518,-0.1509416401386261,0.7821932435035706,0.24533382058143616,0.5288909673690796,-0.22237512469291687,0.9724425077438354,0.43312016129493713,0.5445671081542969,-0.18674242496490479,0.7379111647605896,0.23784999549388885,0.5592623353004456,-0.26126742362976074,0.9445127248764038,0.42751917243003845,0.544632077217102,-0.2337327003479004,0.7457325458526611,0.2479580193758011,0.5596166253089905,-0.299893319606781,0.9468284249305725,0.4240378737449646,0.5361799597740173,-0.17175549268722534,0.7343066930770874,0.25416988134384155,0.5489104986190796,-0.2403322458267212,0.9362058043479919,0.3645564913749695,0.5251240730285645,0.019262593239545822,0.9995297789573669,0.3034944236278534,0.52937251329422,-0.019260473549365997,0.9998230338096619,0.37821510434150696,0.6599479913711548,0.12155403196811676,0.9881870150566101,0.2979649603366852,0.6705753803253174,0.004686645232141018,0.9954510927200317,0.3771372139453888,0.7662900686264038,0.3895221948623657,0.9791033267974854,0.29353561997413635,0.782531201839447,0.20365306735038757,0.9893187284469604,0.3674272298812866,0.7842660546302795,0.4091755449771881,0.9265812635421753,0.29930001497268677,0.7945300340652466,0.21641698479652405,0.899867594242096,0.40555065870285034,0.8046368360519409,0.2941761612892151,0.9672716856002808,0.2872985005378723,0.830592155456543,0.07555001974105835,0.977400541305542
26,0.3261309564113617,0.24448372423648834,-0.33806878328323364,0.9999147653579712,0.33189499378204346,0.2303275316953659,-0.3169277012348175,0.9996910095214844,0.3351377844810486,0.23033353686332703,-0.3169673681259155,0.999652087688446,0.3382127583026886,0.23035818338394165,-0.31694406270980835,0.9995549917221069,0.32020628452301025,0.23053956031799316,-0.32025617361068726,0.9997634887695312,0.31595656275749207,0.23047424852848053,-0.32029077410697937,0.9997712969779968,0.31228333711624146,0.2303221970796585,-0.320309042930603,0.9997893571853638,0.34356534481048584,0.2361469864845276,-0.18282882869243622,0.9989638924598694,0.3060723841190338,0.23723316192626953,-0.20286545157432556,0.9997156262397766,0.3334401249885559,0.258710652589798,-0.2882104516029358,0.9998214840888977,0.31884875893592834,0.25846797227859497,-0.2935129404067993,0.9998859167098999,0.37822315096855164,0.31954556703567505,-0.07738985121250153,0.999634325504303,0.2752513289451599,0.32505717873573303,-0.13318850100040436,0.9998923540115356,0.40489616990089417,0.4187740385532379,-0.012127688154578209,0.8881590962409973,0.25943487882614136,0.4286695122718811,-0.118349090218544,0.989736020565033,0.43980592489242554,0.5154106020927429,-0.1359594762325287,0.8034777045249939,0.24373331665992737,0.5326659083366394,-0.24838843941688538,0.9743432998657227,0.4507316052913666,0.5452889204025269,-0.16921919584274292,0.7627319097518921,0.23682551085948944,0.5631677508354187,-0.2891760468482971,0.9481090307235718,0.4445808529853821,0.5455398559570312,-0.2144312560558319,0.7698972225189209,0.24756138026714325,0.5630414485931396,-0.32747751474380493,0.9503598213195801,0.4401237368583679,0.5365933179855347,-0.1566794216632843,0.7594045400619507,0.2535107731819153,0.5523286461830139,-0.26676255464553833,0.9404237866401672,0.36452600359916687,0.532148540019989,0.019443994387984276,0.999565601348877,0.30348852276802063,0.5358827710151672,-0.019411446526646614,0.9998327493667603,0.3842107057571411,0.6649578809738159,0.08895303308963776,0.9884305596351624,0.29621952772140503,0.6753445267677307,-0.0012040759902447462,0.9954779744148254,0.3785932958126068,0.7694891691207886,0.3618675172328949,0.9789302945137024,0.29352807998657227,0.7851849794387817,0.19832709431648254,0.9892898201942444,0.3685312271118164,0.7875322699546814,0.37522798776626587,0.9264373779296875,0.29923999309539795,0.7961829900741577,0.21117925643920898,0.8949375748634338,0.40821972489356995,0.8065282702445984,0.24399256706237793,0.9671505093574524,0.2870420217514038,0.8325783610343933,0.0724000558257103,0.9772384166717529
27,0.3261451721191406,0.25673726201057434,-0.3265412151813507,0.9999231100082397,0.3318323493003845,0.24404889345169067,-0.30151280760765076,0.9997214674949646,0.335079550743103,0.24405662715435028,-0.3015696406364441,0.9996863603591919,0.33808061480522156,0.24388663470745087,-0.30157923698425293,0.9995988607406616,0.32020899653434753,0.24473920464515686,-0.3052175045013428,0.9997866749763489,0.31596866250038147,0.24506059288978577,-0.3052322268486023,0.9997937083244324,0.3122979402542114,0.24516598880290985,-0.3051947355270386,0.9998098611831665,0.34337806701660156,0.24883630871772766,-0.16283434629440308,0.9990665316581726,0.3059980273246765,0.2517833113670349,-0.1826207935810089,0.9997433423995972,0.33344611525535583,0.2708611488342285,-0.2757905125617981,0.9998391270637512,0.3188672959804535,0.27159059047698975,-0.28167563676834106,0.9998971223831177,0.378217488527298,0.3309008479118347,-0.06567670404911041,0.9996700882911682,0.2753241956233978,0.33795878291130066,-0.12163444608449936,0.9999014735221863,0.4095434546470642,0.42222145199775696,-0.006431175861507654,0.8989533185958862,0.2591405212879181,0.43525370955467224,-0.13789311051368713,0.9900580048561096,0.4493430256843567,0.5137720704078674,-0.12795497477054596,0.8227270841598511,0.24274635314941406,0.5314058661460876,-0.3173871636390686,0.975919246673584,0.46060848236083984,0.5428820848464966,-0.16136184334754944,0.7853062152862549,0.23552413284778595,0.5609633326530457,-0.3664836585521698,0.9512543082237244,0.45610323548316956,0.5429379343986511,-0.2043529450893402,0.7918692231178284,0.2464234083890915,0.5604392290115356,-0.4019964635372162,0.9534518718719482,0.4514908790588379,0.5344931483268738,-0.14829131960868835,0.7822547554969788,0.2524380683898926,0.5511183142662048,-0.3367590308189392,0.9441088438034058,0.36437851190567017,0.5432794094085693,0.019053202122449875,0.9996011257171631,0.3032539486885071,0.5472730994224548,-0.019013909623026848,0.9998422265052795,0.3885519206523895,0.6672532558441162,0.07438598573207855,0.9890043139457703,0.2933405935764313,0.6819173693656921,0.001361054484732449,0.995630145072937,0.38317936658859253,0.7695122361183167,0.3473729193210602,0.9790264368057251,0.2928680181503296,0.7853413820266724,0.2291557490825653,0.989509105682373,0.37306949496269226,0.7874565720558167,0.3670760989189148,0.9261340498924255,0.298610121011734,0.7965806722640991,0.24518927931785583,0.8930847644805908,0.410318523645401,0.807695746421814,0.25067394971847534,0.9674298167228699,0.2861247658729553,0.8324562311172485,0.10970920324325562,0.9776837825775146
28,0.32678645849227905,0.2964693009853363,-0.2563144266605377,0.9999305605888367,0.3322836458683014,0.28364595770835876,-0.23604953289031982,0.9997483491897583,0.3352870047092438,0.28348493576049805,-0.23609046638011932,0.9997166395187378,0.33819007873535156,0.2834160625934601,-0.23613648116588593,0.9996377825737,0.32115697860717773,0.28419211506843567,-0.23843488097190857,0.999806821346283,0.31672051548957825,0.284491628408432,-0.23844103515148163,0.9998130202293396,0.31301969289779663,0.2849865257740021,-0.23837915062904358,0.9998271465301514,0.34339994192123413,0.2882216274738312,-0.10887694358825684,0.999158501625061,0.30689767003059387,0.2891322672367096,-0.1226206049323082,0.9997668862342834,0.3337751030921936,0.31056705117225647,-0.20864352583885193,0.9998546242713928,0.3197994530200958,0.3114510476589203,-0.21259739995002747,0.9999066591262817,0.3780040442943573,0.3615592122077942,-0.019445430487394333,0.9997022747993469,0.27796363830566406,0.36318621039390564,-0.06755135208368301,0.9999069571495056,0.4147738516330719,0.425331175327301,0.040122225880622864,0.9085292816162109,0.2577858567237854,0.43447011709213257,-0.1463230401277542,0.9903172850608826,0.46138039231300354,0.4956068694591522,-0.06351425498723984,0.8401989340782166,0.24382582306861877,0.49973365664482117,-0.3788451850414276,0.9774259924888611,0.4752187728881836,0.5105994343757629,-0.09234516322612762,0.8060437440872192,0.23634345829486847,0.5287033319473267,-0.4305080473423004,0.9541705846786499,0.4724256992340088,0.5116094946861267,-0.13092154264450073,0.8120555877685547,0.24729228019714355,0.5246546864509583,-0.45420151948928833,0.9562973976135254,0.46680349111557007,0.5070433020591736,-0.08218362182378769,0.8032605648040771,0.2527492642402649,0.514946460723877,-0.39571061730384827,0.9476032853126526,0.3643355369567871,0.5633390545845032,0.015009167604148388,0.9996286034584045,0.30346599221229553,0.5648221373558044,-0.01491332333534956,0.9998459219932556,0.3963319957256317,0.6721391081809998,0.017194803804159164,0.9897139668464661,0.28711575269699097,0.6913872361183167,-0.03613476827740669,0.9959109425544739,0.3853725790977478,0.7711161375045776,0.2983555197715759,0.9797495007514954,0.2915394902229309,0.785167396068573,0.22497375309467316,0.990043580532074,0.37408939003944397,0.7883387804031372,0.3202490508556366,0.9267075061798096,0.2983899712562561,0.7965518832206726,0.22679555416107178,0.8967517018318176,0.4125083386898041,0.8091176152229309,0.21583914756774902,0.968547523021698,0.28345543146133423,0.8320106267929077,0.09308280050754547,0.9788304567337036
29,0.327647864818573,0.3208279609680176,-0.2347719967365265,0.9999371767044067,0.33289021253585815,0.3073190748691559,-0.21067647635936737,0.9997724294662476,0.3357011079788208,0.30715543031692505,-0.21071860194206238,0.999743640422821,0.33865925669670105,0.30729201436042786,-0.21077342331409454,0.9996725916862488,0.322213351726532,0.3077564537525177,-0.21362707018852234,0.9998248219490051,0.317653626203537,0.3079134225845337,-0.21363425254821777,0.9998301863670349,0.3137834370136261,0.3083164393901825,-0.21357575058937073,0.9998424649238586,0.3436944782733917,0.31227096915245056,-0.07483704388141632,0.9992409944534302,0.3079027831554413,0.3121071457862854,-0.08967454731464386,0.9997879266738892,0.334360271692276,0.33460554480552673,-0.18469518423080444,0.9998681545257568,0.3206740915775299,0.3348795175552368,-0.18893900513648987,0.9999147653579712,0.37715256214141846,0.3803409934043884,0.010507696308195591,0.9997294545173645,0.2814182639122009,0.3804798424243927,-0.05167349427938461,0.9999048709869385,0.4171253740787506,0.4299721121788025,0.018524836748838425,0.916533887386322,0.25787562131881714,0.43495607376098633,-0.1790998876094818,0.9909055829048157,0.4627985954284668,0.4778975248336792,-0.09962029755115509,0.8558202385902405,0.24746449291706085,0.4773327112197876,-0.4153439402580261,0.9793015718460083,0.4779970049858093,0.487115740776062,-0.13841889798641205,0.8245394229888916,0.24098734557628632,0.4985809326171875,-0.46453696489334106,0.957763135433197,0.47415071725845337,0.48721781373023987,-0.14016124606132507,0.8300873637199402,0.2534310519695282,0.49479442834854126,-0.4765656888484955,0.9597252011299133,0.46730494499206543,0.485068678855896,-0.11224838346242905,0.8219836354255676,0.2582215964794159,0.48853152990341187,-0.42669209837913513,0.9516472816467285,0.36350470781326294,0.5739938020706177,0.014888997189700603,0.9996490478515625,0.30344587564468384,0.5754116773605347,-0.014777119271457195,0.9998390674591064,0.4011887013912201,0.6757985949516296,-0.1249522715806961,0.9904017448425293,0.28506946563720703,0.6986795663833618,-0.10904785245656967,0.9961248636245728,0.38687819242477417,0.7722719311714172,0.13550779223442078,0.9801869988441467,0.291217565536499,0.7866378426551819,0.1306242048740387,0.9903708100318909,0.3758160471916199,0.7887964248657227,0.15533901751041412,0.9278515577316284,0.29836785793304443,0.7986956834793091,0.14709918200969696,0.8985685706138611,0.41478443145751953,0.8098183274269104,0.05005825310945511,0.9693073630332947,0.28254204988479614,0.8325523734092712,0.03391629830002785,0.9794917106628418
30,0.3283427357673645,0.3448180556297302,-0.18191063404083252,0.999943196773529,0.3332788348197937,0.3321217894554138,-0.1577862799167633,0.9997943639755249,0.33591169118881226,0.3319869637489319,-0.1577974259853363,0.9997682571411133,0.33876118063926697,0.33188432455062866,-0.15784570574760437,0.9997043013572693,0.32301002740859985,0.3331558406352997,-0.1615844964981079,0.9998413920402527,0.31854960322380066,0.3334785997867584,-0.16160203516483307,0.9998461604118347,0.31477832794189453,0.3337653577327728,-0.16154572367668152,0.9998569488525391,0.34372490644454956,0.3365197479724884,-0.027294406667351723,0.9993158578872681,0.30909234285354614,0.33713212609291077,-0.045047905296087265,0.9998079538345337,0.33503326773643494,0.35788777470588684,-0.13396653532981873,0.9998804926872253,0.32188719511032104,0.35793665051460266,-0.1390962302684784,0.9999223351478577,0.37652865052223206,0.39798635244369507,0.04293128848075867,0.9997518658638,0.28401851654052734,0.3979811370372772,-0.041043348610401154,0.999906599521637,0.41718488931655884,0.43557408452033997,-0.00804121419787407,0.9226028323173523,0.2604033052921295,0.4365324378013611,-0.22918543219566345,0.9916471838951111,0.45865708589553833,0.460346519947052,-0.19640395045280457,0.8695799112319946,0.2534712553024292,0.4615127742290497,-0.4769518971443176,0.981186032295227,0.47379201650619507,0.46553850173950195,-0.23392346501350403,0.8406855463981628,0.24698743224143982,0.4760150909423828,-0.5279080271720886,0.9614443778991699,0.4691088795661926,0.46245163679122925,-0.2542330026626587,0.8458618521690369,0.2595300078392029,0.4710609018802643,-0.5262002348899841,0.9632233381271362,0.46239909529685974,0.4619750380516052,-0.21189935505390167,0.8382694721221924,0.2638273239135742,0.467602401971817,-0.48337921500205994,0.9557433724403381,0.36272233724594116,0.5846185088157654,0.015181819908320904,0.9996768236160278,0.30346232652664185,0.5869037508964539,-0.01507996954023838,0.9998455047607422,0.403555691242218,0.6781343221664429,-0.2385280430316925,0.9911535978317261,0.2829701900482178,0.7022854089736938,-0.16278383135795593,0.996364176273346,0.3870239853858948,0.7725217342376709,0.006120956502854824,0.9808383584022522,0.2911962866783142,0.7881501913070679,0.07016358524560928,0.9906450510025024,0.3758842349052429,0.7875851392745972,0.025696437805891037,0.9302716255187988,0.2987214922904968,0.7994032502174377,0.08781122416257858,0.9014919996261597,0.4144816994667053,0.8101359605789185,-0.07763263583183289,0.9704639911651611,0.28069809079170227,0.8334670662879944,-0.01653395965695381,0.9800242781639099
31,0.32970237731933594,0.3674236834049225,-0.189862459897995,0.9999482035636902,0.333870530128479,0.354892373085022,-0.1665521264076233,0.9998134970664978,0.33635178208351135,0.3544827997684479,-0.16657546162605286,0.9997897744178772,0.3392600119113922,0.3542308807373047,-0.16662701964378357,0.9997321963310242,0.3240981101989746,0.3564520478248596,-0.17172031104564667,0.9998552799224854,0.31991708278656006,0.35690054297447205,-0.17172619700431824,0.9998592138290405,0.3161696791648865,0.35729295015335083,-0.17168709635734558,0.9998682737350464,0.3439072370529175,0.3581598997116089,-0.039440564811229706,0.9993826150894165,0.3105379045009613,0.3601970672607422,-0.06288871169090271,0.9998244047164917,0.33597809076309204,0.3800235688686371,-0.14279459416866302,0.9998911619186401,0.32366663217544556,0.3803178071975708,-0.14963102340698242,0.99992835521698,0.37572577595710754,0.4156762659549713,0.02287585474550724,0.9997707009315491,0.2871444821357727,0.41729485988616943,-0.05885167047381401,0.999890923500061,0.41528645157814026,0.4434756338596344,-0.10019688308238983,0.9283479452133179,0.26475149393081665,0.450600266456604,-0.2750645875930786,0.9921472668647766,0.45208558440208435,0.44923684000968933,-0.3310631215572357,0.8819983005523682,0.26550447940826416,0.4519330859184265,-0.5206009745597839,0.9827235341072083,0.46610403060913086,0.4497600793838501,-0.3746422827243805,0.8553311824798584,0.2626064717769623,0.4522075355052948,-0.5719218850135803,0.964377224445343,0.46149641275405884,0.4439949691295624,-0.3857150077819824,0.8600903153419495,0.270786851644516,0.448116272687912,-0.5633090734481812,0.9659623503684998,0.4552781581878662,0.4455666244029999,-0.3433559834957123,0.852973222732544,0.27441444993019104,0.44930925965309143,-0.5244625806808472,0.958810567855835,0.3612360954284668,0.5959917902946472,0.01598268561065197,0.9997038245201111,0.3036162555217743,0.600689172744751,-0.01590919680893421,0.9998489022254944,0.40488141775131226,0.6835873126983643,-0.23218615353107452,0.9918122887611389,0.2831820547580719,0.7037981748580933,-0.14761069416999817,0.9965421557426453,0.3876899182796478,0.7730816006660461,0.015301081351935863,0.981317937374115,0.29196450114250183,0.7881004810333252,0.10014907270669937,0.9907498955726624,0.3762907385826111,0.7875357270240784,0.03578244522213936,0.9321749806404114,0.2998451292514801,0.7993123531341553,0.11968880891799927,0.9028566479682922,0.41420483589172363,0.8107315301895142,-0.06403248012065887,0.9713504910469055,0.28078100085258484,0.8327097296714783,0.014517602510750294,0.9801557660102844
32,0.3318192660808563,0.38936445116996765,-0.2152860164642334,0.9999521374702454,0.3347840905189514,0.37728700041770935,-0.19290877878665924,0.9998296499252319,0.33714380860328674,0.37696266174316406,-0.19295087456703186,0.9998078346252441,0.3401312232017517,0.37678349018096924,-0.19301863014698029,0.9997562170028687,0.3257299065589905,0.3781261444091797,-0.19768038392066956,0.9998661875724792,0.3220847249031067,0.37828606367111206,-0.1976756751537323,0.9998689889907837,0.3182012438774109,0.37864768505096436,-0.19763407111167908,0.9998766183853149,0.3440231382846832,0.3805065155029297,-0.06931649893522263,0.9994415044784546,0.31206122040748596,0.38248369097709656,-0.0902346521615982,0.9998382329940796,0.33701664209365845,0.40164080262184143,-0.16947346925735474,0.9998998641967773,0.3262375593185425,0.40152546763420105,-0.1755206137895584,0.999933123588562,0.37328121066093445,0.4333881437778473,0.01098238117992878,0.9997844099998474,0.28901535272598267,0.4384322464466095,-0.06466798484325409,0.9998747706413269,0.4140044152736664,0.45813214778900146,-0.17873969674110413,0.9346829056739807,0.27304044365882874,0.4794551730155945,-0.2799505293369293,0.9925796389579773,0.4470687508583069,0.4485814869403839,-0.41830533742904663,0.8934007883071899,0.2771938145160675,0.45268914103507996,-0.5073206424713135,0.9841498136520386,0.46395882964134216,0.4426285922527313,-0.4684543013572693,0.8688268661499023,0.2734731137752533,0.4433760941028595,-0.5578528642654419,0.9671151638031006,0.4566667675971985,0.4363546371459961,-0.4710707664489746,0.8731409907341003,0.2787930369377136,0.4386628270149231,-0.5523428916931152,0.9685065150260925,0.44934043288230896,0.43987196683883667,-0.4284619688987732,0.8664692640304565,0.28224000334739685,0.4435613453388214,-0.512573778629303,0.9616304039955139,0.3587951064109802,0.6054175496101379,0.0153266042470932,0.9997217059135437,0.30362439155578613,0.6084519028663635,-0.015258406288921833,0.9998463988304138,0.40597811341285706,0.6864826083183289,-0.23243311047554016,0.9922170639038086,0.2814919352531433,0.7044448256492615,-0.24155974388122559,0.9967235326766968,0.38739269971847534,0.7769026160240173,-0.016572626307606697,0.9812542200088501,0.2921256124973297,0.7884780764579773,-0.03185824304819107,0.9908385276794434,0.37611475586891174,0.7902709245681763,-0.0004021679051220417,0.933685839176178,0.2998930811882019,0.799624502658844,-0.01580549031496048,0.905433177947998,0.41523438692092896,0.8118873834609985,-0.09933526813983917,0.9712790846824646,0.2809903025627136,0.8319286108016968,-0.12242390960454941,0.9803763031959534
33,0.33166903257369995,0.4326557219028473,-0.17478594183921814,0.9999553561210632,0.3348287045955658,0.42136773467063904,-0.15267381072044373,0.9998429417610168,0.3371858596801758,0.4210589528083801,-0.15269942581653595,0.9998222589492798,0.34013715386390686,0.4208548665046692,-0.15278074145317078,0.9997758269309998,0.3259487748146057,0.4213256239891052,-0.15472951531410217,0.9998751878738403,0.32261908054351807,0.4210284352302551,-0.1547449231147766,0.9998767375946045,0.3192480206489563,0.4208177626132965,-0.15476174652576447,0.9998840093612671,0.3442518711090088,0.42395079135894775,-0.04135771840810776,0.9994897842407227,0.31429558992385864,0.4237751364707947,-0.05218354985117912,0.9998508095741272,0.33702749013900757,0.4442920982837677,-0.1341324746608734,0.9999051094055176,0.3263774514198303,0.44402846693992615,-0.13737408816814423,0.9999364018440247,0.37094035744667053,0.47251617908477783,0.026438996195793152,0.9997841715812683,0.2938571870326996,0.47187355160713196,-0.04195545241236687,0.9998694658279419,0.41473397612571716,0.4846799075603485,-0.17591270804405212,0.9405396580696106,0.27216461300849915,0.5015431642532349,-0.2014433890581131,0.9929784536361694,0.43432706594467163,0.4452746510505676,-0.23679499328136444,0.9036495685577393,0.28300637006759644,0.4417169988155365,-0.3462599813938141,0.9854294061660767,0.4445277750492096,0.4309860169887543,-0.25870805978775024,0.880388081073761,0.2836835980415344,0.4265556037425995,-0.37968748807907104,0.9691432118415833,0.43810224533081055,0.4253445267677307,-0.24008527398109436,0.8841690421104431,0.28824499249458313,0.42538222670555115,-0.36559420824050903,0.9702169895172119,0.4314694404602051,0.4315129220485687,-0.23061606287956238,0.8775995373725891,0.2895551323890686,0.43227332830429077,-0.34488624334335327,0.963421106338501,0.35701945424079895,0.6259601712226868,0.017091695219278336,0.999734103679657,0.30362462997436523,0.6264157891273499,-0.01702597364783287,0.9998511075973511,0.4080168306827545,0.6856778860092163,-0.2007250040769577,0.9924109578132629,0.27994921803474426,0.7072916626930237,-0.3033190369606018,0.9968997836112976,0.3873406648635864,0.7763086557388306,-0.008604688569903374,0.9813004732131958,0.2921261191368103,0.7884171009063721,-0.08838235586881638,0.991033136844635,0.3740467429161072,0.7901433706283569,0.0065828487277030945,0.9365324974060059,0.29987311363220215,0.7991959452629089,-0.06973102688789368,0.9098758697509766,0.413787305355072,0.8105047345161438,-0.07409355789422989,0.9712711572647095,0.2819264233112335,0.8294801115989685,-0.16196444630622864,0.9808624386787415
34,0.33213290572166443,0.45469218492507935,-0.17533628642559052,0.999958336353302,0.3350313603878021,0.44284045696258545,-0.15246741473674774,0.9998559355735779,0.3373394012451172,0.4421294033527374,-0.1525026112794876,0.9998366832733154,0.34017065167427063,0.4414563477039337,-0.1525917500257492,0.9997948408126831,0.32653337717056274,0.4440290033817291,-0.15507285296916962,0.9998840689659119,0.32328301668167114,0.4440547823905945,-0.1550966203212738,0.9998847842216492,0.31995922327041626,0.44408613443374634,-0.1551157385110855,0.9998914003372192,0.3442530035972595,0.44407862424850464,-0.043724894523620605,0.9995369911193848,0.3144375681877136,0.44681063294410706,-0.055771104991436005,0.9998634457588196,0.3375219404697418,0.465268075466156,-0.136061429977417,0.9999117255210876,0.32752370834350586,0.466211199760437,-0.13971278071403503,0.9999400973320007,0.3700292408466339,0.49365994334220886,0.010938120074570179,0.9997720122337341,0.2949525713920593,0.4942140281200409,-0.05389055609703064,0.999844491481781,0.41415029764175415,0.49846166372299194,-0.11254245042800903,0.9455774426460266,0.2734972834587097,0.5157333612442017,-0.21537263691425323,0.9932105541229248,0.4295439124107361,0.44919031858444214,-0.23931999504566193,0.9124330878257751,0.29051417112350464,0.4463058114051819,-0.35820823907852173,0.986320972442627,0.43703770637512207,0.43388646841049194,-0.2600401043891907,0.8893195390701294,0.2960832417011261,0.43088653683662415,-0.39151471853256226,0.9699319005012512,0.4299349784851074,0.42800456285476685,-0.2508638799190521,0.8924371004104614,0.300516813993454,0.43098676204681396,-0.37584152817726135,0.9704169631004333,0.42418065667152405,0.4350641071796417,-0.2349046766757965,0.8855694532394409,0.29950934648513794,0.43842360377311707,-0.3569696545600891,0.9630430936813354,0.355527400970459,0.6431084275245667,0.01677819713950157,0.9997470378875732,0.3029792606830597,0.6431319713592529,-0.01670048199594021,0.9998567700386047,0.4077130854129791,0.6887503266334534,-0.2307850569486618,0.9924177527427673,0.27801352739334106,0.7098111510276794,-0.31688541173934937,0.9970242977142334,0.38716045022010803,0.7760236263275146,-0.027772685512900352,0.9808371663093567,0.2921660840511322,0.7862800359725952,-0.09277263283729553,0.9910377264022827,0.373875230550766,0.7900401949882507,-0.010765284299850464,0.9389524459838867,0.29992878437042236,0.7972508072853088,-0.07296685129404068,0.9137215614318848,0.4121514856815338,0.8087325692176819,-0.08908946812152863,0.970430850982666,0.2835088074207306,0.8280636072158813,-0.16434642672538757,0.9807248711585999
35,0.33514875173568726,0.48052701354026794,-0.23562613129615784,0.9999611377716064,0.33692705631256104,0.46895840764045715,-0.21389511227607727,0.9998679161071777,0.3392130136489868,0.46798476576805115,-0.21394562721252441,0.9998499155044556,0.3417562246322632,0.4671379327774048,-0.2140592634677887,0.9998124837875366,0.3292309641838074,0.47004082798957825,-0.22134292125701904,0.9998929500579834,0.32598745822906494,0.4698337912559509,-0.22136780619621277,0.9998928308486938,0.32285070419311523,0.4696596562862396,-0.22137956321239471,0.9998988509178162,0.3446046710014343,0.4678625166416168,-0.10151118040084839,0.9995797276496887,0.31650424003601074,0.47008422017097473,-0.13210472464561462,0.9998754858970642,0.33957067131996155,0.48947152495384216,-0.19331015646457672,0.9999184608459473,0.33096951246261597,0.4903612434864044,-0.2025664746761322,0.9999446272850037,0.3693113923072815,0.5097225308418274,-0.05106038600206375,0.9997681975364685,0.295675128698349,0.5117605328559875,-0.12719115614891052,0.999832272529602,0.4125126302242279,0.511330783367157,-0.20374062657356262,0.9504055976867676,0.2776463031768799,0.5268372297286987,-0.31880494952201843,0.9935593605041504,0.4216250777244568,0.45092782378196716,-0.3760824203491211,0.920353353023529,0.2960227131843567,0.45251601934432983,-0.4860721528530121,0.9872168302536011,0.4269917905330658,0.44242948293685913,-0.41298365592956543,0.8978807330131531,0.3001849055290222,0.4423377215862274,-0.5291895270347595,0.9712305665016174,0.4193655848503113,0.43844035267829895,-0.40246739983558655,0.9004517793655396,0.30407223105430603,0.4416893720626831,-0.5111249089241028,0.9712246060371399,0.4146408438682556,0.4441053569316864,-0.3786197006702423,0.8931897282600403,0.3038870692253113,0.448600172996521,-0.48491135239601135,0.9628373980522156,0.35483574867248535,0.6577543020248413,0.01860741339623928,0.9997597932815552,0.30305272340774536,0.6580914855003357,-0.018497271463274956,0.999863862991333,0.4108666777610779,0.6890012621879578,-0.2276095598936081,0.9927437901496887,0.2762942314147949,0.7108805179595947,-0.36788514256477356,0.9972251653671265,0.38657012581825256,0.7756465077400208,-0.010792745277285576,0.9808908104896545,0.2918248772621155,0.7861756682395935,-0.1366187036037445,0.9913461804389954,0.37178829312324524,0.7893556356430054,0.00695356260985136,0.9419600367546082,0.29957258701324463,0.7979936003684998,-0.11730518192052841,0.9185634851455688,0.4117378294467926,0.8085508942604065,-0.07182560116052628,0.970127522945404,0.2835540771484375,0.8278535008430481,-0.21413679420948029,0.9811505675315857
36,0.3357754349708557,0.4961044192314148,-0.21596305072307587,0.99996018409729,0.33737945556640625,0.4846877455711365,-0.19639214873313904,0.9998717308044434,0.3396543860435486,0.48396286368370056,-0.19645605981349945,0.9998541474342346,0.34213942289352417,0.4832953214645386,-0.19657476246356964,0.9998207688331604,0.3297582268714905,0.4857274889945984,-0.20497839152812958,0.9998931884765625,0.3264788091182709,0.4857454299926758,-0.20501697063446045,0.9998908042907715,0.32329893112182617,0.4856718182563782,-0.20504243671894073,0.9998949766159058,0.3446812629699707,0.4829491674900055,-0.09526576846837997,0.9996095895767212,0.3166336417198181,0.48571473360061646,-0.12038610130548477,0.9998809695243835,0.3400361239910126,0.5047008991241455,-0.1774333268404007,0.9999171495437622,0.331176221370697,0.5051915049552917,-0.18908575177192688,0.9999424815177917,0.36919206380844116,0.5246661901473999,-0.04684321954846382,0.9997223615646362,0.29535558819770813,0.5283071398735046,-0.11691270023584366,0.9997851848602295,0.40816575288772583,0.5294623374938965,-0.1884375512599945,0.9539299607276917,0.28016987442970276,0.5363767147064209,-0.2919345498085022,0.9933461546897888,0.41747990250587463,0.464789479970932,-0.34036463499069214,0.9269578456878662,0.29617542028427124,0.4567795693874359,-0.43893441557884216,0.9875075221061707,0.42351141571998596,0.44881317019462585,-0.37208783626556396,0.9042253494262695,0.2980259954929352,0.4474053978919983,-0.4777422547340393,0.9707434177398682,0.41712841391563416,0.444915235042572,-0.3620220124721527,0.9062405228614807,0.3011596202850342,0.44603732228279114,-0.4705004096031189,0.9699435830116272,0.41218098998069763,0.4457941949367523,-0.3426322340965271,0.8984238505363464,0.30181294679641724,0.4526020884513855,-0.43932804465293884,0.9596052169799805,0.3544953763484955,0.6694618463516235,0.018470991402864456,0.9997685551643372,0.30306726694107056,0.6709933876991272,-0.01837858557701111,0.9998692274093628,0.4118095338344574,0.6912875771522522,-0.22471070289611816,0.993002712726593,0.27492642402648926,0.7101369500160217,-0.3571847081184387,0.9973918199539185,0.3856178820133209,0.7755569219589233,-0.013837099075317383,0.9807727336883545,0.2920406460762024,0.7843427658081055,-0.11944303661584854,0.9914560914039612,0.37085583806037903,0.7893030047416687,0.004260466434061527,0.9444870352745056,0.2997521162033081,0.7968409061431885,-0.09849391877651215,0.9223857522010803,0.41154250502586365,0.807521641254425,-0.06683825701475143,0.9697105884552002,0.28580936789512634,0.8265094757080078,-0.185225710272789,0.9811722040176392
37,0.3356017470359802,0.5104573369026184,-0.16011886298656464,0.9999605417251587,0.33758991956710815,0.49867334961891174,-0.14037665724754333,0.9998784065246582,0.33991628885269165,0.49804872274398804,-0.14042727649211884,0.9998622536659241,0.3424074947834015,0.4974713623523712,-0.14051005244255066,0.9998319745063782,0.32977181673049927,0.49971869587898254,-0.14437560737133026,0.9998963475227356,0.32643410563468933,0.4997863471508026,-0.1444031000137329,0.9998930096626282,0.3232310116291046,0.49966925382614136,-0.1444205939769745,0.9998953342437744,0.34522128105163574,0.49734261631965637,-0.04395429044961929,0.999641478061676,0.31719666719436646,0.5000763535499573,-0.05985677242279053,0.9998875856399536,0.34003105759620667,0.5192018747329712,-0.12415246665477753,0.9999163150787354,0.33084145188331604,0.5202949643135071,-0.1292441487312317,0.9999388456344604,0.3694184422492981,0.5382611751556396,-0.02721456065773964,0.9996883273124695,0.29548054933547974,0.5446042418479919,-0.06359852850437164,0.9997161626815796,0.40618258714675903,0.5382346510887146,-0.1608642041683197,0.9572451114654541,0.2802852690219879,0.5461797118186951,-0.23918116092681885,0.992929995059967,0.4156985878944397,0.48388221859931946,-0.3085881471633911,0.9327895641326904,0.29872480034828186,0.47584205865859985,-0.3634033799171448,0.9870002865791321,0.42080241441726685,0.46314194798469543,-0.3393610119819641,0.9094069004058838,0.30112096667289734,0.45573729276657104,-0.3948984742164612,0.9674795866012573,0.4140945076942444,0.4589627981185913,-0.3343289792537689,0.910905122756958,0.3061766028404236,0.45606616139411926,-0.37800368666648865,0.9653240442276001,0.4094058871269226,0.46667271852493286,-0.3111996054649353,0.902610182762146,0.3070056438446045,0.46559035778045654,-0.3614225387573242,0.9524756669998169,0.35496675968170166,0.6834155321121216,0.010507429949939251,0.9997780323028564,0.30543914437294006,0.6850168704986572,-0.010360516607761383,0.9998738169670105,0.4128674566745758,0.6922367215156555,-0.22944872081279755,0.9932843446731567,0.27193668484687805,0.710898756980896,-0.32489484548568726,0.9975507259368896,0.3847213387489319,0.7766926288604736,-0.07001633197069168,0.981055736541748,0.2920414209365845,0.7851564288139343,-0.11128797382116318,0.9910216927528381,0.37055152654647827,0.7902128100395203,-0.057194262742996216,0.9468826055526733,0.30045267939567566,0.797051191329956,-0.0924018993973732,0.9245580434799194,0.41143059730529785,0.8068065643310547,-0.13155712187290192,0.9697245955467224,0.28574368357658386,0.8266666531562805,-0.16662339866161346,0.9799737334251404
