frame,NOSE.x,NOSE.y,NOSE.z,NOSE.v,LEFT_EYE_INNER.x,LEFT_EYE_INNER.y,LEFT_EYE_INNER.z,LEFT_EYE_INNER.v,LEFT_EYE.x,LEFT_EYE.y,LEFT_EYE.z,LEFT_EYE.v,LEFT_EYE_OUTER.x,LEFT_EYE_OUTER.y,LEFT_EYE_OUTER.z,LEFT_EYE_OUTER.v,RIGHT_EYE_INNER.x,RIGHT_EYE_INNER.y,RIGHT_EYE_INNER.z,RIGHT_EYE_INNER.v,RIGHT_EYE.x,RIGHT_EYE.y,RIGHT_EYE.z,RIGHT_EYE.v,RIGHT_EYE_OUTER.x,RIGHT_EYE_OUTER.y,RIGHT_EYE_OUTER.z,RIGHT_EYE_OUTER.v,LEFT_EAR.x,LEFT_EAR.y,LEFT_EAR.z,LEFT_EAR.v,RIGHT_EAR.x,RIGHT_EAR.y,RIGHT_EAR.z,RIGHT_EAR.v,MOUTH_LEFT.x,MOUTH_LEFT.y,MOUTH_LEFT.z,MOUTH_LEFT.v,MOUTH_RIGHT.x,MOUTH_RIGHT.y,MOUTH_RIGHT.z,MOUTH_RIGHT.v,LEFT_SHOULDER.x,LEFT_SHOULDER.y,LEFT_SHOULDER.z,LEFT_SHOULDER.v,RIGHT_SHOULDER.x,RIGHT_SHOULDER.y,RIGHT_SHOULDER.z,RIGHT_SHOULDER.v,LEFT_ELBOW.x,LEFT_ELBOW.y,LEFT_ELBOW.z,LEFT_ELBOW.v,RIGHT_ELBOW.x,RIGHT_ELBOW.y,RIGHT_ELBOW.z,RIGHT_ELBOW.v,LEFT_WRIST.x,LEFT_WRIST.y,LEFT_WRIST.z,LEFT_WRIST.v,RIGHT_WRIST.x,RIGHT_WRIST.y,RIGHT_WRIST.z,RIGHT_WRIST.v,LEFT_PINKY.x,LEFT_PINKY.y,LEFT_PINKY.z,LEFT_PINKY.v,RIGHT_PINKY.x,RIGHT_PINKY.y,RIGHT_PINKY.z,RIGHT_PINKY.v,LEFT_INDEX.x,LEFT_INDEX.y,LEFT_INDEX.z,LEFT_INDEX.v,RIGHT_INDEX.x,RIGHT_INDEX.y,RIGHT_INDEX.z,RIGHT_INDEX.v,LEFT_THUMB.x,LEFT_THUMB.y,LEFT_THUMB.z,LEFT_THUMB.v,RIGHT_THUMB.x,RIGHT_THUMB.y,RIGHT_THUMB.z,RIGHT_THUMB.v,LEFT_HIP.x,LEFT_HIP.y,LEFT_HIP.z,LEFT_HIP.v,RIGHT_HIP.x,RIGHT_HIP.y,RIGHT_HIP.z,RIGHT_HIP.v,LEFT_KNEE.x,LEFT_KNEE.y,LEFT_KNEE.z,LEFT_KNEE.v,RIGHT_KNEE.x,RIGHT_KNEE.y,RIGHT_KNEE.z,RIGHT_KNEE.v,LEFT_ANKLE.x,LEFT_ANKLE.y,LEFT_ANKLE.z,LEFT_ANKLE.v,RIGHT_ANKLE.x,RIGHT_ANKLE.y,RIGHT_ANKLE.z,RIGHT_ANKLE.v,LEFT_HEEL.x,LEFT_HEEL.y,LEFT_HEEL.z,LEFT_HEEL.v,RIGHT_HEEL.x,RIGHT_HEEL.y,RIGHT_HEEL.z,RIGHT_HEEL.v,LEFT_FOOT_INDEX.x,LEFT_FOOT_INDEX.y,LEFT_FOOT_INDEX.z,LEFT_FOOT_INDEX.v,RIGHT_FOOT_INDEX.x,RIGHT_FOOT_INDEX.y,RIGHT_FOOT_INDEX.z,RIGHT_FOOT_INDEX.v
0,0.5439968109130859,0.14871303737163544,-0.6031621098518372,0.9998883008956909,0.5504046678543091,0.1349816471338272,-0.5903013348579407,0.9997362494468689,0.5543229579925537,0.13502831757068634,-0.5903142690658569,0.9996664524078369,0.558122992515564,0.13433930277824402,-0.5903961062431335,0.9995483756065369,0.5369780659675598,0.1294739991426468,-0.5943812727928162,0.9998414516448975,0.5318062901496887,0.1261741816997528,-0.5945258140563965,0.9998434782028198,0.5267599821090698,0.12291547656059265,-0.5946367383003235,0.9998676776885986,0.5614495277404785,0.12578850984573364,-0.431041419506073,0.9995891451835632,0.513062059879303,0.11736968159675598,-0.4471050202846527,0.9999439716339111,0.5484388470649719,0.16083049774169922,-0.5351545214653015,0.9999092817306519,0.532804548740387,0.1608017235994339,-0.5401642322540283,0.9999692440032959,0.5917759537696838,0.17758966982364655,-0.28753888607025146,0.9999076128005981,0.47097960114479065,0.17227718234062195,-0.3272009491920471,0.9999877214431763,0.6178767085075378,0.28180423378944397,-0.4074682593345642,0.9771111607551575,0.4441770017147064,0.2702749967575073,-0.44375425577163696,0.9983456134796143,0.5672183036804199,0.2959842085838318,-0.6756675839424133,0.9034395813941956,0.507164716720581,0.29661837220191956,-0.6589949727058411,0.9945694804191589,0.5547269582748413,0.29912373423576355,-0.7420542240142822,0.8376370072364807,0.5264565944671631,0.3049885630607605,-0.7172129154205322,0.9859191179275513,0.5524770617485046,0.2860611081123352,-0.7476522326469421,0.830497682094574,0.5320397615432739,0.2916203439235687,-0.719896137714386,0.9847278594970703,0.5551896095275879,0.28366994857788086,-0.6835204362869263,0.7538735866546631,0.5271023511886597,0.2889060974121094,-0.6622507572174072,0.9720649123191833,0.5604900121688843,0.3915390968322754,0.004829395562410355,0.998340368270874,0.49505433440208435,0.3894730806350708,-0.004754685331135988,0.9993911981582642,0.5699471831321716,0.5539829134941101,-0.06351503729820251,0.9922226071357727,0.49934062361717224,0.5524621605873108,-0.09378790110349655,0.9925486445426941,0.5655648708343506,0.7087252736091614,0.11936356872320175,0.9871494174003601,0.49980050325393677,0.707384467124939,0.1027781218290329,0.9918209314346313,0.5565932989120483,0.7287557125091553,0.12726137042045593,0.9235619306564331,0.5048057436943054,0.7266784906387329,0.11315567791461945,0.8978458642959595,0.5763462781906128,0.7483441829681396,-0.038133736699819565,0.9795305132865906,0.49163657426834106,0.7501603960990906,-0.059520941227674484,0.9829556941986084
1,0.5423401594161987,0.16481108963489532,-0.6370096802711487,0.9998747706413269,0.5478249192237854,0.14820194244384766,-0.6293679475784302,0.9997171759605408,0.5515342950820923,0.14716416597366333,-0.6293366551399231,0.9996477961540222,0.5552939772605896,0.14559045433998108,-0.6294206976890564,0.9995365738868713,0.5355507731437683,0.14697855710983276,-0.6313397288322449,0.9998182058334351,0.5307683348655701,0.14556308090686798,-0.6314993500709534,0.9998196363449097,0.526032567024231,0.14371037483215332,-0.6316033601760864,0.9998473525047302,0.5596668720245361,0.13375598192214966,-0.47543931007385254,0.9995792508125305,0.5130273699760437,0.13612699508666992,-0.4816668629646301,0.9999297857284546,0.5472496151924133,0.17216569185256958,-0.5688539743423462,0.999904453754425,0.5327813029289246,0.17129352688789368,-0.5710455179214478,0.9999634027481079,0.5923342108726501,0.17781467735767365,-0.32930877804756165,0.9999118447303772,0.47206276655197144,0.17462827265262604,-0.3579885959625244,0.999987006187439,0.6198431253433228,0.2848146855831146,-0.4911143183708191,0.978245198726654,0.44416505098342896,0.2725158631801605,-0.5148759484291077,0.9983205795288086,0.5674747824668884,0.29601651430130005,-0.7690728306770325,0.9071353673934937,0.5075640678405762,0.29661116003990173,-0.7440630197525024,0.994017481803894,0.5549409985542297,0.2990312874317169,-0.8354813456535339,0.8404979109764099,0.5271085500717163,0.30430057644844055,-0.800929844379425,0.9843612909317017,0.5529100894927979,0.2860530912876129,-0.8313775062561035,0.8333202600479126,0.5329898595809937,0.29162365198135376,-0.7981733679771423,0.9829824566841125,0.5554483532905579,0.28382813930511475,-0.7731043100357056,0.7578299045562744,0.5278719663619995,0.2890240550041199,-0.7458084225654602,0.9692751169204712,0.5626970529556274,0.4001920521259308,0.0052579171024262905,0.9984198212623596,0.49708208441734314,0.3976057767868042,-0.005177536979317665,0.999389111995697,0.5708650350570679,0.5595583319664001,-0.10736074298620224,0.9921788573265076,0.4992772936820984,0.5554354786872864,-0.08249612152576447,0.9925286173820496,0.5655861496925354,0.7083337306976318,0.09241412580013275,0.9869117140769958,0.4999682903289795,0.7071500420570374,0.10550616681575775,0.9914843440055847,0.5565059185028076,0.7280452251434326,0.10263009369373322,0.9240826964378357,0.5065919160842896,0.7265212535858154,0.11491601169109344,0.896213173866272,0.5746622681617737,0.7483137249946594,-0.0668226033449173,0.9794360399246216,0.49184685945510864,0.7530139088630676,-0.058927394449710846,0.9829052686691284
2,0.5369648337364197,0.20736683905124664,-0.6573187112808228,0.9998720288276672,0.5420562028884888,0.19220644235610962,-0.659852921962738,0.9997158646583557,0.5456720590591431,0.18921050429344177,-0.6597999334335327,0.9996525049209595,0.5493443012237549,0.1859460324048996,-0.6598896980285645,0.9995487332344055,0.5309354066848755,0.1912495195865631,-0.6601634621620178,0.9998044371604919,0.5268031358718872,0.18790315091609955,-0.66034996509552,0.9998065233230591,0.5225950479507446,0.1844956874847412,-0.6604596376419067,0.9998330473899841,0.5547220706939697,0.1598537564277649,-0.5276094675064087,0.9995960593223572,0.5115562677383423,0.16540488600730896,-0.5256629586219788,0.9999232888221741,0.5440250039100647,0.1967051923274994,-0.5934455990791321,0.9999080300331116,0.5308584570884705,0.19749504327774048,-0.5934613347053528,0.9999621510505676,0.5929847359657288,0.17943552136421204,-0.3657818138599396,0.9999188184738159,0.47201794385910034,0.17829777300357819,-0.39444178342819214,0.9999876022338867,0.6213030815124512,0.2907155752182007,-0.5237869024276733,0.9796827435493469,0.4437280595302582,0.2768940031528473,-0.5448958277702332,0.998344898223877,0.5684958696365356,0.29624834656715393,-0.8049635887145996,0.9126858711242676,0.5051223039627075,0.2967168688774109,-0.7788944244384766,0.9938239455223083,0.5552362203598022,0.2988886833190918,-0.8716913461685181,0.8467772006988525,0.5235501527786255,0.30424582958221436,-0.8360101580619812,0.9836092591285706,0.5531929731369019,0.2859959900379181,-0.8655297160148621,0.8399266004562378,0.5280829668045044,0.2916623055934906,-0.8340244293212891,0.9822146892547607,0.5558028817176819,0.28393691778182983,-0.8079417943954468,0.7661922574043274,0.5231937170028687,0.28911909461021423,-0.7810560464859009,0.9680410623550415,0.5626402497291565,0.4040485918521881,0.010868682526051998,0.9985440373420715,0.4970531463623047,0.4009617567062378,-0.010720551013946533,0.9994254112243652,0.5720270872116089,0.5602853298187256,-0.12427137792110443,0.9918647408485413,0.49919623136520386,0.5568811893463135,-0.10584473609924316,0.9925292134284973,0.5654980540275574,0.7084448933601379,0.07714186608791351,0.9864321351051331,0.5003331303596497,0.7063281536102295,0.0857328325510025,0.990797758102417,0.5555251240730286,0.7280969023704529,0.08767753839492798,0.9243419170379639,0.5078328847885132,0.725403904914856,0.09546377509832382,0.8936800360679626,0.5742432475090027,0.7483209371566772,-0.07431067526340485,0.9792861342430115,0.49349576234817505,0.7536144852638245,-0.0710669606924057,0.9826521873474121
3,0.5358866453170776,0.20964528620243073,-0.6417926549911499,0.9998733997344971,0.5409489870071411,0.19069001078605652,-0.639711320400238,0.999721884727478,0.5444096922874451,0.18765826523303986,-0.6396679282188416,0.9996611475944519,0.5479354858398438,0.18462182581424713,-0.6397521495819092,0.9995669722557068,0.5304354429244995,0.19021353125572205,-0.6401669383049011,0.999803364276886,0.5265179872512817,0.18697410821914673,-0.6403393745422363,0.9998041391372681,0.5224540829658508,0.18392173945903778,-0.6404467225074768,0.9998329877853394,0.5530916452407837,0.16810236871242523,-0.5009376406669617,0.9996068477630615,0.5116513967514038,0.17241434752941132,-0.49882835149765015,0.9999210834503174,0.543364405632019,0.20450349152088165,-0.5768910646438599,0.9999104738235474,0.5305274128913879,0.20481795072555542,-0.5776209235191345,0.9999618530273438,0.5941916704177856,0.1924760639667511,-0.34200164675712585,0.9999227523803711,0.47311902046203613,0.19065168499946594,-0.3749312460422516,0.9999881386756897,0.6243420839309692,0.29833322763442993,-0.4995545744895935,0.9808121919631958,0.4433714747428894,0.2888222336769104,-0.5253394246101379,0.9984151721000671,0.5694628953933716,0.2967854142189026,-0.7801228761672974,0.916007399559021,0.5051838159561157,0.29668518900871277,-0.7462786436080933,0.99382483959198,0.5556265115737915,0.29678958654403687,-0.8442443609237671,0.848052442073822,0.5236619710922241,0.30034950375556946,-0.8008459210395813,0.9830641150474548,0.553902268409729,0.28350403904914856,-0.8338592648506165,0.8410906791687012,0.5280395746231079,0.28727513551712036,-0.7956032156944275,0.9815546870231628,0.5565927624702454,0.28340497612953186,-0.7817029356956482,0.767067551612854,0.5224930047988892,0.2869245409965515,-0.7465055584907532,0.9669302105903625,0.5627398490905762,0.4094700813293457,0.013166067190468311,0.9986356496810913,0.49843698740005493,0.4061850607395172,-0.013072557747364044,0.999446451663971,0.5725834965705872,0.5600374341011047,-0.15627123415470123,0.9912550449371338,0.49921196699142456,0.5570690035820007,-0.1507824957370758,0.9923039674758911,0.5656152963638306,0.708294689655304,0.032510388642549515,0.9858048558235168,0.5004608631134033,0.7048100829124451,0.03490476682782173,0.9897318482398987,0.5555049180984497,0.727798342704773,0.04255598038434982,0.9243035912513733,0.5079929828643799,0.7239475846290588,0.04493691399693489,0.889560341835022,0.573996365070343,0.7477040886878967,-0.11824239790439606,0.9789085984230042,0.494363009929657,0.7535993456840515,-0.12074510008096695,0.9819243550300598
4,0.5361912846565247,0.1979876607656479,-0.6078512668609619,0.9998335838317871,0.5416422486305237,0.1798781305551529,-0.5991644263267517,0.9996529221534729,0.5442925691604614,0.17664478719234467,-0.5991460680961609,0.9995821118354797,0.5484627485275269,0.17601457238197327,-0.5992565155029297,0.9994941353797913,0.5299147963523865,0.17995275557041168,-0.5984827876091003,0.9997344613075256,0.525969922542572,0.17841072380542755,-0.5986358523368835,0.9997335076332092,0.5219501256942749,0.17653870582580566,-0.5987575650215149,0.9997807741165161,0.5534849166870117,0.1607760787010193,-0.45402249693870544,0.9994993209838867,0.5116730332374573,0.16747930645942688,-0.4474131166934967,0.9998835921287537,0.5435343980789185,0.1961042582988739,-0.544152557849884,0.9998839497566223,0.5305457711219788,0.19928282499313354,-0.5426936149597168,0.9999446868896484,0.5945446491241455,0.20519718527793884,-0.30267590284347534,0.999915361404419,0.475468248128891,0.20231492817401886,-0.3408675789833069,0.9999861717224121,0.6293036341667175,0.3081749975681305,-0.47739434242248535,0.9817678928375244,0.44332584738731384,0.30247411131858826,-0.5013497471809387,0.9984362721443176,0.5710372924804688,0.29728808999061584,-0.7380374073982239,0.9184525012969971,0.5069159269332886,0.296938419342041,-0.68937748670578,0.9937369227409363,0.5559724569320679,0.294920951128006,-0.7929142713546753,0.8474324941635132,0.5260449647903442,0.298366904258728,-0.7379350662231445,0.9822888970375061,0.5541850328445435,0.2812250256538391,-0.770541250705719,0.8399708271026611,0.5284666419029236,0.28441017866134644,-0.7258496880531311,0.9805722832679749,0.5568864941596985,0.2820811867713928,-0.7316859364509583,0.7650517821311951,0.5228980183601379,0.28543663024902344,-0.6860377788543701,0.9650847315788269,0.5627087354660034,0.4123148024082184,0.01381249725818634,0.9986664056777954,0.4984399676322937,0.40862539410591125,-0.01375286839902401,0.9994192719459534,0.5725610256195068,0.5596298575401306,-0.20118816196918488,0.9901371002197266,0.498989999294281,0.5572196245193481,-0.19807323813438416,0.9914504289627075,0.5656154155731201,0.7083629965782166,-0.014005345292389393,0.9847770929336548,0.5005704164505005,0.7038701176643372,-0.004558175802230835,0.9879605174064636,0.5555158257484436,0.7286437153816223,-0.0036541789304465055,0.9236659407615662,0.5084525346755981,0.7235220670700073,0.006573149468749762,0.8822552561759949,0.5733216404914856,0.747492253780365,-0.16507568955421448,0.977660596370697,0.4965933859348297,0.753352701663971,-0.1596885621547699,0.9797632098197937
5,0.5364998579025269,0.17461758852005005,-0.3445683717727661,0.9996978044509888,0.5418235659599304,0.1544838547706604,-0.32171913981437683,0.9994156956672668,0.5450084209442139,0.15426191687583923,-0.321759968996048,0.9993265271186829,0.5486500263214111,0.15432685613632202,-0.3218366801738739,0.9992247819900513,0.5301492810249329,0.15591570734977722,-0.32064610719680786,0.9994872808456421,0.5260303616523743,0.15730935335159302,-0.32070422172546387,0.9994997382164001,0.5220412611961365,0.15907900035381317,-0.32076501846313477,0.9995824098587036,0.555556058883667,0.15716955065727234,-0.18800833821296692,0.9990212321281433,0.5134755969047546,0.16043473780155182,-0.1808994859457016,0.9995682239532471,0.5445384979248047,0.19045183062553406,-0.29426494240760803,0.9997495412826538,0.530851423740387,0.19455507397651672,-0.2923564612865448,0.9998382925987244,0.5957576036453247,0.23718221485614777,-0.11351040750741959,0.9998160004615784,0.48097163438796997,0.23191063106060028,-0.1297859251499176,0.9999195337295532,0.6307051777839661,0.33718356490135193,-0.2666299641132355,0.9816150069236755,0.44320398569107056,0.32809388637542725,-0.28719642758369446,0.9980568289756775,0.5687294602394104,0.2980365455150604,-0.47892946004867554,0.920491099357605,0.5178168416023254,0.29918810725212097,-0.46972179412841797,0.9921521544456482,0.555962085723877,0.2870389223098755,-0.5221186876296997,0.8463152647018433,0.5333762168884277,0.29041528701782227,-0.5109137892723083,0.9765670299530029,0.5538904070854187,0.2751292288303375,-0.49620550870895386,0.8378306031227112,0.5328060388565063,0.27695220708847046,-0.4876514971256256,0.9736047387123108,0.5559425354003906,0.2807772755622864,-0.47184252738952637,0.7615737915039062,0.530443549156189,0.2825522720813751,-0.462632954120636,0.954154372215271,0.5626473426818848,0.431331068277359,0.01350719016045332,0.9987186193466187,0.49841466546058655,0.4266427755355835,-0.013529373332858086,0.9993546009063721,0.5733777284622192,0.561781108379364,-0.2937281131744385,0.9888351559638977,0.49813538789749146,0.5616012215614319,-0.2651042342185974,0.9901810884475708,0.5655033588409424,0.7081298828125,-0.08019877970218658,0.9829074740409851,0.5006646513938904,0.7012380957603455,-0.04328107461333275,0.984268844127655,0.5554593801498413,0.7283350825309753,-0.06575465202331543,0.9180557727813721,0.5085728168487549,0.7190912961959839,-0.02786041423678398,0.8662980198860168,0.5717546939849854,0.7473729252815247,-0.2130136489868164,0.9750661849975586,0.49753817915916443,0.753040075302124,-0.17416222393512726,0.9752281904220581
6,0.5407623052597046,0.1751078963279724,-0.2953009307384491,0.9994969367980957,0.5461954474449158,0.15691164135932922,-0.27178165316581726,0.9991005659103394,0.5500956773757935,0.15753407776355743,-0.2718457281589508,0.9989884495735168,0.553421676158905,0.15800383687019348,-0.27192139625549316,0.9988738298416138,0.5344492793083191,0.15809382498264313,-0.2723601162433624,0.9991506338119507,0.5297485589981079,0.15926380455493927,-0.27240508794784546,0.9991593956947327,0.5253042578697205,0.1605391651391983,-0.27245333790779114,0.9992679953575134,0.5593684911727905,0.16752442717552185,-0.14022108912467957,0.9984117746353149,0.5171788930892944,0.16781648993492126,-0.1417814940214157,0.9990707635879517,0.5478049516677856,0.19367681443691254,-0.24619707465171814,0.999559223651886,0.5335341691970825,0.1954239308834076,-0.2468799650669098,0.9997043609619141,0.5958262085914612,0.25749409198760986,-0.07286737859249115,0.9996983408927917,0.48359566926956177,0.24981187283992767,-0.09651272743940353,0.9998160600662231,0.6317225694656372,0.3532189130783081,-0.2214222401380539,0.9816330671310425,0.44407397508621216,0.34259942173957825,-0.24553406238555908,0.9972931742668152,0.5699395537376404,0.3019281327724457,-0.42663607001304626,0.9239633679389954,0.523492693901062,0.3041301667690277,-0.4189523756504059,0.9898630976676941,0.5594132542610168,0.2875353991985321,-0.468425452709198,0.8488909602165222,0.5383912920951843,0.29096853733062744,-0.4583965837955475,0.9692690372467041,0.5559900403022766,0.2759133577346802,-0.44297856092453003,0.8396921157836914,0.5370131731033325,0.27840155363082886,-0.43591198325157166,0.964941680431366,0.557428240776062,0.2823200225830078,-0.4196375906467438,0.7638916373252869,0.5353383421897888,0.2831043004989624,-0.4119214117527008,0.9410098195075989,0.5614734888076782,0.44586774706840515,0.014213611371815205,0.9987632632255554,0.49779731035232544,0.4408513307571411,-0.014217493124306202,0.9992828965187073,0.5749882459640503,0.5617287755012512,-0.2847002446651459,0.9867410659790039,0.4978005290031433,0.5629134774208069,-0.2799277901649475,0.9885047674179077,0.565147340297699,0.7080869078636169,-0.11091110855340958,0.9798837304115295,0.5006336569786072,0.7013423442840576,-0.09804659336805344,0.9816011190414429,0.5544959306716919,0.7282935976982117,-0.10013675689697266,0.9123080372810364,0.5085432529449463,0.719256579875946,-0.08632931858301163,0.854682207107544,0.571959376335144,0.7468846440315247,-0.24232685565948486,0.971716582775116,0.4979521632194519,0.751880407333374,-0.23474185168743134,0.971951961517334
7,0.5415991544723511,0.19772495329380035,-0.354617178440094,0.999503493309021,0.5475931167602539,0.1819021850824356,-0.33105021715164185,0.9991229772567749,0.5515022873878479,0.18211457133293152,-0.33109909296035767,0.9990174770355225,0.5546602010726929,0.182297945022583,-0.33118686079978943,0.9989104270935059,0.5356427431106567,0.18210554122924805,-0.33060768246650696,0.9991655349731445,0.5306249260902405,0.182239830493927,-0.3306668698787689,0.9991752505302429,0.5259711742401123,0.18257573246955872,-0.33070042729377747,0.9992778301239014,0.5603812336921692,0.19124150276184082,-0.19625718891620636,0.9984641671180725,0.5182619094848633,0.19078977406024933,-0.19323083758354187,0.9990835785865784,0.5482741594314575,0.21665088832378387,-0.3042425811290741,0.999570906162262,0.5336138010025024,0.21662959456443787,-0.30362799763679504,0.999712347984314,0.5959505438804626,0.2839031219482422,-0.124943807721138,0.9996361136436462,0.48419493436813354,0.2730112671852112,-0.14501750469207764,0.9997893571853638,0.6324609518051147,0.37077078223228455,-0.3112184405326843,0.9826807975769043,0.4447784423828125,0.3598085641860962,-0.3273804783821106,0.9969146251678467,0.5732023119926453,0.31178387999534607,-0.5391314029693604,0.9285036325454712,0.5248907804489136,0.313470721244812,-0.5302779078483582,0.9885673522949219,0.5633898973464966,0.29069453477859497,-0.5868301391601562,0.8539201617240906,0.5407000780105591,0.29304295778274536,-0.5766662359237671,0.9645441770553589,0.5595597624778748,0.2839260995388031,-0.5587334632873535,0.8440879583358765,0.5396363735198975,0.2849556803703308,-0.5523963570594788,0.9589259028434753,0.5600922703742981,0.2929442822933197,-0.5324817299842834,0.769023060798645,0.5374804735183716,0.29203638434410095,-0.5238310694694519,0.9310615062713623,0.5598121881484985,0.45866578817367554,0.014931261539459229,0.9988387823104858,0.4968891739845276,0.45313209295272827,-0.014912913553416729,0.9992901682853699,0.5763364434242249,0.5621665716171265,-0.32512396574020386,0.9855121970176697,0.4978163242340088,0.5633270740509033,-0.3499312996864319,0.9874297976493835,0.5652868151664734,0.708179235458374,-0.1520201414823532,0.9775808453559875,0.5006226301193237,0.7017089128494263,-0.1703464686870575,0.9809020757675171,0.554531455039978,0.7288923263549805,-0.142276331782341,0.9092423319816589,0.5082451105117798,0.7201884388923645,-0.1597166657447815,0.8512076735496521,0.5762583017349243,0.7476078867912292,-0.2997400760650635,0.9698825478553772,0.4984873831272125,0.7517357468605042,-0.32990050315856934,0.9714350700378418
8,0.5426608920097351,0.22699032723903656,-0.3511788249015808,0.9995105266571045,0.5488681197166443,0.21079495549201965,-0.3275652527809143,0.9991423487663269,0.5526885986328125,0.21074485778808594,-0.3276155889034271,0.9990438222885132,0.555773138999939,0.21080975234508514,-0.32770469784736633,0.9989372491836548,0.5367852449417114,0.2108195275068283,-0.3266618847846985,0.9991823434829712,0.5314730405807495,0.2108641117811203,-0.3267271816730499,0.999195396900177,0.526648998260498,0.2111946940422058,-0.3267861604690552,0.9992901086807251,0.5611381530761719,0.2182638943195343,-0.19624170660972595,0.9985237121582031,0.5189175009727478,0.21868076920509338,-0.19130483269691467,0.9991106986999512,0.5491949319839478,0.24481794238090515,-0.30215102434158325,0.9995861053466797,0.5341843366622925,0.24406401813030243,-0.30100706219673157,0.9997225999832153,0.5961068272590637,0.30859437584877014,-0.13371029496192932,0.9995549321174622,0.48354238271713257,0.29744914174079895,-0.154020756483078,0.9997668266296387,0.6355342864990234,0.3900507092475891,-0.3359753489494324,0.9838429093360901,0.4448302388191223,0.3763943314552307,-0.35344237089157104,0.9967190027236938,0.5730456113815308,0.32123270630836487,-0.5456815958023071,0.9329665899276733,0.528037965297699,0.32664504647254944,-0.5401265025138855,0.9878140091896057,0.5634205937385559,0.29502782225608826,-0.5879499316215515,0.8584679365158081,0.545514702796936,0.3007548749446869,-0.58445143699646,0.9604107737541199,0.5597129464149475,0.2913803458213806,-0.5528334379196167,0.8472760319709778,0.5440222024917603,0.2960009276866913,-0.5506933927536011,0.9529389142990112,0.5599421262741089,0.3018127381801605,-0.5357637405395508,0.7723286151885986,0.5411534309387207,0.30475470423698425,-0.5299245119094849,0.9206552505493164,0.5579856038093567,0.4767152965068817,0.015102003701031208,0.9989110231399536,0.49418625235557556,0.4704972803592682,-0.015036922879517078,0.9993089437484741,0.5765655040740967,0.5630751848220825,-0.3675931990146637,0.9840829968452454,0.49776649475097656,0.5633571743965149,-0.4013293385505676,0.9859012365341187,0.564297616481781,0.7087640762329102,-0.18026074767112732,0.9729282855987549,0.5005558729171753,0.7020493149757385,-0.21596524119377136,0.980303943157196,0.5534178018569946,0.7296750545501709,-0.16872721910476685,0.9065843224525452,0.5081002712249756,0.7224505543708801,-0.20446331799030304,0.8524231910705566,0.5760846138000488,0.7476456761360168,-0.3247690796852112,0.9666692614555359,0.4983873963356018,0.7504221796989441,-0.3777332007884979,0.9711102843284607
9,0.5428456664085388,0.25103017687797546,-0.2290080338716507,0.9995405077934265,0.5492231845855713,0.23516426980495453,-0.204742431640625,0.9991989731788635,0.5530018210411072,0.23516301810741425,-0.20477811992168427,0.9991068243980408,0.5561106204986572,0.2353212535381317,-0.20483534038066864,0.9990084171295166,0.5369744896888733,0.23466917872428894,-0.2032170295715332,0.9992324113845825,0.5315614938735962,0.23446084558963776,-0.2032678872346878,0.9992465376853943,0.5267344117164612,0.2344328910112381,-0.20332881808280945,0.9993343949317932,0.5614448189735413,0.24280115962028503,-0.08426143229007721,0.9986263513565063,0.5189334750175476,0.24043217301368713,-0.0766691267490387,0.9991632103919983,0.5491709113121033,0.26986441016197205,-0.1850864589214325,0.999613881111145,0.5341469049453735,0.268658310174942,-0.18326856195926666,0.9997386932373047,0.5960861444473267,0.3303018808364868,-0.04865439608693123,0.999505341053009,0.4830471873283386,0.3178364932537079,-0.06632500141859055,0.9997491240501404,0.6361584067344666,0.40545257925987244,-0.2627566456794739,0.9847763776779175,0.4444682002067566,0.3899182677268982,-0.274975448846817,0.9964491128921509,0.5724538564682007,0.3266298174858093,-0.43798595666885376,0.9373536109924316,0.5297787189483643,0.3339249789714813,-0.42768940329551697,0.9872841835021973,0.5631376504898071,0.297406405210495,-0.4718542695045471,0.8634465336799622,0.5465185046195984,0.30502980947494507,-0.4639410972595215,0.9566360116004944,0.5595847368240356,0.29455307126045227,-0.43228211998939514,0.8511720895767212,0.5446398258209229,0.30139151215553284,-0.426748663187027,0.9473919868469238,0.5598893761634827,0.30664899945259094,-0.4253459572792053,0.7780208587646484,0.5413013696670532,0.31303465366363525,-0.41517144441604614,0.912394642829895,0.5580704808235168,0.49723637104034424,0.014477541670203209,0.9989926815032959,0.494058758020401,0.492167204618454,-0.01434172410517931,0.9993386268615723,0.5764716267585754,0.5629811882972717,-0.40259188413619995,0.9836321473121643,0.4977307915687561,0.5619693398475647,-0.41564637422561646,0.9846770763397217,0.5633048415184021,0.70850670337677,-0.23887959122657776,0.9690689444541931,0.5005203485488892,0.7020490169525146,-0.2622496485710144,0.9797187447547913,0.5526390075683594,0.7290694117546082,-0.228537917137146,0.9058986902236938,0.5074571371078491,0.7224388718605042,-0.2525700032711029,0.8568276166915894,0.5751785635948181,0.7479327917098999,-0.37690770626068115,0.9650054574012756,0.4962759017944336,0.7502380013465881,-0.41703000664711,0.9711489081382751
10,0.5432530045509338,0.2914924621582031,-0.05421183258295059,0.999584436416626,0.549816906452179,0.27659469842910767,-0.025599200278520584,0.9992771148681641,0.5533872246742249,0.27670082449913025,-0.025626203045248985,0.9991939067840576,0.556562602519989,0.27693331241607666,-0.02563154324889183,0.9991053938865662,0.5375624895095825,0.27616259455680847,-0.02550262212753296,0.9993066191673279,0.5321594476699829,0.275968462228775,-0.025549452751874924,0.9993196129798889,0.5273171663284302,0.2758975028991699,-0.025626078248023987,0.9993990659713745,0.5627357959747314,0.28604939579963684,0.09322609752416611,0.998759925365448,0.5191660523414612,0.2836031913757324,0.09378910809755325,0.9992433786392212,0.549677312374115,0.308199018239975,-0.012633135542273521,0.999650239944458,0.5345703363418579,0.30666059255599976,-0.012974095530807972,0.9997626543045044,0.5961251854896545,0.37374335527420044,0.10431180894374847,0.9995208978652954,0.482816219329834,0.3556772768497467,0.0784844234585762,0.999750554561615,0.6360531449317932,0.4431338906288147,-0.10220418870449066,0.9853732585906982,0.4494338631629944,0.417671263217926,-0.11126860231161118,0.9961716532707214,0.5730385780334473,0.3564794659614563,-0.2623843550682068,0.9422012567520142,0.5309576392173767,0.36138227581977844,-0.23313260078430176,0.9876368045806885,0.5640537142753601,0.3270387649536133,-0.29290032386779785,0.8714421987533569,0.5469792485237122,0.33218666911125183,-0.26321327686309814,0.9570216536521912,0.5605309009552002,0.3247632682323456,-0.2582090497016907,0.8593543767929077,0.5446573495864868,0.3301500082015991,-0.23314861953258514,0.9476773142814636,0.5599909424781799,0.3372529149055481,-0.2515348792076111,0.7912794947624207,0.5414911508560181,0.3411230742931366,-0.22226695716381073,0.9137682318687439,0.5588972568511963,0.5415094494819641,0.012063035741448402,0.9990808367729187,0.49348968267440796,0.5390867590904236,-0.011726392433047295,0.9993817210197449,0.5750231146812439,0.5607830882072449,-0.40395236015319824,0.9840224981307983,0.49767059087753296,0.5598219633102417,-0.40495285391807556,0.9848845601081848,0.5625791549682617,0.7086099982261658,-0.33336004614830017,0.9668775200843811,0.5006398558616638,0.7021015882492065,-0.32542818784713745,0.978834867477417,0.5526721477508545,0.7298076152801514,-0.33043909072875977,0.9095926880836487,0.5059179663658142,0.7226468324661255,-0.32072049379348755,0.8627702593803406,0.573560893535614,0.7489632964134216,-0.4698750376701355,0.9654104113578796,0.4969348907470703,0.7461079955101013,-0.4673233926296234,0.971014142036438
11,0.5434807538986206,0.31555354595184326,-0.026860317215323448,0.9996256828308105,0.5502415895462036,0.30227163434028625,0.0028323843143880367,0.999349057674408,0.5537008047103882,0.3026866316795349,0.002836389932781458,0.9992741346359253,0.5568552017211914,0.3034539818763733,0.002833522157743573,0.9991944432258606,0.5379342436790466,0.301207035779953,0.002108248881995678,0.9993754625320435,0.5325480699539185,0.30083173513412476,0.0020634434185922146,0.9993872046470642,0.5278252363204956,0.3007606565952301,0.002006249036639929,0.9994587898254395,0.5628343820571899,0.31255829334259033,0.1226445659995079,0.9988831877708435,0.5201417207717896,0.3081601858139038,0.12033754587173462,0.9993184208869934,0.5498307943344116,0.3350776433944702,0.014579059556126595,0.999684751033783,0.5345836877822876,0.33297765254974365,0.013335798867046833,0.999785840511322,0.5954951047897339,0.39304667711257935,0.1339714080095291,0.9995465278625488,0.4830039441585541,0.37861642241477966,0.09521546214818954,0.9997614622116089,0.6358346343040466,0.4616243243217468,-0.07555115967988968,0.985514760017395,0.4512569010257721,0.43825551867485046,-0.09247709065675735,0.9959899187088013,0.5730060338973999,0.36613261699676514,-0.23755112290382385,0.9457883238792419,0.5403102040290833,0.37141573429107666,-0.20056703686714172,0.9877331256866455,0.5644792318344116,0.34041452407836914,-0.2663721740245819,0.8767181038856506,0.5510343313217163,0.3461662828922272,-0.22876779735088348,0.9565123915672302,0.5611073970794678,0.34082111716270447,-0.23098766803741455,0.8645215630531311,0.5485139489173889,0.3449622392654419,-0.19962945580482483,0.946825385093689,0.5603394508361816,0.35168591141700745,-0.2269035279750824,0.8006064891815186,0.5463569760322571,0.3553696572780609,-0.18993230164051056,0.9134601354598999,0.559090256690979,0.5636970400810242,0.00799676962196827,0.9991691708564758,0.49352747201919556,0.557202935218811,-0.007607882376760244,0.9994367361068726,0.5740784406661987,0.559688150882721,-0.4320135712623596,0.9852999448776245,0.497601181268692,0.5589820146560669,-0.38504526019096375,0.9859743714332581,0.5620366334915161,0.7077626585960388,-0.3742424249649048,0.9689266085624695,0.5012398958206177,0.6990882158279419,-0.2620881199836731,0.9790579676628113,0.5517677068710327,0.7297990322113037,-0.37221813201904297,0.9159688949584961,0.5065228343009949,0.7164984345436096,-0.2529362440109253,0.8704221248626709,0.5689425468444824,0.7489503622055054,-0.5120970606803894,0.967962920665741,0.5017932057380676,0.7441286444664001,-0.3853924572467804,0.9719804525375366
12,0.543682336807251,0.3311239182949066,-0.029732784256339073,0.9996625185012817,0.5507441759109497,0.31720319390296936,0.000684967904817313,0.9994134902954102,0.5541964769363403,0.3173080384731293,0.0006958636804483831,0.9993459582328796,0.5574324131011963,0.3176075220108032,0.0007094967877492309,0.9992743134498596,0.5381245613098145,0.31541189551353455,0.0007217027014121413,0.9994370937347412,0.532817542552948,0.31431105732917786,0.0006684658001177013,0.9994477033615112,0.5281543135643005,0.31350311636924744,0.0005971740465611219,0.9995123147964478,0.5634720921516418,0.32510310411453247,0.1218046173453331,0.9989933967590332,0.520444393157959,0.3187420070171356,0.12358007580041885,0.9993855357170105,0.5498961210250854,0.3489019572734833,0.012018786743283272,0.9997153878211975,0.534569263458252,0.3476245701313019,0.011977635324001312,0.99980628490448,0.5952276587486267,0.4052666425704956,0.13098886609077454,0.9995473623275757,0.48355111479759216,0.3968578577041626,0.09553556144237518,0.9997571706771851,0.6365033388137817,0.47747018933296204,-0.0785665437579155,0.9851347208023071,0.45306938886642456,0.454969197511673,-0.0927012711763382,0.9956801533699036,0.5720071196556091,0.38328367471694946,-0.23553816974163055,0.9480217099189758,0.5417277216911316,0.3925091326236725,-0.19524964690208435,0.9871093034744263,0.5643666386604309,0.35832807421684265,-0.2633495032787323,0.8787251710891724,0.5534657835960388,0.3652070164680481,-0.22237861156463623,0.9529591202735901,0.5608838200569153,0.35767266154289246,-0.22752106189727783,0.8660728931427002,0.5509167909622192,0.3635963797569275,-0.19161778688430786,0.9422047734260559,0.5603142380714417,0.36930590867996216,-0.22433221340179443,0.8051552772521973,0.5486478209495544,0.37470805644989014,-0.1836036592721939,0.9080327153205872,0.5599576830863953,0.5797727108001709,0.006277997978031635,0.9992445111274719,0.49460259079933167,0.5722576379776001,-0.005904475226998329,0.9994792342185974,0.5740793347358704,0.55962073802948,-0.43969789147377014,0.98625648021698,0.4975311756134033,0.5583476424217224,-0.40590700507164,0.9867942333221436,0.5620566606521606,0.7072105407714844,-0.36599934101104736,0.9696992635726929,0.5016619563102722,0.6962483525276184,-0.2719568610191345,0.9778822064399719,0.5520403385162354,0.7287397384643555,-0.36231809854507446,0.9196778535842896,0.506846010684967,0.7122573256492615,-0.2614794075489044,0.874376654624939,0.5657002925872803,0.7466781139373779,-0.5025253295898438,0.9696862101554871,0.5041285157203674,0.7401247024536133,-0.3925730288028717,0.9715681076049805
13,0.5435430407524109,0.3495205342769623,-0.011439772322773933,0.9996955394744873,0.5507074594497681,0.3356269896030426,0.019359685480594635,0.9994714260101318,0.5541374683380127,0.3355385363101959,0.019377265125513077,0.9994104504585266,0.557402491569519,0.3356717824935913,0.019390203058719635,0.9993460774421692,0.538025975227356,0.3349820673465729,0.019608410075306892,0.9994925260543823,0.5327811241149902,0.3344263732433319,0.019532255828380585,0.9995020627975464,0.5281410217285156,0.33392778038978577,0.019457627087831497,0.9995604753494263,0.56336909532547,0.3426092565059662,0.13903066515922546,0.9990923404693604,0.5206107497215271,0.33918967843055725,0.14174404740333557,0.999445915222168,0.5498825311660767,0.36795929074287415,0.028988923877477646,0.9997430443763733,0.5344575643539429,0.36724939942359924,0.02913862094283104,0.9998248219490051,0.5951732993125916,0.4231018126010895,0.1393982619047165,0.9995015263557434,0.48401913046836853,0.4148697555065155,0.10699249804019928,0.9997609257698059,0.6382086873054504,0.48808053135871887,-0.09794539213180542,0.9844850301742554,0.4527077078819275,0.468113511800766,-0.11279575526714325,0.9953924417495728,0.5718227624893188,0.4013899862766266,-0.27108412981033325,0.9501071572303772,0.5408602356910706,0.40936478972435,-0.24676179885864258,0.9873899817466736,0.5641453862190247,0.3770313560962677,-0.3024863004684448,0.8807171583175659,0.5532702803611755,0.38324472308158875,-0.27784690260887146,0.9533311128616333,0.5607647895812988,0.37562295794487,-0.2647724449634552,0.8676443696022034,0.5511327385902405,0.38100406527519226,-0.24555249512195587,0.9424912929534912,0.5602457523345947,0.3879074156284332,-0.2599338889122009,0.8099415302276611,0.5485986471176147,0.39180245995521545,-0.23510095477104187,0.9091373682022095,0.5621219277381897,0.6033600568771362,0.0034329467453062534,0.9993096590042114,0.4970041811466217,0.6002204418182373,-0.0030811610631644726,0.9995198845863342,0.5730944275856018,0.5573053956031799,-0.4305195212364197,0.9870606660842896,0.4955044686794281,0.5556303858757019,-0.40046676993370056,0.9872183799743652,0.5620733499526978,0.7069905996322632,-0.37432631850242615,0.9691492915153503,0.5032957792282104,0.6963202953338623,-0.3239908814430237,0.9758179187774658,0.5521681308746338,0.7287511825561523,-0.3738913834095001,0.9218414425849915,0.5089399218559265,0.713130533695221,-0.32145485281944275,0.8766078948974609,0.5649073123931885,0.7461159229278564,-0.5141175389289856,0.9706752896308899,0.5057324767112732,0.7402534484863281,-0.465386301279068,0.9706169962882996
14,0.5437341332435608,0.3652835488319397,-0.020326873287558556,0.9997250437736511,0.5510719418525696,0.3516416549682617,0.01117559615522623,0.9995234608650208,0.5544766187667847,0.35168132185935974,0.011180264875292778,0.9994683265686035,0.5576841235160828,0.35191312432289124,0.011172937229275703,0.9994104504585266,0.5383272171020508,0.3510751724243164,0.009936579503118992,0.999542236328125,0.5330675840377808,0.3506271541118622,0.009858578443527222,0.9995508790016174,0.5282918214797974,0.35049405694007874,0.009804018773138523,0.9996036887168884,0.5636674165725708,0.35824453830718994,0.13635681569576263,0.9991812705993652,0.5206047296524048,0.35527995228767395,0.13310804963111877,0.9995001554489136,0.5500255823135376,0.3836959898471832,0.022587833926081657,0.9997677206993103,0.5344473123550415,0.38343921303749084,0.021157315000891685,0.9998412728309631,0.5950959920883179,0.4387997090816498,0.1417393982410431,0.999484658241272,0.4840872883796692,0.4285973310470581,0.10537288337945938,0.9997584223747253,0.6384362578392029,0.5001181960105896,-0.07721329480409622,0.983365535736084,0.4534608721733093,0.47850343585014343,-0.0967661514878273,0.99481600522995,0.5719088315963745,0.42200416326522827,-0.23795688152313232,0.9512687921524048,0.5391826629638672,0.4277952015399933,-0.21403047442436218,0.9871601462364197,0.5639511346817017,0.39663201570510864,-0.26789164543151855,0.8809279799461365,0.5522715449333191,0.4004175066947937,-0.24258160591125488,0.952306866645813,0.5608004331588745,0.39466938376426697,-0.23152995109558105,0.8676013350486755,0.5502089262008667,0.3972405791282654,-0.21275262534618378,0.94132399559021,0.5602077841758728,0.4072204828262329,-0.2271735966205597,0.8134070038795471,0.5473902821540833,0.40869468450546265,-0.20299406349658966,0.9086676239967346,0.563322901725769,0.6256083846092224,0.002717734081670642,0.9993624687194824,0.498295396566391,0.6241238117218018,-0.002420790260657668,0.999547004699707,0.5730986595153809,0.5573347806930542,-0.3849087357521057,0.9871995449066162,0.4954625070095062,0.5553941130638123,-0.37432485818862915,0.9865959882736206,0.5621172189712524,0.7067756056785583,-0.2819165289402008,0.9665011167526245,0.5041853785514832,0.697313129901886,-0.25555187463760376,0.9715079069137573,0.5521959066390991,0.7268548607826233,-0.27604418992996216,0.9203199744224548,0.51009202003479,0.7140648365020752,-0.24986808001995087,0.8748851418495178,0.5649324655532837,0.7464750409126282,-0.42946410179138184,0.9694787263870239,0.5051717162132263,0.7427523732185364,-0.3849354386329651,0.9673598408699036
15,0.5436869263648987,0.381842702627182,-0.050251029431819916,0.9997386336326599,0.5510212182998657,0.36679986119270325,-0.021779853850603104,0.9995573163032532,0.5544301271438599,0.36689049005508423,-0.021787354722619057,0.9995039105415344,0.5576642751693726,0.3672398030757904,-0.021837709471583366,0.9994529485702515,0.5382833480834961,0.3660247027873993,-0.022658001631498337,0.9995732307434082,0.5330418944358826,0.36552610993385315,-0.022730080410838127,0.9995816946029663,0.5282658338546753,0.3653315603733063,-0.022803813219070435,0.9996328949928284,0.5636053085327148,0.374315470457077,0.09516226500272751,0.9992344975471497,0.5206319689750671,0.37127697467803955,0.09357305616140366,0.9995359778404236,0.5500181913375854,0.3999879062175751,-0.009615212678909302,0.9997785687446594,0.5344409942626953,0.39927369356155396,-0.01042736042290926,0.9998463988304138,0.5951163172721863,0.4542008936405182,0.11281272023916245,0.9994047284126282,0.4845920205116272,0.4431127905845642,0.07394919544458389,0.9997413158416748,0.6402711868286133,0.5148389935493469,-0.08018147945404053,0.980298638343811,0.45331496000289917,0.4948136508464813,-0.10105139017105103,0.9938362240791321,0.572895884513855,0.440402626991272,-0.2243412286043167,0.9489474296569824,0.5380525588989258,0.4510965049266815,-0.1940614879131317,0.9856995344161987,0.5639081597328186,0.41713693737983704,-0.25255540013313293,0.8727645874023438,0.5529549717903137,0.4247022271156311,-0.21775522828102112,0.9471885561943054,0.5607266426086426,0.4148111641407013,-0.21473415195941925,0.8581030964851379,0.5504099130630493,0.42127031087875366,-0.18986378610134125,0.9353169798851013,0.5601957440376282,0.4262295067310333,-0.212676003575325,0.8058530688285828,0.5473995208740234,0.43236666917800903,-0.1829216629266739,0.902272641658783,0.5654940605163574,0.6341198682785034,0.0033611103426665068,0.9994077682495117,0.4998783469200134,0.6323832273483276,-0.0030867275781929493,0.9995701313018799,0.5742385387420654,0.5568733811378479,-0.3723290264606476,0.986123263835907,0.49551400542259216,0.5554792284965515,-0.31842318177223206,0.9834917187690735,0.5621461868286133,0.704656183719635,-0.21358263492584229,0.9600632786750793,0.504067063331604,0.6994785666465759,-0.19829367101192474,0.9657612442970276,0.5523278713226318,0.7255431413650513,-0.2002149373292923,0.9151086211204529,0.509713351726532,0.715060830116272,-0.18895232677459717,0.8710373640060425,0.5671526193618774,0.7465842962265015,-0.3044305443763733,0.9642179608345032,0.4989936947822571,0.7461768388748169,-0.3050917983055115,0.9615734815597534
16,0.5444232225418091,0.385805606842041,-0.055492598563432693,0.9997497200965881,0.551540732383728,0.37074562907218933,-0.027996543794870377,0.9995851516723633,0.5547977089881897,0.3710349500179291,-0.0280134379863739,0.9995328187942505,0.5579004883766174,0.37159162759780884,-0.028079399839043617,0.9994892477989197,0.5392716526985168,0.36923322081565857,-0.030338913202285767,0.9996002316474915,0.5338422656059265,0.3681589961051941,-0.030416473746299744,0.9996088743209839,0.528881311416626,0.367262065410614,-0.030495861545205116,0.9996589422225952,0.563590943813324,0.3786550760269165,0.08531596511602402,0.9992759227752686,0.5209881067276001,0.37250322103500366,0.07676790654659271,0.9995673298835754,0.5504352450370789,0.4031887650489807,-0.016059698536992073,0.9997839331626892,0.5350891351699829,0.40182143449783325,-0.018869083374738693,0.9998497366905212,0.5946007966995239,0.45453718304634094,0.1040269285440445,0.9993180632591248,0.48450571298599243,0.443624347448349,0.05862630158662796,0.9997264742851257,0.6419380903244019,0.5181142091751099,-0.0699082538485527,0.9768205285072327,0.45322340726852417,0.4968077838420868,-0.10148029029369354,0.9926868081092834,0.5743170380592346,0.4453674852848053,-0.1985669881105423,0.94352787733078,0.5375109314918518,0.4531116187572479,-0.17545832693576813,0.9831367135047913,0.5649716258049011,0.4204264283180237,-0.22416742146015167,0.8581321835517883,0.5541034936904907,0.4263472855091095,-0.19507001340389252,0.9385156035423279,0.5608614087104797,0.417780339717865,-0.1864752322435379,0.8416050672531128,0.5511720776557922,0.42180249094963074,-0.1682879477739334,0.9252711534500122,0.5602296590805054,0.4293370544910431,-0.18685755133628845,0.7906162142753601,0.5478910207748413,0.4334786534309387,-0.16417960822582245,0.8910508751869202,0.5652016997337341,0.6371127367019653,0.0035641100257635117,0.9994494318962097,0.5004177093505859,0.6341152191162109,-0.0032884576357901096,0.9995938539505005,0.5759446620941162,0.5568171143531799,-0.329651415348053,0.985279381275177,0.49574607610702515,0.5553334355354309,-0.29406797885894775,0.9813356995582581,0.5621882677078247,0.7046882510185242,-0.18808874487876892,0.9564068913459778,0.5040832161903381,0.7006739377975464,-0.1739678531885147,0.9628437161445618,0.552509605884552,0.7257194519042969,-0.17593714594841003,0.9118685126304626,0.5096377730369568,0.7166497707366943,-0.16421090066432953,0.8716692328453064,0.5673593282699585,0.7466166019439697,-0.27747175097465515,0.9603145122528076,0.4969472885131836,0.7476720809936523,-0.2784692347049713,0.9578002095222473
17,0.5449961423873901,0.38506025075912476,-0.07247941941022873,0.9997570514678955,0.5517482161521912,0.36914679408073425,-0.046581514179706573,0.9996053576469421,0.5548914670944214,0.36937060952186584,-0.0466056726872921,0.9995543956756592,0.5579690337181091,0.3699008524417877,-0.046678148210048676,0.9995176792144775,0.5397003293037415,0.36774492263793945,-0.048912640661001205,0.9996193051338196,0.5341774225234985,0.36667031049728394,-0.04898114129900932,0.9996283054351807,0.5291949510574341,0.36574381589889526,-0.04906807094812393,0.9996777176856995,0.5635577440261841,0.37626248598098755,0.0649804025888443,0.9993087649345398,0.5212945938110352,0.37003031373023987,0.056855250149965286,0.999591588973999,0.5508105754852295,0.40102332830429077,-0.03285149484872818,0.9997856020927429,0.5357786417007446,0.39876556396484375,-0.0355122871696949,0.9998497366905212,0.5940391421318054,0.4479656517505646,0.08395767211914062,0.9993040561676025,0.48468440771102905,0.43413105607032776,0.041803233325481415,0.999713122844696,0.642365574836731,0.5148611068725586,-0.08451671898365021,0.9756835699081421,0.45299196243286133,0.4941711723804474,-0.11649467796087265,0.9919375777244568,0.5739476680755615,0.44169461727142334,-0.20030459761619568,0.9424309134483337,0.5369628667831421,0.45194780826568604,-0.18154239654541016,0.9812016487121582,0.5648952722549438,0.4189613163471222,-0.2237388640642166,0.851462185382843,0.5537063479423523,0.42559847235679626,-0.1991523802280426,0.9311004281044006,0.5608361959457397,0.41613656282424927,-0.1840158998966217,0.8336044549942017,0.5509859323501587,0.4202302098274231,-0.17042779922485352,0.9164727330207825,0.560115396976471,0.426522821187973,-0.18720735609531403,0.7836713790893555,0.5475796461105347,0.43249183893203735,-0.16923382878303528,0.8811331391334534,0.5649974346160889,0.6325179934501648,0.0038440886419266462,0.9994878172874451,0.5003552436828613,0.6284160614013672,-0.0035666613839566708,0.9996135234832764,0.575927197933197,0.5568530559539795,-0.3119707405567169,0.9847710728645325,0.49573302268981934,0.5552241206169128,-0.2679528594017029,0.9789640307426453,0.5622197389602661,0.7051551938056946,-0.1564156413078308,0.9546071290969849,0.5043715238571167,0.701339840888977,-0.12960590422153473,0.9610667824745178,0.5525469183921814,0.7257068753242493,-0.1420326828956604,0.9093067646026611,0.510111927986145,0.7168890833854675,-0.11764010041952133,0.8731610178947449,0.5668283700942993,0.7466417551040649,-0.24090106785297394,0.957521915435791,0.4966259002685547,0.7483052015304565,-0.23051226139068604,0.9548949599266052
18,0.546331524848938,0.37544405460357666,-0.01117941178381443,0.9997758269309998,0.5526788234710693,0.35919925570487976,0.018643902614712715,0.9996395707130432,0.5556572675704956,0.35947635769844055,0.018618574365973473,0.999592661857605,0.5585640668869019,0.3600919842720032,0.018560292199254036,0.9995605945587158,0.5413445234298706,0.3580310642719269,0.015564719215035439,0.9996517896652222,0.5356635451316833,0.3574434518814087,0.015490000136196613,0.9996597766876221,0.5303656458854675,0.3571738004684448,0.015418114140629768,0.9997056722640991,0.563590407371521,0.3674982488155365,0.1402091681957245,0.9993681311607361,0.5217334032058716,0.36336809396743774,0.1279096156358719,0.9996272325515747,0.5514752268791199,0.39232009649276733,0.03118802234530449,0.9998016357421875,0.5368179082870483,0.3909216523170471,0.027245795354247093,0.9998602867126465,0.5939016342163086,0.43950051069259644,0.1527368575334549,0.9993171691894531,0.4847295880317688,0.42606011033058167,0.10287533700466156,0.9997168779373169,0.6445227861404419,0.5052494406700134,-0.04111422598361969,0.9750127792358398,0.4528512954711914,0.48639288544654846,-0.07529740035533905,0.9907605051994324,0.5742426514625549,0.43252572417259216,-0.17621572315692902,0.9433968663215637,0.5366610288619995,0.4436729848384857,-0.1540721356868744,0.979134738445282,0.5650118589401245,0.413137823343277,-0.20230908691883087,0.8509443998336792,0.5540162324905396,0.41750386357307434,-0.17391519248485565,0.9237991571426392,0.5608867406845093,0.41117677092552185,-0.16369187831878662,0.8327411413192749,0.5515183210372925,0.4141053259372711,-0.14396566152572632,0.9080606698989868,0.5602378845214844,0.42043837904930115,-0.16396771371364594,0.7843315005302429,0.5480725169181824,0.42606300115585327,-0.1412118524312973,0.8718055486679077,0.5648535490036011,0.6229389309883118,0.004127901513129473,0.999519407749176,0.5000256896018982,0.6188316941261292,-0.0038590761832892895,0.999627947807312,0.5758136510848999,0.555988609790802,-0.3135685324668884,0.9847464561462402,0.49813151359558105,0.553389310836792,-0.2921459376811981,0.9781152009963989,0.5622432231903076,0.7055720686912537,-0.28231891989707947,0.9530768990516663,0.505078136920929,0.7011528015136719,-0.2411978542804718,0.959453284740448,0.5527029633522034,0.7262760996818542,-0.2817673087120056,0.9099909663200378,0.5106287598609924,0.7174549102783203,-0.24052898585796356,0.8769897818565369,0.5656517744064331,0.7424815893173218,-0.397011399269104,0.9566044211387634,0.4967256188392639,0.7469623684883118,-0.3677751421928406,0.9540424346923828
19,0.546336829662323,0.36198070645332336,-0.01278455089777708,0.9997898936271667,0.5527251958847046,0.34647494554519653,0.01782974973320961,0.9996678829193115,0.5557175874710083,0.34670308232307434,0.017795030027627945,0.9996239542961121,0.5586556196212769,0.3472500443458557,0.01776861771941185,0.9995968341827393,0.5412290096282959,0.3450447916984558,0.01538923941552639,0.9996792674064636,0.5355954170227051,0.3442649841308594,0.015306944958865643,0.9996865391731262,0.5303640365600586,0.34385159611701965,0.015211589634418488,0.9997298717498779,0.563578724861145,0.35511884093284607,0.1386580914258957,0.9994123578071594,0.5217722654342651,0.35054367780685425,0.12832555174827576,0.9996549487113953,0.5514419674873352,0.38001158833503723,0.02861379086971283,0.9998087286949158,0.5367512106895447,0.3785219192504883,0.02517688274383545,0.9998654127120972,0.5936003923416138,0.4293578565120697,0.14438870549201965,0.9991950988769531,0.48403486609458923,0.41783154010772705,0.10219363123178482,0.9996976256370544,0.6447843313217163,0.49455392360687256,-0.06861609220504761,0.9744877219200134,0.4527376592159271,0.47688230872154236,-0.09334009140729904,0.9891964793205261,0.5749807953834534,0.42492663860321045,-0.22264838218688965,0.943528950214386,0.536524772644043,0.43386000394821167,-0.19835719466209412,0.9768305420875549,0.5650519132614136,0.4045162498950958,-0.2516433000564575,0.8486844897270203,0.5541702508926392,0.4080764949321747,-0.22268995642662048,0.9163200855255127,0.5609310865402222,0.40408581495285034,-0.2148524969816208,0.8298527598381042,0.5522682666778564,0.4055466949939728,-0.19253964722156525,0.8995563983917236,0.5605963468551636,0.413492351770401,-0.21147048473358154,0.7826489806175232,0.5489100217819214,0.41723182797431946,-0.18613749742507935,0.8621838688850403,0.5645801424980164,0.6138327717781067,0.0038743228651583195,0.9995244741439819,0.4992615580558777,0.6081746220588684,-0.0035606171004474163,0.9996249675750732,0.5728356242179871,0.5559044480323792,-0.3480994701385498,0.9839547276496887,0.5003531575202942,0.5534114837646484,-0.36716094613075256,0.9774113893508911,0.5620266199111938,0.7061717510223389,-0.3634684383869171,0.9480704665184021,0.5050702095031738,0.7011731266975403,-0.36882853507995605,0.9559198021888733,0.5525232553482056,0.7292587757110596,-0.3698730170726776,0.9091110229492188,0.5105154514312744,0.7221606373786926,-0.37374573945999146,0.8782336711883545,0.5636900663375854,0.7374944090843201,-0.5033378601074219,0.9546038508415222,0.49890175461769104,0.7443068027496338,-0.5184810161590576,0.9520320296287537
20,0.5463352799415588,0.3304423391819,-0.15307536721229553,0.9998058676719666,0.5527452230453491,0.3143085241317749,-0.12582054734230042,0.9996939301490784,0.5557053685188293,0.31467121839523315,-0.12582364678382874,0.9996542930603027,0.5586470365524292,0.3151329755783081,-0.12586212158203125,0.9996302723884583,0.5411467552185059,0.31258440017700195,-0.12759724259376526,0.9997031688690186,0.5355920195579529,0.31165823340415955,-0.12766332924365997,0.9997106790542603,0.5304656028747559,0.31082260608673096,-0.12773270905017853,0.9997510313987732,0.5631053447723389,0.3219398260116577,0.0006186310201883316,0.9994589686393738,0.5220533609390259,0.3166206181049347,-0.005997045896947384,0.9996801018714905,0.5514241456985474,0.3468533754348755,-0.10739530622959137,0.9998235702514648,0.5367112755775452,0.3442704379558563,-0.10972435772418976,0.999874472618103,0.5947298407554626,0.40284326672554016,0.026639088988304138,0.9992200136184692,0.48379024863243103,0.3858155310153961,-0.01663760282099247,0.9996904730796814,0.6453675031661987,0.47393399477005005,-0.192861869931221,0.9758675694465637,0.45143643021583557,0.45088517665863037,-0.22769621014595032,0.989622950553894,0.5757871270179749,0.40660858154296875,-0.36975914239883423,0.9447293877601624,0.5377434492111206,0.40721264481544495,-0.35138168931007385,0.9760183095932007,0.5658460259437561,0.38882169127464294,-0.4023504853248596,0.8494858741760254,0.5549415946006775,0.38557496666908264,-0.38252052664756775,0.9126816391944885,0.5618563890457153,0.38705119490623474,-0.36549124121665955,0.830710232257843,0.5529106855392456,0.3831661641597748,-0.3469082713127136,0.8951382040977478,0.5618017911911011,0.39451178908348083,-0.35855385661125183,0.7834154367446899,0.5495120882987976,0.3904162645339966,-0.33809059858322144,0.8558822870254517,0.5643118619918823,0.5764393210411072,0.004007861949503422,0.9995385408401489,0.4974260926246643,0.5687991380691528,-0.0036818780936300755,0.9996165037155151,0.5711671113967896,0.5557211637496948,-0.4534277319908142,0.9834774732589722,0.501386821269989,0.553312361240387,-0.4267943501472473,0.9771981239318848,0.5620425939559937,0.706108033657074,-0.3275901675224304,0.9460195302963257,0.5047961473464966,0.6996539831161499,-0.28425389528274536,0.9540868401527405,0.5525628924369812,0.7280356287956238,-0.3198804557323456,0.9062228202819824,0.509353518486023,0.7180850505828857,-0.2765858471393585,0.8768765926361084,0.5629616975784302,0.7383480668067932,-0.46376833319664,0.953808605670929,0.5039914846420288,0.7440187931060791,-0.4191957116127014,0.9508911371231079
21,0.5459729433059692,0.301923930644989,-0.2714821696281433,0.9998222589492798,0.5525674223899841,0.28490811586380005,-0.2487083375453949,0.9997184872627258,0.5556867718696594,0.2854669392108917,-0.24869120121002197,0.9996828436851501,0.5586379766464233,0.2858321964740753,-0.24874405562877655,0.9996601343154907,0.5403187274932861,0.2830943763256073,-0.24774834513664246,0.9997263550758362,0.5352319478988647,0.28270384669303894,-0.24781592190265656,0.9997339248657227,0.5303791165351868,0.2824731469154358,-0.24786262214183807,0.9997705221176147,0.56313556432724,0.29152819514274597,-0.12246006727218628,0.9995042085647583,0.5225629210472107,0.28810936212539673,-0.11767347902059555,0.9997062087059021,0.5513900518417358,0.31660041213035583,-0.22414669394493103,0.999839723110199,0.5366585850715637,0.31586551666259766,-0.22307780385017395,0.999885618686676,0.5971924066543579,0.3747607469558716,-0.0759262666106224,0.9992831945419312,0.4853397011756897,0.35577431321144104,-0.1053747683763504,0.9997107982635498,0.6449147462844849,0.4535469710826874,-0.2848653495311737,0.9778801202774048,0.44882068037986755,0.429874449968338,-0.31993207335472107,0.990447998046875,0.5778862237930298,0.39826956391334534,-0.4789249897003174,0.9487367868423462,0.5351046323776245,0.39544349908828735,-0.4849841594696045,0.9771726131439209,0.566614031791687,0.379196435213089,-0.5165287256240845,0.8587759137153625,0.5539642572402954,0.37646186351776123,-0.5240480303764343,0.9157909750938416,0.5633906126022339,0.37516066431999207,-0.4817536771297455,0.8409783244132996,0.5526466965675354,0.3727116584777832,-0.48552465438842773,0.8984149098396301,0.5638245344161987,0.38279691338539124,-0.4681149125099182,0.7944836616516113,0.5492602586746216,0.37881430983543396,-0.4713895916938782,0.8581779599189758,0.5642256736755371,0.5468255281448364,0.007644386030733585,0.9995675683021545,0.4973962903022766,0.5373452305793762,-0.007438290864229202,0.9996283054351807,0.5709905624389648,0.5590556263923645,-0.46003493666648865,0.9832413196563721,0.5013012886047363,0.5600388646125793,-0.4267989993095398,0.9761752486228943,0.5620483160018921,0.7035896182060242,-0.24699664115905762,0.9443437457084656,0.5048061013221741,0.6996504068374634,-0.1614592969417572,0.9529949426651001,0.5523189306259155,0.7263550162315369,-0.2262403964996338,0.9037467241287231,0.509867787361145,0.7179835438728333,-0.1375214010477066,0.8730120658874512,0.5624284744262695,0.7387434840202332,-0.371895968914032,0.9531656503677368,0.5071235299110413,0.7436456084251404,-0.28047293424606323,0.9498788714408875
22,0.5438622236251831,0.27079904079437256,-0.3963547646999359,0.9998348951339722,0.5510736107826233,0.2539599537849426,-0.3721708655357361,0.999734103679657,0.5549722909927368,0.25428900122642517,-0.3721601366996765,0.9997026920318604,0.5581746101379395,0.25471651554107666,-0.37221089005470276,0.9996775984764099,0.5377523303031921,0.25260666012763977,-0.3692975640296936,0.9997401833534241,0.5334140062332153,0.2522647976875305,-0.3693831264972687,0.9997495412826538,0.5295814275741577,0.2523040473461151,-0.36941808462142944,0.99978107213974,0.5631095767021179,0.26060932874679565,-0.23501677811145782,0.9995391368865967,0.5227463245391846,0.2586020231246948,-0.22141961753368378,0.9997235536575317,0.5509344339370728,0.28830328583717346,-0.3453756868839264,0.9998541474342346,0.5355789065361023,0.28754088282585144,-0.3417312800884247,0.9998955726623535,0.5991002321243286,0.34740298986434937,-0.1782524287700653,0.9993422031402588,0.48626142740249634,0.3347157835960388,-0.18488022685050964,0.9997272491455078,0.6448239088058472,0.43168556690216064,-0.39079469442367554,0.9799174070358276,0.4466628134250641,0.4080561697483063,-0.40316176414489746,0.9912698268890381,0.577218770980835,0.38421717286109924,-0.5895358920097351,0.9529448747634888,0.5323920249938965,0.3844572901725769,-0.5916014909744263,0.9783366322517395,0.5639895796775818,0.366706520318985,-0.6328338980674744,0.8689663410186768,0.5504733920097351,0.3662586212158203,-0.6368240118026733,0.9186923503875732,0.5614134669303894,0.36053362488746643,-0.5967978239059448,0.8520368337631226,0.5500460863113403,0.36101293563842773,-0.5990944504737854,0.9010218977928162,0.562724232673645,0.36767905950546265,-0.5781741738319397,0.806093156337738,0.5475946664810181,0.3670666813850403,-0.5793501138687134,0.8582085967063904,0.5637820959091187,0.516432523727417,0.007634636014699936,0.9995960593223572,0.4972703456878662,0.5095890760421753,-0.007415487430989742,0.9996435046195984,0.5710210800170898,0.5606139302253723,-0.46741992235183716,0.9833709597587585,0.501214861869812,0.5608939528465271,-0.46511125564575195,0.9754722714424133,0.562588632106781,0.7029238343238831,-0.15862374007701874,0.9442147016525269,0.5036759972572327,0.6998292803764343,-0.14612078666687012,0.9547485113143921,0.5525231957435608,0.721615731716156,-0.1329369992017746,0.9009801149368286,0.507809042930603,0.7179632186889648,-0.12034733593463898,0.8709782361984253,0.5653270483016968,0.740656316280365,-0.2891198992729187,0.9532896876335144,0.506799042224884,0.7436897158622742,-0.28988006711006165,0.9514791965484619
23,0.5439330339431763,0.24073748290538788,-0.39234715700149536,0.999810516834259,0.5512298345565796,0.22459152340888977,-0.3666854798793793,0.9996892809867859,0.5552636384963989,0.22478695213794708,-0.3667154014110565,0.9996538758277893,0.5585610270500183,0.22505420446395874,-0.3667822778224945,0.999614953994751,0.5376591086387634,0.22351877391338348,-0.3655068874359131,0.999695897102356,0.5332497358322144,0.22324205935001373,-0.3655751049518585,0.9997081756591797,0.5295760035514832,0.22330965101718903,-0.3656129539012909,0.999739944934845,0.5636335611343384,0.23038937151432037,-0.2262263298034668,0.9994910955429077,0.5228363275527954,0.2295524626970291,-0.219756081700325,0.9996826648712158,0.5514316558837891,0.2588542699813843,-0.3405243456363678,0.9998531341552734,0.5355672240257263,0.25964343547821045,-0.33899426460266113,0.999893844127655,0.6007362604141235,0.3252607583999634,-0.16567766666412354,0.9993148446083069,0.48791012167930603,0.30936992168426514,-0.1741013526916504,0.9997124671936035,0.6446260213851929,0.4138072729110718,-0.3674620985984802,0.9813413619995117,0.44374600052833557,0.3927280306816101,-0.3769408166408539,0.9917773008346558,0.5717083811759949,0.3705998957157135,-0.569905161857605,0.9531076550483704,0.531593918800354,0.37209540605545044,-0.5623324513435364,0.9768355488777161,0.5603072643280029,0.34747886657714844,-0.6134259104728699,0.865577757358551,0.5494493246078491,0.3506832420825958,-0.6066139936447144,0.9111322164535522,0.5587131381034851,0.340934157371521,-0.5800098776817322,0.8472179770469666,0.5491056442260742,0.34460169076919556,-0.5728641748428345,0.8904261589050293,0.5602811574935913,0.35016825795173645,-0.5600827932357788,0.7945441603660583,0.546703577041626,0.35352638363838196,-0.5516785383224487,0.8391157388687134,0.5622872710227966,0.48568809032440186,0.007212639786303043,0.9995710253715515,0.4964722990989685,0.47885221242904663,-0.007033494301140308,0.999612033367157,0.5715608596801758,0.5604436993598938,-0.43162623047828674,0.9820768237113953,0.50119549036026,0.5601219534873962,-0.43405890464782715,0.973162829875946,0.5630726218223572,0.7049303650856018,-0.20350535213947296,0.9408756494522095,0.501974880695343,0.7015303373336792,-0.20406050980091095,0.9564989805221558,0.5543758273124695,0.7259982228279114,-0.18900416791439056,0.8940213322639465,0.5054581761360168,0.7218112945556641,-0.19024449586868286,0.868182897567749,0.5654443502426147,0.7407399415969849,-0.34633302688598633,0.9517370462417603,0.5001533031463623,0.7439978718757629,-0.3983527719974518,0.9528241753578186
24,0.5435697436332703,0.21091383695602417,-0.40733104944229126,0.9998179078102112,0.5509981513023376,0.19593395292758942,-0.3811737895011902,0.9996998906135559,0.5552552938461304,0.19639015197753906,-0.38121917843818665,0.9996629953384399,0.5585752725601196,0.1968497931957245,-0.38127583265304565,0.9996191263198853,0.5370692014694214,0.19419893622398376,-0.38030076026916504,0.9997105598449707,0.5330054759979248,0.1938101351261139,-0.38036999106407166,0.9997222423553467,0.5294216871261597,0.19379179179668427,-0.3804047703742981,0.9997512698173523,0.5637607574462891,0.20244638621807098,-0.23756802082061768,0.999505341053009,0.522891104221344,0.2007884383201599,-0.2333352118730545,0.9997023940086365,0.551437497138977,0.22959275543689728,-0.3545365035533905,0.9998645186424255,0.535481333732605,0.22963212430477142,-0.353684663772583,0.9999026656150818,0.6010149121284485,0.2982918918132782,-0.16041263937950134,0.999354362487793,0.48841530084609985,0.28535765409469604,-0.17883113026618958,0.9997334480285645,0.6445133686065674,0.3969683051109314,-0.34068241715431213,0.9828686714172363,0.4432660937309265,0.3713536858558655,-0.3542063236236572,0.9924454092979431,0.5704111456871033,0.35613366961479187,-0.5586676001548767,0.9553341865539551,0.5274697542190552,0.3599725067615509,-0.5451358556747437,0.9777172207832336,0.5586389303207397,0.3374577462673187,-0.6059635877609253,0.8701237440109253,0.5444629192352295,0.34640583395957947,-0.5929137468338013,0.9137295484542847,0.5579074621200562,0.3250912129878998,-0.578255832195282,0.8515264987945557,0.5447288751602173,0.33776670694351196,-0.5638526082038879,0.8929396271705627,0.559317409992218,0.3329681158065796,-0.551121175289154,0.7959074974060059,0.5419902205467224,0.34220239520072937,-0.5360413789749146,0.8393150568008423,0.561420202255249,0.4603275656700134,0.010516130365431309,0.9995732307434082,0.4961298406124115,0.4518655240535736,-0.01043014507740736,0.9996053576469421,0.572486937046051,0.5606124997138977,-0.3926650881767273,0.9801179766654968,0.5007755160331726,0.5599399209022522,-0.41407227516174316,0.9709089398384094,0.5633718967437744,0.7089111804962158,-0.1997247040271759,0.9344916939735413,0.5010762810707092,0.7031034827232361,-0.22042091190814972,0.95728600025177,0.5551208853721619,0.7294644117355347,-0.1891753375530243,0.885791540145874,0.5048370361328125,0.7244845628738403,-0.21121609210968018,0.860902726650238,0.5761502385139465,0.7447543740272522,-0.3539510667324066,0.9479899406433105,0.4975420832633972,0.7442708611488342,-0.407231867313385,0.9525178074836731
25,0.5435836911201477,0.15149332582950592,-0.41867709159851074,0.9998183846473694,0.5508707165718079,0.13781186938285828,-0.39381128549575806,0.999683678150177,0.5552505254745483,0.13917917013168335,-0.39387404918670654,0.9996358156204224,0.5586990118026733,0.14035934209823608,-0.3939453959465027,0.9995696544647217,0.5371005535125732,0.13644064962863922,-0.3923075199127197,0.9997124075889587,0.5330139398574829,0.13687804341316223,-0.3923744857311249,0.9997248649597168,0.5294274091720581,0.13725808262825012,-0.39245373010635376,0.9997532367706299,0.5639258027076721,0.1519995629787445,-0.25634223222732544,0.9994805455207825,0.5228532552719116,0.14918795228004456,-0.24818134307861328,0.9997138977050781,0.5523105263710022,0.17060586810112,-0.36844760179519653,0.9998707175254822,0.5357376337051392,0.1675458699464798,-0.3663954734802246,0.999908983707428,0.6006908416748047,0.2553349733352661,-0.18516790866851807,0.9993366003036499,0.48720255494117737,0.2395513653755188,-0.1851065307855606,0.9997521042823792,0.6412781476974487,0.35476547479629517,-0.34316688776016235,0.9836223721504211,0.4436281621456146,0.33118000626564026,-0.3378937840461731,0.9929944276809692,0.5711709856987,0.34306761622428894,-0.5608350038528442,0.9519115090370178,0.5220047235488892,0.34431537985801697,-0.5335415601730347,0.9789431691169739,0.5585746169090271,0.3349020779132843,-0.6128071546554565,0.8641660809516907,0.5401217937469482,0.338809072971344,-0.5818345546722412,0.9188275933265686,0.5577397346496582,0.3184245526790619,-0.5925658941268921,0.8445236086845398,0.5423890352249146,0.3267166316509247,-0.5635026693344116,0.8991205096244812,0.5592595934867859,0.3197743594646454,-0.556418776512146,0.783055305480957,0.5388420820236206,0.3274737298488617,-0.5287696123123169,0.8468530774116516,0.5605124831199646,0.43251344561576843,0.006426614709198475,0.9994523525238037,0.4960249364376068,0.4247877299785614,-0.006486537866294384,0.9995671510696411,0.572490930557251,0.5597603917121887,-0.31149011850357056,0.9743248224258423,0.4996543824672699,0.5593151450157166,-0.31836140155792236,0.9679118990898132,0.5634161233901978,0.709374725818634,-0.122667595744133,0.9278808236122131,0.5007326602935791,0.7029818296432495,-0.11571629345417023,0.9582338929176331,0.5551230907440186,0.7293860912322998,-0.1143227070569992,0.8751319050788879,0.5045896768569946,0.7243415117263794,-0.10576538741588593,0.8571165800094604,0.5784000158309937,0.7467733025550842,-0.28089478611946106,0.942628026008606,0.493684858083725,0.7449389100074768,-0.2813505232334137,0.9514374732971191
26,0.5425270795822144,0.1754409372806549,-0.48414430022239685,0.9995953440666199,0.548932671546936,0.13866949081420898,-0.4707065224647522,0.9993443489074707,0.5536636114120483,0.13873864710330963,-0.4707419276237488,0.9991851449012756,0.5578110218048096,0.1408267766237259,-0.4708230495452881,0.9989882111549377,0.5360562205314636,0.1591353565454483,-0.47042471170425415,0.9994800090789795,0.5319967865943909,0.15884430706501007,-0.4705386757850647,0.999477744102478,0.5281760096549988,0.15856076776981354,-0.4706578850746155,0.9995539784431458,0.5632756352424622,0.15039855241775513,-0.3370095193386078,0.9990299344062805,0.5223821401596069,0.15540120005607605,-0.33335012197494507,0.9996018409729004,0.5509766340255737,0.18907400965690613,-0.4288308620452881,0.9997998476028442,0.5352894067764282,0.18914060294628143,-0.4282170236110687,0.9998769164085388,0.6001895070075989,0.23122312128543854,-0.21558114886283875,0.9993517994880676,0.48594218492507935,0.2196674346923828,-0.24082247912883759,0.9997719526290894,0.6383057832717896,0.33299896121025085,-0.34705430269241333,0.984093964099884,0.44375935196876526,0.31492313742637634,-0.35139724612236023,0.9934715032577515,0.5715130567550659,0.33057770133018494,-0.5730899572372437,0.9485394954681396,0.5174050331115723,0.3329431712627411,-0.5290840864181519,0.9800946116447449,0.5582572817802429,0.3282723128795624,-0.6245862245559692,0.8576910495758057,0.5367292165756226,0.3334832787513733,-0.5735827684402466,0.9234897494316101,0.5569318532943726,0.3117685317993164,-0.6100173592567444,0.8374850153923035,0.5393320322036743,0.3186650574207306,-0.5641497373580933,0.9049558639526367,0.5590839982032776,0.31127384305000305,-0.5705920457839966,0.7717795372009277,0.535071849822998,0.3180871605873108,-0.5263121724128723,0.8544989228248596,0.5599837303161621,0.41042062640190125,0.008981352671980858,0.9990932941436768,0.4954903721809387,0.4023718237876892,-0.009017174132168293,0.9994201064109802,0.5721582174301147,0.5539446473121643,-0.1999761462211609,0.9661895036697388,0.49964579939842224,0.5523993968963623,-0.22197744250297546,0.9619566798210144,0.5638749003410339,0.7092602849006653,-0.10092093795537949,0.9174864292144775,0.49971437454223633,0.7030053734779358,-0.09982885420322418,0.9561911821365356,0.5554004907608032,0.7292793393135071,-0.10017502307891846,0.857894778251648,0.5018656849861145,0.725641131401062,-0.09644132852554321,0.8460191488265991,0.5778722167015076,0.7464312314987183,-0.2595861554145813,0.9328144788742065,0.4942072331905365,0.743414580821991,-0.2628224194049835,0.9456658363342285
27,0.5403376817703247,0.2027636468410492,-0.5941832065582275,0.9996318221092224,0.5473251938819885,0.17368045449256897,-0.5895395874977112,0.999403178691864,0.5518734455108643,0.1724371314048767,-0.5895601511001587,0.9992578625679016,0.5561625361442566,0.17147906124591827,-0.5896575450897217,0.9990783333778381,0.5346869826316833,0.17749188840389252,-0.589558482170105,0.9995269179344177,0.5308400988578796,0.18339328467845917,-0.5897144675254822,0.999523937702179,0.5270426273345947,0.180278480052948,-0.5898231267929077,0.9995937943458557,0.5626958608627319,0.15854831039905548,-0.45097845792770386,0.9991188645362854,0.5211559534072876,0.16433587670326233,-0.44792383909225464,0.9996399283409119,0.5485992431640625,0.20982082188129425,-0.5318343043327332,0.9998182058334351,0.5342758893966675,0.21022337675094604,-0.531394898891449,0.9998884201049805,0.6000983119010925,0.21239452064037323,-0.2810879647731781,0.9994138479232788,0.4850637912750244,0.20370006561279297,-0.31867098808288574,0.9997944831848145,0.6347681283950806,0.31408262252807617,-0.3913782835006714,0.9850472807884216,0.443714439868927,0.2995452284812927,-0.41063427925109863,0.9940493702888489,0.5716198682785034,0.32005202770233154,-0.6533804535865784,0.9497026205062866,0.5148159861564636,0.3223705589771271,-0.6264775395393372,0.9816816449165344,0.5580303072929382,0.3233740031719208,-0.7131444811820984,0.8618013858795166,0.5328239798545837,0.3282533884048462,-0.6801778078079224,0.9297040104866028,0.5561693906784058,0.3043498992919922,-0.7126398086547852,0.8430088758468628,0.5373818278312683,0.31220510601997375,-0.6814962029457092,0.9128060936927795,0.5585253238677979,0.30228832364082336,-0.6576594114303589,0.777065098285675,0.5325446128845215,0.3095400035381317,-0.6287976503372192,0.866033673286438,0.5595899224281311,0.40138959884643555,0.014089561998844147,0.9990659356117249,0.4951728880405426,0.395815372467041,-0.01399241853505373,0.9994366765022278,0.5717272758483887,0.5510886907577515,-0.08719049394130707,0.9655569791793823,0.4996030926704407,0.5510997772216797,-0.1499818116426468,0.9639918208122253,0.5643097162246704,0.7093368172645569,0.05479656532406807,0.9193646907806396,0.49922361969947815,0.7037957906723022,0.008465055376291275,0.958666205406189,0.5555099248886108,0.7296711802482605,0.058994852006435394,0.8560618758201599,0.5013349652290344,0.7277020215988159,0.014870407059788704,0.8504963517189026,0.5764188766479492,0.7459564208984375,-0.09635422378778458,0.9326281547546387,0.49289029836654663,0.7437770366668701,-0.15558111667633057,0.947315514087677
28,0.5405880212783813,0.2086043357849121,-0.5904809832572937,0.9996634721755981,0.5474691987037659,0.19567029178142548,-0.5950949788093567,0.999453067779541,0.5521072149276733,0.1938450187444687,-0.5950990915298462,0.999321460723877,0.556571900844574,0.19211775064468384,-0.5951560735702515,0.9991552233695984,0.5347857475280762,0.1982804238796234,-0.5964645147323608,0.9995667338371277,0.5310595631599426,0.19910523295402527,-0.5966671109199524,0.9995641112327576,0.5272547006607056,0.19788117706775665,-0.5968011021614075,0.999627411365509,0.5653886795043945,0.1729167103767395,-0.4720584452152252,0.9991976618766785,0.5207099914550781,0.1668279469013214,-0.4750162661075592,0.9996742010116577,0.5484768152236938,0.2079111635684967,-0.5300003290176392,0.9998338222503662,0.5346187353134155,0.20715263485908508,-0.5314111709594727,0.9998984336853027,0.5992956757545471,0.19832754135131836,-0.30166909098625183,0.999470591545105,0.482137531042099,0.18945994973182678,-0.34277626872062683,0.9998149275779724,0.6292442083358765,0.29953181743621826,-0.4316060543060303,0.985003650188446,0.4434567093849182,0.289734810590744,-0.4593983590602875,0.9945895075798035,0.5716497302055359,0.3082999587059021,-0.7242759466171265,0.9495505094528198,0.512457013130188,0.3141973316669464,-0.6934548616409302,0.9832684993743896,0.557921290397644,0.3148209750652313,-0.789035439491272,0.8656376600265503,0.5321197509765625,0.3200993835926056,-0.7498082518577576,0.9358862042427063,0.5558013916015625,0.2961161434650421,-0.7891685962677002,0.8484635949134827,0.5370166301727295,0.30533626675605774,-0.7490639686584473,0.9206044673919678,0.5583987832069397,0.29225629568099976,-0.7297896146774292,0.7821604013442993,0.5316282510757446,0.30268964171409607,-0.6950141787528992,0.8776103854179382,0.5585654973983765,0.3949185013771057,0.016485491767525673,0.9991218447685242,0.4941323697566986,0.3911590278148651,-0.0162779800593853,0.9994820356369019,0.571622371673584,0.5484748482704163,-0.09950852394104004,0.9650205969810486,0.499539315700531,0.5511289834976196,-0.16254517436027527,0.9662957191467285,0.5644907355308533,0.7098771333694458,0.009855756536126137,0.9221357703208923,0.49849843978881836,0.7048231959342957,-0.025275537744164467,0.9609552621841431,0.5564559698104858,0.732995331287384,0.01044533122330904,0.8561868071556091,0.5001537799835205,0.7301285862922668,-0.021567557007074356,0.8556032776832581,0.5762819647789001,0.7455909848213196,-0.14181581139564514,0.9346952438354492,0.4935956597328186,0.7433347702026367,-0.1847027689218521,0.9499238729476929
29,0.5416337251663208,0.2034022957086563,-0.6314910650253296,0.9996809363365173,0.5475409030914307,0.19198396801948547,-0.6349581480026245,0.9994750618934631,0.5522388219833374,0.1894063800573349,-0.6349500417709351,0.9993516206741333,0.5565885901451111,0.18675580620765686,-0.6350173354148865,0.9991962909698486,0.5353263020515442,0.19137267768383026,-0.6371849775314331,0.9995872378349304,0.5314796566963196,0.18890085816383362,-0.6373869776725769,0.999584436416626,0.5275330543518066,0.18582861125469208,-0.6375259160995483,0.9996463656425476,0.5687206983566284,0.1635417491197586,-0.5035398006439209,0.9992406964302063,0.5199606418609619,0.15958566963672638,-0.5095222592353821,0.9996998906135559,0.549001932144165,0.19940540194511414,-0.5676026940345764,0.9998412132263184,0.5357043743133545,0.19873251020908356,-0.5698319673538208,0.9999045729637146,0.5974804162979126,0.1826273500919342,-0.3255150616168976,0.999520480632782,0.47885337471961975,0.17948965728282928,-0.36867713928222656,0.9998330473899841,0.6238536834716797,0.2884313464164734,-0.4315968155860901,0.984558641910553,0.44359174370765686,0.27978068590164185,-0.47283825278282166,0.995064914226532,0.5704406499862671,0.304047554731369,-0.7160684466362,0.9458110928535461,0.5101999640464783,0.3092729449272156,-0.6922261118888855,0.9845948219299316,0.5557082295417786,0.30927494168281555,-0.7814723253250122,0.8628091812133789,0.5312565565109253,0.3166697323322296,-0.7485431432723999,0.9411569833755493,0.5536724328994751,0.29380375146865845,-0.7873684167861938,0.847341775894165,0.5353142023086548,0.30096155405044556,-0.7500561475753784,0.9273270964622498,0.5569456815719604,0.29014819860458374,-0.7236965298652649,0.7792356014251709,0.530005693435669,0.29841190576553345,-0.6942347288131714,0.8874599933624268,0.5584224462509155,0.3897179365158081,0.016733409836888313,0.9991567134857178,0.49378538131713867,0.38756731152534485,-0.016519177705049515,0.9995133876800537,0.5714048743247986,0.5489715337753296,-0.062157947570085526,0.9663297533988953,0.4996817111968994,0.5503415465354919,-0.09396190196275711,0.9686977863311768,0.56556236743927,0.709778904914856,0.07853040844202042,0.9269939661026001,0.49861589074134827,0.7034131288528442,0.058785032480955124,0.9630167484283447,0.5582917928695679,0.7333439588546753,0.08290405571460724,0.859866738319397,0.5009233355522156,0.7295082211494446,0.0647655576467514,0.8590522408485413,0.5757067203521729,0.7452321648597717,-0.07272781431674957,0.9377907514572144,0.4966878294944763,0.7431709170341492,-0.09636213630437851,0.9523319005966187
30,0.5416628122329712,0.16100536286830902,-0.6444047093391418,0.999681293964386,0.5475751161575317,0.14727279543876648,-0.6379876136779785,0.9994653463363647,0.5520437359809875,0.1456492394208908,-0.6380029916763306,0.9993433952331543,0.5562375783920288,0.14300991594791412,-0.6381028890609741,0.9991944432258606,0.5354030132293701,0.1457936018705368,-0.6401926279067993,0.9995816349983215,0.5314688086509705,0.14364321529865265,-0.6403554677963257,0.9995772838592529,0.5274327993392944,0.14056824147701263,-0.6404798030853271,0.9996435046195984,0.5652688145637512,0.125066876411438,-0.48560523986816406,0.9992257356643677,0.5179407000541687,0.12585654854774475,-0.4918387532234192,0.9997082352638245,0.5490584373474121,0.16699235141277313,-0.5761051774024963,0.9998378157615662,0.5357255339622498,0.16780467331409454,-0.5783116817474365,0.9999045729637146,0.5973795652389526,0.17224138975143433,-0.31756478548049927,0.9995626211166382,0.4776727557182312,0.16726581752300262,-0.35866886377334595,0.9998483061790466,0.6212635636329651,0.2814885079860687,-0.4245397448539734,0.9844066500663757,0.4442502558231354,0.27006474137306213,-0.460444837808609,0.9954010844230652,0.5701237916946411,0.2943359315395355,-0.7048290371894836,0.9430451989173889,0.5123485326766968,0.3022155165672302,-0.6678329706192017,0.9854105710983276,0.5559602379798889,0.3009166121482849,-0.7727986574172974,0.8610164523124695,0.532693088054657,0.3105129301548004,-0.725581705570221,0.9450808167457581,0.5539059042930603,0.2861797511577606,-0.780415415763855,0.8466498851776123,0.5363122224807739,0.29578617215156555,-0.7293441891670227,0.9324504733085632,0.5569998025894165,0.2816009223461151,-0.7136009931564331,0.7788026928901672,0.5313776731491089,0.2928246259689331,-0.6709915399551392,0.8948072791099548,0.5585116147994995,0.38815250992774963,0.01575840450823307,0.9991280436515808,0.49380436539649963,0.38593196868896484,-0.015578913502395153,0.9994953870773315,0.5710681676864624,0.5495471358299255,-0.05380018427968025,0.9681016206741333,0.4996742606163025,0.5506030917167664,-0.05119458958506584,0.9705607295036316,0.5663318037986755,0.7099438309669495,0.1211918368935585,0.9318330883979797,0.49875006079673767,0.7034018039703369,0.12149842083454132,0.9647494554519653,0.5589377880096436,0.7332786321640015,0.12908703088760376,0.8631401658058167,0.5011285543441772,0.7291962504386902,0.12990354001522064,0.8581910133361816,0.575543224811554,0.7460728287696838,-0.03631463274359703,0.9405249357223511,0.496609628200531,0.7442489266395569,-0.04153653234243393,0.9541124105453491
31,0.541708767414093,0.1453416347503662,-0.5167113542556763,0.9993232488632202,0.5473810434341431,0.12988469004631042,-0.5006240606307983,0.9986417889595032,0.5516752004623413,0.12831802666187286,-0.5005851984024048,0.9984109401702881,0.5557819604873657,0.12603917717933655,-0.500619113445282,0.9981442093849182,0.5353232622146606,0.12958185374736786,-0.5002602934837341,0.9989421367645264,0.53132164478302,0.12789508700370789,-0.5004221200942993,0.998903214931488,0.5272259712219238,0.12524738907814026,-0.5005031228065491,0.9990531206130981,0.5629715919494629,0.112645722925663,-0.3748622536659241,0.9978528022766113,0.5169275403022766,0.11711453646421432,-0.3654927611351013,0.999297022819519,0.5490869283676147,0.1566029042005539,-0.4696986675262451,0.9996024966239929,0.5357761383056641,0.1573525071144104,-0.46650657057762146,0.9997659921646118,0.5974010229110718,0.17014293372631073,-0.23326615989208221,0.9995826482772827,0.4778096079826355,0.16471345722675323,-0.2696358859539032,0.9998552799224854,0.6191874146461487,0.27991095185279846,-0.2917293906211853,0.9826206564903259,0.4449571967124939,0.2698177397251129,-0.30827796459198,0.9953551292419434,0.569248378276825,0.2930681109428406,-0.5828903913497925,0.9382081627845764,0.5131751298904419,0.2974019944667816,-0.5016260743141174,0.9849943518638611,0.5555972456932068,0.29789799451828003,-0.6727597713470459,0.8564237356185913,0.5332120656967163,0.3048970401287079,-0.5561951994895935,0.9464840888977051,0.5539581179618835,0.2837338149547577,-0.6909254789352417,0.8432441353797913,0.5370311737060547,0.29059362411499023,-0.5686633586883545,0.9348180294036865,0.5569775700569153,0.2804737389087677,-0.6056526899337769,0.7761036157608032,0.5323008894920349,0.28785765171051025,-0.5071190595626831,0.8981016874313354,0.5593623518943787,0.39414769411087036,0.014541640877723694,0.9989660978317261,0.4949231743812561,0.3918780982494354,-0.014348430559039116,0.9993770122528076,0.5710781216621399,0.5515876412391663,-0.06117815524339676,0.9686347842216492,0.49966639280319214,0.552416980266571,-0.03870096057653427,0.9716960191726685,0.5664657950401306,0.709915041923523,0.106569804251194,0.9343620538711548,0.4988102912902832,0.703647255897522,0.12018807232379913,0.9653304219245911,0.5588464736938477,0.7330693602561951,0.11524759232997894,0.8646451234817505,0.5013525485992432,0.7287275791168213,0.1279323697090149,0.8540612459182739,0.580420732498169,0.7483221888542175,-0.0317247100174427,0.9401881098747253,0.4957342743873596,0.7470083832740784,-0.02743154764175415,0.9531330466270447
32,0.5426818132400513,0.15420319139957428,-0.5034369230270386,0.9991424679756165,0.547442615032196,0.13497017323970795,-0.4920704960823059,0.9982115626335144,0.5516949892044067,0.13371960818767548,-0.49211469292640686,0.9979274868965149,0.5557971000671387,0.1316721886396408,-0.49221593141555786,0.9975965619087219,0.5353871583938599,0.13443756103515625,-0.49417558312416077,0.9986046552658081,0.5313372015953064,0.13285374641418457,-0.49428582191467285,0.9985553026199341,0.5272487998008728,0.13005384802818298,-0.4943969249725342,0.9987596869468689,0.5625028014183044,0.11920308321714401,-0.3479258120059967,0.9971027374267578,0.5168174505233765,0.12122464925050735,-0.3535636067390442,0.9991000890731812,0.549733579158783,0.16087262332439423,-0.4421862065792084,0.9994813799858093,0.5363981127738953,0.1620969921350479,-0.4439117908477783,0.9996961355209351,0.5974723100662231,0.1727270931005478,-0.213809534907341,0.999606728553772,0.47785845398902893,0.16655974090099335,-0.24722298979759216,0.999863862991333,0.6195139288902283,0.28378525376319885,-0.308345228433609,0.9816704392433167,0.44498810172080994,0.2723437249660492,-0.32833796739578247,0.9954745769500732,0.5694290995597839,0.29296454787254333,-0.5987831950187683,0.9349303841590881,0.512626051902771,0.29487374424934387,-0.5127701759338379,0.9852201342582703,0.5557634830474854,0.29670286178588867,-0.6702226400375366,0.8537569642066956,0.5326137542724609,0.30263760685920715,-0.5802024602890015,0.9489086270332336,0.5540264844894409,0.28308576345443726,-0.6770792007446289,0.8415435552597046,0.5369697213172913,0.2888568937778473,-0.593758225440979,0.9381759762763977,0.5572072863578796,0.28021666407585144,-0.60994553565979,0.775402843952179,0.532245397567749,0.2858089804649353,-0.5284634232521057,0.9029549360275269,0.5602554082870483,0.39818570017814636,0.012080451473593712,0.9988269209861755,0.4952465891838074,0.39557647705078125,-0.011910455301404,0.9992713332176208,0.5710920095443726,0.5544366240501404,-0.06300906836986542,0.9695528149604797,0.4995640218257904,0.5569116473197937,-0.032023895531892776,0.9727588891983032,0.5665234327316284,0.7109947800636292,0.12199356406927109,0.9370023608207703,0.49882692098617554,0.7038224339485168,0.14036695659160614,0.9657536745071411,0.5587014555931091,0.733237624168396,0.13236574828624725,0.8648784756660461,0.5018938779830933,0.7284412980079651,0.14960946142673492,0.8492594361305237,0.5803529024124146,0.7491428852081299,-0.01755444146692753,0.9402660131454468,0.4950645864009857,0.7489063739776611,-0.00728979054838419,0.9523077011108398
33,0.5419902801513672,0.17256370186805725,-0.578856885433197,0.9991357326507568,0.5469409227371216,0.1558312028646469,-0.573827862739563,0.9981993436813354,0.5511486530303955,0.15460965037345886,-0.5738344788551331,0.9979152679443359,0.5552311539649963,0.15277151763439178,-0.5739408135414124,0.9976009130477905,0.5348745584487915,0.15517078340053558,-0.5747503042221069,0.9985864162445068,0.5308160185813904,0.1534014195203781,-0.5748937129974365,0.9985377192497253,0.5266929268836975,0.15057864785194397,-0.5750094652175903,0.998753011226654,0.5610389113426208,0.13823352754116058,-0.4314771592617035,0.9970950484275818,0.5159148573875427,0.13713675737380981,-0.4326685070991516,0.9991015195846558,0.5489998459815979,0.1760251671075821,-0.5146898031234741,0.9994814395904541,0.5356439352035522,0.1762946993112564,-0.5153141021728516,0.9996957778930664,0.5972979068756104,0.17943720519542694,-0.27923399209976196,0.9996378421783447,0.477780818939209,0.1725085824728012,-0.3091810941696167,0.999875545501709,0.619113564491272,0.29029959440231323,-0.40066584944725037,0.9818732142448425,0.44490471482276917,0.27801305055618286,-0.42421451210975647,0.9957695603370667,0.5694815516471863,0.29703861474990845,-0.6932953596115112,0.9345136880874634,0.5103627443313599,0.29705381393432617,-0.6446921229362488,0.9860398769378662,0.5559326410293579,0.2995404005050659,-0.7625929117202759,0.8539372086524963,0.5293725728988647,0.3037619888782501,-0.7028659582138062,0.9522045850753784,0.5544620156288147,0.2856238782405853,-0.7653056383132935,0.8425211906433105,0.5342658758163452,0.2899283170700073,-0.7044271230697632,0.9423697590827942,0.5576927065849304,0.28350403904914856,-0.7008007764816284,0.7771309614181519,0.5292278528213501,0.2872723937034607,-0.6481159329414368,0.9091578722000122,0.5607183575630188,0.4022703170776367,0.011917585507035255,0.9988191723823547,0.4958132803440094,0.3987967371940613,-0.011747995391488075,0.9992585778236389,0.571280300617218,0.5561182498931885,-0.08364515006542206,0.9696910977363586,0.4995575547218323,0.5585222840309143,-0.05369778349995613,0.9733201265335083,0.5665158033370972,0.7115047574043274,0.10723759233951569,0.9378441572189331,0.4989001154899597,0.7034403681755066,0.12575310468673706,0.9646716117858887,0.5586153268814087,0.7335464954376221,0.11809078603982925,0.8627034425735474,0.5019600987434387,0.7269724607467651,0.1357601135969162,0.8410935997962952,0.5797582864761353,0.7498844265937805,-0.03494514152407646,0.9391921162605286,0.49594202637672424,0.7488677501678467,-0.02379973977804184,0.9506140947341919
34,0.5400218367576599,0.1881130486726761,-0.6406353116035461,0.99920654296875,0.546069324016571,0.17391468584537506,-0.6436766982078552,0.9983507394790649,0.5502418875694275,0.17191094160079956,-0.6436201333999634,0.9980904459953308,0.5542174577713013,0.16945290565490723,-0.6437135934829712,0.9978070259094238,0.5340301394462585,0.1685275435447693,-0.6438802480697632,0.9987002611160278,0.530076801776886,0.16326746344566345,-0.6440575122833252,0.9986546039581299,0.5260258913040161,0.15850116312503815,-0.6441446542739868,0.9988545775413513,0.5592024326324463,0.1452500820159912,-0.5114978551864624,0.997351348400116,0.5157446265220642,0.13811995089054108,-0.5092014670372009,0.9991776347160339,0.5472175478935242,0.18121448159217834,-0.5769854784011841,0.9995251893997192,0.5335901975631714,0.18407462537288666,-0.5767257213592529,0.9997206926345825,0.5970293283462524,0.18870066106319427,-0.3424568474292755,0.9996716976165771,0.47729459404945374,0.18153220415115356,-0.37847188115119934,0.9998874068260193,0.6196520924568176,0.29802078008651733,-0.47677212953567505,0.982698917388916,0.4447808265686035,0.2837486267089844,-0.5156344771385193,0.9961059093475342,0.567959189414978,0.3009018898010254,-0.7590319514274597,0.9343380928039551,0.5108292102813721,0.2994670867919922,-0.7346941232681274,0.9868848323822021,0.5558383464813232,0.3000990152359009,-0.8251968622207642,0.8514900207519531,0.5300917029380798,0.303629070520401,-0.7893950343132019,0.9551755785942078,0.5544836521148682,0.2867209315299988,-0.8210355043411255,0.8406399488449097,0.5345714092254639,0.2906334698200226,-0.786702573299408,0.9461695551872253,0.5574413537979126,0.28623610734939575,-0.7633979320526123,0.775145947933197,0.5293613076210022,0.28916361927986145,-0.7357128262519836,0.9148147702217102,0.5606997609138489,0.40420815348625183,0.012490933761000633,0.9988847970962524,0.4958762526512146,0.40120983123779297,-0.012352671474218369,0.9992929697036743,0.5713885426521301,0.5563516616821289,-0.10814322531223297,0.970257043838501,0.4995638430118561,0.5586448311805725,-0.06727378070354462,0.9741197824478149,0.5664774775505066,0.7119466066360474,0.0767141804099083,0.9394432306289673,0.49891597032546997,0.703368604183197,0.10320015251636505,0.9637032747268677,0.5585864782333374,0.7337806224822998,0.08687487989664078,0.8625636696815491,0.502194881439209,0.7260414361953735,0.11227311939001083,0.8330456018447876,0.5795480012893677,0.7505785822868347,-0.06730463355779648,0.9399551749229431,0.496433824300766,0.7490814328193665,-0.045617423951625824,0.9500529170036316
35,0.5397418737411499,0.1796397715806961,-0.4896574020385742,0.9992164969444275,0.5459371209144592,0.15644121170043945,-0.4738021790981293,0.9983881711959839,0.5500208139419556,0.15383701026439667,-0.47382107377052307,0.9981351494789124,0.553881049156189,0.15150903165340424,-0.4739210605621338,0.9978803992271423,0.5338718295097351,0.1611803025007248,-0.47424978017807007,0.998711347579956,0.529858410358429,0.16191624104976654,-0.47434043884277344,0.9986645579338074,0.5258239507675171,0.16002269089221954,-0.47439044713974,0.9988687634468079,0.5588553547859192,0.146403968334198,-0.3320367932319641,0.997405469417572,0.5157697796821594,0.1482955366373062,-0.3305585980415344,0.9991604089736938,0.5472508668899536,0.18584786355495453,-0.43201351165771484,0.9995282292366028,0.5331605672836304,0.1893061101436615,-0.43162059783935547,0.999718427658081,0.5963890552520752,0.1956346482038498,-0.21368567645549774,0.9996902346611023,0.4774419665336609,0.19211040437221527,-0.2519143223762512,0.9998916983604431,0.6205176115036011,0.3052463233470917,-0.3499317765235901,0.9832291007041931,0.44341129064559937,0.2926454544067383,-0.393120676279068,0.9963148236274719,0.5695745944976807,0.3048936128616333,-0.6168208718299866,0.9362457394599915,0.5114217400550842,0.30499014258384705,-0.595848560333252,0.9873557686805725,0.5585078597068787,0.30180495977401733,-0.6767688989639282,0.8553967475891113,0.5306571125984192,0.3055697977542877,-0.6463232636451721,0.9570692181587219,0.5562100410461426,0.28832846879959106,-0.6665282845497131,0.8448597192764282,0.5349039435386658,0.29303327202796936,-0.635324239730835,0.948616087436676,0.5583399534225464,0.289339542388916,-0.6181010603904724,0.7803950905799866,0.5297638177871704,0.29317229986190796,-0.5939745903015137,0.9183348417282104,0.5606695413589478,0.41037359833717346,0.013520441949367523,0.9988928437232971,0.49622422456741333,0.40634509921073914,-0.013439972884953022,0.9992456436157227,0.5717852711677551,0.5584843158721924,-0.1954047530889511,0.9715476632118225,0.4991416037082672,0.5608540773391724,-0.15076477825641632,0.9751001596450806,0.5656651854515076,0.7119166254997253,-0.01553422398865223,0.9428302049636841,0.49895578622817993,0.7023997902870178,0.011022398248314857,0.964381217956543,0.5573782920837402,0.7337376475334167,-0.0052774082869291306,0.8654069900512695,0.5023146867752075,0.7235895395278931,0.019468335434794426,0.8290455341339111,0.5789671540260315,0.7504749894142151,-0.15823979675769806,0.941845178604126,0.49650439620018005,0.7490993738174438,-0.1356496512889862,0.9503602385520935
36,0.5396255254745483,0.17031672596931458,-0.42398208379745483,0.9992223381996155,0.5459102392196655,0.15021882951259613,-0.40247052907943726,0.9983931183815002,0.5500379800796509,0.1498464047908783,-0.402477502822876,0.99815833568573,0.5539001226425171,0.14943936467170715,-0.4025627076625824,0.9979318380355835,0.5334804058074951,0.15231867134571075,-0.4026225507259369,0.998692512512207,0.5293129682540894,0.15375208854675293,-0.40269994735717773,0.9986557960510254,0.5251601934432983,0.15444575250148773,-0.4027472138404846,0.9988651871681213,0.5589128732681274,0.15180063247680664,-0.26595884561538696,0.9973735809326172,0.5158321857452393,0.1517089456319809,-0.2637081444263458,0.9990801215171814,0.5473196506500244,0.18762598931789398,-0.37169569730758667,0.9995015859603882,0.532360315322876,0.19077013432979584,-0.3710487484931946,0.9996951222419739,0.5963680148124695,0.2318032830953598,-0.18276068568229675,0.9996790289878845,0.4777957797050476,0.22450026869773865,-0.20723457634449005,0.9998767971992493,0.6216702461242676,0.3348212242126465,-0.3370428681373596,0.9839885234832764,0.44314175844192505,0.31891390681266785,-0.36422327160835266,0.9964340329170227,0.5697205066680908,0.31145450472831726,-0.5692899227142334,0.9392863512039185,0.5147291421890259,0.30591753125190735,-0.5493379831314087,0.9875884056091309,0.5593103766441345,0.30395951867103577,-0.6211281418800354,0.8601983189582825,0.5339134931564331,0.3069439232349396,-0.5961450934410095,0.9577613472938538,0.556673526763916,0.2900603115558624,-0.5995339155197144,0.8497976064682007,0.5358551144599915,0.2955082356929779,-0.576290488243103,0.9495183229446411,0.5583908557891846,0.29171884059906006,-0.565064549446106,0.785544216632843,0.5313272476196289,0.29537639021873474,-0.5437610745429993,0.9190908670425415,0.5607081055641174,0.420953631401062,0.013370993547141552,0.9988725781440735,0.4964835047721863,0.4139878451824188,-0.013347764499485493,0.9991921186447144,0.5722134113311768,0.5625997185707092,-0.2829008102416992,0.9723262190818787,0.4982624650001526,0.5634897947311401,-0.2852476239204407,0.9753987193107605,0.5655573010444641,0.7112839221954346,-0.06944916397333145,0.9453060626983643,0.49898988008499146,0.7005575299263,-0.06617934256792068,0.9640401005744934,0.5572108626365662,0.7330583333969116,-0.055759578943252563,0.8640568852424622,0.5024538636207581,0.7211143970489502,-0.05192599445581436,0.8208107948303223,0.5772481560707092,0.7505006194114685,-0.2110665738582611,0.942833662033081,0.4975495934486389,0.7490517497062683,-0.21111731231212616,0.9499472975730896
37,0.5415960550308228,0.16880790889263153,-0.3928336203098297,0.9992490410804749,0.5472205877304077,0.15089306235313416,-0.3697580397129059,0.9984638094902039,0.5509695410728455,0.1507643759250641,-0.36978909373283386,0.9982501864433289,0.554531991481781,0.15063194930553436,-0.36988747119903564,0.9980455040931702,0.5343388319015503,0.1519804745912552,-0.36976107954978943,0.9987356662750244,0.5297609567642212,0.15289023518562317,-0.36983248591423035,0.9987048506736755,0.5256708860397339,0.15364770591259003,-0.3698722720146179,0.9989063143730164,0.5591763854026794,0.15443967282772064,-0.23628894984722137,0.9974688291549683,0.5173789262771606,0.15404634177684784,-0.2335161715745926,0.999058723449707,0.5495017766952515,0.18753020465373993,-0.3426569700241089,0.9994946718215942,0.5339775085449219,0.18786315619945526,-0.3418518602848053,0.9996835589408875,0.597568154335022,0.25612881779670715,-0.16612787544727325,0.9996404647827148,0.47913938760757446,0.24760223925113678,-0.18279561400413513,0.9998342394828796,0.6268423199653625,0.362246572971344,-0.3300538659095764,0.9842851758003235,0.4435192942619324,0.3442970812320709,-0.3554399013519287,0.9963335394859314,0.5676567554473877,0.314489483833313,-0.5451251268386841,0.9406230449676514,0.5220288634300232,0.3119123578071594,-0.540561318397522,0.9865052700042725,0.5579123497009277,0.3010546565055847,-0.5911065340042114,0.8604831099510193,0.5366630554199219,0.3051898777484894,-0.5844892263412476,0.9537516236305237,0.5558168888092041,0.28839805722236633,-0.563970685005188,0.8494998812675476,0.5361120104789734,0.29486316442489624,-0.5574654340744019,0.944508969783783,0.557500958442688,0.293279767036438,-0.5381473302841187,0.7831218242645264,0.5329970717430115,0.2968696653842926,-0.5322611331939697,0.9105889797210693,0.5606852769851685,0.43575021624565125,0.012683840468525887,0.9988771080970764,0.4963274598121643,0.42807191610336304,-0.012707479298114777,0.9991514086723328,0.57362961769104,0.5644312500953674,-0.30041393637657166,0.9730079770088196,0.4967796802520752,0.5655990839004517,-0.2993628978729248,0.9755702614784241,0.5655577182769775,0.7088958024978638,-0.07623855024576187,0.9478092789649963,0.4989722669124603,0.7002651691436768,-0.07691545784473419,0.9645218253135681,0.5571586489677429,0.7307775616645813,-0.061070747673511505,0.8654434680938721,0.5025009512901306,0.7204482555389404,-0.06190883368253708,0.8171353340148926,0.5770825147628784,0.7499455809593201,-0.21397404372692108,0.9442188143730164,0.4974632263183594,0.7490876317024231,-0.22335071861743927,0.950345516204834
