frame,NOSE.x,NOSE.y,NOSE.z,NOSE.v,LEFT_EYE_INNER.x,LEFT_EYE_INNER.y,LEFT_EYE_INNER.z,LEFT_EYE_INNER.v,LEFT_EYE.x,LEFT_EYE.y,LEFT_EYE.z,LEFT_EYE.v,LEFT_EYE_OUTER.x,LEFT_EYE_OUTER.y,LEFT_EYE_OUTER.z,LEFT_EYE_OUTER.v,RIGHT_EYE_INNER.x,RIGHT_EYE_INNER.y,RIGHT_EYE_INNER.z,RIGHT_EYE_INNER.v,RIGHT_EYE.x,RIGHT_EYE.y,RIGHT_EYE.z,RIGHT_EYE.v,RIGHT_EYE_OUTER.x,RIGHT_EYE_OUTER.y,RIGHT_EYE_OUTER.z,RIGHT_EYE_OUTER.v,LEFT_EAR.x,LEFT_EAR.y,LEFT_EAR.z,LEFT_EAR.v,RIGHT_EAR.x,RIGHT_EAR.y,RIGHT_EAR.z,RIGHT_EAR.v,MOUTH_LEFT.x,MOUTH_LEFT.y,MOUTH_LEFT.z,MOUTH_LEFT.v,MOUTH_RIGHT.x,MOUTH_RIGHT.y,MOUTH_RIGHT.z,MOUTH_RIGHT.v,LEFT_SHOULDER.x,LEFT_SHOULDER.y,LEFT_SHOULDER.z,LEFT_SHOULDER.v,RIGHT_SHOULDER.x,RIGHT_SHOULDER.y,RIGHT_SHOULDER.z,RIGHT_SHOULDER.v,LEFT_ELBOW.x,LEFT_ELBOW.y,LEFT_ELBOW.z,LEFT_ELBOW.v,RIGHT_ELBOW.x,RIGHT_ELBOW.y,RIGHT_ELBOW.z,RIGHT_ELBOW.v,LEFT_WRIST.x,LEFT_WRIST.y,LEFT_WRIST.z,LEFT_WRIST.v,RIGHT_WRIST.x,RIGHT_WRIST.y,RIGHT_WRIST.z,RIGHT_WRIST.v,LEFT_PINKY.x,LEFT_PINKY.y,LEFT_PINKY.z,LEFT_PINKY.v,RIGHT_PINKY.x,RIGHT_PINKY.y,RIGHT_PINKY.z,RIGHT_PINKY.v,LEFT_INDEX.x,LEFT_INDEX.y,LEFT_INDEX.z,LEFT_INDEX.v,RIGHT_INDEX.x,RIGHT_INDEX.y,RIGHT_INDEX.z,RIGHT_INDEX.v,LEFT_THUMB.x,LEFT_THUMB.y,LEFT_THUMB.z,LEFT_THUMB.v,RIGHT_THUMB.x,RIGHT_THUMB.y,RIGHT_THUMB.z,RIGHT_THUMB.v,LEFT_HIP.x,LEFT_HIP.y,LEFT_HIP.z,LEFT_HIP.v,RIGHT_HIP.x,RIGHT_HIP.y,RIGHT_HIP.z,RIGHT_HIP.v,LEFT_KNEE.x,LEFT_KNEE.y,LEFT_KNEE.z,LEFT_KNEE.v,RIGHT_KNEE.x,RIGHT_KNEE.y,RIGHT_KNEE.z,RIGHT_KNEE.v,LEFT_ANKLE.x,LEFT_ANKLE.y,LEFT_ANKLE.z,LEFT_ANKLE.v,RIGHT_ANKLE.x,RIGHT_ANKLE.y,RIGHT_ANKLE.z,RIGHT_ANKLE.v,LEFT_HEEL.x,LEFT_HEEL.y,LEFT_HEEL.z,LEFT_HEEL.v,RIGHT_HEEL.x,RIGHT_HEEL.y,RIGHT_HEEL.z,RIGHT_HEEL.v,LEFT_FOOT_INDEX.x,LEFT_FOOT_INDEX.y,LEFT_FOOT_INDEX.z,LEFT_FOOT_INDEX.v,RIGHT_FOOT_INDEX.x,RIGHT_FOOT_INDEX.y,RIGHT_FOOT_INDEX.z,RIGHT_FOOT_INDEX.v
0,0.5229371786117554,0.10908046364784241,-0.5177347660064697,0.999144434928894,0.5307490825653076,0.10925018787384033,-0.5082008838653564,0.9960302710533142,0.5358715057373047,0.11145451664924622,-0.5082178711891174,0.995733916759491,0.5408996939659119,0.11299261450767517,-0.5082834362983704,0.9956725835800171,0.5179553627967834,0.10627276450395584,-0.5079759955406189,0.9969305396080017,0.5141369104385376,0.10661285370588303,-0.5080916881561279,0.9970327615737915,0.5100730061531067,0.1067676842212677,-0.5082269906997681,0.9973806738853455,0.549130916595459,0.11667540669441223,-0.381111204624176,0.9928212761878967,0.5050553679466248,0.1059468686580658,-0.37935400009155273,0.9952670335769653,0.5317044854164124,0.123404860496521,-0.4638339579105377,0.9993507266044617,0.5171653032302856,0.12219779938459396,-0.4638165831565857,0.9994982481002808,0.5891197919845581,0.17236696183681488,-0.2514095902442932,0.9999065399169922,0.4641132354736328,0.17229363322257996,-0.24963930249214172,0.9999600648880005,0.6160106062889099,0.2678675055503845,-0.16841568052768707,0.9840618968009949,0.44285160303115845,0.2843351364135742,-0.1783389151096344,0.9877815246582031,0.622346818447113,0.37305349111557007,-0.24727599322795868,0.9275377988815308,0.4495956003665924,0.39226362109184265,-0.26222407817840576,0.963246762752533,0.6265571713447571,0.401990681886673,-0.27350980043411255,0.8685453534126282,0.4493342339992523,0.42459747195243835,-0.2902205288410187,0.9275892376899719,0.6201601028442383,0.4022631347179413,-0.3122921884059906,0.8761710524559021,0.458709716796875,0.42296379804611206,-0.3352774679660797,0.932212769985199,0.6172675490379333,0.39259207248687744,-0.2622368037700653,0.8560246229171753,0.46119624376296997,0.41305068135261536,-0.2803337275981903,0.9175146222114563,0.565682053565979,0.39108768105506897,0.0002822930982802063,0.9987249970436096,0.49839335680007935,0.39494788646698,-0.00027722527738660574,0.9986870884895325,0.5697471499443054,0.5428833365440369,-0.06043408066034317,0.9795240759849548,0.49681925773620605,0.5515125393867493,-0.07579019665718079,0.9820437431335449,0.5706338882446289,0.7063554525375366,0.09864763915538788,0.9808694124221802,0.49402791261672974,0.703497588634491,0.1006210446357727,0.9810250401496887,0.5634254813194275,0.7277405858039856,0.10428522527217865,0.8463802933692932,0.4956389367580414,0.7252147793769836,0.1097177043557167,0.8404679298400879,0.5651294589042664,0.7415332794189453,-0.05585319548845291,0.9727176427841187,0.4995225965976715,0.7434689998626709,-0.05020482465624809,0.9765531420707703
1,0.5261738300323486,0.13864536583423615,-0.5973144173622131,0.9990493059158325,0.5324946641921997,0.13267667591571808,-0.5866361260414124,0.9956536293029785,0.5370058417320251,0.13240750133991241,-0.5866235494613647,0.9953739643096924,0.5416567921638489,0.1315065175294876,-0.5866774320602417,0.9952553510665894,0.5209875702857971,0.13203667104244232,-0.5878617167472839,0.9966294169425964,0.5173799991607666,0.13128863275051117,-0.5880031585693359,0.9968062043190002,0.5136319994926453,0.1298275738954544,-0.5881195664405823,0.997169017791748,0.5491164326667786,0.12615135312080383,-0.44373783469200134,0.9918043613433838,0.5057465434074402,0.12581029534339905,-0.44975462555885315,0.9949511289596558,0.5336180329322815,0.1459154188632965,-0.5368908643722534,0.9992267489433289,0.5202271342277527,0.14552299678325653,-0.5389206409454346,0.9994232654571533,0.5891269445419312,0.17530781030654907,-0.29349711537361145,0.9999068379402161,0.4640882909297943,0.17275705933570862,-0.30188000202178955,0.9999616146087646,0.6156212091445923,0.2726377248764038,-0.20967555046081543,0.9843425750732422,0.44289788603782654,0.285911500453949,-0.23560158908367157,0.9885863661766052,0.6223634481430054,0.37233802676200867,-0.31455543637275696,0.9301267266273499,0.45046600699424744,0.3917785584926605,-0.33659622073173523,0.9656999707221985,0.6265747547149658,0.4016328752040863,-0.3490455448627472,0.8718343377113342,0.45041242241859436,0.42447763681411743,-0.37211212515830994,0.9319418668746948,0.6203395128250122,0.4010871648788452,-0.3900091052055359,0.8791453242301941,0.45921191573143005,0.42295941710472107,-0.41593247652053833,0.9362123608589172,0.6172769069671631,0.3918672502040863,-0.3316532075405121,0.858781099319458,0.4614686965942383,0.4131127595901489,-0.3543608784675598,0.9218998551368713,0.5656121373176575,0.3930074870586395,0.003789857029914856,0.9987271428108215,0.49839693307876587,0.397209495306015,-0.003762246575206518,0.9986808896064758,0.5699069499969482,0.5436094999313354,-0.11837843805551529,0.9789189696311951,0.4973057806491852,0.5515093207359314,-0.11682778596878052,0.9812052249908447,0.5703734159469604,0.7066447734832764,0.03151810169219971,0.9795896410942078,0.49443644285202026,0.7029507160186768,0.049541473388671875,0.9783700108528137,0.5634205937385559,0.7279192209243774,0.0365811251103878,0.8461096286773682,0.49588632583618164,0.7252064347267151,0.05668429285287857,0.828681468963623,0.5658951997756958,0.7419602274894714,-0.13620634377002716,0.9715976119041443,0.5029761791229248,0.7428619861602783,-0.11663474887609482,0.9738796949386597
2,0.5267401337623596,0.14079736173152924,-0.575199544429779,0.9989200234413147,0.5328312516212463,0.13434447348117828,-0.5647228956222534,0.9951366186141968,0.5372122526168823,0.13402190804481506,-0.5647248029708862,0.9949097037315369,0.5417760610580444,0.13296519219875336,-0.564782440662384,0.9947352409362793,0.5215194821357727,0.1332649290561676,-0.5639513731002808,0.9962026476860046,0.517902135848999,0.1322210282087326,-0.5640879273414612,0.9964629411697388,0.5141588449478149,0.1304808259010315,-0.5642139315605164,0.9968538880348206,0.5491198897361755,0.12672209739685059,-0.42991048097610474,0.9906659722328186,0.5059079527854919,0.12711527943611145,-0.4266824722290039,0.9944506287574768,0.5340460538864136,0.14690473675727844,-0.5186645984649658,0.9990825057029724,0.520850419998169,0.14837290346622467,-0.5178704261779785,0.9993249177932739,0.5902057886123657,0.1766962856054306,-0.29031258821487427,0.9999035000801086,0.4643089175224304,0.17311526834964752,-0.288286954164505,0.9999624490737915,0.6156620979309082,0.27766430377960205,-0.21913161873817444,0.9845238327980042,0.442941278219223,0.287018746137619,-0.22607950866222382,0.9892522096633911,0.6225450038909912,0.37265458703041077,-0.3293137550354004,0.9314685463905334,0.45141252875328064,0.39192911982536316,-0.3262099623680115,0.9675881266593933,0.6266645193099976,0.4018670320510864,-0.3648567795753479,0.8731231689453125,0.4514442980289459,0.42472970485687256,-0.36156684160232544,0.9351541996002197,0.6205962896347046,0.40108364820480347,-0.4047420918941498,0.8802754878997803,0.45972752571105957,0.42343103885650635,-0.4035763144493103,0.9391179084777832,0.617337167263031,0.3918725550174713,-0.34627270698547363,0.859686017036438,0.4618072509765625,0.41402575373649597,-0.34368592500686646,0.9249710440635681,0.5652426481246948,0.3935340940952301,0.004678631667047739,0.9987344145774841,0.49835485219955444,0.3976588249206543,-0.004643108695745468,0.9986937046051025,0.5699423551559448,0.5441928505897522,-0.13018891215324402,0.9778693318367004,0.49734216928482056,0.5515041351318359,-0.12370141595602036,0.9805077910423279,0.5702149868011475,0.7066710591316223,0.012098925188183784,0.9779590368270874,0.4946278929710388,0.7022751569747925,0.03495646268129349,0.9756935238838196,0.5633965730667114,0.7280173897743225,0.01665719598531723,0.8452101945877075,0.4959909915924072,0.7252601981163025,0.04130987450480461,0.8165125250816345,0.5663297176361084,0.7418862581253052,-0.15435853600502014,0.9699587225914001,0.502928614616394,0.7415778636932373,-0.1302756369113922,0.9709240198135376
3,0.526816725730896,0.14405940473079681,-0.5739250779151917,0.9989125728607178,0.5328870415687561,0.13553185760974884,-0.562186598777771,0.99517422914505,0.5372490286827087,0.1349932700395584,-0.5622041821479797,0.9949594140052795,0.541789174079895,0.1337384283542633,-0.5622776746749878,0.9947912693023682,0.521468997001648,0.13469545543193817,-0.5621762871742249,0.9962168335914612,0.5177969336509705,0.13360969722270966,-0.5623162388801575,0.9964801669120789,0.5140039324760437,0.13179685175418854,-0.5624340176582336,0.9968735575675964,0.5490565299987793,0.12644323706626892,-0.4225655198097229,0.9906473159790039,0.5056605339050293,0.12717285752296448,-0.42236146330833435,0.9945237040519714,0.5342864990234375,0.1512971818447113,-0.5152145624160767,0.99905925989151,0.5208929777145386,0.1515682488679886,-0.5154997110366821,0.9993140697479248,0.5902504324913025,0.17726708948612213,-0.28224802017211914,0.99990314245224,0.4640420377254486,0.17361575365066528,-0.28232964873313904,0.9999638795852661,0.6157331466674805,0.2804461419582367,-0.21259446442127228,0.9848384261131287,0.4429391920566559,0.2891426980495453,-0.22000651061534882,0.9897469878196716,0.6228059530258179,0.37594935297966003,-0.3220785856246948,0.9330215454101562,0.45135945081710815,0.39198529720306396,-0.3247818350791931,0.9689173698425293,0.6269955039024353,0.40595701336860657,-0.3576309084892273,0.8747820854187012,0.45135292410850525,0.42473846673965454,-0.3612629175186157,0.9374186992645264,0.6211789846420288,0.4050249755382538,-0.3987289071083069,0.8817614912986755,0.45948904752731323,0.42346811294555664,-0.40497860312461853,0.9411914348602295,0.6176804304122925,0.3962274193763733,-0.3394624888896942,0.8609922528266907,0.46150484681129456,0.4142245650291443,-0.34312257170677185,0.9270576238632202,0.5651366114616394,0.3950501084327698,0.007339167408645153,0.9987487196922302,0.49833226203918457,0.3994511365890503,-0.007266505155712366,0.9987189769744873,0.5702153444290161,0.5456994771957397,-0.14807124435901642,0.9768629670143127,0.4974285066127777,0.5514907836914062,-0.16823157668113708,0.9799901843070984,0.5697866678237915,0.7067565321922302,-0.012839600443840027,0.9760703444480896,0.4954802095890045,0.7022721171379089,-0.02448764257133007,0.9737603068351746,0.5629314184188843,0.7285234332084656,-0.00926096923649311,0.8455561995506287,0.4965614378452301,0.7266913056373596,-0.020023688673973083,0.809374988079071,0.5685213208198547,0.7417373657226562,-0.1819249391555786,0.9682244658470154,0.5041241645812988,0.7408523559570312,-0.19892385601997375,0.9689570665359497
4,0.5287468433380127,0.13991974294185638,-0.5627477169036865,0.9988868236541748,0.534383237361908,0.1331992894411087,-0.5518469214439392,0.9949995279312134,0.5385668277740479,0.13223104178905487,-0.5518596768379211,0.9948301911354065,0.5429041385650635,0.131557434797287,-0.5519266128540039,0.9945799112319946,0.5230444669723511,0.1324731856584549,-0.5518344640731812,0.9960561394691467,0.5193265080451965,0.13170959055423737,-0.5519684553146362,0.9963803887367249,0.5156294107437134,0.12881840765476227,-0.5520914196968079,0.996756911277771,0.5493807196617126,0.1259145885705948,-0.41599059104919434,0.9901808500289917,0.5064259767532349,0.1274430751800537,-0.4161774218082428,0.9943310618400574,0.536250650882721,0.14766937494277954,-0.5056089162826538,0.9989814758300781,0.5228797793388367,0.14786991477012634,-0.5057839155197144,0.9992516040802002,0.5906592607498169,0.1779128611087799,-0.27541548013687134,0.9999016523361206,0.46452856063842773,0.17342016100883484,-0.2802550494670868,0.9999653100967407,0.6163836717605591,0.28014910221099854,-0.18114474415779114,0.9850783348083496,0.4428785741329193,0.2836344540119171,-0.21368709206581116,0.9903897047042847,0.6235059499740601,0.37617912888526917,-0.27789071202278137,0.934931755065918,0.4487939774990082,0.37899553775787354,-0.31094101071357727,0.9709107279777527,0.627736508846283,0.40609171986579895,-0.3063904047012329,0.8771474361419678,0.4481053948402405,0.4133754372596741,-0.34440770745277405,0.9409196972846985,0.6224237084388733,0.4051218032836914,-0.3476015329360962,0.8839433193206787,0.4559432566165924,0.4119030237197876,-0.38855260610580444,0.944431483745575,0.6189293265342712,0.39632126688957214,-0.2950398325920105,0.8635311126708984,0.4581374526023865,0.4012315571308136,-0.3291427493095398,0.9308326840400696,0.5649390816688538,0.3960327208042145,0.007335291244089603,0.9987585544586182,0.49816641211509705,0.3998682200908661,-0.007282721344381571,0.9987424612045288,0.5702148079872131,0.54645836353302,-0.12422002851963043,0.9769871830940247,0.4975983202457428,0.5512927770614624,-0.13539814949035645,0.9803088307380676,0.5695155262947083,0.7067782878875732,0.025048676878213882,0.9761123061180115,0.49615389108657837,0.7020189166069031,0.024795930832624435,0.9734046459197998,0.5627349019050598,0.7285146117210388,0.029489507898688316,0.84836745262146,0.49724286794662476,0.7266626954078674,0.03161683678627014,0.8070684671401978,0.5695292949676514,0.7418842315673828,-0.13874699175357819,0.9685642719268799,0.5049198865890503,0.740874171257019,-0.13782334327697754,0.9687783122062683
5,0.530119776725769,0.13689157366752625,-0.5175067186355591,0.9988331198692322,0.5355452299118042,0.13284367322921753,-0.5094786882400513,0.9946305155754089,0.5396990776062012,0.13184933364391327,-0.509455144405365,0.9945166110992432,0.5439956188201904,0.13025422394275665,-0.5094684362411499,0.994125485420227,0.5241104960441589,0.13089078664779663,-0.5095537304878235,0.995780885219574,0.5203399062156677,0.1304924190044403,-0.5096949338912964,0.996202290058136,0.5166612863540649,0.12777964770793915,-0.509826123714447,0.9965827465057373,0.5501744747161865,0.12361548840999603,-0.3837115466594696,0.9893158078193665,0.5073652863502502,0.12580958008766174,-0.38361042737960815,0.994146466255188,0.5380070805549622,0.14580149948596954,-0.4634181559085846,0.9988868236541748,0.5243664979934692,0.14605385065078735,-0.46366119384765625,0.9991949796676636,0.5917434692382812,0.1778007447719574,-0.24215081334114075,0.9998978972434998,0.4658896028995514,0.17181508243083954,-0.25934237241744995,0.999967098236084,0.617280125617981,0.27962610125541687,-0.14931607246398926,0.984983503818512,0.44271254539489746,0.2761540412902832,-0.19001081585884094,0.9910000562667847,0.6245521306991577,0.37286433577537537,-0.25002774596214294,0.9358584880828857,0.4465712904930115,0.3687639534473419,-0.2856103777885437,0.9727543592453003,0.6284480690956116,0.40191900730133057,-0.2782527804374695,0.8783808946609497,0.4446992874145508,0.4028930366039276,-0.319801390171051,0.944134533405304,0.6227439045906067,0.39931562542915344,-0.31846076250076294,0.8850930333137512,0.4534901976585388,0.4012586772441864,-0.36139026284217834,0.9474176168441772,0.6191659569740295,0.39013877511024475,-0.2668210566043854,0.8650565147399902,0.4563263952732086,0.39020058512687683,-0.30291932821273804,0.9344114065170288,0.5648422241210938,0.39610472321510315,0.008676329627633095,0.9986886978149414,0.49813732504844666,0.3997989296913147,-0.008646566420793533,0.9987354874610901,0.5709293484687805,0.5493228435516357,-0.06883937865495682,0.9769254922866821,0.4978410601615906,0.5510321259498596,-0.12454094737768173,0.9809959530830383,0.5697536468505859,0.7071470022201538,0.07880645245313644,0.9760839343070984,0.4966807961463928,0.7024247646331787,0.0308627188205719,0.9736992716789246,0.5627478361129761,0.7286607623100281,0.08375800400972366,0.8496102094650269,0.49764513969421387,0.7271116375923157,0.033115167170763016,0.8080276250839233,0.5730551481246948,0.7439040541648865,-0.07741723209619522,0.9686799049377441,0.5067124366760254,0.7422769069671631,-0.13372424244880676,0.9692331552505493
6,0.5361756086349487,0.14227603375911713,-0.5717004537582397,0.9987779259681702,0.5408454537391663,0.134595587849617,-0.5657239556312561,0.9943310022354126,0.5450197458267212,0.13351628184318542,-0.5656931400299072,0.9942313432693481,0.5493720173835754,0.1317577213048935,-0.5657346844673157,0.9937357902526855,0.5289667844772339,0.13395969569683075,-0.5661689043045044,0.9955163598060608,0.5250282883644104,0.13299770653247833,-0.5663154721260071,0.9960066080093384,0.5214587450027466,0.12763269245624542,-0.5664419531822205,0.9963987469673157,0.5552314519882202,0.12348989397287369,-0.4347071051597595,0.9888452887535095,0.5120385885238647,0.12492061406373978,-0.43643420934677124,0.994032084941864,0.5432214736938477,0.1487744301557541,-0.5141235589981079,0.9988067150115967,0.5296027064323425,0.14879243075847626,-0.5149741172790527,0.9991576671600342,0.5949188470840454,0.17772221565246582,-0.2823600769042969,0.9998990893363953,0.46900588274002075,0.16902011632919312,-0.3017985224723816,0.999968945980072,0.6201537251472473,0.27912437915802,-0.19466184079647064,0.9848114848136902,0.44273433089256287,0.27096059918403625,-0.2379589080810547,0.9916165471076965,0.6272200345993042,0.3742557466030121,-0.3111605644226074,0.9369723796844482,0.4433475136756897,0.36566027998924255,-0.3394092917442322,0.974511981010437,0.6311002969741821,0.40377289056777954,-0.3466167151927948,0.8800970911979675,0.43879953026771545,0.39941179752349854,-0.376626193523407,0.9473158717155457,0.6242927312850952,0.40049898624420166,-0.3882930278778076,0.8866060376167297,0.44908517599105835,0.3992525637149811,-0.42205920815467834,0.9503658413887024,0.620683491230011,0.3910086452960968,-0.3290594518184662,0.8665982484817505,0.45323842763900757,0.3879466950893402,-0.3584062457084656,0.9378719329833984,0.5648332834243774,0.397197425365448,0.010769294574856758,0.998729944229126,0.498138427734375,0.3997625410556793,-0.010776332579553127,0.9987885355949402,0.5745372772216797,0.5525709390640259,-0.045120954513549805,0.9777006506919861,0.49792614579200745,0.5526065230369568,-0.06800080835819244,0.9820824265480042,0.5702866315841675,0.7071441411972046,0.1542639434337616,0.9766134023666382,0.49677714705467224,0.7023811936378479,0.14448213577270508,0.9747108221054077,0.5627552270889282,0.7273315191268921,0.16512231528759003,0.8538077473640442,0.49807730317115784,0.7252732515335083,0.15720734000205994,0.8124520778656006,0.5757518410682678,0.7478591203689575,0.007232359144836664,0.9694103598594666,0.5043026208877563,0.7490653991699219,-0.002990524750202894,0.970095694065094
7,0.5391889214515686,0.15073341131210327,-0.6139698028564453,0.9987836480140686,0.5438206195831299,0.1403157263994217,-0.6097424626350403,0.9943820834159851,0.5481367111206055,0.13896258175373077,-0.6097162961959839,0.994242250919342,0.5526114106178284,0.13674184679985046,-0.6097803711891174,0.9937180280685425,0.5312678217887878,0.140059232711792,-0.6106531023979187,0.9955403804779053,0.5270756483078003,0.13864170014858246,-0.6108079552650452,0.9960297346115112,0.5231781601905823,0.13512496650218964,-0.6109248399734497,0.9964301586151123,0.5587733387947083,0.12454650551080704,-0.47451990842819214,0.9889866709709167,0.5136818885803223,0.1277124583721161,-0.47748303413391113,0.9942246675491333,0.5460224747657776,0.15697811543941498,-0.5531172156333923,0.9987926483154297,0.5321718454360962,0.15628449618816376,-0.5543656349182129,0.9991579055786133,0.5975865125656128,0.17767013609409332,-0.3061860203742981,0.9999017119407654,0.47185617685317993,0.16855718195438385,-0.34100884199142456,0.9999710917472839,0.6227250695228577,0.27730897068977356,-0.2212914228439331,0.9840589165687561,0.44295430183410645,0.26718422770500183,-0.2898859679698944,0.9921828508377075,0.6299440264701843,0.3742730915546417,-0.3434602916240692,0.9356992840766907,0.44001060724258423,0.3633347749710083,-0.4080294966697693,0.976024866104126,0.6334932446479797,0.40388497710227966,-0.38169270753860474,0.8776133060455322,0.4320271909236908,0.3975720703601837,-0.45023298263549805,0.9501166939735413,0.6264208555221558,0.40056082606315613,-0.42354732751846313,0.8840420246124268,0.4443875253200531,0.3980034291744232,-0.4978983402252197,0.952938437461853,0.6230443120002747,0.3910905718803406,-0.36212557554244995,0.863396167755127,0.45043450593948364,0.386530339717865,-0.42849212884902954,0.9408528208732605,0.564822256565094,0.4007367193698883,0.013378401286900043,0.9987929463386536,0.4982414245605469,0.40079933404922485,-0.013423112221062183,0.9988570213317871,0.5756028294563293,0.5557111501693726,-0.025998061522841454,0.978177547454834,0.49792224168777466,0.5542095899581909,-0.036552656441926956,0.9831179976463318,0.5704509019851685,0.707135021686554,0.19437330961227417,0.9768087267875671,0.49713048338890076,0.7023813724517822,0.19562259316444397,0.9756750464439392,0.562641441822052,0.7271645665168762,0.207205131649971,0.8577961921691895,0.4990175664424896,0.7249476313591003,0.21053771674633026,0.8187825083732605,0.575042188167572,0.747846782207489,0.049737267196178436,0.9700382351875305,0.5035630464553833,0.7509519457817078,0.05202094465494156,0.971064031124115
8,0.5390287637710571,0.16096514463424683,-0.7008472681045532,0.9988961219787598,0.5444525480270386,0.14754833281040192,-0.6990736126899719,0.994908332824707,0.5489464402198792,0.1457582414150238,-0.6990195512771606,0.9947759509086609,0.5535165667533875,0.14320240914821625,-0.6990960836410522,0.9942971467971802,0.5311853289604187,0.14789502322673798,-0.6990315318107605,0.995956540107727,0.5267590880393982,0.14648813009262085,-0.6992048025131226,0.9963987469673157,0.5226176381111145,0.1440136730670929,-0.699274480342865,0.9967619776725769,0.5605819225311279,0.126713365316391,-0.5534975528717041,0.9900163412094116,0.5133332014083862,0.13084127008914948,-0.5537262558937073,0.9947764277458191,0.5463582873344421,0.16574592888355255,-0.634372889995575,0.9989020824432373,0.5317443013191223,0.16541838645935059,-0.6347846984863281,0.9992353916168213,0.5991353392601013,0.17765207588672638,-0.3615688681602478,0.9999099969863892,0.4741724133491516,0.16797269880771637,-0.40033453702926636,0.999973714351654,0.6257658004760742,0.27677953243255615,-0.2862057089805603,0.9845397472381592,0.442574679851532,0.2630663514137268,-0.3932582437992096,0.9928358793258667,0.6321309208869934,0.37561750411987305,-0.41378703713417053,0.9384450912475586,0.4368739724159241,0.3586447536945343,-0.5675427317619324,0.977923572063446,0.6354173421859741,0.40561726689338684,-0.45683765411376953,0.8816283941268921,0.42777514457702637,0.39165350794792175,-0.6195208430290222,0.9538308382034302,0.6279198527336121,0.40252867341041565,-0.5013505220413208,0.8878142833709717,0.4417206346988678,0.3928006887435913,-0.6631666421890259,0.9564047455787659,0.6246173977851868,0.392880380153656,-0.4336888790130615,0.8672047257423401,0.4486216902732849,0.38100287318229675,-0.5875760316848755,0.9449868202209473,0.564819872379303,0.4026975929737091,0.015253186225891113,0.9988864064216614,0.4986425042152405,0.40144431591033936,-0.01528843492269516,0.9989446997642517,0.5762962698936462,0.557460606098175,-0.03481302037835121,0.9794610142707825,0.49785828590393066,0.5592467188835144,-0.01948055438697338,0.9843356013298035,0.5703676342964172,0.7074880003929138,0.20093576610088348,0.9779057502746582,0.497150719165802,0.7023376822471619,0.22711941599845886,0.9770328998565674,0.5615309476852417,0.7270699739456177,0.21536998450756073,0.865494966506958,0.4996210038661957,0.7227657437324524,0.24337318539619446,0.8257181644439697,0.5745673179626465,0.7488978505134583,0.052842237055301666,0.9716596603393555,0.499952495098114,0.7525590062141418,0.08270293474197388,0.9724717140197754
9,0.5397709608078003,0.16221389174461365,-0.7097724676132202,0.9989997744560242,0.545283317565918,0.14701911807060242,-0.7040883898735046,0.9953860640525818,0.5496681332588196,0.14549139142036438,-0.7040281295776367,0.9952621459960938,0.5541248917579651,0.14330188930034637,-0.7040876746177673,0.9948206543922424,0.5319045186042786,0.14730791747570038,-0.7056648135185242,0.9963362216949463,0.5271640419960022,0.14614734053611755,-0.705840528011322,0.9967373013496399,0.5226792693138123,0.1440669745206833,-0.7058935761451721,0.9970653057098389,0.5611222982406616,0.12738341093063354,-0.546805739402771,0.9909440279006958,0.5130933523178101,0.13182653486728668,-0.5545623898506165,0.9952788352966309,0.5470913648605347,0.16870823502540588,-0.6396949291229248,0.9990009665489197,0.5323619246482849,0.16794241964817047,-0.6423187255859375,0.9993060231208801,0.5994672179222107,0.17828841507434845,-0.3426670432090759,0.999917209148407,0.47485828399658203,0.16978274285793304,-0.3988327980041504,0.9999760389328003,0.6288822293281555,0.2766217589378357,-0.24652835726737976,0.9852392077445984,0.441497266292572,0.26111194491386414,-0.37129661440849304,0.9934771656990051,0.6347893476486206,0.37761589884757996,-0.3638327717781067,0.9417423605918884,0.4353752136230469,0.35458698868751526,-0.5226852297782898,0.9797965884208679,0.6372729539871216,0.4074813723564148,-0.4019862711429596,0.8862737417221069,0.42664629220962524,0.38651734590530396,-0.5712337493896484,0.9574219584465027,0.6302836537361145,0.4049921929836273,-0.44687095284461975,0.8922132253646851,0.441485732793808,0.3869224488735199,-0.6151562929153442,0.959761917591095,0.6276198625564575,0.3955216109752655,-0.38347989320755005,0.8721574544906616,0.44824686646461487,0.37523069977760315,-0.5418456792831421,0.9490278959274292,0.5647653937339783,0.4032563865184784,0.01986877992749214,0.998964786529541,0.4989236295223236,0.40151873230934143,-0.019910860806703568,0.9990178346633911,0.5769127011299133,0.5604762434959412,-0.03202386572957039,0.980350136756897,0.49789944291114807,0.5607388615608215,-0.03807933256030083,0.9854347705841064,0.5703691244125366,0.7083168029785156,0.19764819741249084,0.9786617755889893,0.49714526534080505,0.7021059393882751,0.20151658356189728,0.978381872177124,0.5605347156524658,0.7272524237632751,0.21090400218963623,0.8722690939903259,0.49972620606422424,0.7209579348564148,0.2167331725358963,0.8334931135177612,0.5756299495697021,0.7506284117698669,0.044340379536151886,0.9729436635971069,0.49936777353286743,0.7530175447463989,0.045787177979946136,0.9739245176315308
10,0.5387791395187378,0.16814975440502167,-0.7431026697158813,0.9990938901901245,0.5449405908584595,0.1518521010875702,-0.7391760349273682,0.995820164680481,0.5491259098052979,0.15041527152061462,-0.7391101121902466,0.9957036972045898,0.5535359382629395,0.14853182435035706,-0.7391875982284546,0.9952976107597351,0.5306719541549683,0.1522991955280304,-0.7386780381202698,0.996680736541748,0.5255947709083557,0.1511254608631134,-0.7388620972633362,0.9970443844795227,0.5207992196083069,0.14925047755241394,-0.7388957738876343,0.9973413348197937,0.560455858707428,0.13425080478191376,-0.57928866147995,0.9917891025543213,0.5130146741867065,0.13694943487644196,-0.5775114297866821,0.9957336783409119,0.5469661355018616,0.17536479234695435,-0.6711170077323914,0.9990918636322021,0.5308833122253418,0.17421020567417145,-0.6709688901901245,0.9993705749511719,0.5997639894485474,0.18074797093868256,-0.35783374309539795,0.9999238848686218,0.47431430220603943,0.17317795753479004,-0.40827274322509766,0.9999781847000122,0.6317659616470337,0.27629947662353516,-0.24577736854553223,0.9861118793487549,0.4393828809261322,0.2609198987483978,-0.3696915805339813,0.9940539598464966,0.63813716173172,0.37692970037460327,-0.36047282814979553,0.9451863765716553,0.4336260259151459,0.3512001931667328,-0.5263856053352356,0.9815104007720947,0.6406478881835938,0.4069654047489166,-0.3989218473434448,0.8910315632820129,0.4249390661716461,0.38197457790374756,-0.5762606263160706,0.9606919288635254,0.6331374049186707,0.40454837679862976,-0.4451722502708435,0.8967735767364502,0.44099265336990356,0.38075023889541626,-0.6203516721725464,0.9628240466117859,0.6310730576515198,0.3949057161808014,-0.3807049095630646,0.8772125840187073,0.44781360030174255,0.3696478009223938,-0.545637845993042,0.9527266025543213,0.5648314356803894,0.40500691533088684,0.020125292241573334,0.9990251660346985,0.4993569850921631,0.40232768654823303,-0.020160812884569168,0.999076247215271,0.5773429870605469,0.5633589029312134,-0.0077903904020786285,0.9809429049491882,0.497996985912323,0.5618636608123779,-0.03150464594364166,0.9863708019256592,0.570310115814209,0.7084568738937378,0.25222960114479065,0.9788720011711121,0.49714285135269165,0.7020597457885742,0.23071691393852234,0.9794946908950806,0.5594819784164429,0.7270234823226929,0.2685852646827698,0.8768365383148193,0.4997486174106598,0.7199727892875671,0.2484695166349411,0.841012179851532,0.57585209608078,0.7514188885688782,0.10205545276403427,0.973644495010376,0.4995097517967224,0.7529061436653137,0.07448603957891464,0.9751430153846741
11,0.5393717288970947,0.17984935641288757,-0.7647408843040466,0.9991742968559265,0.5455431938171387,0.16482380032539368,-0.763818621635437,0.9961925745010376,0.5498138070106506,0.16341517865657806,-0.7637418508529663,0.9960818886756897,0.5542115569114685,0.161538764834404,-0.7638309597969055,0.9957020282745361,0.5316470861434937,0.16362757980823517,-0.7667781114578247,0.9969783425331116,0.5266216993331909,0.16172127425670624,-0.7669889330863953,0.9973114132881165,0.5217729806900024,0.15930750966072083,-0.7670341730117798,0.997581422328949,0.5611680746078491,0.14423145353794098,-0.6068264245986938,0.992519736289978,0.5132038593292236,0.14522022008895874,-0.6205777525901794,0.9961379766464233,0.5468976497650146,0.18483982980251312,-0.6921272873878479,0.9991676807403564,0.531303882598877,0.18347792327404022,-0.6965206861495972,0.999426007270813,0.6003659963607788,0.18236027657985687,-0.38230812549591064,0.9999296069145203,0.4747660756111145,0.17398642003536224,-0.4462882876396179,0.9999800324440002,0.6347549557685852,0.2697661519050598,-0.2993106544017792,0.9866673350334167,0.4376596510410309,0.2548145055770874,-0.42620521783828735,0.9945836663246155,0.6415501832962036,0.3593110144138336,-0.4448555111885071,0.9477226734161377,0.43424829840660095,0.3421754837036133,-0.5833309888839722,0.9830058813095093,0.6464738249778748,0.3862740099430084,-0.4893043637275696,0.8945829272270203,0.42595964670181274,0.37055760622024536,-0.633700966835022,0.9635609984397888,0.6373648643493652,0.38400697708129883,-0.5304318070411682,0.9001652002334595,0.44203099608421326,0.3665415942668915,-0.6720236539840698,0.9654936790466309,0.6342002153396606,0.37429147958755493,-0.4640742838382721,0.8803855776786804,0.4483468532562256,0.3569316864013672,-0.5998274683952332,0.9558956027030945,0.5648428201675415,0.40498650074005127,0.02005729265511036,0.9990643262863159,0.49935847520828247,0.4022892415523529,-0.020050065591931343,0.9991203546524048,0.5773005485534668,0.5631812214851379,-0.016692299395799637,0.9814453125,0.4979328215122223,0.5616127848625183,-0.04362569749355316,0.9872009754180908,0.5702844858169556,0.7084599733352661,0.23621079325675964,0.9791602492332458,0.49724477529525757,0.7020629644393921,0.2058926820755005,0.980610728263855,0.5593410730361938,0.7262189388275146,0.2514558434486389,0.8796526193618774,0.5004831552505493,0.7193651795387268,0.2219894677400589,0.847681999206543,0.5755977630615234,0.7515257000923157,0.08149970322847366,0.9744741320610046,0.4998064935207367,0.7527565360069275,0.04425492137670517,0.9764198064804077
12,0.5409559011459351,0.18863075971603394,-0.7619225978851318,0.9992504119873047,0.5468236207962036,0.17410272359848022,-0.7602859735488892,0.9965470433235168,0.5510612726211548,0.1726662516593933,-0.760233998298645,0.9964442253112793,0.5553903579711914,0.17082332074642181,-0.7603342533111572,0.9960935115814209,0.5336555242538452,0.1722714751958847,-0.7622509598731995,0.9972577691078186,0.5288808345794678,0.170179083943367,-0.7624611258506775,0.997560441493988,0.5242993235588074,0.1678209751844406,-0.7625041007995605,0.997805118560791,0.562419056892395,0.15295688807964325,-0.601166307926178,0.9932203888893127,0.5146735310554504,0.15315692126750946,-0.6099973320960999,0.9965096712112427,0.5477609038352966,0.19247516989707947,-0.6892632842063904,0.9992437958717346,0.5331084728240967,0.19081345200538635,-0.6921967267990112,0.9994795918464661,0.6008919477462769,0.18604905903339386,-0.39355239272117615,0.9999351501464844,0.47656935453414917,0.17415311932563782,-0.44728201627731323,0.9999818205833435,0.636380672454834,0.26836177706718445,-0.4337692856788635,0.9870237708091736,0.437394917011261,0.2540796399116516,-0.5294076204299927,0.9950872659683228,0.6434842348098755,0.3481273949146271,-0.7076882123947144,0.9497849345207214,0.4348480701446533,0.3354324400424957,-0.7922948598861694,0.9844914674758911,0.6506602168083191,0.3732188642024994,-0.7757555246353149,0.8988339900970459,0.4273673892021179,0.3617693781852722,-0.8590748906135559,0.9666162729263306,0.6408676505088806,0.37095531821250916,-0.8091619610786438,0.9041630029678345,0.442161500453949,0.35619837045669556,-0.889824390411377,0.9683570861816406,0.6367664933204651,0.36249271035194397,-0.7280077934265137,0.8838474750518799,0.44862279295921326,0.34736746549606323,-0.8088603019714355,0.9593074917793274,0.5628553628921509,0.4053032100200653,0.019252631813287735,0.9991292357444763,0.49783721566200256,0.40227097272872925,-0.019246947020292282,0.9991757273674011,0.577421247959137,0.5629192590713501,-0.1674567312002182,0.9821615219116211,0.497467577457428,0.5613328814506531,-0.12350142002105713,0.9878526926040649,0.5702728033065796,0.7085539102554321,0.06310032308101654,0.9794830679893494,0.49737587571144104,0.7021043300628662,0.11388454586267471,0.9811535477638245,0.5592206716537476,0.7262559533119202,0.07504011690616608,0.8837721347808838,0.5012267827987671,0.719135046005249,0.12697775661945343,0.8500074744224548,0.5757071375846863,0.7514755725860596,-0.11443792283535004,0.9751096963882446,0.5006164312362671,0.7525419592857361,-0.06944569945335388,0.9769787192344666
13,0.5404465794563293,0.20554901659488678,-0.7300759553909302,0.9993211030960083,0.5464874505996704,0.19180601835250854,-0.7325546145439148,0.996875524520874,0.5507175326347351,0.19005616009235382,-0.7324833869934082,0.9967833161354065,0.5550729632377625,0.18790791928768158,-0.7325786352157593,0.9964610934257507,0.5341750383377075,0.1904546469449997,-0.7318649291992188,0.9975143074989319,0.5300589799880981,0.18835417926311493,-0.7320610880851746,0.9977893829345703,0.526283860206604,0.18611536920070648,-0.7320747971534729,0.9980086088180542,0.5623934268951416,0.1700701266527176,-0.5904256105422974,0.9938792586326599,0.5181800127029419,0.17165234684944153,-0.5871652364730835,0.9968476295471191,0.54732745885849,0.20479942858219147,-0.6633538007736206,0.9993153810501099,0.5330382585525513,0.2044498771429062,-0.6630211472511292,0.9995288252830505,0.6008438467979431,0.1939334273338318,-0.4116366505622864,0.9999408721923828,0.4787551760673523,0.17973065376281738,-0.43224039673805237,0.9999834895133972,0.6363447904586792,0.2672845125198364,-0.532569408416748,0.9875011444091797,0.4375424385070801,0.2539571225643158,-0.5823121070861816,0.9955209493637085,0.6462005972862244,0.3342176079750061,-0.8519971966743469,0.9526735544204712,0.4352867603302002,0.3236767649650574,-0.912318229675293,0.985775887966156,0.6558266878128052,0.35971230268478394,-0.927699089050293,0.9048108458518982,0.4282175600528717,0.3495662808418274,-0.9849853515625,0.969308614730835,0.6438189744949341,0.35753440856933594,-0.9521989822387695,0.9098224639892578,0.442286878824234,0.3441730737686157,-1.0067068338394165,0.9708866477012634,0.639251172542572,0.3501925468444824,-0.8698281049728394,0.8894538283348083,0.44879359006881714,0.33505329489707947,-0.927519679069519,0.9623070359230042,0.5624368190765381,0.4079502820968628,0.015393887646496296,0.9991979002952576,0.49801164865493774,0.40423843264579773,-0.015420183539390564,0.9992402195930481,0.5775754451751709,0.56211918592453,-0.21881917119026184,0.9831729531288147,0.49573880434036255,0.5611234903335571,-0.1678808629512787,0.988647997379303,0.570197343826294,0.7084557414054871,0.0033366524148732424,0.9804815649986267,0.4975161552429199,0.7019044160842896,0.06025205925107002,0.9820948839187622,0.5591410398483276,0.726222574710846,0.013683122582733631,0.8889906406402588,0.5021053552627563,0.7182170748710632,0.07164712250232697,0.8547109961509705,0.5753942728042603,0.7513564229011536,-0.18030336499214172,0.9764025807380676,0.5006186366081238,0.7524445056915283,-0.12145183980464935,0.9781162142753601
14,0.5401469469070435,0.21674104034900665,-0.7108114361763,0.9993867874145508,0.5462129712104797,0.20377077162265778,-0.7095345258712769,0.9971785545349121,0.5504299402236938,0.20203432440757751,-0.7094829678535461,0.9970960021018982,0.5547919869422913,0.1996782124042511,-0.7095544338226318,0.9968023300170898,0.5343383550643921,0.20202820003032684,-0.7108065485954285,0.9977523684501648,0.5305110812187195,0.19966624677181244,-0.7110046148300171,0.9980012774467468,0.5270019173622131,0.19698844850063324,-0.7111121416091919,0.9981973171234131,0.5621098279953003,0.18184566497802734,-0.5649033784866333,0.994481086730957,0.5197104215621948,0.1826869547367096,-0.5823107957839966,0.9971568584442139,0.5470725297927856,0.21420247852802277,-0.6442176103591919,0.999381422996521,0.5331779718399048,0.21388904750347137,-0.6465142965316772,0.9995741844177246,0.6001253724098206,0.20507857203483582,-0.3908537030220032,0.9999459385871887,0.4806787967681885,0.19174744188785553,-0.41130080819129944,0.9999849796295166,0.6358492374420166,0.26732176542282104,-0.5496729612350464,0.9883428812026978,0.43879833817481995,0.25519508123397827,-0.5833500623703003,0.9959320425987244,0.6474454998970032,0.3263903558254242,-0.8794121742248535,0.9563204646110535,0.4358242154121399,0.3179265558719635,-0.9114798307418823,0.9870080351829529,0.6564372181892395,0.34937095642089844,-0.957451343536377,0.9120827913284302,0.43026819825172424,0.34306851029396057,-0.9824167490005493,0.971884548664093,0.6447942852973938,0.3472290337085724,-0.9739152789115906,0.9166330695152283,0.44622549414634705,0.33664289116859436,-1.0000250339508057,0.9733015894889832,0.6404290795326233,0.341103196144104,-0.8947304487228394,0.8969783782958984,0.45159345865249634,0.3287873864173889,-0.9254140853881836,0.9652559161186218,0.5618283748626709,0.4131544530391693,0.013189655728638172,0.999260663986206,0.4988034665584564,0.40779951214790344,-0.01323023997247219,0.9992980360984802,0.5778511166572571,0.5601905584335327,-0.297934353351593,0.984298050403595,0.4949093461036682,0.5604144930839539,-0.25539451837539673,0.989456057548523,0.5690775513648987,0.7082957625389099,-0.11087846755981445,0.9816203713417053,0.49806007742881775,0.7014522552490234,-0.045181505382061005,0.9828418493270874,0.5579869747161865,0.7262287139892578,-0.10471870005130768,0.8958690762519836,0.5040227770805359,0.7181941270828247,-0.03604571148753166,0.8613834977149963,0.5740104913711548,0.7513134479522705,-0.2947641611099243,0.9777889251708984,0.5006569623947144,0.751204788684845,-0.21947535872459412,0.9791492819786072
15,0.5413494110107422,0.20061352849006653,-0.49646514654159546,0.9994471073150635,0.547430157661438,0.18207766115665436,-0.47845712304115295,0.9974570870399475,0.5513119697570801,0.18320241570472717,-0.47845983505249023,0.9973834156990051,0.5553947687149048,0.18532970547676086,-0.4785305857658386,0.9971177577972412,0.536363422870636,0.18360403180122375,-0.47832924127578735,0.9979725480079651,0.5325843691825867,0.18516124784946442,-0.4783887267112732,0.9981973767280579,0.529012143611908,0.18770840764045715,-0.4783199429512024,0.9983722567558289,0.5622023940086365,0.17116764187812805,-0.3275436460971832,0.9950297474861145,0.5217180848121643,0.17145107686519623,-0.32670748233795166,0.9974385499954224,0.5481210947036743,0.20646023750305176,-0.4376835823059082,0.9994426369667053,0.5342797040939331,0.20338566601276398,-0.43737906217575073,0.9996162056922913,0.6001003980636597,0.22053715586662292,-0.24040286242961884,0.9999504685401917,0.4840095043182373,0.20525513589382172,-0.2514408528804779,0.9999856352806091,0.6353992819786072,0.270883172750473,-0.45541897416114807,0.9891636967658997,0.440368115901947,0.2563146948814392,-0.48867887258529663,0.9963080883026123,0.6467715501785278,0.32706883549690247,-0.8047323226928711,0.9600738883018494,0.43876439332962036,0.315173476934433,-0.8045716285705566,0.988103449344635,0.655542254447937,0.3480190634727478,-0.8882532119750977,0.9197328686714172,0.4371744990348816,0.34005388617515564,-0.8755121231079102,0.9741882085800171,0.6438778638839722,0.3458223342895508,-0.8974965810775757,0.9238418936729431,0.4541001319885254,0.3342953026294708,-0.8853556513786316,0.9754398465156555,0.6395126581192017,0.34017354249954224,-0.8182429075241089,0.9053055644035339,0.4578431248664856,0.3271217942237854,-0.8165191411972046,0.9678331613540649,0.5615165829658508,0.42271682620048523,0.01213390938937664,0.9993253946304321,0.49882984161376953,0.41715574264526367,-0.012222591787576675,0.9993520379066467,0.5780311226844788,0.5600200891494751,-0.3400266766548157,0.9855995178222656,0.49413710832595825,0.5604915618896484,-0.28485509753227234,0.9901381731033325,0.5681260824203491,0.7078440189361572,-0.12296458333730698,0.9827495217323303,0.49806299805641174,0.701149046421051,-0.06547515839338303,0.9832014441490173,0.5573596954345703,0.7260934114456177,-0.1131209284067154,0.9022286534309387,0.5043240785598755,0.7178449630737305,-0.055173326283693314,0.8648442029953003,0.5732430219650269,0.750830888748169,-0.28907647728919983,0.9791004657745361,0.49935275316238403,0.7511451244354248,-0.22865097224712372,0.9800135493278503
16,0.5431806445121765,0.1959504783153534,-0.39857327938079834,0.9994760751724243,0.5485711097717285,0.1799466907978058,-0.3766109049320221,0.9976353049278259,0.5520045757293701,0.18006514012813568,-0.3766532242298126,0.9975773096084595,0.5556384325027466,0.1805289089679718,-0.37674686312675476,0.9973199963569641,0.538930356502533,0.18017324805259705,-0.37787312269210815,0.9980940818786621,0.5356300473213196,0.18015773594379425,-0.37793418765068054,0.9983091950416565,0.5325193405151367,0.18034476041793823,-0.3779192566871643,0.9984567761421204,0.561927080154419,0.17809657752513885,-0.23507647216320038,0.9954532980918884,0.5263170003890991,0.17645792663097382,-0.2395714968442917,0.9976415038108826,0.5494038462638855,0.20406977832317352,-0.3454669713973999,0.9994806051254272,0.5366271734237671,0.20334778726100922,-0.346748411655426,0.9996410012245178,0.5983905792236328,0.24783381819725037,-0.1599060297012329,0.9999436140060425,0.48585137724876404,0.24107876420021057,-0.18185283243656158,0.9999794363975525,0.6366009712219238,0.303713858127594,-0.322658509016037,0.9887958765029907,0.4440935552120209,0.3001860976219177,-0.36938202381134033,0.9964552521705627,0.6417478322982788,0.3451736569404602,-0.641086220741272,0.9571406841278076,0.4570540487766266,0.334040105342865,-0.6478491425514221,0.9874455332756042,0.6416128277778625,0.3533251881599426,-0.7219418287277222,0.9160851836204529,0.4616487920284271,0.3457163870334625,-0.7084161043167114,0.972663402557373,0.6337380409240723,0.3538464605808258,-0.7020095586776733,0.9203344583511353,0.4730384945869446,0.3438107371330261,-0.7077864408493042,0.973656952381134,0.6299097537994385,0.3456297814846039,-0.644646406173706,0.8996822834014893,0.4752785265445709,0.33439868688583374,-0.654384434223175,0.9646695256233215,0.5604633688926697,0.4387298822402954,0.013103085570037365,0.9993538856506348,0.4978633522987366,0.4309154748916626,-0.013154220767319202,0.9993624687194824,0.5782801508903503,0.5604763031005859,-0.3477426767349243,0.9859186410903931,0.49348902702331543,0.5604203343391418,-0.31360551714897156,0.9901403784751892,0.5660201907157898,0.707879900932312,-0.15879113972187042,0.9825019836425781,0.49806374311447144,0.701231837272644,-0.14120705425739288,0.9826973676681519,0.5545398592948914,0.7269840240478516,-0.14943261444568634,0.9053968191146851,0.5045154690742493,0.7189298272132874,-0.1339038461446762,0.8630188703536987,0.5731739401817322,0.7479408383369446,-0.3074048161506653,0.9786332249641418,0.4990152418613434,0.7508925199508667,-0.29916703701019287,0.9794687628746033
17,0.5430426001548767,0.22321471571922302,-0.4608580470085144,0.999509871006012,0.5491238832473755,0.2042527198791504,-0.4431883692741394,0.997822105884552,0.5526561737060547,0.20366926491260529,-0.4432207942008972,0.997771680355072,0.5562200546264648,0.20342093706130981,-0.4433325231075287,0.9975200891494751,0.5388981699943542,0.20407572388648987,-0.44278401136398315,0.9982364773750305,0.535461962223053,0.2030787467956543,-0.4428842067718506,0.9984376430511475,0.5323041677474976,0.20225760340690613,-0.442899227142334,0.9985655546188354,0.5618140697479248,0.20260702073574066,-0.2989904284477234,0.995856761932373,0.5268075466156006,0.1991349160671234,-0.29574763774871826,0.9978544116020203,0.5494658946990967,0.23291879892349243,-0.4038965106010437,0.9995223879814148,0.5362402200698853,0.2330370545387268,-0.40306544303894043,0.9996708035469055,0.598231315612793,0.2672792971134186,-0.19983984529972076,0.9999340772628784,0.4856257438659668,0.2612657845020294,-0.22171688079833984,0.9999774098396301,0.6406271457672119,0.3310321271419525,-0.32332414388656616,0.9877898693084717,0.44583168625831604,0.3287120461463928,-0.39833471179008484,0.996577799320221,0.6360341310501099,0.3592592179775238,-0.6601040363311768,0.9478274583816528,0.4681355953216553,0.35196152329444885,-0.659267783164978,0.9869686365127563,0.6287620663642883,0.3736547529697418,-0.727878212928772,0.9042498469352722,0.4773009717464447,0.3541911244392395,-0.7201768159866333,0.9716379046440125,0.6209415197372437,0.35755154490470886,-0.7239711284637451,0.9078963398933411,0.4839387536048889,0.3475237488746643,-0.729101300239563,0.9722846746444702,0.6202561855316162,0.35315099358558655,-0.6666775941848755,0.8813520669937134,0.48356151580810547,0.3379596769809723,-0.667304277420044,0.9613445997238159,0.5596839785575867,0.4508642554283142,0.013364176265895367,0.9993739128112793,0.49665936827659607,0.4448860287666321,-0.013381469063460827,0.9993807673454285,0.5791233777999878,0.5607521533966064,-0.39379817247390747,0.9859892129898071,0.49319514632225037,0.5620862245559692,-0.36892974376678467,0.9899968504905701,0.5661217570304871,0.7077920436859131,-0.1647403985261917,0.9817178249359131,0.49824458360671997,0.7012907862663269,-0.15724310278892517,0.9828309416770935,0.5547889471054077,0.726985514163971,-0.15096718072891235,0.9093213677406311,0.5052046179771423,0.7195677161216736,-0.1459607481956482,0.8673189878463745,0.5743533372879028,0.7473560571670532,-0.3074534237384796,0.9775898456573486,0.49727925658226013,0.7505634427070618,-0.3159782886505127,0.9792981743812561
18,0.5428564548492432,0.2508881688117981,-0.48518458008766174,0.9995573163032532,0.5493737459182739,0.23166821897029877,-0.4686307907104492,0.9980359077453613,0.553168773651123,0.23044924437999725,-0.4686887264251709,0.9979913830757141,0.5569010376930237,0.2293732911348343,-0.4688034653663635,0.997762143611908,0.5384318232536316,0.2311999350786209,-0.4676511883735657,0.9984078407287598,0.5349442958831787,0.22953280806541443,-0.4677327573299408,0.9985902309417725,0.5316835641860962,0.2279166877269745,-0.4677101671695709,0.9987030029296875,0.5628041625022888,0.22589384019374847,-0.317502498626709,0.9962683916091919,0.5257664322853088,0.22134190797805786,-0.3125366270542145,0.9980674386024475,0.5492798089981079,0.26068443059921265,-0.4247015118598938,0.9995696544647217,0.53577721118927,0.2592238783836365,-0.42357033491134644,0.9997034072875977,0.5978916883468628,0.288213312625885,-0.21111908555030823,0.999937117099762,0.48540130257606506,0.27893292903900146,-0.23993560671806335,0.9999783635139465,0.6407634019851685,0.34951144456863403,-0.4496777057647705,0.9880115985870361,0.4507617950439453,0.33859455585479736,-0.4874895513057709,0.9965742826461792,0.6323333382606506,0.35912370681762695,-0.798882007598877,0.947513222694397,0.47628575563430786,0.3637138307094574,-0.8080921173095703,0.9859375357627869,0.6255499720573425,0.36943018436431885,-0.8715319633483887,0.9059303402900696,0.48441600799560547,0.3631531298160553,-0.8758587837219238,0.9700836539268494,0.6196485757827759,0.3549417555332184,-0.8644183874130249,0.9084596633911133,0.49047452211380005,0.3528669774532318,-0.8657898902893066,0.9701418876647949,0.6162017583847046,0.3543785512447357,-0.8048045039176941,0.8782264590263367,0.4905413091182709,0.3510966897010803,-0.8113073110580444,0.9562171697616577,0.5592293739318848,0.46295446157455444,0.017559120431542397,0.9994276762008667,0.494755357503891,0.4572277069091797,-0.017460426315665245,0.9994266033172607,0.5799416303634644,0.5604344010353088,-0.45589679479599,0.9867944121360779,0.49289947748184204,0.5615285634994507,-0.4515190124511719,0.9901783466339111,0.5661977529525757,0.708347737789154,-0.2889261543750763,0.9819680452346802,0.4982472062110901,0.7015984058380127,-0.2965906262397766,0.9836820363998413,0.5550774335861206,0.7295368313789368,-0.2836255133152008,0.9157998561859131,0.5050243139266968,0.721907913684845,-0.29277676343917847,0.8771237134933472,0.5752750635147095,0.7470653653144836,-0.4624234139919281,0.9783595204353333,0.49712246656417847,0.7469065189361572,-0.4816940724849701,0.9804986119270325
19,0.5428656935691833,0.2753109633922577,-0.49735555052757263,0.9995999932289124,0.550388514995575,0.255856990814209,-0.4796663820743561,0.9982280731201172,0.5542190074920654,0.25465115904808044,-0.4797251224517822,0.9981889128684998,0.5579151511192322,0.2534942328929901,-0.47984012961387634,0.9979791045188904,0.5388340353965759,0.2546401023864746,-0.47974109649658203,0.9985617399215698,0.5349026918411255,0.2526041865348816,-0.4798124432563782,0.9987273812294006,0.5314106345176697,0.2507246434688568,-0.47978705167770386,0.99882572889328,0.5637764930725098,0.24829138815402985,-0.32639262080192566,0.9966384172439575,0.525248646736145,0.2434491068124771,-0.3266880512237549,0.9982589483261108,0.5492874979972839,0.28474029898643494,-0.43631070852279663,0.9996121525764465,0.535552978515625,0.2828925848007202,-0.4366168975830078,0.9997326731681824,0.5968271493911743,0.3065265119075775,-0.2274022400379181,0.9999402761459351,0.4857882559299469,0.29823291301727295,-0.2554819881916046,0.9999780058860779,0.6405667066574097,0.3607601821422577,-0.4851951599121094,0.9881898760795593,0.4554344117641449,0.3581365644931793,-0.5237687826156616,0.9964919686317444,0.6322039365768433,0.36504998803138733,-0.8290165662765503,0.9490445852279663,0.47741228342056274,0.3774554431438446,-0.8400513529777527,0.9848305583000183,0.6288872957229614,0.36890649795532227,-0.9018031358718872,0.9101487398147583,0.4845767021179199,0.37231728434562683,-0.9079049825668335,0.9682850241661072,0.6220068335533142,0.3578236401081085,-0.8936514854431152,0.911827564239502,0.49174433946609497,0.3642463982105255,-0.8926633596420288,0.9675435423851013,0.6180866956710815,0.3582497835159302,-0.8345985412597656,0.8795327544212341,0.4924287796020508,0.3677418529987335,-0.8412517309188843,0.9495869874954224,0.5591539740562439,0.4764879047870636,0.0179492998868227,0.999472975730896,0.4942001700401306,0.47027498483657837,-0.01782269775867462,0.9994603395462036,0.579894483089447,0.5608690977096558,-0.4607870578765869,0.9871763586997986,0.492511123418808,0.5618541836738586,-0.4687465727329254,0.9893697500228882,0.5657237768173218,0.7081365585327148,-0.2155464142560959,0.980309784412384,0.49836987257003784,0.7022939324378967,-0.24677936732769012,0.984188437461853,0.5551785826683044,0.7280303239822388,-0.2021559178829193,0.9193381071090698,0.5049823522567749,0.7221730351448059,-0.23595201969146729,0.8848680257797241,0.5749403238296509,0.747262179851532,-0.3723725974559784,0.9773083329200745,0.494503915309906,0.7477084994316101,-0.425212562084198,0.9812615513801575
20,0.5443453192710876,0.2906670570373535,-0.4766465723514557,0.9996377825737,0.5523619651794434,0.2721920907497406,-0.4569058418273926,0.9984004497528076,0.5559936165809631,0.2704830765724182,-0.4570026993751526,0.9983663558959961,0.5595105886459351,0.26907023787498474,-0.4571438431739807,0.9981735348701477,0.5410500764846802,0.27247580885887146,-0.4585849344730377,0.9986985325813293,0.5368624925613403,0.2707206904888153,-0.4586448073387146,0.9988497495651245,0.5329290628433228,0.2687283754348755,-0.4586300253868103,0.9989347457885742,0.5643309950828552,0.26443368196487427,-0.29598796367645264,0.996971070766449,0.5258440971374512,0.2611086070537567,-0.30343863368034363,0.9984313249588013,0.5500295162200928,0.29875656962394714,-0.41274744272232056,0.9996503591537476,0.5362337827682495,0.29826024174690247,-0.4152398109436035,0.9997590184211731,0.5956482887268066,0.3200125992298126,-0.18894615769386292,0.9999430775642395,0.48658913373947144,0.3111417889595032,-0.233885258436203,0.9999778866767883,0.6404468417167664,0.3829931914806366,-0.4470454156398773,0.9880600571632385,0.4605620503425598,0.37735942006111145,-0.4928933084011078,0.9962112903594971,0.6303948163986206,0.3793685734272003,-0.7942423820495605,0.9493012428283691,0.4924359917640686,0.3924107849597931,-0.7967033982276917,0.9834661483764648,0.6299012899398804,0.37582018971443176,-0.8654556274414062,0.9122848510742188,0.49997925758361816,0.3917151689529419,-0.8628318905830383,0.9661393165588379,0.6208634376525879,0.36766937375068665,-0.8590234518051147,0.9130023121833801,0.506076455116272,0.3832860589027405,-0.847570538520813,0.9645977020263672,0.6178041100502014,0.37167850136756897,-0.8007909059524536,0.8776937127113342,0.5072294473648071,0.38401755690574646,-0.7966922521591187,0.9418895840644836,0.5585243105888367,0.4859732389450073,0.01832634024322033,0.9995134472846985,0.49409180879592896,0.4783400297164917,-0.018143456429243088,0.9994888305664062,0.5794990658760071,0.5612601637840271,-0.47223275899887085,0.9875730872154236,0.4925529956817627,0.5606147050857544,-0.4712924361228943,0.9885126352310181,0.5645899176597595,0.7087724208831787,-0.2891766428947449,0.9785741567611694,0.49841243028640747,0.7024005651473999,-0.30602937936782837,0.9844397902488708,0.5549806952476501,0.7284219264984131,-0.28347069025039673,0.9233404994010925,0.5047058463096619,0.7229109406471252,-0.30219388008117676,0.8919676542282104,0.574880063533783,0.7472215294837952,-0.46185407042503357,0.976698637008667,0.4948274493217468,0.7459703087806702,-0.5001598596572876,0.9819419980049133
21,0.5451621413230896,0.3275289833545685,-0.3984241485595703,0.9996739029884338,0.5524808168411255,0.30975574254989624,-0.3790362775325775,0.9985602498054504,0.556190550327301,0.30809301137924194,-0.3791208863258362,0.9985296130180359,0.5598326325416565,0.3064112961292267,-0.37923261523246765,0.9983559250831604,0.5409989356994629,0.3094407916069031,-0.3783189356327057,0.9988283514976501,0.5367704629898071,0.30772504210472107,-0.37838223576545715,0.9989645481109619,0.5328322649002075,0.30579617619514465,-0.3783486485481262,0.9990409016609192,0.5648890733718872,0.3013727366924286,-0.22271879017353058,0.9972738027572632,0.5255976915359497,0.3008151948451996,-0.21974237263202667,0.9985881447792053,0.5508959889411926,0.33707571029663086,-0.33719974756240845,0.9996852874755859,0.5370305776596069,0.3348569869995117,-0.3367854952812195,0.9997830986976624,0.595665693283081,0.35959017276763916,-0.13211625814437866,0.9999465942382812,0.48635154962539673,0.3485863506793976,-0.16454550623893738,0.9999793171882629,0.6311784982681274,0.39905625581741333,-0.4308827817440033,0.988731861114502,0.4633823335170746,0.4014565348625183,-0.45730915665626526,0.9963362812995911,0.6239966750144958,0.41062483191490173,-0.784514307975769,0.9526965618133545,0.4995482861995697,0.4246600270271301,-0.7726894617080688,0.9836705923080444,0.6304275393486023,0.4022924602031708,-0.8579422235488892,0.918874204158783,0.5037254691123962,0.4206404685974121,-0.839605450630188,0.9668316841125488,0.6182600855827332,0.3981117308139801,-0.8529126048088074,0.9192784428596497,0.5154488682746887,0.4152703285217285,-0.8289729356765747,0.9650399088859558,0.6114353537559509,0.40316247940063477,-0.7913158535957336,0.8854660391807556,0.5184999108314514,0.4169548749923706,-0.7745602130889893,0.9420952796936035,0.5594663023948669,0.5128042101860046,0.013882696628570557,0.9995520710945129,0.49420228600502014,0.505236029624939,-0.013630549423396587,0.9995212554931641,0.5785247683525085,0.5592584609985352,-0.5072593688964844,0.9884824156761169,0.4932522773742676,0.5564209222793579,-0.49753713607788086,0.9889705777168274,0.5634716749191284,0.7100294828414917,-0.5381706953048706,0.9779401421546936,0.4997170567512512,0.7035161852836609,-0.5532234907150269,0.9849391579627991,0.5538302659988403,0.7319994568824768,-0.5569964647293091,0.9296964406967163,0.5050405859947205,0.7273930907249451,-0.5730365514755249,0.9020160436630249,0.5740906596183777,0.7437926530838013,-0.7211672067642212,0.9781295657157898,0.501236081123352,0.7162618637084961,-0.7444397807121277,0.9834905862808228
22,0.5452166199684143,0.350650817155838,-0.37639302015304565,0.9997062683105469,0.552498459815979,0.33129411935806274,-0.3578353524208069,0.9987038969993591,0.5563409924507141,0.32976144552230835,-0.3578971028327942,0.9986763596534729,0.5601550340652466,0.32813897728919983,-0.3580116629600525,0.9985196590423584,0.5407431721687317,0.33091822266578674,-0.3573564887046814,0.998944878578186,0.5364943742752075,0.3291453421115875,-0.35742196440696716,0.9990677237510681,0.5325726270675659,0.32725152373313904,-0.35740357637405396,0.9991361498832703,0.565862774848938,0.3225882351398468,-0.20923678576946259,0.9975460767745972,0.5253783464431763,0.3212357461452484,-0.207255557179451,0.9987291693687439,0.5512140989303589,0.3601425290107727,-0.317546546459198,0.9997166991233826,0.5369886755943298,0.3578680753707886,-0.3173908591270447,0.9998047351837158,0.5965333580970764,0.3801582455635071,-0.11487515270709991,0.9999507069587708,0.48626264929771423,0.3726968467235565,-0.1493535339832306,0.999980628490448,0.6309753656387329,0.42938098311424255,-0.3684915602207184,0.9884415864944458,0.4642975330352783,0.4273260235786438,-0.38711017370224,0.9960108399391174,0.6244997978210449,0.4233185052871704,-0.7148244380950928,0.954495370388031,0.5034254789352417,0.4481462240219116,-0.6780716180801392,0.983694851398468,0.6306646466255188,0.4228106439113617,-0.7836416363716125,0.9226303100585938,0.5116697549819946,0.4456232488155365,-0.7390817403793335,0.9671904444694519,0.6168214082717896,0.4188303053379059,-0.772222101688385,0.9225324988365173,0.5222276449203491,0.436791330575943,-0.7229000329971313,0.9651342630386353,0.6098810434341431,0.42319953441619873,-0.7184888124465942,0.8880535364151001,0.5228119492530823,0.4371606409549713,-0.6762564182281494,0.9410053491592407,0.5608571171760559,0.5319587588310242,0.012877185828983784,0.9995924830436707,0.4947677254676819,0.5238354206085205,-0.012550881132483482,0.9995598793029785,0.5792557001113892,0.5593681931495667,-0.4914056658744812,0.988797128200531,0.49414390325546265,0.5564103722572327,-0.4663711488246918,0.9875347018241882,0.5633019804954529,0.7113761305809021,-0.3489646315574646,0.9758148789405823,0.500749945640564,0.702129065990448,-0.3341192901134491,0.9840611219406128,0.5539340972900391,0.7322383522987366,-0.34577080607414246,0.9329965710639954,0.5057023763656616,0.723716676235199,-0.33132028579711914,0.9058322906494141,0.573765754699707,0.7464633584022522,-0.5159167647361755,0.976945161819458,0.5010809898376465,0.7208211421966553,-0.5169392824172974,0.9830294847488403
23,0.5454679727554321,0.36291518807411194,-0.31959977746009827,0.999735414981842,0.5528525114059448,0.34507665038108826,-0.30140864849090576,0.9988331198692322,0.5565730333328247,0.3438713252544403,-0.3014844059944153,0.9988083839416504,0.5603045225143433,0.34263116121292114,-0.30159538984298706,0.9986670017242432,0.5412272214889526,0.3449225425720215,-0.30166906118392944,0.9990496039390564,0.5368067026138306,0.34342148900032043,-0.3017122745513916,0.9991604089736938,0.5327610373497009,0.3418203890323639,-0.3016856610774994,0.9992215633392334,0.565895676612854,0.3386003077030182,-0.1590552181005478,0.997791051864624,0.5254179835319519,0.33712533116340637,-0.16019746661186218,0.9988560080528259,0.551196277141571,0.3734779953956604,-0.26343828439712524,0.9997450113296509,0.5371505618095398,0.373317688703537,-0.2642149329185486,0.9998242259025574,0.5965443849563599,0.39282891154289246,-0.07569191604852676,0.9999541640281677,0.4860730767250061,0.38888928294181824,-0.11078785359859467,0.9999808073043823,0.6289860010147095,0.44014039635658264,-0.32205504179000854,0.9868170619010925,0.4679323732852936,0.4459954798221588,-0.3421829044818878,0.9942508935928345,0.6216227412223816,0.4498175084590912,-0.6578547358512878,0.954677164554596,0.5035947561264038,0.4663519859313965,-0.631930410861969,0.9813076853752136,0.6291656494140625,0.4472292959690094,-0.725542426109314,0.9252346158027649,0.5099169015884399,0.4638761579990387,-0.6929103136062622,0.9649173617362976,0.6137665510177612,0.4437553584575653,-0.7193354368209839,0.924770712852478,0.5215059518814087,0.455171138048172,-0.6823736429214478,0.9625835418701172,0.6067596077919006,0.4466705620288849,-0.6635183095932007,0.8896186947822571,0.5234007239341736,0.45543190836906433,-0.6326218247413635,0.9359201192855835,0.5611438155174255,0.5467521548271179,0.009840377606451511,0.999626636505127,0.4948149621486664,0.536474883556366,-0.009435547515749931,0.9995880722999573,0.5791043043136597,0.5593617558479309,-0.46933937072753906,0.9890233874320984,0.4948994219303131,0.554306149482727,-0.45112815499305725,0.9865675568580627,0.5623247027397156,0.7108472585678101,-0.36722320318222046,0.9749477505683899,0.5009074211120605,0.6980133652687073,-0.3486989140510559,0.9837315082550049,0.5531485080718994,0.7317007780075073,-0.3681270182132721,0.9366520047187805,0.5064905881881714,0.7190389633178711,-0.3484187126159668,0.9112946391105652,0.5708502531051636,0.7455747723579407,-0.5369729399681091,0.9768339991569519,0.501497209072113,0.7271263599395752,-0.5279609560966492,0.9831845760345459
24,0.5469282865524292,0.38180485367774963,-0.30855387449264526,0.9997617602348328,0.5541454553604126,0.3639430105686188,-0.28799471259117126,0.9989496469497681,0.5576354265213013,0.362662672996521,-0.28806108236312866,0.9989274144172668,0.5611174702644348,0.3612975478172302,-0.2881655693054199,0.9988000392913818,0.5432969331741333,0.36374396085739136,-0.28960761427879333,0.9991443753242493,0.538872480392456,0.3619612753391266,-0.2896561622619629,0.9992441534996033,0.5345557332038879,0.35994547605514526,-0.28962719440460205,0.9992990493774414,0.5660661458969116,0.3563438355922699,-0.1435803323984146,0.9980117082595825,0.5257964134216309,0.3542603850364685,-0.15112407505512238,0.9989702701568604,0.5517206788063049,0.39031538367271423,-0.25224894285202026,0.99977046251297,0.5383386015892029,0.39002928137779236,-0.25487715005874634,0.9998418092727661,0.5961427092552185,0.40456777811050415,-0.0669957846403122,0.9999577403068542,0.48599696159362793,0.4028172492980957,-0.10283657163381577,0.999981164932251,0.6266781091690063,0.4505866467952728,-0.30308982729911804,0.9859821200370789,0.4704158902168274,0.4574642777442932,-0.31732699275016785,0.9930077195167542,0.6219895482063293,0.455036997795105,-0.6323792934417725,0.956891655921936,0.5006009340286255,0.4799228310585022,-0.5922836065292358,0.9801676869392395,0.6286810636520386,0.45927003026008606,-0.6997966170310974,0.9299194812774658,0.5065023303031921,0.4787057936191559,-0.6511369347572327,0.9640759825706482,0.6125130653381348,0.45474666357040405,-0.6957604885101318,0.9292579293251038,0.5192824602127075,0.4710300862789154,-0.643149733543396,0.9615102410316467,0.605715274810791,0.4578734338283539,-0.6386332511901855,0.8949614763259888,0.5200089812278748,0.47079116106033325,-0.5934888124465942,0.9331057071685791,0.5626978874206543,0.5521606802940369,0.008295128121972084,0.9996590614318848,0.49561381340026855,0.5461360812187195,-0.007925865240395069,0.9996191263198853,0.5788977146148682,0.5593612194061279,-0.4758698344230652,0.9891787171363831,0.49620118737220764,0.5541833639144897,-0.46477165818214417,0.9853910803794861,0.5622982978820801,0.7097429633140564,-0.3434043824672699,0.9726350903511047,0.5009421706199646,0.6971739530563354,-0.33235135674476624,0.9827733039855957,0.5531322360038757,0.7307431101799011,-0.3404603600502014,0.9383875131607056,0.506462574005127,0.7174980640411377,-0.3285416066646576,0.9147374033927917,0.5705049633979797,0.7456802129745483,-0.4987258315086365,0.975662887096405,0.4996139109134674,0.7298610210418701,-0.5001604557037354,0.9829205870628357
25,0.5491535067558289,0.39553308486938477,-0.24394910037517548,0.9997854232788086,0.5560985207557678,0.37729305028915405,-0.2240365743637085,0.9990543723106384,0.5594261288642883,0.376168429851532,-0.22410042583942413,0.9990344047546387,0.5627208948135376,0.37502816319465637,-0.2241891622543335,0.9989195466041565,0.5455976724624634,0.3772144913673401,-0.22613508999347687,0.9992294311523438,0.5410506725311279,0.3756429851055145,-0.22616839408874512,0.999319314956665,0.5363379120826721,0.37376782298088074,-0.2261488139629364,0.9993684887886047,0.5668296217918396,0.37124091386795044,-0.08773353695869446,0.9982101321220398,0.5259456634521484,0.3695133626461029,-0.09751497209072113,0.9990730285644531,0.552754282951355,0.40549102425575256,-0.19084757566452026,0.9997933506965637,0.5400574207305908,0.40638411045074463,-0.194111630320549,0.9998576045036316,0.59610515832901,0.4184563457965851,-0.02088327333331108,0.9999606609344482,0.4863433241844177,0.419406920671463,-0.053978174924850464,0.9999810457229614,0.6249305009841919,0.4610190689563751,-0.2408040314912796,0.9849830865859985,0.46983957290649414,0.4703303277492523,-0.25139468908309937,0.9914240837097168,0.621458113193512,0.46827632188796997,-0.5485446453094482,0.9590347409248352,0.5012407302856445,0.49293583631515503,-0.5059515237808228,0.9784696698188782,0.6276102066040039,0.4743299186229706,-0.6117144823074341,0.9342058300971985,0.5064622759819031,0.4897577464580536,-0.560637891292572,0.9622358679771423,0.6112907528877258,0.4686175286769867,-0.6080841422080994,0.9334485530853271,0.5196525454521179,0.48219117522239685,-0.5533624887466431,0.9595531821250916,0.6037633419036865,0.4719749093055725,-0.5543639063835144,0.900307297706604,0.5214350819587708,0.48255443572998047,-0.5067579746246338,0.9297171235084534,0.5654287338256836,0.5699666142463684,0.0063757202588021755,0.9996739625930786,0.5006017088890076,0.5695269703865051,-0.005963913630694151,0.9996263980865479,0.5782422423362732,0.5596897006034851,-0.449179083108902,0.9893645644187927,0.49647507071495056,0.5543064475059509,-0.4486970007419586,0.9846147894859314,0.5623553395271301,0.708980917930603,-0.3557890057563782,0.970666766166687,0.5016412138938904,0.6969578266143799,-0.35993704199790955,0.9820759892463684,0.5531556606292725,0.7300124764442444,-0.35748109221458435,0.9400819540023804,0.5070327520370483,0.7173390984535217,-0.3606622815132141,0.9191097617149353,0.5659983158111572,0.7456036806106567,-0.5091981887817383,0.9749953150749207,0.4991340637207031,0.7309987545013428,-0.5257405042648315,0.9828830361366272
26,0.5486604571342468,0.4140828847885132,-0.11334128677845001,0.999806821346283,0.5556449294090271,0.3969026505947113,-0.0945349782705307,0.9991488456726074,0.5590594410896301,0.39564505219459534,-0.09457452595233917,0.9991308450698853,0.5624330639839172,0.39421215653419495,-0.09465102851390839,0.9990273714065552,0.5449206829071045,0.3967679738998413,-0.09418685734272003,0.999306321144104,0.5404326319694519,0.39526623487472534,-0.09418649971485138,0.999387264251709,0.5358547568321228,0.3936871886253357,-0.09417818486690521,0.9994314312934875,0.5667182803153992,0.38907283544540405,0.030140716582536697,0.998388946056366,0.525926411151886,0.3888477385044098,0.03410046175122261,0.9991656541824341,0.552640974521637,0.4234521985054016,-0.0645795613527298,0.999813973903656,0.5398507714271545,0.42334064841270447,-0.0638703852891922,0.9998718500137329,0.5961183309555054,0.4340178668498993,0.07715030759572983,0.9999635815620422,0.48882341384887695,0.4363105893135071,0.047593437135219574,0.9999824166297913,0.6236326098442078,0.484668105840683,-0.1466258317232132,0.9807860255241394,0.4695071578025818,0.491197794675827,-0.15100884437561035,0.9903525710105896,0.6202789545059204,0.4883958101272583,-0.4332176744937897,0.9599822759628296,0.5068341493606567,0.5159091353416443,-0.3784109950065613,0.9790995717048645,0.6259874701499939,0.4971987307071686,-0.4910430908203125,0.9374074339866638,0.5150922536849976,0.5176383852958679,-0.42867621779441833,0.9636522531509399,0.6103233695030212,0.49014198780059814,-0.488422691822052,0.9366263747215271,0.5251785516738892,0.5058627724647522,-0.4205377697944641,0.9610791802406311,0.6032155156135559,0.49099472165107727,-0.4388861060142517,0.9049690365791321,0.5248686075210571,0.504554033279419,-0.37801840901374817,0.9324411749839783,0.5675768256187439,0.5950762033462524,0.00317031960003078,0.9996967315673828,0.5025907754898071,0.5923822522163391,-0.0027128884103149176,0.9996515512466431,0.5777593851089478,0.5580564737319946,-0.4409371018409729,0.9901524186134338,0.495051771402359,0.5563910603523254,-0.43360668420791626,0.9852679371833801,0.5621485114097595,0.7043142914772034,-0.3400753438472748,0.9718772768974304,0.5016240477561951,0.6973761320114136,-0.3402120769023895,0.9826261401176453,0.5533082485198975,0.7219792008399963,-0.3400897681713104,0.9441173672676086,0.507225513458252,0.7149766683578491,-0.34052038192749023,0.9246944189071655,0.5667428374290466,0.7452006936073303,-0.4804995656013489,0.9757607579231262,0.49634820222854614,0.7431266903877258,-0.5005119442939758,0.9834817051887512
27,0.5483342409133911,0.4271777272224426,-0.16884765028953552,0.9998258948326111,0.555353581905365,0.40888717770576477,-0.15073630213737488,0.9992336630821228,0.5588399767875671,0.40774884819984436,-0.15075862407684326,0.9992174506187439,0.5622822046279907,0.40665403008461,-0.15083721280097961,0.9991240501403809,0.5445605516433716,0.4088025987148285,-0.15071824193000793,0.9993752241134644,0.5402580499649048,0.4073869585990906,-0.1507497876882553,0.9994481801986694,0.5357646942138672,0.40582552552223206,-0.15075795352458954,0.9994876980781555,0.566832423210144,0.4018558859825134,-0.022594759240746498,0.9985495805740356,0.5256974697113037,0.4013029634952545,-0.0202966146171093,0.9992489218711853,0.5525459051132202,0.43821269273757935,-0.1184953823685646,0.9998325109481812,0.5397964119911194,0.4373202919960022,-0.11822645366191864,0.9998846650123596,0.5960126519203186,0.4508732259273529,0.026509881019592285,0.9999638199806213,0.4884803891181946,0.4476092457771301,-0.0009965515928342938,0.999983012676239,0.6241657137870789,0.4966294467449188,-0.21085119247436523,0.9758648872375488,0.4696846008300781,0.4944462776184082,-0.21595413982868195,0.9885419607162476,0.6111090183258057,0.5151127576828003,-0.5022470951080322,0.9580176472663879,0.5059240460395813,0.525162935256958,-0.4473225176334381,0.9774878025054932,0.6125085949897766,0.5210743546485901,-0.5607485771179199,0.9372710585594177,0.5133393406867981,0.5292280912399292,-0.4979446828365326,0.9619983434677124,0.5959039926528931,0.5128872394561768,-0.5565471649169922,0.9364952445030212,0.5230600237846375,0.5204192399978638,-0.4879886209964752,0.9593836069107056,0.5906185507774353,0.5137724280357361,-0.5070139765739441,0.9051864743232727,0.5228745937347412,0.5196104645729065,-0.44621020555496216,0.9303816556930542,0.5679627656936646,0.6167094707489014,0.003509874688461423,0.9997003078460693,0.5023669004440308,0.6144598722457886,-0.0031043589115142822,0.9996551871299744,0.5777512788772583,0.5580739974975586,-0.42281675338745117,0.990151584148407,0.49395665526390076,0.5568769574165344,-0.42476528882980347,0.9847049713134766,0.5622096657752991,0.7004503607749939,-0.3253011405467987,0.9699926972389221,0.5015876293182373,0.6975252032279968,-0.3205658793449402,0.9812138676643372,0.5537031888961792,0.7160215973854065,-0.326008141040802,0.9453161358833313,0.5072801113128662,0.7129285335540771,-0.31959468126296997,0.9271811842918396,0.5669531226158142,0.7451568245887756,-0.43775486946105957,0.9732757806777954,0.49648696184158325,0.7450299859046936,-0.4878062307834625,0.9820857048034668
28,0.5482304692268372,0.42747917771339417,-0.07399418950080872,0.9998428821563721,0.5551519393920898,0.4099637567996979,-0.051066190004348755,0.9993098974227905,0.5586917996406555,0.4090701937675476,-0.051108211278915405,0.9992953538894653,0.5621909499168396,0.4081427752971649,-0.0511707067489624,0.9992110133171082,0.5442305207252502,0.4098747670650482,-0.05141972750425339,0.9994370937347412,0.5398939251899719,0.4088855981826782,-0.05144587904214859,0.9995028376579285,0.5354611277580261,0.4077893793582916,-0.051456451416015625,0.9995380640029907,0.5662930011749268,0.40450161695480347,0.07978054881095886,0.9986940622329712,0.5256449580192566,0.40483349561691284,0.08069990575313568,0.9993236660957336,0.5526787042617798,0.4386855959892273,-0.02486329898238182,0.9998492002487183,0.5396931171417236,0.4380108118057251,-0.025100409984588623,0.9998961091041565,0.5962654948234558,0.46113014221191406,0.10372495651245117,0.9999608993530273,0.4881726801395416,0.4564865231513977,0.0798942968249321,0.999980628490448,0.6244972944259644,0.5039651989936829,-0.16973179578781128,0.9684995412826538,0.47022494673728943,0.5011952519416809,-0.16461335122585297,0.9810978174209595,0.6053894758224487,0.5250176191329956,-0.47075456380844116,0.955944836139679,0.5072697997093201,0.5310858488082886,-0.4098805785179138,0.9711446166038513,0.6061651706695557,0.5295161604881287,-0.5291432738304138,0.9369930028915405,0.5148656368255615,0.5289828181266785,-0.4613938331604004,0.9546824097633362,0.5893136262893677,0.5220260620117188,-0.5209208726882935,0.9361954927444458,0.5237286686897278,0.5225443243980408,-0.4493153691291809,0.951871931552887,0.5846896767616272,0.5236629843711853,-0.4740700125694275,0.9052512049674988,0.5232509970664978,0.524379551410675,-0.4087100923061371,0.9208753705024719,0.5688880085945129,0.6218982934951782,0.001419281237758696,0.9996873140335083,0.5022991895675659,0.6218574047088623,-0.0009912604000419378,0.999636173248291,0.5780826807022095,0.5580774545669556,-0.41538572311401367,0.989640474319458,0.4963138699531555,0.557045042514801,-0.40925389528274536,0.9836417436599731,0.5622684955596924,0.7009050250053406,-0.36753004789352417,0.9644586443901062,0.501998782157898,0.6999492049217224,-0.38266852498054504,0.9790066480636597,0.5537458658218384,0.7170610427856445,-0.3731863796710968,0.9446098208427429,0.5080548524856567,0.7131003737449646,-0.3907336890697479,0.9292791485786438,0.5673559904098511,0.7472819089889526,-0.5022103786468506,0.9693939089775085,0.4965590536594391,0.7480582594871521,-0.548653244972229,0.9803867340087891
29,0.5481829047203064,0.429836243391037,-0.1324760615825653,0.9998579025268555,0.5544568300247192,0.4129663407802582,-0.11235968768596649,0.9993782043457031,0.557947039604187,0.4117449223995209,-0.11240638792514801,0.9993651509284973,0.5615506768226624,0.41039422154426575,-0.11250058561563492,0.9992888569831848,0.5435395240783691,0.41336992383003235,-0.11266704648733139,0.9994921684265137,0.5394164323806763,0.41246500611305237,-0.11268702894449234,0.9995514750480652,0.5351276993751526,0.411259263753891,-0.11268897354602814,0.9995825290679932,0.5658025145530701,0.4049393832683563,0.016363201662898064,0.998823881149292,0.5254389643669128,0.40720638632774353,0.017620474100112915,0.9993906617164612,0.552636444568634,0.44029900431632996,-0.08284059166908264,0.9998641610145569,0.5396022796630859,0.44007208943367004,-0.08285659551620483,0.9999064207077026,0.5965349674224854,0.4628019332885742,0.05129428952932358,0.9999614357948303,0.4880160689353943,0.4577082693576813,0.02698458731174469,0.9999793171882629,0.6245753765106201,0.5135731101036072,-0.2059973031282425,0.9663361310958862,0.46968358755111694,0.5060281157493591,-0.2050512582063675,0.9767103791236877,0.6014363169670105,0.5324002504348755,-0.5024408102035522,0.9562737345695496,0.5059384107589722,0.534226655960083,-0.44487109780311584,0.9662127494812012,0.602452278137207,0.5375765562057495,-0.5619634389877319,0.9383032321929932,0.5137321949005127,0.5322497487068176,-0.4958757758140564,0.9488985538482666,0.5832444429397583,0.5329762101173401,-0.5529212951660156,0.9375201463699341,0.522917628288269,0.5270875096321106,-0.4854094982147217,0.945875346660614,0.5818269848823547,0.5320088863372803,-0.5053448677062988,0.9071400165557861,0.5223547220230103,0.5280650854110718,-0.44445371627807617,0.9127742052078247,0.5685531497001648,0.6235799789428711,0.001903911354020238,0.9996812343597412,0.5020565986633301,0.6218679547309875,-0.0015070780646055937,0.9996268153190613,0.5783869028091431,0.5600283741950989,-0.40888890624046326,0.9887794256210327,0.4937048852443695,0.5579691529273987,-0.39137548208236694,0.9818792343139648,0.5623019337654114,0.7007781267166138,-0.3563506603240967,0.9589990973472595,0.5018531084060669,0.7006279826164246,-0.3549281656742096,0.976362943649292,0.5536317229270935,0.7168887257575989,-0.35657256841659546,0.9434775114059448,0.5079730153083801,0.7135002017021179,-0.35392874479293823,0.929637610912323,0.5676668882369995,0.7484288811683655,-0.4456024765968323,0.9640619158744812,0.49525484442710876,0.7507542967796326,-0.4919084906578064,0.9775750041007996
30,0.5479214191436768,0.42225539684295654,-0.16341713070869446,0.9998714327812195,0.5540961027145386,0.4046992361545563,-0.14482004940509796,0.9994395971298218,0.5575426816940308,0.4035988450050354,-0.14485540986061096,0.9994279146194458,0.5611533522605896,0.4024331867694855,-0.144931823015213,0.9993587732315063,0.542504072189331,0.4049142301082611,-0.14482381939888,0.9995418787002563,0.5380919575691223,0.40390077233314514,-0.14487585425376892,0.9995954632759094,0.5337167382240295,0.4027159512042999,-0.14489728212356567,0.9996229410171509,0.5655445456504822,0.39930886030197144,-0.01891188882291317,0.9989405274391174,0.5250297784805298,0.39883992075920105,-0.01607382483780384,0.9994510412216187,0.5526168942451477,0.4328669011592865,-0.11459454149007797,0.9998776316642761,0.5393489599227905,0.4338625967502594,-0.11405573040246964,0.9999156594276428,0.5966623425483704,0.45849767327308655,0.02030043676495552,0.9999596476554871,0.4879143238067627,0.45313289761543274,-0.001040169270709157,0.9999790787696838,0.6248640418052673,0.5166631937026978,-0.20983369648456573,0.9636614322662354,0.4691263735294342,0.5081530213356018,-0.21213093400001526,0.976161003112793,0.5967661142349243,0.538000762462616,-0.48914676904678345,0.9547485709190369,0.5076552629470825,0.5351046323776245,-0.44218096137046814,0.9653322696685791,0.5879853963851929,0.547305166721344,-0.5470269918441772,0.9370971322059631,0.5190554857254028,0.5373506546020508,-0.49230098724365234,0.9478241205215454,0.5785526633262634,0.5376935601234436,-0.5416604280471802,0.9365807175636292,0.5271704792976379,0.5312438607215881,-0.4844529628753662,0.9449346661567688,0.5792414546012878,0.5345491170883179,-0.4931330680847168,0.906451940536499,0.5244185924530029,0.529744029045105,-0.4421638548374176,0.9118808507919312,0.5682913064956665,0.623285174369812,0.0008849021978676319,0.9996573328971863,0.5018675327301025,0.6214738488197327,-0.0005299252225086093,0.9996170997619629,0.5784264802932739,0.5599716901779175,-0.3947216868400574,0.9880942702293396,0.48992547392845154,0.55610591173172,-0.37406107783317566,0.981350302696228,0.5624008774757385,0.6996490955352783,-0.3024005889892578,0.9566484093666077,0.5014111995697021,0.70067298412323,-0.31390953063964844,0.9749893546104431,0.5537456274032593,0.7174781560897827,-0.2988472580909729,0.9433336853981018,0.5078879594802856,0.7139210104942322,-0.31389427185058594,0.9307959079742432,0.5675289034843445,0.7475425601005554,-0.4152783453464508,0.9610928893089294,0.4942818284034729,0.7514346241950989,-0.45430102944374084,0.9754746556282043
31,0.5463029146194458,0.4100218415260315,-0.20381197333335876,0.999883770942688,0.5531896352767944,0.3926744759082794,-0.1868615448474884,0.9994948506355286,0.5567321181297302,0.3917659819126129,-0.18691124022006989,0.9994844198226929,0.5602946877479553,0.3907357156276703,-0.18697752058506012,0.9994217753410339,0.5405674576759338,0.39215314388275146,-0.1861409693956375,0.999586820602417,0.5357630848884583,0.3908708989620209,-0.18621119856834412,0.9996352195739746,0.5313151478767395,0.38948920369148254,-0.18623080849647522,0.9996596574783325,0.5646249055862427,0.3880591094493866,-0.05879928916692734,0.9990452527999878,0.5239070653915405,0.38688814640045166,-0.05559583380818367,0.9995054602622986,0.5516926050186157,0.42120176553726196,-0.15441273152828217,0.9998897314071655,0.5375860333442688,0.4212944209575653,-0.1532694399356842,0.9999240040779114,0.5965605974197388,0.4442220628261566,-0.003762661013752222,0.9999617338180542,0.4876123070716858,0.44068872928619385,-0.025420114398002625,0.9999807476997375,0.6296266317367554,0.5119912028312683,-0.22014982998371124,0.9645310640335083,0.46383967995643616,0.4965033233165741,-0.21707236766815186,0.9768738746643066,0.598048746585846,0.5354713797569275,-0.500052809715271,0.9549373984336853,0.5054478645324707,0.5273510217666626,-0.4503116011619568,0.9663189649581909,0.5862370729446411,0.5481418371200562,-0.5583323836326599,0.9374619722366333,0.5155801177024841,0.5403071045875549,-0.5005578994750977,0.9490034580230713,0.5770167112350464,0.5392682552337646,-0.5532490015029907,0.9369892477989197,0.524530291557312,0.5310476422309875,-0.4964447021484375,0.9463063478469849,0.5785700678825378,0.5338360071182251,-0.5035948157310486,0.9068622589111328,0.5227187871932983,0.5246551036834717,-0.45102834701538086,0.9142488241195679,0.568745493888855,0.6062604188919067,0.0015158919850364327,0.9996604919433594,0.5026103258132935,0.6084247827529907,-0.0011505219154059887,0.9996318817138672,0.5767751932144165,0.5550048351287842,-0.37831342220306396,0.9865932464599609,0.4902772903442383,0.5507674813270569,-0.3845978379249573,0.9806774258613586,0.5622769594192505,0.7000499963760376,-0.3822164535522461,0.9525132775306702,0.502997636795044,0.7006105780601501,-0.3956648111343384,0.9729334115982056,0.5537134408950806,0.7177269458770752,-0.3905627727508545,0.9450490474700928,0.5105268359184265,0.7160567045211792,-0.4038998484611511,0.9332286715507507,0.5619243383407593,0.7300977110862732,-0.522448718547821,0.9600526094436646,0.5025818347930908,0.7406976222991943,-0.5559301376342773,0.9742360711097717
32,0.5462521314620972,0.40134474635124207,-0.21284516155719757,0.9998950958251953,0.5531681180000305,0.3839578330516815,-0.19429561495780945,0.9995448589324951,0.5567106008529663,0.3828836679458618,-0.19434846937656403,0.9995355606079102,0.5602817535400391,0.3818453848361969,-0.19441241025924683,0.9994789361953735,0.5405684113502502,0.38392314314842224,-0.19465240836143494,0.9996274709701538,0.5357493758201599,0.3826930820941925,-0.19471663236618042,0.9996711611747742,0.5312319993972778,0.3812703788280487,-0.19472655653953552,0.999692976474762,0.5645201802253723,0.37952911853790283,-0.06514047086238861,0.9991399049758911,0.5232675671577454,0.37743034958839417,-0.06582121551036835,0.9995545744895935,0.5512832403182983,0.4123448133468628,-0.16299545764923096,0.9999006986618042,0.537203311920166,0.4120761752128601,-0.1633860468864441,0.9999315738677979,0.5951031446456909,0.4344862401485443,-0.009395034983754158,0.9999644160270691,0.48634466528892517,0.4307224154472351,-0.03405696898698807,0.9999818801879883,0.632575273513794,0.49503034353256226,-0.21881330013275146,0.9661619067192078,0.45747917890548706,0.4896925985813141,-0.21885068714618683,0.9778860211372375,0.6020795702934265,0.5183167457580566,-0.509118378162384,0.9570128321647644,0.4984491467475891,0.5213410258293152,-0.4482441544532776,0.9674082398414612,0.587213397026062,0.531204879283905,-0.5702203512191772,0.9403899312019348,0.5110852122306824,0.5354059338569641,-0.4997168481349945,0.9504245519638062,0.5831872820854187,0.5262667536735535,-0.5671941041946411,0.9399895668029785,0.5216883420944214,0.5265970826148987,-0.4961271286010742,0.9479843378067017,0.5829032063484192,0.5221272706985474,-0.5137993097305298,0.910982608795166,0.5195293426513672,0.519882082939148,-0.44898176193237305,0.9169894456863403,0.5678014755249023,0.5965093374252319,0.001816682517528534,0.9996636509895325,0.501973032951355,0.596767783164978,-0.0014379076892510056,0.9996340870857239,0.5729321837425232,0.5539485812187195,-0.39119914174079895,0.9855529069900513,0.4906480312347412,0.5470815300941467,-0.40166735649108887,0.979486346244812,0.5625907778739929,0.7001031041145325,-0.356098473072052,0.9506368637084961,0.503623902797699,0.6935068368911743,-0.36980128288269043,0.9716081023216248,0.5544982552528381,0.7193797826766968,-0.3603697419166565,0.9455757141113281,0.5107405185699463,0.7134240865707397,-0.373465895652771,0.9348410367965698,0.5626435279846191,0.7326501607894897,-0.501013457775116,0.9591802358627319,0.5038360357284546,0.7362197041511536,-0.5314909219741821,0.9736466407775879
33,0.5450221300125122,0.385511577129364,-0.2301008701324463,0.9999053478240967,0.5522624850273132,0.3681705892086029,-0.21239252388477325,0.9995899796485901,0.555925726890564,0.3678007423877716,-0.21244439482688904,0.9995816349983215,0.5594639182090759,0.3675614893436432,-0.21251627802848816,0.9995304942131042,0.5396627187728882,0.3672753572463989,-0.2117234468460083,0.9996642470359802,0.5349166393280029,0.36582639813423157,-0.21178476512432098,0.9997036457061768,0.5304883718490601,0.36418622732162476,-0.21178464591503143,0.9997231960296631,0.5637531280517578,0.3684655427932739,-0.09129166603088379,0.9992252588272095,0.523063063621521,0.3620682954788208,-0.08897944539785385,0.9995988607406616,0.5504396557807922,0.39856240153312683,-0.18445689976215363,0.9999105930328369,0.5364596247673035,0.397635281085968,-0.1838119924068451,0.9999383687973022,0.595065712928772,0.43414464592933655,-0.02458338811993599,0.9999669790267944,0.48453488945961,0.4242880046367645,-0.05182400345802307,0.9999831914901733,0.6366676092147827,0.4882012605667114,-0.21533378958702087,0.9682767987251282,0.4511258602142334,0.48391664028167725,-0.21984684467315674,0.9792863130569458,0.6176996827125549,0.5136316418647766,-0.49826377630233765,0.9591496586799622,0.4945823550224304,0.5142080783843994,-0.44341784715652466,0.9691227078437805,0.6120733022689819,0.5207177996635437,-0.5573369860649109,0.9430843591690063,0.5083746314048767,0.5256074070930481,-0.49361127614974976,0.9525033235549927,0.598956286907196,0.5150320529937744,-0.554960310459137,0.942776620388031,0.5184570550918579,0.5161885023117065,-0.4899362027645111,0.95026034116745,0.5962339043617249,0.5149316787719727,-0.5029247999191284,0.9148033261299133,0.5158176422119141,0.5111819505691528,-0.44385796785354614,0.9205750823020935,0.5650407075881958,0.5869681239128113,0.002740753348916769,0.9996715784072876,0.49922576546669006,0.5861640572547913,-0.002338057616725564,0.9996432662010193,0.5708246827125549,0.553981602191925,-0.3861537277698517,0.9843507409095764,0.4916115403175354,0.5456085205078125,-0.4049897789955139,0.9777373671531677,0.5626018047332764,0.7003744840621948,-0.32151228189468384,0.9491705298423767,0.5035907030105591,0.6937057375907898,-0.35587912797927856,0.9708706736564636,0.5544621348381042,0.7203124165534973,-0.3226025700569153,0.9458991289138794,0.5106595754623413,0.7162147164344788,-0.35185861587524414,0.9361605644226074,0.5631709694862366,0.7341487407684326,-0.4609015882015228,0.958158552646637,0.504870593547821,0.7367677092552185,-0.504897952079773,0.9730347990989685
34,0.5443701148033142,0.3581079840660095,-0.29841941595077515,0.9999144673347473,0.5518019795417786,0.337828665971756,-0.2808517813682556,0.9996305108070374,0.5554492473602295,0.3370271623134613,-0.28092020750045776,0.9996230602264404,0.5588533878326416,0.33649349212646484,-0.2809860110282898,0.9995766878128052,0.5391067266464233,0.3380977213382721,-0.2802521586418152,0.9996973276138306,0.5343431234359741,0.33712366223335266,-0.2803252041339874,0.9997328519821167,0.5299098491668701,0.33619368076324463,-0.28033435344696045,0.9997503161430359,0.5622697472572327,0.3383594751358032,-0.15113945305347443,0.9993019104003906,0.5226063132286072,0.3363468050956726,-0.14944423735141754,0.9996387958526611,0.5499058961868286,0.3698213994503021,-0.24839897453784943,0.9999194741249084,0.5357872247695923,0.37032148241996765,-0.24793951213359833,0.9999445080757141,0.595173180103302,0.41214224696159363,-0.06380792707204819,0.999969482421875,0.48181605339050293,0.4016835391521454,-0.09041272103786469,0.999984622001648,0.6421661376953125,0.487007200717926,-0.2247539460659027,0.96933913230896,0.4428273141384125,0.47714316844940186,-0.22853820025920868,0.9801875352859497,0.6203541159629822,0.4980003237724304,-0.513226330280304,0.9544466733932495,0.48877620697021484,0.5022993683815002,-0.45573171973228455,0.9683734178543091,0.6145596504211426,0.5116592049598694,-0.5722609162330627,0.9363261461257935,0.5025240778923035,0.5252703428268433,-0.5072987675666809,0.950457751750946,0.6015545725822449,0.4970155954360962,-0.5700662732124329,0.9359884262084961,0.5117874145507812,0.5075461864471436,-0.502147912979126,0.9481722116470337,0.599476158618927,0.4923560321331024,-0.5179978609085083,0.9044710993766785,0.5089734196662903,0.5005782246589661,-0.45558255910873413,0.9167261123657227,0.5637689828872681,0.5598254799842834,0.00329353054985404,0.9996842741966248,0.4963456988334656,0.5572940707206726,-0.002890777075663209,0.9996602535247803,0.5702796578407288,0.5533219575881958,-0.39845341444015503,0.9788551926612854,0.4935545325279236,0.546832263469696,-0.42758098244667053,0.9729580879211426,0.5626986622810364,0.7004364728927612,-0.44739198684692383,0.9438414573669434,0.503070592880249,0.6952710747718811,-0.4373554587364197,0.9678701162338257,0.5544458627700806,0.7219693660736084,-0.46012598276138306,0.9447498917579651,0.5099815130233765,0.7208360433578491,-0.4456689953804016,0.9347243309020996,0.560529351234436,0.7245515584945679,-0.6173370480537415,0.9576385021209717,0.5072460174560547,0.7250863313674927,-0.6094321012496948,0.972192108631134
35,0.5407295227050781,0.3359031081199646,-0.4541357159614563,0.9999228119850159,0.5488802194595337,0.31449663639068604,-0.4335196614265442,0.9996668696403503,0.5530405044555664,0.31365087628364563,-0.43354129791259766,0.9996602535247803,0.5568467378616333,0.3129555583000183,-0.4336555004119873,0.9996180534362793,0.536182165145874,0.3144957721233368,-0.43191367387771606,0.9997270107269287,0.5319394469261169,0.31344112753868103,-0.4320559501647949,0.9997591972351074,0.5279117822647095,0.3123799264431,-0.43207597732543945,0.9997748136520386,0.5607322454452515,0.31475841999053955,-0.28677892684936523,0.9993706941604614,0.5222495794296265,0.3128669559955597,-0.27994459867477417,0.9996745586395264,0.5475944876670837,0.34881606698036194,-0.39762741327285767,0.9999275207519531,0.5330473184585571,0.34783825278282166,-0.39605310559272766,0.9999500513076782,0.596781849861145,0.39259734749794006,-0.17777889966964722,0.9999712705612183,0.4801871180534363,0.3783908784389496,-0.1948179304599762,0.9999852776527405,0.6482787728309631,0.47749125957489014,-0.32028862833976746,0.9718512296676636,0.4348321557044983,0.4594937860965729,-0.31867021322250366,0.9819079041481018,0.6218186616897583,0.47647443413734436,-0.5955803394317627,0.9541451334953308,0.4830152988433838,0.48552799224853516,-0.564668595790863,0.9697168469429016,0.6149922609329224,0.4893226623535156,-0.6551836133003235,0.9349195957183838,0.49753156304359436,0.5040032863616943,-0.622935950756073,0.9518015384674072,0.6034432649612427,0.4734188914299011,-0.6544705033302307,0.933798611164093,0.5060675740242004,0.48742249608039856,-0.6183531284332275,0.9492326974868774,0.6022706627845764,0.4686275124549866,-0.6002099514007568,0.8987801671028137,0.5025622248649597,0.4803542196750641,-0.5657070875167847,0.9167520999908447,0.5631431341171265,0.5291353464126587,0.0032489695586264133,0.9997093081474304,0.49582305550575256,0.5245907306671143,-0.0029078111983835697,0.9996848106384277,0.5699158906936646,0.5546910762786865,-0.5195276141166687,0.9801493883132935,0.49487248063087463,0.5529090166091919,-0.5104204416275024,0.9735340476036072,0.5631288290023804,0.702014148235321,-0.24772465229034424,0.9461506605148315,0.502997875213623,0.6956453323364258,-0.2462991178035736,0.9688435792922974,0.5550344586372375,0.7206531167030334,-0.22651886940002441,0.9426555037498474,0.5098451972007751,0.716225802898407,-0.22609221935272217,0.932928740978241,0.5608783960342407,0.7367454767227173,-0.3922133445739746,0.9586735963821411,0.506452739238739,0.7332003712654114,-0.4063645303249359,0.9724358916282654
36,0.5400000214576721,0.27938225865364075,-0.5503656268119812,0.9999304413795471,0.5467236638069153,0.25926393270492554,-0.5303133726119995,0.9996998310089111,0.5509688258171082,0.25887754559516907,-0.5303522944450378,0.9996939301490784,0.5548800230026245,0.2582927644252777,-0.53046053647995,0.9996554851531982,0.534145176410675,0.2583238482475281,-0.5291188955307007,0.9997539520263672,0.5300694704055786,0.25777605175971985,-0.5292414426803589,0.9997830986976624,0.5262371301651001,0.2575205862522125,-0.5292481184005737,0.999796986579895,0.5594361424446106,0.2612871825695038,-0.38309839367866516,0.999433159828186,0.5219686627388,0.2628999948501587,-0.379178911447525,0.999707043170929,0.5474320650100708,0.29307296872138977,-0.49396222829818726,0.999934732913971,0.5327770709991455,0.294897198677063,-0.4931165277957916,0.9999550580978394,0.5995781421661377,0.3470849394798279,-0.2653345465660095,0.9999728202819824,0.48012322187423706,0.332489550113678,-0.28412291407585144,0.999986469745636,0.6489218473434448,0.4366387724876404,-0.44626298546791077,0.9745516777038574,0.4258550703525543,0.412905752658844,-0.4532610774040222,0.9836900234222412,0.6267591714859009,0.4453921616077423,-0.7409809827804565,0.9576017260551453,0.47216707468032837,0.4512379467487335,-0.7142692804336548,0.9724541306495667,0.6184365749359131,0.4570329487323761,-0.8045021295547485,0.9388647079467773,0.48735371232032776,0.4691745936870575,-0.7722127437591553,0.955766499042511,0.6095600128173828,0.4439573884010315,-0.799606204032898,0.9374653100967407,0.4951190948486328,0.45508110523223877,-0.7595927119255066,0.9532440304756165,0.6099517941474915,0.4384326636791229,-0.7444616556167603,0.9023499488830566,0.49226102232933044,0.4485901892185211,-0.7119012475013733,0.9225847721099854,0.5613710880279541,0.48135316371917725,0.008028623647987843,0.9997208714485168,0.4940244257450104,0.4744158387184143,-0.007866689935326576,0.9997033476829529,0.5701190233230591,0.5550754070281982,-0.4697642922401428,0.9812895655632019,0.49528607726097107,0.5562237501144409,-0.4750119149684906,0.9745689034461975,0.5638749599456787,0.7038171887397766,-0.27044564485549927,0.9490917921066284,0.5006202459335327,0.7003861665725708,-0.28567206859588623,0.9711479544639587,0.5560445189476013,0.72665935754776,-0.26294660568237305,0.9443156719207764,0.5047831535339355,0.7266414761543274,-0.2797624170780182,0.9353064298629761,0.5629054307937622,0.7368322610855103,-0.43514329195022583,0.9605842232704163,0.4980434775352478,0.7409653067588806,-0.4656199812889099,0.9739770293235779
37,0.5395376682281494,0.2511036992073059,-0.4556523263454437,0.9999373555183411,0.5467827320098877,0.23115144670009613,-0.4316169321537018,0.9997297525405884,0.551121711730957,0.23107479512691498,-0.4316718578338623,0.9997244477272034,0.5550546050071716,0.23098722100257874,-0.43176212906837463,0.9996896982192993,0.5333696603775024,0.23085716366767883,-0.4302087724208832,0.9997784495353699,0.5292136073112488,0.23087067902088165,-0.43031591176986694,0.9998047351837158,0.525485634803772,0.23119214177131653,-0.43033355474472046,0.9998171925544739,0.559617280960083,0.23500679433345795,-0.2812594771385193,0.9994896650314331,0.5212473273277283,0.23664675652980804,-0.27604222297668457,0.9997363090515137,0.5474767088890076,0.2640295624732971,-0.39966410398483276,0.9999412894248962,0.5317747592926025,0.26561716198921204,-0.39854511618614197,0.9999595284461975,0.6002218127250671,0.3279353082180023,-0.17974761128425598,0.9999746084213257,0.48010367155075073,0.3095039129257202,-0.19795814156532288,0.9999875426292419,0.6482178568840027,0.4159965217113495,-0.36082935333251953,0.9768555760383606,0.4243248403072357,0.3924904465675354,-0.35858017206192017,0.9852352142333984,0.6247464418411255,0.4244377315044403,-0.6582087874412537,0.9591861367225647,0.4710676074028015,0.42926111817359924,-0.6173765659332275,0.9743548035621643,0.6176246404647827,0.4356248080730438,-0.7208659052848816,0.9393714666366577,0.4840603470802307,0.44496849179267883,-0.6743438839912415,0.9580135941505432,0.6077246069908142,0.4225466847419739,-0.715476393699646,0.9374732375144958,0.4919554591178894,0.4325231909751892,-0.6653422117233276,0.9553817510604858,0.6074848175048828,0.41612425446510315,-0.6615251898765564,0.8998945355415344,0.4898577332496643,0.4260399043560028,-0.6168313026428223,0.9251356720924377,0.5607853531837463,0.46819406747817993,0.008225458674132824,0.9997377991676331,0.4929245114326477,0.46173590421676636,-0.008082536980509758,0.9997223019599915,0.5699563026428223,0.5553272366523743,-0.46774715185165405,0.982134997844696,0.49561554193496704,0.5580347180366516,-0.46019697189331055,0.9747633934020996,0.5642724633216858,0.7072767615318298,-0.28245726227760315,0.9506990909576416,0.500525951385498,0.7036503553390503,-0.290463924407959,0.972771942615509,0.5568258166313171,0.728041410446167,-0.27568691968917847,0.9439835548400879,0.5048351287841797,0.7289008498191833,-0.28602364659309387,0.9339050650596619,0.5661799907684326,0.7384917736053467,-0.4539182782173157,0.9617573022842407,0.49846142530441284,0.7436431646347046,-0.47957339882850647,0.9746788740158081
