frame,NOSE.x,NOSE.y,NOSE.z,NOSE.v,LEFT_EYE_INNER.x,LEFT_EYE_INNER.y,LEFT_EYE_INNER.z,LEFT_EYE_INNER.v,LEFT_EYE.x,LEFT_EYE.y,LEFT_EYE.z,LEFT_EYE.v,LEFT_EYE_OUTER.x,LEFT_EYE_OUTER.y,LEFT_EYE_OUTER.z,LEFT_EYE_OUTER.v,RIGHT_EYE_INNER.x,RIGHT_EYE_INNER.y,RIGHT_EYE_INNER.z,RIGHT_EYE_INNER.v,RIGHT_EYE.x,RIGHT_EYE.y,RIGHT_EYE.z,RIGHT_EYE.v,RIGHT_EYE_OUTER.x,RIGHT_EYE_OUTER.y,RIGHT_EYE_OUTER.z,RIGHT_EYE_OUTER.v,LEFT_EAR.x,LEFT_EAR.y,LEFT_EAR.z,LEFT_EAR.v,RIGHT_EAR.x,RIGHT_EAR.y,RIGHT_EAR.z,RIGHT_EAR.v,MOUTH_LEFT.x,MOUTH_LEFT.y,MOUTH_LEFT.z,MOUTH_LEFT.v,MOUTH_RIGHT.x,MOUTH_RIGHT.y,MOUTH_RIGHT.z,MOUTH_RIGHT.v,LEFT_SHOULDER.x,LEFT_SHOULDER.y,LEFT_SHOULDER.z,LEFT_SHOULDER.v,RIGHT_SHOULDER.x,RIGHT_SHOULDER.y,RIGHT_SHOULDER.z,RIGHT_SHOULDER.v,LEFT_ELBOW.x,LEFT_ELBOW.y,LEFT_ELBOW.z,LEFT_ELBOW.v,RIGHT_ELBOW.x,RIGHT_ELBOW.y,RIGHT_ELBOW.z,RIGHT_ELBOW.v,LEFT_WRIST.x,LEFT_WRIST.y,LEFT_WRIST.z,LEFT_WRIST.v,RIGHT_WRIST.x,RIGHT_WRIST.y,RIGHT_WRIST.z,RIGHT_WRIST.v,LEFT_PINKY.x,LEFT_PINKY.y,LEFT_PINKY.z,LEFT_PINKY.v,RIGHT_PINKY.x,RIGHT_PINKY.y,RIGHT_PINKY.z,RIGHT_PINKY.v,LEFT_INDEX.x,LEFT_INDEX.y,LEFT_INDEX.z,LEFT_INDEX.v,RIGHT_INDEX.x,RIGHT_INDEX.y,RIGHT_INDEX.z,RIGHT_INDEX.v,LEFT_THUMB.x,LEFT_THUMB.y,LEFT_THUMB.z,LEFT_THUMB.v,RIGHT_THUMB.x,RIGHT_THUMB.y,RIGHT_THUMB.z,RIGHT_THUMB.v,LEFT_HIP.x,LEFT_HIP.y,LEFT_HIP.z,LEFT_HIP.v,RIGHT_HIP.x,RIGHT_HIP.y,RIGHT_HIP.z,RIGHT_HIP.v,LEFT_KNEE.x,LEFT_KNEE.y,LEFT_KNEE.z,LEFT_KNEE.v,RIGHT_KNEE.x,RIGHT_KNEE.y,RIGHT_KNEE.z,RIGHT_KNEE.v,LEFT_ANKLE.x,LEFT_ANKLE.y,LEFT_ANKLE.z,LEFT_ANKLE.v,RIGHT_ANKLE.x,RIGHT_ANKLE.y,RIGHT_ANKLE.z,RIGHT_ANKLE.v,LEFT_HEEL.x,LEFT_HEEL.y,LEFT_HEEL.z,LEFT_HEEL.v,RIGHT_HEEL.x,RIGHT_HEEL.y,RIGHT_HEEL.z,RIGHT_HEEL.v,LEFT_FOOT_INDEX.x,LEFT_FOOT_INDEX.y,LEFT_FOOT_INDEX.z,LEFT_FOOT_INDEX.v,RIGHT_FOOT_INDEX.x,RIGHT_FOOT_INDEX.y,RIGHT_FOOT_INDEX.z,RIGHT_FOOT_INDEX.v
0,0.44505375623703003,0.2545078694820404,-0.400188148021698,0.9999946355819702,0.4500880241394043,0.24418574571609497,-0.38330593705177307,0.9999868869781494,0.453082799911499,0.24455608427524567,-0.3833112120628357,0.9999861717224121,0.45603498816490173,0.24502409994602203,-0.3833579421043396,0.9999865293502808,0.4414629340171814,0.24395574629306793,-0.38225093483924866,0.9999866485595703,0.43851909041404724,0.24416431784629822,-0.38232943415641785,0.9999854564666748,0.4356003403663635,0.24444660544395447,-0.38233810663223267,0.999984860420227,0.4629088342189789,0.2528035640716553,-0.27163049578666687,0.9999569654464722,0.4327322840690613,0.2521829605102539,-0.26811090111732483,0.9999680519104004,0.45170602202415466,0.2674080729484558,-0.35844290256500244,0.9999818801879883,0.43991899490356445,0.26791614294052124,-0.35761240124702454,0.9999825954437256,0.4858993589878082,0.3364660143852234,-0.18501967191696167,0.9998190999031067,0.40940195322036743,0.32368287444114685,-0.17362080514431,0.9999535083770752,0.49562937021255493,0.4127007722854614,-0.14117781817913055,0.9510712027549744,0.393326997756958,0.3988594710826874,-0.11787273734807968,0.9722899198532104,0.5045403838157654,0.4809007942676544,-0.21071510016918182,0.8318033814430237,0.3831004798412323,0.47181475162506104,-0.1893681436777115,0.9001021981239319,0.5063532590866089,0.5015004873275757,-0.23465602099895477,0.711607813835144,0.3818519711494446,0.4958476126194,-0.2144092321395874,0.8152649998664856,0.5038000345230103,0.5003466010093689,-0.2669450342655182,0.7248402237892151,0.38869553804397583,0.4953935444355011,-0.2490294873714447,0.826773464679718,0.5010210275650024,0.4933573007583618,-0.22518806159496307,0.6758614182472229,0.3911561667919159,0.487434983253479,-0.20516875386238098,0.8121500611305237,0.47438687086105347,0.4822954535484314,0.00013228946772869676,0.9997970461845398,0.4251803755760193,0.4785849452018738,-0.00023126884480006993,0.9998732805252075,0.4964490532875061,0.5962135791778564,0.003053143387660384,0.9945446252822876,0.4040125012397766,0.6017622351646423,0.0007634280482307076,0.9965984225273132,0.5185253024101257,0.7206259965896606,0.1233113557100296,0.9969773292541504,0.38016337156295776,0.7221723794937134,0.14072522521018982,0.9972041845321655,0.5117810964584351,0.7401501536369324,0.12695251405239105,0.9434872269630432,0.38532429933547974,0.7412691712379456,0.14610163867473602,0.9277558326721191,0.5387810468673706,0.7572404742240906,-0.0036254865117371082,0.9925284385681152,0.36309659481048584,0.7604900002479553,0.016596952453255653,0.9928016662597656
1,0.44552773237228394,0.254344642162323,-0.3958706855773926,0.9999943971633911,0.4506097435951233,0.24418669939041138,-0.37842708826065063,0.9999865889549255,0.45369085669517517,0.2445620447397232,-0.3784453570842743,0.999985933303833,0.4566923677921295,0.2450302094221115,-0.3785044550895691,0.9999863505363464,0.44170650839805603,0.24395762383937836,-0.37674057483673096,0.9999862909317017,0.43869835138320923,0.24418330192565918,-0.37682101130485535,0.9999850392341614,0.4357629418373108,0.24450775980949402,-0.376836359500885,0.9999845027923584,0.46337518095970154,0.25278159976005554,-0.26836270093917847,0.9999569654464722,0.4328567087650299,0.25228822231292725,-0.2615370750427246,0.9999675154685974,0.452622652053833,0.26732149720191956,-0.35514891147613525,0.9999817609786987,0.44059595465660095,0.26777976751327515,-0.35340937972068787,0.9999822378158569,0.48833760619163513,0.33663100004196167,-0.18554916977882385,0.9998158812522888,0.4098890423774719,0.32368186116218567,-0.16439683735370636,0.9999501705169678,0.4971506595611572,0.41312795877456665,-0.15054085850715637,0.9509081840515137,0.3927861452102661,0.398874431848526,-0.09926921874284744,0.9702532291412354,0.5049687623977661,0.4822680354118347,-0.2182466685771942,0.8271723389625549,0.38194164633750916,0.47122353315353394,-0.15302152931690216,0.8923091888427734,0.5063988566398621,0.5022855997085571,-0.24177952110767365,0.705942690372467,0.37969744205474854,0.49460288882255554,-0.17487487196922302,0.8043986558914185,0.5037935376167297,0.5016297698020935,-0.2729063332080841,0.7189968824386597,0.385660856962204,0.49443647265434265,-0.20821575820446014,0.8161346912384033,0.5012889504432678,0.4943021535873413,-0.23201826214790344,0.6695866584777832,0.3892458379268646,0.4870573580265045,-0.16804659366607666,0.8014954924583435,0.4746713638305664,0.4816063642501831,-0.002227494027465582,0.9997960329055786,0.42588749527931213,0.478211909532547,0.002157110720872879,0.9998735189437866,0.4963485598564148,0.5962305665016174,-0.015378941781818867,0.9943485260009766,0.40400275588035583,0.600571870803833,-0.029723066836595535,0.9966070055961609,0.5186114311218262,0.7208431959152222,0.09875991940498352,0.9969349503517151,0.38049131631851196,0.7221786975860596,0.102732814848423,0.997199296951294,0.5122186541557312,0.7401555180549622,0.10154865682125092,0.9421613812446594,0.38608458638191223,0.7412607669830322,0.1073528304696083,0.9280709028244019,0.5391998887062073,0.7579709887504578,-0.03352990001440048,0.992393970489502,0.36320212483406067,0.7604925632476807,-0.024425141513347626,0.9927758574485779
2,0.4461034834384918,0.2540750205516815,-0.41130438446998596,0.9999942183494568,0.45118317008018494,0.2441846877336502,-0.39343544840812683,0.9999863505363464,0.45438432693481445,0.2445726841688156,-0.3934592306613922,0.9999856948852539,0.4574771523475647,0.24506378173828125,-0.3935334086418152,0.9999863505363464,0.44204989075660706,0.24389907717704773,-0.3920654058456421,0.9999860525131226,0.4390459656715393,0.2441408932209015,-0.3921459913253784,0.9999847412109375,0.4361096918582916,0.24448803067207336,-0.39214715361595154,0.9999842047691345,0.46389275789260864,0.25280091166496277,-0.28391969203948975,0.9999573230743408,0.43297719955444336,0.2522900104522705,-0.2781248688697815,0.9999668598175049,0.4536064565181732,0.26729586720466614,-0.3712504506111145,0.9999822974205017,0.4413381516933441,0.2675563395023346,-0.3697729706764221,0.9999824166297913,0.49165987968444824,0.3366393744945526,-0.20588648319244385,0.9998254179954529,0.40966588258743286,0.3246498703956604,-0.17837581038475037,0.9999474883079529,0.5065993070602417,0.4116894006729126,-0.17598463594913483,0.954495906829834,0.3885215222835541,0.39936506748199463,-0.10504267364740372,0.9699852466583252,0.5173423290252686,0.48028457164764404,-0.24136897921562195,0.8374944925308228,0.37650346755981445,0.4730221927165985,-0.15931788086891174,0.8891599178314209,0.5208646059036255,0.5017017126083374,-0.26480621099472046,0.7201401591300964,0.373879075050354,0.4962446093559265,-0.18053168058395386,0.7984723448753357,0.5152219533920288,0.5004832148551941,-0.29497429728507996,0.7326197624206543,0.3803172707557678,0.4961191713809967,-0.2135160267353058,0.8103728890419006,0.5119062066078186,0.4931209981441498,-0.25423723459243774,0.6843843460083008,0.3835700452327728,0.48812970519065857,-0.1739807426929474,0.7955073118209839,0.4754665493965149,0.4816208779811859,-0.0028759019915014505,0.9997984170913696,0.42588573694229126,0.4786531329154968,0.002802404807880521,0.999872624874115,0.4964408874511719,0.596325695514679,-0.015879888087511063,0.9943845272064209,0.4039808213710785,0.6003753542900085,-0.028955694288015366,0.9966503381729126,0.5187152624130249,0.7208885550498962,0.10619185119867325,0.9969685673713684,0.38054409623146057,0.7219681143760681,0.1111503392457962,0.9972238540649414,0.5126999616622925,0.7401028275489807,0.10937132686376572,0.9414847493171692,0.3861914873123169,0.741008996963501,0.1162666529417038,0.9284242391586304,0.5394646525382996,0.7582845687866211,-0.02392960712313652,0.9924128651618958,0.36320310831069946,0.7604888677597046,-0.016726553440093994,0.9928237199783325
3,0.4462863504886627,0.25408437848091125,-0.4437597393989563,0.9999945759773254,0.4515003263950348,0.24436022341251373,-0.42471933364868164,0.9999872446060181,0.4548203945159912,0.24479793012142181,-0.42474326491355896,0.9999866485595703,0.457980215549469,0.24530838429927826,-0.42482638359069824,0.9999873638153076,0.4420756697654724,0.2440313994884491,-0.4229230284690857,0.9999868869781494,0.4390449523925781,0.24432975053787231,-0.42300185561180115,0.9999855756759644,0.43609222769737244,0.24476419389247894,-0.4229861795902252,0.9999850392341614,0.46428871154785156,0.25283560156822205,-0.3099168837070465,0.9999606013298035,0.4329208433628082,0.2524860203266144,-0.302529513835907,0.9999685287475586,0.45404052734375,0.2674097716808319,-0.4018324017524719,0.9999836683273315,0.44142165780067444,0.26764267683029175,-0.39984530210494995,0.999983549118042,0.49282822012901306,0.3381943702697754,-0.2296408861875534,0.9998403787612915,0.4095168709754944,0.32721689343452454,-0.192316934466362,0.9999445080757141,0.5123409032821655,0.41131335496902466,-0.2029246836900711,0.958595871925354,0.38553231954574585,0.4004215896129608,-0.11536376178264618,0.968977153301239,0.5283018946647644,0.4811067581176758,-0.2689976990222931,0.852088212966919,0.3715042769908905,0.4765619933605194,-0.16436763107776642,0.8879408240318298,0.531710684299469,0.5021547079086304,-0.2940559983253479,0.7436701059341431,0.36643874645233154,0.4984622001647949,-0.1847374141216278,0.7962325811386108,0.5243052244186401,0.501634418964386,-0.32446879148483276,0.7551602721214294,0.3727879822254181,0.49845802783966064,-0.2196984589099884,0.8082718253135681,0.5220972299575806,0.49436554312705994,-0.28163331747055054,0.7100417017936707,0.37719714641571045,0.49111080169677734,-0.17973151803016663,0.793777346611023,0.47561177611351013,0.4819079339504242,-0.005220847204327583,0.9998083710670471,0.4259110391139984,0.47920525074005127,0.005162900313735008,0.9998738765716553,0.4966104030609131,0.5968725681304932,-0.04620594158768654,0.9944506883621216,0.40361031889915466,0.6003856658935547,-0.05372948572039604,0.9966443181037903,0.5187162160873413,0.7216627597808838,0.07481145858764648,0.9970260262489319,0.3806312680244446,0.7219039797782898,0.09411550313234329,0.9972254633903503,0.512781023979187,0.7403737306594849,0.07764677703380585,0.9415441751480103,0.3863421082496643,0.7406309247016907,0.09973620623350143,0.9289613366127014,0.5394550561904907,0.7587118744850159,-0.06039831042289734,0.9924468398094177,0.3632231056690216,0.7604752779006958,-0.03428218513727188,0.9928157925605774
4,0.44666773080825806,0.2548004388809204,-0.4404420852661133,0.9999947547912598,0.451774537563324,0.24491916596889496,-0.4221671223640442,0.999987781047821,0.4550764560699463,0.24545560777187347,-0.4221944808959961,0.9999872446060181,0.458183228969574,0.24606342613697052,-0.42227286100387573,0.9999880194664001,0.44211244583129883,0.24456407129764557,-0.42022305727005005,0.9999874234199524,0.4390451908111572,0.24495306611061096,-0.42030811309814453,0.9999861121177673,0.43608608841896057,0.2454991489648819,-0.4202961027622223,0.9999855756759644,0.4642782211303711,0.25409460067749023,-0.3107334077358246,0.9999628663063049,0.4328056871891022,0.2536100149154663,-0.3024933338165283,0.9999696612358093,0.4543183743953705,0.2691633999347687,-0.3999466896057129,0.9999846816062927,0.44148173928260803,0.2690995931625366,-0.39771339297294617,0.9999843835830688,0.4946041703224182,0.34030821919441223,-0.2346782386302948,0.9998515248298645,0.4095171391963959,0.32935574650764465,-0.19534821808338165,0.9999423623085022,0.5172632932662964,0.4117509722709656,-0.2174915075302124,0.9620034694671631,0.38589200377464294,0.40504395961761475,-0.11735407263040543,0.9684163928031921,0.5352755784988403,0.48526903986930847,-0.2938559651374817,0.8619948029518127,0.3703019917011261,0.48075658082962036,-0.15636825561523438,0.8828100562095642,0.5396953225135803,0.5068992376327515,-0.3205265402793884,0.7572757005691528,0.36545565724372864,0.5032215714454651,-0.17557889223098755,0.786860466003418,0.5324448347091675,0.508001446723938,-0.35231688618659973,0.7683978080749512,0.3701365888118744,0.5046733617782593,-0.2099512368440628,0.7994081377983093,0.5295766592025757,0.5005647540092468,-0.30788373947143555,0.7250583171844482,0.37400123476982117,0.49722808599472046,-0.1715184599161148,0.7856222987174988,0.47688040137290955,0.4841920733451843,-0.006426264997571707,0.9998094439506531,0.426771342754364,0.4817991852760315,0.006381296552717686,0.9998705983161926,0.49843740463256836,0.6011822819709778,-0.03423891216516495,0.9944830536842346,0.40337103605270386,0.6006520390510559,-0.04987780377268791,0.9966612458229065,0.5190564393997192,0.7217673659324646,0.10382014513015747,0.9970438480377197,0.3807530999183655,0.7217859625816345,0.12143659591674805,0.9972095489501953,0.5132136344909668,0.7403977513313293,0.10862001031637192,0.9401912689208984,0.38639867305755615,0.7402938604354858,0.12769892811775208,0.9286318421363831,0.5390516519546509,0.7587555050849915,-0.03612750023603439,0.9923977851867676,0.36324194073677063,0.7606198787689209,-0.010623684152960777,0.9927701950073242
5,0.44666600227355957,0.25732624530792236,-0.43744969367980957,0.9999947547912598,0.4517062306404114,0.24802939593791962,-0.41996249556541443,0.999987781047821,0.45499736070632935,0.24843797087669373,-0.41998881101608276,0.9999873042106628,0.45812177658081055,0.24883964657783508,-0.42006731033325195,0.9999882578849792,0.4421319365501404,0.24792857468128204,-0.41735830903053284,0.9999873638153076,0.43914079666137695,0.24837136268615723,-0.41744765639305115,0.9999860525131226,0.43628138303756714,0.24895259737968445,-0.4174440801143646,0.9999855160713196,0.46412959694862366,0.2563181221485138,-0.3103312849998474,0.9999642372131348,0.4331905245780945,0.25672590732574463,-0.2985692620277405,0.9999692440032959,0.4542757570743561,0.2707892954349518,-0.39730924367904663,0.99998539686203,0.4416100084781647,0.2707764208316803,-0.3940430283546448,0.9999848008155823,0.4951452314853668,0.3404349982738495,-0.23168615996837616,0.9998621344566345,0.4095810055732727,0.3315739333629608,-0.19147229194641113,0.9999421834945679,0.520646333694458,0.4112093150615692,-0.21126556396484375,0.9653796553611755,0.38541537523269653,0.40708377957344055,-0.12174741178750992,0.9694382548332214,0.543265700340271,0.48491376638412476,-0.2907383143901825,0.8731061220169067,0.36763858795166016,0.4854392111301422,-0.18532219529151917,0.8871630430221558,0.5485087633132935,0.5066772699356079,-0.31816136837005615,0.7742322683334351,0.3619807958602905,0.507475733757019,-0.20977887511253357,0.7926486730575562,0.5426315069198608,0.5078840851783752,-0.3518231213092804,0.7848303318023682,0.36461180448532104,0.5095377564430237,-0.2468799650669098,0.8050958514213562,0.5392985343933105,0.500514805316925,-0.3055773675441742,0.7438947558403015,0.3682257831096649,0.502608060836792,-0.20264777541160583,0.7913054823875427,0.4776219427585602,0.48438140749931335,-0.006557234562933445,0.999809980392456,0.42760056257247925,0.4825945198535919,0.006522392388433218,0.9998680949211121,0.5008878707885742,0.6020867824554443,-0.04364731162786484,0.9945871829986572,0.4018579125404358,0.6006779074668884,-0.044976476579904556,0.996738612651825,0.5202292203903198,0.7225345373153687,0.0765971764922142,0.9970853328704834,0.3807283639907837,0.7217817902565002,0.09401516616344452,0.9972397685050964,0.5146800875663757,0.7408584952354431,0.07936427742242813,0.939228355884552,0.38608139753341675,0.7402984499931335,0.0981595441699028,0.9289879202842712,0.5390511751174927,0.7588087916374207,-0.06295135617256165,0.9924129843711853,0.3634128272533417,0.7607735991477966,-0.03835621476173401,0.9928082227706909
6,0.4466184079647064,0.26880210638046265,-0.437603235244751,0.9999949336051941,0.4516458511352539,0.2590807378292084,-0.42010927200317383,0.9999881982803345,0.45495256781578064,0.25936901569366455,-0.4201294481754303,0.999987781047821,0.45810455083847046,0.259652704000473,-0.4202083945274353,0.9999887347221375,0.4421185553073883,0.25891339778900146,-0.41746020317077637,0.9999878406524658,0.43913763761520386,0.259182333946228,-0.4175631105899811,0.9999865889549255,0.4362794756889343,0.25956565141677856,-0.4175589978694916,0.9999861121177673,0.4641209542751312,0.26701122522354126,-0.3107670545578003,0.9999662637710571,0.43322786688804626,0.2665153741836548,-0.2987339496612549,0.9999706149101257,0.45417460799217224,0.2824506461620331,-0.3975442051887512,0.9999861717224121,0.4415225088596344,0.2831113040447235,-0.3941519260406494,0.9999854564666748,0.4954461455345154,0.3441290855407715,-0.22951562702655792,0.999871015548706,0.40999674797058105,0.33613112568855286,-0.1925002485513687,0.9999437928199768,0.5237250924110413,0.41122734546661377,-0.21036577224731445,0.9683417081832886,0.38514986634254456,0.40986818075180054,-0.12867388129234314,0.9707968235015869,0.547866940498352,0.4831831753253937,-0.2884335517883301,0.8823354840278625,0.36541640758514404,0.4883688688278198,-0.18653811514377594,0.8920456171035767,0.5540396571159363,0.5051095485687256,-0.31360530853271484,0.7875763773918152,0.3586142063140869,0.5086538195610046,-0.20887491106987,0.7988201379776001,0.5494868159294128,0.5068649053573608,-0.3453730642795563,0.7978515028953552,0.3617774248123169,0.5109118819236755,-0.24434223771095276,0.8109847903251648,0.5459207892417908,0.4996629059314728,-0.3027537763118744,0.7588599324226379,0.36549803614616394,0.5043129920959473,-0.20290252566337585,0.7975306510925293,0.4775415360927582,0.4889938533306122,-0.006646303925663233,0.9998111128807068,0.4277738034725189,0.4860175848007202,0.006621873937547207,0.9998685121536255,0.5050568580627441,0.6034727692604065,-0.09536489844322205,0.994621992111206,0.39881137013435364,0.6015145778656006,-0.09775097668170929,0.9968017935752869,0.5211138725280762,0.7230415940284729,0.01780000515282154,0.9970879554748535,0.38032805919647217,0.7225401401519775,0.03595062345266342,0.9972397685050964,0.5150532722473145,0.7410318851470947,0.02009357139468193,0.9393426775932312,0.3857693672180176,0.7407707571983337,0.039911601692438126,0.9300582408905029,0.5393282175064087,0.758895218372345,-0.12002058327198029,0.9922950863838196,0.3630623519420624,0.7611175775527954,-0.09470008313655853,0.992690920829773
7,0.44716113805770874,0.3037090003490448,-0.4461688995361328,0.9999954104423523,0.4521327614784241,0.2924850881099701,-0.42876583337783813,0.9999892115592957,0.4554315507411957,0.292656809091568,-0.42873507738113403,0.999988853931427,0.45856133103370667,0.2927161753177643,-0.4287857115268707,0.9999896883964539,0.4423123896121979,0.2920718491077423,-0.42631274461746216,0.9999889135360718,0.4392007291316986,0.2923046946525574,-0.426440954208374,0.999987781047821,0.4362855553627014,0.2926916182041168,-0.4264117181301117,0.9999873638153076,0.46498817205429077,0.29817697405815125,-0.31800082325935364,0.9999693036079407,0.4332272410392761,0.2988625764846802,-0.3066849708557129,0.9999733567237854,0.4546282887458801,0.31528300046920776,-0.40531665086746216,0.9999874234199524,0.4418265223503113,0.31587547063827515,-0.4021126627922058,0.9999867081642151,0.4961141049861908,0.366472452878952,-0.22360341250896454,0.9998827576637268,0.4106290936470032,0.3640555441379547,-0.1933995932340622,0.9999478459358215,0.5289731621742249,0.41898947954177856,-0.15513858199119568,0.9711467027664185,0.38257721066474915,0.4243107736110687,-0.0871748998761177,0.9730480313301086,0.5543849468231201,0.48190033435821533,-0.18201863765716553,0.8921924829483032,0.36520975828170776,0.4990559220314026,-0.04707926884293556,0.9005737900733948,0.563589870929718,0.5036712288856506,-0.19135424494743347,0.8030157089233398,0.3591523766517639,0.5173247456550598,-0.04823366925120354,0.8116815090179443,0.5599033832550049,0.5048529505729675,-0.2224128246307373,0.8128927946090698,0.3642990291118622,0.5196513533592224,-0.07603515684604645,0.8227751851081848,0.5559068918228149,0.49830636382102966,-0.19454079866409302,0.7763562798500061,0.3681900203227997,0.5139719843864441,-0.05684582516551018,0.8101117610931396,0.47754326462745667,0.4990595579147339,-0.007935709320008755,0.9998210072517395,0.4279438853263855,0.49705934524536133,0.007926666177809238,0.9998731017112732,0.5096599459648132,0.6047183275222778,-0.17947092652320862,0.9948005676269531,0.3931041657924652,0.6000811457633972,-0.15339086949825287,0.9969151020050049,0.5229362845420837,0.7247121930122375,-0.05940387398004532,0.9971348643302917,0.37913423776626587,0.7225614786148071,-0.002323698718100786,0.9971979260444641,0.5177730321884155,0.7421026825904846,-0.0554996132850647,0.9394975900650024,0.384554386138916,0.7406613230705261,0.004494622349739075,0.9321300983428955,0.5393960475921631,0.75986248254776,-0.19860735535621643,0.9923624992370605,0.36237072944641113,0.7616287469863892,-0.12384406477212906,0.9925438165664673
8,0.4472065567970276,0.32799968123435974,-0.4293498992919922,0.9999958276748657,0.45197534561157227,0.3160582482814789,-0.41310977935791016,0.9999901652336121,0.45518073439598083,0.31530413031578064,-0.41303619742393494,0.9999898076057434,0.45820632576942444,0.3145914673805237,-0.4130837321281433,0.9999905228614807,0.4422631859779358,0.3177449107170105,-0.4100886285305023,0.9999898672103882,0.4391152262687683,0.31811296939849854,-0.4102207124233246,0.9999889135360718,0.4361369013786316,0.3184655010700226,-0.41015344858169556,0.9999884963035583,0.4644719660282135,0.31744349002838135,-0.2994309365749359,0.9999721646308899,0.43322667479515076,0.32214003801345825,-0.28513309359550476,0.999975860118866,0.45480799674987793,0.33823296427726746,-0.3862677216529846,0.9999885559082031,0.44252604246139526,0.34036919474601746,-0.382124125957489,0.9999879002571106,0.49607282876968384,0.38033029437065125,-0.18072837591171265,0.9998936653137207,0.4136165678501129,0.3792589008808136,-0.17166736721992493,0.9999514818191528,0.5277625322341919,0.42645207047462463,-0.06785821169614792,0.9737414121627808,0.3828190863132477,0.43431952595710754,-0.04695659875869751,0.9749810099601746,0.5537054538726807,0.4818257689476013,-0.05526803806424141,0.9017302989959717,0.3665302097797394,0.5050501227378845,0.006971634924411774,0.9087210893630981,0.5637334585189819,0.5023877620697021,-0.05430188775062561,0.8186134696006775,0.3607129454612732,0.5213488340377808,0.01044011302292347,0.8247869610786438,0.5602138638496399,0.5028674602508545,-0.08634429425001144,0.828018844127655,0.3657034933567047,0.5241959691047668,-0.01871643029153347,0.8348524570465088,0.5564882159233093,0.4976164698600769,-0.0666927844285965,0.7940265536308289,0.36921456456184387,0.5174984931945801,-0.0025492811109870672,0.8228870630264282,0.47659626603126526,0.5152229070663452,-0.007814442738890648,0.9998316764831543,0.4280072748661041,0.5114034414291382,0.0077896215952932835,0.9998769760131836,0.5132660865783691,0.6053022742271423,-0.20341530442237854,0.9950144290924072,0.3890346884727478,0.600385308265686,-0.1602301150560379,0.997006893157959,0.5245441198348999,0.7255340218544006,-0.08532442152500153,0.9971558451652527,0.3786281943321228,0.7232478260993958,-0.0023459489457309246,0.9971616864204407,0.518268346786499,0.7429426312446594,-0.08122033625841141,0.9416466951370239,0.38427096605300903,0.741741418838501,0.005618846043944359,0.9353079199790955,0.5409470796585083,0.7603775262832642,-0.21619340777397156,0.9924622774124146,0.36183860898017883,0.7619636654853821,-0.11491288989782333,0.9924774765968323
9,0.4472896456718445,0.35134708881378174,-0.4887325167655945,0.9999962449073792,0.45198339223861694,0.3382878601551056,-0.46846890449523926,0.9999911785125732,0.45523491501808167,0.3372924029827118,-0.4683755934238434,0.9999908208847046,0.4582681655883789,0.33636194467544556,-0.46840208768844604,0.9999914765357971,0.4418410658836365,0.34029266238212585,-0.46564364433288574,0.9999908804893494,0.4383895993232727,0.3407488465309143,-0.4657627046108246,0.9999900460243225,0.4352024495601654,0.3412480056285858,-0.4656500220298767,0.9999896287918091,0.4644595682621002,0.3379947543144226,-0.3367762267589569,0.9999749064445496,0.4321882128715515,0.34477469325065613,-0.32252806425094604,0.9999783039093018,0.4553488790988922,0.36274707317352295,-0.4393598139286041,0.9999896883964539,0.4425809383392334,0.36618301272392273,-0.43524545431137085,0.9999890923500061,0.4958033561706543,0.3993980586528778,-0.18846170604228973,0.9999040961265564,0.4148738384246826,0.40159347653388977,-0.17876453697681427,0.9999547004699707,0.525070309638977,0.43737804889678955,-0.008562802337110043,0.9762073159217834,0.384914368391037,0.45240533351898193,-0.0014709786046296358,0.9768055081367493,0.553031861782074,0.4823901951313019,0.07504768669605255,0.911259114742279,0.3673011362552643,0.5118772983551025,0.1358691304922104,0.9169967770576477,0.5656144618988037,0.5023685097694397,0.0927555188536644,0.8356940746307373,0.36135420203208923,0.5278993248939514,0.15713118016719818,0.8394554257392883,0.561291515827179,0.5027940273284912,0.05709885433316231,0.8443472981452942,0.3668425977230072,0.5290066003799438,0.12682239711284637,0.8485815525054932,0.5561370253562927,0.4973604083061218,0.06520281732082367,0.813481867313385,0.37010854482650757,0.5232169032096863,0.12962840497493744,0.8377779126167297,0.4756101071834564,0.5316615700721741,-0.007852367125451565,0.9998444318771362,0.4279910922050476,0.5276277661323547,0.007843365892767906,0.9998825192451477,0.5155596137046814,0.6101969480514526,-0.22930093109607697,0.9953148365020752,0.3868749141693115,0.6046274304389954,-0.20883044600486755,0.9970066547393799,0.5254780054092407,0.7255197167396545,-0.08393330127000809,0.9972246885299683,0.37823107838630676,0.7234665155410767,-0.03946949914097786,0.9970803260803223,0.5182781219482422,0.7428891658782959,-0.0776090994477272,0.944556474685669,0.3841146230697632,0.7417347431182861,-0.03031613491475582,0.9388297200202942,0.5409103631973267,0.7609995007514954,-0.20347440242767334,0.9927718639373779,0.36173301935195923,0.7619205117225647,-0.14700497686862946,0.9926587343215942
10,0.4473850131034851,0.36932623386383057,-0.46155571937561035,0.9999966025352478,0.45197176933288574,0.3569256067276001,-0.43505555391311646,0.9999919533729553,0.45522794127464294,0.3560216724872589,-0.4350813329219818,0.9999915957450867,0.4582490026950836,0.3552717864513397,-0.4351933002471924,0.9999921917915344,0.44182270765304565,0.35963374376296997,-0.43176597356796265,0.9999916553497314,0.4383869171142578,0.3605089783668518,-0.43187323212623596,0.9999909400939941,0.4352099895477295,0.36138883233070374,-0.4318200647830963,0.9999905228614807,0.4642663896083832,0.35910817980766296,-0.2998875081539154,0.9999772310256958,0.43224796652793884,0.36625242233276367,-0.28588277101516724,0.9999803304672241,0.4554978013038635,0.38028857111930847,-0.408135324716568,0.9999906420707703,0.44293221831321716,0.383667528629303,-0.40314817428588867,0.9999900460243225,0.4943034052848816,0.419923335313797,-0.1884434074163437,0.9999117255210876,0.41648101806640625,0.4218664765357971,-0.17888090014457703,0.999952495098114,0.5250833630561829,0.45914533734321594,-0.19815197587013245,0.9778797030448914,0.38941431045532227,0.471917062997818,-0.20613372325897217,0.9777014255523682,0.5505584478378296,0.4931653141975403,-0.3277382254600525,0.9181413054466248,0.37890106439590454,0.5118137001991272,-0.33481061458587646,0.9229958653450012,0.562985360622406,0.5076887011528015,-0.35958313941955566,0.8478072285652161,0.37198883295059204,0.5273639559745789,-0.36566561460494995,0.8506176471710205,0.5576725602149963,0.5071141719818115,-0.38168662786483765,0.8560646772384644,0.37655094265937805,0.526955246925354,-0.3840026557445526,0.8587138056755066,0.552392840385437,0.5032429695129395,-0.3399530053138733,0.8264286518096924,0.38083797693252563,0.5184929966926575,-0.34525224566459656,0.8474426865577698,0.47489437460899353,0.5464804172515869,-0.007827608846127987,0.9998511672019958,0.4279804825782776,0.5444185733795166,0.007805772125720978,0.9998834729194641,0.5204344987869263,0.6124323606491089,-0.25585442781448364,0.9948627948760986,0.385856568813324,0.6140291690826416,-0.24282348155975342,0.9968839287757874,0.5265418291091919,0.7260910868644714,-0.08679661899805069,0.9966318011283875,0.3782500624656677,0.7272185683250427,-0.06086544319987297,0.99693363904953,0.5185883045196533,0.7430559396743774,-0.078536257147789,0.9434165358543396,0.3850705027580261,0.7445136904716492,-0.05044306069612503,0.9411312341690063,0.5435110330581665,0.7609841823577881,-0.20967812836170197,0.9915396571159363,0.361720472574234,0.7621327042579651,-0.17213407158851624,0.9921332001686096
11,0.4473733901977539,0.39262765645980835,-0.43573516607284546,0.9999967217445374,0.45200228691101074,0.3810729384422302,-0.4139614701271057,0.999992311000824,0.4553736746311188,0.3806874454021454,-0.41398781538009644,0.9999919533729553,0.4584617018699646,0.3804432153701782,-0.4140893816947937,0.9999921917915344,0.44163140654563904,0.38223016262054443,-0.4129984378814697,0.9999918937683105,0.43822765350341797,0.38265475630760193,-0.4130752682685852,0.9999912977218628,0.4351341128349304,0.383193701505661,-0.41306763887405396,0.9999907612800598,0.46432819962501526,0.38405323028564453,-0.2884766161441803,0.99997878074646,0.4321897625923157,0.387713760137558,-0.2824261784553528,0.9999817609786987,0.45564255118370056,0.40470996499061584,-0.38790762424468994,0.9999912977218628,0.4428333342075348,0.4068179428577423,-0.3863368630409241,0.9999908208847046,0.49118438363075256,0.44094058871269226,-0.19001363217830658,0.9999115467071533,0.41615182161331177,0.44998130202293396,-0.1965281367301941,0.9999439120292664,0.5257904529571533,0.4914788603782654,-0.34866708517074585,0.9777891039848328,0.38976407051086426,0.5173450112342834,-0.3507302701473236,0.9781145453453064,0.5259991884231567,0.4949474036693573,-0.5744336843490601,0.9208060503005981,0.3975486159324646,0.5077913403511047,-0.5750367045402527,0.927352786064148,0.5271221995353699,0.49844250082969666,-0.6223339438438416,0.8531794548034668,0.40276122093200684,0.50826096534729,-0.620373010635376,0.8591635823249817,0.5232061743736267,0.49073871970176697,-0.6141093969345093,0.8598164916038513,0.40456968545913696,0.49840161204338074,-0.6144782304763794,0.8652359843254089,0.5197762250900269,0.4932883679866791,-0.5765945315361023,0.8239912986755371,0.40596717596054077,0.5006987452507019,-0.5776928663253784,0.8491714596748352,0.47456440329551697,0.5628770589828491,-0.0038074287585914135,0.9998435378074646,0.4274821877479553,0.563751220703125,0.003839021548628807,0.9998763203620911,0.5241624116897583,0.6156538724899292,-0.31669819355010986,0.9945319890975952,0.3855864703655243,0.617257833480835,-0.32417839765548706,0.9965723156929016,0.5268048048019409,0.7260620594024658,-0.09144176542758942,0.9958947896957397,0.3782396912574768,0.7285407781600952,-0.08868734538555145,0.9969008564949036,0.5184613466262817,0.743007242679596,-0.07727857679128647,0.9448068141937256,0.3860020339488983,0.7445074915885925,-0.07314416766166687,0.9438315629959106,0.5452209711074829,0.7605921626091003,-0.20451553165912628,0.9897364974021912,0.36168748140335083,0.7621318101882935,-0.203041672706604,0.9916067719459534
12,0.4484402537345886,0.43546485900878906,-0.2536669671535492,0.9999953508377075,0.4530111253261566,0.4236770272254944,-0.2356080710887909,0.9999900460243225,0.45629334449768066,0.423482745885849,-0.23565521836280823,0.99998939037323,0.4592369496822357,0.4234205484390259,-0.23571434617042542,0.9999886155128479,0.44242700934410095,0.42449653148651123,-0.23637518286705017,0.9999886155128479,0.4389592111110687,0.4251248240470886,-0.23640139400959015,0.9999880790710449,0.4359995722770691,0.42589616775512695,-0.23637834191322327,0.9999865889549255,0.4651334285736084,0.4277323782444,-0.1292058825492859,0.9999765753746033,0.43252524733543396,0.4311408996582031,-0.13187292218208313,0.9999796152114868,0.4559862017631531,0.4472495913505554,-0.21413078904151917,0.9999902844429016,0.4435468316078186,0.4485255181789398,-0.21503274142742157,0.9999901652336121,0.48989295959472656,0.4759007394313812,-0.08149516582489014,0.9998862147331238,0.4159039855003357,0.4818708598613739,-0.08534970879554749,0.9999142289161682,0.5056988000869751,0.5141007900238037,-0.2469480335712433,0.9752870202064514,0.40048059821128845,0.5404950976371765,-0.2379564493894577,0.9766427874565125,0.4910189211368561,0.5059558153152466,-0.46643465757369995,0.9213811159133911,0.41213861107826233,0.5225601196289062,-0.4457988739013672,0.9293410778045654,0.49067139625549316,0.5055972337722778,-0.5159593820571899,0.8572329878807068,0.4138888716697693,0.5181552171707153,-0.49008068442344666,0.8650670051574707,0.48589977622032166,0.4956081211566925,-0.5066288709640503,0.8627771139144897,0.41608190536499023,0.503139317035675,-0.4872441291809082,0.8698458671569824,0.4840213656425476,0.5008185505867004,-0.4692196249961853,0.8223260045051575,0.4171903729438782,0.5107797384262085,-0.4499865472316742,0.8493578433990479,0.4733073115348816,0.5938407778739929,-0.0014403245877474546,0.9998385310173035,0.42727890610694885,0.5931866765022278,0.0015182271599769592,0.9998688101768494,0.5259014368057251,0.6153700351715088,-0.3080427050590515,0.994655966758728,0.38359472155570984,0.6221281886100769,-0.313637912273407,0.996620237827301,0.5265527963638306,0.7256696224212646,-0.13755850493907928,0.9954774975776672,0.3777235150337219,0.7301358580589294,-0.13483065366744995,0.9968690872192383,0.5180650353431702,0.7421261072158813,-0.12657642364501953,0.9472377896308899,0.3856350779533386,0.7449098825454712,-0.1228107437491417,0.9466090798377991,0.5448645353317261,0.7598737478256226,-0.23858292400836945,0.9890024065971375,0.3603922724723816,0.7622016668319702,-0.23809245228767395,0.991248607635498
13,0.4485035538673401,0.4541316330432892,-0.3063531219959259,0.9999916553497314,0.45289745926856995,0.44174715876579285,-0.288324773311615,0.9999827146530151,0.45615965127944946,0.4412301182746887,-0.2883658707141876,0.9999828934669495,0.45905327796936035,0.4407886564731598,-0.2884206175804138,0.9999779462814331,0.4424187242984772,0.44389015436172485,-0.28763440251350403,0.9999794960021973,0.4389539361000061,0.4450978636741638,-0.28768306970596313,0.9999804496765137,0.4359932839870453,0.4464135468006134,-0.287687212228775,0.9999738335609436,0.464979350566864,0.4456956088542938,-0.18101626634597778,0.9999727606773376,0.43185362219810486,0.4535995423793793,-0.1760452389717102,0.9999753832817078,0.4560505449771881,0.4658872187137604,-0.26638832688331604,0.9999881386756897,0.44415631890296936,0.4682655334472656,-0.26518237590789795,0.9999879002571106,0.4907299876213074,0.49474743008613586,-0.1401144564151764,0.9998571276664734,0.4156036376953125,0.49830755591392517,-0.1274571716785431,0.9998854994773865,0.5035857558250427,0.5264566540718079,-0.3581719696521759,0.9731268882751465,0.39950698614120483,0.5468032956123352,-0.3307541012763977,0.9749297499656677,0.47816258668899536,0.5187942385673523,-0.5961482524871826,0.9175578951835632,0.41113871335983276,0.5273549556732178,-0.565045952796936,0.9238258600234985,0.4735717177391052,0.5175367593765259,-0.646904706954956,0.856314480304718,0.416728675365448,0.524293839931488,-0.6141872406005859,0.8608097434043884,0.47029954195022583,0.5115816593170166,-0.6332114338874817,0.858983039855957,0.42026567459106445,0.5170677900314331,-0.6022124886512756,0.8619921803474426,0.469853013753891,0.5148589611053467,-0.5972641706466675,0.8088880777359009,0.4204903244972229,0.5225209593772888,-0.5671467185020447,0.8296883702278137,0.474280446767807,0.6089827418327332,-0.0016540322685614228,0.9998378157615662,0.42850637435913086,0.6082688570022583,0.001696395454928279,0.9998676776885986,0.5269078016281128,0.6251544952392578,-0.3385362923145294,0.9942935109138489,0.3825409412384033,0.625287652015686,-0.33019688725471497,0.9965494871139526,0.5263856649398804,0.7258298993110657,-0.16179928183555603,0.9939987063407898,0.37650004029273987,0.7309227585792542,-0.16003583371639252,0.9968327283859253,0.5180983543395996,0.742367148399353,-0.15110675990581512,0.9472479224205017,0.3847608268260956,0.7450231313705444,-0.14988969266414642,0.9488257169723511,0.5448821187019348,0.7596652507781982,-0.2727378010749817,0.9870215058326721,0.358274906873703,0.7617378830909729,-0.27207618951797485,0.991015613079071
14,0.4484728276729584,0.474337100982666,-0.19334477186203003,0.9999915957450867,0.4523283839225769,0.46254608035087585,-0.17711828649044037,0.999983012676239,0.4553200602531433,0.4622299075126648,-0.17715254426002502,0.9999833703041077,0.4581270217895508,0.4619174003601074,-0.17719025909900665,0.9999781250953674,0.442420095205307,0.4633622169494629,-0.1768481433391571,0.9999793171882629,0.4390541911125183,0.4640606939792633,-0.17686915397644043,0.9999804496765137,0.43613165616989136,0.4649682343006134,-0.17686134576797485,0.9999729990959167,0.4629082679748535,0.4616648852825165,-0.07936649024486542,0.9999745488166809,0.4318665862083435,0.4683224856853485,-0.0767071321606636,0.9999768733978271,0.45582300424575806,0.48418983817100525,-0.15616324543952942,0.9999886155128479,0.44411760568618774,0.48563939332962036,-0.15582165122032166,0.9999884366989136,0.4877871870994568,0.4985506236553192,-0.06020606681704521,0.9998630881309509,0.41625261306762695,0.5089163184165955,-0.061254214495420456,0.9998914003372192,0.4984443187713623,0.534026026725769,-0.30499622225761414,0.9710710644721985,0.39000803232192993,0.5337640047073364,-0.3011847138404846,0.9758868217468262,0.487743079662323,0.5157032608985901,-0.5533416867256165,0.923179566860199,0.41689300537109375,0.5203115940093994,-0.5327960252761841,0.9283275008201599,0.4883585572242737,0.5143524408340454,-0.6024017333984375,0.8674538731575012,0.42262333631515503,0.5146028995513916,-0.5802969336509705,0.8688203692436218,0.48227137327194214,0.5040013790130615,-0.5872539281845093,0.8692676424980164,0.4267503619194031,0.5077196359634399,-0.5588632822036743,0.8683333396911621,0.4819689691066742,0.5120028257369995,-0.554218590259552,0.8199152946472168,0.4263295531272888,0.5174617171287537,-0.5305229425430298,0.8325591087341309,0.47400182485580444,0.6178557276725769,2.3056463760440238e-06,0.9998485445976257,0.4282527565956116,0.6171730160713196,2.919463895523222e-06,0.999875545501709,0.5259197950363159,0.6229844689369202,-0.3290613293647766,0.9943870902061462,0.3832733631134033,0.624130368232727,-0.3288749158382416,0.9966611862182617,0.5263588428497314,0.725818932056427,-0.21029913425445557,0.9935027956962585,0.3753240704536438,0.7307161688804626,-0.21408315002918243,0.9969174861907959,0.5180166959762573,0.7423655986785889,-0.20512311160564423,0.9500813484191895,0.38367921113967896,0.7449729442596436,-0.20868642628192902,0.952284574508667,0.544726550579071,0.7597655057907104,-0.31546610593795776,0.9868123531341553,0.35730400681495667,0.7616606950759888,-0.319004625082016,0.9913176894187927
15,0.44852933287620544,0.466630756855011,-0.22555851936340332,0.9999831318855286,0.4521416127681732,0.45756304264068604,-0.20650771260261536,0.9999633431434631,0.45511549711227417,0.45782914757728577,-0.20653799176216125,0.9999632835388184,0.4577760696411133,0.4576946794986725,-0.20655620098114014,0.9999531507492065,0.4427579939365387,0.4579439163208008,-0.20553293824195862,0.9999589920043945,0.43989235162734985,0.4585355520248413,-0.20557036995887756,0.9999616742134094,0.43706831336021423,0.4587261378765106,-0.20560388267040253,0.999950647354126,0.4614017605781555,0.45927268266677856,-0.10582200437784195,0.999947190284729,0.4322035312652588,0.4620552361011505,-0.099637970328331,0.9999578595161438,0.4558146595954895,0.47863510251045227,-0.18872372806072235,0.9999752640724182,0.4450480043888092,0.47836312651634216,-0.18722595274448395,0.9999760389328003,0.48534783720970154,0.4986678659915924,-0.08334038406610489,0.9997060298919678,0.41724807024002075,0.5101343989372253,-0.07435055077075958,0.9998658299446106,0.49532565474510193,0.5319085717201233,-0.28408488631248474,0.968431293964386,0.3963550925254822,0.550618588924408,-0.27661776542663574,0.9760233759880066,0.46690982580184937,0.5109652876853943,-0.4664387106895447,0.9245921969413757,0.4272662103176117,0.514164924621582,-0.4583962857723236,0.9317469596862793,0.4620845913887024,0.49982601404190063,-0.5042107701301575,0.8693135976791382,0.43630680441856384,0.49998337030410767,-0.49837803840637207,0.8726388216018677,0.46144208312034607,0.4962092339992523,-0.4910309910774231,0.8691009879112244,0.4370341897010803,0.494222491979599,-0.4781053066253662,0.8693314790725708,0.4620973467826843,0.5044501423835754,-0.46608835458755493,0.8166839480400085,0.4348662793636322,0.5009671449661255,-0.4553315043449402,0.828911542892456,0.47402119636535645,0.625359296798706,-7.810840179445222e-05,0.9998471140861511,0.42866116762161255,0.6254235506057739,4.9045640480471775e-05,0.9998792409896851,0.5257880687713623,0.6218190789222717,-0.30717092752456665,0.9942792057991028,0.3834686577320099,0.6221104860305786,-0.3249645233154297,0.9967504143714905,0.5262935161590576,0.7266113758087158,-0.21594567596912384,0.9925757646560669,0.3748493790626526,0.7304614186286926,-0.2328033447265625,0.996951699256897,0.5180562734603882,0.743100106716156,-0.21285226941108704,0.9526128768920898,0.3828628659248352,0.7452742457389832,-0.22882917523384094,0.9554915428161621,0.5446855425834656,0.759352445602417,-0.325571209192276,0.9865331649780273,0.35737350583076477,0.7615180611610413,-0.3437393605709076,0.9915828108787537
16,0.4483782649040222,0.4751914143562317,-0.2278774082660675,0.9999615550041199,0.451948344707489,0.467142790555954,-0.2122344970703125,0.9999139904975891,0.45476970076560974,0.46727341413497925,-0.21224133670330048,0.9999094605445862,0.4572749733924866,0.4671451151371002,-0.21224792301654816,0.9998877048492432,0.44301366806030273,0.46671897172927856,-0.20992103219032288,0.9999120235443115,0.4404221475124359,0.46669918298721313,-0.20996823906898499,0.9999163746833801,0.4377953112125397,0.4665355682373047,-0.2100025862455368,0.9999037981033325,0.4603347182273865,0.468417763710022,-0.11729792505502701,0.9998615384101868,0.43296918272972107,0.4703029990196228,-0.10527892410755157,0.9999097585678101,0.4541131556034088,0.4844941198825836,-0.1918896585702896,0.9999265074729919,0.4449731409549713,0.48480239510536194,-0.18865947425365448,0.9999364018440247,0.48318037390708923,0.5003498196601868,-0.08778959512710571,0.9995371699333191,0.4176991879940033,0.5103330016136169,-0.06689371168613434,0.9998391270637512,0.4945308566093445,0.5261399745941162,-0.2674747109413147,0.966511070728302,0.38976016640663147,0.5431851744651794,-0.2494279444217682,0.9766222834587097,0.46462637186050415,0.5106533169746399,-0.43438076972961426,0.9246166944503784,0.4253315031528473,0.5113579034805298,-0.4142715036869049,0.9340251684188843,0.45962080359458923,0.4944525957107544,-0.47008270025253296,0.8669257164001465,0.4341403841972351,0.49696043133735657,-0.4492446482181549,0.8730424046516418,0.45896846055984497,0.4933173954486847,-0.4620022177696228,0.8641959428787231,0.4363536238670349,0.49093639850616455,-0.4336431622505188,0.8664095401763916,0.45967379212379456,0.500392496585846,-0.4342619478702545,0.8064674735069275,0.4333290457725525,0.4969184696674347,-0.41170087456703186,0.8206567764282227,0.47389858961105347,0.6282116174697876,-0.0025100966449826956,0.9998312592506409,0.42908263206481934,0.628487765789032,0.002434350783005357,0.9998754858970642,0.5261653065681458,0.622047483921051,-0.2925818860530853,0.9943662285804749,0.383107453584671,0.6243513226509094,-0.2894689738750458,0.9968729615211487,0.5261862874031067,0.7273464798927307,-0.1957317739725113,0.9923084378242493,0.3746364712715149,0.7309473156929016,-0.18755507469177246,0.9969086647033691,0.5182039141654968,0.7434907555580139,-0.19108699262142181,0.9544954299926758,0.3827662169933319,0.7452542781829834,-0.18181061744689941,0.9579355716705322,0.544628381729126,0.7590773105621338,-0.29930970072746277,0.9865362644195557,0.3552907705307007,0.7611473202705383,-0.2873977720737457,0.9916008114814758
17,0.44973284006118774,0.47100260853767395,-0.18823347985744476,0.9999399185180664,0.4525235593318939,0.46440452337265015,-0.17053839564323425,0.9998776912689209,0.45498886704444885,0.46437641978263855,-0.17055538296699524,0.9998711347579956,0.45735329389572144,0.46435225009918213,-0.17057187855243683,0.9998494982719421,0.4449576735496521,0.46436357498168945,-0.17013022303581238,0.9998748302459717,0.4424501359462738,0.4643806517124176,-0.17016269266605377,0.9998787045478821,0.4400644898414612,0.4644075334072113,-0.17019793391227722,0.9998666048049927,0.46022430062294006,0.4683090150356293,-0.07783935219049454,0.9998174905776978,0.4347001016139984,0.46975958347320557,-0.07393737137317657,0.9998703598976135,0.4545589089393616,0.48060500621795654,-0.1540190875530243,0.9998785257339478,0.4466457962989807,0.48109740018844604,-0.15312568843364716,0.9998887777328491,0.48315930366516113,0.5014268755912781,-0.062762051820755,0.999362587928772,0.4174822270870209,0.511922299861908,-0.053773533552885056,0.9997995495796204,0.49734896421432495,0.5272759795188904,-0.26303884387016296,0.9636318683624268,0.3899378180503845,0.540530800819397,-0.24212177097797394,0.9767284989356995,0.4723833501338959,0.5070845484733582,-0.42428627610206604,0.9232692122459412,0.43012166023254395,0.5082812905311584,-0.40140074491500854,0.9342061877250671,0.4649381637573242,0.4911903142929077,-0.4599209427833557,0.8632383942604065,0.4398621618747711,0.4944252669811249,-0.4350326955318451,0.8693385124206543,0.46348458528518677,0.49046480655670166,-0.4541301727294922,0.8585351705551147,0.4406741261482239,0.490398108959198,-0.4229690134525299,0.8590174913406372,0.46402207016944885,0.49706539511680603,-0.4244104325771332,0.7966766357421875,0.4380261301994324,0.49545490741729736,-0.3988214135169983,0.8077069520950317,0.4736897051334381,0.6283978223800659,-0.002629844704642892,0.9998283982276917,0.42903932929039,0.6300747394561768,0.0025365545880049467,0.9998781085014343,0.5253568291664124,0.6245072484016418,-0.29894137382507324,0.9941608309745789,0.38128727674484253,0.6241053938865662,-0.2931996285915375,0.9968672394752502,0.5261673331260681,0.7281399369239807,-0.2074013203382492,0.9913975596427917,0.37476789951324463,0.732051432132721,-0.19749459624290466,0.9967678189277649,0.5181487202644348,0.7441409826278687,-0.2030760943889618,0.9557570815086365,0.38350945711135864,0.746028482913971,-0.19229386746883392,0.9598867297172546,0.5447840690612793,0.7585179805755615,-0.30848705768585205,0.985864520072937,0.35498136281967163,0.7607058882713318,-0.296957403421402,0.9913652539253235
18,0.44873499870300293,0.46589818596839905,-0.21645204722881317,0.9999418258666992,0.4507998824119568,0.4574110209941864,-0.19830240309238434,0.9998822212219238,0.45301946997642517,0.45713943243026733,-0.19830812513828278,0.9998757839202881,0.455192506313324,0.4568871259689331,-0.19831448793411255,0.9998555779457092,0.4442675709724426,0.45731833577156067,-0.19729921221733093,0.9998788237571716,0.44206517934799194,0.45724010467529297,-0.19731929898262024,0.999882698059082,0.43988531827926636,0.45721665024757385,-0.19732524454593658,0.9998714327812195,0.4583723545074463,0.46083080768585205,-0.10425542294979095,0.9998252391815186,0.43451395630836487,0.46300122141838074,-0.09800049662590027,0.9998748302459717,0.4531663954257965,0.47542351484298706,-0.18226636946201324,0.9998825192451477,0.44600266218185425,0.47603532671928406,-0.18065091967582703,0.9998923540115356,0.48173975944519043,0.5017650127410889,-0.08937232941389084,0.9993365406990051,0.4163420796394348,0.5088779330253601,-0.07972157001495361,0.9997902512550354,0.4963885247707367,0.5238760709762573,-0.2875139117240906,0.9648764729499817,0.3893349766731262,0.5338098406791687,-0.27439212799072266,0.9784032702445984,0.47236090898513794,0.5020360350608826,-0.4682113230228424,0.9284343123435974,0.42744526267051697,0.5022245645523071,-0.4369123578071594,0.9388589262962341,0.46865755319595337,0.4896160662174225,-0.5082155466079712,0.871876060962677,0.43808692693710327,0.4915318787097931,-0.47356143593788147,0.87657630443573,0.46584010124206543,0.48822060227394104,-0.4919385015964508,0.8670676350593567,0.4393073618412018,0.4877902865409851,-0.453765869140625,0.8656810522079468,0.46604427695274353,0.4939432144165039,-0.4671999514102936,0.8071089386940002,0.4380946755409241,0.49586963653564453,-0.43345117568969727,0.8146196007728577,0.47330403327941895,0.6241157650947571,-0.002710278844460845,0.999833345413208,0.42811116576194763,0.6254333257675171,0.0025973650626838207,0.9998822212219238,0.5245657563209534,0.6251839399337769,-0.298196017742157,0.9942388534545898,0.38009801506996155,0.6255702972412109,-0.2840648293495178,0.996898889541626,0.5260937213897705,0.7287315726280212,-0.18108688294887543,0.9910686612129211,0.37360453605651855,0.7336317300796509,-0.17050474882125854,0.9967591762542725,0.518156886100769,0.7442103028297424,-0.17410679161548615,0.9571332931518555,0.3822545111179352,0.7475488185882568,-0.16337646543979645,0.9616504311561584,0.5447167158126831,0.7585174441337585,-0.28161513805389404,0.9856690764427185,0.35506322979927063,0.760715901851654,-0.26898014545440674,0.9912847280502319
19,0.44662147760391235,0.4497477412223816,-0.24141696095466614,0.9999350905418396,0.4490504860877991,0.44117823243141174,-0.2228492796421051,0.9998708367347717,0.4514676034450531,0.4410671591758728,-0.2228514701128006,0.9998624324798584,0.45382586121559143,0.44102510809898376,-0.22285676002502441,0.9998409748077393,0.4424457550048828,0.44197970628738403,-0.2207299917936325,0.9998674988746643,0.4402410089969635,0.4426068067550659,-0.22076761722564697,0.9998719096183777,0.43810802698135376,0.44325923919677734,-0.22078478336334229,0.9998595118522644,0.45789629220962524,0.44664105772972107,-0.12807577848434448,0.9998111128807068,0.4339004456996918,0.4502871334552765,-0.1167731061577797,0.9998654127120972,0.45203930139541626,0.4599241316318512,-0.20734655857086182,0.9998729825019836,0.44461068511009216,0.46092334389686584,-0.20421281456947327,0.9998822212219238,0.48262444138526917,0.49029749631881714,-0.10114438831806183,0.9991549253463745,0.41641324758529663,0.49819090962409973,-0.08091166615486145,0.9997443556785583,0.4983173906803131,0.5206050276756287,-0.322185754776001,0.966130256652832,0.3886522650718689,0.5280713438987732,-0.30727046728134155,0.9796278476715088,0.4680013656616211,0.49108412861824036,-0.4962041974067688,0.9309864640235901,0.42935657501220703,0.49458006024360657,-0.4723212718963623,0.9411323666572571,0.46263688802719116,0.4779242277145386,-0.5356664061546326,0.8744390606880188,0.43910378217697144,0.48367106914520264,-0.5107479095458984,0.8779729604721069,0.4591253697872162,0.47903114557266235,-0.515576183795929,0.8683596849441528,0.4401301443576813,0.4798043370246887,-0.48764505982398987,0.8648695945739746,0.46126270294189453,0.48222047090530396,-0.49353355169296265,0.806492805480957,0.4384833872318268,0.4865491986274719,-0.46804457902908325,0.8099862933158875,0.4729371964931488,0.6152263283729553,-0.0025048002135008574,0.9998350739479065,0.4278058409690857,0.6154613494873047,0.002376869320869446,0.999883234500885,0.5243627429008484,0.6261702179908752,-0.29487890005111694,0.9941098093986511,0.3793085813522339,0.6256266832351685,-0.2830652594566345,0.9969079494476318,0.5260340571403503,0.7299269437789917,-0.17115217447280884,0.9907870292663574,0.3734697997570038,0.7334665060043335,-0.1546541005373001,0.9967440962791443,0.5180383920669556,0.7446685433387756,-0.1663724184036255,0.9578276872634888,0.3822784125804901,0.7475878000259399,-0.1492997407913208,0.9622654914855957,0.5451546311378479,0.7583314776420593,-0.25978296995162964,0.9853922128677368,0.35514041781425476,0.7605897784233093,-0.258282870054245,0.9912184476852417
20,0.44600898027420044,0.44964876770973206,-0.2478390485048294,0.9999380111694336,0.4491768479347229,0.43945762515068054,-0.23065730929374695,0.9998792409896851,0.45170068740844727,0.4393467307090759,-0.23068884015083313,0.9998717308044434,0.45409712195396423,0.43919670581817627,-0.23071329295635223,0.9998508095741272,0.4415958523750305,0.4389464259147644,-0.22896337509155273,0.9998748302459717,0.43905091285705566,0.4390617907047272,-0.22899217903614044,0.9998786449432373,0.43675094842910767,0.4394674003124237,-0.22899110615253448,0.9998646378517151,0.4583524167537689,0.442355751991272,-0.1319621056318283,0.9998260140419006,0.4338737428188324,0.44480496644973755,-0.12261434644460678,0.9998754858970642,0.45212522149086,0.46061331033706665,-0.21122224628925323,0.9998815059661865,0.44353634119033813,0.4602515995502472,-0.20877616107463837,0.9998900890350342,0.4832083284854889,0.4844795763492584,-0.1057276502251625,0.9991573095321655,0.41639065742492676,0.4911765456199646,-0.08543859422206879,0.9997407793998718,0.4956299662590027,0.5130550265312195,-0.35083168745040894,0.964807391166687,0.3879951238632202,0.5105565786361694,-0.33888453245162964,0.9804211854934692,0.47564902901649475,0.4896785616874695,-0.5810206532478333,0.9327759146690369,0.4246460497379303,0.48842206597328186,-0.55830317735672,0.9403558969497681,0.47102707624435425,0.4817803204059601,-0.6292079091072083,0.8801683187484741,0.43190106749534607,0.47996610403060913,-0.6047021150588989,0.87621009349823,0.46794334053993225,0.4768608510494232,-0.6152061223983765,0.8737136721611023,0.43435198068618774,0.4751390516757965,-0.583372950553894,0.8609359860420227,0.4695265293121338,0.48364752531051636,-0.5825459957122803,0.81101393699646,0.4328383803367615,0.4793506860733032,-0.5564491152763367,0.801357626914978,0.4723486304283142,0.6094276309013367,-0.0025210038293153048,0.9998330473899841,0.42565983533859253,0.6095832586288452,0.002400647848844528,0.9998801350593567,0.5239280462265015,0.628650963306427,-0.29362648725509644,0.993368923664093,0.377083957195282,0.6277320384979248,-0.29649782180786133,0.9968539476394653,0.5260076522827148,0.7314382791519165,-0.1705184429883957,0.9896471500396729,0.37357085943222046,0.7335975170135498,-0.16797217726707458,0.9965007901191711,0.5180408358573914,0.7464055418968201,-0.1648661196231842,0.9571612477302551,0.38232845067977905,0.7476148009300232,-0.1611558198928833,0.9622789621353149,0.5457837581634521,0.7586144804954529,-0.2777462303638458,0.9833778142929077,0.3553192615509033,0.7610079050064087,-0.2730472981929779,0.9903361201286316
21,0.4447924494743347,0.44840091466903687,-0.2525089383125305,0.9999431371688843,0.44862645864486694,0.438800185918808,-0.2398146390914917,0.9998898506164551,0.45155248045921326,0.43853890895843506,-0.2397681027650833,0.9998830556869507,0.45420679450035095,0.4381971061229706,-0.23976066708564758,0.9998635053634644,0.4402872622013092,0.43779152631759644,-0.23658128082752228,0.9998857975006104,0.43762779235839844,0.4373139441013336,-0.23661081492900848,0.9998893737792969,0.43521246314048767,0.4370843172073364,-0.23652634024620056,0.999876081943512,0.45864230394363403,0.4415748417377472,-0.14960841834545135,0.99984210729599,0.43312692642211914,0.44169893860816956,-0.13739119470119476,0.9998871684074402,0.4517241418361664,0.4578844904899597,-0.22143587470054626,0.9998922944068909,0.4418370723724365,0.4583674669265747,-0.2174009531736374,0.999900221824646,0.4846554696559906,0.4811229407787323,-0.13416670262813568,0.999189019203186,0.41636911034584045,0.48540058732032776,-0.12809383869171143,0.9997561573982239,0.5078389048576355,0.48479726910591125,-0.3871752619743347,0.9666495323181152,0.38245153427124023,0.4933868944644928,-0.3800322115421295,0.9820044040679932,0.4894193112850189,0.47674891352653503,-0.6124652028083801,0.935610294342041,0.42192840576171875,0.47682246565818787,-0.5992588996887207,0.9435138702392578,0.48821353912353516,0.4724450409412384,-0.6577598452568054,0.8849538564682007,0.4315611720085144,0.4719260632991791,-0.6443350315093994,0.8808339834213257,0.47712722420692444,0.4695039689540863,-0.6369608044624329,0.877678394317627,0.4315100312232971,0.46871283650398254,-0.6178098917007446,0.8645018935203552,0.4775400161743164,0.4756428897380829,-0.610655665397644,0.8140352368354797,0.4303904175758362,0.47348853945732117,-0.5948543548583984,0.8029170036315918,0.47282496094703674,0.6029879450798035,-0.001358055043965578,0.9998394846916199,0.42542189359664917,0.6040065884590149,0.0012041490990668535,0.9998841881752014,0.5235368609428406,0.6287228465080261,-0.30503466725349426,0.9926223754882812,0.37631574273109436,0.6294775605201721,-0.3098994195461273,0.9966251850128174,0.5259671211242676,0.7316949963569641,-0.16633357107639313,0.9881641864776611,0.373971164226532,0.7334051132202148,-0.16754983365535736,0.9962664246559143,0.5180548429489136,0.7467922568321228,-0.15912790596485138,0.955302894115448,0.3833051323890686,0.7475587725639343,-0.15947626531124115,0.9614503383636475,0.5457533597946167,0.7589166164398193,-0.27413317561149597,0.9810545444488525,0.35533514618873596,0.7612752914428711,-0.27655842900276184,0.9896494746208191
22,0.44347819685935974,0.39634403586387634,-0.34011560678482056,0.9999487400054932,0.44724321365356445,0.38612160086631775,-0.3202863037586212,0.999900758266449,0.4503815174102783,0.386495441198349,-0.320234477519989,0.9998945593833923,0.4533289968967438,0.38669565320014954,-0.32031434774398804,0.999876856803894,0.43887367844581604,0.3863774836063385,-0.32039710879325867,0.9998971223831177,0.4362713694572449,0.38749995827674866,-0.32046133279800415,0.9999003410339355,0.4337756633758545,0.38875696063041687,-0.320456326007843,0.9998883605003357,0.4587179124355316,0.39388999342918396,-0.20582814514636993,0.9998577237129211,0.4309329390525818,0.39889100193977356,-0.20633766055107117,0.999898374080658,0.4509601593017578,0.41142991185188293,-0.2980498671531677,0.9999027848243713,0.43977633118629456,0.41200366616249084,-0.29869115352630615,0.9999099969863892,0.4846509099006653,0.44581741094589233,-0.11558644473552704,0.9991986155509949,0.4143405556678772,0.4518113434314728,-0.14514881372451782,0.9997509717941284,0.5132521986961365,0.46906617283821106,-0.09402406960725784,0.965278148651123,0.37782689929008484,0.47646379470825195,-0.30064326524734497,0.9829441905021667,0.5061514973640442,0.46447837352752686,-0.07184882462024689,0.9303246736526489,0.40387019515037537,0.46458643674850464,-0.4300926625728607,0.9460790157318115,0.5069816708564758,0.4598993957042694,-0.06760422140359879,0.8730605840682983,0.40764349699020386,0.4580613076686859,-0.4546070694923401,0.8838711977005005,0.5014868974685669,0.45843204855918884,-0.06630156934261322,0.8640176057815552,0.4127023220062256,0.4546380341053009,-0.4396611750125885,0.8669204711914062,0.4993702471256256,0.4613364338874817,-0.06885196268558502,0.7987199425697327,0.41339439153671265,0.4587313234806061,-0.42685666680336,0.8067085146903992,0.4730028510093689,0.5732678174972534,0.0011898858938366175,0.9998102784156799,0.4254693388938904,0.574446976184845,-0.0012839032569900155,0.9998596906661987,0.5234664082527161,0.6280337572097778,-0.2573748230934143,0.9928871989250183,0.3760710060596466,0.6303413510322571,-0.2685812711715698,0.9965043067932129,0.5259343385696411,0.7315707802772522,-0.10627086460590363,0.9878042340278625,0.37421780824661255,0.7332695126533508,-0.11633193492889404,0.9961729645729065,0.5180491805076599,0.7469505071640015,-0.09821727871894836,0.9552592635154724,0.3833644986152649,0.7474656701087952,-0.10705599933862686,0.9621685743331909,0.5461257696151733,0.7590550184249878,-0.20606911182403564,0.9795121550559998,0.35546475648880005,0.7619597911834717,-0.21699996292591095,0.9889684915542603
23,0.4430461823940277,0.3748399615287781,-0.3561387360095978,0.9999537467956543,0.44681549072265625,0.36594158411026,-0.33944717049598694,0.9999104738235474,0.4500247836112976,0.3661715090274811,-0.3394450545310974,0.9999048709869385,0.4531376361846924,0.3663182556629181,-0.3395097851753235,0.9998887181282043,0.43848901987075806,0.36712074279785156,-0.3372857868671417,0.9999071955680847,0.4359690546989441,0.3685290217399597,-0.33735018968582153,0.9999101161956787,0.4334997534751892,0.3698926568031311,-0.3373323380947113,0.9998992085456848,0.4587783217430115,0.37299805879592896,-0.2332427054643631,0.9998717308044434,0.4305742383003235,0.3798307180404663,-0.2229531705379486,0.999908447265625,0.45069342851638794,0.3882059156894684,-0.31699860095977783,0.999912440776825,0.43936601281166077,0.38954591751098633,-0.3143458664417267,0.9999189376831055,0.4847473204135895,0.42839986085891724,-0.15913797914981842,0.9992698431015015,0.4142114520072937,0.43490612506866455,-0.15855032205581665,0.9997726678848267,0.5180960893630981,0.4539489448070526,-0.3127610385417938,0.967944324016571,0.379401832818985,0.4770250916481018,-0.33083730936050415,0.9843937158584595,0.5154834985733032,0.4514884650707245,-0.5104749202728271,0.9344430565834045,0.39166316390037537,0.4583294093608856,-0.5548802018165588,0.9508354067802429,0.5165187120437622,0.44845354557037354,-0.5507787466049194,0.8803455233573914,0.39185023307800293,0.4536387026309967,-0.5973701477050781,0.8939798474311829,0.5107225179672241,0.4448171555995941,-0.5445987582206726,0.8711159229278564,0.3953396677970886,0.4462366998195648,-0.588107705116272,0.8782790303230286,0.5075297951698303,0.4473172724246979,-0.5122787952423096,0.8074315786361694,0.3968813419342041,0.450564444065094,-0.5565832853317261,0.8226050138473511,0.47307896614074707,0.5547446608543396,0.0010328777134418488,0.9997994303703308,0.42550650238990784,0.5553404092788696,-0.001099974848330021,0.9998511672019958,0.5230279564857483,0.6263023614883423,-0.2419096678495407,0.9929251074790955,0.37641042470932007,0.6302077174186707,-0.2454105168581009,0.9964625835418701,0.5258482694625854,0.7314407229423523,-0.08054439723491669,0.986869215965271,0.37426963448524475,0.7331807613372803,-0.08748990297317505,0.9960405826568604,0.5179154276847839,0.7469425797462463,-0.07224882394075394,0.9533936381340027,0.382771372795105,0.7478436827659607,-0.07897602021694183,0.9612876772880554,0.5456870794296265,0.7601970434188843,-0.1867256909608841,0.9754943251609802,0.3553336560726166,0.7625160813331604,-0.19694064557552338,0.9873968958854675
24,0.4429452419281006,0.3543534278869629,-0.3150455951690674,0.9999582767486572,0.44588690996170044,0.3491637110710144,-0.29861101508140564,0.9999192357063293,0.4485727846622467,0.34922632575035095,-0.29861170053482056,0.9999141693115234,0.45118793845176697,0.3490842878818512,-0.298662006855011,0.9998993873596191,0.43870434165000916,0.34970611333847046,-0.2961946129798889,0.9999161958694458,0.4360079765319824,0.3502817749977112,-0.29624760150909424,0.9999188780784607,0.4339626729488373,0.3506543040275574,-0.2962329089641571,0.9999088644981384,0.456865131855011,0.3558514416217804,-0.19964173436164856,0.9998843669891357,0.4305541515350342,0.3555019795894623,-0.18615469336509705,0.9999174475669861,0.45028334856033325,0.3672412037849426,-0.2777934670448303,0.9999211430549622,0.43936243653297424,0.36852771043777466,-0.27482178807258606,0.9999269843101501,0.48420628905296326,0.40891164541244507,-0.1474553495645523,0.9993388652801514,0.4143384099006653,0.41557854413986206,-0.11945619434118271,0.9997922778129578,0.5152513980865479,0.4374348819255829,-0.2964492440223694,0.9705486297607422,0.3779756426811218,0.44905149936676025,-0.253711998462677,0.9853110313415527,0.5307365655899048,0.45138469338417053,-0.48300138115882874,0.9395845532417297,0.3751952648162842,0.45952358841896057,-0.5114232897758484,0.9548815488815308,0.5379762649536133,0.4538467824459076,-0.5194271206855774,0.8901868462562561,0.3684345483779907,0.4636806547641754,-0.5418359637260437,0.9031898975372314,0.53164142370224,0.452148973941803,-0.5239806771278381,0.8817646503448486,0.3770536780357361,0.4594305455684662,-0.5201838612556458,0.8889017701148987,0.527080774307251,0.45282045006752014,-0.4884376525878906,0.82265305519104,0.3803391754627228,0.46011409163475037,-0.5116693377494812,0.8380234241485596,0.47281613945961,0.5390812158584595,-0.0071568563580513,0.9997917413711548,0.42625394463539124,0.5399472713470459,0.007012030575424433,0.9998506903648376,0.5213690996170044,0.6135047078132629,-0.22724001109600067,0.9925423264503479,0.37702760100364685,0.6245512366294861,-0.19965597987174988,0.9958173036575317,0.526007354259491,0.7287174463272095,-0.10219241678714752,0.985826849937439,0.3743973672389984,0.731808066368103,-0.07502950727939606,0.9960464239120483,0.5179137587547302,0.7443633675575256,-0.09681291878223419,0.9465655088424683,0.3829275965690613,0.7478102445602417,-0.070055291056633,0.9613303542137146,0.5449174642562866,0.7601924538612366,-0.20457880198955536,0.9730610847473145,0.35374099016189575,0.7604990601539612,-0.17598190903663635,0.9867101907730103
25,0.4430828094482422,0.3355047106742859,-0.4092695713043213,0.9999624490737915,0.4458460211753845,0.32472869753837585,-0.39038121700286865,0.999927282333374,0.4486081004142761,0.32483336329460144,-0.39031514525413513,0.9999226927757263,0.45134615898132324,0.3251088559627533,-0.39039376378059387,0.9999093413352966,0.43871504068374634,0.3270624279975891,-0.3893059194087982,0.9999245405197144,0.4360687732696533,0.3288857340812683,-0.3893800377845764,0.9999269843101501,0.4338732659816742,0.3306369483470917,-0.389337420463562,0.9999179244041443,0.45714014768600464,0.3347572982311249,-0.2738826870918274,0.9998958110809326,0.4298246502876282,0.34089428186416626,-0.2668837904930115,0.9999256730079651,0.45034924149513245,0.34954431653022766,-0.36586645245552063,0.9999289512634277,0.4395676553249359,0.35151728987693787,-0.36419349908828735,0.9999341368675232,0.48425522446632385,0.3931966722011566,-0.14537587761878967,0.9994019865989685,0.41281962394714355,0.4014989733695984,-0.15091565251350403,0.9998037219047546,0.5169847011566162,0.4270995855331421,0.05661999061703682,0.9727647304534912,0.37787026166915894,0.43758973479270935,-0.012074352242052555,0.986319899559021,0.5456811189651489,0.45724448561668396,0.2197434902191162,0.9446752667427063,0.37058472633361816,0.4668155312538147,0.11792262643575668,0.9587442278862,0.5575723052024841,0.4621503949165344,0.25827303528785706,0.8986794352531433,0.3638579547405243,0.47575414180755615,0.1405649483203888,0.9106125831604004,0.555914044380188,0.45573538541793823,0.2245182991027832,0.8914715647697449,0.3693225681781769,0.4733026623725891,0.12244771420955658,0.8978944420814514,0.5505419373512268,0.4622242748737335,0.21412396430969238,0.8379608988761902,0.3729584217071533,0.4668918550014496,0.11682493984699249,0.8519694805145264,0.4734945297241211,0.5318503379821777,-0.008713608607649803,0.9998006820678711,0.42654672265052795,0.534423828125,0.00853725802153349,0.9998540878295898,0.5206495523452759,0.6123459935188293,-0.22444525361061096,0.9931519627571106,0.38011178374290466,0.6218937039375305,-0.18863825500011444,0.9959439635276794,0.5271257162094116,0.7280325293540955,-0.06551835685968399,0.986946165561676,0.3755967915058136,0.7310431599617004,-0.036500800400972366,0.9962818622589111,0.5186678171157837,0.7435249090194702,-0.05557660385966301,0.9470937848091125,0.38377270102500916,0.7475847005844116,-0.027386736124753952,0.9633763432502747,0.5450563430786133,0.760830819606781,-0.1603560745716095,0.975204586982727,0.35405755043029785,0.7605116963386536,-0.12814049422740936,0.9876843690872192
26,0.44322317838668823,0.32059386372566223,-0.38307124376296997,0.9999656081199646,0.4455075263977051,0.31178203225135803,-0.3716009259223938,0.9999324083328247,0.4477332532405853,0.31207430362701416,-0.3716084361076355,0.9999284148216248,0.44975295662879944,0.31219595670700073,-0.37168794870376587,0.9999159574508667,0.438764750957489,0.31209924817085266,-0.36916765570640564,0.999930202960968,0.4365583062171936,0.312757670879364,-0.36925995349884033,0.9999326467514038,0.43438440561294556,0.3130551278591156,-0.3692631423473358,0.99992436170578,0.45414265990257263,0.31913915276527405,-0.2814895510673523,0.9999030232429504,0.43039679527282715,0.3204987943172455,-0.27082115411758423,0.9999310970306396,0.44984301924705505,0.3339787721633911,-0.3485310673713684,0.99993497133255,0.44039082527160645,0.33393582701683044,-0.3455135226249695,0.9999390244483948,0.4840623438358307,0.37872645258903503,-0.20133204758167267,0.9994601607322693,0.4127941131591797,0.38477620482444763,-0.16012093424797058,0.9998188614845276,0.5213783979415894,0.419468492269516,-0.13204523921012878,0.9752717018127441,0.3785436749458313,0.4314800798892975,-0.03916742652654648,0.986609697341919,0.5539529323577881,0.4606666564941406,-0.13203880190849304,0.9492148756980896,0.3644064962863922,0.4688683748245239,0.035220276564359665,0.960935652256012,0.5670894384384155,0.46955761313438416,-0.13251779973506927,0.9057186245918274,0.357330322265625,0.4917489290237427,0.044235821813344955,0.914453387260437,0.5655178427696228,0.47139972448349,-0.1645396649837494,0.8995689153671265,0.36298254132270813,0.49218085408210754,0.021612221375107765,0.903199315071106,0.5600732564926147,0.46594884991645813,-0.1433158665895462,0.85068678855896,0.3664214015007019,0.48340848088264465,0.029020121321082115,0.8615861535072327,0.47436100244522095,0.51744145154953,-0.014510435983538628,0.9997930526733398,0.4298582971096039,0.5226198434829712,0.01444194745272398,0.9998568296432495,0.5196554660797119,0.6132044196128845,-0.10606509447097778,0.9932462573051453,0.38525232672691345,0.6180964708328247,-0.08503355085849762,0.9958587288856506,0.527296781539917,0.7289577722549438,0.010552754625678062,0.9879294037818909,0.3781888484954834,0.731042206287384,0.05406605452299118,0.9964766502380371,0.518738865852356,0.7447023987770081,0.01616910845041275,0.9487689733505249,0.38507959246635437,0.7476003170013428,0.061487652361392975,0.9654115438461304,0.5457521080970764,0.7607120871543884,-0.08467599004507065,0.9769157767295837,0.35419443249702454,0.7604740262031555,-0.029128652065992355,0.9883162379264832
27,0.4441647529602051,0.28678178787231445,-0.41010284423828125,0.9999690055847168,0.4480364918708801,0.27414995431900024,-0.3959657549858093,0.99993896484375,0.45118340849876404,0.27453911304473877,-0.3959807753562927,0.9999353289604187,0.4540853500366211,0.2749702036380768,-0.39604777097702026,0.9999241232872009,0.43917036056518555,0.2744414508342743,-0.3938227593898773,0.9999369978904724,0.4365810453891754,0.2753126919269562,-0.3938984274864197,0.9999391436576843,0.43441686034202576,0.2764539420604706,-0.3939039707183838,0.9999317526817322,0.45831266045570374,0.2832581400871277,-0.28875643014907837,0.9999123215675354,0.430285781621933,0.28474438190460205,-0.2783960700035095,0.9999376535415649,0.4510439336299896,0.3010786771774292,-0.3686893582344055,0.9999414086341858,0.440432071685791,0.3012863099575043,-0.36584270000457764,0.9999450445175171,0.4864920675754547,0.3498362898826599,-0.19611187279224396,0.9995136260986328,0.4111912250518799,0.3562467694282532,-0.1633627563714981,0.9998362064361572,0.5219811797142029,0.40962547063827515,-0.14828304946422577,0.9772887229919434,0.37877410650253296,0.42002004384994507,-0.10190979391336441,0.9874034523963928,0.5534085035324097,0.46382349729537964,-0.21073374152183533,0.95144122838974,0.3614436089992523,0.47847163677215576,-0.15928128361701965,0.9629755020141602,0.5654935836791992,0.4790983200073242,-0.22796884179115295,0.9086938500404358,0.35557350516319275,0.506331741809845,-0.17698219418525696,0.917926549911499,0.5649269819259644,0.4841846227645874,-0.26102587580680847,0.9036792516708374,0.3596484661102295,0.507832407951355,-0.2090170681476593,0.9081233143806458,0.5599915981292725,0.47611045837402344,-0.22465936839580536,0.8579953908920288,0.36250561475753784,0.49948760867118835,-0.17333702743053436,0.8700789213180542,0.4755663275718689,0.49936169385910034,-0.013108295388519764,0.9998074769973755,0.4296623766422272,0.5007617473602295,0.013025455176830292,0.9998650550842285,0.5150994062423706,0.6068000793457031,-0.11503807455301285,0.9934934973716736,0.39086127281188965,0.6147355437278748,-0.0916295275092125,0.9959723949432373,0.5272834897041321,0.7287907004356384,0.03058139607310295,0.9888734817504883,0.38076964020729065,0.7295820116996765,0.07022189348936081,0.9966526031494141,0.5190892815589905,0.7443428635597229,0.037173472344875336,0.9463058710098267,0.3869585394859314,0.7460975050926208,0.07904128730297089,0.9668138027191162,0.5418834090232849,0.7605559229850769,-0.09175257384777069,0.9784955382347107,0.3560080826282501,0.7605106830596924,-0.03490656986832619,0.9890075325965881
28,0.44394606351852417,0.26816079020500183,-0.3759269118309021,0.9999719262123108,0.44805607199668884,0.2580667734146118,-0.35964250564575195,0.9999445676803589,0.4513412415981293,0.2587611973285675,-0.359691321849823,0.9999411702156067,0.45443981885910034,0.25942498445510864,-0.3597800135612488,0.9999312162399292,0.43904662132263184,0.25749337673187256,-0.35748177766799927,0.9999427199363708,0.43635743856430054,0.25804078578948975,-0.3575379252433777,0.9999445676803589,0.43400248885154724,0.25879204273223877,-0.35754990577697754,0.999937891960144,0.45903706550598145,0.26634666323661804,-0.25225377082824707,0.9999201893806458,0.430332750082016,0.26683738827705383,-0.24186775088310242,0.9999426007270813,0.4510573744773865,0.2825984060764313,-0.33561843633651733,0.9999470710754395,0.43960142135620117,0.28235629200935364,-0.33273249864578247,0.9999502897262573,0.4891452193260193,0.34223803877830505,-0.17622074484825134,0.999561071395874,0.4088401794433594,0.3438095152378082,-0.15073145925998688,0.999850332736969,0.5251113772392273,0.411873996257782,-0.1560695916414261,0.9791728258132935,0.37785011529922485,0.41481122374534607,-0.0987883135676384,0.987548828125,0.5521484613418579,0.4665510058403015,-0.24612648785114288,0.9532982110977173,0.36057013273239136,0.48635753989219666,-0.18832264840602875,0.9620044231414795,0.5641446709632874,0.49215206503868103,-0.27192723751068115,0.9105333089828491,0.3557506203651428,0.5112241506576538,-0.21291987597942352,0.9162102937698364,0.5623028874397278,0.4965657889842987,-0.2948211133480072,0.9067584276199341,0.36039191484451294,0.512252926826477,-0.2482081651687622,0.9082014560699463,0.5575681924819946,0.489175945520401,-0.26032131910324097,0.8638029098510742,0.36275118589401245,0.5043438673019409,-0.204891636967659,0.8726112842559814,0.47646817564964294,0.49569565057754517,-0.011775974184274673,0.9998191595077515,0.4295429587364197,0.4961520731449127,0.011701708659529686,0.9998703598976135,0.5114392042160034,0.6024593114852905,-0.12695512175559998,0.9938055872917175,0.3933071196079254,0.6131744384765625,-0.07633356750011444,0.9961264133453369,0.5255019664764404,0.7279908061027527,0.01928108185529709,0.9897584319114685,0.38131675124168396,0.7294365167617798,0.08282093703746796,0.9967954158782959,0.5180200338363647,0.7440141439437866,0.02575470507144928,0.9470477104187012,0.3877425193786621,0.7461487054824829,0.09060536324977875,0.9670624136924744,0.5416796803474426,0.7606629729270935,-0.10779615491628647,0.9800053834915161,0.3577534854412079,0.7614464163780212,-0.0320749469101429,0.9895186424255371
29,0.4423035979270935,0.25980570912361145,-0.39802679419517517,0.9999743700027466,0.44762617349624634,0.2497812658548355,-0.38247203826904297,0.999949038028717,0.45109111070632935,0.2502734363079071,-0.3825189769268036,0.9999459385871887,0.45435795187950134,0.2507891356945038,-0.3826066255569458,0.999937117099762,0.4387539029121399,0.24975022673606873,-0.3790891766548157,0.9999473094940186,0.43616241216659546,0.2501654326915741,-0.37914830446243286,0.9999487400054932,0.43383851647377014,0.2506834864616394,-0.3791596293449402,0.9999426007270813,0.45944732427597046,0.2590196430683136,-0.27663347125053406,0.9999262690544128,0.4316587448120117,0.25821244716644287,-0.26120081543922424,0.9999452233314514,0.4496740400791168,0.2739608585834503,-0.3583945631980896,0.9999517798423767,0.4381162226200104,0.27335941791534424,-0.35403677821159363,0.9999544620513916,0.49008840322494507,0.3361966907978058,-0.20113372802734375,0.9996033310890198,0.4088999629020691,0.3371604382991791,-0.1558941900730133,0.9998619556427002,0.5226041078567505,0.4043166935443878,-0.17682495713233948,0.980974555015564,0.3782081604003906,0.4092608094215393,-0.10705985128879547,0.9871892929077148,0.5487858057022095,0.46741846203804016,-0.2670173645019531,0.9566917419433594,0.362926185131073,0.4872470200061798,-0.1937868297100067,0.9618358016014099,0.5572846531867981,0.4930805265903473,-0.2882630228996277,0.9159873127937317,0.35929763317108154,0.511968731880188,-0.21898630261421204,0.9157933592796326,0.5552179217338562,0.4972399175167084,-0.3295919597148895,0.9129936099052429,0.3637266159057617,0.5131329298019409,-0.25642070174217224,0.9093491435050964,0.5514119267463684,0.49027660489082336,-0.27408140897750854,0.8732807040214539,0.36566227674484253,0.5051489472389221,-0.21115240454673767,0.876293957233429,0.47676071524620056,0.4909369647502899,-0.011507516726851463,0.9998278021812439,0.42950302362442017,0.49020498991012573,0.011458311229944229,0.9998743534088135,0.5077606439590454,0.601277768611908,-0.08056733012199402,0.9940304160118103,0.39711233973503113,0.6082169413566589,-0.051017165184020996,0.9962839484214783,0.5239965319633484,0.7278426289558411,0.05470363423228264,0.9905703663825989,0.3820844888687134,0.7284902930259705,0.09952633827924728,0.9969490170478821,0.5174020528793335,0.7443618774414062,0.0591474249958992,0.9477189183235168,0.3884386420249939,0.7460578083992004,0.10579580068588257,0.9671530723571777,0.5414837598800659,0.7606413960456848,-0.07551557570695877,0.9813814759254456,0.35841432213783264,0.7625424265861511,-0.018720470368862152,0.9900895953178406
30,0.44218674302101135,0.25947436690330505,-0.41995930671691895,0.9999763369560242,0.44762498140335083,0.24754661321640015,-0.4058739244937897,0.999952495098114,0.45109206438064575,0.24757669866085052,-0.40589436888694763,0.9999497532844543,0.4543742537498474,0.2478141188621521,-0.4059714376926422,0.9999420642852783,0.4386993944644928,0.2482089251279831,-0.402075856924057,0.9999507069587708,0.4360731542110443,0.24870948493480682,-0.4021395146846771,0.9999516606330872,0.433684766292572,0.24943940341472626,-0.4021274447441101,0.9999458193778992,0.460099995136261,0.25550946593284607,-0.3026321828365326,0.999930739402771,0.4318014085292816,0.256941020488739,-0.2855663001537323,0.9999454617500305,0.44948869943618774,0.27320900559425354,-0.3807760179042816,0.9999555945396423,0.43800702691078186,0.2732081711292267,-0.3760005831718445,0.9999575018882751,0.4902854561805725,0.3327474296092987,-0.2224659025669098,0.9996410608291626,0.40911537408828735,0.3289772570133209,-0.17232462763786316,0.9998721480369568,0.5217702388763428,0.4026581346988678,-0.18371327221393585,0.9825253486633301,0.3793310523033142,0.4006977379322052,-0.09621834009885788,0.985346794128418,0.5425857901573181,0.4697209298610687,-0.2572728395462036,0.9596014022827148,0.36620309948921204,0.4827333092689514,-0.15109172463417053,0.9578790664672852,0.5509800910949707,0.4950503408908844,-0.2805517315864563,0.9204742312431335,0.3631551265716553,0.5078388452529907,-0.17089861631393433,0.9084574580192566,0.5484243035316467,0.4990682303905487,-0.3191239833831787,0.9181104302406311,0.3665322959423065,0.5076605677604675,-0.20887675881385803,0.903814971446991,0.5442642569541931,0.4922502636909485,-0.2706708610057831,0.8810029029846191,0.36822405457496643,0.5007483959197998,-0.1679818332195282,0.8728803396224976,0.47669658064842224,0.4833044111728668,-0.01098818052560091,0.9998334050178528,0.4294265806674957,0.48343080282211304,0.010926642455160618,0.9998767971992493,0.5042959451675415,0.6022561192512512,-0.031001847237348557,0.9942572116851807,0.4004436135292053,0.6050926446914673,-0.032144997268915176,0.9964500665664673,0.5231015682220459,0.7277110815048218,0.09139783680438995,0.9913237690925598,0.38238710165023804,0.7282419800758362,0.106331005692482,0.9970900416374207,0.517136812210083,0.7443124055862427,0.09445931762456894,0.9470171928405762,0.38895100355148315,0.7460671663284302,0.11087538301944733,0.9662541151046753,0.5407373905181885,0.7606281042098999,-0.04279301315546036,0.9826970100402832,0.3587298095226288,0.7629716396331787,-0.019337523728609085,0.9906636476516724
31,0.4431048333644867,0.25271955132484436,-0.4145545959472656,0.9999784231185913,0.4482228755950928,0.24194200336933136,-0.3972078263759613,0.9999564290046692,0.45170921087265015,0.2420051544904709,-0.397227942943573,0.9999540448188782,0.45497918128967285,0.24217280745506287,-0.39729323983192444,0.999947190284729,0.43898409605026245,0.24263258278369904,-0.39638617634773254,0.9999547004699707,0.436199426651001,0.2432834357023239,-0.3964582681655884,0.999955415725708,0.4336990416049957,0.24415425956249237,-0.39644771814346313,0.9999499917030334,0.4604435861110687,0.24902047216892242,-0.2859458327293396,0.9999359250068665,0.43168020248413086,0.25220510363578796,-0.282627135515213,0.9999483823776245,0.4502596855163574,0.2662409543991089,-0.37317726016044617,0.999959409236908,0.4386523365974426,0.2667401432991028,-0.3724053204059601,0.9999608397483826,0.4905599057674408,0.3319811522960663,-0.20411065220832825,0.9996744990348816,0.40832439064979553,0.327545702457428,-0.18021659553050995,0.9998807311058044,0.5184157490730286,0.40546125173568726,-0.16774152219295502,0.9838147163391113,0.37945255637168884,0.40056130290031433,-0.12365347146987915,0.984984278678894,0.5386375784873962,0.47410041093826294,-0.24510058760643005,0.9620906114578247,0.36780425906181335,0.48215192556381226,-0.19937483966350555,0.9563314318656921,0.546789288520813,0.49925464391708374,-0.2709488570690155,0.9241030812263489,0.3653007745742798,0.5079129934310913,-0.2243206948041916,0.9052836298942566,0.543766975402832,0.5013716816902161,-0.30879876017570496,0.9224270582199097,0.3685170114040375,0.5088583827018738,-0.2560443580150604,0.9019923806190491,0.5398710370063782,0.4943680465221405,-0.26092177629470825,0.8878278732299805,0.3708336055278778,0.499541699886322,-0.21531513333320618,0.8726612329483032,0.4766189157962799,0.4835149645805359,-0.0063208406791090965,0.9998385906219482,0.4289149343967438,0.48257875442504883,0.006270444951951504,0.9998792409896851,0.5009098649024963,0.5998725295066833,-0.021858129650354385,0.9944490194320679,0.4006426930427551,0.6041684746742249,-0.02887802943587303,0.9965475797653198,0.5219833254814148,0.7274430990219116,0.09328720718622208,0.9919818043708801,0.38239574432373047,0.7278721332550049,0.10987983644008636,0.9971669316291809,0.5161100625991821,0.7443187832832336,0.09563686698675156,0.9476264715194702,0.3887560963630676,0.7458533048629761,0.11427079141139984,0.9638612270355225,0.540642499923706,0.7604604959487915,-0.04103662818670273,0.983879804611206,0.36026453971862793,0.7630360722541809,-0.018409084528684616,0.9910571575164795
32,0.44490259885787964,0.2505609393119812,-0.40678921341896057,0.9999791383743286,0.44961777329444885,0.2419285774230957,-0.3902645409107208,0.9999575018882751,0.4529273509979248,0.24236470460891724,-0.39028289914131165,0.9999555349349976,0.45610755681991577,0.24283413589000702,-0.3903518319129944,0.9999498128890991,0.4407119154930115,0.24179433286190033,-0.3887734115123749,0.9999555945396423,0.43794792890548706,0.24228180944919586,-0.38884538412094116,0.999955952167511,0.43532174825668335,0.242976576089859,-0.3888401985168457,0.9999507069587708,0.46090707182884216,0.2502587139606476,-0.2827445864677429,0.9999361634254456,0.4325949251651764,0.25127044320106506,-0.2760069966316223,0.9999435544013977,0.45214495062828064,0.26398295164108276,-0.36678293347358704,0.9999606609344482,0.4405703544616699,0.2638660967350006,-0.36506780982017517,0.9999606609344482,0.490527480840683,0.33073970675468445,-0.20741209387779236,0.9996963739395142,0.4084370732307434,0.32527831196784973,-0.17168225347995758,0.9998779296875,0.50808185338974,0.4063194692134857,-0.16631808876991272,0.9839338660240173,0.38033032417297363,0.39948952198028564,-0.09708249568939209,0.9812504053115845,0.5194821357727051,0.4818113148212433,-0.21642723679542542,0.9567471742630005,0.37056964635849,0.47767069935798645,-0.1359146684408188,0.9424805045127869,0.5229183435440063,0.5082004070281982,-0.23714642226696014,0.9131301045417786,0.36837559938430786,0.5075504779815674,-0.15271353721618652,0.8842153549194336,0.5210884809494019,0.5091201066970825,-0.2687690854072571,0.9125064015388489,0.3717115521430969,0.5082356929779053,-0.18847905099391937,0.8827745318412781,0.5180336236953735,0.5014415979385376,-0.22947697341442108,0.8778704404830933,0.371648371219635,0.4966234862804413,-0.15163375437259674,0.8550150394439697,0.4765469431877136,0.4794885814189911,-0.008473461493849754,0.9998354911804199,0.4288833737373352,0.48003822565078735,0.008432479575276375,0.9998722076416016,0.49665841460227966,0.5978768467903137,-0.02961624227464199,0.9946230053901672,0.4015735983848572,0.6036669611930847,-0.001266083912923932,0.9965437650680542,0.5204827189445496,0.7267277240753174,0.08646483719348907,0.9926000237464905,0.3822038471698761,0.7274258732795715,0.1293129026889801,0.9972343444824219,0.514463484287262,0.7443223595619202,0.08917702734470367,0.9478550553321838,0.3886299133300781,0.7458189129829407,0.13338179886341095,0.9621216654777527,0.5394352674484253,0.7602530717849731,-0.04573601856827736,0.9850019812583923,0.3608143925666809,0.7632983326911926,0.004195017274469137,0.9913922548294067
33,0.4456724226474762,0.2556435465812683,-0.39298152923583984,0.9999791383743286,0.45005902647972107,0.24596630036830902,-0.37637168169021606,0.9999570846557617,0.45327234268188477,0.2463395744562149,-0.37638816237449646,0.999955415725708,0.45638948678970337,0.2467537671327591,-0.3764592111110687,0.9999508261680603,0.44139623641967773,0.24588315188884735,-0.374265193939209,0.9999551773071289,0.4386768937110901,0.246272012591362,-0.37433111667633057,0.9999551773071289,0.4360453188419342,0.2468508630990982,-0.3743223547935486,0.9999504685401917,0.4610482156276703,0.2532978355884552,-0.27013352513313293,0.999932587146759,0.43319955468177795,0.2537420988082886,-0.26200321316719055,0.9999370574951172,0.4527348577976227,0.268376886844635,-0.35353225469589233,0.9999605417251587,0.44124966859817505,0.26900768280029297,-0.3506779968738556,0.9999595880508423,0.490389883518219,0.3310008943080902,-0.20229217410087585,0.9997053146362305,0.40859681367874146,0.3242835998535156,-0.16535404324531555,0.9998792409896851,0.501022458076477,0.40602758526802063,-0.1398705542087555,0.981751561164856,0.3835890293121338,0.3984304964542389,-0.09760595113039017,0.9793305993080139,0.5100058317184448,0.48125365376472473,-0.19851182401180267,0.9421331882476807,0.372988760471344,0.4750318229198456,-0.16037723422050476,0.9349611401557922,0.5122838020324707,0.5040127635002136,-0.2204967439174652,0.8904918432235718,0.37172365188598633,0.5070993304252625,-0.1819716840982437,0.8729285597801208,0.5103427171707153,0.5049022436141968,-0.2515416741371155,0.8912907838821411,0.3783411383628845,0.5074281096458435,-0.21620087325572968,0.8729066848754883,0.5067428350448608,0.4981432557106018,-0.21176299452781677,0.855221688747406,0.38008472323417664,0.4935932755470276,-0.17589497566223145,0.8456995487213135,0.4757489562034607,0.4796927273273468,-0.00795755721628666,0.9998273849487305,0.42867860198020935,0.4792815148830414,0.007898645475506783,0.9998660683631897,0.49612611532211304,0.5968028903007507,-0.031424932181835175,0.9947604537010193,0.40085917711257935,0.6045904755592346,-0.004788274876773357,0.9965561032295227,0.520440399646759,0.7261039614677429,0.0732898861169815,0.9931610226631165,0.3820408880710602,0.7272642850875854,0.11362769454717636,0.997299313545227,0.5144340991973877,0.7443810701370239,0.07520213723182678,0.9483934640884399,0.3885560631752014,0.7458196878433228,0.1166403517127037,0.9598732590675354,0.5395693182945251,0.7598223090171814,-0.0580175518989563,0.9860340356826782,0.36071377992630005,0.7637621760368347,-0.012090714648365974,0.9916715025901794
34,0.4461885094642639,0.26084572076797485,-0.3958154022693634,0.9999798536300659,0.4501829147338867,0.24897530674934387,-0.3798111379146576,0.9999585747718811,0.4533277153968811,0.24897541105747223,-0.3798324465751648,0.9999571442604065,0.45638489723205566,0.24902932345867157,-0.37989869713783264,0.9999532699584961,0.44156232476234436,0.2495383620262146,-0.37919315695762634,0.9999566674232483,0.43879827857017517,0.2499537616968155,-0.37926772236824036,0.999956488609314,0.4361187815666199,0.2505083382129669,-0.3792838752269745,0.9999521970748901,0.4609840512275696,0.2541425824165344,-0.27095600962638855,0.9999334812164307,0.4331916868686676,0.25640079379081726,-0.2684299945831299,0.9999363422393799,0.45305389165878296,0.2733030915260315,-0.3547443747520447,0.999961793422699,0.44145989418029785,0.27446937561035156,-0.35409730672836304,0.9999602437019348,0.4898643493652344,0.33365315198898315,-0.1947469711303711,0.9997147917747498,0.4087468683719635,0.32598334550857544,-0.16700401902198792,0.9998790621757507,0.49538588523864746,0.4096633791923523,-0.1488167941570282,0.9790786504745483,0.3874111473560333,0.4027872085571289,-0.10665273666381836,0.9759746193885803,0.5018901228904724,0.4845035970211029,-0.2171211540699005,0.9235240817070007,0.3814834952354431,0.47562283277511597,-0.1770508736371994,0.9228006601333618,0.5022287368774414,0.5065023899078369,-0.24203553795814514,0.863224983215332,0.38083362579345703,0.5052711963653564,-0.20053884387016296,0.8564193844795227,0.500333845615387,0.5072083473205566,-0.27189239859580994,0.8656014204025269,0.387813925743103,0.5055075287818909,-0.2341277152299881,0.8580362796783447,0.49743637442588806,0.49954360723495483,-0.23031893372535706,0.8279451131820679,0.38976234197616577,0.4935671091079712,-0.192360058426857,0.8310716152191162,0.4754860997200012,0.4791969060897827,-0.008218620903789997,0.9998157024383545,0.4286680817604065,0.47806379199028015,0.008161971345543861,0.9998564720153809,0.49561381340026855,0.5973531007766724,-0.02833409234881401,0.9947488903999329,0.40081197023391724,0.604674756526947,0.0065117268823087215,0.9964286088943481,0.5204703211784363,0.7258695363998413,0.07966521382331848,0.993610680103302,0.3818954527378082,0.7268804311752319,0.1274169385433197,0.9972701072692871,0.5144529938697815,0.7443516254425049,0.0817757397890091,0.9482066631317139,0.38849157094955444,0.7456838488578796,0.13083305954933167,0.9569199681282043,0.5387328267097473,0.7598158717155457,-0.052342452108860016,0.9868029356002808,0.3610329031944275,0.7637964487075806,0.0017372502479702234,0.991676390171051
35,0.44726747274398804,0.25811323523521423,-0.40585532784461975,0.999980092048645,0.45090794563293457,0.24634310603141785,-0.38927140831947327,0.9999593496322632,0.4539731442928314,0.2465001791715622,-0.3892981708049774,0.9999580979347229,0.456917941570282,0.2467392235994339,-0.3893751800060272,0.9999548196792603,0.44226717948913574,0.2468213587999344,-0.3894138038158417,0.9999572038650513,0.43945008516311646,0.24736079573631287,-0.38949382305145264,0.9999568462371826,0.43673792481422424,0.24803999066352844,-0.3895162343978882,0.9999529123306274,0.46119338274002075,0.25319546461105347,-0.27792203426361084,0.9999327063560486,0.4332517981529236,0.2551407516002655,-0.27861887216567993,0.9999337196350098,0.4536866545677185,0.27111348509788513,-0.36369484663009644,0.999961256980896,0.4421404302120209,0.2718539237976074,-0.3641694486141205,0.9999590516090393,0.48941826820373535,0.3343721628189087,-0.1989048570394516,0.9997125267982483,0.4088974893093109,0.3250714838504791,-0.17433446645736694,0.9998720288276672,0.4899377226829529,0.4120284616947174,-0.15757931768894196,0.9733864665031433,0.39253491163253784,0.4034190773963928,-0.11455757915973663,0.9682977795600891,0.4974098205566406,0.48947879672050476,-0.22386065125465393,0.8942053318023682,0.3854983448982239,0.4757852554321289,-0.18307092785835266,0.9025243520736694,0.49822330474853516,0.5103233456611633,-0.2487354576587677,0.826786458492279,0.38410598039627075,0.504052996635437,-0.2059568464756012,0.8318995237350464,0.4959607720375061,0.5114989876747131,-0.278321236371994,0.8304675221443176,0.3898126482963562,0.503929078578949,-0.24112460017204285,0.8354701399803162,0.49406367540359497,0.5034084320068359,-0.23709098994731903,0.7918271422386169,0.392439603805542,0.49338656663894653,-0.1990422159433365,0.8096354603767395,0.47506052255630493,0.4790744483470917,-0.009268781170248985,0.9998060464859009,0.4286927282810211,0.47826439142227173,0.009216494858264923,0.9998446702957153,0.4947722554206848,0.5968136191368103,-0.03308426961302757,0.9948198199272156,0.4010013937950134,0.604620099067688,0.007343929260969162,0.996207058429718,0.5201186537742615,0.7256473898887634,0.0751735121011734,0.9940456748008728,0.3818000257015228,0.7263116240501404,0.1333732306957245,0.9972398281097412,0.514141857624054,0.7442420721054077,0.0768372043967247,0.9475899338722229,0.38839444518089294,0.7449344992637634,0.1370367705821991,0.9549196362495422,0.5374179482460022,0.7598370909690857,-0.05978166311979294,0.9875165224075317,0.3609585165977478,0.7637620568275452,0.00727036502212286,0.9916947484016418
36,0.448411762714386,0.2596263885498047,-0.4037099778652191,0.9999805092811584,0.4516201913356781,0.24726171791553497,-0.38652491569519043,0.9999604821205139,0.4544594883918762,0.24728994071483612,-0.38654905557632446,0.9999591708183289,0.45719924569129944,0.24740545451641083,-0.38662323355674744,0.9999563097953796,0.44311514496803284,0.24785616993904114,-0.38789695501327515,0.9999586343765259,0.4401979446411133,0.24834012985229492,-0.387981116771698,0.9999582767486572,0.43742403388023376,0.2489284873008728,-0.3880069851875305,0.9999548196792603,0.46118268370628357,0.25352102518081665,-0.27351275086402893,0.9999324083328247,0.43324169516563416,0.2559119760990143,-0.279165655374527,0.9999348521232605,0.45421943068504333,0.2721894383430481,-0.3607197403907776,0.9999605417251587,0.4430648386478424,0.27287206053733826,-0.3627135753631592,0.9999586343765259,0.4889186918735504,0.33298248052597046,-0.19857369363307953,0.9996868371963501,0.40927666425704956,0.3267573416233063,-0.17883668839931488,0.9998680949211121,0.4865516126155853,0.4132055342197418,-0.1411224603652954,0.9621467590332031,0.3972410261631012,0.40609854459762573,-0.11935196071863174,0.9622220396995544,0.4941110610961914,0.4882449209690094,-0.19777372479438782,0.8522853851318359,0.3878823220729828,0.47723492980003357,-0.18527851998806,0.8865072727203369,0.4942677617073059,0.5085718631744385,-0.21929781138896942,0.7805488705635071,0.38545286655426025,0.5033985376358032,-0.20776312053203583,0.8126225471496582,0.492936372756958,0.5096322298049927,-0.24953046441078186,0.7850808501243591,0.39104899764060974,0.5032661557197571,-0.24296453595161438,0.8177014589309692,0.4913976788520813,0.5021052956581116,-0.21124596893787384,0.7469242215156555,0.3939973711967468,0.49415406584739685,-0.2009643018245697,0.792503297328949,0.4742894172668457,0.478218674659729,-0.00891883671283722,0.9997956156730652,0.42862892150878906,0.4774247109889984,0.008870778605341911,0.9998397827148438,0.49448710680007935,0.5947478413581848,-0.04063817858695984,0.9948790073394775,0.40200275182724,0.6026306748390198,-0.01795443519949913,0.9961510896682739,0.5197793245315552,0.7249908447265625,0.060655318200588226,0.9944297075271606,0.3817979097366333,0.7259086966514587,0.10261967033147812,0.9972992539405823,0.5136902928352356,0.7438283562660217,0.0621933713555336,0.9479944705963135,0.38832682371139526,0.744760274887085,0.10645727068185806,0.9541085362434387,0.5371761918067932,0.7598028779029846,-0.07129205018281937,0.9881994724273682,0.361010879278183,0.7637479901313782,-0.020224425941705704,0.991905152797699
37,0.4493134021759033,0.25947630405426025,-0.3983669877052307,0.9999799132347107,0.452461302280426,0.24748992919921875,-0.3805786967277527,0.9999593496322632,0.45513901114463806,0.24760392308235168,-0.3806118965148926,0.9999578595161438,0.4577535092830658,0.24774213135242462,-0.38067179918289185,0.9999555349349976,0.44428110122680664,0.24760892987251282,-0.38642722368240356,0.9999582171440125,0.4414393901824951,0.24786663055419922,-0.3865664601325989,0.999957799911499,0.4387202858924866,0.24822136759757996,-0.3866739869117737,0.9999551177024841,0.46123361587524414,0.2538345158100128,-0.26541393995285034,0.9999263286590576,0.4335819184780121,0.25510647892951965,-0.2719269394874573,0.9999333024024963,0.4548652768135071,0.2721238136291504,-0.3540063500404358,0.9999587535858154,0.4440458416938782,0.27204981446266174,-0.3614934980869293,0.9999577403068542,0.48892274498939514,0.33178791403770447,-0.18228884041309357,0.9996576905250549,0.4093325138092041,0.32603874802589417,-0.17384952306747437,0.9998686909675598,0.4897177219390869,0.41195785999298096,-0.13210442662239075,0.9546675086021423,0.395972341299057,0.40478405356407166,-0.11200764030218124,0.9604677557945251,0.49494343996047974,0.4873177409172058,-0.19781038165092468,0.8183178305625916,0.38701629638671875,0.47679799795150757,-0.17791569232940674,0.8788660764694214,0.4956720471382141,0.5067734122276306,-0.22038774192333221,0.7413992285728455,0.38486576080322266,0.5017633438110352,-0.20131711661815643,0.8021216988563538,0.4929080903530121,0.5081144571304321,-0.25031551718711853,0.746614396572113,0.39022642374038696,0.5018354058265686,-0.23593154549598694,0.8082836270332336,0.49142202734947205,0.5018107891082764,-0.21117527782917023,0.7083320021629333,0.3931278586387634,0.4923466145992279,-0.19327124953269958,0.7831847667694092,0.4742903709411621,0.4784650206565857,-0.006627523340284824,0.9997767806053162,0.42861437797546387,0.4768078029155731,0.006583214737474918,0.9998331069946289,0.4946989417076111,0.595443069934845,-0.03931010887026787,0.9948749542236328,0.4028516709804535,0.6010276675224304,-0.029240161180496216,0.9961563348770142,0.5194581151008606,0.7248709797859192,0.05876191705465317,0.9947338700294495,0.3817458152770996,0.7256938815116882,0.0947650820016861,0.9973414540290833,0.5131205320358276,0.7438318133354187,0.05988038331270218,0.9483302235603333,0.3882339894771576,0.7446144223213196,0.10264885425567627,0.952748715877533,0.5373951196670532,0.7598410248756409,-0.0738905668258667,0.9887354373931885,0.3611563742160797,0.7637432813644409,-0.03592219203710556,0.9920560121536255
