frame,NOSE.x,NOSE.y,NOSE.z,NOSE.v,LEFT_EYE_INNER.x,LEFT_EYE_INNER.y,LEFT_EYE_INNER.z,LEFT_EYE_INNER.v,LEFT_EYE.x,LEFT_EYE.y,LEFT_EYE.z,LEFT_EYE.v,LEFT_EYE_OUTER.x,LEFT_EYE_OUTER.y,LEFT_EYE_OUTER.z,LEFT_EYE_OUTER.v,RIGHT_EYE_INNER.x,RIGHT_EYE_INNER.y,RIGHT_EYE_INNER.z,RIGHT_EYE_INNER.v,RIGHT_EYE.x,RIGHT_EYE.y,RIGHT_EYE.z,RIGHT_EYE.v,RIGHT_EYE_OUTER.x,RIGHT_EYE_OUTER.y,RIGHT_EYE_OUTER.z,RIGHT_EYE_OUTER.v,LEFT_EAR.x,LEFT_EAR.y,LEFT_EAR.z,LEFT_EAR.v,RIGHT_EAR.x,RIGHT_EAR.y,RIGHT_EAR.z,RIGHT_EAR.v,MOUTH_LEFT.x,MOUTH_LEFT.y,MOUTH_LEFT.z,MOUTH_LEFT.v,MOUTH_RIGHT.x,MOUTH_RIGHT.y,MOUTH_RIGHT.z,MOUTH_RIGHT.v,LEFT_SHOULDER.x,LEFT_SHOULDER.y,LEFT_SHOULDER.z,LEFT_SHOULDER.v,RIGHT_SHOULDER.x,RIGHT_SHOULDER.y,RIGHT_SHOULDER.z,RIGHT_SHOULDER.v,LEFT_ELBOW.x,LEFT_ELBOW.y,LEFT_ELBOW.z,LEFT_ELBOW.v,RIGHT_ELBOW.x,RIGHT_ELBOW.y,RIGHT_ELBOW.z,RIGHT_ELBOW.v,LEFT_WRIST.x,LEFT_WRIST.y,LEFT_WRIST.z,LEFT_WRIST.v,RIGHT_WRIST.x,RIGHT_WRIST.y,RIGHT_WRIST.z,RIGHT_WRIST.v,LEFT_PINKY.x,LEFT_PINKY.y,LEFT_PINKY.z,LEFT_PINKY.v,RIGHT_PINKY.x,RIGHT_PINKY.y,RIGHT_PINKY.z,RIGHT_PINKY.v,LEFT_INDEX.x,LEFT_INDEX.y,LEFT_INDEX.z,LEFT_INDEX.v,RIGHT_INDEX.x,RIGHT_INDEX.y,RIGHT_INDEX.z,RIGHT_INDEX.v,LEFT_THUMB.x,LEFT_THUMB.y,LEFT_THUMB.z,LEFT_THUMB.v,RIGHT_THUMB.x,RIGHT_THUMB.y,RIGHT_THUMB.z,RIGHT_THUMB.v,LEFT_HIP.x,LEFT_HIP.y,LEFT_HIP.z,LEFT_HIP.v,RIGHT_HIP.x,RIGHT_HIP.y,RIGHT_HIP.z,RIGHT_HIP.v,LEFT_KNEE.x,LEFT_KNEE.y,LEFT_KNEE.z,LEFT_KNEE.v,RIGHT_KNEE.x,RIGHT_KNEE.y,RIGHT_KNEE.z,RIGHT_KNEE.v,LEFT_ANKLE.x,LEFT_ANKLE.y,LEFT_ANKLE.z,LEFT_ANKLE.v,RIGHT_ANKLE.x,RIGHT_ANKLE.y,RIGHT_ANKLE.z,RIGHT_ANKLE.v,LEFT_HEEL.x,LEFT_HEEL.y,LEFT_HEEL.z,LEFT_HEEL.v,RIGHT_HEEL.x,RIGHT_HEEL.y,RIGHT_HEEL.z,RIGHT_HEEL.v,LEFT_FOOT_INDEX.x,LEFT_FOOT_INDEX.y,LEFT_FOOT_INDEX.z,LEFT_FOOT_INDEX.v,RIGHT_FOOT_INDEX.x,RIGHT_FOOT_INDEX.y,RIGHT_FOOT_INDEX.z,RIGHT_FOOT_INDEX.v
0,0.5074809789657593,0.13326355814933777,-0.3327224850654602,0.9998862743377686,0.5033131241798401,0.10920080542564392,-0.30733662843704224,0.999846339225769,0.5049619674682617,0.10912016034126282,-0.3073139786720276,0.9997919201850891,0.5066565275192261,0.10912671685218811,-0.3072349429130554,0.99965500831604,0.49286550283432007,0.10851731896400452,-0.33611828088760376,0.9999154806137085,0.4868396818637848,0.10825863480567932,-0.33619698882102966,0.9999210834503174,0.4808458685874939,0.1084287166595459,-0.336275190114975,0.999922513961792,0.49884361028671265,0.11699206382036209,-0.1429472714662552,0.9989696741104126,0.46353811025619507,0.11839926242828369,-0.2706041932106018,0.9999505281448364,0.5084107518196106,0.1553935706615448,-0.26702064275741577,0.9996781349182129,0.496920645236969,0.15447577834129333,-0.30390048027038574,0.999916672706604,0.5316687822341919,0.24151797592639923,0.009463047608733177,0.9973908066749573,0.4165958762168884,0.2358453869819641,-0.254759818315506,0.9999704360961914,0.5600088834762573,0.3335069417953491,-0.12726028263568878,0.46740981936454773,0.42586860060691833,0.38735613226890564,-0.2562403380870819,0.9951149225234985,0.5411202907562256,0.27715766429901123,-0.4571148455142975,0.5744418501853943,0.4914349913597107,0.2943861186504364,-0.15548308193683624,0.9900853633880615,0.5366077423095703,0.262099027633667,-0.5130173563957214,0.46985864639282227,0.5134319067001343,0.27168601751327515,-0.1657220870256424,0.9729288220405579,0.5348385572433472,0.2536640167236328,-0.498820960521698,0.4505859911441803,0.5094090104103088,0.25279784202575684,-0.16267289221286774,0.9688367247581482,0.5279308557510376,0.25840407609939575,-0.46213299036026,0.4403700530529022,0.5040700435638428,0.25881898403167725,-0.14488573372364044,0.9449848532676697,0.5197396874427795,0.5028735995292664,0.07917366176843643,0.9988245368003845,0.4495260715484619,0.5129183530807495,-0.07932642102241516,0.9999029636383057,0.5330113768577576,0.6866368055343628,0.34761133790016174,0.9314767122268677,0.44202184677124023,0.7140162587165833,-0.10829442739486694,0.9969660639762878,0.5430009365081787,0.8103979825973511,0.6824726462364197,0.9663575887680054,0.4247790277004242,0.9003018140792847,-0.03276233375072479,0.9925365447998047,0.5307822823524475,0.8410314917564392,0.7087538242340088,0.9278290271759033,0.4168425500392914,0.924063503742218,-0.033619895577430725,0.9165666103363037,0.5974739789962769,0.8560889959335327,0.6016970276832581,0.9657133221626282,0.4533715844154358,0.9596694707870483,-0.21591539680957794,0.9870255589485168
1,0.5063589811325073,0.1322539895772934,-0.345949649810791,0.9998930096626282,0.5032445192337036,0.10919646173715591,-0.31225624680519104,0.9998562932014465,0.5050010681152344,0.10911579430103302,-0.31224456429481506,0.9998040199279785,0.5069596767425537,0.10911905020475388,-0.3121435046195984,0.9996764659881592,0.4920029044151306,0.10858086496591568,-0.3410688042640686,0.999921441078186,0.4861546456813812,0.10841560363769531,-0.3411271274089813,0.9999266266822815,0.4802500307559967,0.10861194878816605,-0.3412091135978699,0.9999282360076904,0.5010868310928345,0.11702748388051987,-0.12385435402393341,0.9990244507789612,0.46332064270973206,0.1185484454035759,-0.2544023394584656,0.9999540448188782,0.5084095597267151,0.15281537175178528,-0.2712469696998596,0.999695360660553,0.4953193664550781,0.15231291949748993,-0.3087415397167206,0.9999221563339233,0.5316218137741089,0.24099399149417877,0.041879020631313324,0.9973840713500977,0.4156009256839752,0.23746660351753235,-0.2505941689014435,0.9999710321426392,0.5673462152481079,0.30981647968292236,-0.1013137474656105,0.48846831917762756,0.4246225357055664,0.38736385107040405,-0.3454633355140686,0.9954207539558411,0.5450626611709595,0.25901198387145996,-0.4466109871864319,0.5914134383201599,0.4914312958717346,0.29430103302001953,-0.38152867555618286,0.990667462348938,0.538608729839325,0.24698643386363983,-0.5077635049819946,0.4881223142147064,0.5140058994293213,0.27184930443763733,-0.4192727506160736,0.9743764400482178,0.5348380208015442,0.23701365292072296,-0.497070848941803,0.4689275622367859,0.5120717287063599,0.25272321701049805,-0.4121302664279938,0.9705724120140076,0.5282561779022217,0.24940943717956543,-0.45384305715560913,0.457378089427948,0.5050016641616821,0.2587421238422394,-0.3731811046600342,0.9478557109832764,0.5191800594329834,0.511163592338562,0.08778481185436249,0.9988914728164673,0.4492860436439514,0.51828932762146,-0.08798094093799591,0.9999081492424011,0.533038318157196,0.6868280172348022,0.38945072889328003,0.9314146637916565,0.44161564111709595,0.7150747179985046,-0.13847091794013977,0.9970484972000122,0.5415637493133545,0.8158242106437683,0.7516212463378906,0.9671051502227783,0.424726665019989,0.8988557457923889,-0.07684620469808578,0.9926623702049255,0.5305265188217163,0.8466641306877136,0.7800954580307007,0.9303622245788574,0.41656821966171265,0.9229907989501953,-0.07942257821559906,0.9171963334083557,0.5951030254364014,0.8577244281768799,0.665486752986908,0.9665974378585815,0.4537504315376282,0.9597499370574951,-0.28014621138572693,0.9872184991836548
2,0.5059829950332642,0.13140445947647095,-0.35657960176467896,0.9998936653137207,0.5031586289405823,0.10886826366186142,-0.32574284076690674,0.9998582005500793,0.5050016641616821,0.10873553901910782,-0.32572317123413086,0.9998063445091248,0.5070412755012512,0.1086997240781784,-0.32561570405960083,0.9996818900108337,0.49171656370162964,0.10853687673807144,-0.3549618422985077,0.999922513961792,0.4860234260559082,0.10841487348079681,-0.35504084825515747,0.9999277591705322,0.4802229404449463,0.10861846059560776,-0.3551357686519623,0.9999297857284546,0.5015000104904175,0.1167525053024292,-0.13703736662864685,0.9990342259407043,0.4633602499961853,0.11857196688652039,-0.27001363039016724,0.9999547004699707,0.5084043741226196,0.1506364494562149,-0.28335291147232056,0.999700129032135,0.4948427081108093,0.15022608637809753,-0.3213474154472351,0.9999240040779114,0.5329661965370178,0.24074487388134003,0.034556347876787186,0.9974216222763062,0.4155988097190857,0.2375188022851944,-0.257815420627594,0.9999717473983765,0.5687452554702759,0.3132721483707428,-0.09680874645709991,0.4987545907497406,0.4237847328186035,0.3873400390148163,-0.3105382025241852,0.9956495761871338,0.547725260257721,0.26507875323295593,-0.43829721212387085,0.5999301075935364,0.4913967251777649,0.29412466287612915,-0.2747844159603119,0.9909689426422119,0.5413537621498108,0.254665344953537,-0.49850040674209595,0.4957936108112335,0.5140619874000549,0.27197563648223877,-0.29807978868484497,0.9749953150749207,0.5365080833435059,0.24099977314472198,-0.4917266368865967,0.47706273198127747,0.512743353843689,0.2527196705341339,-0.29515624046325684,0.97130286693573,0.5322957038879395,0.2524489164352417,-0.44649261236190796,0.4643684923648834,0.5051887035369873,0.258707731962204,-0.2657419741153717,0.9489604830741882,0.5186277031898499,0.5115326046943665,0.0878533199429512,0.9989081025123596,0.44917598366737366,0.5182414650917053,-0.08800725638866425,0.9999101161956787,0.532986044883728,0.6815195083618164,0.382912278175354,0.9285791516304016,0.4414902627468109,0.7152603268623352,-0.1412280946969986,0.9970733523368835,0.5397102236747742,0.8157315850257874,0.7428966164588928,0.9668067097663879,0.42453235387802124,0.8959920406341553,-0.07417257130146027,0.9926571846008301,0.5294324159622192,0.8465589880943298,0.7708348631858826,0.9307178258895874,0.4160674214363098,0.9199422597885132,-0.07669799774885178,0.9170577526092529,0.5933986902236938,0.857976496219635,0.6551854014396667,0.9665283560752869,0.4537465572357178,0.9586905837059021,-0.27726438641548157,0.9872814416885376
3,0.5059636831283569,0.13067315518856049,-0.3652845323085785,0.9998953938484192,0.5031765699386597,0.10864313691854477,-0.3376987874507904,0.9998608231544495,0.50506192445755,0.10847692936658859,-0.33767053484916687,0.9998103380203247,0.5071393847465515,0.10838709026575089,-0.33756038546562195,0.9996888041496277,0.4917986989021301,0.10840927809476852,-0.3696795105934143,0.9999237656593323,0.48624175786972046,0.10829324275255203,-0.3697585165500641,0.9999291300773621,0.4806172847747803,0.10841917246580124,-0.3698500096797943,0.9999313354492188,0.5014570951461792,0.1162579134106636,-0.15786075592041016,0.9990469813346863,0.4637672007083893,0.11783626675605774,-0.30393773317337036,0.9999555349349976,0.50835120677948,0.14901477098464966,-0.29413163661956787,0.9997063875198364,0.49482712149620056,0.148270383477211,-0.3357781767845154,0.9999264478683472,0.5321155786514282,0.2403542846441269,0.020993970334529877,0.9974406957626343,0.4147374629974365,0.23755308985710144,-0.28602364659309387,0.9999729990959167,0.5673103928565979,0.33265694975852966,-0.12045224010944366,0.5031096339225769,0.42376264929771423,0.38734227418899536,-0.3158872127532959,0.9958328008651733,0.5524131059646606,0.2646061182022095,-0.5042543411254883,0.6033645868301392,0.49138522148132324,0.2933211028575897,-0.26894423365592957,0.9912368655204773,0.5480481386184692,0.24885855615139008,-0.5689021348953247,0.4983477294445038,0.5138241052627563,0.27101966738700867,-0.29085442423820496,0.975569486618042,0.5442332029342651,0.23572440445423126,-0.5607587099075317,0.4803989827632904,0.5126723051071167,0.2508983910083771,-0.2899244427680969,0.9719950556755066,0.5401118397712708,0.2465115487575531,-0.5137467384338379,0.46714460849761963,0.5051859021186829,0.256564736366272,-0.2602372467517853,0.9498862624168396,0.5178288221359253,0.5110751986503601,0.08852391690015793,0.9989325404167175,0.44861406087875366,0.5181866884231567,-0.08865507692098618,0.9999133944511414,0.5328875780105591,0.6786553263664246,0.3916282653808594,0.9263507723808289,0.4413924217224121,0.715255856513977,-0.1491672694683075,0.9971233010292053,0.5388706922531128,0.8148607015609741,0.7601727843284607,0.9665746092796326,0.42383748292922974,0.8945750594139099,-0.08502274006605148,0.9927365779876709,0.5291482210159302,0.8457778692245483,0.7888838052749634,0.9310991764068604,0.4147929549217224,0.9190087914466858,-0.08831248432397842,0.917544960975647,0.5928293466567993,0.8578173518180847,0.6726616621017456,0.9667219519615173,0.4533570408821106,0.9573212265968323,-0.29257309436798096,0.9875309467315674
4,0.5050747394561768,0.13050752878189087,-0.3595063388347626,0.9998931884765625,0.5028989315032959,0.10863111913204193,-0.3321676254272461,0.9998577237129211,0.5048743486404419,0.10843493789434433,-0.3321426808834076,0.9998052716255188,0.5070123076438904,0.10831328481435776,-0.33204495906829834,0.9996834397315979,0.4916711449623108,0.10850445926189423,-0.36261871457099915,0.9999232292175293,0.4862251281738281,0.10845639556646347,-0.36269545555114746,0.9999290108680725,0.4806256890296936,0.1085977777838707,-0.36278069019317627,0.9999319911003113,0.500860333442688,0.11614861339330673,-0.1571243554353714,0.9990180730819702,0.4638408124446869,0.11784198135137558,-0.29418879747390747,0.9999553561210632,0.5073884725570679,0.14847397804260254,-0.2898290157318115,0.9997018575668335,0.49418601393699646,0.14785505831241608,-0.329235315322876,0.9999271631240845,0.5319255590438843,0.2403147965669632,0.020995162427425385,0.9973019957542419,0.4140934944152832,0.23754741251468658,-0.27953821420669556,0.999973475933075,0.5686718225479126,0.32943516969680786,-0.1197529062628746,0.5139660835266113,0.42332276701927185,0.3873484432697296,-0.3294738233089447,0.9960195422172546,0.5551904439926147,0.2538546025753021,-0.48679405450820923,0.6039950847625732,0.4913766384124756,0.2920246720314026,-0.31547462940216064,0.9915549159049988,0.5499064326286316,0.23721909523010254,-0.5470625162124634,0.4967362582683563,0.5138292908668518,0.2680324912071228,-0.3447429835796356,0.9763023257255554,0.5445817708969116,0.22572924196720123,-0.5366708040237427,0.4790370762348175,0.5127269625663757,0.24865193665027618,-0.34126800298690796,0.9728692173957825,0.5410729646682739,0.23531930148601532,-0.4940814971923828,0.46580493450164795,0.5051823854446411,0.2543632388114929,-0.30701321363449097,0.9511234760284424,0.5172989368438721,0.5112243890762329,0.08810783922672272,0.9989418983459473,0.44777217507362366,0.5183061957359314,-0.08823235332965851,0.9999157190322876,0.5325669646263123,0.6784399747848511,0.3907187581062317,0.9249131083488464,0.44103941321372986,0.715262234210968,-0.1551644653081894,0.9971587061882019,0.5375281572341919,0.813513994216919,0.7605389952659607,0.9662919640541077,0.42162904143333435,0.8940821886062622,-0.09258861839771271,0.9928262233734131,0.5283231139183044,0.8438388705253601,0.7894642949104309,0.9315906763076782,0.4131748080253601,0.9177015423774719,-0.096060611307621,0.917955756187439,0.5910759568214417,0.8566523194313049,0.6725988984107971,0.9667702913284302,0.4506968557834625,0.9570042490959167,-0.3028936982154846,0.9877182841300964
5,0.503949761390686,0.13050487637519836,-0.3628956973552704,0.9998875856399536,0.5019768476486206,0.10863768309354782,-0.3378247022628784,0.9998497366905212,0.5040079355239868,0.10843243449926376,-0.33779188990592957,0.9997959733009338,0.5062074065208435,0.10829389095306396,-0.3376787602901459,0.9996674656867981,0.49133387207984924,0.10865574330091476,-0.36793309450149536,0.9999179840087891,0.48613810539245605,0.10863880813121796,-0.36801284551620483,0.9999244213104248,0.48062196373939514,0.1087489053606987,-0.3681091070175171,0.999927818775177,0.49957185983657837,0.11611691117286682,-0.16717270016670227,0.9989469647407532,0.4638373851776123,0.11785121262073517,-0.3027052581310272,0.9999517202377319,0.506022572517395,0.1481080949306488,-0.29418128728866577,0.9996856451034546,0.49355649948120117,0.1476093828678131,-0.33331090211868286,0.9999241232872009,0.5297037363052368,0.2395196110010147,0.0005915862275287509,0.9972590804100037,0.4136691093444824,0.23750434815883636,-0.2795581817626953,0.9999740719795227,0.5622913241386414,0.33747294545173645,-0.1630609929561615,0.5174694061279297,0.4229046702384949,0.3872268497943878,-0.3211529552936554,0.9960171580314636,0.5426099300384521,0.25551119446754456,-0.5492410063743591,0.6053001284599304,0.4910573363304138,0.2908124625682831,-0.2578471601009369,0.9913178086280823,0.5347573161125183,0.24034836888313293,-0.6143208742141724,0.49701127409935,0.5130569934844971,0.264321506023407,-0.27404388785362244,0.975529134273529,0.5334729552268982,0.22937704622745514,-0.5986127853393555,0.4797273576259613,0.5108476281166077,0.24602563679218292,-0.2737089991569519,0.9720099568367004,0.5291776061058044,0.23825839161872864,-0.555214524269104,0.46464774012565613,0.504300057888031,0.25212153792381287,-0.24828433990478516,0.9494485855102539,0.5151118040084839,0.510577380657196,0.08798117190599442,0.9989269971847534,0.44662803411483765,0.5175016522407532,-0.08811134845018387,0.9999164938926697,0.5307298898696899,0.6747924089431763,0.3857663869857788,0.9219600558280945,0.44080886244773865,0.7141932249069214,-0.16004958748817444,0.9971487522125244,0.5357183814048767,0.8119138479232788,0.7480469942092896,0.9655012488365173,0.41907620429992676,0.8930743932723999,-0.10488704591989517,0.9928222894668579,0.5267383456230164,0.8406873345375061,0.7763182520866394,0.9305121898651123,0.40983453392982483,0.9167258739471436,-0.10915154218673706,0.9173111915588379,0.5893456339836121,0.8559510707855225,0.6618016958236694,0.966558575630188,0.4495750963687897,0.956390917301178,-0.31103992462158203,0.9878442883491516
6,0.502869725227356,0.13037963211536407,-0.386628657579422,0.9998834133148193,0.5016840696334839,0.10862041264772415,-0.3604772388935089,0.9998437762260437,0.5038547515869141,0.10840225219726562,-0.36044931411743164,0.999787449836731,0.506152868270874,0.10825970768928528,-0.3603389263153076,0.9996548295021057,0.49105367064476013,0.10866104811429977,-0.387942910194397,0.9999143481254578,0.4860092103481293,0.10864446312189102,-0.3880128264427185,0.9999207258224487,0.4805775284767151,0.10875050723552704,-0.3880963623523712,0.9999247193336487,0.49958935379981995,0.11612971872091293,-0.18123659491539001,0.9988929033279419,0.46383094787597656,0.11783537268638611,-0.30608224868774414,0.9999485015869141,0.5047875642776489,0.147770956158638,-0.314808189868927,0.999671995639801,0.4925209879875183,0.14731933176517487,-0.3506146967411041,0.9999215006828308,0.5293259024620056,0.2375357449054718,-0.01520788948982954,0.997222363948822,0.4128997325897217,0.23741284012794495,-0.2765949070453644,0.9999741315841675,0.559311032295227,0.33821141719818115,-0.17852024734020233,0.5334882736206055,0.4222041070461273,0.38644635677337646,-0.31307923793792725,0.9960760474205017,0.5329406261444092,0.25585171580314636,-0.5631819367408752,0.6163088083267212,0.4905899167060852,0.2901920974254608,-0.26498252153396606,0.9913296103477478,0.522485613822937,0.24139754474163055,-0.6305859684944153,0.5067371129989624,0.5117546319961548,0.2630747854709625,-0.2880130112171173,0.9754095077514648,0.5276356935501099,0.23060014843940735,-0.6173174977302551,0.4895196557044983,0.5087509751319885,0.24494019150733948,-0.28646931052207947,0.9719282984733582,0.5251853466033936,0.2399687021970749,-0.569612979888916,0.4726698398590088,0.5031929016113281,0.25122350454330444,-0.2563886344432831,0.9491371512413025,0.5137497186660767,0.5079363584518433,0.08649319410324097,0.9989305734634399,0.44541797041893005,0.5155313014984131,-0.08663280308246613,0.9999170303344727,0.5305866599082947,0.6740698218345642,0.3762090802192688,0.9217228889465332,0.4406066834926605,0.7119181752204895,-0.15238964557647705,0.9972096681594849,0.5353559255599976,0.8107327818870544,0.7397493720054626,0.9658792614936829,0.4178909361362457,0.8916031718254089,-0.09231628477573395,0.9929676055908203,0.5261613130569458,0.8394401669502258,0.767437756061554,0.931396484375,0.4085772633552551,0.9151016473770142,-0.09572267532348633,0.9181771874427795,0.5889567136764526,0.8559534549713135,0.6423437595367432,0.9669600129127502,0.44781559705734253,0.9550275802612305,-0.29196223616600037,0.9880925416946411
7,0.5028221011161804,0.12966424226760864,-0.3806207776069641,0.9998810887336731,0.5016855001449585,0.10782851278781891,-0.35368233919143677,0.9998414516448975,0.5038778781890869,0.10759931057691574,-0.353657066822052,0.9997845888137817,0.5062578916549683,0.10751394927501678,-0.3535453677177429,0.9996510148048401,0.49103307723999023,0.10814948379993439,-0.3824753761291504,0.9999122023582458,0.48600611090660095,0.10820487886667252,-0.3825465738773346,0.9999184608459473,0.48058924078941345,0.10832782089710236,-0.38263577222824097,0.9999229311943054,0.500476062297821,0.1158456951379776,-0.175010085105896,0.9988633990287781,0.4639725089073181,0.11742515861988068,-0.30494022369384766,0.9999464750289917,0.5048484206199646,0.1469295471906662,-0.30949708819389343,0.9996643662452698,0.49255919456481934,0.14664697647094727,-0.34698253870010376,0.999920129776001,0.5293402075767517,0.2367434799671173,-0.00963877234607935,0.9971914291381836,0.41290420293807983,0.23739996552467346,-0.27579909563064575,0.9999741315841675,0.5581110715866089,0.33855053782463074,-0.1655106544494629,0.5384523272514343,0.42170172929763794,0.3857496380805969,-0.31021958589553833,0.9961177110671997,0.534559428691864,0.26050156354904175,-0.5524275302886963,0.6219733953475952,0.49016040563583374,0.29011186957359314,-0.2567974925041199,0.9913313388824463,0.5257114171981812,0.24264571070671082,-0.6193185448646545,0.5117334723472595,0.5108123421669006,0.2626168131828308,-0.27818921208381653,0.9752876162528992,0.5281522870063782,0.23190850019454956,-0.608060896396637,0.49498552083969116,0.5069459080696106,0.2445816844701767,-0.27584999799728394,0.9718194007873535,0.5253273248672485,0.24104736745357513,-0.560099720954895,0.4768870174884796,0.502007782459259,0.25111421942710876,-0.2477276623249054,0.9488007426261902,0.512973427772522,0.5070205330848694,0.08632619678974152,0.9989220499992371,0.44478678703308105,0.5142951011657715,-0.08646593987941742,0.999916672706604,0.5303802490234375,0.6742987036705017,0.37094467878341675,0.9197174310684204,0.4404141306877136,0.7114649415016174,-0.15273472666740417,0.9972106218338013,0.5349166393280029,0.8106005787849426,0.7299789786338806,0.9658878445625305,0.4165492057800293,0.8912135362625122,-0.08761287480592728,0.9930038452148438,0.5256573557853699,0.8393809199333191,0.7567930221557617,0.931628942489624,0.4071785509586334,0.9150494337081909,-0.09070948511362076,0.9180433750152588,0.5890837907791138,0.8558478951454163,0.6308974027633667,0.9670469164848328,0.4463363587856293,0.9540267586708069,-0.2918820381164551,0.9882098436355591
8,0.5028444528579712,0.12961287796497345,-0.37986746430397034,0.9998859167098999,0.5019301176071167,0.10780850797891617,-0.3523653745651245,0.9998489618301392,0.5043805837631226,0.10759237408638,-0.35233181715011597,0.9997947216033936,0.507036566734314,0.1075161024928093,-0.3522182106971741,0.9996671080589294,0.49103671312332153,0.10809900611639023,-0.38187354803085327,0.9999155402183533,0.48600974678993225,0.10813556611537933,-0.38194361329078674,0.9999213218688965,0.4806121289730072,0.10823190957307816,-0.38202744722366333,0.9999254941940308,0.5023882389068604,0.11584283411502838,-0.17150603234767914,0.9989113807678223,0.46447229385375977,0.11725955456495285,-0.3043857514858246,0.9999483227729797,0.5048964023590088,0.14686653017997742,-0.30785661935806274,0.9996768832206726,0.49254775047302246,0.14658819139003754,-0.3463025391101837,0.999923050403595,0.5290628671646118,0.2367791384458542,-0.006977688521146774,0.9972608089447021,0.4129221439361572,0.2373473048210144,-0.2756153345108032,0.9999743700027466,0.5541896224021912,0.3483676314353943,-0.15746432542800903,0.5401855111122131,0.42163023352622986,0.3844594359397888,-0.29648110270500183,0.996101975440979,0.5355803370475769,0.26763927936553955,-0.5471794605255127,0.6315128207206726,0.4901878833770752,0.2897283732891083,-0.22990553081035614,0.9912493824958801,0.5274420380592346,0.2464185208082199,-0.6142052412033081,0.5221596956253052,0.5104857683181763,0.26224711537361145,-0.2468656748533249,0.9750458598136902,0.5283412337303162,0.23686793446540833,-0.6030915975570679,0.5058137774467468,0.5070710182189941,0.2441888153553009,-0.24823050200939178,0.9715648889541626,0.5257086157798767,0.24451641738414764,-0.5553296804428101,0.4869278073310852,0.5019197463989258,0.25105732679367065,-0.2215571403503418,0.9484413862228394,0.512043833732605,0.5081703066825867,0.08637388050556183,0.9989408254623413,0.44365087151527405,0.5149351954460144,-0.08651547133922577,0.9999166131019592,0.529883861541748,0.6750739812850952,0.37032657861709595,0.9179512858390808,0.44019705057144165,0.7115007638931274,-0.1340199112892151,0.9971802234649658,0.5345324873924255,0.8109386563301086,0.725502610206604,0.9656305313110352,0.41604843735694885,0.8904245495796204,-0.04905831068754196,0.9928869009017944,0.5246549844741821,0.8395959734916687,0.7520985007286072,0.9317701458930969,0.4061278700828552,0.9143819212913513,-0.04974228888750076,0.9177893996238708,0.5891542434692383,0.8558021187782288,0.6297645568847656,0.9668630957603455,0.4456050395965576,0.953117311000824,-0.24709661304950714,0.9881107211112976
9,0.5036889314651489,0.12956923246383667,-0.3694330155849457,0.9998928904533386,0.5034264326095581,0.10783262550830841,-0.33896976709365845,0.9998586773872375,0.5061289072036743,0.10764523595571518,-0.3389061391353607,0.999807596206665,0.508974015712738,0.10761412978172302,-0.33875900506973267,0.9996877312660217,0.4919660985469818,0.10810385644435883,-0.3680933117866516,0.9999205470085144,0.4869038462638855,0.10813753306865692,-0.3681408762931824,0.9999259114265442,0.48166602849960327,0.10822651535272598,-0.3682050108909607,0.9999298453330994,0.50473952293396,0.11597083508968353,-0.1492234170436859,0.9989774823188782,0.4657691419124603,0.11705179512500763,-0.2809869647026062,0.9999514222145081,0.5063343048095703,0.1468842774629593,-0.29466333985328674,0.9996951818466187,0.49329930543899536,0.1465742439031601,-0.3325802981853485,0.9999274611473083,0.5269998908042908,0.2366797775030136,0.019289106130599976,0.9973479509353638,0.41300535202026367,0.23679476976394653,-0.2632940113544464,0.9999749660491943,0.5531821250915527,0.34680482745170593,-0.1212448701262474,0.5335692763328552,0.4217096269130707,0.3840233087539673,-0.27401870489120483,0.9961491227149963,0.5356618762016296,0.27155277132987976,-0.5174734592437744,0.6318607330322266,0.4902617037296295,0.289260596036911,-0.19933295249938965,0.991303563117981,0.5303007960319519,0.2522661089897156,-0.5867266058921814,0.5246431827545166,0.5104684829711914,0.2623281180858612,-0.21521711349487305,0.9751962423324585,0.5316013693809509,0.24397429823875427,-0.5816692113876343,0.5087328553199768,0.5072973966598511,0.24426551163196564,-0.2191033661365509,0.9717793464660645,0.5265432000160217,0.25042617321014404,-0.5289038419723511,0.4904293715953827,0.501937985420227,0.2512015402317047,-0.19199922680854797,0.9490610957145691,0.5099348425865173,0.5086150765419006,0.08809985220432281,0.9989733099937439,0.4425322115421295,0.515464186668396,-0.08827093988656998,0.9999163746833801,0.5293601751327515,0.6728864312171936,0.3658599555492401,0.9180111289024353,0.4402315020561218,0.7119954824447632,-0.09658877551555634,0.9971862435340881,0.5344347953796387,0.8106196522712708,0.7031098008155823,0.9663819074630737,0.416281133890152,0.8894687294960022,0.0018332194304093719,0.9929206371307373,0.5239165425300598,0.8396379947662354,0.7286659479141235,0.9337030649185181,0.4058888852596283,0.9130653142929077,0.003122309222817421,0.9190949201583862,0.5892624258995056,0.8539273738861084,0.6146308779716492,0.9676335453987122,0.44583696126937866,0.9525464773178101,-0.18327128887176514,0.9881707429885864
10,0.5055522322654724,0.12956662476062775,-0.3722659945487976,0.9999006986618042,0.5059630274772644,0.107908234000206,-0.34234166145324707,0.999869167804718,0.5088279843330383,0.10780581086874008,-0.3422735333442688,0.9998217821121216,0.5118447542190552,0.10789679735898972,-0.34213316440582275,0.9997103214263916,0.4939749240875244,0.10810472816228867,-0.37119436264038086,0.9999260902404785,0.488711416721344,0.1081332117319107,-0.37124377489089966,0.9999310970306396,0.48344701528549194,0.10819067806005478,-0.371307909488678,0.9999346733093262,0.5080782175064087,0.11641902476549149,-0.14942200481891632,0.9990487694740295,0.468167245388031,0.1166265532374382,-0.2820191979408264,0.9999548196792603,0.5083433985710144,0.14692945778369904,-0.29764702916145325,0.9997157454490662,0.49462801218032837,0.14656184613704681,-0.335366427898407,0.9999324679374695,0.5261672139167786,0.23676924407482147,0.020871499553322792,0.9974564909934998,0.41366758942604065,0.23610465228557587,-0.26372668147087097,0.9999761581420898,0.552596390247345,0.34955793619155884,-0.1197548359632492,0.5248513221740723,0.42213010787963867,0.38359740376472473,-0.269661545753479,0.9960747957229614,0.5362955331802368,0.27294591069221497,-0.5169246196746826,0.6285908818244934,0.4906049370765686,0.28926074504852295,-0.19879725575447083,0.9910688996315002,0.5309978127479553,0.25257232785224915,-0.5846341252326965,0.5235232710838318,0.5104930996894836,0.26274019479751587,-0.21549275517463684,0.9746847152709961,0.5333276987075806,0.24686302244663239,-0.5772253274917603,0.5079567432403564,0.5078089237213135,0.2449413239955902,-0.2205384224653244,0.9712453484535217,0.5270999073982239,0.2512034773826599,-0.5273972749710083,0.48987138271331787,0.5022172927856445,0.25195053219795227,-0.19205912947654724,0.9483592510223389,0.508486270904541,0.5085996389389038,0.09060466289520264,0.9990088939666748,0.441161572933197,0.515458881855011,-0.0908137634396553,0.9999182224273682,0.5294454097747803,0.6659888029098511,0.37217530608177185,0.9197540283203125,0.4402531087398529,0.7127006649971008,-0.10692182928323746,0.9972855448722839,0.534497857093811,0.8057504296302795,0.7065752744674683,0.967796266078949,0.41640010476112366,0.8895408511161804,-0.023112226277589798,0.9931761622428894,0.5237787365913391,0.8365403413772583,0.7306294441223145,0.9358046054840088,0.40510377287864685,0.9131157994270325,-0.023702742531895638,0.921160876750946,0.5904833078384399,0.8500207662582397,0.6154848337173462,0.9689056873321533,0.44600194692611694,0.9524194598197937,-0.21552173793315887,0.9885717630386353
11,0.5086641907691956,0.13120177388191223,-0.37450024485588074,0.9999022483825684,0.5093169212341309,0.1103036031126976,-0.34421560168266296,0.9998714327812195,0.5124301910400391,0.110449880361557,-0.3441697061061859,0.9998242259025574,0.5156529545783997,0.11074431240558624,-0.3440370261669159,0.9997151494026184,0.4964262843132019,0.10999059677124023,-0.3724614381790161,0.9999264478683472,0.49087589979171753,0.1099184900522232,-0.37251579761505127,0.9999312162399292,0.4854525923728943,0.10979807376861572,-0.3725903630256653,0.9999350309371948,0.511631429195404,0.11946902424097061,-0.1503845900297165,0.9990586042404175,0.47028622031211853,0.11778882145881653,-0.28124964237213135,0.9999546408653259,0.5114825963973999,0.14893746376037598,-0.2993584871292114,0.9997197985649109,0.49671974778175354,0.1482696831226349,-0.3362559378147125,0.9999333620071411,0.5277048945426941,0.23772448301315308,0.020340271294116974,0.9975162148475647,0.4148499369621277,0.23641075193881989,-0.2618449628353119,0.9999762773513794,0.5530552864074707,0.34839048981666565,-0.11713330447673798,0.5217655897140503,0.4238901138305664,0.38339897990226746,-0.270088255405426,0.9960895776748657,0.5406554937362671,0.28440025448799133,-0.509395956993103,0.6286364197731018,0.4921954572200775,0.2909207046031952,-0.23016643524169922,0.9911321401596069,0.5368344783782959,0.27043861150741577,-0.5781093239784241,0.5263513326644897,0.5115511417388916,0.2689818739891052,-0.25379401445388794,0.9750434756278992,0.5378342866897583,0.25785204768180847,-0.5754700899124146,0.5111000537872314,0.5113743543624878,0.2497042864561081,-0.2600182294845581,0.9717221260070801,0.5309268832206726,0.2658851444721222,-0.5217318534851074,0.493074893951416,0.5039640665054321,0.25612151622772217,-0.2251787930727005,0.9492363333702087,0.5080816149711609,0.5088878273963928,0.09024651348590851,0.9990323185920715,0.4397962987422943,0.5158342719078064,-0.09044864773750305,0.9999188184738159,0.5290267467498779,0.6684393286705017,0.36105793714523315,0.9205060601234436,0.44098472595214844,0.7154421210289001,-0.11600210517644882,0.9973429441452026,0.5362895131111145,0.8046025037765503,0.7055953741073608,0.9686864018440247,0.4165249466896057,0.8901722431182861,-0.031308747828006744,0.9933121800422668,0.5245240330696106,0.8347734212875366,0.7311788201332092,0.9367272257804871,0.4052165150642395,0.9132855534553528,-0.032854847609996796,0.921256959438324,0.5908822417259216,0.8501248955726624,0.6117428541183472,0.9696281552314758,0.4464895725250244,0.9537658095359802,-0.21653716266155243,0.9887992739677429
12,0.5120964050292969,0.13553039729595184,-0.38412749767303467,0.9998997449874878,0.5123990774154663,0.1155749186873436,-0.3553626239299774,0.9998677968978882,0.5155872106552124,0.11607133597135544,-0.3553454279899597,0.9998186230659485,0.5189134478569031,0.1167314276099205,-0.3552376627922058,0.9997069835662842,0.49919742345809937,0.11439236998558044,-0.38256150484085083,0.9999223947525024,0.49343472719192505,0.11413516104221344,-0.38262075185775757,0.9999268651008606,0.4879085421562195,0.11398731172084808,-0.38270360231399536,0.9999313354492188,0.5146193504333496,0.1247553825378418,-0.16456077992916107,0.9990225434303284,0.47241705656051636,0.12220843136310577,-0.28725653886795044,0.9999515414237976,0.5139364004135132,0.15426591038703918,-0.3092140853404999,0.9997111558914185,0.4985674321651459,0.15262717008590698,-0.3445613980293274,0.9999306201934814,0.5278316736221313,0.23872096836566925,0.016441289335489273,0.9975206851959229,0.4167158007621765,0.23711559176445007,-0.2612925171852112,0.9999752044677734,0.5533699989318848,0.35035091638565063,-0.1202184185385704,0.5053228735923767,0.4266822934150696,0.3860572278499603,-0.265516459941864,0.995788037776947,0.5407999753952026,0.29040566086769104,-0.5114356279373169,0.6159971952438354,0.49487000703811646,0.2954690754413605,-0.2217416763305664,0.9905425906181335,0.5375832319259644,0.27601850032806396,-0.5787061452865601,0.5182112455368042,0.5121434926986694,0.27454784512519836,-0.24339823424816132,0.9739459753036499,0.5384122729301453,0.259403258562088,-0.5756591558456421,0.5033924579620361,0.5112696886062622,0.2560218572616577,-0.25062665343284607,0.9705721139907837,0.5318105220794678,0.2713875472545624,-0.5236523151397705,0.4852232038974762,0.5043990015983582,0.26100027561187744,-0.21694307029247284,0.9475889801979065,0.507238507270813,0.5075404644012451,0.0899922102689743,0.9990276098251343,0.4383137822151184,0.5152214765548706,-0.09018565714359283,0.9999122023582458,0.5354760885238647,0.6689550280570984,0.32209259271621704,0.9221674799919128,0.4410010874271393,0.7152886986732483,-0.11739809811115265,0.9973717331886292,0.5364168286323547,0.8038445115089417,0.6489859819412231,0.9698631763458252,0.41663408279418945,0.8902165293693542,-0.015278443694114685,0.9934717416763306,0.5241234302520752,0.8338252902030945,0.6728057861328125,0.937828540802002,0.4051843285560608,0.9134107232093811,-0.013870378956198692,0.9217298030853271,0.5908956527709961,0.8502672910690308,0.5495938062667847,0.9706417322158813,0.4465204179286957,0.9539322257041931,-0.2060680389404297,0.989083468914032
13,0.5162156224250793,0.15625150501728058,-0.4011942446231842,0.9998759031295776,0.5154060125350952,0.13952364027500153,-0.37332770228385925,0.999829888343811,0.5178765058517456,0.14070209860801697,-0.3733578026294708,0.9997724890708923,0.5206412076950073,0.14221897721290588,-0.3733317255973816,0.9996454119682312,0.5036680102348328,0.1358030140399933,-0.40028348565101624,0.9998903870582581,0.4977964758872986,0.13447146117687225,-0.4003308415412903,0.9998952746391296,0.4920125901699066,0.13344939053058624,-0.4004038870334625,0.9999015927314758,0.5151879787445068,0.15080733597278595,-0.18817752599716187,0.9988564252853394,0.47544822096824646,0.14301639795303345,-0.3092935383319855,0.99992835521698,0.5151672959327698,0.17812615633010864,-0.32797402143478394,0.9996417164802551,0.5025370717048645,0.1754191368818283,-0.3631371259689331,0.9999111890792847,0.5279406905174255,0.2579546570777893,-0.02514006569981575,0.9974011182785034,0.4184914231300354,0.2556457221508026,-0.2728079557418823,0.9999663829803467,0.5528225302696228,0.361718088388443,-0.1623954027891159,0.5000619888305664,0.4289984107017517,0.3999069035053253,-0.3202877640724182,0.995381236076355,0.5456188917160034,0.2886113226413727,-0.5182756185531616,0.6090772747993469,0.5009176731109619,0.30890214443206787,-0.3223520517349243,0.9898310899734497,0.5458645820617676,0.2733252942562103,-0.5817745923995972,0.5135596394538879,0.5192705392837524,0.2827202081680298,-0.3503323197364807,0.9723995327949524,0.5425590872764587,0.2581958770751953,-0.5769189596176147,0.4983923137187958,0.5165320634841919,0.26648226380348206,-0.3475947976112366,0.9688859581947327,0.5390635132789612,0.26904746890068054,-0.5286728739738464,0.4808037281036377,0.5111822485923767,0.2748093008995056,-0.31588688492774963,0.9449930191040039,0.5036446452140808,0.5180457234382629,0.08458917587995529,0.9990150332450867,0.43376874923706055,0.5274785757064819,-0.08467775583267212,0.9998921155929565,0.5423188209533691,0.67650306224823,0.24685625731945038,0.9266624450683594,0.44131404161453247,0.72054523229599,-0.11152628809213638,0.9973808526992798,0.5373478531837463,0.8057653903961182,0.5689092874526978,0.970962405204773,0.4166933000087738,0.8905622959136963,0.03535977751016617,0.9935612678527832,0.5240307450294495,0.8339584469795227,0.5929471254348755,0.9380258917808533,0.4052932858467102,0.9135085344314575,0.04191826283931732,0.9204922318458557,0.5909157395362854,0.8549548983573914,0.47383636236190796,0.971260130405426,0.44546017050743103,0.9549157619476318,-0.14507922530174255,0.9891549944877625
14,0.5173431634902954,0.17091995477676392,-0.39823293685913086,0.999866247177124,0.5172427892684937,0.15575137734413147,-0.372039794921875,0.999815821647644,0.51954185962677,0.15702681243419647,-0.37183767557144165,0.9997575283050537,0.5220635533332825,0.15852825343608856,-0.37149128317832947,0.9996344447135925,0.5058079361915588,0.15146641433238983,-0.3976631462574005,0.9998742938041687,0.49999675154685974,0.1499132663011551,-0.39778444170951843,0.9998780488967896,0.4942818284034729,0.14864106476306915,-0.397919237613678,0.9998845458030701,0.5157496333122253,0.1660679280757904,-0.18500939011573792,0.998848021030426,0.47771668434143066,0.15744410455226898,-0.30517616868019104,0.9999136328697205,0.5151721239089966,0.1925668865442276,-0.3236852288246155,0.9996331334114075,0.5029624700546265,0.18882884085178375,-0.3578827977180481,0.9999071955680847,0.5248671174049377,0.2732635736465454,-0.01723557338118553,0.997474730014801,0.42091792821884155,0.2660463750362396,-0.27709928154945374,0.9999585747718811,0.5555063486099243,0.360713392496109,-0.1795687973499298,0.5139380097389221,0.4340988099575043,0.4113965332508087,-0.35753801465034485,0.9948925971984863,0.5604737997055054,0.27663442492485046,-0.5401831269264221,0.618699848651886,0.5043166875839233,0.3176085352897644,-0.38322964310646057,0.9892518520355225,0.5652481317520142,0.2506202161312103,-0.6072403192520142,0.5237188935279846,0.5233951807022095,0.28868991136550903,-0.41702502965927124,0.9714223742485046,0.5512226819992065,0.25377723574638367,-0.5964432954788208,0.5078244805335999,0.5203400254249573,0.27524346113204956,-0.41423121094703674,0.9678560495376587,0.5505058169364929,0.25714051723480225,-0.5489016175270081,0.4909552037715912,0.5141161680221558,0.2838536500930786,-0.37821048498153687,0.9434216618537903,0.4960336685180664,0.5277027487754822,0.08577588945627213,0.9990211129188538,0.4288574755191803,0.5382187366485596,-0.08578762412071228,0.9998723864555359,0.5464061498641968,0.6807993054389954,0.2088029831647873,0.9295011758804321,0.44176989793777466,0.7283192276954651,-0.1618303656578064,0.9972309470176697,0.5372240543365479,0.8075191974639893,0.5542969703674316,0.9695898294448853,0.4166709780693054,0.8921211957931519,-0.00850110687315464,0.9932639002799988,0.5207675695419312,0.8343267440795898,0.581549346446991,0.933323860168457,0.40534740686416626,0.9138325452804565,0.007031474262475967,0.9144414663314819,0.5915154218673706,0.855247437953949,0.47907567024230957,0.9694225788116455,0.4455103278160095,0.9571454524993896,-0.16024796664714813,0.988664984703064
15,0.5171047449111938,0.20333848893642426,-0.3929115831851959,0.9998083114624023,0.5169078707695007,0.18378973007202148,-0.3668697476387024,0.9997281432151794,0.5191913843154907,0.18448877334594727,-0.36690038442611694,0.9996480345726013,0.521712601184845,0.1855195313692093,-0.36685577034950256,0.9995130300521851,0.5056049823760986,0.18142949044704437,-0.39030128717422485,0.9998013973236084,0.49985814094543457,0.1804685890674591,-0.3903382420539856,0.9997988939285278,0.4944570064544678,0.1798381507396698,-0.3904244601726532,0.9998109936714172,0.5153048634529114,0.18915458023548126,-0.18018807470798492,0.998619794845581,0.4782859683036804,0.1842445582151413,-0.29827120900154114,0.9998446702957153,0.5152031779289246,0.21956788003444672,-0.3221434950828552,0.9995344281196594,0.5030480623245239,0.21698683500289917,-0.3526090085506439,0.9998714327812195,0.5228124260902405,0.28268641233444214,-0.020990828052163124,0.9974304437637329,0.4225308299064636,0.2850516736507416,-0.2759395241737366,0.9999370574951172,0.5585912466049194,0.3606950640678406,-0.1674533635377884,0.5234274864196777,0.4375840723514557,0.4265168309211731,-0.3723805546760559,0.9946701526641846,0.5616835951805115,0.29281899333000183,-0.4997517168521881,0.6214219331741333,0.5052717328071594,0.3330627977848053,-0.4330123960971832,0.9894198179244995,0.5659458637237549,0.27486810088157654,-0.5604216456413269,0.5275363326072693,0.5244978070259094,0.30379924178123474,-0.47192636132240295,0.9720674157142639,0.5571244359016418,0.2693346440792084,-0.5539026260375977,0.5109347105026245,0.5214279890060425,0.2887943387031555,-0.4669848382472992,0.9686446189880371,0.5521872639656067,0.2762397527694702,-0.5086249113082886,0.4952964782714844,0.5146934390068054,0.2979795038700104,-0.4285469055175781,0.9447782039642334,0.49012240767478943,0.5391458868980408,0.08334233611822128,0.9989622235298157,0.42467617988586426,0.550952672958374,-0.08331034332513809,0.9998052716255188,0.5488879680633545,0.6827021837234497,0.12224316596984863,0.9335110783576965,0.44281095266342163,0.7359862923622131,-0.15220904350280762,0.9970098733901978,0.5370337963104248,0.8088830709457397,0.4352382719516754,0.9690389633178711,0.41660362482070923,0.8954123854637146,-0.0016323865856975317,0.9929358959197998,0.5186336636543274,0.8350780010223389,0.45968809723854065,0.9304934144020081,0.40539249777793884,0.9164420366287231,0.007408889476209879,0.9089258313179016,0.5915096998214722,0.8556857705116272,0.3597589433193207,0.9682388305664062,0.4455746114253998,0.9587670564651489,-0.16915977001190186,0.9879822731018066
16,0.5176526308059692,0.21580858528614044,-0.3907502293586731,0.9996554851531982,0.5172238349914551,0.19780828058719635,-0.36383265256881714,0.9994891881942749,0.5193732976913452,0.1986442506313324,-0.3639139235019684,0.999383270740509,0.5217849016189575,0.19980426132678986,-0.36396023631095886,0.9992544054985046,0.5063387155532837,0.19603310525417328,-0.3895606994628906,0.9995911717414856,0.5006887912750244,0.19550161063671112,-0.3895895779132843,0.9995715022087097,0.4951958656311035,0.19498398900032043,-0.3896675705909729,0.9995952844619751,0.5149974226951599,0.20589984953403473,-0.18997640907764435,0.9981572031974792,0.47870850563049316,0.20049849152565002,-0.30705589056015015,0.9996258020401001,0.5158880352973938,0.2326001226902008,-0.32213225960731506,0.9993489980697632,0.5044703483581543,0.2307140976190567,-0.3552618622779846,0.9997859597206116,0.5231315493583679,0.2948884069919586,-0.05394923686981201,0.9974030256271362,0.4247179925441742,0.3010544180870056,-0.29886892437934875,0.9998896718025208,0.5689849853515625,0.36598271131515503,-0.21625056862831116,0.5453104376792908,0.4393737316131592,0.4412739872932434,-0.45952683687210083,0.9943105578422546,0.5713282823562622,0.2971474230289459,-0.5326471924781799,0.6291201114654541,0.508048951625824,0.34376686811447144,-0.5952717065811157,0.9894958138465881,0.5762127041816711,0.2786187529563904,-0.5939030647277832,0.5348523259162903,0.5277832746505737,0.3144792318344116,-0.6494952440261841,0.9725578427314758,0.5676674842834473,0.27031370997428894,-0.5862245559692383,0.5176643133163452,0.5239265561103821,0.29889795184135437,-0.6359854936599731,0.9692050814628601,0.5618755221366882,0.27886736392974854,-0.5407637357711792,0.5026485323905945,0.5176019072532654,0.3073273003101349,-0.5907200574874878,0.9454999566078186,0.4865681529045105,0.545594334602356,0.08291934430599213,0.9989046454429626,0.42093658447265625,0.5583060383796692,-0.08288149535655975,0.999707043170929,0.5523319840431213,0.6857910752296448,0.07481308281421661,0.9371722936630249,0.4445739686489105,0.7420681715011597,-0.16664546728134155,0.9965383410453796,0.5368705987930298,0.8127955198287964,0.4119190275669098,0.967626690864563,0.41687339544296265,0.897986114025116,0.023018792271614075,0.9922910332679749,0.5182157754898071,0.8382272720336914,0.43881407380104065,0.9236454367637634,0.4066801965236664,0.9184725880622864,0.035216204822063446,0.899750828742981,0.5895224809646606,0.8598924875259399,0.33560067415237427,0.9658120274543762,0.447101891040802,0.9588573575019836,-0.14490419626235962,0.986849844455719
17,0.520092785358429,0.23561808466911316,-0.440366268157959,0.9996183514595032,0.5189780592918396,0.21695907413959503,-0.4108005166053772,0.9994399547576904,0.5209093689918518,0.21711574494838715,-0.4109582006931305,0.9993400573730469,0.5230998992919922,0.21740101277828217,-0.41111332178115845,0.9992260336875916,0.508899986743927,0.216823548078537,-0.43824639916419983,0.9995307326316833,0.5034767985343933,0.21662785112857819,-0.4382668435573578,0.999504804611206,0.4980145990848541,0.2161688208580017,-0.43832239508628845,0.9995329976081848,0.5152789354324341,0.2222689688205719,-0.23404689133167267,0.9981333017349243,0.48041802644729614,0.22070026397705078,-0.35319092869758606,0.9995642900466919,0.5187457799911499,0.2522949278354645,-0.37081974744796753,0.9993239641189575,0.5078479051589966,0.25235292315483093,-0.40536490082740784,0.9997638463973999,0.5246668457984924,0.30997151136398315,-0.09785816073417664,0.9974929094314575,0.4259747564792633,0.3294697701931,-0.3449546694755554,0.9998553991317749,0.5686992406845093,0.38282522559165955,-0.2996787130832672,0.5640295743942261,0.4448374807834625,0.46250805258750916,-0.5252906680107117,0.9941773414611816,0.5830190777778625,0.3242400288581848,-0.6616706848144531,0.6359270811080933,0.513945460319519,0.36038506031036377,-0.6846489310264587,0.9895480871200562,0.5914133787155151,0.3045591115951538,-0.7326861619949341,0.5441035628318787,0.5320526361465454,0.33288756012916565,-0.744777500629425,0.9730802178382874,0.5746293663978577,0.299542635679245,-0.724502682685852,0.526609480381012,0.5283669233322144,0.31690678000450134,-0.7311583757400513,0.9697585105895996,0.5662968754768372,0.30726104974746704,-0.6718741059303284,0.5112053751945496,0.5221940279006958,0.3260861039161682,-0.6814380884170532,0.9458693265914917,0.48627981543540955,0.5526677966117859,0.08299188315868378,0.9988704323768616,0.4211746156215668,0.566947877407074,-0.08295133709907532,0.9996334910392761,0.5555896759033203,0.686194658279419,0.041406698524951935,0.9393836259841919,0.44548988342285156,0.7442091107368469,-0.224147230386734,0.9962496757507324,0.5368267297744751,0.8137935996055603,0.3968106210231781,0.9653488397598267,0.4184609353542328,0.8981859683990479,-0.005673790816217661,0.9917654991149902,0.5183703303337097,0.8388434052467346,0.42502790689468384,0.917560875415802,0.40777987241744995,0.9186473488807678,0.01935056410729885,0.8932417631149292,0.5895251035690308,0.8616549968719482,0.31922540068626404,0.9628596901893616,0.4484473764896393,0.9590571522712708,-0.1589391529560089,0.9859901666641235
18,0.5266363620758057,0.25824302434921265,-0.43967804312705994,0.9995117783546448,0.5240837335586548,0.24280987679958344,-0.40539199113845825,0.9992653727531433,0.5259241461753845,0.2431817650794983,-0.40553516149520874,0.9991273880004883,0.5278415679931641,0.2435714453458786,-0.4056701064109802,0.9990172982215881,0.5146411657333374,0.2417364865541458,-0.4336755871772766,0.9993930459022522,0.5096191167831421,0.2413991540670395,-0.4337339997291565,0.9993609189987183,0.5041574239730835,0.24087601900100708,-0.43379297852516174,0.9994070529937744,0.5179193615913391,0.24671120941638947,-0.21762199699878693,0.9976478815078735,0.48676905035972595,0.2472679764032364,-0.3407090902328491,0.9993972182273865,0.5259608626365662,0.27526387572288513,-0.3666842579841614,0.9989529848098755,0.5158506631851196,0.2746918499469757,-0.40254029631614685,0.9996190667152405,0.524526834487915,0.3213539123535156,-0.0682099238038063,0.9971944689750671,0.43502679467201233,0.35120296478271484,-0.336373895406723,0.9996700286865234,0.5692993402481079,0.3771131932735443,-0.20055440068244934,0.5640538334846497,0.44779807329177856,0.49300098419189453,-0.5139507055282593,0.9937590956687927,0.5866788625717163,0.34327077865600586,-0.4683346748352051,0.6314366459846497,0.5120744109153748,0.4022674560546875,-0.6603471636772156,0.9892289042472839,0.5985616445541382,0.33823010325431824,-0.5236197710037231,0.5444948673248291,0.5318858027458191,0.37940728664398193,-0.7188531160354614,0.9728592038154602,0.5863735675811768,0.3319150507450104,-0.5337082147598267,0.5276052951812744,0.5292791128158569,0.35329920053482056,-0.705073356628418,0.9695199131965637,0.5787960290908813,0.3359507620334625,-0.48350605368614197,0.5134300589561462,0.5231382846832275,0.36305680871009827,-0.6562776565551758,0.9449957013130188,0.483725368976593,0.5552985072135925,0.08494748920202255,0.998845100402832,0.42063337564468384,0.5741947293281555,-0.08483673632144928,0.9994736909866333,0.5640344023704529,0.6730219721794128,-0.10725824534893036,0.9421926140785217,0.4498785138130188,0.7452853918075562,-0.30661070346832275,0.9957641959190369,0.5383416414260864,0.813673198223114,0.16343358159065247,0.9643710851669312,0.4192808270454407,0.897960901260376,-0.13592058420181274,0.9910762310028076,0.5196887254714966,0.8390292525291443,0.18346893787384033,0.9162051677703857,0.40773844718933105,0.9181403517723083,-0.12561796605587006,0.8862723708152771,0.5908476114273071,0.8614107370376587,0.0754890888929367,0.9613309502601624,0.4512239098548889,0.9567649960517883,-0.3031224012374878,0.9845461845397949
19,0.5301192998886108,0.28030985593795776,-0.46054404973983765,0.9995101690292358,0.527984082698822,0.26439568400382996,-0.4275289475917816,0.9992628693580627,0.5296980738639832,0.2643645107746124,-0.4276953339576721,0.9991316199302673,0.531650722026825,0.2644762396812439,-0.42786121368408203,0.9990262985229492,0.5186524987220764,0.26285868883132935,-0.4521543085575104,0.9993669986724854,0.5138372778892517,0.26210498809814453,-0.45219841599464417,0.99933260679245,0.5081969499588013,0.2610074579715729,-0.4522557854652405,0.9993827939033508,0.5219019651412964,0.26638340950012207,-0.2393321990966797,0.9976751208305359,0.49179181456565857,0.266891747713089,-0.34662994742393494,0.9993666410446167,0.5288706421852112,0.29619911313056946,-0.3874749541282654,0.9989526271820068,0.5188834071159363,0.29502150416374207,-0.41857919096946716,0.9996124505996704,0.5257903337478638,0.33891698718070984,-0.0946638435125351,0.9972903728485107,0.438218891620636,0.368043452501297,-0.3296772241592407,0.9996348023414612,0.5673015713691711,0.4182313084602356,-0.2681165039539337,0.5654042363166809,0.4527584910392761,0.5111850500106812,-0.5029852986335754,0.993546724319458,0.5870346426963806,0.3755207359790802,-0.6166472434997559,0.6330758333206177,0.5133040547370911,0.41633594036102295,-0.6621755957603455,0.9893500804901123,0.6011258363723755,0.3639068901538849,-0.6839738488197327,0.552594780921936,0.5344792604446411,0.39357805252075195,-0.7204269766807556,0.9735960364341736,0.5849796533584595,0.35225433111190796,-0.6861682534217834,0.5357421040534973,0.5323765277862549,0.37104496359825134,-0.7066948413848877,0.9703493118286133,0.5837595462799072,0.3629290759563446,-0.6303356289863586,0.5209909081459045,0.5256571769714355,0.3798656463623047,-0.658561110496521,0.9459326267242432,0.4837284982204437,0.5625573992729187,0.07795257121324539,0.998831033706665,0.4196862578392029,0.5813391208648682,-0.07780428230762482,0.9994198083877563,0.5674065947532654,0.6736568212509155,-0.11078552901744843,0.9452281594276428,0.45216482877731323,0.7446262240409851,-0.3573058247566223,0.9955929517745972,0.5427001118659973,0.8105950951576233,0.23314261436462402,0.9637298583984375,0.42057567834854126,0.8954984545707703,-0.164993017911911,0.9907515048980713,0.5240708589553833,0.8347691893577576,0.26099371910095215,0.9142426252365112,0.40795907378196716,0.9148747324943542,-0.15252819657325745,0.8808990120887756,0.5933201313018799,0.8584445714950562,0.1574358344078064,0.9598482847213745,0.4521728456020355,0.9540235996246338,-0.33496588468551636,0.9837754964828491
20,0.5319610238075256,0.2969110906124115,-0.4949840009212494,0.9995150566101074,0.5309324860572815,0.28080329298973083,-0.4582807123661041,0.9992680549621582,0.5328693389892578,0.2805382311344147,-0.4584440588951111,0.9991421699523926,0.5348397493362427,0.2800327241420746,-0.458599716424942,0.9990328550338745,0.5209221839904785,0.27961745858192444,-0.48581546545028687,0.9993656277656555,0.5157259702682495,0.27879598736763,-0.48588070273399353,0.999334990978241,0.5097033977508545,0.27767619490623474,-0.4859467148780823,0.9993823766708374,0.5253793001174927,0.2812085449695587,-0.25876715779304504,0.9976926445960999,0.49187755584716797,0.28385356068611145,-0.3780387341976166,0.9993664622306824,0.5303809642791748,0.3128947913646698,-0.4179344177246094,0.9989228248596191,0.5196874141693115,0.3123307228088379,-0.45270365476608276,0.9995999932289124,0.5261097550392151,0.3456777334213257,-0.0993279367685318,0.9972816109657288,0.43944796919822693,0.3860219419002533,-0.3610537648200989,0.9995579123497009,0.5686792135238647,0.4227113127708435,-0.2621164619922638,0.5625815391540527,0.4555891454219818,0.5264286398887634,-0.5323169827461243,0.9933828115463257,0.5958792567253113,0.37805795669555664,-0.6080976128578186,0.6309314966201782,0.5175975561141968,0.4218452572822571,-0.6725049614906311,0.9895311594009399,0.6113537549972534,0.365946888923645,-0.6703571081161499,0.5563161373138428,0.5381364822387695,0.3984021842479706,-0.7282795310020447,0.9742642641067505,0.6036597490310669,0.3587266206741333,-0.6716043949127197,0.5392553806304932,0.5367085337638855,0.37706369161605835,-0.7118843793869019,0.9710569381713867,0.594470739364624,0.36529502272605896,-0.6209713220596313,0.5239114761352539,0.5292170643806458,0.3860710561275482,-0.6667598485946655,0.9461853504180908,0.48400574922561646,0.566317617893219,0.07854669541120529,0.9988560676574707,0.41908660531044006,0.5870388746261597,-0.07842932641506195,0.9993823170661926,0.5679189562797546,0.6740249991416931,-0.14507707953453064,0.9485258460044861,0.4524114727973938,0.7434461116790771,-0.4077412188053131,0.9953829050064087,0.5449563264846802,0.805869460105896,0.20235832035541534,0.9633236527442932,0.42078718543052673,0.8941840529441833,-0.18829059600830078,0.9902177453041077,0.5251179933547974,0.8322466611862183,0.2312992811203003,0.9136611819267273,0.4079276919364929,0.9138610363006592,-0.17256572842597961,0.8746370673179626,0.5945098996162415,0.8557778596878052,0.13111917674541473,0.9587405323982239,0.45208126306533813,0.9521399140357971,-0.34806734323501587,0.9827399253845215
21,0.5302993655204773,0.312392920255661,-0.5226784944534302,0.9995220899581909,0.5294052362442017,0.2954857647418976,-0.4840739667415619,0.9992808699607849,0.5315288305282593,0.2952863872051239,-0.48425427079200745,0.9991607069969177,0.5337126851081848,0.29482805728912354,-0.4844112992286682,0.9990455508232117,0.5190050005912781,0.294472873210907,-0.5140293836593628,0.999371349811554,0.5137088894844055,0.29347851872444153,-0.5141146779060364,0.9993441700935364,0.5078574419021606,0.29252195358276367,-0.5142289400100708,0.9993909597396851,0.5266717672348022,0.29874664545059204,-0.27552276849746704,0.99774569272995,0.4908761978149414,0.29838722944259644,-0.4055202901363373,0.9993845224380493,0.5299464464187622,0.32998329401016235,-0.44201692938804626,0.9989045262336731,0.5186628103256226,0.32872331142425537,-0.4797545373439789,0.9995876550674438,0.5293262600898743,0.3614995777606964,-0.09238676726818085,0.9973428249359131,0.4433712363243103,0.4006449282169342,-0.38919368386268616,0.9994866847991943,0.5683850646018982,0.4339127838611603,-0.24741992354393005,0.5484021306037903,0.45820245146751404,0.5487381815910339,-0.542076587677002,0.992824912071228,0.6046947240829468,0.39004138112068176,-0.5959373712539673,0.6258848309516907,0.5231528282165527,0.4354102909564972,-0.6611194610595703,0.9893546104431152,0.6229839324951172,0.37708503007888794,-0.641668975353241,0.5597018003463745,0.5442683696746826,0.41211163997650146,-0.7163969874382019,0.9742716550827026,0.6191821098327637,0.3711286187171936,-0.6542925238609314,0.543135941028595,0.5407119393348694,0.3901527523994446,-0.7013925313949585,0.9709447026252747,0.6078678369522095,0.37745732069015503,-0.607775092124939,0.5271354913711548,0.5333532094955444,0.39814430475234985,-0.6553303003311157,0.9442868828773499,0.48237258195877075,0.5707452297210693,0.08633900433778763,0.9988951683044434,0.4191921651363373,0.5922806859016418,-0.08621193468570709,0.9993659257888794,0.5667463541030884,0.6740792393684387,-0.14854291081428528,0.9486315846443176,0.45196741819381714,0.7418535351753235,-0.4341909885406494,0.9949404001235962,0.5444431304931641,0.8006569147109985,0.19877737760543823,0.9606289267539978,0.42083343863487244,0.8942187428474426,-0.22269320487976074,0.9899073243141174,0.5251430869102478,0.829124391078949,0.2272990196943283,0.9122939705848694,0.4073702394962311,0.9148785471916199,-0.2084290236234665,0.8734814524650574,0.595430314540863,0.8505992889404297,0.12144585698843002,0.9561606645584106,0.4538598954677582,0.9522615671157837,-0.3957054018974304,0.9822500348091125
22,0.5334497690200806,0.32957932353019714,-0.5486433506011963,0.9995488524436951,0.5324362516403198,0.31501781940460205,-0.5097770690917969,0.9993209838867188,0.5344053506851196,0.31477656960487366,-0.5099524259567261,0.9992126226425171,0.5363959074020386,0.31425535678863525,-0.5100967884063721,0.9990981817245483,0.5221589207649231,0.31480807065963745,-0.5406907200813293,0.99940425157547,0.5167824029922485,0.3143119812011719,-0.5407903790473938,0.9993821382522583,0.5108484029769897,0.3134543001651764,-0.5408692955970764,0.9994232058525085,0.527826189994812,0.3195177912712097,-0.3012036085128784,0.9978765845298767,0.4923013150691986,0.31923070549964905,-0.4357704222202301,0.999418318271637,0.5324164032936096,0.34749889373779297,-0.46859312057495117,0.9989446401596069,0.5212435722351074,0.3477800488471985,-0.5076072216033936,0.9996005892753601,0.5312553644180298,0.38092514872550964,-0.11985994875431061,0.9973959922790527,0.44299572706222534,0.42219045758247375,-0.4105865955352783,0.999396562576294,0.5761564373970032,0.45324552059173584,-0.2665950059890747,0.5438721776008606,0.4620627462863922,0.5676271319389343,-0.5587210655212402,0.9924487471580505,0.6108435392379761,0.42250120639801025,-0.6284449696540833,0.6232424974441528,0.5240944623947144,0.45520293712615967,-0.6791476607322693,0.9894213080406189,0.6282575130462646,0.41557711362838745,-0.6878186464309692,0.5646616816520691,0.5439275503158569,0.4356275200843811,-0.7342528700828552,0.9747809767723083,0.6222884058952332,0.4081299602985382,-0.697566032409668,0.5487595796585083,0.5391170978546143,0.4145493805408478,-0.7196335792541504,0.9714281558990479,0.6112165451049805,0.41216424107551575,-0.6437388062477112,0.5315868258476257,0.5321034789085388,0.42163100838661194,-0.673008382320404,0.9434905648231506,0.481294721364975,0.5831466913223267,0.08867714554071426,0.9989447593688965,0.41901177167892456,0.604384183883667,-0.08856327831745148,0.9993666410446167,0.5693222284317017,0.6716267466545105,-0.13841086626052856,0.9512815475463867,0.4524248540401459,0.7414035201072693,-0.4421250820159912,0.9950429201126099,0.5448259115219116,0.7994387149810791,0.22155828773975372,0.9611891508102417,0.4208289682865143,0.8939828276634216,-0.2113412320613861,0.9903538823127747,0.5256128311157227,0.8275657296180725,0.25150302052497864,0.9146327376365662,0.40689295530319214,0.9148353338241577,-0.19507017731666565,0.8774979114532471,0.5971314311027527,0.85091233253479,0.14947137236595154,0.9565752744674683,0.45374464988708496,0.951932966709137,-0.37820857763290405,0.9828532338142395
23,0.5411316752433777,0.36195024847984314,-0.5152485966682434,0.9995652437210083,0.5393244028091431,0.3467177152633667,-0.4801271855831146,0.9993540048599243,0.5406988859176636,0.3463749289512634,-0.48028022050857544,0.9992548823356628,0.5420962572097778,0.34579965472221375,-0.4804162085056305,0.9991444945335388,0.5302030444145203,0.3474693298339844,-0.5140389204025269,0.9994291663169861,0.5248469710350037,0.34744760394096375,-0.5141547918319702,0.9994127154350281,0.5192162394523621,0.3474007546901703,-0.5142566561698914,0.9994497895240784,0.5303181409835815,0.35157325863838196,-0.2892609238624573,0.9980008602142334,0.5004352331161499,0.35452452301979065,-0.44319501519203186,0.9994426369667053,0.538621723651886,0.3797394037246704,-0.4413987100124359,0.9989845156669617,0.5287092924118042,0.38201266527175903,-0.4854947626590729,0.9996108412742615,0.5286856293678284,0.41812852025032043,-0.11696920543909073,0.9974910020828247,0.44284671545028687,0.4508027732372284,-0.42356371879577637,0.9993436932563782,0.5651511549949646,0.5067126154899597,-0.23991389572620392,0.5400902628898621,0.4635758399963379,0.5882102847099304,-0.5705896615982056,0.9918779730796814,0.592187225818634,0.47044387459754944,-0.5357520580291748,0.6248459219932556,0.5276052355766296,0.473985880613327,-0.6797402501106262,0.9893679022789001,0.6048223376274109,0.46288612484931946,-0.5831564664840698,0.5713757276535034,0.5449919104576111,0.45583248138427734,-0.7329953908920288,0.9752421379089355,0.6038455963134766,0.4525313675403595,-0.590212345123291,0.5553206205368042,0.5390124320983887,0.4386852979660034,-0.7182895541191101,0.9718764424324036,0.5941323041915894,0.45656004548072815,-0.5478991866111755,0.5369706153869629,0.5332330465316772,0.4450097978115082,-0.6735682487487793,0.9430350661277771,0.4777832627296448,0.6010410785675049,0.0914635956287384,0.9989737272262573,0.4182557165622711,0.6204603910446167,-0.0913442000746727,0.9993734955787659,0.5684736967086792,0.6716989278793335,-0.11010123789310455,0.9521278142929077,0.4557672142982483,0.7408695220947266,-0.4463023245334625,0.9950640201568604,0.5446289777755737,0.7994077801704407,0.2179853469133377,0.9598619937896729,0.4210800230503082,0.8939053416252136,-0.2686595320701599,0.9908320903778076,0.5269472002983093,0.8239940404891968,0.2454722374677658,0.9147096872329712,0.4063303470611572,0.9146783351898193,-0.2566831409931183,0.8833125233650208,0.5961276292800903,0.8510108590126038,0.1530008614063263,0.9555996060371399,0.4536430239677429,0.952147901058197,-0.43378862738609314,0.9835295081138611
24,0.5442208051681519,0.38488662242889404,-0.5211178064346313,0.9996022582054138,0.5439424514770508,0.369015097618103,-0.4925684332847595,0.9994102120399475,0.545154333114624,0.36879807710647583,-0.4927401542663574,0.9993204474449158,0.5462626218795776,0.36856773495674133,-0.4928966164588928,0.9992204904556274,0.5348544716835022,0.36850103735923767,-0.5331354141235352,0.9994785785675049,0.5294636487960815,0.36765703558921814,-0.533260703086853,0.9994640350341797,0.5236600041389465,0.3666178286075592,-0.5333272218704224,0.9994980096817017,0.5314606428146362,0.3722645342350006,-0.3193642497062683,0.9981803894042969,0.5030069947242737,0.3713149130344391,-0.5028394460678101,0.9994900822639465,0.5402114987373352,0.40035751461982727,-0.45153579115867615,0.9990764856338501,0.5301004648208618,0.4016414284706116,-0.504554808139801,0.9996447563171387,0.5245113968849182,0.4304512143135071,-0.13925011456012726,0.9976930618286133,0.4426015317440033,0.46715399622917175,-0.4623471200466156,0.999377429485321,0.5588387846946716,0.5254021286964417,-0.24110904335975647,0.5363025665283203,0.4670785963535309,0.6000426411628723,-0.5880157947540283,0.9912523627281189,0.5741551518440247,0.4835379421710968,-0.5710731744766235,0.6127782464027405,0.5271831750869751,0.4920865595340729,-0.7007367610931396,0.9887372851371765,0.5769304037094116,0.46293002367019653,-0.6198590993881226,0.5649502873420715,0.5435079336166382,0.4694799780845642,-0.7570277452468872,0.9750241041183472,0.5797682404518127,0.46243005990982056,-0.6255837678909302,0.5485543012619019,0.5387254953384399,0.45537814497947693,-0.7467169761657715,0.9714528322219849,0.5730082392692566,0.4665844738483429,-0.5826817154884338,0.52876216173172,0.5321360230445862,0.46126696467399597,-0.6964199542999268,0.9400342106819153,0.4719984531402588,0.605652391910553,0.09691722691059113,0.99905925989151,0.41651684045791626,0.6274434924125671,-0.09680698812007904,0.9994239807128906,0.5712135434150696,0.6670054793357849,-0.1401621699333191,0.9543765783309937,0.45717936754226685,0.7290360927581787,-0.4953228533267975,0.9953591227531433,0.5445152521133423,0.7996246814727783,0.16985002160072327,0.9608516097068787,0.42274418473243713,0.8948318362236023,-0.3353514075279236,0.9916101098060608,0.5279372334480286,0.8237781524658203,0.1956142783164978,0.9173253178596497,0.4069163203239441,0.9147074222564697,-0.32575470209121704,0.8923515677452087,0.5951859951019287,0.8512028455734253,0.0919131189584732,0.9573057889938354,0.45358806848526,0.9521717429161072,-0.5084893703460693,0.9848723411560059
25,0.5436922311782837,0.3982672393321991,-0.5566218495368958,0.9996346235275269,0.5436910390853882,0.38251903653144836,-0.5293265581130981,0.9994611740112305,0.5449038743972778,0.3820169270038605,-0.5295274257659912,0.9993807077407837,0.5459938645362854,0.3814050257205963,-0.5297183394432068,0.9992908835411072,0.5350376963615417,0.3824194669723511,-0.5695076584815979,0.9995211362838745,0.5300314426422119,0.3815557658672333,-0.5696210861206055,0.9995070099830627,0.5247567296028137,0.380341500043869,-0.5696744322776794,0.9995378255844116,0.5309727191925049,0.38424259424209595,-0.3581574857234955,0.9983506798744202,0.5050848126411438,0.3829701542854309,-0.5378258228302002,0.9995275139808655,0.5400122404098511,0.41448912024497986,-0.48790937662124634,0.9991631507873535,0.529976487159729,0.4152161180973053,-0.5403658151626587,0.999674916267395,0.5242003798484802,0.45018652081489563,-0.18886050581932068,0.9979034662246704,0.44308629631996155,0.48043543100357056,-0.4852379858493805,0.9994009733200073,0.5597737431526184,0.5618199706077576,-0.32552462816238403,0.5578230023384094,0.47125935554504395,0.6181887984275818,-0.6323337554931641,0.9901593923568726,0.5724050402641296,0.5062608122825623,-0.6780053377151489,0.6163402199745178,0.527503490447998,0.5037658214569092,-0.7874745726585388,0.9878677129745483,0.5744485259056091,0.4770520329475403,-0.7374743819236755,0.5677067041397095,0.5426524877548218,0.47912225127220154,-0.8501335978507996,0.9743285775184631,0.5726414322853088,0.46791157126426697,-0.7342997789382935,0.5506917238235474,0.5382075309753418,0.4667160212993622,-0.8391822576522827,0.9703211784362793,0.5664740204811096,0.4771018326282501,-0.6869364976882935,0.5280536413192749,0.5314887166023254,0.47323092818260193,-0.7850435376167297,0.9347817897796631,0.4705943167209625,0.6119128465652466,0.09734731167554855,0.9991419911384583,0.4146570563316345,0.6342145800590515,-0.0972144678235054,0.9994744658470154,0.5746960043907166,0.6613625288009644,-0.16973228752613068,0.9566690921783447,0.45829612016677856,0.7313216924667358,-0.529035210609436,0.9955897331237793,0.5443965792655945,0.7990027666091919,0.14276602864265442,0.9614661335945129,0.4244202971458435,0.8953573703765869,-0.33306095004081726,0.9922940135002136,0.5278908014297485,0.8233821392059326,0.16844281554222107,0.9196854829788208,0.40813836455345154,0.9147164225578308,-0.3204379677772522,0.9001036882400513,0.5931770205497742,0.8527365326881409,0.055252112448215485,0.9588136076927185,0.45354264974594116,0.9523155093193054,-0.504487931728363,0.9860745668411255
26,0.5425920486450195,0.4120776951313019,-0.4759081304073334,0.9996656775474548,0.5423165559768677,0.3965652883052826,-0.4518823027610779,0.9995091557502747,0.5435636043548584,0.39606380462646484,-0.45208317041397095,0.9994370937347412,0.5447310209274292,0.39525166153907776,-0.45225510001182556,0.9993565082550049,0.533955454826355,0.39632898569107056,-0.49837860465049744,0.9995625019073486,0.5293152332305908,0.39557069540023804,-0.4985218048095703,0.9995492100715637,0.5243948698043823,0.3944282531738281,-0.49858173727989197,0.9995768666267395,0.5304518938064575,0.3977165222167969,-0.35624638199806213,0.9985063672065735,0.5047140717506409,0.3974072337150574,-0.48137640953063965,0.9995658993721008,0.5392760038375854,0.42921823263168335,-0.41760674118995667,0.9992424845695496,0.5292604565620422,0.42951279878616333,-0.48130664229393005,0.9997031092643738,0.5228153467178345,0.46493515372276306,-0.15081605315208435,0.9980912804603577,0.4435255527496338,0.4998447000980377,-0.4483222961425781,0.9994108080863953,0.5619153380393982,0.5671727657318115,-0.25026383996009827,0.5781008005142212,0.4713042676448822,0.6296546459197998,-0.5884832143783569,0.9889765381813049,0.5721791982650757,0.5059723258018494,-0.558410108089447,0.626360297203064,0.5276917219161987,0.5150051712989807,-0.6517718434333801,0.986809253692627,0.5723217725753784,0.48179739713668823,-0.6085710525512695,0.5754705667495728,0.5423558950424194,0.48918360471725464,-0.7000961899757385,0.9729664325714111,0.5667743682861328,0.4724005460739136,-0.5991992950439453,0.5582338571548462,0.5380200147628784,0.4782329797744751,-0.6960610747337341,0.9684045314788818,0.566243052482605,0.4832199215888977,-0.5634673833847046,0.532666027545929,0.531068742275238,0.4846467971801758,-0.650252103805542,0.92860347032547,0.4695589542388916,0.6212970018386841,0.10048739612102509,0.9992163777351379,0.4138433039188385,0.6446249485015869,-0.10031312704086304,0.9995228052139282,0.5773826241493225,0.6628525853157043,-0.11773516982793808,0.9584550261497498,0.45818591117858887,0.7318487763404846,-0.5241843461990356,0.9958432912826538,0.5446490049362183,0.7991819977760315,0.20277690887451172,0.9624555706977844,0.42497119307518005,0.8968255519866943,-0.3591320514678955,0.9929940104484558,0.5278201103210449,0.8234807848930359,0.228899747133255,0.9225723743438721,0.4089132845401764,0.9151784777641296,-0.3492979407310486,0.9087488651275635,0.5931745171546936,0.8578070998191833,0.12641611695289612,0.9604817032814026,0.4553499221801758,0.9523379802703857,-0.5228378772735596,0.987318217754364
27,0.5422929525375366,0.42927902936935425,-0.4874449670314789,0.9996957778930664,0.5431962013244629,0.4138281047344208,-0.46571534872055054,0.9995546340942383,0.5446580648422241,0.41301724314689636,-0.4659205973148346,0.9994898438453674,0.5460326671600342,0.4121430814266205,-0.4660983681678772,0.9994175434112549,0.534680962562561,0.41288867592811584,-0.510750949382782,0.9996024370193481,0.5301194787025452,0.4116058647632599,-0.5108920335769653,0.9995899796485901,0.5253157615661621,0.4099859297275543,-0.5109595060348511,0.9996150135993958,0.5316354632377625,0.41096383333206177,-0.3210762143135071,0.9986500144004822,0.5065120458602905,0.410724937915802,-0.4981909692287445,0.9996039271354675,0.5389204025268555,0.4443243145942688,-0.42969098687171936,0.9993160367012024,0.5288954377174377,0.4449109733104706,-0.4878312051296234,0.9997305870056152,0.5224054455757141,0.47195136547088623,-0.15023493766784668,0.9982681274414062,0.44399937987327576,0.5110402703285217,-0.4606458246707916,0.9994408488273621,0.5622245669364929,0.5728262662887573,-0.272635281085968,0.6023379564285278,0.4722976088523865,0.6386511921882629,-0.5953489542007446,0.988172173500061,0.5692278146743774,0.5044482946395874,-0.6050897836685181,0.6411759257316589,0.528498113155365,0.5237351059913635,-0.7128828763961792,0.9862149357795715,0.5698049068450928,0.4854050576686859,-0.6600284576416016,0.5886431932449341,0.5419936776161194,0.49762871861457825,-0.7707512378692627,0.9723734259605408,0.5669653415679932,0.47313642501831055,-0.6490333676338196,0.5710198283195496,0.5374725461006165,0.487600177526474,-0.7613876461982727,0.9673871994018555,0.5638238787651062,0.4806130826473236,-0.610533595085144,0.5424436926841736,0.5311113595962524,0.4937981069087982,-0.7106656432151794,0.9243949055671692,0.46889418363571167,0.623953104019165,0.10337088257074356,0.9992895126342773,0.4119558334350586,0.6508844494819641,-0.10320274531841278,0.99956876039505,0.5769966840744019,0.6637579202651978,-0.11243859678506851,0.9608952403068542,0.45919114351272583,0.7343684434890747,-0.5387323498725891,0.996157705783844,0.5445809364318848,0.7994023561477661,0.2160157412290573,0.9640640616416931,0.42509883642196655,0.8976044058799744,-0.36302709579467773,0.993661105632782,0.5277639627456665,0.822135329246521,0.24345442652702332,0.9265571236610413,0.4102042615413666,0.9159621000289917,-0.35231342911720276,0.9171358346939087,0.593215823173523,0.8494071364402771,0.14154808223247528,0.9627785086631775,0.4562586843967438,0.9524582028388977,-0.5312471389770508,0.9885154366493225
28,0.5450960397720337,0.4556744694709778,-0.5656095743179321,0.9997242093086243,0.5473617911338806,0.440641850233078,-0.5414100885391235,0.9995965957641602,0.5491508841514587,0.44044244289398193,-0.5415798425674438,0.9995388388633728,0.550876259803772,0.4400912821292877,-0.5417646765708923,0.9994733333587646,0.5379436612129211,0.43915316462516785,-0.5753611326217651,0.9996392726898193,0.532824695110321,0.4373945891857147,-0.5755014419555664,0.9996281862258911,0.5272918343544006,0.43524879217147827,-0.575555682182312,0.9996501803398132,0.5389679074287415,0.4421631097793579,-0.383293479681015,0.9987824559211731,0.5076208710670471,0.43816372752189636,-0.5328562259674072,0.9996398687362671,0.5425955653190613,0.47279706597328186,-0.5026079416275024,0.9993832111358643,0.5314466953277588,0.4721941649913788,-0.5466997623443604,0.9997560977935791,0.5320109128952026,0.5095008015632629,-0.23084478080272675,0.9984323382377625,0.4452133774757385,0.5350791811943054,-0.47505250573158264,0.9994788765907288,0.595740795135498,0.5933215022087097,-0.3948896527290344,0.6325307488441467,0.4725438952445984,0.6697864532470703,-0.6459227800369263,0.9872631430625916,0.5778014659881592,0.5320878624916077,-0.7242087125778198,0.6598494648933411,0.5277858972549438,0.554422914981842,-0.8425671458244324,0.9856693744659424,0.571923553943634,0.5074824690818787,-0.781906008720398,0.6043510437011719,0.5417438745498657,0.5255844593048096,-0.9079487919807434,0.9718543291091919,0.5690183043479919,0.5010491609573364,-0.7689204216003418,0.5856271982192993,0.5371273756027222,0.514855146408081,-0.8923462629318237,0.9663847088813782,0.5663121938705444,0.5111368894577026,-0.7277798056602478,0.5532116293907166,0.5309117436408997,0.5224757790565491,-0.8402290344238281,0.9195969104766846,0.4756913185119629,0.6426042318344116,0.0941736176609993,0.999351978302002,0.4136642515659332,0.667270302772522,-0.09398102760314941,0.9996098875999451,0.575776994228363,0.6644671559333801,-0.1500292718410492,0.9624912142753601,0.4597848057746887,0.7425164580345154,-0.5489293336868286,0.9964202046394348,0.5445485711097717,0.8001896142959595,0.2148815095424652,0.9642680287361145,0.42519068717956543,0.898421585559845,-0.3461984395980835,0.9942395091056824,0.5280875563621521,0.8224445581436157,0.24489657580852509,0.9281898736953735,0.41312041878700256,0.9164878129959106,-0.333774209022522,0.9240588545799255,0.5932193994522095,0.8492783904075623,0.1408454179763794,0.963890016078949,0.456071138381958,0.9542009234428406,-0.5172273516654968,0.9895450472831726
29,0.5443347096443176,0.4711134731769562,-0.6183981895446777,0.9997506737709045,0.5467180013656616,0.4549177289009094,-0.5941919088363647,0.9996355772018433,0.5489097833633423,0.45466551184654236,-0.5943431854248047,0.9995837807655334,0.550979495048523,0.4540836215019226,-0.5945345163345337,0.9995245337486267,0.5366178750991821,0.4536563456058502,-0.623926043510437,0.9996737241744995,0.531330943107605,0.45228296518325806,-0.6240597367286682,0.9996637105941772,0.5256850719451904,0.45076027512550354,-0.6240912675857544,0.999683141708374,0.5417860746383667,0.4564264714717865,-0.43056946992874146,0.9989026784896851,0.5063073039054871,0.4560471475124359,-0.5630843043327332,0.9996735453605652,0.5427249670028687,0.4874647557735443,-0.5529278516769409,0.999444305896759,0.531018853187561,0.48651471734046936,-0.5916486978530884,0.9997797012329102,0.5383110046386719,0.5193173289299011,-0.27594369649887085,0.9985821843147278,0.4455207884311676,0.5508901476860046,-0.493299663066864,0.9995113611221313,0.6009997129440308,0.601798415184021,-0.4573868215084076,0.6607486009597778,0.4732509255409241,0.6867761611938477,-0.6649733781814575,0.9863249063491821,0.5879805684089661,0.5501197576522827,-0.7903110384941101,0.6787954568862915,0.5276306867599487,0.5702353715896606,-0.8555596470832825,0.9854528307914734,0.5783162117004395,0.5283496379852295,-0.8483942151069641,0.621277928352356,0.5414603352546692,0.5412498116493225,-0.9203768968582153,0.9716835021972656,0.5739070177078247,0.516609251499176,-0.8342386484146118,0.6015076637268066,0.536776065826416,0.5305301547050476,-0.9013767242431641,0.9659022092819214,0.5738011598587036,0.5262019038200378,-0.792944073677063,0.5661969184875488,0.5313339233398438,0.5360619425773621,-0.8516986966133118,0.9165129065513611,0.48040780425071716,0.6559317111968994,0.08306427299976349,0.9994094967842102,0.41449886560440063,0.6761134266853333,-0.08287125080823898,0.9996463656425476,0.575020432472229,0.6664749383926392,-0.19399064779281616,0.964181661605835,0.46066775918006897,0.7441133260726929,-0.5286753177642822,0.9965764880180359,0.5445412993431091,0.7998522520065308,0.18571850657463074,0.9637763500213623,0.42514967918395996,0.8977512717247009,-0.2845793664455414,0.9947070479393005,0.5282464027404785,0.8215219974517822,0.21836090087890625,0.9287415742874146,0.41400963068008423,0.9113325476646423,-0.26070183515548706,0.9292584657669067,0.5920802354812622,0.8495951294898987,0.11468235403299332,0.9643291234970093,0.4547065198421478,0.9550966620445251,-0.4290543496608734,0.9903645515441895
30,0.5437257885932922,0.4814150929450989,-0.616978645324707,0.9997735619544983,0.5459972023963928,0.4661679267883301,-0.5520720481872559,0.9996697306632996,0.5482629537582397,0.4658988416194916,-0.5522758364677429,0.9996230602264404,0.5504252910614014,0.4654991924762726,-0.5524041056632996,0.9995697736740112,0.5356637239456177,0.46545732021331787,-0.6159457564353943,0.9997038245201111,0.5303663015365601,0.4646569490432739,-0.6162591576576233,0.9996944665908813,0.5247364640235901,0.4639148414134979,-0.615879237651825,0.9997121691703796,0.5418643951416016,0.4674108624458313,-0.37108728289604187,0.9990088939666748,0.5058465003967285,0.4698592722415924,-0.5488728880882263,0.9997024536132812,0.5424607992172241,0.4982716739177704,-0.5042065382003784,0.9994983673095703,0.5304375290870667,0.4971873462200165,-0.5806924700737,0.9998002052307129,0.53761225938797,0.5282102823257446,-0.22208993136882782,0.9987087249755859,0.44765505194664,0.5583764910697937,-0.45323771238327026,0.9995413422584534,0.5967457294464111,0.6157610416412354,-0.37819546461105347,0.6798118352890015,0.473294734954834,0.6961721181869507,-0.6027282476425171,0.9857780933380127,0.5873727798461914,0.5591219663619995,-0.695132851600647,0.6908411383628845,0.5281647443771362,0.5750240087509155,-0.7649655342102051,0.9853156208992004,0.584565281867981,0.5438653230667114,-0.7536059617996216,0.6298487186431885,0.5415516495704651,0.5500242710113525,-0.8078136444091797,0.9713261127471924,0.582595944404602,0.5340155959129333,-0.7568781971931458,0.6095144748687744,0.53657466173172,0.5368891954421997,-0.7906774282455444,0.9653193950653076,0.5778089761734009,0.5422611832618713,-0.7021331191062927,0.57285076379776,0.5318830609321594,0.5433028340339661,-0.7620619535446167,0.9145105481147766,0.4805011749267578,0.6650039553642273,0.08036810159683228,0.9994571208953857,0.41460323333740234,0.6833017468452454,-0.08020713925361633,0.9996799230575562,0.5748074054718018,0.6709632873535156,-0.12988142669200897,0.964229166507721,0.4612080156803131,0.7434622645378113,-0.5025274753570557,0.9967468976974487,0.5451434254646301,0.7990849614143372,0.20987534523010254,0.9620976448059082,0.4250876009464264,0.8996565341949463,-0.31398358941078186,0.9951706528663635,0.5291491746902466,0.8211362957954407,0.24177026748657227,0.9278129935264587,0.41408592462539673,0.9136839509010315,-0.3007957935333252,0.9349193572998047,0.5880638957023621,0.8530489206314087,0.1646704375743866,0.9640730619430542,0.4556950628757477,0.9560025930404663,-0.46291717886924744,0.9911983013153076
31,0.5438076257705688,0.4922107458114624,-0.5741909742355347,0.9997930526733398,0.5459100008010864,0.476104199886322,-0.5460379719734192,0.9996992945671082,0.548284649848938,0.4757858216762543,-0.5461737513542175,0.9996575713157654,0.5505510568618774,0.47536700963974,-0.5463530421257019,0.9996097087860107,0.535322904586792,0.47538596391677856,-0.5777912139892578,0.9997285008430481,0.529930591583252,0.47471749782562256,-0.5779152512550354,0.9997189044952393,0.5242324471473694,0.4742775559425354,-0.5778684616088867,0.9997344017028809,0.5432848334312439,0.4784654974937439,-0.3934386372566223,0.9991046190261841,0.5055304765701294,0.4815751910209656,-0.5182992219924927,0.9997202754020691,0.5434361696243286,0.5095416307449341,-0.5074993371963501,0.9995471239089966,0.5310070514678955,0.5089622735977173,-0.547340989112854,0.9998170733451843,0.5419394969940186,0.5367353558540344,-0.25152111053466797,0.9988269805908203,0.44916993379592896,0.5711488723754883,-0.4499283730983734,0.9995241761207581,0.6052988767623901,0.6185842752456665,-0.4247807562351227,0.7047374248504639,0.47296684980392456,0.70735102891922,-0.5890547037124634,0.9836946129798889,0.5875197649002075,0.5645061731338501,-0.7273834943771362,0.708678126335144,0.5287501811981201,0.5889460444450378,-0.7496121525764465,0.98402339220047,0.584420382976532,0.5404406189918518,-0.7789076566696167,0.6448295712471008,0.5421217679977417,0.5599457621574402,-0.7899953722953796,0.9688551425933838,0.5818681120872498,0.5310186147689819,-0.7605465650558472,0.6237921118736267,0.5372233986854553,0.5473869442939758,-0.77305006980896,0.9620644450187683,0.5777587890625,0.5406038761138916,-0.7266921401023865,0.5842136144638062,0.5331521034240723,0.5547831654548645,-0.7495308518409729,0.9068169593811035,0.4838414788246155,0.6676711440086365,0.07272027432918549,0.9994968175888062,0.41612863540649414,0.6874439120292664,-0.07251136004924774,0.9997052550315857,0.574490487575531,0.6624402403831482,-0.21213491261005402,0.9658278822898865,0.46092653274536133,0.7527488470077515,-0.474313348531723,0.9966751933097839,0.5458029508590698,0.8004167675971985,0.08966969698667526,0.9613125324249268,0.4250398576259613,0.9006351232528687,-0.25106704235076904,0.9953981041908264,0.5311399102210999,0.8215005993843079,0.1160096675157547,0.9278497695922852,0.41411858797073364,0.9137312769889832,-0.2335207462310791,0.9378948211669922,0.5866903066635132,0.8559936285018921,0.02151961252093315,0.964118480682373,0.45575985312461853,0.9572259783744812,-0.3805178701877594,0.9916080832481384
32,0.545599102973938,0.5021491646766663,-0.6091894507408142,0.999812126159668,0.5483222603797913,0.4839786887168884,-0.585963249206543,0.9997274875640869,0.551034688949585,0.48333290219306946,-0.5861034393310547,0.9996901750564575,0.5535649061203003,0.48250865936279297,-0.5862879753112793,0.9996466636657715,0.5364476442337036,0.48408523201942444,-0.6117066144943237,0.9997533559799194,0.5304928421974182,0.48368173837661743,-0.6118255257606506,0.9997444748878479,0.5243898630142212,0.4835198223590851,-0.6118430495262146,0.9997579455375671,0.5462113618850708,0.48281922936439514,-0.4268244206905365,0.9991918802261353,0.505367636680603,0.4890668988227844,-0.5398935675621033,0.9997450113296509,0.5458382368087769,0.5190397500991821,-0.5448988676071167,0.9995917677879333,0.5320519804954529,0.5198667049407959,-0.5781673192977905,0.9998344779014587,0.544170618057251,0.5381148457527161,-0.268802672624588,0.9989355802536011,0.4497498571872711,0.5781650543212891,-0.457782506942749,0.9995481371879578,0.6002508997917175,0.6251474618911743,-0.4519675672054291,0.7265221476554871,0.47245293855667114,0.7142716646194458,-0.5959259271621704,0.9829648733139038,0.587598979473114,0.571986734867096,-0.7846368551254272,0.7258025407791138,0.5286000967025757,0.6052020788192749,-0.7515292763710022,0.9835920333862305,0.5854001641273499,0.5530909299850464,-0.8411237597465515,0.6615312099456787,0.5421699285507202,0.5777723789215088,-0.8048135042190552,0.9680654406547546,0.5827749967575073,0.5409347414970398,-0.8240782618522644,0.6400759816169739,0.5382287502288818,0.5625045299530029,-0.7896872758865356,0.9608889818191528,0.5789259076118469,0.5524949431419373,-0.7856894731521606,0.5979042053222656,0.5342632532119751,0.5691239833831787,-0.7486566305160522,0.9034400582313538,0.4851672649383545,0.6673893332481384,0.07295426726341248,0.9995394945144653,0.41743573546409607,0.6871519684791565,-0.07269705086946487,0.999732494354248,0.5762144923210144,0.6630421876907349,-0.2184983193874359,0.9678924679756165,0.4607241749763489,0.7418630123138428,-0.5042723417282104,0.9968675374984741,0.5466334819793701,0.803239107131958,0.10496574640274048,0.9625645875930786,0.42510786652565,0.9009442925453186,-0.274440735578537,0.9957970976829529,0.5311790108680725,0.8216861486434937,0.13244935870170593,0.9312775731086731,0.41418761014938354,0.9137645363807678,-0.25494879484176636,0.9429686069488525,0.5863571166992188,0.8562330007553101,0.02737381123006344,0.9657401442527771,0.45467638969421387,0.9575499892234802,-0.40298160910606384,0.9923114776611328
33,0.5467808246612549,0.5089016556739807,-0.629837691783905,0.9998291730880737,0.5492529273033142,0.49162644147872925,-0.6034353971481323,0.9997526407241821,0.551695704460144,0.49123677611351013,-0.6035736203193665,0.999719500541687,0.5539966821670532,0.49066096544265747,-0.6037634015083313,0.999679684638977,0.5379689931869507,0.49036529660224915,-0.6308169960975647,0.9997752904891968,0.5318830609321594,0.4894328713417053,-0.6309468746185303,0.9997673630714417,0.5255216360092163,0.4888342618942261,-0.6309584379196167,0.9997783899307251,0.5461768507957458,0.49059057235717773,-0.43395090103149414,0.9992708563804626,0.5058764219284058,0.4936465322971344,-0.5541737675666809,0.9997671842575073,0.5464922189712524,0.5258385539054871,-0.5627175569534302,0.9996320605278015,0.533211350440979,0.5249843001365662,-0.5978801846504211,0.9998500347137451,0.5452061891555786,0.5454548597335815,-0.27238988876342773,0.9990353584289551,0.45072072744369507,0.5835571885108948,-0.4733389914035797,0.9995649456977844,0.6104101538658142,0.6304851770401001,-0.4702168405056,0.7499110698699951,0.47367987036705017,0.7229949831962585,-0.6234853267669678,0.9823837280273438,0.5940906405448914,0.5791069865226746,-0.8129326105117798,0.7429332137107849,0.5292327404022217,0.6190091371536255,-0.7824788093566895,0.9833915829658508,0.5896779298782349,0.5574015974998474,-0.8714879751205444,0.6764240264892578,0.5454218983650208,0.5920292139053345,-0.8418751955032349,0.9676926732063293,0.5828067064285278,0.5461190342903137,-0.8505405187606812,0.6545244455337524,0.5417041182518005,0.5757251977920532,-0.8243020176887512,0.9602351188659668,0.5794464349746704,0.5546980500221252,-0.8127564191818237,0.6094448566436768,0.5376380681991577,0.5820054411888123,-0.7780873775482178,0.9000936150550842,0.4854547083377838,0.6760686635971069,0.07545805722475052,0.9995781183242798,0.41781672835350037,0.6929543614387512,-0.07521256059408188,0.9997568130493164,0.576200544834137,0.6582408547401428,-0.2533406615257263,0.9694146513938904,0.46153879165649414,0.7411543130874634,-0.5543538331985474,0.9969809651374817,0.5483142137527466,0.802798330783844,0.07212461531162262,0.961947500705719,0.4267732501029968,0.9016119837760925,-0.31887227296829224,0.9961170554161072,0.5337693095207214,0.8217521905899048,0.09937797486782074,0.9329801797866821,0.41529974341392517,0.9149923920631409,-0.3012213706970215,0.9472302198410034,0.5866836905479431,0.8568082451820374,-0.013098545372486115,0.9662737846374512,0.45471271872520447,0.957676112651825,-0.4721452295780182,0.9928832054138184
34,0.5499001741409302,0.5076404809951782,-0.6179529428482056,0.999844491481781,0.5511274337768555,0.49001556634902954,-0.5913745164871216,0.9997752904891968,0.5533498525619507,0.48925718665122986,-0.5915160179138184,0.9997458457946777,0.555461049079895,0.48830464482307434,-0.5917006731033325,0.9997093677520752,0.5404056310653687,0.4901302456855774,-0.6206120848655701,0.9997950196266174,0.5346328020095825,0.4900128245353699,-0.6207318902015686,0.9997878670692444,0.5285519361495972,0.49035245180130005,-0.6207383871078491,0.9997966289520264,0.5463018417358398,0.4885498285293579,-0.42593640089035034,0.9993419051170349,0.5077641010284424,0.49698251485824585,-0.5546718835830688,0.9997870922088623,0.5493215918540955,0.5246558785438538,-0.5527383685112,0.9996683597564697,0.5362541079521179,0.5255186557769775,-0.5903276205062866,0.9998640418052673,0.5449346303939819,0.5505625605583191,-0.2721443772315979,0.9991254210472107,0.451842725276947,0.5883238315582275,-0.4777098298072815,0.9995754957199097,0.6139765977859497,0.6341952681541443,-0.4751953184604645,0.7695683240890503,0.47454437613487244,0.7271653413772583,-0.6143361330032349,0.981614351272583,0.5929843187332153,0.5771872401237488,-0.8259344100952148,0.7578738331794739,0.529543399810791,0.6203699707984924,-0.7518376111984253,0.9826751351356506,0.5899540185928345,0.5583480000495911,-0.8842423558235168,0.6907170414924622,0.5454411506652832,0.5941095352172852,-0.8027957081794739,0.966559648513794,0.5828719139099121,0.5450090169906616,-0.8616267442703247,0.668736457824707,0.5432222485542297,0.5781348347663879,-0.7855504751205444,0.9587123990058899,0.5795809030532837,0.5550372004508972,-0.8251742124557495,0.621704638004303,0.5392026901245117,0.5844140648841858,-0.745447039604187,0.8956007361412048,0.48594021797180176,0.6773833632469177,0.07658250629901886,0.999613881111145,0.4181911051273346,0.6954378485679626,-0.07630802690982819,0.9997791051864624,0.5762166380882263,0.6589143872261047,-0.22932159900665283,0.9704343676567078,0.465442955493927,0.7424837350845337,-0.5485986471176147,0.9971129894256592,0.5554536581039429,0.8025714159011841,0.09693184494972229,0.9614168405532837,0.4278680384159088,0.9025360941886902,-0.3137775957584381,0.996424674987793,0.5372265577316284,0.8219364881515503,0.12434409558773041,0.9342256188392639,0.4167202413082123,0.9171825051307678,-0.29618504643440247,0.9512587785720825,0.5895510315895081,0.858081042766571,0.01751050539314747,0.9666217565536499,0.457340806722641,0.9576067328453064,-0.4658542275428772,0.9934170842170715
35,0.5513477325439453,0.5089673399925232,-0.6215406060218811,0.999859094619751,0.551715075969696,0.4914467930793762,-0.5945976376533508,0.9997966289520264,0.5536450147628784,0.4906143844127655,-0.5947390794754028,0.9997704029083252,0.5555096864700317,0.4895777404308319,-0.5949281454086304,0.9997372627258301,0.5421404242515564,0.4918171167373657,-0.6265892386436462,0.9998141527175903,0.5370568633079529,0.49169477820396423,-0.6267200708389282,0.9998076558113098,0.5317348837852478,0.4918815791606903,-0.6267254948616028,0.9998149275779724,0.5455940961837769,0.48984208703041077,-0.42795753479003906,0.9994066953659058,0.5109490752220154,0.4976996183395386,-0.5703250169754028,0.999806821346283,0.5502673983573914,0.5252833366394043,-0.5557396411895752,0.9997012615203857,0.5382655262947083,0.5262803435325623,-0.5972446203231812,0.9998770952224731,0.544236421585083,0.5484760403633118,-0.27372047305107117,0.9992081522941589,0.4533271789550781,0.5889295935630798,-0.4946708083152771,0.9995976686477661,0.6152881383895874,0.6342164874076843,-0.47671541571617126,0.7884427905082703,0.47549206018447876,0.7277149558067322,-0.6320117115974426,0.9807889461517334,0.5930221080780029,0.5755953192710876,-0.8330805897712708,0.7731028199195862,0.5297071933746338,0.6203081011772156,-0.7597509622573853,0.9815229177474976,0.59099942445755,0.5558929443359375,-0.8937702178955078,0.7057918310165405,0.5454872250556946,0.5928552746772766,-0.8157206773757935,0.9650393128395081,0.583176851272583,0.5462270379066467,-0.8740761876106262,0.6844190359115601,0.5433324575424194,0.5794271230697632,-0.8014512062072754,0.9568357467651367,0.5800119638442993,0.5557486414909363,-0.8339743614196777,0.6362912654876709,0.5394293665885925,0.5831195116043091,-0.7555320262908936,0.8903947472572327,0.48564663529396057,0.6751804947853088,0.07915487140417099,0.9996480941772461,0.4182402491569519,0.6959396600723267,-0.07875674962997437,0.9998001456260681,0.5770204663276672,0.6589893102645874,-0.21352195739746094,0.9712492227554321,0.4677911698818207,0.7434225678443909,-0.5768044590950012,0.9972744584083557,0.5540100336074829,0.8025593161582947,0.10655906051397324,0.9608685374259949,0.4285026490688324,0.9042560458183289,-0.35451188683509827,0.9967182278633118,0.5378114581108093,0.8220120668411255,0.13327769935131073,0.935878574848175,0.4172203540802002,0.9202997088432312,-0.3384528160095215,0.9551828503608704,0.590557336807251,0.8568592071533203,0.02516886033117771,0.96695876121521,0.4573110044002533,0.9573870301246643,-0.5123037099838257,0.993939220905304
36,0.5518196821212769,0.507922887802124,-0.6296693682670593,0.9998728036880493,0.5515516400337219,0.49104276299476624,-0.6031867265701294,0.9998165369033813,0.5533650517463684,0.4901919960975647,-0.6033281683921814,0.9997929930686951,0.5551522970199585,0.4891137182712555,-0.6035167574882507,0.9997630715370178,0.5424586534500122,0.4915880858898163,-0.6353253126144409,0.9998322129249573,0.5376138091087341,0.4915308654308319,-0.6354545950889587,0.9998263120651245,0.5325815677642822,0.491783082485199,-0.6354536414146423,0.9998326897621155,0.5451450347900391,0.4892805218696594,-0.43819156289100647,0.9994656443595886,0.5123154520988464,0.49746304750442505,-0.5819453597068787,0.9998255372047424,0.5511083602905273,0.5240373611450195,-0.564517617225647,0.9997310042381287,0.539433479309082,0.5248655676841736,-0.6064680814743042,0.9998891949653625,0.543530285358429,0.5485227704048157,-0.28629249334335327,0.9992846250534058,0.4533713757991791,0.590652346611023,-0.5098746418952942,0.9996270537376404,0.6149482727050781,0.6354772448539734,-0.4868125319480896,0.805147647857666,0.47674909234046936,0.7280994653701782,-0.6453908681869507,0.980172872543335,0.5926469564437866,0.5769688487052917,-0.8451083302497864,0.7867839336395264,0.5300022959709167,0.6207630038261414,-0.7686493992805481,0.980118453502655,0.5908312201499939,0.5580571293830872,-0.9058462977409363,0.7203019261360168,0.5513929128646851,0.6018819212913513,-0.826003909111023,0.9629887938499451,0.5831414461135864,0.5499430298805237,-0.8873100280761719,0.6994585394859314,0.5439071655273438,0.5784260630607605,-0.8107331395149231,0.9542528390884399,0.5798577070236206,0.557931661605835,-0.8461329340934753,0.6499423384666443,0.5403194427490234,0.5838057994842529,-0.7642073631286621,0.8836460709571838,0.4850310683250427,0.6738454103469849,0.08140071481466293,0.9996804594993591,0.4182329773902893,0.6952005624771118,-0.08097466081380844,0.9998196363449097,0.5768258571624756,0.6590999364852905,-0.15834181010723114,0.971342146396637,0.46812447905540466,0.7440454959869385,-0.5686439275741577,0.9974430203437805,0.5531597137451172,0.8019979000091553,0.19552525877952576,0.9592605829238892,0.4286636412143707,0.9053478837013245,-0.33681419491767883,0.9969965815544128,0.5384873151779175,0.8197762966156006,0.2255830019712448,0.935302734375,0.41733402013778687,0.922832190990448,-0.31981202960014343,0.9587562084197998,0.5905554294586182,0.854110836982727,0.1252719610929489,0.9663500189781189,0.4593935012817383,0.9574471712112427,-0.49129948019981384,0.9944294691085815
37,0.5535522699356079,0.5080142021179199,-0.6118716597557068,0.9998844861984253,0.5524978041648865,0.49142590165138245,-0.5848101377487183,0.999833881855011,0.5539679527282715,0.4903862774372101,-0.5849868059158325,0.9998128414154053,0.5554193258285522,0.4891197383403778,-0.585204005241394,0.999785840511322,0.5442657470703125,0.49252551794052124,-0.6317757368087769,0.9998476505279541,0.539703905582428,0.492559552192688,-0.6319148540496826,0.9998421669006348,0.534965991973877,0.492859423160553,-0.6318643689155579,0.999847412109375,0.5447672009468079,0.48895391821861267,-0.4314260482788086,0.9995182156562805,0.51413893699646,0.4978598356246948,-0.559677243232727,0.9998412132263184,0.5523162484169006,0.523141086101532,-0.5506105422973633,0.9997576475143433,0.5414086580276489,0.5249029397964478,-0.5951401591300964,0.9998998045921326,0.5426864624023438,0.5457283854484558,-0.2677561044692993,0.9993524551391602,0.45372357964515686,0.5905738472938538,-0.49202218651771545,0.9996395111083984,0.6112653613090515,0.6340805888175964,-0.45286041498184204,0.8199375867843628,0.47716856002807617,0.7265804409980774,-0.6146882772445679,0.9795047640800476,0.5925449728965759,0.5813409090042114,-0.8023505210876465,0.7996090054512024,0.5305907130241394,0.6210585832595825,-0.7087698578834534,0.9787037968635559,0.593122124671936,0.5608906149864197,-0.8635972738265991,0.7343254685401917,0.5539277195930481,0.6056998372077942,-0.7643213868141174,0.9610122442245483,0.5843226909637451,0.5514673590660095,-0.8492902517318726,0.714364767074585,0.5445388555526733,0.5807589292526245,-0.7533054351806641,0.9518488049507141,0.5813051462173462,0.5598567128181458,-0.8054121136665344,0.664393424987793,0.541088342666626,0.585923969745636,-0.7057532668113708,0.8771911263465881,0.47989407181739807,0.6710128784179688,0.08545158803462982,0.9997084140777588,0.4181637167930603,0.6957547068595886,-0.0850379690527916,0.9998366236686707,0.5769709348678589,0.6591731309890747,-0.1823403388261795,0.9715872406959534,0.46818938851356506,0.7459790110588074,-0.5718261003494263,0.9975515007972717,0.5521730184555054,0.8005545139312744,0.1568053513765335,0.9581741690635681,0.4288526475429535,0.9050967693328857,-0.3488340973854065,0.9972374439239502,0.5380522012710571,0.8180363178253174,0.1860000193119049,0.9363179206848145,0.41726914048194885,0.9226491451263428,-0.3323940634727478,0.9619928598403931,0.585258424282074,0.8542922139167786,0.08381655812263489,0.9662937521934509,0.45994892716407776,0.9575140476226807,-0.501275897026062,0.994861364364624
