frame,NOSE.x,NOSE.y,NOSE.z,NOSE.v,LEFT_EYE_INNER.x,LEFT_EYE_INNER.y,LEFT_EYE_INNER.z,LEFT_EYE_INNER.v,LEFT_EYE.x,LEFT_EYE.y,LEFT_EYE.z,LEFT_EYE.v,LEFT_EYE_OUTER.x,LEFT_EYE_OUTER.y,LEFT_EYE_OUTER.z,LEFT_EYE_OUTER.v,RIGHT_EYE_INNER.x,RIGHT_EYE_INNER.y,RIGHT_EYE_INNER.z,RIGHT_EYE_INNER.v,RIGHT_EYE.x,RIGHT_EYE.y,RIGHT_EYE.z,RIGHT_EYE.v,RIGHT_EYE_OUTER.x,RIGHT_EYE_OUTER.y,RIGHT_EYE_OUTER.z,RIGHT_EYE_OUTER.v,LEFT_EAR.x,LEFT_EAR.y,LEFT_EAR.z,LEFT_EAR.v,RIGHT_EAR.x,RIGHT_EAR.y,RIGHT_EAR.z,RIGHT_EAR.v,MOUTH_LEFT.x,MOUTH_LEFT.y,MOUTH_LEFT.z,MOUTH_LEFT.v,MOUTH_RIGHT.x,MOUTH_RIGHT.y,MOUTH_RIGHT.z,MOUTH_RIGHT.v,LEFT_SHOULDER.x,LEFT_SHOULDER.y,LEFT_SHOULDER.z,LEFT_SHOULDER.v,RIGHT_SHOULDER.x,RIGHT_SHOULDER.y,RIGHT_SHOULDER.z,RIGHT_SHOULDER.v,LEFT_ELBOW.x,LEFT_ELBOW.y,LEFT_ELBOW.z,LEFT_ELBOW.v,RIGHT_ELBOW.x,RIGHT_ELBOW.y,RIGHT_ELBOW.z,RIGHT_ELBOW.v,LEFT_WRIST.x,LEFT_WRIST.y,LEFT_WRIST.z,LEFT_WRIST.v,RIGHT_WRIST.x,RIGHT_WRIST.y,RIGHT_WRIST.z,RIGHT_WRIST.v,LEFT_PINKY.x,LEFT_PINKY.y,LEFT_PINKY.z,LEFT_PINKY.v,RIGHT_PINKY.x,RIGHT_PINKY.y,RIGHT_PINKY.z,RIGHT_PINKY.v,LEFT_INDEX.x,LEFT_INDEX.y,LEFT_INDEX.z,LEFT_INDEX.v,RIGHT_INDEX.x,RIGHT_INDEX.y,RIGHT_INDEX.z,RIGHT_INDEX.v,LEFT_THUMB.x,LEFT_THUMB.y,LEFT_THUMB.z,LEFT_THUMB.v,RIGHT_THUMB.x,RIGHT_THUMB.y,RIGHT_THUMB.z,RIGHT_THUMB.v,LEFT_HIP.x,LEFT_HIP.y,LEFT_HIP.z,LEFT_HIP.v,RIGHT_HIP.x,RIGHT_HIP.y,RIGHT_HIP.z,RIGHT_HIP.v,LEFT_KNEE.x,LEFT_KNEE.y,LEFT_KNEE.z,LEFT_KNEE.v,RIGHT_KNEE.x,RIGHT_KNEE.y,RIGHT_KNEE.z,RIGHT_KNEE.v,LEFT_ANKLE.x,LEFT_ANKLE.y,LEFT_ANKLE.z,LEFT_ANKLE.v,RIGHT_ANKLE.x,RIGHT_ANKLE.y,RIGHT_ANKLE.z,RIGHT_ANKLE.v,LEFT_HEEL.x,LEFT_HEEL.y,LEFT_HEEL.z,LEFT_HEEL.v,RIGHT_HEEL.x,RIGHT_HEEL.y,RIGHT_HEEL.z,RIGHT_HEEL.v,LEFT_FOOT_INDEX.x,LEFT_FOOT_INDEX.y,LEFT_FOOT_INDEX.z,LEFT_FOOT_INDEX.v,RIGHT_FOOT_INDEX.x,RIGHT_FOOT_INDEX.y,RIGHT_FOOT_INDEX.z,RIGHT_FOOT_INDEX.v
0,0.5175620913505554,0.3340298533439636,-0.7431749105453491,0.9997228980064392,0.5164326429367065,0.3164367377758026,-0.7206533551216125,0.9992813467979431,0.5186975598335266,0.31499558687210083,-0.7206922769546509,0.9991329312324524,0.5209571719169617,0.3114607036113739,-0.7208618521690369,0.9990143775939941,0.5045639276504517,0.31887027621269226,-0.7516223192214966,0.999713122844696,0.49822014570236206,0.3191165328025818,-0.7518458366394043,0.9997625946998596,0.49208468198776245,0.32065457105636597,-0.7519972324371338,0.9998300075531006,0.5115875601768494,0.31679752469062805,-0.5489940643310547,0.9984332919120789,0.4711408019065857,0.32612788677215576,-0.6856702566146851,0.9997192025184631,0.5183349251747131,0.3473193347454071,-0.672353208065033,0.9994184970855713,0.5049058794975281,0.35195180773735046,-0.7124170660972595,0.999823272228241,0.5217476487159729,0.3724859356880188,-0.3191329836845398,0.9976263642311096,0.4129255414009094,0.4256383776664734,-0.6058116555213928,0.999595582485199,0.5532176494598389,0.40871021151542664,-0.14028196036815643,0.5658372044563293,0.41529518365859985,0.5679975152015686,-0.6946083903312683,0.9974943399429321,0.5535366535186768,0.43882590532302856,-0.11206214129924774,0.4684182405471802,0.5090466737747192,0.5229132771492004,-0.809177041053772,0.9956368803977966,0.5574714541435242,0.4507174491882324,-0.11657188087701797,0.3875155448913574,0.5354955196380615,0.5199751257896423,-0.8658768534660339,0.989662766456604,0.5529170036315918,0.45044639706611633,-0.14406822621822357,0.37356245517730713,0.5357614755630493,0.4995439946651459,-0.8583495020866394,0.9873771071434021,0.5498048067092896,0.44851118326187134,-0.12219618260860443,0.3822202980518341,0.5260728001594543,0.4971495568752289,-0.8042200803756714,0.9673091173171997,0.4660792350769043,0.5612248778343201,0.08469020575284958,0.9992868304252625,0.40176743268966675,0.5919444561004639,-0.08468000590801239,0.9993745684623718,0.5531381964683533,0.6340610980987549,-0.15434786677360535,0.9903926849365234,0.42569366097450256,0.7382214069366455,-0.33741700649261475,0.9951850771903992,0.5261749029159546,0.7735550403594971,0.21225443482398987,0.9814282655715942,0.3992704749107361,0.8804855346679688,-0.061568934470415115,0.996178388595581,0.508658230304718,0.7923616766929626,0.24300315976142883,0.9578715562820435,0.3848417103290558,0.897742509841919,-0.04037776216864586,0.9538511037826538,0.5769982933998108,0.8300009965896606,0.13591425120830536,0.980567991733551,0.42127689719200134,0.935039758682251,-0.22448031604290009,0.9925518035888672
1,0.5189094543457031,0.33931225538253784,-0.702165961265564,0.9997423887252808,0.516907811164856,0.3214062750339508,-0.6741637587547302,0.9993367195129395,0.5190863609313965,0.31972917914390564,-0.6742729544639587,0.9992016553878784,0.52130526304245,0.3173021972179413,-0.6744279861450195,0.9990931749343872,0.5052550435066223,0.32438400387763977,-0.7073020935058594,0.9997320771217346,0.4989740252494812,0.32489627599716187,-0.7074958086013794,0.9997772574424744,0.4926419258117676,0.3256332278251648,-0.7076022028923035,0.9998395442962646,0.5121016502380371,0.3209289610385895,-0.48849374055862427,0.998544454574585,0.4712681770324707,0.33265823125839233,-0.6350394487380981,0.9997367262840271,0.5208178758621216,0.35278216004371643,-0.6279750466346741,0.999458909034729,0.5067332983016968,0.3576071858406067,-0.6707021594047546,0.9998348355293274,0.5192586779594421,0.3813934922218323,-0.2924456000328064,0.9977708458900452,0.42049869894981384,0.42952144145965576,-0.5691087245941162,0.9996104836463928,0.5417498350143433,0.4538162052631378,-0.3238271474838257,0.5672411918640137,0.4187534749507904,0.5787646770477295,-0.6881741285324097,0.9972950220108032,0.5494544506072998,0.475831538438797,-0.6075021028518677,0.48562344908714294,0.5091257691383362,0.5237178802490234,-0.8213216662406921,0.9952585697174072,0.5557857155799866,0.4865972101688385,-0.6632556319236755,0.41515403985977173,0.5356054902076721,0.5196551084518433,-0.8872421979904175,0.9891335368156433,0.5507230758666992,0.47672632336616516,-0.687231719493866,0.40161484479904175,0.5356471538543701,0.49853891134262085,-0.8790707588195801,0.9867464303970337,0.5456860065460205,0.4747155010700226,-0.6254041194915771,0.4065188467502594,0.5258680582046509,0.4970649182796478,-0.8179301023483276,0.9654657244682312,0.4657650589942932,0.5672346353530884,0.0893043726682663,0.9992953538894653,0.4014310836791992,0.5958797931671143,-0.08928389102220535,0.9993912577629089,0.5531355142593384,0.634756326675415,-0.12856221199035645,0.9897653460502625,0.4263148307800293,0.7376325726509094,-0.3728545308113098,0.9954918026924133,0.5245901346206665,0.7733057141304016,0.2369704246520996,0.9806949496269226,0.3983606696128845,0.8815311789512634,-0.12611061334609985,0.9963645935058594,0.5077617168426514,0.7924238443374634,0.26722440123558044,0.9566978812217712,0.38365796208381653,0.8990229964256287,-0.10839556157588959,0.9546611905097961,0.5747047662734985,0.8299869298934937,0.16385707259178162,0.979824423789978,0.42118293046951294,0.9370863437652588,-0.29486122727394104,0.9928023815155029
2,0.5232514142990112,0.34800079464912415,-0.6583520770072937,0.9997628331184387,0.5199264287948608,0.33085113763809204,-0.6280020475387573,0.9993945360183716,0.5217216610908508,0.3298629820346832,-0.6281546354293823,0.9992725849151611,0.5236552953720093,0.32867223024368286,-0.628319501876831,0.9991745948791504,0.5094529390335083,0.33169326186180115,-0.6670633554458618,0.9997526407241821,0.5037758350372314,0.33136045932769775,-0.667245626449585,0.9997936487197876,0.497964471578598,0.33082664012908936,-0.6673323512077332,0.9998508095741272,0.5128885507583618,0.3333093822002411,-0.445509135723114,0.9986701011657715,0.4769418239593506,0.3382169008255005,-0.6177753210067749,0.9997574090957642,0.5245571732521057,0.36480894684791565,-0.5864851474761963,0.9995064735412598,0.5113754868507385,0.3675849139690399,-0.6366058588027954,0.9998483657836914,0.5187010765075684,0.3999655544757843,-0.26759761571884155,0.9979214072227478,0.42373815178871155,0.44175398349761963,-0.5675749182701111,0.9996205568313599,0.5407547950744629,0.46869924664497375,-0.3660815358161926,0.5632399916648865,0.42557287216186523,0.5930358171463013,-0.6867802143096924,0.9967949390411377,0.5486786961555481,0.4813145101070404,-0.713108479976654,0.49130895733833313,0.5075191259384155,0.5290099382400513,-0.8047016859054565,0.9943338632583618,0.5556433200836182,0.49194443225860596,-0.7822794318199158,0.43363332748413086,0.5339196920394897,0.5202361345291138,-0.8785734176635742,0.9880212545394897,0.549782931804657,0.4812178313732147,-0.8061854243278503,0.4206774830818176,0.5304316282272339,0.49908047914505005,-0.8696914911270142,0.9853858351707458,0.5445585250854492,0.47888511419296265,-0.7346140742301941,0.42349493503570557,0.522388756275177,0.4989399015903473,-0.8020537495613098,0.9617939591407776,0.4637349247932434,0.5765237808227539,0.09648065268993378,0.9993427991867065,0.4004628658294678,0.6054770946502686,-0.09638868272304535,0.9994280338287354,0.5554817914962769,0.6325864791870117,-0.16202375292778015,0.9896728992462158,0.4288249909877777,0.7375383973121643,-0.4458344876766205,0.9958620071411133,0.5232077240943909,0.7718072533607483,0.22349858283996582,0.9806814789772034,0.39821985363960266,0.881521999835968,-0.17828741669654846,0.9966275691986084,0.5070428848266602,0.7923116087913513,0.2548946440219879,0.956417977809906,0.3828578293323517,0.8989479541778564,-0.15880241990089417,0.9565438628196716,0.572620689868927,0.8285176157951355,0.14307838678359985,0.9797467589378357,0.4211809039115906,0.9377260804176331,-0.351953387260437,0.9932401180267334
3,0.5269489288330078,0.367803692817688,-0.6826158761978149,0.9997798800468445,0.5249626636505127,0.349767804145813,-0.6541659832000732,0.9994435906410217,0.5268974304199219,0.3493275046348572,-0.6542855501174927,0.9993324875831604,0.5289201140403748,0.34883370995521545,-0.654443085193634,0.9992418885231018,0.5137791633605957,0.34827372431755066,-0.6904726028442383,0.9997705221176147,0.5074746608734131,0.34689441323280334,-0.6906711459159851,0.9998083710670471,0.5010219812393188,0.3455950915813446,-0.6907811164855957,0.9998606443405151,0.516349732875824,0.35000088810920715,-0.4679717421531677,0.9987733364105225,0.47869548201560974,0.35112980008125305,-0.6302268505096436,0.9997759461402893,0.5270957350730896,0.3837772607803345,-0.608154296875,0.9995423555374146,0.5136416554450989,0.38499751687049866,-0.6553516983985901,0.9998589158058167,0.5183385014533997,0.40926864743232727,-0.27037477493286133,0.9979974627494812,0.4260912537574768,0.4530763030052185,-0.5657593011856079,0.9996196031570435,0.5418348908424377,0.46984800696372986,-0.2930637001991272,0.5546499490737915,0.4302559792995453,0.6022464036941528,-0.6903853416442871,0.9964120984077454,0.5567097067832947,0.47827863693237305,-0.5311993360519409,0.5035881400108337,0.5081514120101929,0.5295013785362244,-0.8259757161140442,0.9939287900924683,0.5672354698181152,0.48796069622039795,-0.5778149366378784,0.4551199674606323,0.5349973440170288,0.5197039842605591,-0.8924852609634399,0.987527072429657,0.5605655908584595,0.4795019030570984,-0.6036911010742188,0.44270533323287964,0.5311309099197388,0.49905672669410706,-0.8829037547111511,0.9847905039787292,0.5538898706436157,0.47756046056747437,-0.5491054654121399,0.4438970685005188,0.5237321853637695,0.49925994873046875,-0.8222139477729797,0.9601579308509827,0.46364936232566833,0.5830732583999634,0.09565940499305725,0.9993689060211182,0.4008065164089203,0.6110674142837524,-0.09555426239967346,0.999455988407135,0.5556737184524536,0.6321531534194946,-0.15741698443889618,0.988507866859436,0.4296824038028717,0.7343788146972656,-0.4418652653694153,0.9960627555847168,0.5214207768440247,0.768606960773468,0.216138556599617,0.9789868593215942,0.3978208899497986,0.8807212114334106,-0.2163219451904297,0.9967644214630127,0.5054689049720764,0.7901886701583862,0.24555978178977966,0.9542378783226013,0.38153502345085144,0.8976075649261475,-0.20121750235557556,0.9571145176887512,0.5733027458190918,0.816580593585968,0.13627776503562927,0.9783312678337097,0.42120617628097534,0.936963677406311,-0.39733195304870605,0.9934116005897522
4,0.5268397331237793,0.3896908760070801,-0.5551683902740479,0.9997948408126831,0.525691032409668,0.37440404295921326,-0.5294438600540161,0.999488890171051,0.5276708602905273,0.3734951615333557,-0.5295888781547546,0.999388575553894,0.5296324491500854,0.3719639480113983,-0.5297510623931885,0.9993078112602234,0.514616847038269,0.3744659125804901,-0.5641673803329468,0.9997835755348206,0.5083944201469421,0.3734475374221802,-0.5642901659011841,0.9998165369033813,0.5017911791801453,0.3724403977394104,-0.5643831491470337,0.9998648762702942,0.5178263783454895,0.3728967308998108,-0.3722655177116394,0.9988738298416138,0.48076170682907104,0.37671583890914917,-0.528885006904602,0.9997855424880981,0.5269448161125183,0.4025079309940338,-0.4930298924446106,0.9995793104171753,0.5137086510658264,0.40576496720314026,-0.538706362247467,0.9998677968978882,0.5166423916816711,0.43617191910743713,-0.2218504399061203,0.9981344938278198,0.42902812361717224,0.4717312455177307,-0.4889804720878601,0.9995917081832886,0.5399789214134216,0.5148283243179321,-0.3226262927055359,0.566195547580719,0.4399188458919525,0.6136006712913513,-0.6312239170074463,0.9951974749565125,0.5579565763473511,0.4851694703102112,-0.6217209100723267,0.5325923562049866,0.5124205350875854,0.5294562578201294,-0.7542206048965454,0.9921680688858032,0.5681031942367554,0.4835478663444519,-0.6767454743385315,0.48686742782592773,0.5359579920768738,0.5170227885246277,-0.8127051591873169,0.984596312046051,0.5608342885971069,0.4760071933269501,-0.6837772130966187,0.474775105714798,0.532426655292511,0.49899742007255554,-0.8002298474311829,0.9812632203102112,0.5541252493858337,0.47700026631355286,-0.633625864982605,0.4727434515953064,0.5270522236824036,0.4999096989631653,-0.7505313158035278,0.9523005485534668,0.45965224504470825,0.5935379266738892,0.09515083581209183,0.9993886351585388,0.40026506781578064,0.6168167591094971,-0.09509621560573578,0.9994853138923645,0.5556273460388184,0.632453203201294,-0.1355890929698944,0.9862191081047058,0.43009519577026367,0.7323485612869263,-0.45983394980430603,0.9962214827537537,0.5176242589950562,0.7686908841133118,0.20492033660411835,0.976646900177002,0.3972805440425873,0.881676971912384,-0.2534143924713135,0.9968866109848022,0.502459704875946,0.78944993019104,0.23213844001293182,0.9510944485664368,0.38109710812568665,0.8982946276664734,-0.23915362358093262,0.9576708078384399,0.5629947781562805,0.8167240619659424,0.13448357582092285,0.9763721227645874,0.4212326407432556,0.9362372756004333,-0.41771674156188965,0.9936028718948364
5,0.5263018608093262,0.4049610197544098,-0.6169782876968384,0.9998111724853516,0.5261567831039429,0.3875046372413635,-0.5921298265457153,0.9995343685150146,0.5284186601638794,0.3869164288043976,-0.592272937297821,0.9994434714317322,0.5307154655456543,0.3864975571632385,-0.5924426913261414,0.9993710517883301,0.5143438577651978,0.38634854555130005,-0.6240852475166321,0.9997990727424622,0.5079729557037354,0.38534656167030334,-0.6242047548294067,0.9998274445533752,0.5012351274490356,0.3843960464000702,-0.6242868900299072,0.9998718500137329,0.52069491147995,0.3902805745601654,-0.4232970178127289,0.998975932598114,0.48139485716819763,0.3899506628513336,-0.5670977830886841,0.9997988939285278,0.5266796946525574,0.41999465227127075,-0.5488091111183167,0.999617874622345,0.5127769112586975,0.42087695002555847,-0.590803325176239,0.9998785257339478,0.5166319012641907,0.44680023193359375,-0.2528432607650757,0.9983050227165222,0.42988571524620056,0.47996509075164795,-0.5075405836105347,0.999597430229187,0.5528252720832825,0.5169896483421326,-0.39281871914863586,0.5958555936813354,0.44353732466697693,0.6173593401908875,-0.6507002115249634,0.9944268465042114,0.5600379705429077,0.49034205079078674,-0.7138770818710327,0.5697966814041138,0.5135706663131714,0.5340824723243713,-0.7729393243789673,0.9915193319320679,0.5684295892715454,0.4841785728931427,-0.7756184339523315,0.5260945558547974,0.5358855128288269,0.5171985626220703,-0.827182948589325,0.983483612537384,0.5600088238716125,0.4755667746067047,-0.7788316607475281,0.5141283273696899,0.5329978466033936,0.5005654692649841,-0.8224164247512817,0.9798614382743835,0.553763210773468,0.48020172119140625,-0.7240742444992065,0.5096936225891113,0.5281708836555481,0.5034161806106567,-0.7663062810897827,0.9489760398864746,0.456381618976593,0.597268283367157,0.09369795024394989,0.9994284510612488,0.39674362540245056,0.6186099648475647,-0.09355437010526657,0.9995197057723999,0.5513238906860352,0.6377620100975037,-0.14272679388523102,0.9854468107223511,0.4311417043209076,0.7302625179290771,-0.47034940123558044,0.9963495135307312,0.5143193006515503,0.7694844603538513,0.20604634284973145,0.9746362566947937,0.3966926336288452,0.8816709518432617,-0.2173498570919037,0.9969254732131958,0.4988296926021576,0.7866917252540588,0.23458096385002136,0.9487406015396118,0.3811609148979187,0.898024320602417,-0.19754911959171295,0.9570139050483704,0.5500360727310181,0.8285114169120789,0.13522255420684814,0.9748002290725708,0.4218727946281433,0.9342843294143677,-0.3718663454055786,0.9936673641204834
6,0.5260502099990845,0.41564151644706726,-0.6175214648246765,0.9998279213905334,0.5256850123405457,0.3993458151817322,-0.5901241898536682,0.999578595161438,0.5279761552810669,0.39860883355140686,-0.590287446975708,0.9994969367980957,0.5304582118988037,0.3976612687110901,-0.590464174747467,0.9994319081306458,0.5142742991447449,0.39936500787734985,-0.626226007938385,0.9998165965080261,0.5081871747970581,0.3987175226211548,-0.626361608505249,0.9998418092727661,0.5017319321632385,0.3981914818286896,-0.6264256238937378,0.9998820424079895,0.5203279256820679,0.4011017978191376,-0.4223371148109436,0.9990752339363098,0.48188623785972595,0.4044029414653778,-0.5827493667602539,0.9998152852058411,0.526433527469635,0.42970651388168335,-0.5511635541915894,0.9996545314788818,0.5135816335678101,0.4307335913181305,-0.5979977250099182,0.9998891949653625,0.5166879296302795,0.46899083256721497,-0.2623823583126068,0.998451828956604,0.4291580319404602,0.5030108094215393,-0.5249038934707642,0.9995924234390259,0.5562206506729126,0.538841962814331,-0.42372363805770874,0.6134990453720093,0.4511764943599701,0.6414105296134949,-0.6793811917304993,0.9933456778526306,0.5596221089363098,0.5116254687309265,-0.7769835591316223,0.5914846062660217,0.5150507092475891,0.5395432710647583,-0.8492621183395386,0.990459144115448,0.5675051212310791,0.4959060847759247,-0.8418897390365601,0.5498036742210388,0.535908579826355,0.5183020234107971,-0.9183553457260132,0.9819362163543701,0.5599473714828491,0.4855676591396332,-0.8453917503356934,0.537286639213562,0.5331255197525024,0.5032871961593628,-0.9007598757743835,0.9777117371559143,0.554786205291748,0.4905101954936981,-0.7885864973068237,0.5290243029594421,0.5281152725219727,0.5099599361419678,-0.845079779624939,0.9422689080238342,0.4568692147731781,0.6084904074668884,0.09345056116580963,0.9994706511497498,0.39695775508880615,0.6304535269737244,-0.09334103018045425,0.9995605945587158,0.5531996488571167,0.6324527263641357,-0.17254891991615295,0.9854274392127991,0.43180838227272034,0.7305273413658142,-0.5087590217590332,0.9966288805007935,0.5153415203094482,0.7677885293960571,0.19835522770881653,0.9746504426002502,0.39569857716560364,0.8815746903419495,-0.2696596384048462,0.9971683621406555,0.5008043050765991,0.7867864370346069,0.22918057441711426,0.9486181139945984,0.38125306367874146,0.8979788422584534,-0.2527045011520386,0.9593214392662048,0.5574914216995239,0.8126055598258972,0.12362780421972275,0.975272536277771,0.4255999028682709,0.934371292591095,-0.43589693307876587,0.9941288232803345
7,0.5261157155036926,0.43188372254371643,-0.6215924620628357,0.9998440146446228,0.5256956815719604,0.415251761674881,-0.5901684761047363,0.9996193647384644,0.5276734232902527,0.41471949219703674,-0.5903365015983582,0.9995461702346802,0.530072808265686,0.4140782952308655,-0.5905291438102722,0.999487578868866,0.5157677531242371,0.4150034189224243,-0.6292775273323059,0.9998332858085632,0.5103920698165894,0.41418856382369995,-0.6294174194335938,0.9998559355735779,0.5045678019523621,0.41342729330062866,-0.6294575929641724,0.9998919367790222,0.5194138884544373,0.41610410809516907,-0.4107573926448822,0.9991662502288818,0.4843969941139221,0.4173174202442169,-0.5847998857498169,0.9998314380645752,0.5263062119483948,0.44571730494499207,-0.5518426299095154,0.999688446521759,0.5141347646713257,0.4465976357460022,-0.6023300886154175,0.9998995065689087,0.5166630148887634,0.4856365919113159,-0.2557455599308014,0.9986015558242798,0.4293297827243805,0.5130125284194946,-0.5325788259506226,0.9996117353439331,0.572823166847229,0.5618550181388855,-0.4408726692199707,0.6463013291358948,0.4553421437740326,0.6498271226882935,-0.7143137454986572,0.9923911690711975,0.5632385611534119,0.5200642347335815,-0.8051883578300476,0.6198926568031311,0.5162699818611145,0.549107551574707,-0.9042814373970032,0.9894397258758545,0.5673695802688599,0.5031705498695374,-0.8721002340316772,0.5763140320777893,0.535893976688385,0.5243805646896362,-0.9804909825325012,0.9803615212440491,0.560599684715271,0.49532076716423035,-0.8675153851509094,0.5638587474822998,0.5330801010131836,0.5108395218849182,-0.9611872434616089,0.9756371378898621,0.5562294125556946,0.5002977848052979,-0.8139863014221191,0.5518679618835449,0.5280754566192627,0.5195013284683228,-0.9009480476379395,0.9344078302383423,0.4527643620967865,0.6235854625701904,0.1010827049612999,0.9995185136795044,0.3944776654243469,0.642548680305481,-0.10090485960245132,0.9996029138565063,0.5439335107803345,0.6545696258544922,-0.1704450398683548,0.9834727048873901,0.43180423974990845,0.7296040654182434,-0.6166504621505737,0.9968243837356567,0.5156410932540894,0.7773182988166809,0.21880149841308594,0.9713426828384399,0.3951970934867859,0.8815963864326477,-0.37442776560783386,0.9973737001419067,0.5009626150131226,0.7986986041069031,0.25197505950927734,0.9456816911697388,0.38148030638694763,0.897986650466919,-0.35861659049987793,0.9618299007415771,0.5537729263305664,0.8262320756912231,0.1381518691778183,0.9738727807998657,0.4256712794303894,0.9340746998786926,-0.5542438626289368,0.9945780038833618
8,0.5256320238113403,0.443363755941391,-0.661343514919281,0.9998589754104614,0.5256026983261108,0.426201730966568,-0.6304765939712524,0.9996563792228699,0.5274959802627563,0.4258795976638794,-0.6306427121162415,0.9995907545089722,0.5298024415969849,0.4253973364830017,-0.6308292746543884,0.9995376467704773,0.5156587362289429,0.42554768919944763,-0.66688472032547,0.9998489022254944,0.5102869272232056,0.42511552572250366,-0.6670078039169312,0.9998694062232971,0.5045074820518494,0.4250742793083191,-0.6670435667037964,0.999901533126831,0.5195432305335999,0.4278496503829956,-0.4520311951637268,0.9992482662200928,0.4840763211250305,0.43179163336753845,-0.6150316596031189,0.9998471140861511,0.5257787108421326,0.4601544439792633,-0.5924197435379028,0.9997191429138184,0.5132784843444824,0.4595583379268646,-0.6395856142044067,0.9999090433120728,0.5176481008529663,0.4985674023628235,-0.30547115206718445,0.9987377524375916,0.4303738474845886,0.5236736536026001,-0.563073992729187,0.9996421933174133,0.5773242712020874,0.5829184055328369,-0.5108885169029236,0.6717138290405273,0.45339035987854004,0.6581946015357971,-0.7539003491401672,0.9906121492385864,0.5624765157699585,0.5314971208572388,-0.8584826588630676,0.6361463665962219,0.5159575939178467,0.561206042766571,-0.9389902353286743,0.9879072308540344,0.5665925145149231,0.5118368268013,-0.9208070039749146,0.589321494102478,0.534065842628479,0.5347550511360168,-1.0128593444824219,0.9777531623840332,0.559831976890564,0.5035339593887329,-0.9060455560684204,0.5746131539344788,0.531794011592865,0.521310567855835,-0.9864224195480347,0.9720785021781921,0.5561419129371643,0.5116999745368958,-0.8615066409111023,0.5559895634651184,0.5277022123336792,0.5284568071365356,-0.9322497248649597,0.9225943088531494,0.4528893828392029,0.6313196420669556,0.09901585429906845,0.999559760093689,0.3936362564563751,0.6480699181556702,-0.09875484555959702,0.999642014503479,0.5302315354347229,0.6677757501602173,-0.03096965327858925,0.9756956100463867,0.431673526763916,0.7297422289848328,-0.5912805199623108,0.9969343543052673,0.5140128135681152,0.7750053405761719,0.46932777762413025,0.9619359374046326,0.3941318988800049,0.8813191652297974,-0.2986885905265808,0.9975431561470032,0.5011781454086304,0.7922697067260742,0.5130177140235901,0.9311640858650208,0.38152918219566345,0.8974550366401672,-0.2770613133907318,0.9636453986167908,0.5437114238739014,0.8270463943481445,0.4100511968135834,0.9666712284088135,0.42557892203330994,0.9342209100723267,-0.46868520975112915,0.9949250817298889
9,0.5257788896560669,0.46164751052856445,-0.6759896278381348,0.9998726844787598,0.5256858468055725,0.44481557607650757,-0.6506296396255493,0.9996899962425232,0.5274852514266968,0.4441702663898468,-0.6507836580276489,0.9996310472488403,0.5295842885971069,0.44341009855270386,-0.650973379611969,0.9995831251144409,0.515765905380249,0.444715291261673,-0.6864945888519287,0.9998632669448853,0.5101114511489868,0.44438567757606506,-0.6866148114204407,0.9998816847801208,0.5040417313575745,0.4445006549358368,-0.6866409182548523,0.9999104142189026,0.5195344686508179,0.44468891620635986,-0.48610296845436096,0.9993224740028381,0.4836024343967438,0.45020732283592224,-0.646215558052063,0.9998613595962524,0.5256267786026001,0.47752755880355835,-0.6098672747612,0.9997469782829285,0.51326984167099,0.4774751365184784,-0.6565676927566528,0.9999178051948547,0.5176259279251099,0.5102588534355164,-0.3339676856994629,0.9988622069358826,0.4304891526699066,0.5446318984031677,-0.5870577096939087,0.9996699690818787,0.5699038505554199,0.5938993692398071,-0.5213736295700073,0.6970425248146057,0.45743900537490845,0.6744152307510376,-0.7568779587745667,0.9877058267593384,0.5626777410507202,0.5404031276702881,-0.8654890060424805,0.6583939790725708,0.5162794589996338,0.582245409488678,-0.9328520894050598,0.9850865006446838,0.5666755437850952,0.5224837064743042,-0.9313921928405762,0.6123033165931702,0.538763701915741,0.5730410814285278,-1.009240984916687,0.9740278124809265,0.5600558519363403,0.5156230330467224,-0.9236027598381042,0.5968517065048218,0.5310159921646118,0.5419809222221375,-0.9873453974723816,0.9672551155090332,0.5559555888175964,0.52247154712677,-0.871410071849823,0.573880672454834,0.5270771384239197,0.5505184531211853,-0.9280936121940613,0.9089217782020569,0.45067858695983887,0.6366440057754517,0.09779277443885803,0.9995988011360168,0.39247262477874756,0.6532229781150818,-0.09750586003065109,0.9996771812438965,0.521689772605896,0.6840013265609741,-0.03448762372136116,0.9647268056869507,0.43165749311447144,0.735888659954071,-0.5699735879898071,0.9969754219055176,0.5094672441482544,0.7793291807174683,0.46711039543151855,0.9490033984184265,0.39356300234794617,0.8818588256835938,-0.26655665040016174,0.997685968875885,0.49876970052719116,0.7942368984222412,0.5112637281417847,0.9115170240402222,0.38096722960472107,0.8975533246994019,-0.24406549334526062,0.9652998447418213,0.5412259101867676,0.8295611143112183,0.40864354372024536,0.9570356011390686,0.42578038573265076,0.9345571398735046,-0.4307973384857178,0.9952108860015869
10,0.5276158452033997,0.467572957277298,-0.664586067199707,0.9998851418495178,0.5270817875862122,0.45058634877204895,-0.6441975831985474,0.999720573425293,0.5288387537002563,0.4497605562210083,-0.6443669199943542,0.9996675848960876,0.5307177305221558,0.4487511217594147,-0.6445512175559998,0.9996243715286255,0.5170568823814392,0.4514981210231781,-0.6801426410675049,0.9998764395713806,0.5111858248710632,0.45166200399398804,-0.680179238319397,0.9998930096626282,0.5047631859779358,0.4522668421268463,-0.6800938844680786,0.9999187588691711,0.5201357007026672,0.45056983828544617,-0.4777604639530182,0.9993897080421448,0.48389703035354614,0.4592297673225403,-0.6363464593887329,0.9998745322227478,0.5269647836685181,0.4838143289089203,-0.6052520871162415,0.9997721314430237,0.5150763392448425,0.48534905910491943,-0.6531277894973755,0.9999257922172546,0.5184038877487183,0.5148752331733704,-0.3244453966617584,0.9989752769470215,0.43034592270851135,0.5572798252105713,-0.5754191279411316,0.9996985793113708,0.5759977102279663,0.5901709794998169,-0.5120891332626343,0.7208458781242371,0.46093183755874634,0.6861142516136169,-0.73823082447052,0.9817315340042114,0.567142128944397,0.5402548909187317,-0.8627845644950867,0.6798721551895142,0.5175755620002747,0.5854601263999939,-0.9116400480270386,0.9800029993057251,0.5695072412490845,0.5217525959014893,-0.9279736280441284,0.632397472858429,0.5416458249092102,0.5723510980606079,-0.9846280217170715,0.9676762223243713,0.5609049797058105,0.5149908661842346,-0.9149100184440613,0.61679607629776,0.5310734510421753,0.5431336760520935,-0.9647108912467957,0.9595094323158264,0.5573097467422485,0.5221747756004333,-0.8661434054374695,0.5886791348457336,0.527062714099884,0.5509819388389587,-0.9072898626327515,0.8895350098609924,0.45133328437805176,0.6405153274536133,0.09427870810031891,0.9996362924575806,0.39248839020729065,0.6589882373809814,-0.09395384043455124,0.9997093081474304,0.5182074904441833,0.6763738393783569,0.02650381624698639,0.9528192281723022,0.42945942282676697,0.7275193929672241,-0.5630370378494263,0.9970641732215881,0.515692949295044,0.7722609639167786,0.5166786313056946,0.9325375556945801,0.39390331506729126,0.8813243508338928,-0.29885101318359375,0.997832715511322,0.5098130106925964,0.7868057489395142,0.5597754120826721,0.8856834173202515,0.3830987215042114,0.8961220383644104,-0.27924543619155884,0.9667451977729797,0.5461459755897522,0.8219926953315735,0.45628318190574646,0.9472077488899231,0.4275224804878235,0.9344764947891235,-0.46779099106788635,0.995535671710968
11,0.5276733636856079,0.47301632165908813,-0.6551425457000732,0.9998961091041565,0.5270458459854126,0.4558449983596802,-0.6338874101638794,0.9997478127479553,0.5288301706314087,0.4549778699874878,-0.6340440511703491,0.9997002482414246,0.5306848883628845,0.45402953028678894,-0.6342311501502991,0.9996612071990967,0.5170506238937378,0.4568566679954529,-0.6666959524154663,0.9998879432678223,0.5112835168838501,0.4571148455142975,-0.6667623519897461,0.9999028444290161,0.505022406578064,0.45794641971588135,-0.6667277812957764,0.9999257922172546,0.520828127861023,0.45556795597076416,-0.4741498529911041,0.9994500279426575,0.484605610370636,0.4651394188404083,-0.6233879327774048,0.9998858571052551,0.527253270149231,0.48942792415618896,-0.5948718190193176,0.9997947216033936,0.5152455568313599,0.49067097902297974,-0.6377853155136108,0.9999328851699829,0.5197900533676147,0.5184739232063293,-0.31839749217033386,0.9990760087966919,0.4310322701931,0.5622096657752991,-0.5596393942832947,0.9997172355651855,0.5755757689476013,0.5969431400299072,-0.5074781179428101,0.7415590882301331,0.45916447043418884,0.6873118877410889,-0.7287023663520813,0.9776757955551147,0.5691519975662231,0.5457414984703064,-0.8474491834640503,0.6964567303657532,0.5176955461502075,0.5906498432159424,-0.9010404348373413,0.9765530824661255,0.5701703429222107,0.5275734663009644,-0.9097930192947388,0.6473764181137085,0.5420202016830444,0.575835645198822,-0.9721032381057739,0.9627125859260559,0.5626214742660522,0.5179173946380615,-0.8965781927108765,0.6308303475379944,0.5302901864051819,0.5477638840675354,-0.9509876370429993,0.9531120657920837,0.5584209561347961,0.5249237418174744,-0.8504980802536011,0.5982000231742859,0.5270149111747742,0.5537301301956177,-0.8962762951850891,0.8735499978065491,0.4518972933292389,0.648440420627594,0.09120526164770126,0.9996690154075623,0.39265137910842896,0.6625656485557556,-0.09090317785739899,0.9997378587722778,0.5203520655632019,0.6773297786712646,-0.04802780970931053,0.9492192268371582,0.4294580817222595,0.7302773594856262,-0.5514566898345947,0.9970762133598328,0.5098276138305664,0.7758366465568542,0.39773088693618774,0.9262306690216064,0.39410242438316345,0.8799298405647278,-0.2727503478527069,0.9979332089424133,0.5018085241317749,0.7899455428123474,0.4369819164276123,0.8750563263893127,0.38317400217056274,0.8942127227783203,-0.252849817276001,0.9676271677017212,0.5334421396255493,0.8310060501098633,0.33143848180770874,0.9433478713035583,0.4279056191444397,0.9342092871665955,-0.4493940472602844,0.9957531690597534
12,0.5281363725662231,0.4768390953540802,-0.6692195534706116,0.9999054670333862,0.5273083448410034,0.4598701596260071,-0.643441915512085,0.999771773815155,0.5292073488235474,0.45863109827041626,-0.6435854434967041,0.9997292160987854,0.5311657786369324,0.457205206155777,-0.6437857747077942,0.9996938705444336,0.5171946287155151,0.462056964635849,-0.6754406690597534,0.9998975396156311,0.5115240216255188,0.4628797471523285,-0.6755395531654358,0.999910831451416,0.5053471326828003,0.46418917179107666,-0.6755408048629761,0.9999309182167053,0.5225011110305786,0.45777618885040283,-0.47249430418014526,0.9995038509368896,0.4846359193325043,0.4713640809059143,-0.6197539567947388,0.9998946189880371,0.5284373760223389,0.4927283525466919,-0.6015212535858154,0.9998149871826172,0.5157331228256226,0.49493733048439026,-0.6434391736984253,0.9999390840530396,0.521828293800354,0.5231154561042786,-0.3126893937587738,0.9991642832756042,0.43170133233070374,0.5648581385612488,-0.5479854345321655,0.9997187852859497,0.5747602581977844,0.6082684993743896,-0.5143235921859741,0.7603201866149902,0.45780906081199646,0.6914078593254089,-0.7364689111709595,0.9754806756973267,0.571304202079773,0.5477723479270935,-0.8649576306343079,0.7133435010910034,0.5177857279777527,0.591998815536499,-0.9466863870620728,0.9754706025123596,0.5718741416931152,0.5256470441818237,-0.9283035397529602,0.6629033088684082,0.5422711968421936,0.5761801600456238,-1.0218329429626465,0.9607144594192505,0.5657870769500732,0.5160143375396729,-0.9140732884407043,0.6457858681678772,0.5303637981414795,0.5477834939956665,-0.9995571374893188,0.9503782987594604,0.5612845420837402,0.5238328576087952,-0.8680242300033569,0.6095748543739319,0.5303088426589966,0.555531919002533,-0.942963719367981,0.8656556010246277,0.45595407485961914,0.6531633734703064,0.09200509637594223,0.9996988773345947,0.39291104674339294,0.6662175059318542,-0.09169009327888489,0.999763011932373,0.5278849601745605,0.6729048490524292,-0.20014457404613495,0.9514859914779663,0.43134957551956177,0.7325142025947571,-0.5798836946487427,0.9971414804458618,0.5085513591766357,0.7885528802871704,0.19407543540000916,0.9275335669517517,0.3941264748573303,0.8791311979293823,-0.28369587659835815,0.9980428814888,0.4965561032295227,0.8051979541778564,0.22780632972717285,0.8797227144241333,0.3831702768802643,0.8933197259902954,-0.2609867453575134,0.9690741300582886,0.5364737510681152,0.8375718593597412,0.11053837835788727,0.9454506635665894,0.4274945855140686,0.9341669678688049,-0.4422210156917572,0.9960072040557861
13,0.5279847383499146,0.4805465340614319,-0.6685978174209595,0.9999138712882996,0.5271848440170288,0.46354907751083374,-0.6427522897720337,0.999793291091919,0.529171347618103,0.4623899757862091,-0.6428897976875305,0.9997552037239075,0.5310419201850891,0.4610932767391205,-0.6430867910385132,0.9997230768203735,0.5168636441230774,0.4659590721130371,-0.6745193600654602,0.9999061226844788,0.5110997557640076,0.4671114981174469,-0.6746288537979126,0.9999179840087891,0.5045608282089233,0.46876612305641174,-0.6746447086334229,0.9999354481697083,0.5229811072349548,0.46206629276275635,-0.47143855690956116,0.9995521306991577,0.4841648042201996,0.47606250643730164,-0.6109038591384888,0.9999024271965027,0.5287657976150513,0.49699079990386963,-0.6004952788352966,0.9998331069946289,0.5155516862869263,0.49966874718666077,-0.6427795886993408,0.9999445080757141,0.5231037735939026,0.5257279276847839,-0.3111227750778198,0.9992402791976929,0.4320911467075348,0.5689475536346436,-0.5420674085617065,0.9997148513793945,0.5664278864860535,0.6236650943756104,-0.5163220167160034,0.773399829864502,0.45798569917678833,0.6973493099212646,-0.7347732782363892,0.9732164740562439,0.5703813433647156,0.548565685749054,-0.858841598033905,0.7224411368370056,0.5180479884147644,0.5954574346542358,-0.9379655718803406,0.9744752645492554,0.572453498840332,0.5241243839263916,-0.9193602800369263,0.6705104112625122,0.5386541485786438,0.5696693658828735,-1.0102229118347168,0.95877605676651,0.5651286840438843,0.5155417323112488,-0.9024216532707214,0.6521600484848022,0.53033447265625,0.550681471824646,-0.9863890409469604,0.9477928876876831,0.5609826445579529,0.5255535244941711,-0.8604370355606079,0.612122654914856,0.5299632549285889,0.558260977268219,-0.9331974983215332,0.8589254021644592,0.45598769187927246,0.6567045450210571,0.09206731617450714,0.9997248649597168,0.3919706344604492,0.6693581342697144,-0.09175567328929901,0.9997855424880981,0.5313792824745178,0.6743972301483154,-0.20091502368450165,0.9532580971717834,0.4302174150943756,0.7315133810043335,-0.5772047638893127,0.9972217679023743,0.5058486461639404,0.7932676672935486,0.20184345543384552,0.9283933043479919,0.3940151333808899,0.8783878684043884,-0.2734343409538269,0.9981430768966675,0.4918045401573181,0.8096159100532532,0.23693902790546417,0.8831788301467896,0.3827374577522278,0.8925783038139343,-0.25942370295524597,0.9704701900482178,0.5380814671516418,0.8434603810310364,0.12926563620567322,0.9467636346817017,0.42684683203697205,0.9340903759002686,-0.41031956672668457,0.9962149262428284
14,0.5273743271827698,0.4843601882457733,-0.6562610864639282,0.9999209642410278,0.5265620946884155,0.46739569306373596,-0.6317800283432007,0.9998123049736023,0.5288543105125427,0.46662023663520813,-0.6319150328636169,0.999778151512146,0.5309630036354065,0.4657786190509796,-0.6321223974227905,0.9997490644454956,0.5155145525932312,0.4689813256263733,-0.659067690372467,0.9999129176139832,0.5097607374191284,0.46987006068229675,-0.6591736674308777,0.999923050403595,0.5031978487968445,0.4710068702697754,-0.6591806411743164,0.9999379515647888,0.5234746932983398,0.4674898087978363,-0.46176767349243164,0.999595046043396,0.48362889885902405,0.4785286486148834,-0.5851582288742065,0.9999063611030579,0.528584897518158,0.5015238523483276,-0.5885802507400513,0.999849259853363,0.5147261023521423,0.5036215782165527,-0.6247122287750244,0.9999488592147827,0.5231717824935913,0.5284605622291565,-0.30079445242881775,0.9993051886558533,0.4323679804801941,0.570605456829071,-0.5183864831924438,0.9996713995933533,0.5611032843589783,0.6325780153274536,-0.4950141906738281,0.7839426398277283,0.46270647644996643,0.7051538228988647,-0.7045183777809143,0.9681044220924377,0.5695439577102661,0.5586329102516174,-0.8304406404495239,0.7290085554122925,0.521392822265625,0.5947304964065552,-0.9018014073371887,0.9718747138977051,0.5721057653427124,0.5340354442596436,-0.8903278112411499,0.675837516784668,0.5434495210647583,0.5794795155525208,-0.9699867963790894,0.9546462297439575,0.5647927522659302,0.5263339877128601,-0.8742825388908386,0.6566842794418335,0.5306929349899292,0.5534657835960388,-0.9493885040283203,0.942825198173523,0.560624897480011,0.5356074571609497,-0.8323140144348145,0.613052487373352,0.5297827124595642,0.5611913204193115,-0.8994438052177429,0.8488776683807373,0.45592767000198364,0.658366322517395,0.09129598736763,0.9997462630271912,0.39182108640670776,0.6728197932243347,-0.090976282954216,0.9998046159744263,0.5397487878799438,0.6731170415878296,-0.22085413336753845,0.955643892288208,0.43088871240615845,0.7281229496002197,-0.5703096985816956,0.997290849685669,0.5032642483711243,0.794976532459259,0.15458019077777863,0.9299004077911377,0.39514151215553284,0.8771498799324036,-0.2634149491786957,0.9982072710990906,0.48742952942848206,0.8102483749389648,0.18774394690990448,0.8870365023612976,0.38418781757354736,0.8902286887168884,-0.2370462864637375,0.9716336727142334,0.5248978734016418,0.859909176826477,0.08286426961421967,0.948059618473053,0.4268505573272705,0.9339309334754944,-0.38190287351608276,0.9963411688804626
15,0.526085615158081,0.48410311341285706,-0.6601740121841431,0.9999284744262695,0.5256649255752563,0.4680041968822479,-0.6361814737319946,0.9998306035995483,0.5279774069786072,0.4671238958835602,-0.6363041400909424,0.9997998476028442,0.5301680564880371,0.46615445613861084,-0.6365020871162415,0.9997736215591431,0.5147761106491089,0.4698091745376587,-0.6612995266914368,0.9999209642410278,0.5091551542282104,0.4705629348754883,-0.6613916158676147,0.9999299645423889,0.5025227665901184,0.47139880061149597,-0.6613454818725586,0.999943196773529,0.5233272314071655,0.46833184361457825,-0.46748432517051697,0.9996349215507507,0.4828769564628601,0.47817304730415344,-0.5952586531639099,0.999914288520813,0.527989387512207,0.49979403614997864,-0.593342661857605,0.9998641610145569,0.5139657258987427,0.5014563202857971,-0.6256391406059265,0.9999536275863647,0.523034930229187,0.5313771963119507,-0.30783945322036743,0.9993686676025391,0.43272581696510315,0.571850597858429,-0.529810905456543,0.9996736645698547,0.5611647367477417,0.6313061118125916,-0.5138603448867798,0.7959429025650024,0.46262282133102417,0.7085312008857727,-0.708074688911438,0.963616132736206,0.5694498419761658,0.5559999942779541,-0.855197548866272,0.7361119985580444,0.521152913570404,0.5964889526367188,-0.9010792970657349,0.9683155417442322,0.5705885887145996,0.5326667428016663,-0.9162095785140991,0.6826642155647278,0.5355848073959351,0.5738807916641235,-0.9693781137466431,0.9501463770866394,0.5606428384780884,0.5256578922271729,-0.8971296548843384,0.6623337864875793,0.528971791267395,0.5579895377159119,-0.9490492939949036,0.9373626112937927,0.5577239990234375,0.5353072285652161,-0.8557578325271606,0.6155543327331543,0.5270988941192627,0.5652837753295898,-0.898101806640625,0.837959885597229,0.4554797112941742,0.6595198512077332,0.08998143672943115,0.9997679591178894,0.3919917047023773,0.6736983060836792,-0.08967024087905884,0.9998231530189514,0.5395551919937134,0.6752987504005432,-0.1864471286535263,0.9569665193557739,0.4296793043613434,0.7275083065032959,-0.5678761601448059,0.9974005222320557,0.503723680973053,0.7921199202537537,0.21543721854686737,0.9300076365470886,0.3951307237148285,0.8771426677703857,-0.26221638917922974,0.9983134269714355,0.4887904226779938,0.8081004619598389,0.25082921981811523,0.8883032202720642,0.38414183259010315,0.8904858827590942,-0.23679788410663605,0.9730682969093323,0.5305431485176086,0.8530323505401611,0.1476864069700241,0.9485719203948975,0.4268067479133606,0.9338754415512085,-0.39193421602249146,0.9965346455574036
16,0.5245882868766785,0.48294514417648315,-0.6327897310256958,0.9999351501464844,0.5241197347640991,0.46671342849731445,-0.6079972982406616,0.9998469352722168,0.526386022567749,0.4658525288105011,-0.6081228256225586,0.999819278717041,0.5285078287124634,0.4649142026901245,-0.6083093285560608,0.9997956156730652,0.5136367678642273,0.46828514337539673,-0.6345261335372925,0.9999279975891113,0.5076044797897339,0.46861886978149414,-0.6346204876899719,0.9999359846115112,0.5003807544708252,0.46926555037498474,-0.6346097588539124,0.999947726726532,0.5231233835220337,0.4683926999568939,-0.4451678395271301,0.9996707439422607,0.48071733117103577,0.4770382046699524,-0.5658459067344666,0.9999213218688965,0.5271018743515015,0.49840933084487915,-0.5685882568359375,0.9998775720596313,0.5132474303245544,0.5002982020378113,-0.6030714511871338,0.9999579191207886,0.5230021476745605,0.5312594175338745,-0.2946823537349701,0.9994273781776428,0.43260645866394043,0.5704967379570007,-0.5099596381187439,0.9996861219406128,0.5603011846542358,0.6337175369262695,-0.5024563074111938,0.8066226243972778,0.4611533582210541,0.7068390250205994,-0.6724141836166382,0.9630724191665649,0.5651509761810303,0.5586596131324768,-0.8409000635147095,0.7451480627059937,0.5210236310958862,0.5991579294204712,-0.8133689761161804,0.9680666327476501,0.5680266618728638,0.5379969477653503,-0.8993514180183411,0.6918434500694275,0.5377190113067627,0.5838779211044312,-0.8735130429267883,0.9494178891181946,0.5605790019035339,0.5290499925613403,-0.8784784078598022,0.6702048778533936,0.5290105938911438,0.5599642395973206,-0.8538575172424316,0.9364706873893738,0.557436466217041,0.5380674600601196,-0.8405812382698059,0.6211481690406799,0.527091383934021,0.56753009557724,-0.8085166215896606,0.8365643620491028,0.4530520439147949,0.6600654125213623,0.08659662306308746,0.9997875690460205,0.3914610743522644,0.6740127801895142,-0.08629820495843887,0.9998397827148438,0.5357094407081604,0.6813220977783203,-0.18981225788593292,0.9577284455299377,0.4291328489780426,0.7255870699882507,-0.5638104677200317,0.9974787831306458,0.5001176595687866,0.7908389568328857,0.20550136268138885,0.9299931526184082,0.3947148621082306,0.8770714402198792,-0.27535194158554077,0.9984046220779419,0.4860230088233948,0.8068231344223022,0.24049118161201477,0.888070821762085,0.38371413946151733,0.890625536441803,-0.25107094645500183,0.9743301868438721,0.5194846391677856,0.8520944714546204,0.14505702257156372,0.948721170425415,0.4264642596244812,0.9339258670806885,-0.3926837146282196,0.9967092871665955
17,0.5243760943412781,0.48058632016181946,-0.5585700273513794,0.9999410510063171,0.5238221883773804,0.4640856683254242,-0.5366543531417847,0.9998615384101868,0.5260465145111084,0.46322357654571533,-0.5368026494979858,0.9998366832733154,0.5281543135643005,0.46236929297447205,-0.5369828939437866,0.9998154044151306,0.5135453939437866,0.4652807414531708,-0.5638617277145386,0.9999341368675232,0.5075440406799316,0.46527713537216187,-0.5639427900314331,0.9999409914016724,0.5003673434257507,0.4655601382255554,-0.5639296174049377,0.9999514222145081,0.5230222344398499,0.46700724959373474,-0.3912924528121948,0.9997028708457947,0.48021215200424194,0.47363635897636414,-0.513469934463501,0.9999268054962158,0.5269902944564819,0.496683269739151,-0.5004374980926514,0.999889612197876,0.5132773518562317,0.49805888533592224,-0.5359852910041809,0.9999616742134094,0.5183642506599426,0.5273703336715698,-0.2606538236141205,0.9994820952415466,0.4327397346496582,0.5675570964813232,-0.464082807302475,0.9996957778930664,0.5475320816040039,0.6310577988624573,-0.4483785033226013,0.8142726421356201,0.460662841796875,0.7032207250595093,-0.6056411862373352,0.9624473452568054,0.5613850355148315,0.5612512230873108,-0.7683752775192261,0.7616738677024841,0.5208470225334167,0.5988184809684753,-0.7203789949417114,0.9679866433143616,0.5683085322380066,0.5423285365104675,-0.8216915130615234,0.7114387154579163,0.5389105677604675,0.5858798623085022,-0.7735263705253601,0.9491227269172668,0.5611942410469055,0.5337355136871338,-0.803806483745575,0.6902784109115601,0.530059278011322,0.5578564405441284,-0.7576763033866882,0.9361596703529358,0.5574185848236084,0.5416792631149292,-0.7683333158493042,0.6414973735809326,0.5275062322616577,0.5654126405715942,-0.7164086103439331,0.837962806224823,0.4494703412055969,0.6566182971000671,0.08237602561712265,0.9998045563697815,0.3901403844356537,0.6724081039428711,-0.08208625018596649,0.9998548626899719,0.5336624383926392,0.6841828227043152,-0.18270227313041687,0.956128716468811,0.4293062090873718,0.7188106775283813,-0.549394428730011,0.9975348114967346,0.5013724565505981,0.7905226945877075,0.21484096348285675,0.927734375,0.3946464955806732,0.8743689656257629,-0.2805340886116028,0.9984838366508484,0.4870632290840149,0.8042731881141663,0.2491864711046219,0.8846012949943542,0.3837030529975891,0.8884760141372681,-0.2572275996208191,0.9755335450172424,0.52435702085495,0.8449406027793884,0.1643812358379364,0.947303831577301,0.42644166946411133,0.9332606792449951,-0.39144521951675415,0.9968518614768982
18,0.5238016247749329,0.47616469860076904,-0.5920318961143494,0.9999464154243469,0.523300290107727,0.4597127139568329,-0.5686338543891907,0.9998747706413269,0.5256751775741577,0.4587525725364685,-0.5687879323959351,0.9998524188995361,0.5279286503791809,0.4577571153640747,-0.5689749121665955,0.9998332858085632,0.5123751163482666,0.46117639541625977,-0.5977945923805237,0.9999397993087769,0.5063036680221558,0.4612894058227539,-0.5978760123252869,0.9999456405639648,0.4994761049747467,0.4617058336734772,-0.5978632569313049,0.999954879283905,0.5229042768478394,0.46183422207832336,-0.4148353040218353,0.9997319579124451,0.4796830117702484,0.4698667824268341,-0.5459498763084412,0.999931812286377,0.5263381004333496,0.4920943081378937,-0.5308350324630737,0.9999004602432251,0.5131291151046753,0.49375736713409424,-0.5690962672233582,0.9999651312828064,0.5168973207473755,0.5241791009902954,-0.2744689881801605,0.9995312094688416,0.43341851234436035,0.5632818341255188,-0.4915732443332672,0.9997040033340454,0.543813943862915,0.6294912099838257,-0.4510270953178406,0.8189967274665833,0.4602068066596985,0.6988230347633362,-0.6480790376663208,0.9593695402145386,0.5603801012039185,0.5596492290496826,-0.7779852151870728,0.7708985209465027,0.5201138257980347,0.5965977311134338,-0.7941360473632812,0.9653016328811646,0.5663522481918335,0.5388228893280029,-0.8298080563545227,0.7234901785850525,0.5388931632041931,0.5838137865066528,-0.8560246229171753,0.9462826251983643,0.5610529184341431,0.5297549366950989,-0.8102130889892578,0.7020821571350098,0.530112087726593,0.5551278591156006,-0.8387705683708191,0.9325964450836182,0.5552869439125061,0.5373905301094055,-0.777349591255188,0.6518718600273132,0.5272521376609802,0.5628520250320435,-0.7908715605735779,0.8317123651504517,0.44715920090675354,0.6542060375213623,0.08326084911823273,0.9998208284378052,0.3871854841709137,0.6701239347457886,-0.08297733217477798,0.9998682737350464,0.5326508283615112,0.6816085577011108,-0.1961575448513031,0.9558512568473816,0.4302082657814026,0.708789587020874,-0.5580664873123169,0.997582197189331,0.5048685073852539,0.7907907962799072,0.16827620565891266,0.9275771975517273,0.3949616849422455,0.8720781803131104,-0.2925058603286743,0.998561441898346,0.4928465485572815,0.8114244341850281,0.20017798244953156,0.8847920298576355,0.38410723209381104,0.8873258829116821,-0.270076721906662,0.9765982031822205,0.5330544114112854,0.8447639346122742,0.1045294851064682,0.9476271271705627,0.4265706539154053,0.9303001761436462,-0.4147759974002838,0.9969960451126099
19,0.5227184891700745,0.4582931399345398,-0.6846305131912231,0.9999498724937439,0.5200656652450562,0.4421097934246063,-0.6609443426132202,0.9998844861984253,0.5223221182823181,0.44156572222709656,-0.6610808372497559,0.9998648762702942,0.5245460271835327,0.4410978853702545,-0.6612902283668518,0.9998477697372437,0.5100396871566772,0.44391733407974243,-0.6913194060325623,0.9999421238899231,0.504709780216217,0.4447290599346161,-0.6914219260215759,0.9999470114707947,0.4986552596092224,0.44584545493125916,-0.6914116144180298,0.9999545216560364,0.5179592370986938,0.4493154287338257,-0.4983031749725342,0.9997568130493164,0.47874218225479126,0.45837050676345825,-0.6343911290168762,0.9999293088912964,0.5249947309494019,0.4746626019477844,-0.6197879314422607,0.9999097585678101,0.5128587484359741,0.4761228859424591,-0.6595696806907654,0.9999666810035706,0.5184656381607056,0.5151652097702026,-0.3478005528450012,0.9995707273483276,0.4336863160133362,0.5557577013969421,-0.5608646869659424,0.999685525894165,0.5699552297592163,0.6100936532020569,-0.5413566827774048,0.8234193921089172,0.4603080749511719,0.6922293305397034,-0.7459020018577576,0.9534602761268616,0.5604871511459351,0.5590997934341431,-0.8635861277580261,0.7620511651039124,0.5160560011863708,0.5876914262771606,-0.9475558996200562,0.959364116191864,0.5621268153190613,0.5312016010284424,-0.9218080639839172,0.715930700302124,0.5357841849327087,0.577023446559906,-1.021553635597229,0.9407160878181458,0.5581110119819641,0.5267359614372253,-0.9106484651565552,0.693062424659729,0.5265803933143616,0.5450912714004517,-1.0033009052276611,0.9257849454879761,0.5527385473251343,0.535171389579773,-0.8664881587028503,0.6402137279510498,0.5262962579727173,0.5541747808456421,-0.9461278915405273,0.8184664249420166,0.45097747445106506,0.6356515288352966,0.08275432884693146,0.9998310208320618,0.38730114698410034,0.6564564108848572,-0.08245165646076202,0.9998778700828552,0.5316454768180847,0.6760755777359009,-0.22204312682151794,0.9563111066818237,0.4315625727176666,0.7215602993965149,-0.5414130091667175,0.9975709319114685,0.5066834688186646,0.7901633381843567,0.16097189486026764,0.9278375506401062,0.3949725925922394,0.8723426461219788,-0.2329195737838745,0.9985866546630859,0.4970454275608063,0.8130706548690796,0.19358739256858826,0.8821984529495239,0.38407987356185913,0.8870664834976196,-0.2078177034854889,0.9765223860740662,0.5338684916496277,0.8446071743965149,0.07725751399993896,0.947498619556427,0.4254532754421234,0.9304275512695312,-0.37333473563194275,0.9969890713691711
20,0.5194913148880005,0.4440736770629883,-0.6834123134613037,0.9999531507492065,0.5168222188949585,0.42816412448883057,-0.6594293713569641,0.9998935461044312,0.5188289284706116,0.42737463116645813,-0.6595930457115173,0.9998762011528015,0.5207995176315308,0.4266854524612427,-0.659797728061676,0.9998608827590942,0.5074523687362671,0.43043509125709534,-0.6905530691146851,0.999944806098938,0.5026921033859253,0.4316350817680359,-0.6906548142433167,0.9999487996101379,0.4974542260169983,0.433034211397171,-0.6906493306159973,0.9999549984931946,0.5130356550216675,0.43302860856056213,-0.49556058645248413,0.9997791647911072,0.4782014489173889,0.4417581260204315,-0.6350961327552795,0.999929666519165,0.5215052366256714,0.4601927101612091,-0.6179934144020081,0.9999181032180786,0.5103992223739624,0.46088331937789917,-0.6588171720504761,0.9999682903289795,0.5161134600639343,0.5028504729270935,-0.3452335596084595,0.9996092319488525,0.43256545066833496,0.5429351329803467,-0.5666898488998413,0.9996926784515381,0.5774945616722107,0.5899618268013,-0.5407043099403381,0.8292201161384583,0.46007388830184937,0.6742716431617737,-0.7470201253890991,0.9457025527954102,0.5584975481033325,0.5422570705413818,-0.8612570762634277,0.7537155151367188,0.5139778852462769,0.5780573487281799,-0.9332202076911926,0.9505096077919006,0.5563560724258423,0.5183841586112976,-0.9199663400650024,0.7069008946418762,0.5327452421188354,0.5619418621063232,-1.0070750713348389,0.9323076605796814,0.5515948534011841,0.5130296945571899,-0.9081045985221863,0.6821318864822388,0.5233148336410522,0.5313762426376343,-0.9897049069404602,0.9155237078666687,0.5488993525505066,0.5223419666290283,-0.8640950322151184,0.6269398331642151,0.5202707052230835,0.5408639907836914,-0.9319314956665039,0.8001126050949097,0.4476631283760071,0.626626193523407,0.08303509652614594,0.9998425245285034,0.3855932950973511,0.6465329527854919,-0.08274683356285095,0.9998887777328491,0.5218502879142761,0.6758482456207275,-0.11524150520563126,0.9521482586860657,0.4314851760864258,0.7265996336936951,-0.5179222822189331,0.9975879192352295,0.5139113068580627,0.7914008498191833,0.2788960933685303,0.9221669435501099,0.393776535987854,0.8725799918174744,-0.23035740852355957,0.9986453652381897,0.5022140741348267,0.8128781914710999,0.31205126643180847,0.872430682182312,0.3822612464427948,0.8871286511421204,-0.20795278251171112,0.9770669341087341,0.5429698824882507,0.8433427810668945,0.1975485384464264,0.9444586634635925,0.42491769790649414,0.9306057095527649,-0.3794431984424591,0.9971009492874146
21,0.5155888199806213,0.42981693148612976,-0.6887533068656921,0.9999555945396423,0.5133202075958252,0.41538605093955994,-0.6632875800132751,0.9999011158943176,0.5154991149902344,0.4147747755050659,-0.6634502410888672,0.9998855590820312,0.5175999999046326,0.4142744243144989,-0.6636570692062378,0.9998721480369568,0.5031353235244751,0.4178351163864136,-0.6942353844642639,0.9999467134475708,0.49792909622192383,0.4190957248210907,-0.694349467754364,0.99994957447052,0.4922720789909363,0.42045196890830994,-0.6943647861480713,0.9999551177024841,0.5113931894302368,0.4199618101119995,-0.49484387040138245,0.9997984170913696,0.4753316342830658,0.42695578932762146,-0.633068323135376,0.9999294281005859,0.5182414650917053,0.44636186957359314,-0.6218143701553345,0.999925434589386,0.5057640075683594,0.44567278027534485,-0.6622700691223145,0.9999695420265198,0.5150543451309204,0.489422470331192,-0.34159958362579346,0.9996366500854492,0.43254193663597107,0.5232865810394287,-0.5756362676620483,0.9996994733810425,0.574205219745636,0.5663514733314514,-0.5443512797355652,0.8289957046508789,0.4598604738712311,0.6496154069900513,-0.7585144639015198,0.946144700050354,0.5587273240089417,0.5162923336029053,-0.8618959188461304,0.7392300963401794,0.5141507983207703,0.5543708205223083,-0.9281728863716125,0.9503140449523926,0.5574163198471069,0.4952244162559509,-0.9198476076126099,0.6933013796806335,0.5332227349281311,0.5340167284011841,-0.9996122121810913,0.9320480823516846,0.5514079332351685,0.4883410632610321,-0.9070191383361816,0.6659975051879883,0.5238915681838989,0.5071537494659424,-0.9805941581726074,0.9149702787399292,0.5481598973274231,0.498477965593338,-0.86493319272995,0.6111111044883728,0.5204106569290161,0.5157802104949951,-0.9260362386703491,0.799534797668457,0.4466995298862457,0.6156522631645203,0.08761384338140488,0.9998513460159302,0.38343265652656555,0.6343039870262146,-0.08735518157482147,0.9998975396156311,0.5233898162841797,0.6723047494888306,-0.13702362775802612,0.9509328007698059,0.43141865730285645,0.7266884446144104,-0.5054070949554443,0.9976072311401367,0.5144511461257935,0.793781578540802,0.23096203804016113,0.9194393157958984,0.39376193284988403,0.873513400554657,-0.21972903609275818,0.9987009763717651,0.5028124451637268,0.8117535710334778,0.26137658953666687,0.8684252500534058,0.3810719847679138,0.8887248635292053,-0.19682253897190094,0.9777740240097046,0.5479481220245361,0.8420315980911255,0.1533721685409546,0.9429768323898315,0.42454609274864197,0.9306972622871399,-0.3610413670539856,0.9971981644630432
22,0.5150610208511353,0.41360294818878174,-0.6749128103256226,0.9999582171440125,0.512154221534729,0.3980380594730377,-0.6503110527992249,0.9999090433120728,0.5144747495651245,0.3975170850753784,-0.6504698991775513,0.9998949766159058,0.5167038440704346,0.39682483673095703,-0.6506677269935608,0.9998833537101746,0.5017814040184021,0.4007522165775299,-0.6833959221839905,0.9999498724937439,0.49630674719810486,0.40201371908187866,-0.6835100054740906,0.9999517798423767,0.49061059951782227,0.40324291586875916,-0.683532178401947,0.9999569654464722,0.510636568069458,0.4039269983768463,-0.48456820845603943,0.99981689453125,0.47486233711242676,0.4113357365131378,-0.6384214758872986,0.9999319911003113,0.518032431602478,0.4317358732223511,-0.6087701320648193,0.9999324083328247,0.5055098533630371,0.4304669499397278,-0.651746392250061,0.9999715685844421,0.5148354768753052,0.4741148352622986,-0.33555662631988525,0.9996653199195862,0.4314727783203125,0.5111510753631592,-0.5790436863899231,0.9997113943099976,0.5626614093780518,0.5485952496528625,-0.5172120332717896,0.8227110505104065,0.46028202772140503,0.6382434368133545,-0.7557984590530396,0.9466482996940613,0.558931827545166,0.5049242973327637,-0.8456047177314758,0.7316357493400574,0.5143083333969116,0.543233335018158,-0.926435649394989,0.9507659673690796,0.5576667785644531,0.4866069555282593,-0.9031563997268677,0.6912362575531006,0.5325647592544556,0.5248047709465027,-0.9989379644393921,0.9332377314567566,0.5537210702896118,0.4789101481437683,-0.8931659460067749,0.6635497808456421,0.5244618654251099,0.49790921807289124,-0.9829692840576172,0.9164530634880066,0.5494833588600159,0.4860755503177643,-0.8481886982917786,0.6080116033554077,0.5207715630531311,0.5048577785491943,-0.9251786470413208,0.8033683896064758,0.44709354639053345,0.6052079796791077,0.09459377825260162,0.9998613595962524,0.38331174850463867,0.6257598996162415,-0.09428766369819641,0.9999061226844788,0.5282719135284424,0.6623062491416931,-0.14461755752563477,0.9531956911087036,0.43184328079223633,0.726811945438385,-0.4980061948299408,0.9977314472198486,0.517262876033783,0.7933741211891174,0.21208515763282776,0.9227735996246338,0.39516037702560425,0.8743311166763306,-0.2282424420118332,0.9987902641296387,0.5035783052444458,0.8111923336982727,0.24174034595489502,0.8718345165252686,0.3818734288215637,0.889798104763031,-0.20665022730827332,0.979077160358429,0.5477713346481323,0.8413270115852356,0.12808145582675934,0.9453534483909607,0.42454832792282104,0.9311927556991577,-0.3732939064502716,0.9973692893981934
23,0.5150508880615234,0.3980059027671814,-0.6807704567909241,0.9999616742134094,0.5121607780456543,0.3791419267654419,-0.655524492263794,0.9999174475669861,0.5146586298942566,0.377832293510437,-0.6556770205497742,0.9999048113822937,0.5174692869186401,0.377188503742218,-0.6558644771575928,0.9998944401741028,0.5006221532821655,0.383704274892807,-0.69144606590271,0.999954104423523,0.49472731351852417,0.3847009241580963,-0.6915801763534546,0.9999556541442871,0.48864904046058655,0.38663116097450256,-0.6916229128837585,0.9999603033065796,0.5090411305427551,0.3821667730808258,-0.4846222400665283,0.9998346567153931,0.4729387164115906,0.3943328857421875,-0.6465814709663391,0.9999375343322754,0.5181729793548584,0.4177488088607788,-0.6123865842819214,0.9999390244483948,0.5047582387924194,0.4179321229457855,-0.659427285194397,0.9999740719795227,0.5149339437484741,0.4570806622505188,-0.32115045189857483,0.999694287776947,0.4307113587856293,0.4922192394733429,-0.5795167684555054,0.9997299313545227,0.563226580619812,0.5419414043426514,-0.4940759539604187,0.8267228603363037,0.45480698347091675,0.617935836315155,-0.740749716758728,0.9500282406806946,0.556857705116272,0.49009081721305847,-0.8393100500106812,0.7389332056045532,0.5061652064323425,0.5234822630882263,-0.876726508140564,0.953593373298645,0.556901216506958,0.47188663482666016,-0.8994317054748535,0.6987248659133911,0.521428644657135,0.5046854615211487,-0.9404958486557007,0.9368500709533691,0.5530683398246765,0.45630043745040894,-0.8910256624221802,0.6716365814208984,0.514938473701477,0.4794009327888489,-0.931073784828186,0.920979917049408,0.5477352142333984,0.46996158361434937,-0.8435734510421753,0.6160041689872742,0.5115212798118591,0.49182164669036865,-0.8760055303573608,0.8140169382095337,0.4471731185913086,0.5930888056755066,0.09943188726902008,0.9998722076416016,0.3838348388671875,0.6132336258888245,-0.09906302392482758,0.9999144077301025,0.533574640750885,0.6512073278427124,-0.16819709539413452,0.9564181566238403,0.43124279379844666,0.7249384522438049,-0.5092114210128784,0.9978908896446228,0.5164997577667236,0.7917696833610535,0.18431466817855835,0.9278463125228882,0.39523279666900635,0.8754688501358032,-0.23766538500785828,0.998880922794342,0.5033551454544067,0.8096725940704346,0.21365098655223846,0.8801841139793396,0.38180041313171387,0.8911147713661194,-0.2200208455324173,0.9805396199226379,0.5469618439674377,0.8414596915245056,0.09572067856788635,0.9489685297012329,0.42479100823402405,0.9311131834983826,-0.400654137134552,0.997553825378418
24,0.5139585733413696,0.3687686622142792,-0.6769208312034607,0.9999651312828064,0.5122713446617126,0.348633736371994,-0.6499171853065491,0.9999251961708069,0.5151387453079224,0.3476657569408417,-0.6500712633132935,0.99991375207901,0.5180422067642212,0.3468784987926483,-0.650253176689148,0.9999043941497803,0.49885430932044983,0.3522321879863739,-0.6837717294692993,0.9999582171440125,0.49245771765708923,0.3528856039047241,-0.6838952302932739,0.9999595284461975,0.48610466718673706,0.35450366139411926,-0.6839309334754944,0.9999637007713318,0.509231448173523,0.35500842332839966,-0.4683401584625244,0.9998505711555481,0.4703306257724762,0.36081162095069885,-0.623604953289032,0.9999430775642395,0.5169933438301086,0.3894347846508026,-0.6071354150772095,0.9999449849128723,0.5013729333877563,0.3882676064968109,-0.6516157984733582,0.9999764561653137,0.5151770710945129,0.4281575381755829,-0.29166311025619507,0.9997167587280273,0.43002477288246155,0.45452025532722473,-0.5621274709701538,0.9997501373291016,0.5631033182144165,0.5219248533248901,-0.4949023127555847,0.8308835029602051,0.44790878891944885,0.585576593875885,-0.7607161402702332,0.9533811807632446,0.5560867786407471,0.44969385862350464,-0.8552811741828918,0.7441663146018982,0.5030418634414673,0.4919710159301758,-0.9862506985664368,0.9573827385902405,0.5570465326309204,0.42787179350852966,-0.9189649820327759,0.7043306827545166,0.5160072445869446,0.4727518856525421,-1.062587022781372,0.9418329000473022,0.5524721145629883,0.4200059771537781,-0.9058505892753601,0.675827145576477,0.5135229229927063,0.44968825578689575,-1.0409646034240723,0.927108645439148,0.5480594038963318,0.42359650135040283,-0.8595431447029114,0.6181684136390686,0.5083971619606018,0.46004268527030945,-0.9832198023796082,0.8275582790374756,0.4474603533744812,0.5836756229400635,0.09832912683486938,0.9998789429664612,0.38393634557724,0.6033575534820557,-0.09799826890230179,0.9999207854270935,0.5403391718864441,0.6499048471450806,-0.208095982670784,0.9598519802093506,0.43041592836380005,0.7186247706413269,-0.5300781726837158,0.9980113506317139,0.5154280662536621,0.7920528054237366,0.1304878145456314,0.9327072501182556,0.3952177166938782,0.8754295110702515,-0.282410204410553,0.9989634156227112,0.5008310079574585,0.8101412057876587,0.15741091966629028,0.8884585499763489,0.38177281618118286,0.8910658359527588,-0.2649242877960205,0.9817855954170227,0.5464495420455933,0.8416020274162292,0.028666993603110313,0.9522443413734436,0.4228488802909851,0.9308022856712341,-0.4562722146511078,0.9977177977561951
25,0.5124388933181763,0.3497149646282196,-0.7266382575035095,0.9999673366546631,0.5100586414337158,0.3295467495918274,-0.7007238268852234,0.9999303817749023,0.5129044055938721,0.32883259654045105,-0.7008912563323975,0.9999202489852905,0.5163406729698181,0.3291335105895996,-0.7010836601257324,0.9999116063117981,0.49687328934669495,0.3336496353149414,-0.7312669157981873,0.9999602437019348,0.4908323884010315,0.3353271782398224,-0.7313987612724304,0.9999610781669617,0.48429185152053833,0.33700621128082275,-0.7314764857292175,0.9999642968177795,0.5091596245765686,0.33791616559028625,-0.5176171064376831,0.99986332654953,0.4675446152687073,0.34540829062461853,-0.6549816727638245,0.9999451041221619,0.5149911642074585,0.370948851108551,-0.6535822153091431,0.9999499917030334,0.49934205412864685,0.37186506390571594,-0.6937445402145386,0.9999781250953674,0.5155848264694214,0.4092692732810974,-0.3452775776386261,0.9997351765632629,0.42725199460983276,0.4396149814128876,-0.5878127217292786,0.9997654557228088,0.5626055002212524,0.5206655263900757,-0.5808160901069641,0.8358132243156433,0.44344601035118103,0.5770988464355469,-0.8224338293075562,0.9555035829544067,0.5515804290771484,0.4398415684700012,-0.9399908185005188,0.7527936100959778,0.502842128276825,0.4658978283405304,-1.0731689929962158,0.9603232741355896,0.5557138323783875,0.4113687574863434,-1.0041148662567139,0.7149157524108887,0.5161717534065247,0.45016688108444214,-1.1550519466400146,0.9456174373626709,0.5520889759063721,0.4054855704307556,-0.9892799258232117,0.685086190700531,0.513587474822998,0.4256867468357086,-1.1255465745925903,0.9315968155860901,0.5467581748962402,0.4123520851135254,-0.942635715007782,0.6241952180862427,0.5083401203155518,0.4360247552394867,-1.0682756900787354,0.8369142413139343,0.4488392472267151,0.5769131779670715,0.10003696382045746,0.9998830556869507,0.3838488757610321,0.5970795750617981,-0.09976493567228317,0.9999263882637024,0.5436162352561951,0.6525698900222778,-0.20218110084533691,0.962107241153717,0.4296044409275055,0.7193403840065002,-0.5397358536720276,0.9981130361557007,0.5138410925865173,0.7914077043533325,0.24246256053447723,0.9357475638389587,0.3950832486152649,0.8760818839073181,-0.2373967170715332,0.9990419149398804,0.49780750274658203,0.8100486993789673,0.27818745374679565,0.8936322331428528,0.3810642957687378,0.8922496438026428,-0.21287378668785095,0.9830183386802673,0.546260416507721,0.8412610292434692,0.15475746989250183,0.9536778330802917,0.4229622781276703,0.9311121702194214,-0.40343064069747925,0.9978629946708679
26,0.5131333470344543,0.31755775213241577,-0.7347277998924255,0.9999690651893616,0.5104854106903076,0.2998376488685608,-0.708823561668396,0.9999348521232605,0.5130660533905029,0.29870110750198364,-0.7090122699737549,0.9999256730079651,0.516840934753418,0.29784244298934937,-0.7092100977897644,0.9999175071716309,0.498218297958374,0.30478909611701965,-0.7417007088661194,0.9999619722366333,0.4920523762702942,0.3078337013721466,-0.7418416142463684,0.999962329864502,0.48521193861961365,0.3105603754520416,-0.7419130802154541,0.9999648332595825,0.5092291235923767,0.3059127628803253,-0.5203460454940796,0.9998741745948792,0.4663364291191101,0.3195180892944336,-0.665876030921936,0.9999476075172424,0.5150724649429321,0.3397029936313629,-0.6583079099655151,0.999954342842102,0.5005359649658203,0.34302234649658203,-0.7009438276290894,0.999979555606842,0.5224686861038208,0.38521888852119446,-0.33363813161849976,0.9997546672821045,0.4262956976890564,0.420368492603302,-0.6005958914756775,0.9997797608375549,0.556879997253418,0.4886394143104553,-0.5488294363021851,0.8293776512145996,0.44182220101356506,0.5595059990882874,-0.8195168375968933,0.9584299921989441,0.5509160161018372,0.4345139265060425,-0.9305506944656372,0.7569572925567627,0.5025417804718018,0.44114476442337036,-1.0454134941101074,0.9634070992469788,0.5544283390045166,0.41633856296539307,-0.99714195728302,0.7236807942390442,0.5137306451797485,0.4250461757183075,-1.1228610277175903,0.9496864676475525,0.5515402555465698,0.389984130859375,-0.9851163625717163,0.6930321455001831,0.5129135847091675,0.4006439745426178,-1.0992546081542969,0.9365837574005127,0.5456782579421997,0.40921923518180847,-0.9353410601615906,0.6298986077308655,0.5085012912750244,0.40961235761642456,-1.0411851406097412,0.8482717871665955,0.44887417554855347,0.5666068196296692,0.10428042709827423,0.9998875260353088,0.3834248185157776,0.5886927843093872,-0.10401691496372223,0.9999297857284546,0.545052170753479,0.6544748544692993,-0.14597061276435852,0.9646293520927429,0.4279014468193054,0.7205787301063538,-0.5040168762207031,0.9982011914253235,0.5116552114486694,0.7913116812705994,0.28646063804626465,0.9396209120750427,0.39508768916130066,0.8760936856269836,-0.17875298857688904,0.9991046786308289,0.49355727434158325,0.8099411725997925,0.3226279616355896,0.899547278881073,0.38108572363853455,0.8922450542449951,-0.1520683467388153,0.9839522838592529,0.5497833490371704,0.842665433883667,0.20706184208393097,0.9557294249534607,0.42301255464553833,0.9316036105155945,-0.3323782682418823,0.9979786276817322
27,0.512545645236969,0.2983035743236542,-0.7129002809524536,0.9999698400497437,0.5091982483863831,0.27870142459869385,-0.6763889789581299,0.999937891960144,0.5123271346092224,0.2781252861022949,-0.6766332387924194,0.9999293684959412,0.5158480405807495,0.2772943377494812,-0.6768373847007751,0.9999220967292786,0.49568238854408264,0.2821985185146332,-0.7071056365966797,0.9999620318412781,0.48888760805130005,0.28436279296875,-0.707274317741394,0.9999617338180542,0.4813261926174164,0.28673189878463745,-0.7073973417282104,0.9999638199806213,0.5074732303619385,0.2835317552089691,-0.46463924646377563,0.999882161617279,0.4610633850097656,0.2961624264717102,-0.6020482182502747,0.9999465346336365,0.5155772566795349,0.3180464506149292,-0.6188980340957642,0.9999569058418274,0.49888068437576294,0.32119452953338623,-0.6584300994873047,0.9999793171882629,0.5218507051467896,0.3592035174369812,-0.2623440623283386,0.9997659921646118,0.4217817783355713,0.4038892686367035,-0.5413798689842224,0.9997755289077759,0.543289065361023,0.4828566908836365,-0.4357030391693115,0.8205985426902771,0.43985715508461,0.5437548756599426,-0.7470434904098511,0.9609494209289551,0.5517118573188782,0.4233000874519348,-0.7934876680374146,0.7600134611129761,0.5032492876052856,0.4210044741630554,-0.965827465057373,0.9662936329841614,0.5554283857345581,0.4081480801105499,-0.8540393114089966,0.728309690952301,0.5165433883666992,0.39465051889419556,-1.0298495292663574,0.9533647894859314,0.5539723634719849,0.39494267106056213,-0.8469333648681641,0.6975112557411194,0.5137298107147217,0.37639790773391724,-1.010986089706421,0.9411730766296387,0.5461543798446655,0.4014940857887268,-0.8002508282661438,0.6347751617431641,0.5090104937553406,0.38717639446258545,-0.9611557722091675,0.8588618636131287,0.44883590936660767,0.5544225573539734,0.10245950520038605,0.9998831152915955,0.38293132185935974,0.5766586065292358,-0.10222019255161285,0.9999239444732666,0.5456151962280273,0.6556727290153503,-0.15033967792987823,0.9669428467750549,0.4277981221675873,0.7208807468414307,-0.4465707838535309,0.9982072114944458,0.5117875337600708,0.7915998697280884,0.25674599409103394,0.9429858922958374,0.39456814527511597,0.8758914470672607,-0.15681317448616028,0.9991176128387451,0.4939553141593933,0.8106626272201538,0.29125121235847473,0.9039661884307861,0.3802913725376129,0.8922423720359802,-0.13312217593193054,0.9838277101516724,0.5518167614936829,0.8438241481781006,0.18312719464302063,0.9575496912002563,0.42284831404685974,0.9316539168357849,-0.30494722723960876,0.9979841113090515
28,0.5095038414001465,0.2787627577781677,-0.7049821615219116,0.9999706745147705,0.5054649114608765,0.25995582342147827,-0.6740939021110535,0.9999406933784485,0.5081812143325806,0.2591497302055359,-0.6742758750915527,0.9999331831932068,0.5110155344009399,0.25845929980278015,-0.6744732856750488,0.9999266266822815,0.4930347502231598,0.26309117674827576,-0.7062833309173584,0.9999623894691467,0.48678073287010193,0.26472827792167664,-0.7064391374588013,0.9999620318412781,0.4801453649997711,0.2668458819389343,-0.7065218091011047,0.9999638795852661,0.5038005113601685,0.2639079988002777,-0.46743878722190857,0.9998905062675476,0.4601753354072571,0.2764745354652405,-0.6047131419181824,0.9999471306800842,0.513277530670166,0.29626619815826416,-0.6220702528953552,0.9999586939811707,0.49697956442832947,0.30005374550819397,-0.6634417772293091,0.9999790191650391,0.5215504169464111,0.33527496457099915,-0.2826971411705017,0.9997628331184387,0.41899847984313965,0.38428422808647156,-0.5540383458137512,0.9997719526290894,0.5447483062744141,0.44465553760528564,-0.47040557861328125,0.8109042644500732,0.43400606513023376,0.5203884243965149,-0.7934623956680298,0.9635312557220459,0.5554453730583191,0.37164926528930664,-0.8196754455566406,0.7529137134552002,0.5013180375099182,0.39401987195014954,-1.0262176990509033,0.9685197472572327,0.5638967156410217,0.35390135645866394,-0.8805044293403625,0.7221801280975342,0.5158088207244873,0.3664967715740204,-1.10286283493042,0.9560040831565857,0.5620273351669312,0.3440801203250885,-0.8674101829528809,0.6903752088546753,0.5126581788063049,0.34889236092567444,-1.0772182941436768,0.9444425702095032,0.553683876991272,0.3495738208293915,-0.8235719799995422,0.628940224647522,0.5080662965774536,0.35603898763656616,-1.0217901468276978,0.8662477135658264,0.44938501715660095,0.5423814058303833,0.1013718694448471,0.9998747706413269,0.38227981328964233,0.5626037120819092,-0.10109861940145493,0.9999160170555115,0.544577956199646,0.6563795208930969,-0.15254196524620056,0.9693120718002319,0.42737969756126404,0.7173101305961609,-0.4308074414730072,0.9982483983039856,0.512741208076477,0.789932370185852,0.2985125184059143,0.9463109970092773,0.3945448100566864,0.8755690455436707,-0.12539730966091156,0.9991313815116882,0.4952460825443268,0.8087655305862427,0.33829373121261597,0.9073959589004517,0.3803863823413849,0.8936012983322144,-0.10155908018350601,0.9835328459739685,0.5516173839569092,0.8434749245643616,0.22163328528404236,0.9595818519592285,0.42233866453170776,0.931659996509552,-0.29684168100357056,0.9979999661445618
29,0.5018577575683594,0.24494384229183197,-0.7719271183013916,0.9999706745147705,0.49678659439086914,0.22470608353614807,-0.7412729859352112,0.9999415874481201,0.49920687079429626,0.2250083088874817,-0.74144047498703,0.9999344944953918,0.501700222492218,0.22522500157356262,-0.7416325211524963,0.9999277591705322,0.4852800965309143,0.2259373813867569,-0.769397497177124,0.9999622702598572,0.4800860285758972,0.22728584706783295,-0.7695610523223877,0.9999622106552124,0.4737972319126129,0.2279655784368515,-0.7696530818939209,0.9999639391899109,0.49523526430130005,0.2299993485212326,-0.5299904942512512,0.9998947978019714,0.45577555894851685,0.23715956509113312,-0.6501463055610657,0.9999492764472961,0.5068371295928955,0.2656382620334625,-0.6878668665885925,0.9999584555625916,0.4903634190559387,0.26586446166038513,-0.7236298322677612,0.99997878074646,0.520469605922699,0.2974177896976471,-0.34177616238594055,0.999746561050415,0.41601473093032837,0.34058287739753723,-0.6068354845046997,0.9997814893722534,0.5591979622840881,0.35663387179374695,-0.592436671257019,0.8068220019340515,0.42471304535865784,0.4861487150192261,-0.901276707649231,0.9665769338607788,0.5649391412734985,0.29375869035720825,-0.972989559173584,0.740570068359375,0.4974629282951355,0.36313432455062866,-1.1975888013839722,0.9710094332695007,0.5738911628723145,0.2801307439804077,-1.0493416786193848,0.7121888399124146,0.5131012201309204,0.3344855308532715,-1.2895269393920898,0.959252655506134,0.56661057472229,0.2728882431983948,-1.0432206392288208,0.6787112355232239,0.5110005736351013,0.3184981942176819,-1.2613799571990967,0.948545515537262,0.5589838624000549,0.2777419984340668,-0.9834588170051575,0.6197726130485535,0.5060378313064575,0.32633817195892334,-1.1939516067504883,0.8758479952812195,0.4504150450229645,0.5239596366882324,0.10117093473672867,0.9998680353164673,0.3824571967124939,0.5382717251777649,-0.10102244466543198,0.9999114871025085,0.5440155267715454,0.6553300023078918,-0.10670290142297745,0.9703294038772583,0.4230678081512451,0.7118275165557861,-0.40024533867836,0.9981486797332764,0.5127314329147339,0.789993405342102,0.3807050883769989,0.9463086724281311,0.3943954110145569,0.87550288438797,-0.0942169576883316,0.9990479946136475,0.4943448007106781,0.8089713454246521,0.42180103063583374,0.9067462086677551,0.38076457381248474,0.8945704698562622,-0.07191549986600876,0.982013463973999,0.552581250667572,0.8449742794036865,0.2952413856983185,0.9589629173278809,0.4199007451534271,0.931721031665802,-0.2855137586593628,0.9978336095809937
30,0.4999551773071289,0.2207590490579605,-0.7411661148071289,0.9999693036079407,0.4957582354545593,0.20201656222343445,-0.7090598344802856,0.9999393224716187,0.4973614811897278,0.1991025060415268,-0.7092349529266357,0.9999334812164307,0.49981626868247986,0.2001343071460724,-0.7094197273254395,0.9999253153800964,0.4850149154663086,0.19834963977336884,-0.7395864725112915,0.9999595880508423,0.47938814759254456,0.1975969523191452,-0.7397397756576538,0.9999606013298035,0.4740275740623474,0.19774124026298523,-0.7398394346237183,0.9999615550041199,0.4944348931312561,0.21052612364292145,-0.5173773765563965,0.9998929500579834,0.45627427101135254,0.20976072549819946,-0.6456125378608704,0.9999494552612305,0.5043134093284607,0.24629803001880646,-0.6593408584594727,0.9999562501907349,0.48769277334213257,0.24176795780658722,-0.6984489560127258,0.9999780058860779,0.5203657746315002,0.27468565106391907,-0.3226315379142761,0.999740481376648,0.41323527693748474,0.3181053400039673,-0.5899327397346497,0.9997944235801697,0.5591657757759094,0.37020787596702576,-0.5504773855209351,0.8042863607406616,0.4222241938114166,0.4688262641429901,-0.8570917844772339,0.969399631023407,0.569403350353241,0.3167601525783539,-0.9300113916397095,0.7419194579124451,0.4941505491733551,0.3452925980091095,-1.1430237293243408,0.9735620617866516,0.582330048084259,0.3099654018878937,-1.0030927658081055,0.7155786752700806,0.5084032416343689,0.31770414113998413,-1.233039140701294,0.9627172946929932,0.5758920311927795,0.29967445135116577,-1.0036042928695679,0.6823506951332092,0.5069233179092407,0.3015235662460327,-1.2062084674835205,0.9529192447662354,0.5668758749961853,0.30358725786209106,-0.9422646760940552,0.6257597804069519,0.5025838017463684,0.3085598647594452,-1.138953447341919,0.8859937787055969,0.4526464343070984,0.5133937001228333,0.10077148675918579,0.9998608231544495,0.3825955390930176,0.5316399335861206,-0.10066741704940796,0.9999116063117981,0.5432261228561401,0.6517752408981323,-0.022978559136390686,0.9706533551216125,0.4208301901817322,0.7062329053878784,-0.42424851655960083,0.998125433921814,0.5122096538543701,0.7905093431472778,0.4694180488586426,0.9474297165870667,0.3943021893501282,0.875548779964447,-0.13451525568962097,0.9989768266677856,0.4924014210700989,0.8107831478118896,0.5105694532394409,0.9079672694206238,0.3812921643257141,0.8961663842201233,-0.11435409635305405,0.980311393737793,0.5563253164291382,0.8449702858924866,0.38941627740859985,0.9590739011764526,0.41971439123153687,0.9319325089454651,-0.3218356966972351,0.9977126717567444
31,0.49578166007995605,0.1954694539308548,-0.6312243938446045,0.9999614357948303,0.49343428015708923,0.1719740778207779,-0.600678563117981,0.9999284744262695,0.49656906723976135,0.17267431318759918,-0.6008488535881042,0.9999232292175293,0.4998856484889984,0.17332085967063904,-0.6009955406188965,0.9999151229858398,0.4808323383331299,0.17096306383609772,-0.6211726665496826,0.9999489784240723,0.47483721375465393,0.17140544950962067,-0.6213074922561646,0.9999505877494812,0.4684334695339203,0.17184826731681824,-0.6214362382888794,0.9999526143074036,0.4950416088104248,0.1813315749168396,-0.4091367721557617,0.9998773336410522,0.4519692361354828,0.1870836466550827,-0.49419528245925903,0.9999399185180664,0.49945369362831116,0.21766813099384308,-0.5556519031524658,0.9999481439590454,0.4816977381706238,0.21731139719486237,-0.5805594325065613,0.999972939491272,0.5204071998596191,0.2620484232902527,-0.25292590260505676,0.999720573425293,0.4096857011318207,0.2915043532848358,-0.4679683744907379,0.9998083114624023,0.5589474439620972,0.3592017889022827,-0.4816291928291321,0.80394446849823,0.42046961188316345,0.44357138872146606,-0.7037309408187866,0.972051203250885,0.5679434537887573,0.3106103837490082,-0.8464334607124329,0.7426509261131287,0.49038225412368774,0.32853707671165466,-0.9453397989273071,0.9759822487831116,0.5782719254493713,0.30051764845848083,-0.9206787943840027,0.7140318155288696,0.5068592429161072,0.29847967624664307,-1.0219123363494873,0.965968906879425,0.5730222463607788,0.28855353593826294,-0.9209157824516296,0.6812376976013184,0.5057204365730286,0.2831677496433258,-1.0066602230072021,0.9570664167404175,0.5656357407569885,0.29334068298339844,-0.8587358593940735,0.6291438341140747,0.5011240243911743,0.2901555299758911,-0.9450020790100098,0.8960628509521484,0.4560490548610687,0.5030126571655273,0.0863436758518219,0.9998003244400024,0.38429883122444153,0.5197563767433167,-0.08627340942621231,0.9999040365219116,0.5363723635673523,0.6497198939323425,0.05066375806927681,0.9702693223953247,0.4193704128265381,0.7043694257736206,-0.34757480025291443,0.9980493783950806,0.5105727910995483,0.7899977564811707,0.4732644557952881,0.9478840827941895,0.3943696618080139,0.8754363656044006,-0.14352074265480042,0.9986818432807922,0.49197760224342346,0.8110782504081726,0.5074663758277893,0.906902015209198,0.38316529989242554,0.896356999874115,-0.1303427368402481,0.9756420850753784,0.5563428401947021,0.84185391664505,0.39899495244026184,0.9585486650466919,0.41998523473739624,0.9303801655769348,-0.3314431309700012,0.9972831010818481
32,0.48885592818260193,0.17036652565002441,-0.5355287790298462,0.9999332427978516,0.48821672797203064,0.1510356217622757,-0.5031026005744934,0.9998800158500671,0.4918774962425232,0.15186937153339386,-0.5032557845115662,0.9998707175254822,0.4960215091705322,0.15244434773921967,-0.5033820867538452,0.9998632669448853,0.47343653440475464,0.15013238787651062,-0.5228992700576782,0.9999122023582458,0.46696311235427856,0.15059161186218262,-0.5230172872543335,0.9999162554740906,0.46043261885643005,0.15117573738098145,-0.5231240391731262,0.9999239444732666,0.4921357035636902,0.16200284659862518,-0.3216252326965332,0.9997748732566833,0.4453272819519043,0.16539734601974487,-0.4029064178466797,0.9999048709869385,0.49296537041664124,0.19448347389698029,-0.46630859375,0.9999079704284668,0.47290951013565063,0.1938968002796173,-0.49013447761535645,0.9999508261680603,0.5149022340774536,0.24638982117176056,-0.1854240447282791,0.999515175819397,0.40565672516822815,0.27733859419822693,-0.4032580256462097,0.9997947216033936,0.5708795785903931,0.3009493052959442,-0.3965030312538147,0.8040078282356262,0.42055124044418335,0.42553243041038513,-0.594626784324646,0.9744157791137695,0.5679008960723877,0.2529706656932831,-0.7041823267936707,0.7344485521316528,0.49152469635009766,0.30646103620529175,-0.7610777616500854,0.9780346155166626,0.5762583017349243,0.2428121268749237,-0.7687408328056335,0.6990260481834412,0.507710337638855,0.27959755063056946,-0.8271597027778625,0.9685369729995728,0.5694690346717834,0.23362845182418823,-0.7572873830795288,0.6660819053649902,0.5067756175994873,0.2655809223651886,-0.8123405575752258,0.96042799949646,0.5631812214851379,0.23892374336719513,-0.7109368443489075,0.6195006370544434,0.5020835399627686,0.27445825934410095,-0.7590095400810242,0.9045442342758179,0.4577474594116211,0.49094194173812866,0.07579896599054337,0.9996328949928284,0.38699930906295776,0.5083760023117065,-0.07575315237045288,0.9998636841773987,0.5319287776947021,0.644354522228241,0.03293218836188316,0.9704727530479431,0.41761747002601624,0.6952917575836182,-0.3260207176208496,0.9978698492050171,0.5102566480636597,0.7898887991905212,0.419281542301178,0.9487144351005554,0.3951091170310974,0.8744224309921265,-0.14425472915172577,0.9982874989509583,0.49216780066490173,0.8123583197593689,0.4503909945487976,0.9049755930900574,0.3871071934700012,0.8960812091827393,-0.13391713798046112,0.9701578617095947,0.5577989816665649,0.8403915762901306,0.3452020585536957,0.9577490091323853,0.42013922333717346,0.928611695766449,-0.3301441967487335,0.9965465664863586
33,0.4853997826576233,0.1549345999956131,-0.4688946306705475,0.9999227523803711,0.48465603590011597,0.13448140025138855,-0.4356624186038971,0.9998643398284912,0.4880942702293396,0.13440538942813873,-0.43581289052963257,0.9998547434806824,0.4920181334018707,0.1344257891178131,-0.4359216094017029,0.9998465180397034,0.4705788493156433,0.13538230955600739,-0.4542275369167328,0.9998976588249207,0.46455103158950806,0.13614292442798615,-0.45429903268814087,0.9999023079872131,0.4584081172943115,0.13710059225559235,-0.45436447858810425,0.999911367893219,0.48672136664390564,0.14405664801597595,-0.25531554222106934,0.9997448325157166,0.4434199333190918,0.15076734125614166,-0.3297043740749359,0.9998931884765625,0.4890022873878479,0.1762027144432068,-0.400811105966568,0.9998979568481445,0.4702834486961365,0.1756320744752884,-0.42271628975868225,0.9999445676803589,0.5107753276824951,0.23657597601413727,-0.12719693779945374,0.9994465112686157,0.4018399715423584,0.26266929507255554,-0.34056419134140015,0.999798595905304,0.5698049068450928,0.2962898015975952,-0.3513488173484802,0.8041950464248657,0.4158704876899719,0.4070800840854645,-0.51053786277771,0.9765999913215637,0.5673007965087891,0.2483091950416565,-0.6916840672492981,0.7297247052192688,0.488140344619751,0.300791472196579,-0.6518106460571289,0.9798023700714111,0.5750911831855774,0.23663218319416046,-0.7613860964775085,0.6892282962799072,0.5045455694198608,0.27464741468429565,-0.7145336866378784,0.9706400036811829,0.5669960975646973,0.2275857776403427,-0.7512699365615845,0.6564772129058838,0.5026459693908691,0.2567819058895111,-0.7025986313819885,0.963227391242981,0.5606815218925476,0.2338118702173233,-0.7001674175262451,0.614989697933197,0.4976341724395752,0.26647767424583435,-0.6504111289978027,0.9118572473526001,0.4583165645599365,0.48655226826667786,0.072992242872715,0.9995543956756592,0.3879118859767914,0.5012395977973938,-0.07291345298290253,0.999848484992981,0.5266045331954956,0.643468976020813,0.07819138467311859,0.9713495969772339,0.41538205742836,0.6919918656349182,-0.2692912220954895,0.9979122877120972,0.5100473761558533,0.7887435555458069,0.4820772111415863,0.950503945350647,0.3954044282436371,0.874494731426239,-0.11650718748569489,0.9981551766395569,0.4922231137752533,0.812515377998352,0.5145036578178406,0.904000997543335,0.3876483142375946,0.8960504531860352,-0.1102168932557106,0.9672660231590271,0.5552669763565063,0.8410059809684753,0.41002601385116577,0.9582609534263611,0.420245498418808,0.9289733171463013,-0.30941706895828247,0.9962936639785767
34,0.4836850166320801,0.14118656516075134,-0.3898557722568512,0.999896228313446,0.4832506775856018,0.1166335791349411,-0.3626691699028015,0.9998196959495544,0.4864557683467865,0.1172177717089653,-0.36278101801872253,0.9998135566711426,0.48982948064804077,0.1180206835269928,-0.36285674571990967,0.9997946619987488,0.4692520499229431,0.11553985625505447,-0.3850761651992798,0.9998587369918823,0.4629634916782379,0.11561961472034454,-0.3851199448108673,0.9998645186424255,0.45700716972351074,0.11616873741149902,-0.38517552614212036,0.9998713135719299,0.48179492354393005,0.1263725310564041,-0.20117023587226868,0.9996767640113831,0.4416821002960205,0.1277913898229599,-0.29584962129592896,0.9998554587364197,0.48526105284690857,0.1641545444726944,-0.32696571946144104,0.999868631362915,0.4681149423122406,0.16040658950805664,-0.35479387640953064,0.9999295473098755,0.5067075490951538,0.23167096078395844,-0.0843236893415451,0.999392569065094,0.39591744542121887,0.2374376654624939,-0.29764124751091003,0.9998064637184143,0.5446597933769226,0.32081183791160583,-0.28963416814804077,0.7981611490249634,0.4051055908203125,0.3843226432800293,-0.47566717863082886,0.9780755043029785,0.5423048734664917,0.24691881239414215,-0.632269561290741,0.7327316999435425,0.4757496416568756,0.2883393466472626,-0.6369260549545288,0.9808219075202942,0.5475476980209351,0.22746345400810242,-0.6977390050888062,0.6896161437034607,0.49525362253189087,0.26098737120628357,-0.6971385478973389,0.971538245677948,0.5350049138069153,0.21260924637317657,-0.6865611672401428,0.657136082649231,0.49551501870155334,0.2397051900625229,-0.6843659281730652,0.9645809531211853,0.5338385105133057,0.22333098948001862,-0.6390454769134521,0.6175108551979065,0.48893314599990845,0.2499484121799469,-0.6348171234130859,0.9163384437561035,0.46299347281455994,0.4854401648044586,0.07444848120212555,0.9994319081306458,0.39004188776016235,0.4956483840942383,-0.07435957342386246,0.9998366832733154,0.520169198513031,0.638583242893219,0.186504065990448,0.9722098708152771,0.4135681986808777,0.692070722579956,-0.21771761775016785,0.9979719519615173,0.5099874138832092,0.7845390439033508,0.5760635137557983,0.952006995677948,0.39553171396255493,0.8760602474212646,-0.10093243420124054,0.9980148077011108,0.49257826805114746,0.8121001720428467,0.6070080399513245,0.9009923338890076,0.3882463574409485,0.8979818820953369,-0.09854789078235626,0.9646351337432861,0.5548400282859802,0.8399174809455872,0.5049588680267334,0.9587066769599915,0.4193044602870941,0.934032142162323,-0.29665446281433105,0.9960033893585205
35,0.4835995137691498,0.1258125901222229,-0.3844718337059021,0.9998940229415894,0.4842006266117096,0.10461249947547913,-0.3570895791053772,0.9998164772987366,0.48716649413108826,0.10545232146978378,-0.35715460777282715,0.9998092651367188,0.49013057351112366,0.10658182948827744,-0.35719648003578186,0.999785304069519,0.47065067291259766,0.10294852405786514,-0.3834836483001709,0.9998587965965271,0.4641042649745941,0.1028110682964325,-0.38353127241134644,0.9998651146888733,0.45769327878952026,0.10314255207777023,-0.3835778534412384,0.9998717308044434,0.4826148450374603,0.11587568372488022,-0.19173279404640198,0.9996569156646729,0.4421234726905823,0.11353921890258789,-0.30697333812713623,0.9998596906661987,0.48443809151649475,0.1482546180486679,-0.3199578821659088,0.9998604655265808,0.468522310256958,0.14474426209926605,-0.35362401604652405,0.999929666519165,0.5040795803070068,0.2164546400308609,-0.05059894919395447,0.9993439316749573,0.3933619558811188,0.22425836324691772,-0.31048375368118286,0.9998220205307007,0.5447997450828552,0.29819828271865845,-0.2266910970211029,0.7873241901397705,0.40060657262802124,0.374602735042572,-0.47766560316085815,0.979725182056427,0.5464073419570923,0.21851055324077606,-0.5714501142501831,0.7290547490119934,0.4722368121147156,0.2755022943019867,-0.6153192520141602,0.9819905161857605,0.5520569682121277,0.19584044814109802,-0.6350890398025513,0.682012677192688,0.49233895540237427,0.2490236461162567,-0.6722753047943115,0.9727136492729187,0.5408325791358948,0.19355508685112,-0.626575767993927,0.64979088306427,0.4912589490413666,0.22838130593299866,-0.6600472331047058,0.9662185907363892,0.5379894375801086,0.19604775309562683,-0.5801678895950317,0.6132230758666992,0.48499780893325806,0.23801016807556152,-0.6114804148674011,0.9210449457168579,0.46526822447776794,0.47690466046333313,0.07847249507904053,0.9994122982025146,0.39489370584487915,0.4855433702468872,-0.07851232588291168,0.9998459219932556,0.5141924619674683,0.6341378688812256,0.2879401445388794,0.9726029634475708,0.4118666648864746,0.6861751675605774,-0.2096300572156906,0.9980769157409668,0.5102201700210571,0.7806562185287476,0.6912283301353455,0.9538397789001465,0.39555537700653076,0.8761900663375854,-0.12292097508907318,0.9979621767997742,0.49428266286849976,0.8110869526863098,0.723875880241394,0.9008287191390991,0.38807785511016846,0.8982841372489929,-0.12378593534231186,0.9627691507339478,0.5560263395309448,0.8358875513076782,0.6246491074562073,0.9595844745635986,0.41929420828819275,0.9362726807594299,-0.3360448479652405,0.9958516955375671
36,0.4810740053653717,0.1161486953496933,-0.35741564631462097,0.9998762011528015,0.4818006157875061,0.09400005638599396,-0.32860803604125977,0.9997919201850891,0.4844612181186676,0.09433423727750778,-0.3286706805229187,0.9997822046279907,0.4869617521762848,0.09482739865779877,-0.3286913335323334,0.9997445344924927,0.46889132261276245,0.09327317774295807,-0.35248368978500366,0.9998433589935303,0.4623633027076721,0.09329964220523834,-0.3525411784648895,0.9998522996902466,0.4559019207954407,0.09377803653478622,-0.35261815786361694,0.9998575448989868,0.48028022050857544,0.10427092760801315,-0.15714117884635925,0.9995834231376648,0.4397280812263489,0.10510005801916122,-0.26118096709251404,0.9998517632484436,0.4818750023841858,0.13811254501342773,-0.2909887135028839,0.9998353123664856,0.4676024913787842,0.1362200528383255,-0.32139986753463745,0.999923586845398,0.5051422119140625,0.21522943675518036,-0.01468901801854372,0.9992562532424927,0.38906314969062805,0.21999920904636383,-0.2636413872241974,0.9998345375061035,0.5470236539840698,0.29650261998176575,-0.1973215937614441,0.7833673357963562,0.397815078496933,0.368397057056427,-0.4183722138404846,0.981123149394989,0.5482033491134644,0.2064814269542694,-0.5475622415542603,0.729518473148346,0.46938976645469666,0.2724069356918335,-0.5504825115203857,0.9828940033912659,0.5529884696006775,0.18105347454547882,-0.6137822270393372,0.6774169206619263,0.4919896125793457,0.24491508305072784,-0.6040838360786438,0.9733772873878479,0.5432907938957214,0.17678746581077576,-0.6017276048660278,0.6457624435424805,0.4920434057712555,0.22391687333583832,-0.5929542779922485,0.9672648310661316,0.5394043326377869,0.18258312344551086,-0.5544727444648743,0.6118984818458557,0.48466676473617554,0.23344281315803528,-0.546019971370697,0.9245980978012085,0.4716838002204895,0.48100176453590393,0.08199893683195114,0.9993875622749329,0.40057724714279175,0.48516178131103516,-0.08208033442497253,0.9998537302017212,0.5082579851150513,0.6404553055763245,0.2885914146900177,0.969180166721344,0.4110749363899231,0.6880896091461182,-0.20572900772094727,0.9980226755142212,0.5087985992431641,0.7809690237045288,0.7349579930305481,0.9505802392959595,0.39541095495224,0.8767440915107727,-0.13066604733467102,0.9974643588066101,0.49448734521865845,0.8111302256584167,0.7727330327033997,0.8941528797149658,0.3856479525566101,0.9002916812896729,-0.12827835977077484,0.9562596082687378,0.557742714881897,0.8311828970909119,0.6762943863868713,0.9560447931289673,0.41996413469314575,0.9391525387763977,-0.337265282869339,0.9949575066566467
37,0.48100996017456055,0.10669247806072235,-0.3437536060810089,0.999848484992981,0.48019343614578247,0.08644744008779526,-0.313180148601532,0.9997515678405762,0.48242369294166565,0.0866798460483551,-0.3132421374320984,0.9997386932373047,0.4845610558986664,0.08698238432407379,-0.31326159834861755,0.9996795654296875,0.4682323932647705,0.08601824939250946,-0.33702683448791504,0.9998165965080261,0.461864173412323,0.08612529188394547,-0.3370644450187683,0.9998301267623901,0.45547884702682495,0.08651452511548996,-0.3371752202510834,0.9998323321342468,0.4777083992958069,0.0985589325428009,-0.13671168684959412,0.9994785189628601,0.4376593232154846,0.09900682419538498,-0.24073798954486847,0.9998337626457214,0.48165568709373474,0.129084050655365,-0.2758582532405853,0.9997924566268921,0.46792149543762207,0.1287585198879242,-0.3062400221824646,0.9999107718467712,0.5053399205207825,0.21284706890583038,0.00019802397582679987,0.999082088470459,0.3859424591064453,0.2148052603006363,-0.24607479572296143,0.9998423457145691,0.5480346083641052,0.2905415892601013,-0.19266225397586823,0.7827312350273132,0.3922904133796692,0.3652876615524292,-0.4142340123653412,0.9823948740959167,0.5517734289169312,0.18939372897148132,-0.537643313407898,0.7281807065010071,0.46886301040649414,0.26549389958381653,-0.5502038598060608,0.9836536645889282,0.5543476939201355,0.1597030907869339,-0.6029921770095825,0.6710698008537292,0.49259647727012634,0.2397952526807785,-0.6028574705123901,0.9736499190330505,0.5493478178977966,0.15127168595790863,-0.5894436836242676,0.640034556388855,0.49307432770729065,0.21891842782497406,-0.5898371338844299,0.9679412841796875,0.5436111688613892,0.163397878408432,-0.5441146492958069,0.6085039377212524,0.48484644293785095,0.22743888199329376,-0.5450088977813721,0.9274399876594543,0.47652921080589294,0.4809893071651459,0.08194097131490707,0.9993388056755066,0.4038459360599518,0.4850957989692688,-0.08200022578239441,0.9998584389686584,0.5056101083755493,0.650653600692749,0.2527162432670593,0.9671128392219543,0.40893203020095825,0.6899721622467041,-0.21334941685199738,0.9977777004241943,0.5055695176124573,0.7801506519317627,0.7458195090293884,0.9462192058563232,0.39013224840164185,0.8764376044273376,-0.11907313019037247,0.9965841770172119,0.49453186988830566,0.8064035177230835,0.7889397740364075,0.8881480693817139,0.3799380660057068,0.900649905204773,-0.1177750676870346,0.9467605352401733,0.5573967695236206,0.8273019790649414,0.6916946172714233,0.9516146779060364,0.4145973324775696,0.9394360184669495,-0.3266091048717499,0.9934490919113159
